67.29481987725376 51.92519989512389 -10.522182606921684 -8.3094978002765 -62.001948498011124 -7.187891692095113 -57.88900812632782 73.610435689187 5.35189975980557 47.63679433352631 -18.727009626392377 10.778675220207054 -53.1319776421984 -4.212600324594464 15.017174135154153 31.11629925791537 -51.61499736617996 -64.2075943990246 -47.5712580442788 -9.05995122755597 -47.882078241362635 2.3643071339402173 -63.958698672397404 -16.48020742778075 74.45254363611512 -24.209459245232345 -7.529427469635594 16.155385372049828 14.783123739491622 26.634154484840852 28.780682929169625 -34.71632860546061 5.0399412758160915 23.93536984191299 55.820280030283534 -13.926637986747405 -10.343882499825321 9.686190016659062 21.726189582862066 -27.429014993761477 -0.363750708696968 19.7244592614896 
10.430615083096075 -22.932253862124497 15.478498621431001 -33.33066825591795 -59.1212947426106 14.278318378973022 27.62990837326006 -50.49625464952331 -41.46354828822584 -36.5254962813678 -56.03532640850545 29.0869822316784 -8.372999964830736 -12.312854873048897 9.89071281023176 -46.835192609443006 -11.046715302708494 -78.06407238461861 -39.228195460512815 101.93917228086674 12.405135704276272 -62.53021776899309 19.63166333724951 16.143437922350724 39.56796000193829 -6.8746988898128185 59.502908745880646 -50.363109591492744 40.08749030376562 -61.90388641314508 -107.77873453098712 102.58632965954324 -11.858651679767291 -68.71446855799624 18.90892716486725 67.75076487744036 26.766801078302205 -14.559733210293308 57.95657013801918 52.057285646809646 16.09523243633331 51.686419090461236 
0.6800972403350177 -23.360263936372974 -101.78521168500266 16.326951617027525 -53.71074340429046 33.00386190639354 -107.35071740312664 40.34944540478086 -21.68790285301913 -2.008578763860116 11.804673688325494 -17.80728653884699 46.97467083014898 42.49065788747993 25.736143194808523 -46.991661314692884 30.27324873005052 -19.459826563936378 17.184982223034872 91.84905515518642 77.94451175218438 -23.51347794624534 -5.771551668679625 -51.71523385777945 76.21184349413517 -47.239978773735636 -10.55691572500905 -23.717136987765027 -10.982190922076589 112.86967589179682 -7.368854750688325 9.073113750166858 64.96282269721705 64.7981528326244 69.21334191364606 4.437079031868285 31.684377142660264 -75.40065884558881 48.87908276974844 35.226662833545454 71.64033875938424 65.18909095885333 
29.462401738338244 -46.916905136326996 -128.36733343214692 -30.99553149614696 104.46734020859081 -27.702860128880232 -105.12359980231878 74.15991197068607 -18.435442305166056 9.577380902991814 20.07217361789622 0.5928091619701398 69.1035082060232 11.547447937160431 -28.763744586148334 -15.739024916392339 40.50002629820854 54.05646483143693 -5.4707966409517015 -72.98846169692962 -31.45231116732354 -13.82279249407014 -35.09567810911783 -6.010519940762112 -12.012775694183489 -2.8634969307297062 -9.997083123983469 -53.64292307512055 23.996385154020537 33.22266763913661 92.93293918982694 17.682746709483045 -137.96871736482322 -10.827087035135055 57.744608504035654 64.1193648303345 38.66574732580483 -10.12788271702323 -61.37991546325133 -0.6002160184178147 -44.89116938213683 -99.00198249741452 
14.732002543282052 48.6855031406217 64.11185726600947 -68.3386236027902 -17.608836875045697 -25.29126369600146 -25.166540064281246 43.978012852163616 32.365674319465555 51.784318855414355 -42.154793790675775 85.91117875854079 -64.2887929401236 4.177728111536666 -17.689050460122534 -98.40266027298819 8.505122691249086 -55.30812844081431 75.96322860810999 10.53614329026998 -51.98626714583065 16.57278786483062 27.051470798431787 -27.604542003963246 -74.67540114115545 82.87303289468142 -11.205092776850194 39.92758621913145 -6.272388156044275 -15.975114609215415 8.844414709770975 -57.245268476673026 -53.71996165633459 5.001260587414679 -84.23774731851779 38.43790210946136 110.99971777456808 -55.35480123410039 -13.613067830321373 45.50059930865497 -20.68021094067025 -30.797170184378995 
5.179007988213292 -38.89414078072889 -1.0047983582996531 -12.373970832609588 -4.552025761033124 17.18570640795777 29.29919821273792 103.82797443718192 -92.72427606816314 -15.323921379395086 -32.27932270419336 -43.33495974761526 26.563209498241537 -56.81844734572829 36.48977750719521 35.22526813064276 -101.80858220804524 -53.33833983297012 -15.11873549052575 24.36628612687508 -19.686153175746572 32.68579932470879 -27.44999132825075 -65.35432932551807 -13.163769447902629 28.421532763334014 -85.14175353843135 -20.62161006902155 28.07615534587671 20.26746418106801 76.9475190767863 -47.246768394985374 -72.52391246940924 -44.88161131826182 37.51430655763639 23.750296057830646 12.240162100431146 20.983823103074986 36.37457381509667 32.5549329928148 -5.61867637780935 8.605339716671342 
-66.45858994115886 -120.5601744398319 29.861225347520545 -33.17172714880069 65.26034590809803 -8.5062712847228 -34.923141535214356 -36.97220059852783 -70.29113656635649 -37.37886569729887 -53.273558481694 -5.488379587857897 -7.765831773840412 60.40690425490997 -42.44748619297658 -27.307532477795274 -82.97050325954572 51.68928466339078 8.639185034743722 28.695922599243175 25.04105221734854 -48.31617369930062 -12.301272441370369 -28.126796707226863 16.38749347223983 -73.18652683647281 3.8240027512723915 27.130977501521205 37.61427033807353 30.466183773649362 0.004704199149991678 -51.48768221741322 -27.60149775332215 49.79001147155837 22.75109311529802 -104.3341861684196 87.30383240167254 41.69517903874571 8.409899358297842 -20.737143386448768 102.83106859098216 26.238376126212753 
-26.67628626164746 28.96041578945535 46.3139464819673 -18.85691355985246 -53.46513700824811 -16.877813308093756 48.0808409572668 0.08071049895399957 -51.95551636315599 43.54155894410578 109.19451402228907 -3.044464035159255 5.348432720172516 7.911386081694279 -61.82592487282433 -6.815329411126199 -25.720953791353296 -1.1956836203510766 1.0429321077719007 -34.722070425034076 -82.5639043967307 -112.93709031434902 24.332097866842386 -69.52228640749958 42.212029303772574 -5.124446697731374 -39.13842648467461 33.47675996467384 -77.155097735405 -8.860627632438657 32.620628213398724 -99.74204405773503 21.146685210361227 1.5626329173868867 102.39735074650913 -38.13154549116838 -19.97453530091225 29.328518704789666 -49.55911168080744 -67.05662259919768 40.73166539803903 -27.1830623345497 
-37.894170575081986 -41.78045248064103 -2.967636530056035 50.662008818010875 -17.89900368859032 -45.32701311616973 -41.997549274605454 -28.14688623045303 32.87826764717191 -20.532968002781757 137.46609987748565 -21.51016769400008 -79.85654888893637 -52.045334120804206 -31.38025611540022 6.266943084106942 -35.10040713524231 -24.9627478038662 122.02479840769041 -52.460688008317035 78.73367978999431 -18.446053196249327 24.330806663531792 54.92226012738936 -22.12027593750229 3.177256396651992 -33.60704485290794 -17.382740586522136 14.475336817766095 71.90439634444097 -27.832873085238724 35.203848461914625 33.105698928435025 36.96970442207726 74.47581970030382 11.08454816779326 9.276333172693175 72.3063604409841 -41.1776016649734 -10.794117409035488 6.176314456211747 18.552213218541095 
-53.33205381757015 11.638155900001971 1.5336297899043743 96.31264626177298 -53.33245715433798 20.75159444430464 35.881210863451685 -10.72180231732899 26.790749798076213 24.01687270725942 -88.27693504069859 2.119090671678751 40.2361454000216 107.99859090816875 5.189232715755963 6.256691470222109 60.06364393680628 -26.270786390746974 72.4161520765987 26.645915771415194 27.063046108847292 -39.830662831736454 -81.75063672924887 -44.14053433193076 29.1460788175203 43.27937801353819 -21.870908885691716 -16.112345382931437 -53.79497374592394 24.744353238236464 -69.02545642538875 35.602582807849984 -5.239779117627398 29.80508661449448 -40.85846233391945 49.74677437227369 5.281368023277997 -25.981996106559155 -39.37600274041075 -24.405703361783015 -11.858497147930146 -0.4915381166284102 
6.534646912465273 43.83897842957557 -15.970775656651568 -117.8593060265906 41.96922272641614 -79.61563962444356 -26.480447366111786 -59.895264563584405 -33.89365995835883 -50.468946607311494 -16.42348655788386 -14.116866301881663 3.2324330449368217 -23.414525504184823 4.109529072769208 120.5392642556657 -58.28084103888909 -33.18304239196065 -17.19758438927227 -57.44816459198598 -42.37340163851208 29.241753031388225 6.910358510183971 30.541014309416898 -0.10361630585204873 38.1865411008567 -40.559146451108724 71.16335135987626 40.0301869955234 43.19596512367382 -17.83623986041775 46.41672220540696 31.42359383768379 -61.65919930347224 26.52331220519484 -26.011490549609892 18.304782076739308 63.0998997045732 47.21833021194881 22.0323389559694 -90.91211158213595 48.84224285720479 
-30.53984682175423 -23.810009822495424 -48.43636810607594 6.599554159753617 22.141572875801327 64.2514062742477 61.16255466344169 -8.322697960974567 -0.9950239168019743 -18.47504101287857 24.612136427569887 45.34390150640943 -16.71151062674826 -24.36637890208002 0.2020876307184979 -17.51966273247645 16.18721692674103 -34.685451592381995 17.78971523075315 -119.09224474623407 87.90721462849179 73.11756582427353 144.71581170617944 -20.50866204636463 84.9266699784764 -56.2765845706323 110.88950554048404 -41.385744087071636 75.0086528332828 17.47418910199636 -14.906675309455572 -11.756460314575195 51.97745617280638 -29.19015444111817 -86.5496323492918 -21.01833712405143 -79.08588528533944 -39.544268766356105 -55.65328308274241 28.942146801132424 19.346181622528242 -31.316966218216137 
2.318760742250129 58.3415404257506 33.1608065244125 -31.116901873360064 6.295148930931216 -13.334990888858492 101.40873271463305 13.979184390800526 -26.570424918209977 21.610378778572628 -5.311390231692854 8.142041855790787 3.381664546564241 -49.92603645475331 -5.912283776617643 15.879239483916486 48.78110616471032 -34.745777126860716 -24.38791676731335 -25.131667767014694 -7.488060276579834 21.329419659915253 16.079744776562276 -34.79773658143075 67.59181029653274 45.6782734900364 83.61843909467012 -44.70240851088914 -78.7270872563394 -5.893247285853239 -71.73776877953168 5.810818902540715 8.274872852552763 -17.179316329932508 -42.511401902501426 25.121219517736062 72.1921809910473 -12.251526706757016 1.6105167671244582 32.342876480798736 7.348721789076474 16.107982578369608 
19.89791055439737 -35.19264583978433 -17.431808237946182 -40.25481449127088 36.780899206738546 21.042468300315985 12.778014955433 -8.273128084417348 71.77543956037096 40.84387108474723 0.5517932722227202 82.52879534050983 20.6531533034746 25.27866074256407 19.121559707935898 35.122806609571455 -78.73268737869165 -60.381025648729874 -8.189066623889637 -48.14467831955064 -14.892001028396587 28.1006277620986 66.87027606840722 -6.136439081246817 64.06800984574343 -97.32377670255477 -38.018907349323676 42.403507377522246 -40.05621483545995 13.618051710287954 -43.69108797696705 -9.741608321695304 39.85703397495837 82.38287496139846 -9.417042456566058 -66.90617198309832 38.672550977487624 37.74419140976308 35.116730314808166 -47.98421293688575 18.49546549919977 -39.56815419712618 
89.17967573294865 -9.329780959355872 -16.876151736959986 12.078002240617272 -18.72072170613922 10.136252970532453 18.995235037377572 -12.628997611065405 -115.86936202453722 -122.11030470390419 -72.77288002219963 -9.590103070863039 91.50205710378727 18.645959947863236 29.05080557790183 8.625898903908421 -0.8332400408810524 70.20320669486114 -24.136034729987564 -71.09516455106717 -0.5625631146857832 5.7425691674396315 51.11703168074295 -10.727141538324952 55.669038702677305 82.46996471504018 12.513771116609556 10.487596000661261 -19.006981443657743 107.05939400858506 -47.421684351027515 -60.030424828864696 -48.12705121209504 -39.8440174295529 54.514607843860915 -19.7768118022985 2.9979621531183365 -23.39818252440338 24.203713771743267 77.4309031640168 5.750432969786164 -7.911166661819481 
5.108368871920597 0.39389448834014573 1.412711066384211 21.53216656894935 -12.35452840758001 -3.451787473180066 -79.26090467937198 43.42549124792839 -76.90315299877372 -64.86393182550312 -65.04768456586253 38.41261290287152 -91.80805710110745 19.424796600598537 26.127325416164343 -38.792323171835044 47.64602324723814 40.031054081308945 61.80981698554916 13.254094464702641 -118.98239020257543 21.926785553768774 22.139933236713496 42.2223621739103 5.996875435681942 6.058137150577002 -53.075490622411166 28.18249357261415 -19.810080368992434 -93.01776025170724 -8.664719817904029 36.1137326058258 -6.317575897509194 105.8046007677802 58.69881475103113 -15.810775879015301 -19.186991471912222 23.553594554891866 35.803714995892896 81.99447175823992 3.0057873614317225 59.04877530938981 
73.80453404661657 99.45408786311125 -31.848313683002136 -58.89724482726033 -57.52723692429064 25.558678302802356 -54.47804691169358 -38.167971468952686 24.136572228790644 -11.439987213929713 88.3236774062297 20.43561855214379 2.8798989147875016 -33.2083074496038 105.41262797683456 -30.68883180708607 -46.39985897227239 63.84416988886692 -11.145168779902654 -19.64061779509459 -38.680505398210045 -98.08718564733016 -5.031877079892606 42.051993071995525 116.92342686123172 30.18206454535939 -122.40281025647595 -28.15639731906702 53.31071857967169 -10.020703707441001 -17.203108637599243 -73.5596784802847 14.56571650506032 49.88878530351416 32.636264843824335 9.549018275626693 19.29162063599438 2.0576537445324865 2.299592241609039 101.51620766448187 -62.02804651227396 10.827327775394654 
-55.27165842660529 -77.01599298159697 48.32427090025685 17.231011480617703 7.0885452729884175 22.091395991701496 44.45878059230756 -51.34740335605802 43.68015873726011 -44.713565607538705 -20.133753030645696 -24.212972681215895 -0.3968679530862342 -30.54763934460341 -9.503690666267465 18.12575845427058 -62.429030159585125 -23.185404374242708 34.04397701873082 28.573331119281196 -1.4257141805320064 35.99490283541386 131.23708779108307 89.75278117562954 -39.30151144713253 -14.685403409561353 -13.260789864250809 -29.628538554123992 46.17100984136759 -11.151247688288361 46.5079531436112 23.376122517527214 64.15534938760358 -14.696693588077126 -49.589453421251385 -142.23591193959004 22.469624165120337 19.751203499961093 -0.6731308027777949 -52.77027946501395 -16.036393224430384 -64.27290360768822 
-62.562385437436085 77.70922398022456 -65.34549087084932 -4.864056762237093 -37.9999315045832 -88.51252077039094 -36.302592626889854 -25.060070843364375 -6.677190248013647 0.3802015454239908 -53.20344798164054 -99.39826342894595 5.2458285378288325 61.78494136269742 93.86441787295284 -5.4910208881706 -78.5121107702452 44.436396373030064 -43.2316057505886 68.98937037110743 -9.283857430980412 -83.81579862737117 8.280454303224216 76.96156433949963 -26.02515062914475 -43.59185067115571 8.665913187851329 -29.129267283199027 60.67378205383115 58.84949646909055 -36.21277989870884 -6.807737469023888 -52.081434091228154 -18.566987073298325 12.821612376675299 16.63426257182971 -0.9111259018821194 69.85682928900988 76.3377170476647 0.6175427114490755 35.3208657858385 43.74364803474155 
39.38571192108642 -68.53400131314115 60.665802802197824 62.273126996280205 11.01156649254516 -55.140922410084094 8.075173154863302 24.35308436664876 -1.284768311669462 27.855986578292697 -8.830519534026058 -3.4208053613838802 68.15678357193482 -13.045582132876 -21.754170317604817 -22.789273233759957 -24.545398164505475 34.29641199169428 -37.36215112133261 -27.005350246537315 -14.454843647269445 -54.733931422831326 9.237995620841275 1.2991590405236373 -17.36143038993891 -34.84061962504477 10.496852075036951 -51.4905511630634 33.90232552226438 13.862919824031597 -76.6583331552061 -38.26410936529477 -3.0055780116666866 -64.87950757513306 72.43669127963591 -1.1660047425386701 23.316689660966528 -10.369425654108225 75.52585914411453 -31.050519098932362 29.52380948348204 -72.20630231467149 
-8.596040886231417 -61.828029987617114 -14.853083010692513 -50.8663653511862 7.090035696461847 -3.181174327564387 -97.53990015845926 -8.630978658492152 19.965349046070983 -35.82213133131053 -14.642205768687655 -37.64652385884933 68.63174269615985 -32.88665643239609 -22.417356177494344 -22.07988212319144 28.870031227154822 0.5827890441942842 42.15922934605364 -49.49633845517494 19.52521385985398 74.72289240466633 115.07022992708289 -28.482540048389826 13.677687517844424 6.637795719842069 -67.17225809889072 8.073057792384256 15.82741995871737 -2.130350184414629 -24.146004308828367 -6.1273711069079555 -20.595086799886367 38.432633732903795 56.74874040164528 -39.56705654791673 -9.738250395554845 80.00283515940808 33.171116802566125 14.591931226140096 0.6972299657557056 1.383294011241942 
-32.030001747117204 -42.48174918235161 -18.203087373889023 88.69122837120658 -25.551491533827694 56.0783106181386 63.96801754262493 15.21016267298649 3.477606067862283 35.44119623376026 23.9896342871712 -30.95784919609918 -24.291704497744426 111.8190214922411 -2.7131674059970585 -28.437913759010325 -33.58766926658473 49.408442627518006 -14.434279308957478 69.3690935092016 77.69496502395066 1.6665783939183212 43.90728160963545 -44.87094356529309 9.196732527919664 -27.43491178188694 -36.76718558837694 -48.09360851951893 22.314958813232288 -91.6602374980663 -84.33141916012545 -45.91705706013563 19.91086858251505 -17.319916021953272 -43.84895934907661 -61.2598726353416 12.23227738446731 -11.375761787746525 -98.20207041219557 -39.88695324692423 22.3185101479695 -69.12873692606699 
16.94144495093503 -49.91041913220444 100.68417003822395 -10.722030619327128 20.759292705178456 -34.04089675108829 -37.286201840126644 23.274603066514214 -41.41530524742587 86.75915410700452 -19.166485437854426 21.568966797641576 78.80193283421923 5.374622096686233 8.036137228743979 -47.606331888702805 14.583979906464334 20.610306409833118 -7.827968193594185 -24.56593386259825 9.420692189165264 25.123403652900002 -18.82414978835525 -4.521745517620889 -12.77841683571871 12.743828611266236 -25.768378188414495 -35.235862071739525 -97.00737889886818 -58.202478451476836 8.746801051383372 -27.35050586236288 7.583629688327172 6.168478341938383 -44.47362011602872 -102.00244930751118 -49.46571205955146 41.33538363210641 43.96143168179503 26.036320119179788 88.89524777457677 -43.48141000062016 
-9.666188239269847 -1.7482155415438378 -100.41774227535565 -32.85868234447801 31.940876278965057 -59.070166498310606 -29.170922857294162 -35.66333252706569 -0.12045608611970243 -8.405620151356505 -1.7688104057987328 -6.402656782100592 -1.8580261849514743 41.43865734710923 -66.30683504972743 -52.22165963391413 112.85687594310663 -7.0395276469098595 67.0140785448974 22.0787382370458 10.007808532088983 28.74378807212941 -39.081965241137155 26.3324232658638 -21.193769770795072 -13.394732528663491 -49.477973077046855 5.927656077258056 36.31386659811345 -30.177457842971684 32.62759975866675 -23.167668351494733 45.19299103128815 -25.1916296423626 44.347670607615854 5.936283080056492 -29.472860961172234 4.824742358442149 -27.88980253914901 -14.559540164954132 -74.1422665644793 -29.227350099783674 
12.485311239872852 -39.118594716723216 -79.84905288017575 58.41295223149543 5.625175694151859 -53.65826766477345 14.374844781237233 2.984983944940468 -64.28357734295585 -66.58299624908119 -6.321746033267427 -20.576765512694926 -13.269588892080954 28.209089422730838 -3.5696739723737614 3.0445959292465354 2.75503446229426 -12.891724601495081 -2.5577535549026376 9.641580103356986 -11.436059893705105 39.62446190469096 26.672216166303006 118.58640227343324 1.011628094571115 -52.23399166948371 46.79062755494949 -27.187552813883208 -38.29119650703775 -4.816922809036276 -5.384046956018011 -35.95780469650235 20.54205867035224 -16.464766928219962 104.59012456881075 18.551321043244585 -57.037485378664464 82.01167781236666 -50.16871980434839 -109.09381283419656 -26.296957426385347 18.52770143366221 
-11.46340497896048 77.99908660663692 -0.6125848846267131 78.39656810842322 -7.89300544850348 -51.55686126510597 -80.38837053466878 -13.159865040854076 5.541612475077816 -92.47105935546651 26.831396581891504 21.760555883931936 -2.4896833619386904 -41.314777492827005 31.739899827533527 74.17553173193794 21.20078941885811 -2.4795259743058704 14.085061983762346 1.065213374422011 34.75868755142772 -21.181712228793938 -5.199740461271576 63.50204022625082 -20.348219617500465 -16.311601164333904 6.131849811104462 -37.930738926496986 15.647568367692632 1.6263757594985053 -58.06422288492149 -33.365500202224396 -16.220432128450177 -25.25559402889327 32.59814588090952 21.941221058636447 38.047500506415744 -44.20174810396214 85.55588530746137 31.61477732627685 8.360819106299083 -36.67448378476792 
51.3010315552697 37.063791802475265 20.148050375572375 -94.71514087584819 -31.78677994735735 -100.50265637705286 11.647891564609026 -76.92574465230506 -37.430330538616246 -40.194374299160685 -86.82943663528872 60.333539822942576 39.95100538437088 33.702096704509806 32.84922130960953 -9.435652440194467 -33.30824372255029 57.49951369238965 -51.71923778391661 26.078512832906974 23.896340002758265 -33.095868765363534 109.02638807358728 41.624260004642345 26.840300075634804 64.12442597899596 71.76095244254353 -15.9347472897377 -23.81904697887777 -16.869270328169375 5.311846107895102 -47.465290399415224 0.23939103973761905 6.406230478888583 -34.329604493085334 -4.681103868556899 26.570767844699827 -5.5640601662744755 30.57772708739242 -3.428301477017921 28.922733894763542 -106.48549238182792 
108.11467557044216 -41.54421948637653 11.802924431676619 42.899040035716574 0.8192667796424423 -53.197306581039626 -59.17223024816048 -1.9463765543492153 18.448965284783355 85.20601432798266 -22.1142099775307 -69.38663402522317 50.26178873550622 -45.71245648657266 78.88847955838266 -39.62567479391903 34.276501067064224 45.99697113561969 -23.796690895350665 64.87192322272766 -9.98534566467878 -27.360096509745254 28.98833132269504 -25.456622591272076 -0.8078441474421288 13.36925210630167 -62.60509286930981 13.88911397500302 -19.773751797256203 -89.38341806321401 -5.062166740221921 31.70790425519034 -63.08050862248987 27.97753033091228 24.49586816613056 51.915020869994734 39.93613474383157 42.535933679492366 -78.563273173775 -81.6940787213803 24.680484206716713 -4.146483473841227 
-10.486221724991319 8.623721706393367 22.390589407195556 -23.146329311053535 -33.71448080565196 -66.32279376767961 -90.240389446035 -24.21039568698793 75.93665042146853 12.530168880780561 -63.38603533712518 -31.356088221691913 -122.12512055366602 6.821705536431765 24.485662820732774 32.30220258132108 -7.017131409908988 -38.69076511382638 -18.94186840146828 12.018431275327849 21.520199791343092 85.58740196736473 -44.60677088921552 33.318370642262344 33.82084591434247 15.85145752054626 32.717192534416355 18.01758087732656 12.985695826810108 -58.41453418379215 24.894264434869473 20.25896491498412 -20.81543452382908 -0.9790436755546258 59.32324273785854 91.64591138332322 13.102136235109441 -76.47795521436679 -23.59431795708573 90.02420676850284 26.780000837525932 8.287828305851033 
35.62306220047668 2.902707960146105 -63.91748596459605 -105.30099915015465 -46.27599690046345 46.93876619488499 -20.7388577438002 -32.07076044283613 -22.625989660469134 27.046121950104 -48.08457605483522 -54.84592167499058 -21.2332592665627 -79.56127927943892 -22.062842635830336 53.04855957433493 -35.49709117174862 -9.066158525510644 -7.749657209737774 -50.2241538990281 7.065018790747063 60.73911422971868 -8.172663106228752 74.7876308900515 -58.8600057820771 -66.73554734012048 -4.420185818286738 56.021925649757996 59.0006630284071 -33.32089253825245 -14.587657794393033 38.94416841933334 -26.384877787123767 -38.87749153889287 -31.717685809590527 67.91484784121765 -55.92016732156752 -44.359378089241595 -0.2795158878116312 -103.57817797465519 68.94075028807936 43.25218399691021 
-18.622664013798687 74.19111865104443 25.709345483377557 15.404272811940372 12.09981553765045 25.25617009091444 2.265421500556034 13.0267602541267 -62.13004026359422 -38.17816723216148 25.085598423470593 -0.3244497136357619 3.0035532992603486 27.82226844243068 101.66601548614676 -69.68662713110484 24.295495307311224 99.9662911152105 53.280789307458356 42.017272562190925 76.28106577876878 61.69417805373992 -34.31503190713359 -1.8822073380546054 41.48271882597032 -47.537096127258565 115.87413042400628 -13.881631158617184 64.10428218329814 23.671173513030006 -27.38574632708983 -34.33343529168899 -14.726139847266037 27.118552730092333 -19.447396563875458 6.274832068936885 15.358641836337023 -39.787707143816576 84.38280625419128 -74.07650316460375 32.27952569104163 20.732149161991135 
31.21172910705031 -97.36185351305782 1.5718337163712186 -44.633365470723284 -28.40786546156066 -8.982936555778185 18.079940114293198 -28.98330845384176 56.41003818653403 -67.69891405530521 -5.766476548636705 19.979160783984923 27.347089125919116 -55.195765721165145 -14.745131502148661 44.49607445630505 -55.003198592650726 -47.95816501376362 42.40333319996282 11.131842593864391 19.809947619018796 -63.91522444339594 -24.61622164762571 32.664535929000905 99.31750413995317 -51.19731455071156 40.531296636418695 29.208016266582884 36.44810722788805 40.253433491985874 24.550250446931376 -2.0790469057464827 -12.27873450251979 -9.107193782356852 -9.23264719304499 35.461599458292916 -10.481944693143477 52.46634251714284 -3.049523347520207 26.498069696034637 -5.064751647729143 44.39771439973671 
71.14911167150424 85.46479437328844 -99.12724408939637 -8.823356773803761 -1.8417213021276688 77.54807914374268 -40.86907544318398 33.995653444518986 -82.03158265346944 32.239868084156 -87.96952148796578 -62.60417851968758 12.037215662385709 -42.40626979622023 43.979123197448146 49.49190397323169 -19.964344137988174 71.61117099909099 -12.855933158345332 -2.569428520196109 144.26003090475754 -23.76002573548571 -20.64075747879443 -43.29127073389593 -23.901499476034527 -58.56262012276414 -4.049187302649949 74.72322442155668 42.57432965522309 -36.887413261342324 64.85525432300906 -30.628677387785725 17.20702398749099 10.13671235058682 -10.025376553689156 -92.70038365851495 -5.514942814643588 -31.201271186812033 26.883093259276805 97.05069467114973 18.32304702790937 -13.808645110781345 
-93.08264779113259 -24.952330892902037 74.06067658979255 -18.452078307647227 65.88856995380917 41.74842083859297 39.816852001371764 84.18647690553176 81.91012262382839 -87.18800653745244 -80.87558341573958 36.51303626620575 16.0448971158711 59.00932938340609 -0.7708563527358624 -24.74138669465407 32.07809411220891 30.30785099185205 -14.262513746285933 -40.42598240019875 11.467341740177309 17.24383034795601 -45.73706115152463 2.2228743027662787 82.86766706760456 37.060867696793096 6.310619922431139 49.551997908868465 -10.258048295048054 -33.0241625839586 -1.2499750695976939 -8.206402615812534 92.71177119907559 64.06939473138195 -13.3519709173881 -37.74665156879883 -38.16198364546854 54.572695696175856 -91.24027913273024 -6.945789919686661 10.96349006808853 50.34073894730565 
50.12530545765392 40.25737544543245 40.14631571972626 -5.650114666108435 -11.056825669666475 -41.62171033126543 -77.94712943393753 14.635206354196283 -0.8953646717320983 -62.06165854847112 8.522583551121281 64.50682608689924 -54.1450443476534 -24.14341881548411 -62.542596166268346 -7.858298362217438 -17.70514192898384 16.849930592365645 25.14426184392842 3.462075375748485 2.4831380199168454 23.19092362408002 -52.76536150366339 2.2751943447278196 28.835954624825032 3.504309961797841 -27.363859839722465 1.7825293114679202 -47.03935307125388 -8.95491095452927 48.69572496271714 2.4455091584849504 -38.83291399963927 116.63495701235422 -39.72160101065056 35.586162523782576 21.361233510636698 40.50283111650699 19.668217249972926 60.447568573380394 -13.59081205400052 -71.36802281066728 
18.346662968202732 1.0005478882499317 3.384063600751487 -76.66906455807482 7.097840398582397 114.56821669098365 6.678290229678717 -55.32809940408482 33.66694508224739 -16.239382134263924 57.76130317582382 48.07854054103478 -84.85155138345209 -121.71225900878662 -72.45150505846178 30.95493705058273 -100.55815047671595 -25.18180093186335 -49.68118561256354 -45.14428203988715 -44.71960036770154 -16.03060753940484 -64.20262391829802 -59.94527220544265 -15.714454956038455 -7.711348907418131 16.080101263393487 2.83084848435385 -38.182244730398416 -44.44579687065206 131.2651271578211 -53.759854197133286 51.261754571795436 20.258080237346004 -76.64306662580657 13.151621874029491 -52.33069991768284 108.40905136035646 56.193012846386324 -52.101483049564905 6.827847893709952 -15.2557230394227 
16.642344096907728 55.21295333128218 -30.616671672745426 -121.83555523069337 -8.56579482430224 -78.44362438229358 -12.573432547996063 -10.705328929489442 -8.262343393441062 7.583586792158251 -67.5141674671308 -46.49869797093368 -30.197987614803317 -71.09274999297843 -63.83275990579602 45.69592687110886 -72.95965168196177 -19.457819884770295 -22.47323183184825 -12.22125827118466 51.484014018148045 39.625360763126274 -46.336345152412 55.10464158845502 -10.741582699085528 -15.464247089469948 -44.82707023500253 9.311274895393348 110.48308598170567 3.591157094007998 32.12507244047982 47.66633897443581 -76.73135906091089 17.738073389631225 -42.704952268085385 14.77041672828567 -23.705916964086214 13.973081590449963 -39.028578771517495 119.72050347633935 -29.852869597575825 80.58101919667243 
28.88933262052311 3.0000826524238446 33.864152110088746 -24.886873345625556 20.08711669319224 -97.92343968628245 -27.539649740926205 78.44436172688867 25.579725519547186 42.68772658745336 17.731425421991833 7.039577858578088 -29.282354257041007 20.27704131298181 -13.125752048179557 -60.459766934426376 -57.740517303150725 -1.1595329596499344 61.83426869724875 -24.560129607082022 4.317173765872768 -56.28666522291238 -4.073468012391327 18.387149556326076 -0.0743741208612067 22.248197542208537 -48.039908368821386 77.72664548245035 48.397196544840476 8.1428175413801 -22.097628417604216 45.64723023042005 41.21555851660179 -26.018637619505167 1.341842451319237 35.59107164773799 -90.44735149746178 -21.586717140722538 -111.17409163076152 21.842123861893466 -22.41685601272865 -14.678853693172732 
37.765747571835135 -47.94649833128378 -21.853663756068553 -10.224896511353439 -53.17018226795035 -58.7491313372692 59.60554299996766 42.86189559501323 27.857000665581857 -15.50902913702822 -28.666433147620577 6.670543006356847 -42.997185279361176 2.060053699132083 6.688935244865573 -63.52031248561275 30.212881927484172 96.19421226170375 -0.720797151710835 21.922067868382364 33.25312772533694 -20.135569061520968 31.198346812792646 55.11483882698214 4.6443269106862495 2.119613101099936 38.89709712877597 -24.588658110422827 -33.89816003126606 -11.875596215028969 -81.71046476227048 15.25018952923397 -14.086325200388314 -30.679965432705725 0.5358348703068878 56.04142209708473 41.42741327470027 -83.38780799469932 -24.90207012720524 21.24376368821183 -39.950982049767084 -19.80390275848148 
-4.022633018642614 -42.426430876280484 -80.99400271584973 -18.356073636433354 29.040680225702626 -74.7574960316934 -56.18783397872502 -59.80133600129031 30.114325728875723 8.611455731578886 -16.246726382489612 -85.15693489989766 -12.564540767494627 -39.822450549006234 -64.01073294859482 -62.64249987131386 -31.327821915458554 44.035714625736986 138.66318144704837 67.94907941426388 12.117723832320353 13.138018673892049 -45.875570368862554 -75.27034155814489 86.09251392965507 78.24156200710976 -62.84299080610862 -65.4649651133404 16.646553730463406 19.649423656800558 196.59648610691008 -18.0532998732549 86.66970681365221 -34.0051850187678 -83.28119959742638 -82.6213519559551 -13.308404040351434 51.37551801549563 13.253577697243907 -10.585100575575957 55.0525685361414 40.16034849284987 
-13.70864683072106 3.3058765387155735 -6.6707078580519585 53.38370561075209 47.59152114650124 10.097381920018233 -11.8429082898099 -61.11021426815085 -72.83385949909231 -61.35655321441726 -37.56824249335705 -68.73848896466647 -16.32285783622144 109.38014919797007 13.666185481747183 89.9355271020666 -16.22703613873805 -110.41905031276701 -9.767634819560119 11.60938747501599 26.548513314290368 -7.525450483637049 -59.542246084681466 -54.722555180075 78.91729418044675 -48.30399100306257 23.801943101496164 1.8748014072324333 -23.21275076622087 35.52113741243478 -42.313589073967506 -35.50940821089911 -4.092569202563612 84.97929815949826 -2.3251977118123985 51.1702686072699 33.279429676332555 32.73111647291259 58.725867158880725 11.829493963315361 -52.0772790767432 4.479129724581301 
82.46586510431142 71.61515741840341 41.01210152575843 -120.57818621886243 -5.049705283395288 5.138872176776159 74.7413696004307 -21.209931899899058 35.9061525804499 -8.405669162979315 2.044534436808577 -18.954951132653306 62.449719474731154 13.935865192307677 8.415748291057783 4.226395307743501 30.170095656814162 -7.551272311739025 21.934164037543013 71.61995129992475 91.32692744435407 -21.539939896701227 -45.98279388647625 52.64418082960081 43.43183792750894 -31.83290289590509 0.5912263393043691 29.43538066005504 -62.603369113089826 -0.17510964313254127 1.9978662432535907 116.47556234638954 48.743344560682544 19.195000244729663 -53.75145048040619 -8.248167374594614 -8.702384612754704 42.49713568385084 -19.66259545279016 -93.92669832754409 -25.22713654905411 -45.87559792729111 
-108.10510270799986 -10.413149708303605 -57.18746954698421 -6.633506461754599 53.521768389143325 80.51700374200797 22.79468210042085 -5.971523236665936 -5.920148903487983 -39.303950880215275 36.97056481043664 58.69642506572429 62.694891297634555 32.619300997550624 21.111806993454927 33.32376879628879 -50.98371967869446 105.17617466519202 -68.6246764519666 40.8822265238067 -5.7725330449230565 15.265032557144078 3.5905010255777072 29.252566334421328 -3.5724354910420257 14.094476619294237 -28.006410122546292 -20.997908548683593 53.08641430973714 -9.69571791761929 -99.60951172433388 -0.3750166006770133 3.6591684618364004 90.88976181412222 37.640742153917685 -44.42055703692916 -30.163517095586396 71.74944261059439 23.43722843179685 59.63208190805773 44.730870032404546 14.689310739058776 
-103.66608791956382 -16.475839784617765 51.90331279969209 47.19098471752499 -47.87151469039627 -45.49736372188634 -67.1772749007408 -38.194682255322704 -56.90665983043276 2.0128338108853834 -55.30868160808309 -7.829466716561758 -8.245293902647918 46.57855787871924 26.34117453059394 98.3068499641581 -101.85961606538979 1.708540816691973 43.3194868465632 51.70249875872225 24.104849718370033 43.226332668813576 9.63612097230507 76.80175943397897 59.50621047478728 -13.351848682463354 47.24828582206379 -3.5658745320415903 -134.13044810982726 -21.414666893571926 21.75692152494966 -9.023788085178678 -1.983695214155749 51.19963167675966 64.37503404531512 -87.01240667143496 40.84691107577097 65.85550063166522 11.036549514821091 -28.11468371756665 -40.54474387086412 104.9352039656177 
-20.687768000215424 -41.05624136544934 43.50720925579948 16.450331111024678 101.46943206713884 -9.886568116826604 60.510537554144875 -3.8097093949464695 11.551135357285354 40.76198467742942 -33.91497226321932 20.67735291878632 -6.753477848072082 -77.30078889412131 27.35160766009236 -7.797108466589735 14.755622172719944 78.02395901930612 9.797438586486033 -18.20263866122781 9.079697522060556 -45.96967319395214 -5.807667171935149 -0.8488506729209668 -23.646429461663832 -43.93827073939351 -16.095137898913308 77.16817347296842 -90.40174475341259 40.43078308537575 -2.4354623354350418 -77.48988739854502 -21.83617703782934 -12.600469069175153 -41.4412465416195 -65.09706573319323 -86.42080737816073 74.22250502530589 -67.9482280098963 2.4357516807934094 28.07306816135273 14.441345397319335 
-6.131602064722243 -8.203325659372192 -85.97506227167851 32.14368122065 41.496240366288845 14.780357105389339 -42.454035944631634 -37.061178047766155 4.686585106051107 -14.608551924887665 113.11915482082053 12.880597105413434 24.713162665799405 -78.90752180941213 -38.29860131095458 -37.66657595688998 38.92167242154823 21.361417548445477 1.3870885881989747 -48.2525813185689 -29.340339768419454 15.620599271815573 51.696526953327506 14.292512121060012 15.743289838867902 -31.62535385921431 2.53718459793631 29.5985815977318 22.045110269182267 -29.5825795410194 119.12910047684949 -12.41217831686089 16.738895690579884 -22.079985872199824 90.93588847895667 -34.86835310832509 49.41583859270538 -43.56503635122631 -11.649117935881295 38.03720361687953 -47.13026293592431 86.50278761322282 
21.465278409141035 18.213079076326096 10.589209571540538 -5.393091049091489 14.102194466505665 -35.45915112318982 -22.522716235291863 39.85743340914244 12.426021398609 -7.631106257133061 -61.82987381663759 -4.14335809719237 21.831465695131286 -6.778151309948749 -23.064642582186455 -39.80678127873614 -7.36267122300901 3.858234132844058 -7.3550010320112005 -46.30026731588693 -24.820472767179368 6.685764954747083 -33.524118354119146 -77.4159939728836 -6.756396712417559 15.363000971988141 2.7406081061605323 -31.88038773332697 96.11873954451046 -12.097445581926017 115.7782056423561 77.15303093620479 36.94884781057168 10.365377952213604 -56.442753410298366 -28.90361978885196 -55.95159467501724 9.866461099668236 -26.62472164144879 6.382366950265004 51.85150193538776 38.610146450909184 
35.09031787887312 -16.092296217782952 -79.80425398609957 63.16014032924987 30.38285348038779 -0.9525920278032107 34.11444239716014 47.66752036203624 -22.315510348129195 9.636054283553095 -9.633912773571655 -44.766821385212324 -51.871902021745775 -70.70701295160791 -23.31838650179093 -28.96273510833235 -8.345265927227038 36.383880419556256 -2.073294110805493 -67.13934491841106 -28.92990926414969 9.686907374869163 26.57584980138442 -92.45992914693377 32.8680588714824 -66.82718446666973 -4.824622664995767 22.6629539526473 -5.556949227532352 -5.725164397484447 10.63949353310279 -4.777820274774057 33.32223271101795 -30.926142610725655 -73.98977434129111 -23.913268904359782 40.863195385973654 17.444664520031587 -22.628184398152094 76.0912383392095 -98.35132305158498 -23.86241340184313 
54.15952341235921 69.13495396293115 -40.268700987060214 -61.82904458165255 -33.06775216168424 74.18739712046221 0.3232431388113756 -42.69517523027036 20.609551672928617 7.539453277401516 27.690205053531848 -9.415484263753031 20.593256868567217 -8.277336899066562 -58.85694657888456 49.22148491087517 -3.7808630551393136 59.44469809156199 80.31391032239273 -38.294785509368225 -54.21147921625095 -71.77081181271599 -39.770048064584 -31.099315199822627 31.681051495067663 -13.234035844218662 38.7278068241592 -28.53675951410092 -1.8710699939938125 -48.72726359838521 -10.973880939250598 -72.19670131651976 28.0416407002601 30.869044214591796 63.773241659677524 42.20816554920855 -16.114851359272322 -94.70292880931008 -42.54783950632642 10.26949336324556 -70.57976416086788 -27.622031406432228 
23.469938207471372 -27.794629382244327 34.09034438423091 -47.45653895582746 -74.0149357937165 -18.473762335500325 -83.36821280294889 65.79710454527257 20.230228169110223 -12.609625947680495 -34.924129644953794 25.13588113931793 -8.864780463450488 93.63875975272242 47.57972085093114 -44.31009751609998 28.26258100518856 -31.1652880919945 -40.79784790523617 13.175249332742249 7.578892906913145 37.426020124434764 44.53061197654411 9.625649428648844 18.75886195000956 -6.997113007174113 -5.7074423815017745 -9.154835623976581 -51.28246410103197 24.48980490425183 46.69954468571892 100.94685412852292 37.813198079794766 -36.00050902486502 -26.871573620127386 6.399990444223403 13.895085469476307 30.58161721327786 -19.8710777070347 84.40063945582827 69.60223774334938 13.435097494911275 
-54.67586548246088 2.928535530758634 -10.585600834403303 14.045849713173917 -26.055247074801468 -21.765148333839917 -20.94058406865809 152.30768325885046 3.236342889736894 -49.85485450423946 100.3579026624649 24.41755646444936 -9.814264048689195 29.34734352117103 -48.70080427016646 2.072721316984507 19.162571519482658 125.79735027575383 7.593773860606008 63.13021534740596 -28.2423317056677 123.94135854214773 39.6536170948202 -29.45906238960836 18.669812239963957 -79.98979888648219 -0.6297779296163133 58.761894796599385 -99.3261746016819 -20.793321704386507 46.5470205655046 103.53536660750669 -21.060161927178218 0.749675523986251 55.92656434697103 19.744185220278144 -39.3207758760278 -13.638441283430932 55.15919103180037 108.49512304952778 8.102147293819458 32.73947903830154 
-85.50730893171631 -43.87163588974051 -24.6299974916007 14.465166115531034 -21.7535475799376 -4.873963274023769 37.18464118045289 19.722070946879388 21.784800949381015 -53.34780399827044 60.159189167805124 92.31173983352154 45.2397193442082 -11.350063469366722 8.122808210962184 -59.031652305042364 -14.34400120891644 -16.190992205451032 -100.50554757861347 -32.844138305629414 11.93075919299578 53.16308262296881 -25.526486124255868 67.06262165947209 10.507741292705802 -29.567510384254845 -47.4736156366126 19.91230228717744 -97.24202555189073 -36.490042444156245 61.35118962326391 20.075728029895117 31.667670347281934 3.453362769428065 -20.628016885820944 73.27885814125719 1.1082078829108024 -13.588318848051111 -11.93418981066854 4.924963420932697 -73.76308098019327 39.212596586213756 
-15.976518043925614 5.67596203590434 22.99131449539091 16.572699169560796 -8.755057612158923 16.02701411959746 -37.05139676016521 -21.100420153612678 41.74667640071129 14.438922672890662 3.0359038046563023 18.5513254263777 84.49864186684057 31.188572827634587 5.477140789757029 44.86719959768331 20.718046217938657 4.744467988396686 38.12866508848027 38.43184034637234 -20.420014679884535 -11.269960339077794 8.052754057649697 14.493076277614058 -31.518099010061626 13.549195057160114 -13.21774518321268 41.49728654699368 39.03190013751035 41.10391674041711 -0.6613578535205782 19.064446767164856 -13.260537538324218 19.677500455843937 -62.59203645676403 112.68596988482436 -85.38308923204 19.27418411372301 -65.68805595647251 46.30924860888798 9.001201344308873 16.59683234348774 
-37.44977084533419 -9.855368719835875 -14.71715197291602 22.91101305019964 83.33949097607801 -74.09744577498687 64.17216039313949 79.34275954001969 -74.47290041138362 -55.27913465388523 76.97777361909378 -73.79874647317466 -48.1431020555573 32.03230742805636 -23.223154229388808 13.922562788044074 -37.40155285362529 57.250902027296874 2.4651179377464163 -8.765626014874561 -10.607804867804258 63.568094728860416 1.120924437938465 -9.700675135852576 -46.802764225945594 -40.300043567629785 1.6739872904495845 -51.41732599497212 -105.33503382176717 -27.745775287180688 -16.84560667173296 18.264803892548507 -57.62172437628477 22.321476316310076 -8.849767122155152 -14.042349436947202 38.45319446759118 -58.68324364270851 -66.26109160626226 8.13500747601133 -29.318369231239704 -43.09175346010613 
87.68107657965027 56.74113108124999 -61.816421441145536 87.5641154854933 -23.565972514411282 -39.26778453222944 52.78103793614262 50.27741452730172 22.532147009007172 50.52187126050727 64.2866543251086 -5.805525125310655 -71.8411191036464 65.3352166675158 -44.31934409680156 126.40172468495051 -34.18028471135186 58.832435172599844 51.93471599565324 14.780212049367865 25.677485871459744 34.401546492457996 57.52398391426437 33.13958229023061 -61.63488267335919 32.39576968950305 22.212062729081612 83.91006116926853 -32.053921185917716 40.24966714162322 42.07682206677983 -25.541088239643596 -101.16823602043414 26.46871046205674 -90.80625975071332 -8.909031037047448 2.751308884227371 -41.54392297032387 7.154222532911503 -83.61006912576626 80.04585349795826 12.473681846247278 
-58.633233488722155 37.3576678198221 -22.470665291919836 -39.459018980354465 -5.5492917875273555 0.4700212565858446 -84.50920309392961 -59.797504704909315 -78.97027726506988 -63.3188287623163 -28.36848550266983 -26.620123607530324 -55.42235137510384 77.68896952150939 -39.114156273522134 -56.94684064934228 5.4294009977663 34.09272831071348 -19.60891814422469 -2.560509289453455 45.67648547302527 26.388156196406527 -0.3194477674220242 -3.9650566562391676 29.231371658873567 -88.03889887220105 33.385261942459294 5.723417974352674 -33.18352314891495 -67.82233553661149 71.64663006869104 32.29442065615879 92.50450896112058 9.219238812999633 -43.915922601488454 83.70808420365142 15.14882740553687 2.1022273171884462 -1.6196678492573242 25.449121253258305 43.64564827059075 38.34433772635359 
-50.47336178816352 -9.253710771964396 -49.089944704667786 -1.5363771385818499 8.977364487421994 -82.19145222548443 -26.58481752975518 20.826242295614804 38.044412150593004 -57.6913199047988 -25.889703989917212 -39.29637768032615 40.31135700417838 -1.6516829333122274 76.07086093458558 -29.843605649221317 -76.22649177145205 -21.466196255304926 -68.87974235884124 67.91013871382457 -11.375194343652856 54.2045396776399 -4.377423361379177 85.25783964019001 24.502503271633486 -32.90749085435777 -10.757819132429477 100.42990272509937 -1.267009327603143 -82.99676655647949 29.31456536276901 -20.093645340789198 -52.51737449193842 -9.23529136321768 59.11492145388145 -41.59417685266419 -17.602664016202173 -0.824456165611309 92.36317576120311 30.470593489936583 -47.98716126276928 6.172919637856223 
30.10624352050557 -41.615768701886516 20.42016050225629 3.7413256126631773 49.848609015626685 -115.92753798525646 20.596135027709387 7.178782012301159 -18.499957201416564 44.67506622621804 -39.64926466993898 10.571132952902223 -1.7212317563730586 26.924500249463485 -8.738604682752484 4.530292293218818 -61.627905264914645 56.20832230596421 52.54707397081551 -73.75216678752108 89.88987764806211 9.045490219964273 -53.86214744151345 91.78355104954163 -10.383545831946167 -29.50273171866007 0.3953474709078796 32.24063350774485 58.4059057152292 13.972565796678095 12.60710502377437 7.6567892288843815 -31.261707314901308 -40.044346590243066 -21.444922875774715 -26.946456365987938 -1.5160420447833043 59.042892276615966 -32.17964113872295 -51.13084015509588 -46.687641469390094 -58.155243878646104 
12.357081188011767 62.59100916323436 -0.003581959568469101 -19.17559231942811 48.19260303588106 8.719504551611324 -58.85421024120297 -16.459474312863627 -24.204648271779384 -69.37223794092323 -154.0143004876712 33.85238099036661 -26.05068448944148 -29.768935884064977 18.83777976446522 6.319747717515604 18.451652012416513 50.33654917488843 48.95820283071567 -65.14739488989589 -33.952818853827836 -22.146472172506105 -99.45086055765573 -48.22917796126727 -17.37484330964192 43.9004623581428 -97.60091551248557 -34.21277528947361 1.7651596823970683 13.628490140017817 108.94157861081275 -9.807452259692413 -37.89652404642524 -0.48878461270554074 -18.87868188552198 14.154649062086493 85.64412655137168 18.380489368327307 -81.49453605036157 59.66170195692309 -93.53281546377535 48.79731673241777 
-33.90835625118169 36.23401371543506 12.327192321573772 21.429156248560776 -11.067447340548775 -22.86115276902072 22.643681937703523 8.387377399249557 12.575799266469502 55.45874912707094 68.75481922975054 4.434071857613876 -81.57161075065528 12.796905558959848 -19.2383801523675 -8.815744319424393 45.83132453988589 48.586377103406846 17.93446868695508 -84.97984442634353 64.34370657158766 -29.18002270090106 -12.941706413616071 77.33301636965601 99.1147262960785 -11.320923639543334 -16.26098373102876 89.0528346998154 -18.698533527345095 21.990438576022235 46.9754363775817 47.130323694001476 10.340503904717647 63.58758888654109 -17.286084248306643 7.48074672940317 3.2292153558521224 -9.069171604216374 46.056470689693626 7.683147445939435 23.909661640697806 43.00049541339904 
78.84839763774343 -52.602965055138604 35.628427870931674 11.111111060058303 -58.30885573753195 6.413688149591046 22.64244512685275 55.535074542140094 31.246358685824955 -56.23802467696609 2.509444467850957 34.25071332686919 -32.21638707198491 14.02248501797541 31.116234354461135 0.5634623979404688 -66.74715145435336 -22.23980620245536 43.099826880947916 18.079364234465086 -59.099805282041935 44.38389408948607 27.807246842509826 -33.86213462126369 8.398438210653843 28.152693070663627 92.1438661917846 -46.39224549145934 9.766825404997286 -120.33491983348246 -66.32907277987269 -18.694803280334224 -24.66018738369233 -91.08571596000668 74.26866516593488 -38.11499508100798 37.635554145988756 -56.130707595310504 -33.88954552618316 88.7713365877369 -75.70031359559725 43.614404844144474 
-58.87858547984372 37.991464285247076 -1.0246807211476232 75.81481736198991 26.7201808742549 12.944340143206189 -29.594236466154687 33.16252524974697 -8.487367418918327 -21.907278935741154 13.04215728097753 -14.571393779204493 18.387955233473672 103.31219658777839 -5.247105047098822 11.832082447567103 37.99434720780376 -22.362845779130833 13.916827746634496 38.435902453906095 -43.51452043466017 -28.657897397076137 -25.76096375486832 9.61829492831481 -13.209679981163317 -64.36591071666078 22.494058618483233 -91.22522033211423 54.41571396342545 13.41443115039623 -79.59967898846364 27.82115735981261 14.076025238957882 41.546399720661086 48.55796368984612 -38.64027747874267 33.66470616945752 132.42724308661843 4.042369734880422 -5.315497969790496 -61.92148863817469 10.19875691561115 
-19.119720417721837 -44.70254986302675 20.22000322301959 88.45744812216931 -1.5992557514558956 27.089686774361525 44.187343254460394 -70.87051014991046 63.4699860406865 20.76409199799289 -26.076103715233412 33.02537316322495 42.649859260244874 24.946551115954584 -85.11437953907405 -16.430672759693643 -59.30907176609838 -71.630649245595 -35.819528793650484 -82.9325307371017 42.10800669547607 -30.322342269600266 -9.043038815026772 10.497013778167625 43.38487920254407 -12.258630184847517 14.509010926566337 47.70793711405483 5.809445494462763 18.839577797613956 -28.77973911396977 30.64514610348863 -84.05155261360245 13.882788561287764 -42.33552608396497 -118.9582993380056 -67.40007833793251 27.899675686107628 64.33838423277449 -16.175899230857567 59.395894390800464 -12.272739479626129 
-54.931724749880736 18.90924107141211 -17.117161610749406 -32.0136534704344 77.11944344304936 -39.4095377548258 17.81060495711784 25.109064668069355 -78.78057877643244 -59.13046245327104 24.274065470137508 -4.596824453208814 30.879439693829344 62.55554315635276 14.072232080238987 -52.0836561901398 -49.85970918269895 3.835160832145194 74.70800686320979 -27.453248182965602 21.831074395882737 -23.00212979473008 23.840220032900692 112.9277604916258 53.66199903797222 22.846848683607508 44.04461640146332 -9.959894304665028 134.71894368759843 -35.864502813808194 -45.57799765399357 -25.72721672461655 136.40611754683138 33.28777650197748 50.39850655596978 -18.56415481555604 6.871500238858834 -35.43969092154242 55.680981926224945 -10.399908501992506 -24.890576826341338 1.1362256356804834 
23.931033882180046 0.5383304699428927 43.39431324451389 2.669384705715881 -6.3979814803675765 22.638411083071222 -46.16064053344752 28.827296732890588 -68.51512007071209 -97.6371189369714 6.015068288469802 -13.665750402273849 -33.60081161372715 55.02524913874094 93.83747386735702 28.81267471840328 -57.923740105654275 12.850296466982005 -46.41827879438315 34.731912020079484 122.65371248009446 46.37494480398808 62.26765288877958 40.01180656934353 -29.927829958574286 -12.537857374571685 -3.654236186686965 19.26342273400382 131.84708324912827 49.78354191730026 -68.00412902438255 -67.52975564253376 47.65447438636492 34.975363833435836 66.66832240020979 47.67960278599923 1.0239662088346115 -24.114690440130683 -24.314216716594974 40.790213420121205 -73.35870250629797 -17.824747741955946 
21.129811787275123 34.1094969023578 -12.497179051273163 -16.1764201424795 -35.45413243327995 -15.091268354687989 31.812082784509887 -68.19801082138963 68.88186504709434 -31.60763133871398 5.172246828975107 -6.6159258446780775 20.667257734985114 47.82333780434086 9.333523887690546 68.9017147806824 -22.46883141212731 107.18105902884564 54.36421028239862 60.17599885813193 14.095399374931326 7.853143554122487 52.33379754209178 43.83450176501031 -78.49799125774881 -5.89103106561093 71.69868909815762 -28.059985657266928 -1.8570790654788587 -38.040862971988304 61.33370570884861 132.59214836581066 60.561403530100826 -11.963501834068655 -42.8770604305759 -53.007896619354426 -61.57115314219319 80.51648830168685 -17.078504266377166 18.05698371487006 -17.779038713361302 8.373428171280178 
-33.255799037880415 46.08631281893335 34.997687096237236 56.956529490047295 -12.4551335580826 -81.15708179872041 -28.78105835806784 -61.382059373425236 57.76050651669718 0.032072450697873 -55.58532893763383 -55.99397246340187 -165.6636320239898 20.937601786645335 39.81022628693386 -5.525307926712588 -24.029219742756702 -33.474007352054954 -127.01120885518057 25.56303444432088 -1.3924636884390944 47.07267749039796 22.655014969027157 62.62324843394831 -50.0407194729685 63.93206713734548 25.827674639631283 29.269163914505807 -16.71291554010649 30.101502689291006 43.26539991581552 32.26078007456368 -32.366039021958095 -3.6080882320155836 -14.840058771543552 -73.19835071031405 26.859222640061166 -49.569020617930946 32.426049481205844 73.92306639426099 24.182872080641577 -59.26036208583155 
11.706047637533707 -2.203006168268913 19.70383681542688 -10.029441924089967 -11.077451555927276 51.21671062203748 72.6724489802115 56.807078858511396 3.5519382000048183 8.395296984790464 -29.373214095030427 -48.626439540819185 4.404679400979403 36.96862121805243 -0.07691200575844666 -11.559645218887818 -73.56140437501071 -25.515732648181082 87.29431993359094 51.97041694829366 -105.58842272426952 17.249515914135248 12.784623195733749 -9.946432690448205 -2.1101131520578904 -84.66308154940548 44.57190019943701 3.6998614321959566 -45.00102433435383 -77.03361014018628 -6.462849953996539 -35.98422718453107 28.27758800134468 -9.019999940172323 12.91861043078586 5.069463670970822 -34.25460874447716 -8.58950047512674 -73.99396102460834 30.955008265470077 -14.970914600069888 -34.690462632854626 
49.96908429920538 52.279739327710594 -74.44214858436224 -18.552435354282334 98.5875532347129 -32.962774657829506 -2.399865496710843 -57.91156602723444 10.763999990450714 -41.57584512895071 34.13660358100162 -17.175871624986343 -21.586402910681972 31.90490882533455 -88.94557353749103 9.004692579907907 -107.20894865008945 -58.037404791287614 3.932426689183649 -4.297792220675048 -45.24751684341094 76.39565399650844 -18.45968647635459 26.674407220845307 48.52173092776753 19.25337119836849 -13.69201753314882 -7.780839883407723 -66.5002313594248 20.81124522141876 16.625741856800815 -70.8715862927791 18.062681046976444 -45.1459575204417 11.529733621546523 26.435931028876887 -50.132200895775796 20.272018596368426 -50.95765104291223 -63.34808350864512 -15.12433455398748 15.775558542995151 
1.981688003870674 -55.344833464809696 15.131961576652474 57.778053654571494 20.945962940240747 -49.10759935462963 73.68453647590543 -14.768733556693732 -6.899902497599298 6.534101936927868 48.4047780962347 54.896753390190725 -1.408870666311366 67.58545758833314 -12.20222666600978 -23.74897096480336 -41.00951888751013 30.46411577364077 91.13022624091572 -5.825528254405882 -29.442734162266106 0.23340509915617275 -10.999769776027039 22.62285419273727 4.729398765991758 -4.490141330160739 -48.98516103341667 -56.82918103510423 -20.548329076890663 27.8101753436824 13.006521700190197 24.092727035922636 13.680554258392254 -130.92765969824583 12.549871822941803 5.877966554885979 7.3934471058813225 81.65105010740967 78.97543280445916 23.24840606736107 -26.476245941340746 77.08518743630246 
-24.89679490691937 -15.390554313165774 20.964472415328675 31.36208278173302 15.62059741074927 42.539889283095334 27.216060383234932 0.49122054357072265 -36.958215342342676 -51.382050700099306 15.130695089134328 8.997594079800777 72.84435895119887 -35.27118574009099 21.50153907361736 12.583179105039745 46.98725230422324 -55.436842910500616 -44.63152773928563 -4.091293526944782 16.438379517823304 28.628301776294894 58.449892524138654 -60.316032652245696 10.908457713621056 -56.607718081680005 94.46631388479386 -20.123063099569826 6.590373860237158 2.446695420991844 95.87924678232045 -47.51770429723812 14.66575569030782 18.352056970605503 -68.77342778450343 21.00916567674598 25.152575648402017 -5.76554696498904 61.68411856730353 -10.594537853275295 -5.630367012821872 -8.2268575717952 
73.13262744215676 -48.64708913049061 24.68121980103549 -29.087061392721534 -30.731846122183335 42.92831907213949 56.887229121496 29.67118182419795 3.182028034867993 -25.599313883613316 39.11851850960482 50.6826573593939 19.602212307139016 52.96128474840027 -54.31264386139494 -54.54465707951937 44.005181354209725 29.910791814795818 84.09039787172611 75.65520121543453 -23.305565530903912 -5.201586205100856 7.19091342854399 37.20769502550794 -13.403830418943555 -72.44149709616275 16.09091226061442 -23.60193185944853 -74.47437964554578 33.38355839802271 -67.68798541693901 10.292952342567272 -53.399566700301655 -4.839369251045295 -51.5150975187714 38.30549556254168 25.703466707520327 17.62293030090692 -62.303506769809026 -15.35449129070721 -19.970250173599418 9.018348222980883 
133.8670794588313 -7.515738126870448 -4.519889675597852 -20.29656684021287 -21.269789787216816 -10.33837050557547 -10.239970393727603 -1.9110935639162314 -73.88394873981586 37.067751552515276 10.939739090593699 27.742499644413808 42.286268619666025 -5.223433173966829 -16.791279854220626 -66.83708632392047 -15.811922715532363 18.113728642311493 44.56594974289542 12.461029776141073 -155.16108803636195 -0.9398944755193205 -69.59811721333774 21.25403946147692 9.378750978575612 0.46517710063837164 66.73146093798488 -40.5003509783193 -58.94846289114292 89.59738171717494 -26.97870539790155 70.80056443552705 -35.71812080164565 -18.877792514690594 49.709876294914324 -25.546926067931707 14.142318980845994 54.52049315105295 45.380266739113864 -55.76660145735622 62.60007845635469 -71.86783734497769 
-33.08845311742481 -91.8783865899599 40.204512865294966 49.52842822456082 40.48967666151528 -16.766243640865866 -71.89086493622447 -55.312362701084496 -15.39861229905973 4.271188535101409 -87.65635842458086 -7.637174628661661 -73.45196445021236 -57.80986718331401 -36.373516942519856 11.737261982702321 49.35601849178337 -1.560867820857222 4.396732826077609 21.295475443304944 -7.884635429623021 78.15094002623322 -23.108128275000688 -47.99683396600015 30.837035378722355 82.55478694563998 -16.890055806920547 13.355809424345866 65.4691067220805 -8.992380295045086 -48.57384613441987 -87.32940418513996 -96.59798009699212 0.6446663924762683 18.830315947011076 46.85878689135997 12.602191621231508 -8.881804060395277 -35.03856706261741 26.67230420392135 29.35266878752681 -64.5837440381115 
41.368876565346646 -18.161676758669103 -67.0313659684566 -90.5011408840611 -82.51746642954956 19.77752824568182 -0.4895820801758966 -68.52484197213556 -7.197184915115205 -45.67534186847735 2.180417047873968 10.558261760641585 59.14988452449205 12.173887396096381 28.875127558267895 2.6295836144225677 9.124209691182283 -47.38287835617181 -43.714388979585664 -39.84692410205804 81.15729266972033 16.048905742505898 -66.62648588296814 -85.54528061914556 -16.801201598533257 8.117821005300257 -81.01668311731439 -87.43591822838437 60.66216867132361 -4.141940820587501 60.28940239042142 -1.269463133795108 -51.10895178266932 11.670456543487528 57.61441413173391 34.556743842469764 -63.84354113909156 -51.62061834990767 -91.63971623616544 30.073148237319813 -79.65383885024367 19.961816468087125 
-69.52700212831404 -47.20431257204996 -55.410230527921875 66.27200863900146 -9.268889460290803 -42.00489002758674 58.3045871751998 -21.92301519832805 -11.842956263931862 -88.4135199989574 -6.038403893831404 5.5684280951970875 100.7901760031875 -7.978745609053396 -43.79062925824774 28.73569361017375 40.56394057672486 -29.525849033100013 34.84885370208071 -14.216549933686617 1.3307418557503876 -38.098404026695114 -14.87544993345014 -53.662002820826096 32.01338542449886 -118.69879265583526 19.459399699568742 45.58476028114212 0.503123737036543 -0.6396267504416581 -42.72784492641124 34.293381314473066 -48.1645714114433 30.382176789063667 38.875106792265285 -34.822767639145056 -31.008345534149605 6.914981583673559 -32.88463073679193 22.837906176489955 -49.8046447013592 -2.1216329314861735 
43.66722740238032 -11.070545484827196 -2.0083831281525533 -35.72379023624108 -94.59375793216739 17.966174241257946 -22.07563987057837 -36.850746139676716 39.753263106512804 32.25025379153188 11.968649785061293 -5.120470025476267 -6.037108887924848 -45.50538121959682 21.550540762175576 30.3247971471819 51.470649789855955 -18.91772959941382 -18.50502808348044 -72.04572957247782 15.509959419437076 96.17934115129023 -5.505325848879281 48.76738012193809 16.592154388595347 49.43111435352463 -33.129217835115156 29.918883891801233 29.33385510712831 1.4842876657547361 -8.671924438712356 -17.028204635139037 -41.189287047426895 30.133632215651993 -12.97839038591346 69.56999164064207 78.56639984581477 28.174160458718077 -78.01498651123738 -102.48335696966365 122.98074981644126 -56.412266156642836 
39.7709610202763 -48.73883982130855 -49.800893036900355 6.929860586905418 4.469932620115226 -103.03407610560159 -50.8893904022558 -10.770336293463272 -71.59687536199894 -61.086083945549156 83.63809972760062 -43.039917188634455 2.739123218854207 -92.7572990837077 4.9439273189274076 -72.42629447582625 -28.647475818779057 42.66625257957952 -71.73566571865047 5.74322789468446 -5.374860830649979 66.16591717246 -11.638731574170789 0.8985637098444623 88.89328940577734 -74.78672348083178 -28.174992819264613 48.6039259354267 4.316122121168251 10.89898198318246 -20.189163508394255 58.837290105966076 -34.793168807586476 -36.74415146002874 -49.861289509152606 29.644497155700716 41.02275297275242 3.2308047999889498 81.3381226467356 -18.853282817485532 -52.71311830851061 -29.30677093545438 
11.192956876902963 19.77210749872965 48.40168119183578 -58.98594248575375 97.90766767546194 -41.74839212201523 -96.34848599159331 67.94523863233665 -88.69886291541455 -65.36066754946285 -20.7444229805881 -28.465362014824425 -17.53142791420492 -34.99480228010023 -29.683468466140994 20.49185055721998 -45.610289052606575 -4.211564778831279 -79.6238603990464 -26.210259743275607 -10.754362345221239 -15.070115690941966 -8.175131892953448 74.1645178466288 28.26831599817167 58.31618179699511 5.262279767800782 68.64664043976657 -75.63864614105454 -28.681114791988758 21.71794086821606 -25.324507453899056 -21.17137797909078 -19.186043861977865 46.626744617832905 43.480806382592505 -72.4527486113298 -75.15273370590532 21.985286233907022 -29.754292929269916 -8.484157631715883 -14.819628791563389 
-79.00324070347605 28.360248351293922 -28.69259315623966 -10.49065595630325 37.030579422284426 -125.20986830501776 22.869375224420363 5.963633174899351 69.72507576217386 -21.563605069611206 -10.849337873224805 96.6539269045495 -9.570611397327774 -126.76528053814967 39.74150284392773 17.186055515693397 13.792090540014472 52.62932841551317 -50.89268476425577 -78.86312486280472 -2.0915739091190315 12.238523239453668 -15.633849898552633 -48.03909779062854 -29.522858779131468 57.28440463408842 -60.942955693873564 30.462526623368273 -44.534027891790906 -21.820751708676664 -43.32732299737356 3.888840579233149 43.98567338892204 -15.11696432059848 -16.076102227789793 -1.5946755847054233 -36.2678152134774 -33.922261168566386 32.48458347502742 12.743696578519456 -75.64585647028198 -44.93502326979255 
-69.0530522171847 -17.12347732545419 -66.80278547201128 14.08418123944133 35.12679255765595 53.86576791208583 28.57846802285258 -24.56573899799579 52.47103582785434 -32.180039798665405 11.123785640748796 -15.858735160800755 -79.9340028359671 30.792180820673693 7.525763420335271 101.84898943518425 84.9542835727942 65.81446740709953 -4.5141816185177195 -62.15315271383431 -14.741055232254967 4.443467312264968 24.289632751043634 82.31960826635253 50.5035953163993 -11.223875899651183 -42.96995395139352 14.790190592222507 -32.272261806374246 -11.769221180868568 38.55563850817809 -35.262752106449206 25.37025820407412 30.9232280275953 46.389921488712936 35.11742514765979 -80.9524705708899 -45.120719913076016 -94.94732730521665 27.487220689391783 -5.8638836153247995 -37.261529642702946 
-29.939735646444987 66.62045529755763 -14.09416077257366 -35.216691375778844 0.4634003804488319 -111.12217499866004 -46.379370118369756 13.7286362800607 32.3705379889347 -101.09940278424266 -23.604675557698528 74.67768126222695 -45.34748377697757 -51.69643916976027 39.11169996078535 -22.74965684748753 -23.01057920237576 71.15104764471391 -72.16233419468017 -60.98880375427351 -5.148964967633397 -26.707788187520244 -92.96372916587688 -51.84832637614153 51.579939427550606 -121.01814375943076 49.916313003152496 30.162711175674094 36.06451454181025 85.13526553709481 -55.688353303881286 -44.61348189519142 -31.861373425941583 -32.3915049212365 -14.692878307528723 13.991362576722976 6.761740130067318 102.63510843474901 -31.86728654570173 45.72126821381866 20.923930429944964 68.1074806641652 
-74.40133539926624 14.573686872485732 -94.3705853238313 -21.847289810508567 49.257153418524936 -14.036942670147864 5.280125939376411 82.7188884959371 17.401248152164925 -27.536113609366712 -14.82151898614601 39.97862782545795 4.9706911036968915 34.04408906455423 -58.531644443071066 53.39345647043972 -60.87664467352069 -88.23856965767828 -27.825482717728526 -88.39592910018233 -3.3696200226684043 55.39710930648947 -50.71550002679096 -12.263399121569059 -8.554499929076405 -19.240617456288305 20.426915620550993 -51.60487272065605 27.894826630646033 107.85725353897098 34.28899718002865 53.580407095584356 6.5887933894230475 57.27534640392681 57.68353232165537 -107.10336945968132 -89.92033878126442 -72.26611078143027 -13.636583947323484 102.86937470418961 -51.446637608879826 53.65093863247696 
-5.159258395936912 15.04499392520747 12.84966651376567 -10.422912017769743 65.27353782346079 -47.252153567362456 -45.32286346485661 -73.99493679705029 32.8563996032146 34.58786216962899 14.01055148846424 -19.23724172306645 -13.680789383025632 -47.62225856421255 86.74321785157521 61.60179638290831 -13.66177879217458 4.544553409917036 -97.01316322167227 23.031602958385694 41.6301880921499 -20.875712284844933 24.229475134417246 -27.816843680318733 -70.1961641002317 20.688567185695756 -10.991078314069435 -13.318027659386209 -70.18172055204352 3.7319002921437536 45.33345566416129 14.08132401737057 57.124702644954965 -25.50706357317403 7.078959588901408 18.813647626554115 3.2968105431108814 60.558058707858876 22.499675480012588 45.50171187984947 -68.88027075973751 7.391616418766329 
7.939229688424345 46.17729937507793 48.205728564144735 -47.758943821373535 -92.34695638840968 2.2794398282311388 14.862926115329952 -10.814644643911443 15.13666304806354 -99.13638414022647 10.502749350353994 16.964678540776916 46.48576548578073 -14.768050793748836 -117.73700249480217 -5.493621546199984 -1.918972428644631 -14.687536597753834 -40.8145633267271 77.22432481778625 -54.7750309449705 80.75127179807538 -25.758436438629488 -82.80196737668825 -2.2620091141311676 2.0716209989133696 -5.86900100504453 20.094149014809474 -15.98678061689249 5.111654294047172 -34.835306260606735 -20.856198091234187 -48.14226514811096 -1.1026630739275438 101.76450898048516 -10.779781942247606 -48.0510176290434 2.718325147188829 -58.10068009561463 -28.52087988455016 -39.04864138991959 39.89854240954989 
39.62570623543641 59.669058356590746 -35.77995657736271 -21.662668920969946 57.41708253187759 -53.78216540222173 34.95684163448107 -21.330735856820375 53.79369975219936 15.584003977815152 -16.53171699993056 -22.906167582688457 -24.0382105487619 17.075151304782942 -9.2358996018497 -48.481331440455236 -36.42858471122595 13.317723020868817 -2.5076290707176687 49.96202344666336 23.010860143816405 27.681799139101997 21.42152781062762 -75.91652609824624 42.55338925031836 29.640166437285927 29.607937966897552 -68.49303499745069 -63.535998927006844 -8.279904790125691 -7.913048546327967 -45.21280733072977 33.5519396823747 20.62866413166618 -20.688592215580215 -10.189712197689872 -25.43457560211583 -43.77872616709614 -88.76225220754223 50.41371206561273 -50.76676011650143 -6.566058194674577 
38.515452058983385 -10.119533316755003 20.94904913560225 6.2600287791042115 4.511249493210199 59.10882846314876 -36.02305033643531 10.262939503383594 69.390090049148 121.43259751562768 12.680919120178645 8.804280565150457 -34.39459685675983 -10.94368114933514 -23.528041147625537 8.53777746421861 27.21647724523128 -30.107280346508265 -38.21612299285505 -24.04099505749071 -24.01026589457144 8.402167308988302 -80.51387088182642 -31.438660946219937 -23.297185729021542 -17.6805693253 -37.604335224012196 63.61612578629408 -11.618271983566816 84.62107419759656 -59.334439519569464 124.93679638779052 59.105409201540105 25.647961718056443 -20.565920255495772 90.18253688359881 51.177864336283065 86.2490415654894 -39.73202897579466 64.97233054858927 -35.91587109830268 102.88841996799597 
-13.058287410888177 -78.40300883069 -22.057998742570852 25.88779398771954 3.3553805701495207 -21.426073215876 8.907162564990063 5.997985779314582 55.841961389693246 -106.23377663383644 -71.89243538739395 -3.078458729335512 -47.00877978848437 -34.89221830967508 -34.03418339073832 30.769137968695595 53.75662650943684 -16.29982535903366 1.4043459048924947 58.77876442424491 -12.879319239910153 -97.47231092865198 30.919505324440937 -21.16632963922994 65.40189076583269 -3.982852327031814 -99.47556528628559 2.6095467932093857 24.707099123485392 -0.08533259033103525 -12.54424267404158 -6.727991571058571 -19.790979078248427 -26.370217922400567 9.083633428554554 4.1025354967745455 64.32869503304906 -51.31486297348957 35.853021549412084 92.2631328183242 44.12035408520533 31.16427240983781 
-13.033150606226618 -100.20775166165674 7.08229460905624 -34.10401856959662 -9.793753692378989 86.71527870857626 14.168535764297994 -6.221461662570211 55.30815826893012 -21.266903547597675 -3.8587894393057622 85.00021771135202 -21.0803394670119 -100.19750914649515 3.787359252629274 -50.16648208348348 28.414487184395686 4.6347446564824955 -53.37793000913747 20.136639341517064 -0.947911676891884 -47.01652370059873 -71.56256370256348 27.802075199963088 -141.53049073084566 27.40907497912222 52.71649243933271 14.646085582507252 130.47351155350452 25.469788642361603 59.16783884601205 50.68026000547675 -37.64171485688167 21.153548430733792 -38.945547813076374 52.048500771084335 -16.972341038528754 14.22049582077943 -9.898729823208416 -78.07150555457032 -0.8240269096381865 -43.289776161446504 
66.958190470571 52.463873725768195 19.164312629453143 58.09822427942307 -5.089359515473428 29.29735768324173 -4.911964719744769 0.3093354167264575 7.7934142698463935 -31.656568004293653 -63.656428761440786 9.62783979062347 -81.06291609391525 -76.40692053561257 11.696101286486575 87.18904391695997 -29.358813963496015 57.93902040825093 -66.3311192586714 19.157827123820812 -41.40207217713397 24.24846038037368 -24.40918746121051 11.698696787941545 45.378596282065836 -4.3116945093757035 -20.89355460985298 26.412705664788643 46.64170841000733 83.87599630027859 67.61183340214542 -1.9328153856501362 0.2655336079760991 68.72080110602812 -33.648979921807 -19.954151240262284 64.16349937861177 -18.471704476291126 32.689331287780206 63.079084595467265 -12.356745529953905 -50.64657110170248 
9.78167239640976 -9.776645915459955 86.66529428406925 -70.12029771919995 37.988031958079254 -2.361116013975201 64.44211563500332 132.7354001346662 -58.208976313785655 -125.56364771817564 -13.621463349226463 -83.75156518162449 37.31162166016286 -19.42948865650989 -35.488478587037875 6.867474513090493 -42.36923060966487 78.68297995676713 117.14662710130398 38.17901153680966 42.11925552604753 -35.915162894047704 -84.89878922792523 27.343650405203462 -27.52236474771151 31.84552921832713 -12.7949504374183 -36.41771632119392 36.73026279705407 -34.46800231500503 -20.333099915773968 31.537636320854094 75.39436970659621 30.52372572744337 -55.26041397523495 -40.739603119862196 34.215078760615064 -6.297857599345263 4.6385773889928865 33.55259873278448 -57.14964397894924 18.789464680823198 
-52.70389273473016 -69.24886697279152 39.32031580695992 13.9987075001289 7.5067674438209595 -17.613370454583013 -57.068790223334794 -16.062227156518848 100.34751791217587 130.76444881171216 -27.807773851798938 25.554737391585284 2.268916108545657 51.25173554593139 37.57272926109239 -57.046071499448104 21.98019776268003 10.718074342958348 -27.529337822535073 28.961746517404706 -28.205129192927576 -8.280759414555078 -56.83933335544972 62.62694206017635 -1.8490794614288701 -18.497340234586805 65.10653227452214 -12.579210423096537 -83.86478299993807 20.425637074935313 -76.97384811753174 -27.046273536019456 -17.319377017944024 39.83841331177288 -23.773934251999503 13.2168553420151 -16.37125367157746 1.2894804344959723 73.76092435634686 48.24651813964686 -24.396671805474814 -8.200122342903631 
53.54436399479439 12.251739492637515 24.536854874811215 8.27216666069669 40.132435165974634 -2.352733144267236 45.52640089949048 113.24727892952498 -25.474319835899855 15.484752210497513 -9.24665208814296 32.57179345421572 -12.590977266817653 -75.21401472889568 -6.84144656021482 -65.58966367770502 38.76768433346975 -29.646234044744748 41.23013795896134 -44.913069577769164 -13.773461495679099 58.896593800506565 -39.292843338579544 51.46077660300801 -38.34608906458405 -3.4768637034354857 -8.566847550672597 25.36274254308528 110.77097718176218 -1.1558367966445982 6.757982799103377 -28.72633525575205 91.67627488734723 -5.017495683590231 89.22286730377154 74.23846528643466 49.981621751562066 -41.91875293014314 11.985203211827507 -45.194593840980176 -43.75121971893994 46.14395000943504 
-9.686639995986624 -68.71664007826612 41.27335138312616 14.78787061263018 32.505092267685725 -28.827883031294242 10.289180244563271 75.55622419879292 -24.693408203926825 26.135169521504906 12.81642999019641 -7.236066194950979 70.0944626806645 85.44450815924036 -20.279215335573348 41.30666419485759 75.93937374546731 -5.051305144763735 98.75943522681763 12.796953990867044 2.901475539928667 -65.1446653067422 -6.315848292735017 25.68315355271429 -12.285471373029758 -37.20815506143157 -12.707383261848436 27.745251951347903 -83.37247885978186 -10.293206986165751 -72.47597482550339 29.42376888793318 -47.03086188918603 -12.692371924252834 -81.89260727448637 70.24535936893531 -7.291466118839766 -5.115042360018255 -35.51802046033438 -8.574506879235548 1.0613918674815113 22.125869838207386 
-24.247553497482738 29.145582082788007 21.168963338493214 -18.092072817196346 31.951940137043525 26.179106283662996 34.75297695058563 -38.48707457080183 16.965938083441003 -69.1153547591436 -6.414755163755676 -53.20264879287835 -73.37544983555341 74.6481439705231 49.67107819829719 46.43499516616778 18.961888733375005 6.841405900397346 -31.341291999205705 75.69298202928923 76.41100085270497 9.797657816371878 93.34620215431023 -34.920477647163466 2.3479160504284513 28.510373836315463 -22.77703332005453 14.640454933793972 -4.898964285152977 41.63874681390303 10.689207891068296 -72.25930427305723 0.7616796670303033 -46.044960579079316 -47.336926510896056 10.31852736601903 87.51064910263325 -54.30833720855741 3.521956279508352 -15.992101659364982 -78.93512060124377 -27.514968940454388 
15.9566110043087 21.77942323024855 78.29393985723537 7.896407570392803 -93.74679093570491 -20.62856546380272 -5.681737049082615 -45.51450687330532 77.06165101082053 -15.537373532231735 62.59568932661227 20.63219128181412 -16.688224450675722 57.51572437178355 7.911919519659112 2.0758424167094174 65.13565496431447 23.713061809842134 -53.08106646534074 -16.691851944892267 62.8091018949464 -47.294871188856696 -43.91203026300468 -36.69722578899263 -32.70579764412544 29.75273108655313 -35.7408654749378 30.55963309102323 -56.14741592437414 34.2242620459896 -91.83387064823559 -8.432276091688053 17.14955464724588 -48.47344815315883 -73.0957227105559 -10.636272140937988 -15.711397861270179 95.27321818812845 4.943884304037445 -39.97214219206318 80.37424680359551 54.205520718996766 
5.517409877400478 5.876013902487605 26.085716712447375 -52.2080616512137 16.261821356900228 -123.84351116966123 -58.975850828629 145.4468639936551 -5.657961620378699 -14.316182907639886 17.59249780337605 58.57199443043478 -39.71503110773759 19.83035901854691 17.38368262867618 116.6226787694436 58.925501827527825 60.207485662982684 1.6437726988923909 -47.62901777738346 30.81573838155909 -49.45209876423598 32.018452395632714 23.906652196258396 -7.61134463972114 -15.750876632553574 23.25337464326555 -83.09989423540249 32.66978696209932 52.99928169918387 22.124038617994717 8.785147742113756 14.859317740899199 38.63687974082444 -57.630173873304635 55.86922478232884 -18.01927793549956 14.261356602949753 -94.41987194187509 -52.85171422974622 -17.18225932370282 51.34993659355142 
-67.18915725362348 101.52595938421996 -19.08154010556585 21.713000006562353 -10.067800036771743 -27.037055923395986 52.71139448028788 -14.03043737824692 -104.4950547760466 -7.775797463861133 16.645970266836247 18.057010009265962 -56.65630687320519 -74.03413879942364 36.40135800892352 35.166328720300776 -33.5322970335834 25.94032213113681 9.488873364781641 55.067589679740244 -14.597790059621088 -12.732247295904541 7.335989373880095 -48.05906197913982 -70.14241710499199 -20.044197035986375 -118.39220827490541 -68.8869784904728 17.076620235394124 2.790736361808658 52.34775207009761 89.66719014358064 7.562921590034067 31.430589955671927 -48.88206515885474 -68.98713252829815 24.033709381855765 -36.565401015274986 51.25884270705827 86.8851760581649 -19.860665575185205 26.37675779915975 
-43.98610116188801 -11.638297464284701 15.21712653898998 69.05363173434866 -29.01272875148032 -37.94035368245931 56.62296452729813 -22.554220376617476 -25.422945418425762 30.394637867024823 34.00312155028273 -6.784597199361729 -82.92979302782896 3.1050194141342358 7.208799818022412 46.790098261306596 -4.61184336571428 -65.30732132376244 4.036712428931951 -27.15511018080033 29.078525008871463 -17.053487540643626 23.766205292021816 29.226121179216793 34.94355459630051 -36.51957250669911 -8.71846264132682 -34.46090427171299 -102.01692715104679 -28.288199077313905 -65.60939334962333 0.9974608765268933 -16.703370804199235 15.455830751719752 -2.018778650334418 -57.947791532299945 62.58380425114269 8.81451404866978 10.831580891417648 80.53700805834886 45.90811434497581 -85.14747415247363 
-4.5863607719915525 -2.816189458566007 -83.69477830387372 63.23056785740264 76.57546265854484 -4.857092383225323 15.627982644180687 38.73211904396862 -32.505387590113514 20.02520596660314 -1.5297265101825164 10.895117716199836 56.16940821677742 64.06976043359454 -51.43812206264231 -10.283398026140866 65.67967280478022 -21.59641622173274 -4.606905455464626 16.833639230785355 64.73066130057188 62.42280262193265 68.47721264847958 11.315484782047395 -12.098476242985523 8.48625034384469 63.686628033887686 -31.0314042841812 -11.183935563440137 7.250873093496303 44.32933480383634 38.50868687667837 83.38825907017372 -9.952679677105838 70.94167165826966 -69.85332663511892 25.911043890769605 -33.63691873759439 34.32659279594162 49.45416979614911 9.771759350640465 0.8410152595609147 
-71.07788173545109 22.604941065968017 -23.17098981106546 -45.386793191830584 32.817215892669886 61.22676781216808 -46.56369630993371 -9.14368199193198 -7.847650748246273 -24.885855845885683 -0.6167691856841795 -1.7800200422830932 39.720858624602975 -35.59887611440769 -69.60411271365754 -60.901164731207324 85.24227170106612 46.49532073697207 -50.37016726617324 -0.9304141401747067 9.959733420932862 -61.28025063682386 -0.1670111906043428 -33.10366975693251 -12.295241140931783 33.67517525215681 29.839675859007947 5.271195294412119 -2.5441975884076005 73.51868829527568 68.19164650610193 -5.652143120892594 -19.157915420735467 56.092581388966195 27.695590110081824 43.55800779943003 14.725972556546179 -48.81553466292065 -54.47173638074033 7.971294017653343 -29.642209412322998 74.63504372215085 
74.53355532985327 -29.731367355122952 -145.51986787417954 -2.7361307367810053 60.80430419659336 9.388905865730752 89.07690942483434 -25.09988093187553 -15.76572497057667 -20.423551976773886 39.11320544263584 -58.78579888337845 -69.12286978635848 47.97392428684046 -8.653827220474449 112.38205358174093 -39.75569548414665 6.463810314394249 -42.788135569669286 46.99138220449398 9.600187842350485 13.940807280888189 -145.262134787429 4.172050255191079 51.592772423286526 63.78803433649593 85.54018945985133 -26.863987733589607 -1.8074103544506013 -23.845277042853507 -5.097148643459525 66.24358478565351 -3.022457062928177 -17.88762334244939 -29.487068359131342 -59.6708472062995 85.45192022837294 13.470645715107253 8.325173154302577 34.521427047676966 37.283557231912916 -17.224190324925196 
22.61339408068685 10.812231059935936 -92.77289746313522 10.263796946530924 -15.35214134020815 35.695166687067335 -14.08712215004842 -9.092763018864787 39.69016505417301 75.18732193480396 32.08011167619203 -40.75661197954589 88.6555131942319 -17.458344851242906 37.290349969839625 25.31885494833158 -45.089178600875364 -9.370717191576633 87.37251823293744 31.866554391624238 -19.76361947999059 17.493104498300383 2.230373190926302 92.38384617027454 63.948309524450686 -44.250676270276294 -100.35497192514538 -23.88657038369969 18.267018189107482 -48.615720246313124 -25.025292760934583 41.14756595932852 11.39800313245144 27.121382806741575 68.40019346136944 23.941701555848162 37.18622561429234 -70.08880302252476 13.639686314427667 49.440607486464074 -63.90864232046623 -42.175684631971905 
29.55179981627136 11.423135478453304 32.75494435330885 1.1857903788031434 116.57242198377483 68.00004022613155 -8.837812027679629 -20.135733889580628 21.037760990025657 -9.426076576249876 -31.725315133118286 -71.77756484261702 -12.943725317804335 -12.325908853184663 -50.51681689304503 -7.686926257025503 3.3112883354280354 54.20947152225448 -2.0303815154251237 6.57042034170227 57.6264694192307 64.40347635318274 10.367522924423916 29.110893619321192 41.228746892281755 61.45106751317981 2.481312644751287 34.17615608619318 26.327442826484543 -70.02939095463992 -40.35194793171263 39.70265184736367 51.923162769697385 -42.63515698820014 -44.6823330756205 -89.53129178511026 23.43191461089448 59.4425963126178 -36.41700975127594 15.106902503628856 -52.41434577617165 9.99707461641801 
80.03942445517202 54.318673892953996 -24.468849980358645 -77.26636770181223 -55.42361410168463 14.642128548434075 -16.762963829042558 42.127398631225006 -18.105577784094613 52.78419172935974 -32.78880440634827 -36.26672373282495 -23.420907560418886 -71.88046144114237 33.681321493518254 20.109722520301514 78.59720310544265 -28.223526116896135 24.17480711132239 -75.641183515889 3.1445280705145637 -68.51478380153073 0.4159622726094427 25.02680325963948 36.17631613762945 6.671541448630551 13.3005926255582 8.54436999364211 -17.592897881608426 72.67044089376118 -48.0157978395277 -42.60059217456028 22.479045277169142 50.643613511827546 -30.518735848183162 30.439191536354933 26.160311318763075 68.46813812620992 -27.052563910043947 23.94509689935806 46.56321694215927 -78.94539403791748 
64.60543718563895 -42.8930551625689 -55.85632458916146 37.446107303856124 17.95979825476353 -39.83534816907145 12.011654071690275 52.527530999736896 -61.41452962637113 -7.4743054168391625 -22.6662677904097 -29.152193301231467 -34.23146090035612 -33.936072261791026 -34.526798057829275 -37.86565653207107 -5.311181988400695 -44.84100342516682 -53.5888868301764 47.178812682058386 -2.6187308325294754 -11.679750569061346 -25.29645366676679 7.5477675827054105 -62.97462814184546 37.36256236567596 26.44699361773591 -53.370863067212674 44.06610576128506 6.650505993278577 -36.299387066621485 68.86743713326021 9.715412769680446 21.92793843610273 40.17422270825072 -33.539864607641654 -24.64768042752763 -31.55564976067547 -57.87712816435892 -11.242649704601032 30.98307592974655 -126.29938486848636 
3.874322678338895 -12.335383189211253 -11.3464775271317 32.56594574283492 -31.713101978570386 5.998243282393812 21.30558586591546 -57.51715393190427 1.1276789805159648 14.145703203744354 -18.05526200476211 23.605881634266517 -25.722104489029228 -15.282345713042233 -17.27621692166138 20.11899923108262 -4.010787563998589 -11.356222346055812 -49.661217030794276 -8.381058540076422 -28.237256434702925 58.13815329296927 5.4508793746159006 -37.87300831449781 -69.03850294648058 -63.30717004670354 -41.55765926546981 -31.17420975353547 -20.42281550529519 6.553616088313075 -76.65428182721347 18.121976937895017 45.7219626396855 -33.686959047891044 -77.46815743771334 14.666331226536483 -2.141459709982894 -52.017934757807296 -26.164756211378535 -1.392289960842342 6.88781286304585 -55.55927156375492 
5.949909023088517 -2.5947509921615577 -27.47003133714657 32.7571410695682 -5.099751979300437 -1.7962423843012107 -28.19857793317591 12.641050770817563 -25.768409842791687 -21.287275040218383 -93.95138333054281 37.65145950177519 9.23920987276396 21.79048801067371 39.63005729833986 -2.6581509182013203 53.09621477788089 -3.308784834560972 -18.22079553521362 -8.82633049008789 28.73329585555389 4.952604850678857 55.950199783551135 -31.063570721005842 40.58612734838602 -0.06198626649416363 -44.76913195990779 50.28969203371991 61.19388165182575 33.553547982806144 -5.551958151640224 -82.2664536684923 13.343542092497572 -14.753032311907242 -58.05115090227838 15.364471400657854 51.05441320865183 10.213792389224775 13.534771883197818 -22.533608392626977 71.18010085055276 -3.0803417369212944 
-65.10099438053311 -16.572585084728054 -35.99109844744646 -7.867618123900458 -22.12720500051887 -55.13835455949083 -57.95630494130824 -69.52989126854308 -59.715015607465645 -102.44877123336282 -19.201869671587005 40.85647788914805 42.339738375536385 31.007410261062315 31.121416838612245 4.388136632443918 -14.823217576822966 33.50713304475368 -66.2560059247519 15.738303948786806 6.2953978122043805 -16.239403031010987 11.833215501632205 4.653449273482233 -39.3753794100614 7.857144243963253 -59.88622071398868 -13.156357606647818 27.859989367748422 -17.05923377998245 -45.96769731155984 -34.609984361349724 -24.429568522306305 0.18130999549407958 18.545124820920257 -16.22766826739643 12.404430452677142 20.58920297950698 75.86424364433843 81.16166750713744 25.94894108366669 -24.049894560093367 
43.96308689644642 91.7447777029076 -9.889624261179154 5.094719625901997 2.8340195574321942 -6.718195413427864 22.004346810425808 -12.022018878114695 39.66467416468376 14.066935406976835 10.328157900101589 -13.512076644430657 -55.68310675984623 -28.249574438314934 30.73459929636105 15.11908570957448 8.355085423253282 27.50581878475776 50.9361830435246 -63.91016618438689 -7.278780304016845 -60.80534651380067 -14.203422594484048 26.136448871783784 11.459752148053276 46.01907256153106 -12.325424953276562 48.47624748909871 -8.21336825304032 -58.07039733711362 -96.76402955444027 1.8660634602413693 58.13850593809924 33.13514299224609 63.88060813672825 -39.1634804911434 12.845010365364658 -62.80024706369059 -29.022037240599463 -34.16638095806431 -42.08150390695258 -9.800919729829475 
-36.80437559994086 -4.640818640189731 0.344339814845096 76.39665473508688 -28.51254751532277 2.8225711730489453 -36.70528827373936 53.14648919466127 35.385597629323414 -19.4967724918383 36.538375433566465 -13.048360376894385 -55.993556984763714 -64.69664059316537 -0.2704193580274561 -47.36319974340831 29.448350537563424 1.704422207366017 63.42867295567318 -31.0844739437761 117.16686201570856 -17.448677169637634 6.628019833424601 47.85993603879089 108.14440703405425 44.80486195281963 71.13604276137654 -59.04086818082357 -115.90696089547198 50.77847917454664 38.116862072360355 42.89355415298806 41.77110627042849 20.295061010622625 11.091503593639993 15.734947305425536 -11.006372457486915 19.240237746597664 -29.866323456720092 82.34546753713765 -3.114142100342943 7.222529693528847 
7.136618350296657 -66.37591709054817 -11.189607481050055 76.61745030943169 33.55962577191696 76.63321511582359 -44.0837093482373 5.5554583659779935 19.720710349454876 -20.139972455338757 -86.37688659968417 39.138309447843746 -11.617218833052384 -72.14995002113137 -9.617740195238035 28.77477188387171 11.734784561873283 -1.3859724323362765 -57.367922727553776 -43.20473005884236 -11.531796745591354 49.74119213323468 34.24580863621774 32.33384763138836 -32.149510124134736 0.554733016946027 45.80594800154605 28.576786565212736 65.94594878562123 11.73823918171057 -4.0204992826861226 27.650964074004747 118.0654635401848 37.14029111125492 74.5249641098928 14.599263415319133 30.15408079133877 -21.5084777882582 9.358990178505664 -28.68362787591497 -44.283789908808046 -64.90416647226485 
-60.610714517991475 -29.75428961121918 -0.01933454286904453 -38.44629444243094 12.508290063010294 -109.18237328884733 -51.54903818151521 7.92564122554646 -57.465645470110104 -32.5378167299209 -35.67969955708156 -10.933718464734836 -0.5914376680227954 58.83940820994771 -5.02102321936962 6.259950336896666 -39.5639169869364 -45.89344324192731 -3.305807559144233 51.971825694342854 -6.721972989324932 -76.38611728175202 115.62073802306253 49.775981764959816 71.55126087489386 -56.247019484628446 -39.35409833355288 -56.944437191020114 9.215912845179412 -76.42648858499281 -10.49052388600179 -52.9695349350837 44.83581042334921 -74.69472815484818 48.55134758422076 -9.291472755531572 -6.105535087347432 -45.926650390186154 -24.835265603092136 -128.41621380627925 -99.3344682311722 43.75992798246211 
-2.0822637349759945 -26.068232431380043 -33.53387283317549 -44.35520742801253 -122.32752524587944 -49.41972907659839 29.743280432258167 18.704087576566902 79.73958223765591 -14.14307331675674 41.19743062813552 -3.7908889628386206 -23.151376718722364 -63.69384496513734 51.28053385211387 45.6441697303118 27.28787532445964 -3.7904588904297767 9.129146732065516 26.139434780053065 -18.48967958202053 -6.111296264643051 -102.8095276671765 2.1396337254986575 53.02522566938308 -34.007479168427 -25.276316001018134 -17.052285275711665 55.7662271523817 -153.54698169144464 49.82099358296658 -11.497769953989174 35.32906312904214 -14.295295769116667 -4.1313767087873225 28.384105025972335 68.71889969010886 -8.349086635566977 20.62201286257603 -8.25442107324261 -62.36966152684787 18.665351129045803 
-65.32272328716472 73.47146659551771 10.20840237399346 70.09562064664216 81.72440006313845 49.24015475014572 71.3852761231136 10.733157213191884 54.476309703039384 36.0126086468641 -52.888813063558246 -19.20458119822256 -4.594167726035141 28.169720144983526 13.291719707765644 21.14091847127137 -61.577755819985214 43.12964917362926 84.46335689966891 -103.51064660137061 -32.083939994953596 70.75158131740015 -56.52032711662731 14.630086500977702 1.4191660848829322 -49.41328266949395 61.07335330543488 -20.78564747799794 13.703458528193302 17.58960411504064 -10.72880535105532 -60.346381046984064 21.450241108023597 -77.33621520245923 17.40705198849412 -7.094134333545257 -43.368983160108705 -6.927544931753528 2.309973893650266 -32.74014865475477 0.3238526780525624 13.541404783003456 
39.556326553312616 7.582420838154763 -1.6930188911708426 -18.186571238046206 4.76653170677097 -36.960400557110056 28.656522990263305 10.644678826996788 47.32260642472857 -71.38590629858184 59.14807026460423 -61.56766237377766 -10.675009459052477 -79.26083448745274 40.56493222842243 -31.671687131488227 48.357211675411946 -49.33244289490859 -14.793648627781346 35.16210166812854 -43.722607279656174 -9.47622989572033 87.96956568890809 67.07342634205541 -39.281049238278165 -23.263968008002532 -79.68870015904179 -22.02445078261846 -36.846318886110645 -51.77239564091646 13.107236510017568 -93.31473547961347 14.653430236943498 27.532190078131162 17.08758546594233 76.9470651071612 32.816143527620596 71.92986776940772 2.206314344954993 -7.120749544558221 37.726989195326276 -15.526366739532582 
66.91531909828676 -4.893000153269005 8.616008520073994 -49.07268408226675 -32.242032955244845 12.185581892517547 7.708862969316978 -64.27030840842389 -76.40387553557586 18.16584189704673 60.37016647835819 13.703258483574594 4.488224827822716 -25.114581832335706 -37.02385983678012 -73.75200619031182 -11.821622097647593 -4.6652626156964505 63.774360520445555 71.10737295930228 10.221760654824926 124.02097697185775 2.5133610964115225 -54.67473964019276 -3.6958654320259954 -13.95588625389457 -108.78793622239832 -57.003786644284745 9.040238100096357 10.349402655805083 16.77912126917224 10.98914176240088 0.25460703892672465 7.137456729101889 -25.084311996455376 15.524164158035639 -88.77103865625287 84.06196323757051 36.41126307182392 -38.07799224612349 4.089782534150492 -71.16552398041411 
26.291993668862382 30.706587354598437 14.649762140171529 -10.446481889254189 3.7016007186022026 46.66760597750679 88.64502352637196 17.223391920044048 27.797197396289558 13.361002615360515 95.36135938698955 35.04253257870237 39.42409869556486 0.5791361321338495 19.547605642593027 15.128664637718344 78.69527077792222 -19.62101211017112 -21.17997693298003 36.1222863861735 -74.5232413115522 25.884242785950672 -50.00472570587165 -59.947712377618195 31.81776563607543 78.56187982786224 -71.056359653983 33.6923282559608 21.797914884242704 62.89025999826016 53.27663106749854 -16.428955135605626 37.34253863657728 -28.71036144477881 4.061227742930916 -49.7296479409677 -27.54393844263888 25.667820216275324 -51.26818163351994 -37.2102541586446 -84.53076795063532 -47.66622850434101 
-93.1823705909792 -5.909248918534327 -65.79703582193193 -37.43062571397638 38.46575931645487 -10.588433278799895 -18.831520605793145 -9.069832594312313 5.1447616277011985 7.580578761852793 -19.822838842641875 30.809001812211097 -56.44930746988979 36.77189831711819 42.819592560463285 31.335626698326863 -25.66674812791762 -75.44252170620852 -16.236609156713897 23.622587043608494 2.814125417821997 -18.533473413825917 -90.90836189162269 11.209177968382614 63.991492626499905 42.47571780850586 7.852758964950643 -29.848687643274488 28.707049238062282 -21.451944661686507 -5.048394893560004 -15.886371292508995 20.984073361081386 -96.25588213172739 -32.90695266542773 -9.17879288007248 -17.290473604013023 -43.614080862284034 27.160949145791427 11.730681883866907 -61.732092063462936 11.503326644225238 
-104.02075038208864 53.1063276239332 -20.944714546476497 -8.240326055863349 14.851357129880636 -0.7385558554419426 -76.6994090627734 82.93326932816079 -13.674361217784393 -67.20460204174965 33.905925655636956 -9.5871224648154 12.147747614618694 -39.0657693328848 76.1754960581875 -53.09723226285563 -91.64836972359676 14.39895209692355 20.224604880270554 -39.760526280679926 26.9006535166151 -20.79550834504998 23.91130648912468 -49.96459023460801 6.874745111629543 -20.1646088366735 -19.48395034376059 -67.44215399893575 -35.272418645814994 -8.251851846094919 -43.29536365983507 -83.11456525284945 -22.539332636189453 70.80979678913874 -102.18005978440696 -50.87656170645872 9.985567420699637 -25.46768638411212 22.886497154659157 -64.85065664920269 97.36404982326611 31.36210948671237 
-68.48624714155767 -6.130008807552921 -19.86469877519548 -2.0563593616032843 -100.84617658868196 27.060349445713335 39.48855623495351 23.28084133334497 51.65577649460179 98.96710390989438 107.52676523469212 -14.032657002498157 17.267346576908817 23.413214408157508 74.34832213729062 -40.65918773229587 -20.517886078656275 65.2004259839339 -35.629138533860825 37.958359273731 -67.45326325855227 -0.9923007090624185 -55.08638512815422 -5.502106020402584 -6.195037788888885 -45.528790669278436 -6.967788316948481 19.876738826927237 -15.824593433809628 50.28131347246449 7.882127305697816 7.145551523359011 58.759360200524085 -93.80221966019646 18.063967997138114 32.946186718075644 66.99396366988483 0.16627835463907564 -26.865350542240282 -12.375496497325365 -64.43911862598732 -66.07577460632655 
43.3051159157467 -22.380210318948503 -81.58216662014671 -50.06313529209155 -87.2952808083356 -43.36230345158893 33.2015764543937 -4.648473853113581 64.21059965899435 39.071689827046164 38.72399720838149 11.17419880205482 -15.377611748111867 41.321548551397996 28.038780484505534 -1.687625964726276 -21.541679476519544 23.53400041639237 -23.061612725918323 45.16241031225263 21.927161707775667 -46.60479526506608 10.156861502972193 -7.8442301525010985 84.57160908658378 25.430701226466496 -47.959685483876115 15.329067843145861 -68.75516970644726 70.36689755736612 5.351072089825068 37.45322446511254 -35.37410136198405 35.052986135877084 -45.61908727589009 50.44772441022459 -37.291906465103736 -30.92778973037728 -70.03546552555181 -40.59211686258795 -48.32350026690206 17.45218248829986 
25.14208861260676 -6.432551277133293 -10.429228030626549 5.824805904798597 64.48040511269235 81.33270738657 13.650368673149787 -37.10627579326917 -64.3334898788028 -31.663145586555093 28.638914474359837 -26.122273461376377 51.94936765379353 -8.052887613927378 -11.367972795999066 58.22122191675186 4.919798493579155 -9.65241242531348 13.511419938576168 -38.77593541990151 34.253224182388905 14.049762098242114 44.704107678431704 41.159156406654695 -44.67040089854277 19.441383320295582 17.439456299198856 61.55608474171193 -42.85360079098543 -36.92574925103939 39.71212805096001 -57.02450989932454 10.132069434198337 9.810747904639433 -34.11319378681697 69.45067543240462 -3.50784812375991 79.60905272348279 -40.61731513916302 38.49713217667397 61.673971956495095 -56.37085193154682 
-69.2636859041317 -114.97083029499919 77.20883229569687 -19.220930964245074 -27.412486127710356 -21.059729632563805 10.455361851816937 5.533931360166279 -60.80830461272892 -59.09485138252432 49.10392011849429 -3.6381472741470295 -59.944500096133126 -7.875759270133657 10.298907125233974 11.868008544984514 -43.57059413470868 -21.890325620075345 -12.646466410814298 30.976417998854433 28.435817639344002 91.64042255569213 10.587078421357344 39.37157729228768 15.927028639088332 56.550629165851596 -6.0211361546733215 -37.510180799132854 22.69582212672453 -25.04515712308365 52.658934940407576 -41.17401555006745 -21.300350306107056 -4.260416246826152 93.49157255512468 -64.09186553048914 30.760820951387743 -31.053693425688003 17.456492249955975 -49.39100955366306 61.78349822754037 31.222117428106774 
4.4041142064942225 -0.5750095743802235 70.5007368224453 -22.693457231066027 -19.721492136772152 -2.876097051537974 -63.377531182247225 -22.981527052907662 -85.2046610493652 43.16576537867257 -6.452205187897024 25.053088532487536 -1.4183081964886983 -36.67722864355351 0.9740585936326802 -29.596403016248285 44.4554194486192 -25.085901737705463 3.5559578138692234 47.57299997945203 -59.61159935570493 10.45081214362222 16.330049811597675 106.47390967450616 54.543937120009645 -29.69862913998532 52.969015360236746 18.643701994769334 -57.09880082411533 10.007367150887916 10.820086928623098 43.273689233186666 -3.4048759382820912 53.758072222125584 -42.56189671304774 -99.26344984737679 -27.563024239426586 -13.608100758257928 -47.263741518065274 -64.87499380356454 28.37926311675881 -13.934481254112777 
36.5528275025661 22.09066443769484 16.975942775361506 -65.39239614868562 25.708159369939573 7.994749060753302 3.0163244230241384 -12.879157258775667 -27.77556430189551 -6.633214239479704 48.098667281343445 -49.136946756982255 -54.72744531945842 23.838444529423732 -22.405376171149346 33.09969465731555 11.644112946747162 10.166718517318227 -7.129311570790458 53.740915841574655 -0.04444072784578629 -34.76488329770282 -60.81830192919987 -102.62715522192222 -26.85500465851773 -83.97746131002656 -17.42723344458057 -32.06528281944034 62.41196607314129 -6.4088910024419246 1.5801100745650674 -27.95720145569105 3.5163489228727904 19.559505080632697 11.420200549525623 -15.50416386810413 -20.51655667090964 9.6666297136545 38.63406496702211 35.65255573136195 28.472961779204038 -9.575606030108743 
