67.7127956394213 51.6718867601294 -10.181714403096745 -8.292891126612375 -62.151968672991075 -8.196493222362104 -57.63853548868206 73.49866011680604 5.203550938134299 47.479469198551364 -19.172820171994594 10.540901551373937 -53.0212353515918 -4.589135675659671 14.620251804836661 30.848028968254308 -51.28005070672204 -65.65465009524142 -46.86930060236345 -9.4708869087169 -47.59707620356666 2.486337497413976 -64.09288837782763 -16.661397507802207 74.77595423578387 -24.573436516209167 -7.397529526300893 16.030929807217483 15.218651430747668 26.348951944437072 28.559619585587647 -34.812145725133526 4.768620231708701 23.060742844696268 56.206518730022495 -13.413240138595514 -10.301312435348276 9.700826031512609 21.247745579665967 -25.477497279352047 -0.00917770811955776 19.534622325703914 
10.30807625296387 -22.790371236588577 15.320396152182724 -32.860359262748716 -59.43125799207394 14.5224866444906 28.4407737549564 -50.127212747871226 -42.071492630238154 -36.725321186310104 -55.93871167255314 28.63958632769649 -8.760549918460656 -11.926730725571108 9.619456908392047 -47.120765377185876 -10.987615605142166 -78.20746279963409 -39.38815103060118 102.17213768770864 12.19709220322067 -62.52266755401871 20.451532085622404 16.459591254879594 40.03627056102915 -7.388283926547193 60.60327163350591 -50.81820376992562 40.31945186313854 -62.777405718240544 -108.33542648964259 103.39602486297565 -12.35392965365445 -68.83935345594908 19.596703604287264 67.52786914206096 25.250595988176006 -14.750019423490908 57.886208657775136 54.34049488973725 15.610448852129014 52.024027827338294 
0.03021250754595639 -23.301645240224364 -102.09645048513467 16.724021814165393 -51.85823858239546 34.75118843650266 -107.62062165548122 40.65366942800951 -21.534036212029644 -0.333245751627275 11.900323610003268 -17.879744576297906 47.18156547358449 42.201405880433434 26.11064426075583 -47.2570814752403 30.626058331920564 -18.58369211899142 17.739599313317004 91.96244576850019 77.74597757713533 -23.08810558393787 -5.0960493163789 -51.98126760334881 76.515194674015 -47.425194715615135 -9.775291722226374 -22.68297020185566 -11.299111469833273 113.65225309672205 -7.443356653911142 9.537379530933624 65.65911546245641 64.92439481733022 68.99719377465651 4.100484104007792 31.569529706318285 -76.61638252872089 47.730309479760294 35.53085820880565 71.688455234005 64.73844508508405 
29.02235995877818 -48.58297539914074 -128.45097022954457 -30.72711253620671 103.86192137437314 -28.449783376410885 -105.17032644655085 73.71281848715752 -19.492470240048643 9.290677666161516 19.64851951747826 0.7791940950406296 69.0673176119166 11.821144889238889 -28.36321625436397 -14.245452188856735 40.23482792007926 53.758757536789254 -4.62637324171258 -72.84812502698072 -31.36449585847622 -13.823533297640045 -36.780627419841274 -6.426603011505118 -11.520457997700309 -1.037297239794343 -10.29413999840414 -53.92567961856161 23.835301514959454 33.33080645910411 92.58018895237262 18.187769530183306 -137.39271665348323 -10.615654556073492 57.812252278797416 63.83686588021202 38.919564026861366 -8.98170462177685 -61.403266115959596 -0.2280073226356648 -44.92912670550988 -98.4060842264594 
13.958221058576216 48.78996272629853 63.3867845950103 -68.40809964381805 -17.75026348247832 -25.518899415964622 -25.94926987883545 43.337814704004956 32.04275176545239 51.61473208576739 -41.96049165523536 85.86450066560468 -65.30208563820261 4.006964019838149 -17.572127710249905 -98.12358357581446 8.216021915236563 -55.81381761291806 75.61728954003954 10.241633862831534 -51.92571501892509 16.77114667860467 25.922316387832346 -28.345048506148597 -74.55001972516278 82.5657794858223 -11.56418842021195 37.65194145463435 -5.130525365967792 -15.851829041597737 9.564235230811542 -57.91378290626016 -55.03578884610349 4.593797826007804 -84.19189208817166 36.622936957871495 111.44822891866589 -55.568679407153624 -13.620693641666465 46.3660334388578 -20.944409353197532 -30.771995378993203 
4.468528604048017 -38.567787758208794 0.08036324359772061 -12.538642830165994 -5.232643950341748 17.435262370456673 29.59651258235626 103.54024000302672 -92.87801023205641 -16.060533250252604 -30.827164082667426 -43.710294760528285 25.944295121826066 -55.127302197235736 36.802385860139914 36.31369336214395 -102.63948415399823 -53.7291692882891 -15.297513468581897 23.840985699394118 -19.0717504518551 33.23753118954296 -29.313394847596395 -64.97775477650612 -13.482577224910008 26.615847449294492 -85.02543507969573 -21.184764173045103 27.937026454228416 20.122775150767804 76.92078374880953 -46.73663196031803 -73.85238624306126 -44.95073038876251 37.87848108755675 24.263292368636964 11.942052626932112 20.281574353825437 36.36675121483928 32.15942557096423 -5.5455843044025395 9.55457695065193 
-66.08941876859652 -120.84745747523147 30.223816779950532 -33.638955856809076 65.17859984630911 -8.776482765792634 -34.76762454771311 -37.289279217121106 -70.62782556720103 -37.15287869416266 -53.12992554108228 -5.739561598958137 -7.642135512448273 58.88314673218442 -42.88967981879638 -26.316614732687604 -83.44442501119379 51.6560308626417 8.942563972782263 29.600584584211102 25.01819590810112 -47.94591371985964 -12.230554276150874 -28.1200784108499 16.203238858504246 -73.23929559556512 3.591876250654144 27.030450069474632 36.3320750513318 28.810771573624642 0.20651629987770795 -51.90805112645551 -27.642460814534868 49.52130557013889 24.78910324812196 -104.5099414419955 87.40266324568043 42.345972977968366 8.068398088029296 -21.207097809488758 103.54994590819501 25.450993837471916 
-26.711061106829668 29.178578815802013 45.546151511701275 -19.17084534110202 -51.38802773481219 -16.957179440676732 50.05820822062341 0.0027707356499995783 -50.40584963468553 43.939606989856905 110.11310982480414 -2.6923359027903757 5.798394869893437 7.787831478688942 -61.67226030506378 -7.365719826285892 -25.29813282327069 -0.8122371627938628 0.4965671519690258 -35.000939113616624 -82.15120732210266 -113.14685054445813 24.000363026946815 -69.67336718264464 42.15698196548248 -5.072356532140395 -39.10771081088133 32.515705593462584 -77.14833466469426 -8.020281335565143 32.61270228465812 -99.51765046844999 21.004886710855715 0.7135005663721177 102.3453871939088 -38.48709874347914 -20.079555328881952 28.981492445853416 -49.56401220285887 -66.76333044844041 40.93541695120434 -27.61457604997311 
-37.47794805027409 -41.58343132101085 -1.3173125709303437 51.91957106873286 -19.7461682307285 -43.997326796238845 -42.255420004457875 -28.133274353482587 32.9176286154885 -20.320979215552395 138.10270611531394 -20.897872415506754 -79.44382492836958 -52.56837116430793 -31.164120539296214 7.740347779993095 -35.0101926601803 -25.117845255444912 121.98468160187464 -52.910086872627176 79.00632555667462 -19.173001426147195 24.628375520139407 55.15082477011535 -22.053128200632028 3.2728648320215776 -32.65290424427865 -16.916667212952703 15.097945082382564 71.9076129151924 -27.71536123012183 35.29247283435919 32.99520484488844 37.29638099457582 74.78133276225338 11.018621796853092 8.973854984846264 72.09496896210366 -40.89256971442276 -10.998836197707043 6.9824704021843935 18.964556233848572 
-53.37340084679989 11.711528390770887 2.8354621720224307 95.7493410429425 -52.241110287245164 20.987091036567218 37.6851182679424 -10.965188996894375 26.99583841361473 24.02146321243419 -88.20639989627512 1.5710534857187815 40.29567094211938 108.71644308580757 5.433015344461393 6.700935881112631 59.79721416416523 -25.777966204952044 72.76606773508881 25.429427683216062 27.03244032189222 -39.35778147423296 -83.18994130310253 -43.59500945090483 31.322599826200108 42.03442285688881 -22.21251791435707 -15.864480985944258 -55.35560676270822 24.88440259643848 -69.40782382522391 35.90175518538109 -5.155656406061149 29.694988826757562 -41.20562466374183 51.5046537194947 5.200929708376113 -25.843335000107167 -40.061388712510244 -26.133551399716637 -11.53606856601325 -0.4521956504767238 
9.30676009400037 43.82946085514739 -16.264665084063886 -117.31332986095404 41.966101150818155 -79.36710720540421 -26.034550996511097 -59.29001180498294 -32.70860725029768 -50.785634748244426 -16.43010733013593 -14.304965069511793 1.945585124468642 -23.203479370475062 4.591692217050678 120.06822922421628 -57.926506342331166 -32.74627086092377 -17.133276147384212 -57.97566852391961 -42.43582619734038 30.09037670509063 6.575651303781669 30.358178467365715 0.12033747553410859 37.9312157544275 -40.27032018381859 71.51184188161517 39.92499374932361 43.67262359683569 -17.82580522225526 46.022393914998446 31.041894989625938 -62.201618583691 26.7701392159713 -26.081133994278595 17.963342311042645 63.25895954800216 48.730937483452756 21.571357898428218 -90.98978136224862 48.81511584545886 
-29.310832533059976 -23.398225578145333 -49.4589447729506 5.921080896859777 22.357477266461633 64.20666497118249 61.49469935330158 -8.056233405956874 -1.283158580798324 -18.045818300835684 24.819229672721157 45.451202240240136 -16.904632176121694 -24.82616660557801 0.33080244671037484 -17.508390696119857 16.353427645164846 -35.13046318829864 18.49647840282599 -119.59699837011844 88.24322881131839 73.0564493841894 146.0353607254528 -20.368241299514757 85.01635580586469 -56.05742376417562 111.31224269602679 -41.68883526869371 73.0078927193002 17.18201201296873 -14.640218954662945 -10.92705859785615 52.62965671028866 -28.9539851356641 -86.79207121674054 -20.47217267866762 -79.391096275521 -38.69262332498225 -56.11627109316281 28.886612196481728 19.398721747582517 -30.85080518418296 
2.191619845676373 58.72728438549624 33.468053060570995 -31.092281431731887 6.758259027334687 -13.489563170183342 101.4652335533272 14.295737086956413 -26.73575255739729 21.974731525670727 -6.5652286039280705 7.251812669426669 3.1722773430003586 -50.08012564541983 -6.694628931876789 15.913888407428264 48.832128495582175 -34.42714328353925 -24.241695900892832 -25.475629467463254 -7.1572730435516 20.720627185077863 16.06963113503738 -36.38461597956259 67.29792182409882 45.589437946090385 84.60685439664329 -45.146734247878825 -76.12809347857058 -6.034622975144428 -72.91569740135881 5.597233885840805 8.372637789289607 -17.37879155728495 -42.660039116416655 24.6071860599628 72.90178298491428 -12.070620168081044 2.0058557666937267 33.3572403282017 7.56998692887453 15.709582320752569 
19.868114673291707 -35.02555595948439 -16.39671243528776 -40.479401016702525 37.21736351248946 20.99082302167722 12.921512641574658 -9.332078285452834 71.7663064942691 42.236276190314676 -0.1474566908334891 83.1660850882065 20.76494395087897 25.45361980792021 19.08155542464794 35.153666991597284 -78.81071115210783 -60.477805645468244 -8.914721627076952 -47.84523759502683 -14.395704049187705 29.267520477676197 66.55074753060657 -5.904129155117677 65.20501550482243 -96.1240350020722 -37.96452970020123 42.077692184415916 -40.27697046855254 13.048839694351608 -43.57067330079196 -10.921199519388498 40.09715707266108 82.67208589268431 -8.011189172132251 -67.94413895741009 40.92934373393784 38.14058042403972 35.15200134757317 -48.303930135855 18.91715875040702 -40.7183320830544 
89.11848405171958 -8.395818989489406 -16.99238439075463 13.041286230125264 -17.487034196535124 10.319468641005027 21.20684968346409 -12.686915525436426 -115.91509952041913 -122.41934787751299 -72.5894788587013 -9.697157610776683 91.9313008928904 19.06242924185256 29.388604735772805 8.602896634315606 0.003525828760655547 70.44518264276302 -23.84727620700041 -71.32090560498253 -0.5220263291825027 5.426212495492472 51.15546530235284 -10.825946327676414 55.029868291477 83.77277819096882 12.04498161488031 10.2431092465658 -18.98258940153076 107.25434740031098 -47.7420968574832 -60.103919197054566 -48.99447048100032 -39.451986852762914 54.56164996533345 -19.61570253608727 4.842152071696133 -23.635170328349886 24.661727664119425 77.905965912283 7.508989802488955 -7.540701386232026 
3.914682778596946 0.5411778734846293 0.9984027198766029 21.605914144297316 -10.973668297106961 -3.2077467409925213 -78.79710065962065 44.32043039326649 -77.22808752684597 -64.45324999561733 -64.96857305854361 38.46235678711923 -92.03198120352853 19.42273562646725 25.993343342668094 -38.9697443291763 47.84881196623396 39.84145004484037 61.48685267690499 11.957320466424754 -118.6637476430218 21.461421071673094 21.458870996997845 41.85398872050272 5.561636264246413 7.514051059699458 -52.65700780545174 28.087363754172824 -20.05448327925807 -93.06161590343314 -8.87290131451478 37.0961907164911 -6.545498319486805 105.49562039031358 58.96129857190369 -15.572104432279318 -19.565923351055847 23.837676789483872 35.91139579021972 82.15595332724689 3.615275104108083 58.78591086057948 
73.43401440978914 98.94314581672523 -31.65729964001827 -59.16484084476577 -57.73065552737706 25.303629966462953 -54.2619338314003 -38.03743649476452 24.498989074525074 -11.500381828935259 88.65661498774844 20.83077428248034 2.6042608264898375 -33.06723164601063 105.56109738521421 -29.90726507391227 -47.582661355577855 64.20975924738875 -11.403818029705052 -19.269305002443712 -39.209602479854205 -97.12504272183712 -4.118263417792527 41.902962808045125 116.60543141427556 29.604370081704875 -122.76853320346585 -30.5651438751156 53.63377057241605 -9.817113518823199 -17.121029463930963 -74.72330885383755 13.534657980560576 50.41047637845793 33.14487363015315 9.16290895877692 19.839619774604937 2.2933055288382844 2.349098686485579 101.86183949453711 -61.78026437162786 10.970613573927597 
-54.86858663209952 -79.1456214034235 48.41484131970134 16.749670721522005 6.922345329016331 21.82370986650831 44.59922682949354 -50.06428501128825 42.24366390305072 -44.32524094035214 -20.295095691793307 -24.92601211178236 -0.09424752362774323 -30.4643349776003 -9.006285335693812 18.416500708231993 -62.22775820932691 -23.787362633396178 34.06510135675854 28.667965634407548 -1.5487409591986043 36.28068368326355 130.8605795857432 90.09563772573736 -38.97262857139446 -14.22855239194838 -12.600897475433877 -29.93830639437728 46.23183406332746 -10.749025840519064 47.899630066153094 22.02664532882387 65.19463198083193 -14.581429175131014 -48.08706660539035 -141.7359632599836 23.19357575867037 19.862034606609722 -0.5264737802901321 -53.06368330017829 -17.705414512294688 -64.4728036335224 
-63.80697775264707 77.31174129610073 -65.55981000476739 -4.0868242037265325 -37.321842713433746 -88.47002509543815 -36.61198076409987 -25.010504127598608 -6.624617730777222 0.16982435710673777 -55.77800763449873 -99.24797953013814 5.5081947158316975 61.272469277610064 96.08844634136535 -6.098479013384553 -77.64228516906323 44.29410925538266 -43.22392518806346 68.83373172175149 -9.126738666912445 -84.35379383386973 8.73589017778429 77.24156919802903 -25.8658935189591 -43.30937203228006 8.215885469389587 -28.84383316497619 60.65791186381979 59.34027366245617 -34.546527742346896 -5.478640811293701 -52.28549056539501 -19.959964295726763 13.060885364734956 16.884353712432258 -1.0243848550660353 69.51717470722758 76.10907240687594 -1.2759946765124734 35.296668795775496 44.2329352386789 
39.045867362224904 -68.38860773087714 60.43531665597871 63.00412601916402 10.384892898640723 -54.845222108197135 8.592997991626037 24.49449533561727 0.7868828618270207 27.79852980960822 -9.153369895067168 -4.140855799133443 68.32405289392338 -12.960614005805757 -21.683164247687007 -22.79033756381041 -24.716046119895033 33.95721617977227 -34.570293332498935 -26.563758008144518 -14.360753039168138 -55.24456410574962 9.326519020732006 1.7717060939135996 -16.538974455316577 -34.387886330637556 10.209967967976253 -51.29375847137218 34.11895349268746 13.683015168627783 -76.55391834492727 -38.15123424566524 -3.4795876250386217 -65.24520477437399 72.71058686003605 -2.070322626731167 23.653257444439802 -10.832773470864359 75.86712404666709 -32.21622523748319 30.120057403952163 -72.52661221234467 
-8.695880951157283 -62.20925773602566 -14.2340154912208 -50.58262505549704 7.463449676730627 -4.033823568116753 -97.36937465183735 -8.41319003515708 20.21511174793351 -36.11973645959487 -15.38174233989053 -38.19540380553942 69.25152576076962 -34.432239053162014 -19.82080903245364 -22.278901965036244 28.50186962449488 0.9924592339534388 43.65598596177581 -49.51334016453596 19.755731690938365 75.16279619953602 115.35734870042573 -28.298656752661085 14.586592962633468 6.720697237762806 -67.36703914424415 6.70757981405453 16.150002473495604 -2.2502376425274813 -24.251701692716576 -5.704288985920751 -21.144793965241362 39.3889337168509 56.607324224027884 -39.69563208142238 -9.282577835424432 80.16378917847288 33.995586852775006 14.17037524918554 0.6940517739989359 1.5668241358030568 
-30.881430866746168 -42.180526008595685 -15.598055713488451 88.76626470108116 -25.19490710224185 54.26497755138207 63.640656694297114 16.281598732516414 3.945406277380724 36.033147292103436 23.73043308546487 -30.729132377627117 -24.347872988355743 111.84358447050194 -2.5960732998710894 -28.17437242326757 -33.9747283835597 49.4125171250634 -14.28940050433774 68.87696238201475 79.77802043613687 3.1872929655243722 43.33455013064102 -44.46624125296095 9.075016156152827 -26.923765983429597 -36.68123874368041 -49.31078219612558 20.39797271723818 -91.61830361705132 -84.41637417407112 -44.654571543352304 20.43682472883895 -17.44365728236808 -44.658087488887745 -61.45370955962357 12.005758284158542 -11.485499674295296 -98.0915704637672 -39.38283266002998 22.394957406686004 -69.80983543454295 
17.540139230297438 -49.70017993629772 101.90558742694617 -11.089114772213708 20.944220345783968 -34.16473252947868 -37.67270286280725 22.724469717653534 -40.03111002559722 87.22045043828025 -19.043474064421314 21.263555233401796 79.05082750946555 5.639097586029098 8.118558224151828 -48.187020835395934 14.784792078655022 22.71963455333778 -9.181074993561934 -23.98021596786361 9.631926704446528 25.01070983518322 -18.420785349348368 -5.927562194712899 -12.390602463692218 12.739406016023835 -25.152713764204115 -35.015477150314304 -97.20971884471183 -57.82659938296408 10.231284958052216 -27.015407706100103 8.533810885392178 6.060627016694001 -44.193481788923464 -101.14559271748453 -49.78340693792209 41.370840442848284 43.74325271068417 25.94098683449945 92.10129343971482 -43.30646282799582 
-9.53558094676296 -2.0541144309822243 -100.27836463041977 -33.43196638808157 31.441402525063882 -58.86667331621758 -29.62075168459184 -36.01462048868329 -0.33763702113440675 -8.887610817629152 -1.3630751103127947 -6.138996810483029 -1.920622195140778 42.19022210993629 -66.92555934905187 -51.78243692756044 113.14180337741064 -7.4299486287856045 67.0672669506009 22.547764724624688 10.568000127282637 29.12740902517266 -38.81416691668412 26.366584530177033 -20.92502203835832 -13.295449656011483 -49.712937637077374 6.062314653524685 35.991310232682586 -30.881174639415953 31.68543525336331 -23.27812121363922 45.33084700343455 -24.702822849343537 44.05224171050113 6.526688989927704 -31.766250316924555 4.49348810916802 -28.130156412590765 -14.716058412076453 -74.53843766508952 -29.277996521521313 
12.84008181808486 -38.61664882956716 -81.33000357326182 58.60458728641676 5.436127897513666 -53.31114070425805 14.170394615801543 4.345812492972774 -63.99978599673236 -67.8677167011045 -5.2209309458386395 -20.335755675351418 -12.58044572485012 27.59375214103414 -3.6965326106267558 2.7317959258255584 1.7882259985280302 -14.83670476002937 -1.622669899668373 9.866361125527211 -11.360149844149113 39.993463528376694 25.59887065722188 118.9790423023304 1.3048092733978707 -51.99715500621329 46.594061125109455 -28.005100061130364 -38.23256619999917 -4.4114739709859245 -5.593365304973094 -34.798091158714655 20.63168900454605 -15.390591955064185 104.901617501863 18.96697849173698 -57.345579395593 82.15787557106104 -50.08932477534109 -109.08785947709698 -26.254524770707683 18.09047688251596 
-11.170545687326443 76.74062059325944 -0.7230078298042588 78.17671269922512 -8.146260604971896 -51.86806856662452 -80.66066243745858 -13.040294020639864 5.726948360849942 -92.50792243060842 27.09222734637497 22.188165411747526 -2.804736433581401 -41.556190200812495 31.36429509335122 74.74991018284884 20.748824808998627 -3.2181995798530227 13.976699176750296 1.0056196200607552 34.46434484681516 -20.905510001580044 -5.150246159835442 63.24150281535946 -19.67193805840355 -16.251158098609 6.292945251619354 -37.932418956323865 15.376672165542484 1.1351052057284916 -58.429203555128744 -32.973965921219374 -16.2652417124173 -25.08186371028684 32.375771155591295 21.961781861298547 37.630947207577925 -44.27090125725718 88.45109658898397 31.949623213203825 8.756245441664177 -36.99309039038052 
51.454927338716374 37.29128114931383 21.055328227061132 -93.14571153127731 -30.1058818607292 -100.42237316536657 11.86999913374502 -76.98844013384577 -37.623462288082855 -36.99593597169746 -86.63455922754552 60.43502756113336 40.95598137795189 33.896353406125584 32.57571522310761 -10.037165676329215 -33.67744566756787 57.426941001692704 -52.09162911209278 28.247153130120385 23.52367682548923 -32.692485326622645 109.05963264708924 41.4988286602057 26.300548315445422 64.33773512360838 71.48956531221629 -16.360531617727517 -24.05239844039794 -18.71651552189655 5.421159588241799 -47.244859678673485 -0.01755001912174664 6.053845945800116 -32.992413459429635 -4.739346367570302 26.807831122869896 -5.583463465446421 30.491148300107206 -3.677521736691106 28.065361282067904 -107.16639419155997 
108.2869308798318 -41.81787238348422 11.31942997052235 43.309442574908026 1.1533561310016278 -52.654106775472826 -59.195062416121914 -1.7357518905880114 18.726174602876746 85.85538210605489 -22.00525996757917 -69.47037123794628 50.148286475658566 -45.27724413039374 78.89904877482891 -39.37995768898057 34.45924709889392 46.3456703250486 -23.987397574263507 64.34007986974157 -8.536428661456988 -28.20481093104756 28.454300314290503 -27.21159754818462 -1.9057292850826588 13.662098865945397 -62.46820927173029 14.139762336917617 -20.918681905816584 -90.53704925433277 -5.092845365100189 31.5695167262918 -62.620166817782646 27.555340903222714 24.583404561467084 51.67926012139523 38.690973663660436 41.57653908691176 -78.37849404139038 -82.14767051061744 24.32133220547763 -5.101741588627304 
-10.672364524133275 8.469482444775503 22.21343696693732 -23.45938798235084 -34.537203959108325 -66.09163388886022 -90.9256662035751 -27.106491971151108 76.09391333132278 12.1675474571658 -63.619446253386045 -31.196890667094358 -121.98453278316329 6.954747377067204 23.784005200852157 32.546346490510295 -7.45276962436169 -38.84116649654071 -18.947737429666955 12.012000307912981 20.953280239088908 86.10371064146274 -45.12297873750488 33.77832628482455 33.29349365033584 16.249042384640536 33.10385692345103 17.483870774539312 13.510339540106573 -58.03874409266305 24.37572075802728 21.060734160341358 -19.89865356299498 -1.199396544899547 59.51621399451737 91.0934046340522 12.918158785608705 -76.36528740958545 -23.166625408903766 90.22117154582966 27.166755489579057 8.97742704046567 
36.131125826548974 2.4095708474593467 -63.94028250821122 -105.10518610191552 -45.95918431799744 47.36108558933025 -20.213542173689135 -31.973028013550685 -20.44290958324672 27.33538436107831 -49.50638920401008 -56.92232853844879 -21.461220016141258 -81.15113958876641 -21.986477242467608 53.90984761009689 -35.58033181019879 -9.813324802530026 -8.025335531036363 -50.30586966266932 7.209370224121351 60.69307986307721 -9.146867263728511 75.1592885642827 -58.83372810983143 -66.33990458397327 -4.267585469323623 56.01011370611887 59.11692036760412 -33.52980178132636 -14.465576246019666 39.42590255566354 -25.83953335244347 -37.1646180568225 -32.023457130399436 67.08253065371713 -55.421944302991605 -45.193053335415385 -0.6251828126804782 -103.49957139456905 69.1520797103455 42.942478308038496 
-18.52001946790355 74.47166355748224 25.61513114745462 15.41805876819576 14.183333568918798 25.828988131510886 2.4319515416037016 13.130955859195979 -62.09863898655677 -37.91701025397598 25.367490546790794 0.9629206206239198 2.6817080119976087 27.13337602562152 102.05967003122947 -70.11613726169955 24.680229476749005 99.69828952730288 53.228400857052904 42.445546327542715 74.88055259389976 61.3382792307122 -33.35445922265148 -1.7154705630861904 40.791276423365034 -47.58276381378855 116.02405176453966 -13.747390117654366 64.43755270646848 23.071032549220263 -27.939006534735604 -34.014483585998065 -16.416227687643673 27.507648187978873 -19.575212090618287 6.458236264966748 13.838347291846768 -38.90612660963594 83.64311977167318 -74.12411956980449 32.83585231928881 21.02640158238318 
32.33722388748886 -96.8157080515106 1.750634201449274 -44.95408403414395 -28.26690373030509 -8.058269224276751 17.712172468532366 -30.04262118578246 57.107410718609536 -64.943189131074 -3.858586388947045 20.180169044022406 27.850400452469174 -55.17035721328077 -15.488097245042853 44.76234650259685 -54.81661023291973 -46.69722966852291 42.37094042504112 10.125979364549988 20.71851360150272 -64.09063131772442 -24.945703109509406 32.23130029321763 102.71413697006413 -50.856656689899715 40.23946273814295 28.67855098524378 36.448046514380245 40.72322305699087 24.87610547795363 -2.3060927515084035 -12.28289843671001 -8.333282338357343 -9.054568557172807 36.059102352719655 -10.657775245584777 52.57101543357493 -1.3653790755651343 26.042020847829995 -6.270678649339662 44.30971986865746 
71.50304812214753 85.73141520393791 -99.10208830651108 -7.180638006681224 -0.8562203696247245 76.22013024720141 -40.61967479871471 33.87873525402688 -83.47686860888429 32.2250723412278 -88.383965625538 -62.96543426940351 12.027368627106958 -42.39003635117446 44.48644406279491 49.52787552673415 -21.022621800317005 71.9048878358652 -12.297913112343686 -0.8005444179429144 144.78037805820628 -23.545771147790337 -20.897351204510837 -43.37440537868417 -24.257454861584005 -58.66241745175654 -3.983347882356524 74.06432047818683 42.99357362697766 -36.751470113744745 63.95199405787077 -30.845096861458508 17.596089097557325 11.397835344964392 -10.329044427103554 -92.99498026606861 -5.195628427137882 -31.46953452978767 25.904109445595015 97.44346547851639 17.382501672496076 -14.299058958383387 
-93.72275911775078 -24.30015932049706 73.65401985788684 -18.66131941599326 65.8123117744721 41.94804102921772 39.939786003070694 84.43700312239739 81.85572026849509 -86.98313899100805 -81.49438566785325 36.06384200150386 15.696994515118293 59.35196855699408 -0.14628239694569267 -22.320941464193847 31.80492244964979 29.680654243461372 -14.089340665758534 -38.89547490699481 11.078302391475127 17.92458818083023 -44.9373675689278 1.8056053684966762 81.93162308294102 36.817594285858654 6.389951783294997 49.993874372937114 -9.768289076257275 -32.83998166216436 -0.9993328210339794 -7.7133118221578885 92.82529494384447 64.44812243730235 -13.268287960573048 -36.465484801039565 -38.37932698642546 54.79214286800069 -91.53510242113781 -6.9935672068217585 11.097274330297523 50.471610774604315 
52.42997850996508 40.10300538352698 40.00281325845422 -4.291886779519773 -10.393402863990334 -43.3083260454544 -77.17627581797939 15.000769607562395 -1.5539411583813734 -62.3554606793281 8.729622189564584 63.44230581501854 -54.166087348664135 -25.068631952272625 -62.72828665465035 -8.129179114903952 -17.666691776559503 16.595569413749296 24.14008424965812 1.7223295915467394 2.491990419562061 22.205820483736073 -53.07210453258923 2.7137350396136655 28.325381247845318 2.4115074218335044 -27.481268396059114 1.929258448529 -47.4919197707455 -8.95513670653316 48.538722061005686 2.81759127825699 -38.89623806408212 114.36786594225508 -39.783593828074025 35.36220791301545 21.762392121881724 40.029740126449475 20.24912979476353 61.63811677882984 -13.272576393981506 -71.0275675100965 
18.77949410418265 0.8362084849600697 3.4267230076571646 -76.74619061341494 6.484886036660636 114.15032725421895 6.948070278110937 -55.54848872459654 33.83620249936089 -16.357758644286644 57.937444176783735 48.37584310085383 -83.93992191949565 -122.43024686998777 -71.98675418194016 30.510809023390788 -99.80079959453874 -24.35903205905384 -50.005074678091496 -45.51834880482103 -44.829732667885146 -15.685640494411562 -63.602221561169415 -60.16000792272446 -15.917500350229664 -7.47161386301968 16.072680238219007 2.457151551107253 -38.173987380967986 -44.45368891641613 131.05572525739112 -53.895116042928535 51.199462798866996 19.810905853595333 -76.83149671115952 13.074418304567004 -52.45863830566673 108.02016940044011 55.80064596507442 -53.19228275749006 6.615066534334286 -15.723774170917604 
14.939275926213776 55.52582611128284 -31.748144019999327 -120.77529663655315 -8.256585402663585 -77.9699618554136 -12.684512092568848 -10.369278828852696 -8.468151827110889 7.7204733777955745 -67.62096534610785 -46.3086077446179 -30.00391621309694 -70.70551193015959 -65.12112336611237 45.60273019601853 -73.53186667095314 -19.765380603137178 -21.499395755777893 -12.67159184287989 51.115827505337606 39.11555314625967 -46.56715880712412 54.72102998279845 -10.511105665074618 -15.765337529078584 -45.03471465558346 9.11137541211872 110.74466123904787 4.154372252569239 32.50348220754078 47.69695948593804 -76.18680676597022 18.271306429540306 -42.990222002825796 14.533160365215952 -22.8108853442353 14.607911467492675 -39.05800726696751 120.28045355694829 -29.88145499626215 80.54045511910388 
29.33571103003474 2.908855989954064 34.01494103984328 -24.391058780538863 19.8771941773251 -97.47153131280321 -27.262347561093893 76.84445479009766 25.06135988207279 42.4383965568331 17.68244642777168 7.158270136210615 -29.495074100517876 19.265781094116143 -13.719140823548846 -60.898117378276176 -59.08359614539168 -2.709473679901868 61.822031355128836 -24.66452937392675 5.105583336437723 -56.539014894653796 -4.128184271513687 18.674516786469574 0.465777820520058 24.862131678038146 -47.97549201429526 77.46843917292723 48.02687574157755 8.080620785245218 -21.697825184195782 45.15244706770856 40.76063364348587 -26.240549330757503 1.9476513950674992 38.018808249184495 -90.51608343276479 -22.056278374045178 -110.73791160579653 22.239717562198038 -21.858582874692623 -14.872228491924485 
37.08075821800059 -47.72364845045174 -21.964525009855326 -9.902678436952895 -53.184413217319474 -59.97673905574658 59.84281026972109 41.818025399877655 28.2220239479281 -17.007883180587665 -26.745799072569792 7.042837977391516 -43.995388147929205 2.062156800305865 6.4218790322152355 -63.08249945895721 29.2901353495132 95.91575365524825 -0.6103535192582559 21.9638449282909 33.64592449764452 -19.8169963022004 30.982381297110457 55.58011084909353 5.157382010203257 2.5112508406318836 39.38699094635248 -24.920581288431215 -33.803086447438695 -11.582329762420581 -81.57127414027352 15.686175756688849 -13.815700746568448 -31.14905607470156 1.362110254678449 56.463002871959254 44.054068484321625 -83.50985540401113 -26.41472853515273 21.03893338635709 -39.1022256473873 -18.81809173979478 
-3.759133596527357 -42.373743502379064 -80.0009456343027 -17.768922202688415 29.176467536037922 -75.03872228454104 -55.95693072075585 -59.60289777916703 29.717489787975452 8.965554015294192 -15.951985286128174 -85.53695870073096 -12.211906883360548 -38.40900308765564 -63.30866421688652 -64.44226279159689 -30.596999724555754 43.75726162321977 138.54988037109504 68.86835526868936 11.076620151789468 13.325477093536417 -46.030294945687096 -75.01060674324593 85.10742879564626 78.34616036293886 -62.97617751988838 -66.01381718169705 16.579581204741437 19.468094471631666 197.11604627891575 -17.517153470417064 86.75076478453447 -33.286562394927984 -82.6267030744036 -82.9703675411651 -12.877179408863945 52.80628843293085 12.929480015561493 -8.920064310097725 54.17795495213567 40.52403584313366 
-14.279098040392835 3.255604130899993 -6.53299105906701 53.06687052219002 48.20097704222064 10.023460992903765 -12.153446136005023 -62.56750804874613 -72.74065563506672 -61.196567221078936 -37.15450720094503 -69.08267971559667 -16.544918753987357 109.72235681229493 13.93810553083523 90.41039857852005 -16.163707181361204 -111.35962194590145 -10.161018481194677 11.31708555946539 26.21698680803266 -6.077035388532242 -57.01486816509975 -54.63831278214541 78.71719650094612 -48.65522944726592 23.96037587048725 2.2360395080485302 -23.121994530302583 35.72138139034941 -41.13673656865079 -35.12602066460086 -4.212525879947447 84.62429975374278 -1.0253570515674268 50.857327591644875 32.23084599441373 33.5633171933903 58.96280604438787 11.66344364682025 -52.37816057195584 4.24635561722717 
83.29481716578165 72.09387281993344 40.86487703928642 -120.12805600755502 -4.621117100547351 5.520808220525922 74.35353655359448 -21.39394156273714 34.67572601892209 -8.172019580416455 1.706207075747366 -20.965044649312112 62.782892352130354 14.037556103057632 8.516557216099297 3.1837885710197527 29.932852450346356 -8.00900243979827 21.691073956130474 71.57014498005528 91.62835638741296 -21.248492253830985 -45.70830653335861 52.500582958300626 44.077141189082674 -31.956091270417037 0.5723422344131175 28.897425420438722 -64.20880036380909 0.17991433683486813 1.4548328755739335 116.95419742619976 48.58839080348702 21.657673535204662 -54.070253778727185 -8.114947934230111 -9.562111657532311 42.307137871532966 -17.96990477605364 -94.66986776631701 -25.56029623477173 -45.498388934362104 
-107.15160911579802 -10.538813510141573 -57.5546187897374 -6.473682724805285 53.606218716726765 81.34382290977226 22.392077390934073 -6.912895631819049 -6.24409602012028 -39.417177892269535 36.679990999384984 58.68333772144314 62.37596815808716 33.079486747590096 21.366384214778346 30.32776351190454 -52.12503953940909 104.67721156194494 -67.42203906243923 41.185674012433374 -5.7987188021618215 14.460558316497242 3.1160911526611743 29.32373241434231 -4.8178935866564965 14.002588254820902 -28.806756621516055 -20.717852796540637 52.55779294424027 -9.860124062953897 -101.33874318060539 -0.321126311237867 4.132674385635595 90.78205581455683 37.49336613708583 -44.297419800891326 -29.66380760988897 71.48689412238738 23.589052480380268 59.33353120086276 44.51238489189411 14.271394800520874 
-103.73090351601338 -17.613366215378615 51.62553644747643 47.19534076397283 -46.83846578258324 -45.419812785745094 -67.57937414100972 -38.35680589336893 -56.71356147914622 2.4106418788138146 -55.375061144326466 -9.540782656237974 -8.530682970917649 46.90632900481722 26.1584521493077 97.92179831269733 -101.96115830497683 1.6962216380604405 42.40328019462729 49.84661495354753 23.8479827933344 43.30135964351632 9.585867526645291 76.89917937065351 59.64365680694188 -13.639152519439934 46.667697358625404 -3.1857380570874723 -133.73067978072515 -21.751016844336842 21.754910331531278 -9.446373893484237 -1.4989137666090055 51.45963415025855 64.80843949479475 -86.53132002104358 40.378439392582024 65.78400056484517 10.735299409400557 -27.97382561571198 -40.45567107870513 104.73095931948775 
-20.375838209343815 -41.20750791343275 42.802151708820965 17.31525878361404 101.06049708539241 -10.434398343460401 60.844070708949985 -3.7811936411244123 12.071277572635466 41.24797384085449 -33.72903763899 19.633087467440298 -6.392142271785417 -78.15107101261479 27.37355895069071 -8.090322980760417 14.245710916321478 77.95264246959444 10.027877519452913 -16.129424007673236 10.21961932270638 -45.543547748440005 -5.648984528009705 -0.7045010101992527 -24.025298326185453 -44.75777336251234 -16.279556710935125 76.43334078579066 -90.884748884976 40.06136706469402 -2.3865915264924285 -77.68480200881932 -21.60361402051088 -12.36844872072981 -41.68465363918776 -65.68907951619258 -85.9602637203747 73.9408341778727 -67.87797809739158 2.2228078888076404 27.753713020287165 14.852037428422658 
-5.745420290974217 -8.886887076451526 -85.63621470982899 31.907953716088247 40.97488013370162 14.759264101472302 -41.97964618331363 -37.46967006432663 5.432748141608984 -14.449216862344976 112.95087148816245 13.45176763922996 24.473999746963308 -79.44232019735276 -37.73029926902739 -37.40522238632802 39.41498217509255 21.49146698195512 1.2098879885374116 -47.965740784533914 -30.752140889453884 16.07940241923321 52.00489022485373 14.408409627860967 15.50068848243721 -31.541912562225015 1.3977949597563084 29.435828974623806 22.579951007194932 -30.093926468674 118.10383644641936 -11.81763086449722 16.79581654974599 -21.954988450539663 90.40368004539981 -34.997736531361426 49.86559549673048 -43.01650933282608 -11.154361422226195 40.00319820469675 -47.62177908396974 86.26703589126251 
21.26787419897122 18.045949599137707 10.179908322823893 -5.495671706699961 14.47247874076748 -35.26552035670736 -22.230831760133032 40.41368829271497 12.106763317942162 -7.586765271368319 -62.099302968670074 -3.581038550821822 21.518122602706175 -6.304243362877241 -22.84639966333513 -38.94980436379166 -8.382049856003553 3.852817467347924 -7.416367123823578 -46.26001186480466 -24.905990651462737 5.531599652084974 -33.598090703120015 -78.31937169675969 -6.712725820339853 15.098475705101388 2.3411082731798114 -32.153606661226156 96.32742304532583 -12.569832261075634 114.81691041511641 77.34121231540267 37.04320462116986 10.33639537616112 -56.00202860740452 -29.05992791282351 -55.54493086830218 9.709723832174884 -26.488044281464894 6.560580610703592 51.70704743235266 39.99463193967336 
34.95912634603066 -15.954725509920205 -79.58222855238769 63.28155244704695 29.835703682743993 -2.3490068401344777 33.978761784926895 48.05875618719017 -21.30603184791805 9.83884061412504 -9.281827164329966 -44.36958859780295 -52.190131026695994 -70.63574650516932 -23.84140932974431 -29.756183272493963 -7.893307527682062 36.664771449934456 -2.4385605135652533 -67.92600167898772 -29.36937920719404 10.171810763432894 25.995247765833184 -93.53775166187613 32.92667114774918 -66.68589934741584 -5.245615699429326 22.590004592221458 -5.886258374309907 -5.640716566039135 10.877753128978442 -5.120621352250996 32.97747609639444 -30.67000699836344 -73.75605209493948 -24.044184849427655 40.5394731699882 17.947312941675296 -22.40854754668773 75.71344487404838 -97.86428735874541 -23.967146544949124 
54.19691773008204 68.87505898709318 -37.941850684525235 -61.87691813877965 -32.078272208737204 74.52064688392642 -0.22865001929034373 -42.59035174460887 20.63033236709844 7.56696488364409 26.910132350028565 -9.838385723864148 20.881408944998025 -8.519015892273773 -59.94015773310383 50.39229317464882 -4.033861759637763 58.99963291624348 80.59283984894938 -37.98716548301648 -53.95298205156297 -70.61764906343144 -39.72930194079643 -30.897757393946904 31.245862025636693 -12.75491390288909 38.53563483775331 -28.595054349569065 -2.2163169486617624 -48.93691504329458 -10.413194607323334 -71.95737094241369 28.299066299350518 30.76056335499576 64.93365488512684 42.18261834311685 -16.76620871581567 -94.67547518448545 -42.35893369958248 10.431969032097665 -70.61580032551268 -26.958117346631873 
23.263100449420087 -28.05819491379343 34.47464132060871 -47.47109215143629 -73.61380911903079 -18.418826103227758 -81.54607584388563 66.08955785215767 20.24511187035496 -13.831894720725742 -34.21230669508053 24.747178980225154 -9.295662313097441 94.10787093656502 47.60241328430154 -44.14340060741531 28.430409475904447 -31.377815885822365 -40.4035103810622 13.833058118140283 6.378603338248982 37.17340558633321 44.95182660416515 9.935670350946035 19.68512196865172 -6.925052537357939 -5.285701641960713 -8.350909286696561 -51.993681550561966 23.231054986575767 48.70087792219836 101.33191356496849 37.40802628607574 -35.875042860668266 -26.602547087453935 6.068907063424483 13.912879488107954 30.733987121548402 -19.643692739382086 84.56822456078045 69.83121605531149 13.610325311190518 
-54.46578543468974 2.0503831082184276 -11.67062299765653 14.00941362772229 -25.895383215870897 -21.96859153354355 -20.875382764261047 151.8029847288369 3.4283174935780787 -51.70948513468428 100.48537614484523 24.752735305631326 -9.999485526528046 29.34136799649298 -48.53849566445757 1.6793829593450589 18.799804452054776 126.184246784787 6.8309695757108235 63.60597512664692 -28.818581625457252 125.19737217869132 40.1775416856952 -29.402890708522303 18.084984094444355 -79.71405684474429 -0.38625457355564774 58.893729067054394 -99.2100885205054 -20.675447715080583 46.5490583082111 104.00588566056851 -21.278744946496936 0.6101116266448521 55.26288790659616 19.320597991408732 -39.20007030194923 -13.892361639597125 54.69333302260767 108.06189551502732 7.907741237479278 32.40922262724464 
-85.13416079194262 -43.85030897102784 -23.800769295505557 14.907686697637864 -21.61838350535813 -4.986375111739065 37.34050976648469 19.898649197574073 22.016721382422087 -54.168164542761936 59.73126638438641 92.129199762522 45.01544359048951 -10.986500069868738 7.914870088007375 -59.12408841369098 -15.197324985447464 -15.932180504010267 -102.82157868177298 -33.09934313980315 12.048277284484287 53.29164775374234 -26.005237633457487 66.52669366151704 10.809903031191235 -27.24645950409552 -48.930592440928365 17.32742502757497 -96.83331092979647 -36.90411820850965 61.12451464243625 19.832439123702194 30.45363502293876 3.8104073275650174 -20.72920789419871 71.9903360971777 1.4707254835576369 -13.716358539256243 -11.582002948400115 5.059199027331042 -73.92744542528187 39.30339476790208 
-16.39047333075989 6.135310911211598 22.69309101299957 16.675824103660403 -8.98215632135965 15.784248885907074 -37.08519592591815 -22.239131488190136 41.3206399065655 15.30307329509973 2.677186112345509 19.261150177518626 84.22643737202674 31.22389247166067 4.985916442207914 45.63406336414355 20.322999389052278 4.6680477101319555 37.219355482163685 39.27977813533613 -20.460265060422284 -10.104535089924653 7.761260451928707 15.401056243389203 -32.09315718805691 13.536026466884582 -13.098086191583905 41.8232202456421 37.23747600652344 40.63470311855464 -0.7670196005784194 18.75835210292028 -13.102633004859912 19.567054871129756 -64.11043758039693 112.75564490957579 -86.00766813661446 19.441876879528344 -66.20149739456852 45.833190417327664 8.76963892836629 16.613584882082915 
-36.06090187168733 -9.775901430171768 -15.154032413931741 23.17461027240197 83.46068121239051 -73.49026196006292 64.5569204621784 79.22671347191839 -74.3396456996291 -54.58818407433821 77.37284787662497 -73.76019137813576 -49.37821316417863 33.79109731028269 -22.76694880081885 13.470234382294414 -37.5389953953986 57.49907577945079 2.7113589495111623 -10.2664304864946 -10.536839519797093 63.29722997997621 0.9697170769821768 -9.649041914432976 -46.47872999102449 -40.451119685765384 2.044943116220617 -49.44741792981271 -106.27818568837954 -26.42318531069376 -17.32869758110506 18.071081210655187 -58.191560861759534 22.296774927403966 -8.67988563360745 -14.047124146427812 38.843643314821456 -58.97003106482471 -65.73856055791566 7.6607848611875875 -29.041298580434056 -43.458530155385695 
87.69399577055435 56.98351070384798 -61.60915041834151 86.912028217215 -23.734427632457617 -39.802403949887434 53.21962926036483 49.876955659032724 23.627338963584354 50.440356705589735 64.24959358626403 -5.399324647397091 -72.03645770096921 65.57828622848064 -44.81712122086397 126.73741815609628 -34.11308432868682 59.162726536039024 51.249582520671844 15.293903660016538 25.295241151644383 34.435655506927176 57.31642293403351 32.83282030725361 -61.886868745816116 33.09944791119673 24.061368904479156 83.61070085782923 -31.075549807600897 40.043599557789136 41.894959405734475 -23.89410193350666 -100.75978643618951 26.32637138809653 -89.95995067156325 -7.874376452154516 2.5878039100094252 -42.133956056740715 7.170433720336115 -84.05383971534994 79.70704316968497 11.970191303618856 
-58.233613639319756 36.55067973733352 -22.734690620223976 -39.25476661269907 -5.991612052944622 -0.07902255976783756 -84.20908961475865 -59.9396611590062 -79.09671569446351 -62.863458309132625 -28.46318430204762 -26.49759148750944 -54.94615339714338 78.44065123126398 -38.93952646444068 -57.01567517119443 5.7692376084311014 33.66864684310782 -19.223611626061327 -2.2119588564885317 45.34106337986189 25.91904549926594 1.051413901618111 -3.118159608311284 29.55926566535557 -88.43865378009761 33.1793962815729 3.7293820750241977 -33.395474144932486 -67.87200456310246 71.46570540134847 32.1531950471451 92.79502322355629 9.441016132769066 -43.31002575876789 84.09077871246372 14.931568758143275 2.499161933290634 -1.1852305050852712 24.156185360089637 43.72902806056015 38.404444038716015 
-50.820120736154465 -9.01529566439465 -48.74808075841903 -1.9331776342806601 10.160760336293608 -81.49255870904759 -26.92598730037861 20.669027779939327 37.51965489484605 -58.19414155590369 -25.42053501879043 -39.24621142926603 39.32590692344262 -0.4366892167829295 75.95995027561527 -29.43908682451584 -76.32686511488032 -21.729392005529153 -69.22133047325894 68.02119817563809 -11.18876172012652 55.076118523072225 -4.345871382326713 85.59514471936085 23.497650693450087 -32.86927320257365 -10.912405281503714 100.05844705005428 -1.2330393189762416 -82.87248328984208 29.306488052507518 -20.016025915008356 -52.63353228224773 -10.758720388837407 59.489635699601536 -41.08816452772376 -17.318858594770514 -0.37294960037705815 91.8812517135525 30.23972667333827 -48.23856008426338 5.35313568633906 
30.38516531526834 -41.82830138154863 20.779156778858997 3.115954266181717 50.05932934130734 -115.95330182005253 20.663367488779194 5.968897736078518 -19.002140837015187 45.22065887786061 -39.09676479473368 10.010814714295712 -1.0361212907987691 27.215079618729785 -8.712350515851895 5.072132660703262 -62.459424649272215 56.42853106525583 53.0292153373152 -74.41618641329158 90.24909089212285 8.857061117863074 -52.80047773005664 90.4104904900966 -10.474986344906702 -29.714652363911213 0.0815018587077667 32.26602895466882 58.03875434741777 12.66115438867906 13.937281507489844 7.3445918695146 -31.119747639710678 -40.02162712464268 -21.3666511547667 -26.91972958814476 -3.13154883165527 58.86305502626094 -31.90697365746039 -51.43159393563424 -46.26956985943889 -56.01378572145096 
12.49090912932595 63.00039931199716 -0.2831894223867766 -18.836885622887042 48.561455563436965 8.440093109304593 -58.944965391964594 -16.657612762227988 -24.615576806001155 -69.28063725273735 -153.50953412729817 33.368314013161054 -25.57586188645727 -29.164588273033278 18.894346438352954 5.931668464381395 18.77713343510514 50.6538923920676 48.718611892854334 -65.73525103301833 -33.49253622913241 -24.368828267282133 -98.96971889314479 -47.81050192527744 -17.549128914078008 43.37385466194884 -98.1983530282828 -34.533487054286574 1.4245827679607688 12.519003994808033 108.77362600618423 -10.180364635198876 -38.05281369824724 -0.557526604252198 -19.815173136540075 15.309051262893405 86.38668317721611 18.861384366253365 -81.83498590314866 59.32069971002686 -93.74860862742085 49.13870602569481 
-34.22596982229646 35.3955612471763 12.840943561688118 21.423900626409637 -11.006251223057955 -22.762807103973913 21.784081686205376 9.604479095506498 10.09874870072309 55.123434889844695 68.49517582543398 4.8136547903889335 -81.35347017406946 12.313153316494725 -18.819372364466766 -9.367470727947827 46.028497925270464 48.953831000996175 20.52920877267788 -85.27980313667501 64.82691710046915 -29.65062027335143 -13.06479924063546 77.24824270806317 98.91397511809116 -11.179998999551541 -17.59482803807481 89.45285057590681 -18.756421292450202 21.685377476760983 45.07255088643888 46.00472544317868 10.361403367224712 64.8697432737762 -16.98976803022213 7.342404502659566 3.1514432280900313 -8.898785417106733 46.181230673462615 7.457304100607598 25.203966763917645 42.871650937630065 
78.70159225245932 -52.950407607509256 35.12297356969124 11.346089871855384 -58.33572746230416 6.071042249984053 23.02700296066782 55.77971976450583 31.284111176436802 -56.66322417274548 2.793195940770709 33.669095852556886 -32.11141923358298 14.09173070367861 31.390610676756282 3.329710249672295 -66.2576422771935 -22.005032701910284 43.843101697789926 17.901349998126527 -59.08941077212334 44.61477177482731 27.762288222246085 -33.96933278597908 9.766843442522017 28.361616354182274 92.24557260218108 -45.96556677816898 9.90858603094385 -120.6815497653846 -65.96030199501321 -18.570872450154397 -24.929621706242642 -91.38626920368175 74.58960520677292 -38.38659703188026 38.03019378154351 -56.62814043986071 -33.71344797677502 88.88488655132306 -75.56350784686283 43.324955175063664 
-58.38334557896701 39.22364108094406 -0.9096753014756003 76.1635422626757 25.508123475718687 12.979115242931668 -29.987795495318878 34.07084041308121 -8.291029953984252 -22.013700209552404 13.573115972228807 -14.325765269401233 20.024491495311658 103.22464004551597 -4.05889250679824 11.883356905727513 37.94026764832095 -22.01663845606715 14.17610708991037 38.45091817927969 -43.326574466956586 -28.393895218490748 -26.7763526148069 9.822405172292424 -13.034152163900856 -64.74102087152038 22.276480219568246 -93.14590396980769 54.46447987368175 12.983040425983646 -81.19523386913768 26.683172567525535 13.303489651940852 42.0448039298865 49.03467355466056 -37.98293084487783 34.0492525270796 133.88404691572828 2.3433295635493505 -5.745612340552858 -61.808822057168534 10.550534511808753 
-21.04185732743477 -44.225614392178514 20.16331113091752 88.2869766913892 -2.134435369496944 28.908442396356016 43.91191766901167 -67.79026225891518 62.62099278624899 20.747442711142924 -25.79898588867746 33.136051154852865 42.905608647007384 24.94917817965726 -86.29049183276877 -17.89798785831149 -59.11991636603347 -71.67330197161269 -35.78187738661894 -82.59160713731482 41.96419431603705 -30.09678047704975 -9.60468255616233 10.847207642420708 43.241666268854544 -11.87330364034695 14.159436884247341 47.687934020485464 5.516532172220017 19.513006514934244 -28.9568132785345 31.411372620225908 -83.92325445627573 14.749456087314142 -42.511055310102925 -118.49253318724567 -67.58484918218859 27.150350614583676 64.83272150503133 -16.40348573200093 59.308235222071836 -13.340330019567922 
-54.51239206484551 18.153784566902928 -16.968158782479847 -31.701318009121035 75.97131903004826 -38.316630110556225 18.085683438566658 24.770915616756092 -79.12923375677303 -59.50541110012204 22.932794240992557 -5.138990704032914 31.271849703778198 62.61351363654637 14.282999330572666 -52.479868790510885 -48.98689032221949 3.897751837925736 74.6855722337778 -27.07218511853208 22.215879560155102 -22.606598369290477 23.536566720706023 112.85652375072061 53.74208014106283 23.017962029819525 43.92821199428775 -9.352440245753852 133.83161005925456 -35.72226461795007 -45.362451703331146 -25.28637752118633 136.61216175101433 34.50672775396457 50.34832132946271 -18.11707712346275 5.925627858396254 -35.02605022833381 55.25991208097826 -10.081609714605648 -24.51923380678592 0.5385570736487502 
24.367159216523667 0.8882751435382695 43.00017914554362 3.84635076863708 -6.149617628056909 22.17928031499038 -46.26050708372458 28.821976179394696 -68.5482255214329 -98.0437771296174 6.08638968968313 -13.972460604646264 -33.48641248218788 54.53324780830391 93.61989409508521 29.286833581340996 -58.87048094223836 12.174034469231032 -46.13942658652884 34.66419847037666 122.26753839624664 46.75051463098684 62.226533873159916 39.70892567258408 -31.44068242780174 -13.02872044120903 -3.5941574434067305 18.02027985779931 130.94290201197632 49.82892561949371 -67.61295347130083 -67.39404511604127 47.10205980631968 35.53957609120143 67.58965374968417 47.63769749132958 1.046347146919393 -24.29650058937001 -24.361273420819153 42.32746640795533 -72.97877161841359 -20.378467163549423 
21.587560493921952 33.7079046739222 -12.437951905508811 -15.949211973222186 -35.13636712897052 -15.81055573409739 30.998681542976964 -68.68405828185894 69.08003628900762 -31.448149006323106 4.255966545177776 -6.147520144547906 20.88276584453113 48.13938847550419 9.206453310094755 69.33894768583953 -22.455051218445256 107.51709894780561 54.5975852076829 60.61633520460069 16.36103811374626 7.887027890166883 51.89133761246016 43.68712940869277 -78.45751883157716 -5.7848539250402435 71.78940204467175 -28.38530706919089 -2.4599952510656338 -38.578260832159124 61.60056026784917 132.18681302498322 60.10162377408706 -12.214665479404264 -42.854509123811766 -52.343860340795196 -60.08188475992829 80.2145078511769 -12.900779538117362 18.028141018639353 -18.1164159129788 8.452202803783122 
-33.42617197815533 46.284372073842334 35.32877504659239 58.527356747166095 -13.754678247443305 -81.73488256803334 -27.43858241106296 -61.924512362219865 57.77258531603397 0.04301656481194793 -55.23502276410661 -56.125925882739644 -165.5783525591341 20.449338120643592 40.54482689441919 -6.014992365172802 -24.217765617980348 -34.63681513159682 -126.60947957683211 25.99852493758241 -0.9398663545107617 47.12552230075753 23.051023887611372 62.65955332619532 -53.89750981387193 63.637656338244874 26.557097349012317 30.17172780160469 -17.126905749623415 29.811617209916093 43.464824296895635 31.691716091101668 -32.3403959874113 -3.885084421941052 -14.835401167410089 -73.79802965390944 25.9850921040423 -49.57377443467433 33.07969618593272 74.36973264135578 23.620960343531678 -58.878217966132986 
11.832886729113051 -3.0032772472816593 19.277635163857788 -10.437582456681568 -11.5492963061334 50.054918942200615 72.44326522174345 57.101502469428155 3.5755827659521637 8.559289305466644 -29.803770017997053 -48.365640418109535 4.455635887397317 36.35661240952644 0.4043686159425103 -11.473239734277294 -73.30375394932135 -25.97020429717639 87.45000402782384 52.193242748631974 -105.79009429304017 16.71836467460004 12.53004308954801 -9.516487611199782 -1.7656712065776716 -84.53230602258003 45.13520952751485 3.5398497765346923 -45.27421097250123 -76.80139404502437 -6.700675517932581 -35.53143038892206 28.298245865473625 -8.928550492468512 12.815126734957161 4.720546212526914 -34.42103046828458 -8.763695025518121 -74.95542359885073 29.779283086838763 -15.03663003672154 -33.92437003828478 
50.372158529507765 52.163674279677345 -74.107056922141 -19.015673940976733 97.4736889398529 -32.908134667806046 -1.9117208503502914 -59.01315355361564 11.85451751166595 -41.33825048692027 34.36510186112093 -17.42028958217353 -22.489511287384133 32.267928127646144 -89.29689848433512 9.692461300022407 -106.96335830859307 -58.83454048710615 3.7761414301790674 -3.9180955586554647 -45.1675803190305 76.86876451518982 -17.42487294575131 27.217509122590556 48.89001350063731 19.893281750834507 -14.892220358575475 -7.597824477895031 -66.42802016390151 20.870650658388165 16.997450908964968 -69.53828759896538 17.06659596573583 -45.56946731037301 10.127261116180216 26.427811539022894 -49.18694848554973 21.489266501701987 -52.20413009827181 -63.63237708661538 -15.574606268522484 16.264845273802855 
2.1263401467590874 -55.666427296636535 15.3094459920183 57.04124584866835 20.800857802470887 -48.672189020431645 73.87476476885762 -14.181452899102473 -7.062250551490202 6.075804204005104 48.63027402791588 55.38364033449893 -1.4372644231288754 67.4484600718959 -12.761135917514018 -23.810186768350246 -39.96553346564572 31.030451668154466 91.76669767442424 -6.255294710342981 -28.94415732534217 -0.1753724008631375 -11.21291784624133 22.811091269317096 4.88067575717343 -4.600464516540516 -49.158976662487774 -56.186183153994925 -21.278245251958136 29.389516565684385 12.901819535087077 24.427782224937136 13.536731385588906 -131.0985959499205 12.45828037721087 5.39483811793658 5.539743758375823 81.57662475293058 78.72977403545202 23.431117980241456 -25.664711450868925 77.1555010553021 
-25.011143433854688 -16.16025758255461 21.56119946757255 31.79575164016598 15.724873863517786 42.705752686617046 26.914781848954156 0.6886910855594477 -34.91322111356549 -51.252174867146806 13.872320505989709 8.487966735015876 73.25261050545504 -33.68955317122867 20.592828774237333 12.933044133830197 46.75074022450872 -55.241063858648616 -44.76990645909694 -4.531370282076055 15.941735763335197 29.111568055049972 57.635550614138495 -60.0370955986348 12.134700557094181 -57.14470845879225 94.95291948591493 -20.31780416249088 8.448105729056092 2.66287671641798 95.7331866332204 -47.50586037217529 13.870368266444268 18.644014249602574 -68.2677372812549 20.72230641008806 25.06908915788113 -5.759624387700477 60.952313220850094 -10.30942485226535 -8.139873025618659 -8.217460493607229 
73.38215515003056 -48.82720080926749 24.61310676977826 -30.102745942250188 -30.46297473681221 42.4029539260969 57.36747699547333 29.106014167435458 3.696629722863176 -26.072898865407634 39.0723911461885 50.63478697372551 19.732073646484277 52.05550075628289 -55.24808437538123 -54.72206541242341 44.30654279456543 29.50774339368232 84.85056303539703 75.56408116850118 -23.17382103967987 -5.155952685739207 7.159328235465933 36.68970553825438 -13.56759631840733 -71.98864633602174 15.702334557663093 -23.251203392391208 -74.69016921980638 33.384967548735084 -68.12422884689164 10.050692229419223 -53.93987694056851 -5.1286045260479725 -51.41137338850234 39.00674610845767 26.666339939201443 17.962475221774003 -60.99499817123712 -14.450950032617353 -19.836048279219995 7.405588079487412 
133.77851543976578 -6.35928546805678 -4.700861022005732 -20.960339239831963 -21.027901758660114 -8.174907402001336 -9.792281015315417 -2.306864351978533 -73.50343203854993 36.826811217810864 10.25670494091745 27.392363579607153 42.388548171509214 -5.429489697573446 -17.289933866324976 -66.68396940822227 -16.367166230918137 17.66652378300541 45.039291521013936 12.768909359769584 -154.53309538492155 0.19047751879111235 -69.67947657607735 21.68032581479279 8.929109721475237 1.5434014757021552 67.98436224216425 -42.425388435734625 -58.67161957271573 88.72611888262227 -26.72932353343377 71.10648751205686 -36.15761738500785 -19.80086557591337 50.01829765666603 -27.214388008623132 16.000569061433897 54.44893913826377 45.67839379590746 -55.742324503226826 62.13551454131382 -71.47323781684234 
-33.07288707480352 -92.10499696580675 40.19126841123362 50.49548130989295 39.67859159475321 -17.227193688500755 -72.56024242065206 -54.96525285408797 -15.962643259780881 3.820255725866671 -87.97820994213752 -7.449020155456721 -73.39160639436223 -56.93586916548184 -35.98629427604645 11.899550317471776 49.08304030512475 -1.556464113831699 4.239821427596903 21.342077334393583 -7.715483239183211 78.39926544434074 -22.423375599894424 -48.32351229520332 30.148411144227136 82.45122378372716 -16.331250598991897 13.115756654723947 65.82820854766113 -9.446802891004435 -48.199907882296266 -87.47647698151813 -96.77008351962002 0.39228518500710385 19.965638672911215 46.64805897795072 12.494120450613877 -9.241052392624544 -35.556497758734835 26.669510284942287 29.508855101008777 -64.78819512157757 
40.46350404341433 -18.027129795616602 -67.60387995276398 -91.26012865012292 -82.01708047952513 19.53388424121769 -0.28147003166439766 -68.61359890918803 -6.823540185317334 -46.11357228216006 2.180426571727943 11.646894210491137 59.08464496603813 12.300341989461321 29.702502689545696 2.3988003613699274 10.177380340927686 -47.042662079080785 -43.25679127011328 -40.33006581514935 80.97933555865414 15.450598549315506 -66.28452012435129 -85.8710696352032 -17.52071839292808 7.602835007153435 -80.96605610062284 -87.94792287118729 60.56614085009315 -3.6799836394137486 59.91625802859972 -0.8395922819383831 -50.84161296952796 11.303404074042232 57.37842562787175 35.618064866000395 -63.58356824215829 -51.56022862605536 -91.27387625590919 30.597449262267666 -79.92365120210351 20.48004141547693 
-68.49479440511519 -47.259066582673555 -55.65350413823275 67.1277730556766 -9.637422363833812 -41.55797489854526 58.634526526608084 -21.705307718779228 -11.757413142094833 -88.92633744458283 -6.159548247594318 5.357000163235831 100.55329295537383 -8.057937732138566 -43.84448376719579 28.56139496385981 41.905682119469 -29.798826177406664 34.49888109680745 -14.506340015841282 1.7175556884638479 -35.67118989575078 -15.22837433930399 -53.88729386821503 32.494450045897295 -118.36564643154874 19.016347862781608 45.641079991800844 0.19831866056459735 -0.9735165738715811 -42.15510911536462 34.21845031510459 -47.81354800627342 30.830656288592486 39.42305669340122 -34.67816235795565 -31.967217394378796 7.000780414724501 -32.391561047092544 22.9795833652867 -50.281727729537096 -1.450420207048083 
44.04378928912465 -11.11985137622715 -2.171557596503554 -34.807072333060134 -91.35257221639718 17.163544809748437 -21.772306201348627 -36.999169610039324 41.409469795002664 31.692422291005425 13.03815075951058 -5.104334414743835 -5.837713924138038 -45.891887059199995 21.27189673523549 29.914457003691947 51.89426405172146 -19.105023442350397 -17.745144611277887 -72.13793367371966 15.093559753708643 96.60681742263439 -5.159265011489197 48.91681804958768 16.882250998419252 48.575543338072535 -32.70249240236092 29.543004834811025 29.109848248514314 0.7294159858247362 -7.5331872091909915 -17.214156437259994 -40.901158716793276 30.970042752870345 -12.951307741667424 69.20423354702459 80.77414723263189 28.713025588182145 -79.59992007134363 -102.47079238372697 123.38970607863907 -56.28784441849432 
40.14375322701465 -50.467680016293876 -49.5652786127981 6.488011510087464 4.399537374356232 -103.14847024519393 -51.29621715478929 -11.422980949377559 -70.70860389711815 -61.297655807212124 83.6847453469731 -43.31769655077188 2.979117766186404 -92.62159156389428 5.2278934782747335 -72.4730166212219 -29.987202422531187 42.696656162145196 -72.00147375918978 6.200456312752941 -6.2678917236552785 65.66992254376673 -11.701800991843971 0.48592844451024 88.24709169129 -74.59177697741002 -29.46717255161649 46.203578788845974 4.11890910366448 12.061620944769244 -22.476552412274668 58.15530161985344 -34.923683245439875 -36.98703331712519 -50.38337698301901 28.685882833990753 42.0749350763349 5.044707079772411 83.0739358254766 -18.65645995333861 -53.74639406376593 -29.732953456978024 
10.121525429726425 19.323055816503917 48.36450261066169 -58.65988356212755 96.96169549477246 -41.47744454391298 -96.24070127868222 68.09828352580195 -89.89955118662363 -67.50526022930887 -20.835128036468475 -29.61821267603038 -16.958411886674995 -35.170079914580825 -29.07383172440151 20.86797925806028 -45.58533659592289 -4.476226105320699 -79.64767377420361 -26.41475716340069 -10.918049209668172 -15.491277300355762 -8.9209295672352 73.16542690331775 28.027953763132423 58.480433706548 5.426759329001377 68.38175566185068 -75.42148312662594 -28.32324106507378 22.34413422014516 -25.484489120044078 -21.929405835894382 -19.210250058233157 47.03637484192835 42.214626676688525 -72.90090953270371 -75.41329367064336 22.834401915052776 -29.666260050385795 -8.709087180830707 -15.157656940199203 
-78.98422243593087 29.210020592579603 -28.720156165211634 -11.213576802470014 36.94346619425382 -125.1679302518315 22.978905041567142 6.319750419128528 69.89491926285405 -21.953094426871335 -10.968226494822314 97.73952512619395 -10.55118647111903 -128.62407687644878 39.419943330053144 17.053264327888975 14.239427888976223 53.12067798731964 -50.72207872185388 -78.76346857095531 0.10286135461606954 12.171601124377426 -15.419188071599255 -48.62041770767012 -29.155040967807754 57.02488299461048 -60.44629182763354 30.72287328811318 -45.42432916473988 -23.227909007635184 -43.1636348147776 4.21237910107434 44.04301332557788 -16.253330727224178 -16.017399630157527 -1.8907102837852556 -36.35896623221548 -32.17291909849799 32.29119095464691 12.450051704012632 -76.04692038569418 -45.119010198192655 
-70.16821042243521 -16.02180312618954 -66.31336646068145 13.408879843190302 35.28123606937645 53.77604942762405 28.89880006424104 -24.971093963363014 52.01658930661662 -32.37870399688266 12.405001667597015 -16.969856029184434 -79.8814270349361 31.172050450843294 7.331908778025387 101.32133313758378 84.56121725703566 65.42319074209576 -4.434149500569518 -62.29741740362062 -12.994357009972823 4.482836147345436 24.63073927219946 83.47161067111047 50.88121672864758 -11.47697902343909 -42.5886283412934 14.91930480517351 -31.963310929307532 -12.589190448668912 39.603280011113675 -35.020388631246696 25.671990652172113 30.552996021803473 46.55656547348336 35.382678633759205 -81.39831501424136 -45.21480204538944 -94.77669764924946 27.81711270947987 -5.673674419059273 -37.19495538469525 
-29.85589140304206 66.91381513010654 -13.955012483961514 -35.77127779655712 0.8920109771457141 -111.55014313952861 -46.62980046530828 12.21749096217911 32.51535076084501 -100.89087416472616 -23.30126974253746 76.26201635272731 -44.89958423564474 -53.26608201452241 38.84025329316301 -23.08682669883708 -23.003421202933318 70.81056564396637 -73.48498150392606 -60.521926395246126 -4.83857665755723 -27.08115656941798 -93.49334098210274 -52.03641399828561 51.01913388336137 -120.6913557847172 50.18128591117743 29.64905668662483 37.54577782608914 85.6591803973612 -56.1865779857346 -44.91043701228177 -31.795684538881414 -31.216173535697912 -14.911907672412951 13.936557590844453 7.076770420907888 103.03869860968365 -32.1176887377188 45.55832978157377 20.97122034915775 67.72884484542953 
-73.60589135772969 14.769980718114859 -94.10818170316091 -21.317740290399524 49.199110405278915 -14.461604717480213 5.6468183908119896 82.02574296044531 17.13452055996319 -28.0557494343998 -15.688915733474063 40.25593758155062 4.8075570700398345 32.95623205548534 -58.811794459535626 52.190905188056234 -61.01231720999811 -87.81489004426862 -26.730466574318058 -88.6693794982599 -3.6350466132678405 55.506868804928764 -50.98000569707003 -12.80827123956865 -9.091979154560354 -19.482725906263376 19.234775148316636 -51.493028106486925 28.328230337444317 107.69970918049485 34.60390105545339 53.81132544290926 6.494176118181486 56.927783116592316 57.55998843741762 -107.15195872388885 -90.49533517557362 -72.26662108825242 -13.38012953286974 102.47913554877685 -50.37985683254411 53.613896966119775 
-4.4764806723319435 14.736920319740769 13.01600709421081 -11.48507301598486 65.29651211558084 -47.2626446407521 -45.486895212627566 -74.42112093953418 32.0778076807264 34.86227445768471 14.443985666057689 -19.810878110774045 -15.624226064698165 -47.1350174803414 86.4591879056061 61.35163977049695 -13.02000703695757 4.554365950633225 -97.09020449523683 22.65791400981214 42.090866510213246 -21.072696837034453 24.378846136560213 -28.394453256298245 -69.96020691398365 21.33437870673182 -10.860173195646036 -13.784527388162372 -69.80494321363865 3.3617131339991575 45.27195812877061 14.334928321267574 57.0777596965339 -25.581647322095694 8.017870098260847 18.67899173951551 2.793019208305835 60.38929022241929 20.96014622266651 43.80887777858899 -69.15386303671944 8.11026086048537 
8.898281131360159 45.74504911778735 47.79405676307817 -47.97432776949142 -92.30666912678983 2.624575513818585 15.342497238565835 -11.77584496504127 15.64107854282464 -98.92889969209516 10.094969375914047 17.05844280251144 46.09298318913439 -14.753180859534378 -118.20322037395786 -4.792049890264549 -1.7350749108166759 -13.994253449264805 -41.28950387090998 80.55542421527917 -54.349409247529515 80.28580108927625 -25.350245447862523 -82.46298621905417 -0.4813805513551008 2.121014872416551 -5.873278227201838 20.048203865632463 -17.43342225950456 4.598603859070476 -34.60078576367702 -21.271771268679878 -48.57079010615287 -0.6426276112964192 101.20779467025261 -10.956293019324379 -47.61633784676836 3.2390162639642 -57.54864839097994 -28.796685642096477 -39.08028496960238 40.40861627992354 
38.04898731482871 58.41090614706591 -35.40959815157542 -21.676452886587175 57.27760124999172 -53.743224406282444 34.42054669248502 -20.86179661621347 50.16528552083222 15.003363014247817 -16.878429518616457 -23.622101432565575 -24.2462268305785 15.405066286439551 -9.7590577122185 -47.246567613757605 -37.06281661654305 15.134779150443377 -2.418936728156159 49.56400177314211 22.633972305107136 27.300718047262365 21.9340782290406 -75.94677795757843 43.88042515579641 29.857171209300542 29.359211268395974 -68.7290996155252 -64.26707671832183 -9.922289669765952 -8.001120939319815 -45.45786199755532 33.19599399548017 21.263493782628004 -20.845637813503533 -10.673013033133206 -25.90944291660636 -44.9883148507413 -88.77190940292832 50.84641527108661 -50.53719270578047 -6.807772912519873 
38.437724929619506 -10.615515733602052 19.817465593562154 6.71010233203367 4.463282541204184 59.31020018422173 -36.330455033183206 10.061829052796098 69.95087730488298 119.46815747148233 13.000450438293127 9.132908331684972 -33.902685220608795 -12.881873161974685 -22.358987767687882 8.570731207945256 27.430620447165502 -30.33539364886275 -37.88756735756223 -23.539611140278236 -24.138299796927065 8.099615407398296 -81.00158879158305 -30.966116396472895 -23.376618684296364 -18.033820314169294 -35.4480655796908 63.66519846593063 -12.096595461522718 84.66365746553741 -60.7651787502129 125.60485519880594 59.46005955818459 26.510863638408438 -20.373656024505838 89.7886896102635 50.96000703234162 86.21851386811626 -39.39410989310317 65.35576541202131 -35.438869540011936 103.53065140189698 
-13.312315041199732 -78.51948691123204 -22.624897882159416 26.028734054346813 3.7062054416968864 -20.853883185163276 7.973980025503837 7.660171022423711 56.31413567477178 -106.37781206983841 -72.37507239903027 -2.850343282611966 -45.722428993875354 -35.17413894206041 -33.71724901826331 31.87078952785697 53.331406219354896 -16.031907192799007 1.7444504561664926 58.81722596473687 -12.499456568258395 -97.79325138021893 31.021539780768776 -21.43051898994162 65.72942173537443 -3.4744036927996946 -99.96800846569083 2.218502064568254 24.511954769082063 0.1935266347993746 -12.523322335437014 -6.8548933129978185 -19.55070849918446 -25.8022903638756 8.801778751358144 4.295704307274136 64.65221109669505 -51.56041041642584 35.88902788238327 92.53919037853667 44.22402618784097 31.63267757738315 
-12.803043528034221 -100.68420893953275 7.5588840540450555 -34.575204424857716 -9.49547143448025 86.3836107864125 14.43303712401322 -5.782883377811307 55.56724497933089 -21.63965604593183 -4.1612902321244665 85.49534436450836 -19.80246608590568 -101.55521597145062 1.3506594486827752 -49.9939677684508 28.509226891852936 4.254095136647194 -52.9985363515424 20.42490973676708 -1.308676068190616 -46.31986911789472 -71.11664621233206 27.062122189866336 -141.77470426099256 27.11544627899044 50.964245514857204 14.69316717295919 130.32483333526395 24.93316365996993 58.68257774512697 50.88576208975529 -37.357175159574744 21.484323931661933 -39.8483643174817 50.071337352149754 -16.852378437613492 14.731885864892714 -10.009795858479237 -77.98880967049777 -1.0917789593330443 -43.155927073520616 
66.96025254262446 51.60878075914916 19.5911390967649 55.70193858091125 -5.608607970599518 29.358176148589507 -4.358666422925242 -0.3224962513239544 7.867513907500123 -31.165662080964264 -63.83480382017415 10.755048015332175 -80.58043576818824 -75.92654707117164 12.066608146664855 87.69403378807151 -28.9888956433939 58.107868336805666 -66.66240864773697 19.69338740389335 -40.83061359819851 24.28063789705503 -23.043486482819954 11.884758366297152 45.022675832922616 -3.9613953378983706 -18.28452301592158 26.282827927189434 47.799348501134865 82.16038051069678 66.10692209778887 -2.295931685402607 0.3063451353871651 69.26176044787391 -33.39932643791358 -19.91968879329125 63.93647098301046 -18.212770182267818 33.44667956869098 62.62337971541226 -11.75525167516769 -50.633951558158024 
9.39001059957684 -11.89885944087139 87.15759776159962 -69.89451925246824 37.64523170258359 -2.194436159635636 65.7186851069197 132.854087438151 -58.29873844265692 -125.07951751174981 -13.696751105653583 -83.73793268553514 38.1534759970648 -20.237506433070855 -35.30572150035601 6.061977681518054 -41.84197337601472 78.72701484352548 117.32298754101933 37.83935652658134 42.45326564097811 -36.26255532853725 -85.13108642138468 26.154770301985316 -27.012180352149066 31.840608361084907 -13.003067483231119 -35.80625164545073 35.07180272021265 -34.430255883394 -20.62135379123807 31.278088130051476 75.21789590093506 32.08640872718049 -54.99437196678908 -41.02431480083969 34.452023634667206 -6.065105641461021 4.507235468321121 33.89913311569317 -57.56558819514671 19.316785738706994 
-53.039416398273545 -69.70165054578719 38.28644075183774 14.122486606578093 9.445127343030762 -17.665914559661054 -57.101283419259396 -14.703324892837216 100.95244918081129 131.1568258474259 -28.050471486628027 25.88035693550381 4.255405865456028 51.21709828977528 37.84675909388097 -57.4723383337896 22.008119111373585 10.730280804093015 -27.877933415343726 28.15388101470188 -29.318040360492272 -8.151150945069235 -57.17773231536986 62.73183371844304 -1.0578179789995943 -18.164104235500016 65.53892500100133 -12.751350159253244 -83.97079083831021 21.62408550862699 -78.52899290455622 -27.817304818594742 -17.266753717524697 39.407758925876415 -23.875982543265497 13.960743102255469 -16.589773797341326 1.4505624314124557 74.14177508528411 47.82334158717531 -24.261000063341136 -7.698433498540947 
52.66231527590156 12.225485672658191 24.609812208094745 7.397464559899038 39.48475828493399 -2.080205542202677 45.00271337312987 112.83131621909708 -25.608332297107513 15.96376459015048 -7.807609632358045 31.780571280867438 -12.69209555205508 -76.95102632603671 -6.978127409089799 -65.1368272400218 39.52918030325742 -29.95169760390811 42.47040296394069 -45.325972239910655 -13.76374576634263 58.7365027667036 -39.38076552443404 51.598722594718396 -38.54549643388942 -3.9630864078064025 -8.760642788492461 24.777418595730502 111.43013577308358 -0.25100937980720106 7.347328646672512 -29.011931180914914 92.11905363838464 -4.624566869491604 88.89199170006026 74.02752047006709 49.587736193671724 -41.39503986389096 10.991628391527435 -44.43634627730964 -44.47807239000575 46.72059970812236 
-8.044094040843053 -68.79398096529277 42.55235290759423 14.907062483734675 32.54848527694024 -28.825532637151753 10.478537870845656 75.32017692916521 -25.154715046095994 26.18694477000776 12.35692980874852 -6.945716924541685 69.77838555493472 85.72356584892538 -19.37299948031403 41.152821559137756 76.77620949953582 -5.370714236065444 98.93298866389809 12.345944953516764 3.356941319773389 -65.28613348824724 -5.002568306569307 25.140528119493414 -12.384082708690306 -36.83468983152471 -12.14024517965224 28.67707606838434 -82.87621804637271 -10.530081378373746 -72.07680243307412 29.11616013612902 -48.98718410901448 -12.284589119651617 -82.29663391545267 70.32486877337158 -8.225061450392358 -5.001762821016438 -35.30740716047169 -8.863084343230323 0.6406347904271126 22.484613645977745 
-24.122550828849544 27.61182289246421 20.002165612199914 -18.36429907022512 32.01566406840615 27.03901593030453 34.30825130218931 -38.60235384169533 16.83260317851238 -69.18030393531211 -6.607058578129199 -52.7726617868463 -74.47111965556181 74.64392583024521 49.1262558146446 46.39695327942269 15.900567926140308 6.826023540076496 -31.467610289092452 75.35305322434594 76.41391849352718 9.935892250864708 93.68703167138321 -35.19995357032975 4.223852679217284 28.186717878619632 -22.315084957934037 14.152158803785813 -4.4773211589046165 41.16233836482024 10.830873372293608 -72.46816693539051 1.4939058134654564 -45.81304576839023 -47.830697945834075 10.156922587933863 87.75808436838227 -54.214054327312596 4.865308707890841 -16.172060722258394 -78.44553024135932 -27.329370813615423 
15.900823886436374 22.13460779267132 78.14383707874832 10.14333128938975 -92.90553766869634 -21.712505546608636 -6.357848876387465 -43.9150121104285 76.79434953600392 -15.110772717337436 62.55052162713685 20.455095433122928 -16.95182257642926 57.01819265852051 8.137469667912125 2.455809397130721 64.95550267841705 23.600895587218087 -53.8584501799921 -16.042105874127195 62.67272894387807 -47.5099199184172 -43.495384276818996 -36.30608587458812 -32.81427692012114 30.232145260280834 -34.89986324335246 30.24051823171293 -56.418668820081045 34.07713820438078 -91.39186296068979 -8.6399501121945 16.63779002097071 -49.979581821101064 -73.01157394897685 -10.658838254980505 -14.998691757269206 95.78958470844422 3.5272056969170063 -38.97740526943404 79.80683586654635 53.860155510827674 
5.717376464726991 6.15137869519199 26.051070988363346 -52.0561612515869 16.173567339959362 -124.0678149827734 -58.746605793971575 145.78190006070633 -5.787002351884986 -14.433473065470608 17.951370726858652 57.49836220961286 -39.75603039800157 19.602391287922295 17.29745687185426 116.13933878067996 59.46297606821649 59.733198983767345 1.365079743029044 -47.408773103900046 30.67114046351862 -49.671443780405866 31.907240165291803 22.87814192755131 -8.281350553053123 -15.874223048626257 23.88111141935536 -83.6430575804838 32.30080300103293 54.86433292152072 21.830702732680766 8.476127404862652 16.559028613526834 38.66483043955809 -57.795082668480546 57.2769851837845 -18.008251966714294 14.682424402192222 -95.47713013917196 -52.57922901729791 -16.865348490668826 50.99283234967068 
-66.77079785474236 101.450726269029 -18.510824940973293 22.418728413178055 -8.954798561084912 -26.509939456088034 53.102656090790695 -14.493806191125463 -104.69278289021902 -8.164023922719329 16.548741430149985 17.119809859317073 -55.92763150445702 -74.93445512022721 36.25753399868348 35.043502085514355 -33.86374293366645 25.951818675563924 9.379365851751974 55.48735721238692 -13.711962867481418 -11.001304225532776 7.141049731364929 -48.15725821892065 -69.81618523913995 -19.97327053718762 -117.37202208176045 -68.71433111842606 17.927714466670906 0.7997409208898172 53.984175614049576 87.79050833415393 7.133473675263284 31.156952875995646 -49.22161288150892 -69.70030347956589 23.681532246777735 -36.602516968106286 50.96480913696865 86.69684887235474 -19.83393104380481 24.901502531736913 
-43.82734226030352 -10.750571134631812 15.510530337991867 70.31310249253806 -29.179133300579213 -38.27776465715428 57.41800594352898 -21.911993899879924 -24.97008880172573 30.66263499466193 32.560177005571525 -7.945380372193251 -83.27988303030585 2.88677910279752 7.576905641891535 46.53221650443927 -4.352145763645697 -65.76135901721577 3.7015004129918463 -26.86401390996349 28.53201950134822 -17.49361377081715 24.176528322845375 28.37283219624524 34.987565620070264 -36.31672101544757 -8.734213825195388 -35.214107454787175 -102.18031192365379 -27.94583428801623 -65.53518919913502 0.35750487685347154 -16.665591017990394 17.31428905952768 -2.1199996681731257 -56.34972788022461 63.15998673942402 9.186576990331712 10.758325831308225 80.55521594408567 46.83594204773859 -85.73848504628329 
-3.4288024588461723 -2.253734833697812 -83.38089431014858 62.73911318898227 76.42514646407378 -4.444471237112764 15.144293734975463 38.648360124334026 -30.11404267344145 19.613642911027007 -1.980944828651265 12.301810958303895 54.6377290699814 64.33157029315885 -51.90895850136552 -9.592733592959505 65.60288261235635 -21.672045865633205 -3.6504028087130087 16.084700531303444 64.63789274230034 62.03464995524421 67.1414284550509 11.422925514532757 -11.339567488528443 8.451539868684618 63.579888019192666 -30.514917866826814 -11.965184804149246 8.172430885517441 44.714650764601785 38.92694677838541 83.77491939079955 -9.979527966455695 74.49661440746593 -70.28475713520706 25.937696239361436 -33.49870809360058 34.43257362582602 49.010053926538504 10.1765437315625 -0.12197090454162729 
-70.90452696892325 22.6811893106767 -23.781940867811137 -46.12403953352022 32.890782487659 61.94196261901299 -46.87103021057036 -8.921317823855162 -7.66841731851983 -25.30510174235022 -1.9485931104231289 -1.2555191079367203 41.34628970544462 -36.623891593065274 -67.31469594634386 -61.40289713471067 85.06103471097073 46.240559271045434 -50.172261948119704 -0.9697168498445969 12.9417345853796 -60.96739082451436 0.6089294765780546 -32.877288504081065 -12.215801981111582 33.85402792550854 30.00174371567128 5.354783568418485 -2.211518122070807 72.98767843623813 68.28618271810653 -5.802572771479322 -17.664940606858355 55.45198295047082 27.27352821748266 43.524283839523356 14.958153146563317 -50.90087764623909 -54.49218084029783 7.475391218837836 -30.097411907245156 74.2209407173858 
75.19646464184028 -30.025657847904988 -146.64652398029978 -5.0431235667079015 61.04759728867753 9.34662370753497 89.20512209714416 -25.248804001071644 -15.555989020007846 -20.68434794427455 38.94260784463522 -58.43383922041029 -69.50997187357366 48.291381605390235 -8.125859827131045 112.37913333279538 -40.18629091661226 6.613708271343261 -43.23887909162345 46.3246660346361 10.383613164198591 13.675399087569676 -144.827862196592 3.8063994965679737 51.53982856421724 64.1395253617222 85.67020747377926 -26.972762318214865 -2.1409788609533957 -25.101503329233946 -4.965237227314083 66.06054241505866 -4.257463777122178 -17.71771551866124 -29.310082632960395 -58.52209529505466 85.61284095661796 14.509858482853597 7.234446046374312 34.326234099965205 38.63966741255766 -17.31240434837995 
21.765372957567916 11.090576909193306 -93.18961130721638 9.845172361883744 -15.089916825524842 37.253642279760605 -16.222678273846633 -8.01218943174606 39.958782135436714 74.97454636277793 32.18341488198096 -40.61217863978642 88.33345269947557 -17.86366027770151 37.737362454804405 25.288604097916636 -45.486363673254516 -8.89843362699986 85.91182424542953 32.6180947402932 -19.698650336340886 17.60288218057139 1.9837680522623384 92.70033733934936 64.08125971695883 -45.66824832751509 -100.26142160817426 -24.517060010660046 17.951167934010837 -49.18855703895054 -25.095885938995096 42.40838576604888 11.671886160037609 27.29596109652768 68.19377337611738 24.390204367792233 36.34344927822252 -69.86837510539107 13.699246589680964 49.55584835427953 -64.1991832171761 -42.62642210128969 
29.226372383020486 11.890602785924733 32.283089806820314 2.5401887146895534 116.30318475804073 68.29301149031687 -9.183182617306153 -19.32958369863208 21.38535155315946 -9.254017869884708 -31.67396065962952 -71.52845670183783 -13.096501655293629 -12.425762234744766 -50.94110107367521 -6.7983306186843055 3.693780274643946 54.65988283405407 -2.179211783183365 6.621716627837218 57.12545811513167 64.32133348871464 9.890821956365023 31.1973618697972 41.58966935147053 61.781498285932656 2.678836718578135 34.03015085653009 25.59076016377061 -70.23582624285241 -41.09184561688065 37.63354857158125 51.75815924737949 -42.68586044623357 -44.600041824943766 -89.74415504642555 23.19207221487911 59.17207326860779 -36.41931553672766 15.35257950508736 -52.064740103974174 10.244001289573053 
77.61885877538936 54.40641389389428 -24.29799300328019 -76.08431362106525 -55.822469016347014 14.287594529872855 -16.720683243901604 41.993302299968434 -18.15844549755981 52.63424993982771 -32.8573821317497 -36.564175717272526 -23.238804852401 -71.30573758064067 34.66065571421932 20.12915416319598 78.77875231535911 -28.55541463344262 24.036083572216587 -75.58654377080445 4.243171497955779 -68.85496476811716 1.8644131630913698 25.410978682447837 34.68693012644601 6.669075063475923 13.488459570028278 7.9820523039267455 -17.375944544736335 71.72727023697064 -48.155091867943256 -42.44143892327354 22.27966425044115 50.40243242702104 -30.56003114942043 30.22734186693983 25.95164177322789 67.8924778128316 -26.610227983291306 24.291787071571985 44.77497938358143 -79.63865839057635 
64.6344897589152 -44.154668251126125 -56.171782414238365 37.18610650715822 18.281985749724733 -40.95397415436562 12.410612167625743 52.98585908833793 -61.4825050368654 -6.256257924786089 -22.455318623837037 -29.48406864876696 -34.43765612580185 -33.51560363088879 -34.71130503374179 -37.4708885928142 -4.935427500126395 -44.05691746743408 -54.231076215804215 46.86324168371628 -0.8757348290370373 -11.840904720898816 -25.67552792710791 7.812815073960267 -63.05497873560896 37.136026602011 26.15803540876997 -52.96817861433251 44.198942600007335 5.7060758142330155 -36.73640727344987 68.95066326804717 9.316117803523841 21.672040885159927 40.156548195739596 -33.06689672995216 -24.961252907513323 -31.115203697047026 -58.04826600817075 -10.970685497492118 30.880741468409084 -126.54172010684644 
3.8210105025006227 -12.745037742030807 -11.312474504724952 32.74994092515305 -31.67312791654644 6.610838026787669 21.653043231686507 -57.73156853741959 3.7679645283449967 14.632546071202913 -18.413069577494035 23.40958561484367 -26.00566269827372 -15.333675469636121 -17.319569302918982 19.834812518202646 -4.387673576269915 -11.29225392355362 -49.29131479503378 -8.400374962465834 -29.614311022422832 58.23591418852802 7.544971776333148 -37.974472793411344 -68.02516668316062 -63.215714802947836 -41.8457444940872 -31.331619532874385 -20.94352814298725 6.8967318761482685 -75.99293515111931 19.406806595878674 45.73093011948137 -32.80769787817681 -77.60839833346826 14.715519189861077 -1.725749331912454 -51.83779431707427 -26.186549040045374 -1.1261780185324404 6.754614341039896 -55.52836519489003 
5.494016801060397 -3.0918979766854635 -27.603839629644476 32.34518940181383 -5.958628388733209 -2.852669474104818 -27.76396336658779 13.01669697303415 -26.443102013652126 -21.830727366699165 -93.0922922709168 37.534751002576634 9.70232187628008 21.578012449767833 38.18803312929121 -3.19698939381402 52.84013384354767 -3.444919858927836 -17.830688701052548 -9.273650676913839 28.41821722421293 4.197259146330536 55.926792497113716 -30.75434719701555 40.468405978301256 -0.06193519483797587 -44.912047885939806 49.89805391203293 61.149598989032356 34.035071341959814 -5.522506911349495 -82.0782975118046 12.955105051921027 -14.26272076076679 -60.25123610939795 15.931135907339565 51.21564319074926 10.106696800151175 13.96361249535129 -22.74266633205081 71.40204042414028 -2.987808418749477 
-64.92979837847872 -16.36876394615757 -34.85522274525586 -7.505229383207849 -21.73545368390891 -54.99130096908115 -59.049470266993026 -69.5533043461314 -58.523819812035846 -103.10392360390557 -18.62897222860933 40.04953120439625 41.92726955681872 30.837602097933505 31.15680118252336 4.0365221255949 -15.156176155457642 33.722951163726144 -66.08216984069226 14.59314119858963 6.407138764923097 -17.916370942824997 11.76518244463041 4.246100419203365 -39.25974470303907 8.212419851223839 -59.8576407609802 -12.526961217062308 28.164313828702305 -16.981345270720276 -45.85572855979334 -32.20645259925844 -24.068148241520152 -0.5505940872161033 18.41845861960849 -16.582433301632346 12.96458256918481 20.95599745358137 76.15661216622098 80.94480365614942 25.76642391300707 -24.17124862988021 
43.722900006459554 91.3549401435072 -10.548966210832766 5.487070673486571 3.0946477448354646 -7.108938880345567 23.3118391402215 -11.465852372340855 39.94655018110303 13.924690299647207 10.28956162997639 -13.521283990135766 -56.13041052037158 -29.149028121235208 31.162960175344658 14.65524868285764 8.58716225627731 27.35819509865096 50.80052664341406 -64.13077646564294 -7.364877034610552 -60.279351975359084 -14.381639729968052 25.705963384348703 11.924304043130567 45.92428510697995 -12.500960263257301 48.24844543878671 -9.039190270019121 -58.03050819084124 -97.09459149085991 3.1186097310256553 58.86167474807252 33.961433571032146 64.62774713038003 -38.90173403199383 13.178847386248307 -62.691387258465305 -29.126680853063096 -33.79952159034987 -42.02731653194181 -10.005171510426397 
-36.43687991006155 -4.483832736737157 0.08284059003191091 76.01308072440295 -30.232828796947114 2.9032072264761135 -36.56818644677941 53.76489079773338 35.78538214733602 -19.272524703047072 36.810830705544696 -13.249039583184883 -56.159339349769915 -65.07438033106936 -1.1167030109240894 -47.34297207989541 28.83309644855778 2.1590884990998913 64.64416008194499 -30.914035260072648 117.96828239440691 -17.505565601230693 4.430280488402527 47.59030585595831 107.91769545956154 43.58831939521954 71.09193629757291 -58.65978814770216 -115.94312939562998 50.833523317576216 38.580745848211365 43.39447516089321 42.28205419295953 19.874967990600116 11.148560635839205 16.004890054242153 -11.367373431746659 19.03895862847068 -29.725827697258385 83.00278574294713 -3.287354745400137 7.6312838201344615 
7.376213739483185 -66.24080245705308 -10.695760225309588 77.44273922626475 33.7537995425067 76.16470083031462 -43.791696333434814 5.243738385245344 20.093938342509542 -18.921057294482683 -85.36262979937622 39.35265419901558 -11.941829315639218 -72.55907681516919 -9.596347322621611 28.852515780554626 12.476512951222615 -1.1089285469055876 -57.09118518427552 -42.69377839131656 -11.29265427591133 51.03184844217912 34.281134528179244 32.846238479821565 -31.262792968148585 0.17517708254779454 45.698542604733 29.226823878950785 66.02675033921082 11.613714294762303 -4.130367341172399 27.734494467690336 117.42807549866787 37.5263696008503 76.8481295899356 14.395148988282985 29.99373187644729 -21.24645403995652 9.531754849740985 -29.160912499588605 -44.66563930871784 -64.54378016806398 
-61.003184135351326 -30.18911506134244 -0.16215811539176062 -37.82966531062098 13.162813653082978 -108.84864062008229 -49.63750658853981 8.884589803305671 -57.258756350939045 -32.67067957301359 -34.26101477166759 -11.126282935250861 0.6584900231420785 58.78856065079232 -8.01665327389508 5.897943658670036 -40.10853750717358 -46.40614196360065 -2.1883079096154936 51.647730463902136 -6.746165848765136 -76.0566969754706 115.81150238293051 49.62384641549521 71.33243146868409 -56.370140038173865 -40.09369773311206 -56.36105877417982 9.156387021422548 -75.09631765571964 -10.115449368480517 -53.37771751316122 45.491712979189856 -74.31506012083592 48.31665862814398 -9.173043462505618 -5.0362242429945665 -46.31335567889371 -24.4135000309742 -128.441380872304 -99.8124546677847 43.29491237900528 
-0.3493693637193011 -26.450515624819268 -33.486059354005185 -45.41618922570934 -123.26616461129241 -49.841425257591325 31.833674968269378 19.018546658706587 80.1879551171387 -13.87886651633218 41.11636379434816 -4.0016856701352275 -23.417981266778924 -62.8193340186013 50.93485580784714 45.57132156899338 27.876683611308717 -3.4535444924117087 9.196128894963342 25.092860603831003 -17.19258998868967 -5.974132345561516 -102.04016605096959 2.007760325938245 52.98157999468322 -33.94243785546913 -25.55674913784281 -17.509627482563747 56.214491440790745 -153.54728098288442 49.1328502648388 -10.997244600261963 34.02288012096907 -14.651451405552258 -5.616712513476813 28.417760714135387 68.41571216751026 -8.488495980513834 20.854632576208342 -7.775884982355903 -62.699163932141225 19.413822416632215 
-64.80327519858493 73.52012630280245 11.903947089582417 70.20776408886773 82.00805639666292 48.462034881398885 71.49247209852997 10.574986789158945 54.68207502984887 36.14523945996632 -52.408670462883975 -18.951540398365488 -4.938408949207074 28.807429579723184 13.23462655917234 21.231571544556097 -62.08669617912808 42.740425256413445 84.80568767426931 -102.83365938121153 -32.51313107054136 71.00988418790293 -56.68703639430823 14.555215077618954 1.7756048507917095 -51.120055682584926 61.44783768720138 -20.363029015943127 13.481278600862181 17.394622967063054 -11.147555543211055 -61.11814627465254 21.267313909464985 -77.7323494536136 16.88884551899803 -7.136634988564677 -43.90049873199025 -6.548269037814878 2.185651018901649 -32.739622275882404 -0.1661793043313532 13.775034446825503 
38.74828786246771 7.901904690883841 -1.582438668583675 -17.558779628613152 4.710785122414284 -37.49253058719507 28.45731298570954 9.867307470315192 49.472799546980255 -71.33363376055223 59.85826868311499 -61.37384693721639 -8.584001221171896 -79.42400997610758 41.810325597537435 -31.754949580000144 48.17765759323316 -48.97667688856928 -15.60479011613311 34.34303151904121 -42.213967608900575 -10.274924054368658 88.4226127976975 67.50060973879613 -39.554301743147455 -24.230707611079943 -80.00721067290361 -21.931251010968207 -36.9339505551243 -51.85236151687801 12.802717243073726 -92.84399595795638 14.946333897719816 26.459736653658904 16.924688628949376 77.25630289711353 32.67567070077381 71.92272781562824 1.8473524350900643 -7.3524405412819505 37.88032183287885 -15.736221397343012 
67.2279134940419 -5.06569419726607 10.164485958018588 -48.86335351966046 -32.311520315185085 12.4604334859751 8.038088896230157 -64.39758166952184 -76.19783121912286 18.527836153988854 59.97459770166973 12.994880055423803 4.566815196377888 -24.974902561109207 -36.00126673892478 -72.62628811326591 -11.91112991472662 -5.108027776175962 62.69058230286034 70.71095346663033 9.852606574416791 123.67866235294142 3.885034261338366 -54.46171128104056 -3.492798416292544 -14.169915866058163 -108.75898854894422 -56.53500688118207 8.83504412386073 10.383156989526125 17.159360852810025 11.864088228958177 -0.45078243404494744 7.4842299352868595 -25.282593674781594 15.134347182853379 -88.9331605083646 83.28104546564458 36.485305880743844 -38.07001575442156 4.65954920201038 -71.17601232128835 
27.882560329892428 30.40381725639602 15.529674032592384 -9.167453730037087 3.8694106555158054 47.38120614376976 88.73654618766984 17.658770646481404 27.631241426475345 13.199632969296472 95.26885043235977 35.062273451474894 38.130286841812925 1.4630287200107175 19.31391425397095 15.529968501221122 78.51318978343616 -19.385838064437316 -21.25616693546371 34.82702828217564 -74.26630891593639 27.539616402357307 -49.07495700295998 -59.55425129460065 33.27485475023139 79.26428536702379 -72.20755312923252 34.254051711808266 21.758044491363133 62.75545970276081 53.31098000775511 -19.00495889712241 36.60035487592244 -28.53082300114866 4.48543446039129 -49.57607797112735 -26.503068503435014 25.972657752061 -50.77287553935178 -38.04593290248517 -84.99581661777086 -46.18264736336589 
-93.24967440729023 -8.26662485019695 -67.02790389182651 -36.93416679018602 38.29054511801821 -10.711925803013315 -18.95562546157698 -8.052849005666605 4.916053086278373 7.124804458277539 -19.64370933117084 30.86538227664814 -56.783999177413925 37.18136466221979 43.01807898931118 35.037504550728165 -25.618048335832462 -75.63828185630305 -18.224338150854763 24.01964107905056 3.301618839872786 -18.80215169867205 -91.41552547692446 11.014862894193884 64.35126510955797 42.99601104027237 7.599357806504758 -30.089162956376335 28.78269257264321 -21.13836388556745 -5.161476842429205 -15.322368483588745 20.6210267829313 -96.23698745684487 -33.091659368660196 -9.425362369357087 -17.69449402585278 -42.697381355624955 27.447584236556832 12.143133987594547 -61.845535668972985 11.82253501483173 
-102.64478464533889 53.09433342352694 -20.044767644967475 -8.146785341457932 15.140560140095737 -0.8860442139938992 -77.42892408263828 83.34263967040074 -13.495075673753957 -66.32511554740053 33.86037779270949 -9.630957770269017 12.709510127542163 -40.03565335666228 76.12233384782753 -53.30956131176229 -90.42848226262647 15.587816820541745 20.905376643891167 -40.010452484296536 26.89105433035486 -20.83093935257486 23.5471248658152 -50.16439995686855 6.719152794710593 -20.253031195454206 -17.38619517624001 -67.74633744145076 -35.61460306292728 -8.386278894381269 -44.367460539228766 -82.81400667289985 -21.108887054993115 70.80817242095797 -101.65024698552453 -50.81603251001059 10.088658479269036 -25.259395590747324 23.568553122491025 -64.62612191109578 97.56631550065323 31.676840685724827 
-67.16135110837659 -6.574406202849014 -20.414984268330308 -2.1509497379949014 -101.13810472042005 25.69719820125386 39.53425584520548 23.4886742653053 51.51941867289429 101.1097796851289 107.09625201558461 -14.845385767499467 17.926415237172417 23.432291464998457 74.44334519366073 -41.79810757665058 -20.399646584159907 64.97637470657958 -36.75311756044368 37.791708703315706 -67.96448517211627 -2.5729131528972085 -54.149066033926296 -5.158827109777058 -6.12709993057429 -45.00227782506415 -5.852616656373717 18.46445126613644 -16.066774326034974 50.22532360197701 9.018591615163595 7.569401262357993 59.701663851153874 -94.41628716026965 17.690454486278824 33.1138485190737 67.1352246936509 0.12396640771257178 -27.12411242487323 -12.466579060360289 -64.12540887194864 -66.37777761406119 
43.38671122358137 -22.685905513173914 -83.29680707189368 -50.34443802033172 -87.40418022189853 -42.903998415844256 34.14641532952219 -4.4853361462447765 63.79504929832524 38.58762227494818 38.572633599642295 10.922389835110732 -15.677711665076027 41.65913546592983 28.307480989505027 -1.7972355682749357 -21.400864578213103 23.557606019984796 -22.829835438694506 44.84403148088849 21.54353718182582 -46.11989348209805 9.671260605914398 -9.356306315003 84.38826640246735 25.744852011128675 -48.31337147442368 15.010998958380474 -69.17832586554583 70.22747741147315 4.4815490882653535 36.87649501615745 -35.5050589804576 35.302559252637934 -44.522705971866614 50.3584353053616 -36.797872685625244 -30.7764580729916 -70.22742422649777 -41.07617332345716 -48.1876546490412 17.265796597395596 
24.751572573215547 -7.3576347885488165 -10.800368175057379 3.4643264213443064 64.9183050260614 81.47221625749 14.289982609129957 -36.89911177611419 -63.77385097495476 -31.95850530516308 29.00694281397278 -26.74641815629569 51.78293688861812 -8.167571968760202 -11.881180818472426 57.951074762608215 5.82546536812631 -8.002687475142315 14.219187273372105 -38.04301228368801 34.14769393657964 11.782487633449932 44.742803329900056 40.75284361671305 -44.34252600557426 19.79319641325897 20.14924600734672 61.18403918749511 -43.10436967023968 -37.33800526360049 40.518979677298546 -56.633474836416774 9.724910395984471 9.627614269498613 -33.927949375783896 69.26615616300971 -4.229676609411065 79.21741934704065 -40.6483880638361 38.19980509343472 62.10682065046177 -56.20228272455973 
-69.3815847549513 -112.89539991904174 77.79277055609745 -19.13676762039461 -27.020049174131486 -20.7380424809425 10.424653473085106 5.83804113119802 -60.75132411386456 -59.88346269403611 49.39735461207718 -3.3080533609918144 -58.68017105461289 -7.9420234802551315 9.935480399995233 12.122717088535893 -43.32191973172293 -22.04963637612246 -12.30466114269537 31.010613021962033 28.812937569808046 91.51024170821924 10.094723059878577 39.39475643562325 16.218094000271044 56.46523364709389 -6.267135961963086 -37.6791879999274 22.450616301516416 -24.950077568081138 52.60692696305943 -40.9997455533179 -20.99886187163123 -5.719975458762756 94.18460929207033 -64.45427068951763 31.18992400967922 -31.277625191916595 17.923655171176534 -49.147413488989656 62.126277768312995 31.46739349367266 
4.660002771368621 -0.2926559288911851 72.13165209486635 -22.771923777055505 -20.002668719185206 -3.0641839423122943 -63.55856116682194 -22.648217576958107 -85.22775932679204 43.57782924455561 -6.443114993588498 24.978228740127967 -1.0839142846319487 -35.95382961150953 1.0852311305511873 -29.845283119666615 44.71127556250807 -24.70749469083903 3.910740975744136 48.07174622459261 -59.34095906307273 10.64190034430891 15.622922707308563 105.56806996844223 54.60906371830508 -31.69559246106472 53.3485617042473 18.547325082245695 -56.91368799337986 10.743111973852903 10.795260622066971 42.96537115778061 -3.6902086755044228 53.72604341318075 -43.54508515493495 -99.07019603454161 -27.19249511949033 -13.35484318025394 -47.648938440664764 -64.37113156987925 28.443557338009377 -13.529229357960972 
36.384468966758305 22.517710251939626 17.37965685992114 -65.70203237814066 25.460728721495116 7.695110953364742 2.8630167907609163 -13.557327455079093 -27.70154083117985 -8.233169910892217 48.33894701932072 -49.13333473600151 -54.171155799230746 23.392222138599358 -22.584545773874797 33.08814223269617 12.292788637654802 9.836114036143975 -7.059541448959419 53.23181547002873 -0.7462850126846169 -34.28197657968577 -61.28096306741947 -102.21813472544079 -28.858074173073415 -83.83114135958556 -18.41101696082694 -31.88651468745396 62.153409429114554 -5.974278121861348 0.9423509646144538 -27.9382473072677 3.8863629382515392 19.775626211814696 11.174303121239465 -15.016752727550363 -19.676524437925153 9.264886785388795 38.14964801779366 36.90113978029591 28.012714759076207 -9.187534321265744 
