66.30569207851323 51.92811809192572 -10.90424812286596 -8.362966241244138 -62.217406950064856 -7.959109629567728 -58.055867199183204 73.81462421088567 6.084235830038204 47.527755166087445 -18.57181272776857 10.748319119765409 -53.80585459570475 -4.401255162582506 15.086979323998202 31.07367301947445 -52.664790733170214 -64.54963307772262 -47.21911017027528 -9.165377294271057 -47.99902822635135 2.3247850434130033 -64.75159327718264 -16.49509109052331 74.47674930928643 -24.244815755290386 -9.041903767733357 16.11209867889728 12.80583526677728 26.64201881054305 28.535388351809942 -33.99331450560084 5.711264813834301 23.507943077130427 56.730591300632916 -13.120192200828093 -10.314462188497192 10.569425120240432 21.68593372991949 -27.525868461984057 -0.43090484002851853 19.73084027384128 
12.188649547337038 -22.90963949274995 15.527524971753651 -32.91794061859115 -61.19095470998812 15.74867007944589 27.920423436073367 -50.495033748181996 -41.66159271386016 -36.96882426810923 -55.47265176024074 29.478236535941708 -7.0179299663478965 -11.68739118636231 9.926197753494947 -46.32437237374524 -11.65492854754493 -77.55358811007245 -39.28790974980538 102.29860648225532 12.055721277639625 -63.144444541161135 20.283067841535573 15.67988282961933 40.49513767679728 -7.087470767891112 60.984080724225166 -50.47886625155686 40.124684142721854 -62.2300811419787 -109.05294332800966 102.54898582517407 -12.482949147212825 -68.9707683849974 18.965821022837645 67.91635258047928 26.164663834967445 -14.607006124847597 56.571645409539414 52.10798223508383 16.1260982786821 51.80498575980807 
0.8440557340183173 -23.653766887689898 -101.63048618194298 16.3315176200503 -53.14815950250161 34.84072332999011 -107.85245056406978 40.50072429987296 -21.870805351384394 -0.7699855834636136 11.741802515854557 -17.77857009872505 47.048149877835996 42.30744332299721 25.515439989682246 -47.05947306090292 31.82348882049194 -19.86981790546142 17.198003970746075 91.20853173696078 78.1821624652152 -23.693078374984758 -5.2244568096122626 -51.78977389306072 76.44861687151598 -48.05325156756966 -10.194628973467978 -23.078406401567328 -13.206181048231022 113.85036039980007 -8.124062582744948 9.078585928819082 64.97133375258976 64.7936271181482 68.30646330624523 4.257260035543088 31.97178783808231 -75.5634665181148 48.403394832941885 34.455501368661984 71.55909352037888 66.31813845069836 
30.03874682947829 -48.56275483826442 -129.63644670462676 -30.294600856068094 104.52439316979456 -27.76358506700099 -104.85877471803214 74.08708911190371 -18.409899087623124 9.747246537065502 20.31468730120629 0.8932166767754539 68.42546632836095 11.746214085060908 -28.669750438809448 -15.338891110217055 40.46711524690321 53.64948895638476 -5.104346175833311 -72.99867701851758 -31.676916716796477 -13.97821222280603 -35.00073947171416 -6.027252890047621 -12.01491401397784 -1.2068371928512167 -10.024121682790742 -53.525894206388166 24.446233501299115 33.42844854811826 92.81513289840083 17.924672637578862 -137.86850199789203 -10.844412053978411 57.61085403850785 64.339531982267 38.20817309218297 -11.774566831473825 -61.40121169839392 -0.9814314198202687 -44.59938499183978 -99.19912586400359 
14.91397595113239 48.50786910302626 65.23228234618338 -68.34623196917423 -17.087674793195312 -24.05613818479883 -26.193391475705244 43.84287731961003 32.8816118057151 51.83025931706933 -43.5921487498523 84.12104980403645 -64.65091054094768 4.305106157732198 -17.93456032095251 -98.30050654462153 8.624157801037589 -55.73331179247434 75.95066722699327 10.808240530221749 -51.862120188429635 16.683782706296764 27.0586025577625 -27.60708663222827 -74.68899156625213 81.82748300044533 -11.314412990190435 38.091417854583 -5.251946263523613 -15.933304655299366 9.123955565880614 -58.30069132313255 -55.28532708171832 5.156352083726941 -84.1117903182325 36.98045822458081 113.0241540863228 -55.51531864742807 -13.404132647827957 45.56017026091158 -20.34881242194107 -30.89499778016635 
5.132715346651493 -38.88580302233768 -0.03707608549038212 -13.959514477358685 -4.543859220938192 17.004323054415025 29.354361210784656 103.38450922749324 -92.57482125671058 -16.135744471899077 -32.322461208334325 -43.379051026268364 25.557065357043424 -55.99080816574883 36.671017885010016 35.97311120114763 -102.10572218800914 -55.316574091444 -17.453501393413976 25.099428003970804 -18.820718274695768 32.801667909049726 -30.409379367856715 -66.60021241128285 -13.863338198576303 26.23232059515687 -84.38559323723284 -20.671226341237993 28.513638177882637 19.94450947530324 76.97494532386206 -47.74780967242337 -72.73968871595132 -44.72197246073465 37.40099372736713 23.568098550232907 12.176975334435259 20.73446023173854 36.49239218803961 32.71882428184129 -5.499727605180609 10.138512723474545 
-66.49062501447436 -120.17118023549908 29.928934641056767 -32.463318162415845 65.23275917616364 -8.568738568982239 -35.25693603895594 -36.75527974094847 -70.70787568816242 -37.81529638617769 -53.18431447030777 -5.66714123958645 -7.192602758155663 58.955218791775614 -41.739553031699174 -27.34919214348242 -82.92621724360482 52.04382412121242 9.524010689866328 29.008594873765173 24.232790859205046 -49.418402146481185 -12.33933847643881 -27.732352092426016 16.98604598936453 -73.25652429258292 4.176373563391125 28.572633916853267 36.36370010991009 28.737645424159915 -0.20788306664599457 -52.45466577212825 -27.86040851467313 49.9332947995072 24.583262969436845 -104.66104455552092 88.06263022520355 41.79596568193015 8.289405071685435 -20.47111341849294 103.98761901806822 26.27813706667084 
-26.360999852475835 29.31211725349056 45.78459139243963 -17.36046482967529 -52.2778437634207 -16.876278808462743 48.78163038422642 0.056574388925763774 -51.18568151861949 43.523210282773725 108.91316543939982 -2.9947424769312208 4.8049061118994585 8.003809096264398 -61.859635387689565 -7.105949088338996 -24.939736179082637 -1.3931416437572062 2.0014554714126667 -35.08317882001518 -82.55120446152826 -112.60857758129806 26.037234197000565 -69.44915087055455 40.782403311714944 -4.384341137901685 -39.22887632229744 32.842991466084214 -76.94135580409694 -9.929208201237156 32.67885620890156 -99.4589292875549 21.164695956785113 1.150529320243154 102.61077882044208 -39.032906526526965 -20.035136471476214 30.10469158538083 -49.57049884828435 -67.60148166081943 40.41307158987108 -27.172618578356197 
-37.552100810737265 -41.23468458081227 -2.085132479825164 51.457387081045404 -17.7721734233676 -43.1330848987154 -40.815513041897965 -28.510148963664832 32.86997732738768 -21.93519386653809 137.8157760283341 -21.49971196596635 -79.85196101579602 -52.77168673474271 -31.757826906037316 6.700456086147429 -36.761456478871786 -24.983503773819002 122.22595264992829 -52.51485466989582 78.24750416567416 -17.579950519118512 24.649646155513185 55.767746505021236 -22.039277572026503 3.2362991643100156 -33.57230566419094 -17.812898372994276 14.933204446460058 72.10758743859294 -27.66356037616981 35.31165661742804 31.09154460693252 36.85191664142224 75.70800146007834 10.576467148835277 9.027065665680304 72.35009500820253 -39.130735821838414 -11.133768674190586 7.353099545586756 18.586788178764078 
-53.345723571369895 11.459294133682988 1.6328043081965047 94.8889394580081 -52.34807389137127 20.243144747412902 37.32263008032809 -10.86848613020601 27.029186417545354 23.407982647464127 -88.37504694674651 2.1958223866777424 40.24296255100751 108.44488206419302 5.306900094230533 6.405625481142623 60.00678108103598 -26.096965195670876 71.70462559090107 24.67513565839844 25.79982902341181 -39.85804185806957 -81.85281853924819 -43.40415445459305 31.097595029151453 43.307234217622465 -21.80680011285098 -16.100860654026132 -54.444500699966845 24.770421189152078 -69.38318439530708 35.54940331596289 -5.52826257203182 28.5709362012183 -40.83618310148055 51.57298326741707 5.444322991700817 -25.8968506864617 -39.457413920199144 -26.02140456210142 -10.985698423812021 -0.24260435993704457 
7.382084279519764 43.99049236907088 -16.84440916050772 -118.85861757203526 42.04404472360237 -81.03759208680908 -26.12219947109176 -59.497636319762506 -33.87946892394534 -50.494309920592535 -16.431449479613406 -14.072319027197597 3.254874736355298 -24.371338148576953 5.554841634034303 120.0061171582568 -58.016082267100096 -32.42695513131157 -17.493125429109337 -58.061570423834944 -42.38658430076163 28.84491108258104 6.7527484659948565 29.545446341917955 1.1132690845362125 37.7724100338482 -39.170463948563935 71.65472777308791 38.889942615716365 43.54199925416506 -19.267015886415383 45.736987990697216 31.87438201003966 -62.31459136385079 26.81518146248045 -26.338811557053994 18.747966916082856 61.72180049310793 48.5178953009754 21.830402673156982 -90.09334385151685 48.796962684237265 
-29.431085580493395 -23.826594834482535 -49.24909715942712 5.485204244121689 22.22537060876714 64.48071153621444 61.50610422055477 -8.890118758134594 -0.9322137019751255 -18.47907163699818 24.785031292062435 45.392428850512445 -16.379249208582554 -22.118472160348027 -0.6759534472216099 -17.319233732908096 15.89013490015161 -34.870001940868015 17.238052575912807 -118.81122593383033 87.9315186745567 72.09145630788639 144.73748819029072 -21.014372524531495 85.1620344990024 -55.70895539089542 111.7713839761904 -39.833905032452 75.40806099093591 17.758166268222336 -14.884646412698949 -12.782915944241788 52.316355385008364 -29.179770085380785 -86.40681866185699 -21.09651036191838 -79.33655095180312 -39.00930419571121 -56.565376883140004 29.16779176999487 19.080879563842156 -32.46800362384385 
1.712388469815656 58.36611493525855 32.915850216496736 -30.567433345633702 6.495070793618604 -13.408442130102065 101.58259435633508 14.01378082276107 -26.95239292732513 21.576866716755266 -5.525513861266847 7.481979911114304 3.3526006508917456 -47.66055755438164 -6.635789684496387 15.454255254402494 48.7626181979665 -34.2354848827569 -24.38082123554729 -25.107749139435363 -7.477253214240907 21.46039775811228 15.57464996577403 -34.923456509898124 67.48153168247556 45.55602078263361 84.78545185169179 -44.910090585102054 -76.2862045401858 -6.567787323324452 -72.32006214703199 6.491845132346539 8.20477546043796 -18.680693528847268 -41.95439449095678 24.688439048493358 72.63461159308986 -12.14615277898039 2.6118986192444513 32.340079746178574 7.774118876549194 16.74166949017486 
20.683580082274016 -34.94953444873052 -17.301637717795835 -40.370480324039 36.8668831044743 21.07046278032164 12.814383880107805 -8.115998384620134 71.18470351548473 40.87747654583838 0.14728946158747852 82.37970997157872 19.649235425383225 25.326635374793348 19.44488116291671 36.333165171220806 -78.55418506543076 -60.841121104497084 -7.840299047759524 -48.07227876160266 -15.01559695668202 29.147907451224686 67.16291226064358 -5.91250409301652 64.98818540750314 -96.11981522139894 -37.04729471079782 42.364222866545845 -42.72661960983441 13.431201085459579 -43.67465014186762 -9.32076205983609 40.64490060064274 82.96725927665854 -8.39815348248495 -66.85517772202512 40.48593957353309 37.57818476047895 34.80886624053918 -47.90124140931643 18.59622441665658 -40.99737946890553 
88.29071124702156 -9.821413984294333 -16.857089361832006 13.277331124236849 -17.748838657859867 9.769445274058008 20.931818285037092 -14.372335482624106 -115.90450525307332 -122.0502827302426 -72.81942728256074 -10.3409734533061 91.64764141966742 18.65955684603825 26.740494809897765 8.731869436206152 -1.2597643845732487 70.27007254415354 -24.173707913550636 -71.09480551811671 -0.7934881721969357 5.576529062365011 50.87892629834704 -9.662285728366628 55.511126896378926 84.06759958811224 11.127733666357795 10.48717668057602 -21.0556720426461 107.06385038432202 -48.10934108658853 -60.52351088090379 -48.20731976025419 -39.87115638658609 54.61998493760749 -19.770598166227057 2.9404799083178346 -23.1416994100607 24.97457747441676 77.34754283482776 5.711957525782313 -7.741745629669416 
3.909952137130865 0.8049949458513327 1.7894533914504187 21.972419491795346 -12.417826076967675 -4.6969021687150265 -79.4542480720723 43.96379567164766 -77.03285311831004 -64.88026259754906 -64.96489564645081 38.23683170666845 -92.55530249601684 19.437131418400806 23.43807526204541 -39.543792522269264 49.39217195385838 40.75848871162999 62.190391530792844 11.982656811879068 -116.5832925119836 21.93243368987651 22.25488663558801 42.090139419729034 5.968293285295414 6.520789249454857 -52.59121701427354 27.507557250984043 -19.83435854667651 -92.21783320624444 -8.61924696732038 36.58574222859282 -6.255142694361757 106.14887209364468 58.96235112070439 -16.316220308507763 -20.232699499398297 24.478801205791484 34.91969836089465 81.4763435832702 2.952396755728852 59.14357096151585 
73.59516448647985 100.09036769399238 -33.78730477188475 -58.778733293283096 -57.39294787275448 25.240156747797986 -54.0024774853713 -38.789806528167155 24.110266068789517 -11.339815653630792 88.66351568433319 20.447418648100548 2.777107413251586 -33.30371401626447 104.91723744178965 -30.04882878199633 -47.19601877017927 65.23955764470756 -11.191294208566626 -19.516294482348105 -37.507224239459816 -97.91733684879158 -5.281412875407474 41.64567378186908 117.46499985375284 30.411700187497587 -122.53048097038302 -31.090444180643757 53.30473276400505 -10.040472817751143 -17.14757040285065 -73.59869735298061 12.991262693659236 49.959227568177056 32.93854555118804 8.275400124752505 19.294059063945348 2.0054508776764646 2.1186577144494168 101.47688297360507 -62.08063653618265 12.405892710449274 
-55.249234191313505 -77.06577275741792 50.15606711213618 16.421559603338025 7.106220261183884 21.594013708584615 44.35749539812849 -50.248761843294005 43.980319087022394 -44.231735390335935 -20.650487436851396 -24.739811715376597 -0.3747100103569678 -30.649080972483624 -9.633111169874175 17.038522425262933 -62.430477852090874 -23.439238090644206 34.21042172146618 28.564938900270256 -1.4315992712629417 33.58631448491612 130.9916951685121 90.15211450570035 -39.01181679445682 -14.357040546308632 -12.658561966866987 -29.728778491832397 46.11066945522508 -11.154310944248287 46.72820667282513 22.55064653008843 64.34332786468056 -14.349577619799197 -48.93806586232267 -141.34070923460163 22.449864922715822 19.74652521172057 1.0245173697639998 -52.726736336604276 -16.056716728013967 -63.921013781658665 
-61.96846606690795 79.24972753121268 -64.85009971180415 -5.331542099461846 -38.100457127326266 -88.26272231056863 -37.635153019428465 -24.99152554463056 -6.53953368060739 0.7047739584133714 -55.7929784775699 -99.46113769784453 5.742639743636392 62.00581474900506 96.24854026714948 -5.7509633726870115 -78.53987350100786 43.39833474625472 -43.38579977724921 67.33574728437108 -9.277787099983547 -83.74754053383161 8.03080929037244 77.09703489629177 -25.994609412505152 -46.09565720386413 8.27675724269549 -29.032806887929056 60.487257764202546 58.518347320588624 -36.09408194068212 -6.894985790465939 -53.3294712493808 -18.277633965231406 13.870482684995732 16.08494475934047 -0.9905586199207519 69.63470670371997 76.60669769955783 -0.9086208716253349 36.019690756163634 43.20296524071051 
37.73913470056436 -69.39178704047389 60.68784377720821 62.20413882261788 10.826699706344739 -54.20103116644222 7.173245549139113 23.961968094742097 -1.5220411648959928 27.576578243312035 -8.93804149613845 -3.4090734472026605 67.48739557187692 -13.050054395463308 -21.562258167847116 -22.751268033903045 -23.125042142910523 35.504506308679524 -34.537288011948064 -27.013948674104864 -14.236821470555647 -54.67498694887577 9.166048645674884 0.55173161887544 -16.82825971764064 -34.69488168095525 10.512559448400621 -51.008914411567375 33.40300958802785 14.030444243276177 -77.05035850025504 -39.26801692567937 -3.024443828461589 -64.96484876463087 72.61061943723874 -1.1083499558951087 24.889623019499435 -10.384224308441734 75.88014506832265 -31.87416749532017 29.625176434242686 -72.36913360507234 
-7.99887921641499 -62.082265807176746 -15.230862873502023 -50.852095710037446 7.728488988234708 -2.5308270181426584 -97.9989544304464 -7.975280141632956 19.38568773183933 -35.73259753375241 -15.580152617369768 -38.08365707170319 69.01573126253474 -33.58211294440703 -21.45165190501245 -22.014382570560112 28.18403415237094 1.6639947868283387 43.55275437644138 -48.994610349285985 19.18793643818495 72.63720902430873 115.29967529463845 -28.551218426626708 14.52429569847364 6.652394501666809 -67.60055227697507 8.079205685918136 16.922462121144942 -1.7351025515518217 -24.738491313427637 -5.755671809934161 -22.319329605918153 38.425330183579824 56.64779803871706 -39.46111989882343 -9.799368443035096 80.52668322110421 33.07292270523296 13.848902495690547 0.3339530723222728 1.3992824075644579 
-33.40473361896411 -42.542794204457266 -15.807887145795885 86.55442703352571 -25.276036886026816 56.07601907598657 63.88030178734063 16.365310908234246 4.249288478685734 35.633370655293525 23.971278730325583 -30.558162391532726 -24.165498115156236 111.81183709496844 -2.6130688476030177 -28.020810807776137 -33.41713218507176 49.57853417753532 -14.308696961257764 69.37420038788055 77.64972504047329 1.6025350201011634 43.938908333596274 -45.04176626676482 9.867231242661166 -28.979661932828137 -36.36609716606611 -48.081294204595494 22.035443087765028 -91.96103864706514 -84.67042103760019 -46.042080510829464 20.003950108301954 -17.202994507456577 -45.100147479564015 -61.43607865332813 12.492504901348067 -12.090768967900143 -98.09189804573181 -39.20349519161776 22.378167630346265 -68.92408571940383 
16.840867641968753 -49.52271097012373 100.62239702864072 -10.626126931516541 18.948833439215008 -33.92161427525881 -36.76640796195276 23.54302768896563 -40.23918776739659 86.71503328429218 -19.296669505769678 19.490205550867163 77.7357902074916 6.466887377342673 9.051807569109057 -47.06900669883672 14.561853619604118 20.36131873625612 -9.1052325899018 -24.589840831418076 9.392442163800931 26.082745583771732 -16.954879171758666 -4.584060926406201 -13.192371028808148 12.692436929810329 -26.276397873302994 -35.07153487121611 -97.01371231532401 -58.27820990002653 9.695230175594114 -27.409249958723525 7.2392318856549025 5.4623193777333485 -44.448368269568945 -101.98702552686049 -49.06081644471964 42.02941308288986 43.01028715497725 26.289011669004505 91.7026361838453 -43.567526419989996 
-9.68621279429105 -1.6283302015268302 -100.35003177339665 -32.73054278870047 31.80717951471187 -59.00357452650438 -29.238542094004064 -35.99328829410272 -0.15919715136092777 -7.549380585496412 -1.1690555368337399 -6.016243122839724 -1.8724074961628945 38.859900565171216 -66.32390676304615 -53.9216981552696 113.77319034312764 -8.042522340653138 67.01642426145064 22.221569862852093 9.920946640550838 28.687177462014798 -39.39496399780597 26.301880230194072 -21.223470236692204 -14.37907589184717 -49.40221980152182 6.301875771296755 34.79851511726607 -30.32791564613518 32.47635259407618 -24.002628758926775 46.73951952490503 -25.24870728894165 44.390058775003375 6.283591916496175 -29.677237131301688 4.84604493799926 -28.162769055439643 -15.233060773977323 -73.78658613446936 -29.945994982560507 
12.010314931555271 -39.13281016266715 -79.93945936819605 58.51331037511199 6.448529931376446 -54.038017446103794 14.187335885927489 3.953890652159539 -63.16181643467832 -66.62694521012169 -6.418212855059077 -20.998042241773874 -12.838011680762127 27.44487633803153 -3.6490662946903507 2.5018420762872347 2.079314710890929 -12.860596138774879 -1.5504355884349297 9.596868829480107 -11.15331626297811 39.69560106921878 26.486606617393647 118.38569251145236 0.8276121250111791 -51.84832176905126 47.06121229732439 -26.986388480629856 -36.04559553178248 -4.330321403066481 -5.348122405418238 -34.452055724230455 20.56601378708196 -15.42443908666615 105.81074569459415 18.059836144050166 -56.441294002377894 82.09105135641704 -49.92822923463616 -108.99926344862462 -26.344790962100653 18.417594806934062 
-11.611840391341028 77.15970263006605 -1.3946057251191966 77.72858120691689 -7.9191223280819445 -51.608044043922916 -80.52777468263855 -12.120310943108791 4.901404928175086 -93.79695791616669 26.059606312026407 21.51274051403937 -2.3645437189994754 -41.45802360937 31.601350209659483 74.17121702087589 21.27549251526014 -3.320358266877805 14.353781521348383 1.0377529972386428 34.71192271654232 -20.748905424136584 -4.819329004304911 63.42209356435095 -19.997802753354037 -16.58049687455395 6.638582928164697 -38.5240368965183 15.961475875039062 1.599422125224371 -58.03835200064649 -33.27631026077202 -14.893114641101716 -24.558609801704403 32.721510279456275 22.10088501289382 38.6602425503342 -43.273234816956105 88.904161578917 31.655660891626777 8.514330845020897 -36.18581564023284 
51.0427941697227 37.07161163064993 21.280678605702622 -94.68047660978144 -31.50334400083963 -100.79516364681628 11.715644155805325 -77.01890019342402 -37.33000908721268 -37.40868590482663 -88.27260856179731 60.36401460509165 40.14607873098175 32.65313263461893 32.8114256414093 -9.639569965303592 -32.8152068791914 57.87912298264569 -51.65109381537325 28.118551539409417 23.858453563501914 -33.18990264002187 109.16058803621938 41.26033815041379 24.586139336383564 64.26807130984979 72.00343560322773 -15.84086130191382 -23.801073414796168 -18.882846560011075 4.97814777934855 -46.597721999541385 1.3840815903887016 5.771247516965197 -33.072518936929505 -4.3481780116587885 27.4726616345482 -5.560090740321277 30.20535216043463 -3.394057523855398 27.960366205541586 -106.75917111768591 
107.61970046436578 -41.45949933574155 11.762045548274713 42.69459890594659 0.6686147989495724 -54.61249025219594 -59.56529155831286 -1.6146543665253665 18.454005016960274 85.27414303341466 -22.202152096262203 -69.46438398040301 50.32620039523568 -44.46546669228684 80.01442140453703 -40.73428540136469 34.27177071787527 46.05228796623981 -23.875242191661037 64.56921900411592 -11.695286341062571 -27.271473078542762 27.546235660768026 -26.639560319239873 -1.7861454334654872 13.308394630693103 -61.76563244302573 13.185583596882193 -19.786624467716294 -90.02035248477613 -5.113665679359511 31.73240859926042 -63.08764884229947 28.017456465523576 24.446025573870898 53.263300292115936 38.50035162965154 42.6426168239135 -79.65131283964693 -81.79164039061124 24.660432542823443 -3.542231809189517 
-10.48121025386817 8.715764572358175 22.695728884238495 -23.143586962231744 -33.714109845837655 -66.40291079800811 -90.04805920063617 -26.81399186309117 75.7427916804986 12.542829381324385 -63.25151511584334 -30.903707704932522 -122.2038175816995 6.281801864765749 23.77618384110811 30.7914122366952 -6.989991129093449 -39.07674305298678 -18.94986684681893 12.481013264262133 22.522384466979968 85.60323269885963 -44.648972602000256 33.516600490497545 33.67552221979262 17.093890087755153 32.393504303780496 15.925576391567517 12.060244928178562 -57.87191264727084 24.797298285768125 19.777638336363644 -20.217879626610003 -1.0862182490734567 58.53890128879 91.6503294819434 11.826790952315022 -76.22672405862575 -23.54304315486683 90.02317627624794 26.60769183088667 8.343298607897601 
35.42576698083352 2.7798233249143833 -64.852973167062 -105.80233072470276 -44.78894165868498 46.98405599038099 -19.845754887873696 -31.769551597932175 -22.623647273661632 27.83391382135712 -48.99040820824424 -56.84687218482062 -21.60221602865869 -80.69059598679115 -22.12624507717897 52.738928746839996 -35.320663231496155 -9.197921019964355 -7.7681645235376235 -49.64164875770903 6.396671763882852 60.75058036399661 -8.701373882943289 74.74493380448511 -58.982554675411876 -66.87922343797341 -4.115485860553945 56.05448781473133 60.65557766246075 -33.341252125053224 -14.133287297188401 38.65803605539967 -25.080846544824645 -38.137057264958315 -31.716636152682295 67.39836695689316 -55.786966756968724 -44.29902335815514 0.29423054876643434 -102.98312808956348 68.95379554196025 42.67329301715362 
-18.54823881240432 76.34117774694637 25.360178276195327 14.99322669040147 12.356607449343107 25.771492930889238 2.9508306338616976 13.430778875317278 -61.34927159547663 -38.1217600744875 25.834036026435335 0.026364017858536072 2.940960133540902 27.957304785945315 101.72487817218362 -68.90094373658275 24.22833396862605 100.43777839344578 53.691383924327454 41.961266641867105 76.31929120428289 61.637242485672246 -34.289188405748725 -2.059718348204632 41.040454052121525 -47.53616580655321 115.7787980314891 -13.047926544076097 64.09298299092616 23.704936763648245 -27.36215183131436 -33.5555815307508 -14.02470790927686 27.71436970518216 -20.239222036629794 6.710546258739216 15.36820579231048 -39.85552537308423 83.8030201798645 -72.56076265996073 32.141524843974956 20.700937127178616 
31.619795347147374 -96.83466550036866 1.6581577232454023 -44.80559544038012 -28.374930537436825 -9.111477327257495 17.458806613988564 -28.808663181445453 56.37512197778791 -65.22140468817662 -6.005634638167737 19.958652940902013 27.359813920225236 -55.13422851230112 -15.485111455161713 44.47600996111699 -55.1769404327178 -47.19886895011496 42.61490457942181 11.355527065643596 19.456637136027357 -63.81705456517593 -24.94237639795452 33.22679168806613 102.52879438475856 -51.26463995149688 42.38052049536808 29.150014952264712 35.926415299050724 40.353733156624244 24.481637887915046 -1.1559766123737483 -12.191767469699432 -9.123338892536696 -9.482885398400995 35.71005184582561 -10.444705045041554 52.43245799476251 -2.2764614019327065 26.881750998162424 -5.582551433853959 42.98029382517203 
71.27622717434284 85.53165367169323 -98.18405458349217 -8.911159034432787 -1.8412817832726331 76.43661153984061 -41.28714649655898 34.01577478682617 -82.74215667263623 33.18762744907417 -89.01147979768787 -61.50573118178905 11.88033923230589 -42.481515239281 44.32921745966248 49.479877246834924 -19.888615513693935 71.60252731176197 -12.862418967559423 -0.9101266208493387 144.05214783394098 -23.48288853958569 -21.0572876553076 -43.301627718509124 -23.956812284233205 -58.621776008209764 -4.127106558995176 73.90262283505264 42.64044358325187 -37.249069412661306 64.3497401045379 -30.73927089583034 17.212425094480444 11.803494427859308 -9.791562772275936 -92.77753418097865 -5.672953811956361 -30.510604135607164 25.522262906792946 96.81144505349134 18.36364865273682 -12.749661573105055 
-91.8760282352359 -25.43430960971484 71.2653038048061 -18.884374591729078 65.77493199341446 41.242790254549185 39.89582850153019 83.60208828327366 81.80171807112738 -87.1705761978101 -80.94437478452832 36.5051514776724 16.283327212345213 59.40658629332981 -0.40942714647153433 -22.24093062657147 31.92463343831364 30.483995788229123 -15.190335665819111 -40.65565045013867 11.50100503485844 16.491676125859463 -45.755540290532096 3.8122155782468226 83.8457657584497 36.9827753230316 6.247926922860046 50.131764173193034 -10.207396052395444 -32.990085011000836 -1.8039683403980282 -7.800882790677594 93.70102600715119 63.715516604870245 -13.441649275396792 -38.22202453452452 -39.2765808400961 54.950384363013 -91.41158614011007 -6.291666527450514 11.005556486980675 49.35761498078283 
49.947338304752 39.998220451392996 39.493732499995964 -3.8899507379496177 -9.959989115447035 -41.309872021563585 -77.51544098411449 14.894115856882841 -1.6412265780272155 -62.496346788597144 8.483531243072981 64.29674376942909 -53.89161759018255 -24.312057576318306 -62.90310763995978 -7.473381930009374 -17.954642343213987 17.045940837164675 24.129776827111804 1.7109665722858651 3.158509701947889 22.641204192210655 -52.70040154923934 2.007410564873691 28.790840157199145 3.721015094166946 -26.988691016990945 1.4542117522298996 -46.66414771861979 -8.936043263416902 48.84195694904401 2.5051864134969466 -38.0571059271392 114.27814602044982 -40.365569321921654 35.74818230382254 21.42347327736528 40.898680770602255 19.276276696072006 60.83758816233847 -13.132137404694111 -71.47205447079196 
18.439798856683208 0.9679152780020698 2.68101422963563 -76.67082967158667 6.32137477577231 115.97010690641036 10.725718355790013 -55.07749030975801 33.77553370668312 -16.60809533854411 57.724263971209155 47.703249465179475 -85.18190392253183 -121.80358641661243 -74.32578658776991 30.461123002542273 -100.10114765797333 -25.511049960171885 -49.13897586500522 -45.10773948287173 -44.187917339472264 -15.913220262441238 -62.95743068937381 -59.66479759661315 -16.047847698723537 -8.258199511305591 15.353892228671238 2.8906797078493476 -38.16050485915143 -44.463302412807465 131.23669184748627 -53.070755102212864 50.96299303562522 20.91107484600818 -75.60731445833642 13.506161118939579 -52.78201053097475 108.47227276227046 57.789593547592865 -52.6915340147289 6.999546093518758 -14.459945160042963 
15.146099851470783 54.505341629806196 -30.905601517017036 -121.80793255478677 -8.877250423319751 -78.53949974332733 -11.7303903633039 -11.267482284250528 -8.288489715657613 7.490094352844238 -67.21049515680376 -45.94280446519288 -30.55263061441718 -70.30925986905936 -63.859388679336035 45.50889026272365 -73.02026763610274 -19.347186704408045 -22.175614908675918 -11.992515305029562 51.51108697161069 39.99161641288288 -46.91847328399916 52.529977611083474 -11.250916504329743 -15.472844578950097 -43.414567855727725 8.389767720874065 111.24347406801948 3.8931196167571454 31.231422593444144 48.137054788840985 -76.76304064744876 17.106062467787222 -42.81424818590469 12.962196862350504 -21.538071164836655 14.016042224764389 -36.1362209551347 120.35025873913465 -30.229805605741127 80.39837916390013 
28.852305470692876 2.959866612441999 33.86445596481367 -24.756979517805668 19.953301115563505 -97.32187943020857 -29.712771838353618 78.1800131070167 25.295035222248057 44.07534496858936 16.743679132583235 7.090750012824599 -30.14294692787525 19.726303338131665 -12.905864155884442 -60.25871872283487 -57.7900382446657 -1.3088070838214731 62.82633972569121 -24.241541562708164 4.396970093187007 -56.89412268149397 -2.948382379020675 18.471016179354486 0.6843769261824459 24.69746793549057 -48.66605458312245 77.75987264088691 49.51518796251145 7.381268316214473 -22.03216835211647 45.36850679177206 40.34549653958792 -26.0657609714943 1.2254690451131482 37.805193880191226 -89.7894536147109 -22.06049140909959 -111.87228228931342 22.46099763498613 -22.773634590163354 -16.693156413687092 
37.53212059409867 -47.26444687159997 -21.497894883629154 -10.335612158200412 -53.22770052083299 -59.88867944153086 59.33440979605766 41.853285273778745 28.633427236695905 -15.943769876459227 -28.351452231503362 6.699845017229136 -44.084086584614504 1.3765161472987704 6.6817449194845535 -63.534159245529416 30.3315119729186 96.28488807331598 -0.7482862361954105 21.6625419798717 33.61396924799875 -20.095454000445667 31.2700568518681 55.707682779380754 4.424858816512812 2.6095878781221074 39.12628209519851 -24.43161578782273 -33.88638477533838 -12.060476082667394 -81.67222559982197 16.15799151973408 -13.996408656941256 -30.733478371839098 1.1503489127820756 56.028401072131224 43.89594412032706 -83.13857738207443 -24.929619085290398 21.139917029202095 -39.731890643266155 -18.490802627536286 
-4.162603093303335 -42.054550150870256 -81.033250101163 -18.285561738837742 28.020898299286678 -74.93650312357912 -55.8753231417146 -59.648107288257776 28.986115940865915 8.26890297798636 -16.88901861894807 -85.69871694436883 -11.792663465583791 -39.32639934101969 -64.05313791488508 -64.45684512279276 -28.82371835751649 43.55157463855968 137.13963286412312 67.96664038896635 12.152094890883262 13.178460866448235 -46.02975046416059 -76.34388080382904 85.58320722928188 77.59595447128729 -62.89392942092226 -65.48783384608149 16.90260350577605 19.633190612127496 196.13826273375759 -17.527378384128397 85.61212036749428 -32.96569589903883 -83.06781695217117 -81.3144732617411 -13.235500400589416 52.08171339598119 12.036644049401557 -10.522826643308436 55.01078526017613 40.12432281674427 
-13.609973747117364 2.134916476469767 -6.824045922729964 53.3438984638048 47.87273620750691 10.163198730456763 -11.791176890802314 -61.15429307177001 -73.33232726047815 -61.335599999600376 -37.23078596199669 -68.33378714503394 -16.371868051008097 109.1882879892909 14.672884275212253 90.03411038002669 -16.049276287428402 -110.72671831295406 -9.861925962969183 11.491840131389164 26.327583311307727 -5.779465466302897 -57.001990181423196 -54.82212557172881 78.59368431282533 -49.90555593453176 23.441728580167943 2.5925054664328684 -25.900419675288596 35.69838220776381 -41.72087664557016 -36.62862037811798 -4.1729600335003 84.99064441532539 -2.3329590877251096 51.21466767032964 33.78766038299948 33.867691956801224 57.82948044840765 11.598588840119486 -52.25116432998279 4.82912506135325 
82.63922768664644 72.56124663140331 41.08819670814583 -121.99240633027073 -5.5240895078356465 4.753703144292946 75.15535437373117 -20.86055996179975 36.04866939353858 -8.434772379488502 2.2147642813195887 -18.982066056247504 61.6281217697625 13.758477453604796 7.950332237983149 2.775996415809059 30.13509146258018 -7.990720484816987 21.892237794014267 71.62079991368542 90.58310957554228 -21.521131325405385 -44.99686347935107 52.27923997028569 43.4631192127576 -30.993028843316242 0.10483541401219962 28.819699171584748 -63.810840983850504 -0.3618337160453697 2.0748751145455144 116.37811343656132 48.8820681565021 21.562057573022106 -53.74279834711957 -7.998569241970991 -8.247801701799792 42.50293724839757 -19.668270896669338 -94.36043217765993 -24.843593455028213 -45.719787289068556 
-106.9828502303444 -10.002130028396625 -56.82692122772951 -6.539041143882415 53.63529516603389 80.41464443573575 22.813789852512453 -6.386105634825583 -6.109698352049065 -38.2830472727122 37.28397516734819 58.003032343553905 61.52449686983696 32.700454243703454 21.1054164460078 30.85268372435149 -51.5110408215133 106.11802791510037 -68.49654682018667 40.808431897820235 -5.854614306757924 14.910087196207648 3.4556332977450808 29.243243826736204 -3.6016384715300434 13.820081068105377 -27.684625229034324 -20.945262822643546 52.77161279657716 -9.783970408565619 -99.60978048824875 -0.3625364015502934 3.5874783311295686 90.84812973315607 37.987415633807316 -44.38751377622089 -30.04890215466464 71.66469336574605 24.11698215663767 59.6215510915387 45.241741954269784 14.765895483862703 
-103.79518977575569 -16.890937713667096 52.64787231941083 47.25317124121458 -47.89395702794772 -45.12466142181533 -66.94060047596015 -38.53296710549354 -56.38892198667964 1.8964272989720272 -55.578730729242274 -8.71152376432658 -7.371135664338892 46.64364752884308 28.099039344845195 98.17725999387334 -104.56156250346137 1.8856294350417642 42.85420016036796 51.699421886971805 23.961875448634068 41.01762688086313 9.35250375449824 77.50909404888195 61.174159942710105 -13.59379676841237 46.636928083069144 -5.098069689629123 -132.67467896645795 -20.97318214858703 22.00402336537832 -9.01180624975286 -0.6937540689666903 51.14902919757626 65.2813603331925 -86.77286540244415 41.37624132493405 65.7669713057565 11.478860652578923 -28.193028201576738 -40.868595744806605 103.30002469329557 
-20.706671342248534 -40.68388273370482 44.40015955268474 17.217968131571904 101.72239956641106 -9.387962960880728 61.028688929528485 -4.016447408989432 11.23134194986954 40.99466918065614 -34.0795095696095 21.190144710031575 -5.204074411413394 -76.7537668455944 28.17454044135086 -9.831633719739175 14.836378913168996 79.03806108684266 9.662239596637376 -15.542986032792433 10.758978302828089 -46.139029276134714 -5.774183436640039 -0.5251138477303741 -23.57516586539717 -43.32819217474924 -15.761231571709967 76.88371425133073 -90.3054326380406 41.074113679333536 -2.044891917347769 -76.97519024601344 -21.757082091565962 -11.220267396090085 -41.790251911093996 -65.77261234182726 -86.29699441902956 73.99862112222439 -67.77192199155633 2.403024993089611 27.78366330691038 14.309278059833858 
-5.417191015094936 -8.21343255673814 -85.95400079507715 32.1466245128477 41.34512354266229 15.730932166543186 -41.97107159869029 -37.14870864043892 5.52485335468216 -14.619617983759063 113.55744009130812 11.937284295011859 24.73087093860503 -78.97173442179479 -38.17484686650668 -37.536591271662616 39.489453136409686 22.81058764128922 1.3888283434653546 -47.76077577329941 -29.976536217785235 15.534044462879754 51.747126736880254 14.239459424106736 16.014147407157818 -31.237750967983203 2.4234109240200166 28.342075568123832 22.047682739012124 -29.873335831483914 119.07620534939795 -11.716632518927987 18.70377157603013 -22.54181329994999 90.58899504667211 -34.79408742737465 49.28383077602433 -44.3499522442806 -11.704081189126384 36.94194172616714 -47.97356051044954 86.56319635613947 
21.502101442177008 17.80205318298143 10.825492705696204 -5.253591755035258 14.043566093360171 -35.306667772952224 -23.351422731501724 39.95122160927644 14.911960458847885 -7.944829404899819 -61.81916047033157 -4.1737629000051975 21.81775501973207 -6.070745028083471 -23.025127568810575 -39.76460718161329 -8.232118372307351 3.8393090396703973 -6.304708653146376 -45.860103824831086 -24.78400845529435 5.838560852990155 -33.90830987786074 -77.6356363722665 -6.67216680931146 15.316374931400473 2.8112083132032 -31.966094174522365 96.07639031976755 -12.705906489127008 115.66067913945916 77.67658812841901 36.739637858168365 10.105348499955541 -56.9341708439353 -29.318234860695785 -55.88070549880068 10.284988237657169 -27.67980005757283 7.802459926980249 51.67142413816456 38.542907795442545 
35.466423832769884 -15.741168346321148 -78.93089109601013 62.9913457788693 29.565296592362706 -0.9760954693554497 34.53259129011171 47.45659594266686 -21.54913815836855 10.41044926352426 -9.930201953133615 -44.13398711507261 -51.41051319702739 -70.09028812984342 -22.858815646563887 -29.100078731036213 -6.563895919455751 36.0495805526017 -2.1845638205112436 -68.07920232548035 -29.40349078694696 9.75939004605219 26.644532203973213 -92.94225513921364 32.46933233492216 -66.49076529977889 -4.49622587096066 22.72237574601441 -5.6103274070209785 -6.064980135071274 10.55069978543724 -5.53952582007513 33.34583310205614 -31.1423995140863 -72.7640436814449 -23.042391089098448 40.840888934897194 19.946409369992388 -22.76514345834574 75.57732364161477 -98.42526873087454 -23.562555393801738 
54.2977850507341 69.21109049535885 -40.25383054995698 -60.090832472967186 -32.92534124411914 75.37326692248764 0.8826219468608344 -42.45145936573898 20.972813321491994 7.565530375718492 26.988021524965554 -9.728441274758504 21.854758589132622 -7.913232641357153 -58.89924049971356 50.18383695860021 -4.3276258451308065 58.18850536677273 80.71458410783286 -38.24568042500106 -53.894623660872334 -72.09727766661686 -39.71882946892179 -31.066646843360047 32.27355547538367 -13.936872562981394 38.76757809825567 -28.971035984198778 -1.8166800886556949 -48.8361745030563 -11.076671018202966 -72.30106717299401 28.523327433718222 31.72841141279902 64.73452963873046 40.48378462440123 -16.33115357399176 -94.6164995468092 -42.503936799796904 10.230496321011987 -70.48011783844234 -27.52776631420444 
23.588662883569324 -27.98269019416671 34.64515552350114 -47.977849470662726 -73.79349393086557 -17.823898910755286 -81.40469616424653 64.80556641042608 20.441608160168734 -13.867752284019538 -35.09342601811899 25.30111484924033 -8.876115342902654 94.09956840610542 47.4625745278665 -43.97661987392831 27.46596587936857 -31.221951169060507 -40.83049513664454 14.167026455334367 7.397446364272269 38.60805019050381 44.34930336559114 9.518179401305268 17.965066362605658 -6.9500698565043 -4.674916869548782 -8.36178011103143 -52.066124226943735 23.693009193167335 47.513140642321964 101.45042767111434 37.77596403816045 -36.00099538969933 -27.246166110197553 7.195079830908063 13.545968597833188 30.717848540068577 -19.8906258255957 85.73389838275088 69.20735954084086 13.213400372376844 
-54.69614408946026 2.8445920047574664 -9.950007212272485 14.081480363755736 -25.404220465146857 -22.597616037271198 -20.99008022894597 150.38068518776814 3.373701250002558 -51.202014658703206 100.29567223606176 25.09549278700282 -8.630987065879605 28.71114241376104 -49.06670274347784 2.231175299672553 19.116130920655834 125.63904798953622 7.4703115772742255 64.73308367037465 -28.669410864817866 123.54261196374294 39.64715325072912 -29.35261821955068 18.413112870085875 -80.37933519413676 -1.619430628150612 59.007570868573666 -98.67306112179206 -20.915891267188595 46.63437530152121 103.04982957273236 -21.045229378224604 0.653819858218297 55.46289513880264 19.822232141059942 -39.3022872950204 -13.447794909978793 54.99300112225757 107.3034149557378 6.714660618658858 32.77614550229613 
-85.63907726259004 -43.27777495530304 -24.15984750747123 12.485272756506966 -20.818226322139648 -3.7699603619716644 37.145808567982925 18.474085468362425 21.85754273087161 -54.5134574283565 60.111662701646054 92.1503311803102 45.95457601332419 -11.675522831118073 8.064344918669866 -59.17088975501763 -15.44573691558172 -18.18073342448038 -102.47382832338285 -32.817366477294364 14.291641888313828 53.0989506621014 -25.520774243467926 66.29193096563375 9.595427910641295 -27.44584981888953 -47.458556230501706 19.452352978978816 -97.24953497758102 -36.333134821239355 61.287209517058294 19.934287117492 30.521072521486772 3.6619393968570044 -21.13819541634049 73.38791599706121 1.520747413387804 -14.032669696653421 -11.62391112455228 5.4463718862117565 -73.92365202814669 39.16908723643874 
-15.701644395025824 5.678843290274254 22.355341002718816 16.629795746068215 -7.927736915012115 15.694441580997918 -36.25366909558085 -21.131365545109478 41.80892870848549 14.725995726822479 0.8358719954910886 18.540850049598493 84.49265542167912 30.691641227413097 5.6116478103676 45.47695453206591 20.275557305281428 4.193680878381528 36.99630999574882 38.35896695228092 -21.094946303313975 -11.249730486247241 7.928993658793342 14.447514497530907 -30.207363161143725 12.663327224747501 -13.189328521231419 41.57740026042992 39.61949476006931 41.64577557170677 -0.9341858012227859 19.018259559434497 -15.517920397362866 19.804498506491864 -62.69961633446903 112.40542001520318 -85.32735300571896 19.160997913186726 -66.41064894863736 45.77313839001657 10.002349077372454 16.366457457987966 
-35.479941598265675 -9.701953845784638 -14.754561732371695 21.689749155561977 83.404033867638 -74.71487289519955 64.2401871677311 79.2591863362982 -74.41493844786199 -55.305675714603645 78.61392537167949 -73.84369501985886 -48.294161666770265 32.420918435692734 -23.45782947776757 13.573141601931662 -36.633662641622195 58.361212275275676 2.6740547038719087 -8.813210040306275 -10.6501660297603 63.2699150413551 1.2683443429638521 -9.571044614670118 -46.987051767424504 -40.590086519759325 1.7001471368524508 -51.474701298340655 -106.80329405487065 -27.76280269966032 -16.617721393684146 18.23773556818748 -57.80838586375939 23.03994056331142 -9.002373715267682 -13.598428879615756 38.429209105835895 -58.73966587012964 -66.27207204132881 6.7549467745912395 -29.120063952999697 -42.97758092452495 
87.80383655867897 56.494956762839415 -61.3691388361875 86.65348500170325 -23.558032466222894 -39.5887104157922 51.45653991158423 49.77812715521856 23.57478308032571 50.571870220748686 64.29127337601444 -5.618977860151364 -74.4816687053994 65.28713809919019 -43.656301375354474 125.56496228517207 -32.99421983230064 58.00815145828544 50.470451109103756 14.534616438356377 25.692340535990322 33.99214316025557 57.87403456084232 33.63562671490996 -61.71108815938515 32.39509660823456 22.069537221108043 84.0458190543951 -30.808214618205493 41.441939821713014 42.137903306792545 -25.055987423031347 -101.20708918104224 27.006336689169057 -89.63622092279455 -8.181739286539152 2.675146072857041 -41.4853014788174 6.784261793424187 -83.71183601172532 80.08665984034884 11.975329489637797 
-58.65127587755969 37.42732302045463 -22.536642098337566 -39.09521096346878 -5.472437740092364 0.43317346590716993 -84.46534775640531 -59.853639594887184 -77.62435473070795 -63.14871751196713 -28.4107403794716 -26.60832019368812 -54.04826560442356 77.47172942776959 -39.331129921090806 -57.369787418785215 5.330497061334561 34.15756034870225 -19.885572938296196 -3.306061155443107 45.903845456703024 25.61493013890847 1.0910765517370622 -3.6771549925075004 29.263580909287032 -88.0120403859807 32.67828299260949 5.74642448063428 -33.79252318387623 -66.57876511627816 72.32666998655411 32.31902367317519 92.90857135998989 10.14272499688186 -43.97846803131465 82.88598670526807 14.939369730964703 1.6582561655333852 -1.6225225155631926 24.9970912876745 43.687883187904724 38.08498890020586 
-50.5127762827069 -9.19914733985866 -48.83390315092333 -1.1491974160916525 8.963328198019079 -81.86737856604796 -26.542180156983342 20.97740085169602 37.99329039866892 -57.28949729765248 -25.0881942873391 -41.36273751475518 41.21427208816106 -1.6063812289096822 74.4798108259713 -29.853199693661274 -76.450749188801 -21.08018270543985 -70.78984032231823 67.82512162574186 -11.4389225931084 54.32553554841571 -3.609767340923799 85.20854035614136 23.85617307972518 -33.790444059406504 -10.324416354526036 100.17930277792516 1.1746063224439238 -83.07677669532565 29.177453418348648 -20.145774033688166 -52.738342598235285 -10.96402630026572 59.13372572304779 -41.456753963289366 -16.520202489446206 -2.0131257833588525 92.320880872383 30.550999539965016 -48.72856590639359 7.007205085729763 
30.857783608123295 -41.04239916506134 20.1685778759666 3.6071746961882867 50.47575700819691 -113.92439422676605 21.16351646639047 7.169014221477201 -18.475136327067492 44.814751674139934 -39.573266350688066 10.929770372908946 -0.08111985502286086 27.1626487891549 -10.661818876299682 4.567489646484316 -62.37693587551036 56.53718813423893 52.65420356504066 -74.58762711789353 89.81982359329467 9.088303766825867 -53.691248779028534 90.4708080058448 -10.204037868488053 -29.014433263319592 0.5576221834078531 31.78197668708244 58.29776073988181 13.841182644691315 12.574440273825052 9.613225427014406 -31.185852001626046 -40.075204434313406 -22.198024623180636 -28.04606435180109 -1.5256386519772327 59.265287346499946 -32.283439985362925 -51.06745821818629 -46.94845691413566 -58.326550710178275 
12.391793297175816 62.423458923778966 0.04889358172785965 -19.431052085844456 48.18699880388528 6.957862463848994 -55.26229935202658 -16.265761805259128 -23.851129366695915 -70.10872601989932 -153.50057988783652 32.82387368598735 -26.154479611101912 -29.769931182366765 17.327355477784433 6.293710302169216 21.11830238450085 50.99300927871471 48.58309701258369 -66.10056815832533 -34.13189594540071 -22.45717776132439 -99.78149203216294 -47.93076720260009 -17.373420750199745 44.07409987058361 -97.70373689271182 -34.19064929207939 1.3389487286252246 13.24510420153431 108.88100330888477 -10.850589891294053 -37.6018985620242 0.7944773046301065 -19.9256826628483 14.268920302694449 85.71493424640121 17.7838711041247 -81.49490128959742 59.14874492116049 -93.66575096563999 48.951098438792656 
-34.44561745435712 36.7573374074787 12.016659075420938 21.411430453809796 -10.808362011190603 -22.75733125265285 21.356944834853543 8.837222970556642 10.927352244631637 55.42758793991544 68.70695249212694 4.164177977615592 -81.50183530485351 12.686906326690876 -19.202780399492045 -8.906397908169222 45.988493126419456 48.40608507208786 20.31054845367768 -84.7961349585352 65.30857250044943 -29.6812516999525 -12.616454205881555 77.87434059451603 99.95024574635679 -10.74458091034872 -16.21978923838245 88.98951530753757 -18.597135900618042 22.187385286337257 45.632713881248996 46.077688818747276 10.393830098092112 63.39757709358113 -17.217038669003003 7.187334216163893 4.2887467365671315 -9.330406323645787 45.80773880637387 9.487995626083462 25.198538439132186 43.081459403064265 
78.55389736769786 -52.64649486423793 35.275567788152074 10.959600272442847 -57.62672263906639 6.5143115971001855 22.638993196906657 55.57751796586534 29.32361594164667 -55.7920131099322 3.5601535170221927 33.74147948872222 -31.20351491283841 14.311858266010864 31.062222674428313 0.5885762992753932 -66.89271433489539 -22.075891353692644 43.906913723040084 17.690386017554577 -57.54324861011397 44.42827650722769 28.805973374766417 -33.80699732564992 9.578158599814062 28.411691121571742 92.09755322292635 -46.28142140221499 10.220613921552037 -120.57209267800894 -66.3374267916867 -19.61491210667862 -26.14355820383972 -91.24530293590216 73.55944283600051 -37.692092978106054 37.503005538351154 -56.16962446353101 -32.934899475069685 89.58532214355448 -74.27231820311158 44.11811021469894 
-58.27654412892216 39.07291095874964 -1.0888505825441628 76.11367637294592 25.928069837437924 12.072211173039333 -30.173560631986597 33.74173248875965 -8.426087839887867 -22.286471626716363 12.156090160936392 -13.899551556238729 20.090645993357093 103.30061920705808 -4.40600885821123 11.94392502992333 38.18958145423373 -22.266301980016262 14.07777212926012 38.27407851272661 -43.43987837446143 -28.591809377086424 -26.608113136442938 10.107424276108704 -13.664319839916866 -64.00171606778787 22.428991450341538 -93.25825628419078 54.69612441026938 12.730898428621142 -79.58162443680652 28.188798140377653 13.476704811611427 41.634489540573455 47.6353520642693 -38.69264933657022 33.71785682269607 132.43890929727303 2.7351245491629936 -5.3876773956788675 -61.533069657402145 9.085266537107676 
-21.08295501728265 -45.06723596713507 20.102101089408976 88.23906897651078 -2.1117888047276216 29.25494211512416 44.251699174870254 -67.32285334496025 63.67114169164059 21.57770144443092 -26.000154534619202 33.067616388406 43.97224201566998 23.404306632126584 -85.07783412351168 -16.583800816628806 -58.93409789622294 -70.53188028591178 -35.816935450708016 -84.54014668617275 42.17584482326474 -28.383157166206704 -9.290763011081477 10.46371583608706 43.79457979870605 -12.022269968524057 14.004085050176368 47.6869063739337 5.700921154265699 19.762506571585018 -28.178314846112034 30.34926346527942 -81.75055844980653 14.724725913602832 -42.386358217762364 -118.69500632950668 -67.85961559832542 27.416938290008783 64.28361569257167 -17.419741073578454 58.98955381329629 -12.696578798703179 
-54.71636409734996 18.8341447466047 -17.38714143796307 -32.095381065311344 76.37127311530611 -38.92878910446736 17.718337449906166 25.22463214048749 -78.2470838904762 -59.36229044956894 23.659885326444865 -4.616313186986255 31.614094672721635 62.586213968730696 14.45303348885722 -51.971947810471 -49.29826021329551 3.923553140245617 75.27669845884164 -27.011168679309076 20.02642602322855 -23.035159068167346 23.614765363051355 112.97709902685617 54.92627022490198 22.885034842773774 44.395158051027664 -9.663047488649168 133.74675128754225 -35.53971137078764 -45.631536698475934 -26.227000493207687 136.42313775293493 34.97149093410912 50.271362595205105 -18.76226211282958 6.293311545021584 -35.314552359572225 55.64946741984177 -10.34909044249337 -25.161924275267385 1.0173817958103586 
23.873692534568303 0.7779270446833805 43.86056012891551 2.666164665635224 -6.315655335548295 22.85474976282141 -45.6037845521591 28.821461961999773 -69.03161275863984 -97.64921405838629 5.855696277290726 -13.600153380316405 -35.65323628294753 54.98201006230364 93.74700147102526 28.301297320377845 -57.789141027575894 12.539325397115343 -45.989782484347316 34.62996894537094 123.31225243511702 45.42218312711903 62.74300586608717 39.531822606987944 -32.67193348332589 -12.136121889526235 -3.534848941626038 19.34910587699617 130.72904626456167 50.38811853635385 -68.00012672779327 -67.23342877957475 47.43118668191077 34.84433966712501 66.35844895761772 47.62680356790397 1.1590821142025625 -24.555381816345086 -23.80795299346887 40.220205698210385 -73.27276567180658 -20.506972989071503 
21.082223908629185 34.058597377241924 -11.635232439434297 -16.172780066345364 -36.54302093337508 -15.687429567983127 31.99566032395886 -68.08558867265934 68.8572194647256 -30.57961109786947 4.250374174875126 -6.838882579857122 22.05821994378781 48.03124609728718 9.303180071221483 68.76425026731222 -22.870382197291047 106.52022703646044 53.783947086798165 60.10394201418863 16.380666326296826 7.818304325657793 52.005200003554656 42.99302415202137 -78.46269029234166 -6.334424935417102 70.65411726271944 -27.77515998528008 -2.044487009266119 -37.85754521052123 61.36459087915259 131.7765609442482 60.61832214770835 -11.934816132721439 -42.67836074775715 -52.44874334482832 -60.74424165787939 82.39567063517559 -12.820290826422202 20.06412965716601 -17.26548169962423 7.8759339820759 
-33.672676555882184 46.11848783348168 35.70056396899867 58.370393213189445 -13.156099766711211 -81.17670655784529 -28.829391423515155 -61.38506003386912 57.56125291324362 -0.457072596219334 -55.25822143628064 -55.362832961751735 -165.75584563129414 20.934064980679935 41.32188384856695 -4.729687300692423 -23.384437372857693 -34.67156692554634 -128.22950631382355 26.03558443257433 -1.3345389349134231 46.7371258885096 22.60310239183654 62.52284940593447 -50.09331397015505 63.98159096713755 27.81345393991856 29.097932882624395 -16.172763455981325 30.15900611088792 43.226615833199986 32.835045193608174 -32.328380229906685 -4.010901583218094 -14.750393682239634 -73.67538342664297 26.69164197302455 -49.6149028499318 32.81354588413703 74.01715088968014 24.18524537031911 -59.710691941273815 
11.427470901553871 -2.854304278727968 19.70320895391228 -10.293824086268906 -11.285690206044656 51.22397317331052 72.75924997381206 56.766265590558014 3.40239657804755 8.602899652147705 -29.31899794284833 -46.47902818450169 4.392614610245652 36.435962955466835 0.5155922464001347 -11.521028724114698 -72.76178602251971 -25.556255321358613 87.39256537188716 52.14973630701765 -105.36884817793319 16.568521620122766 13.183230545680853 -9.639952968344728 -2.2919137172427626 -84.28258049372874 44.653640575976695 3.61587570953726 -46.42596333833288 -77.12694968871143 -6.9523890866940246 -36.448129497040625 27.293768628361597 -8.755836533843485 12.890998923599593 5.141742509993727 -34.60115724654224 -9.2298840320809 -73.98639171527098 31.013451247214107 -15.22634812527524 -33.80439686695041 
49.9682676314155 52.55912250397143 -74.5989709738046 -18.48441985667064 98.32314465622505 -32.711131895380454 -1.8398852633453482 -57.66936217526641 12.015994053931694 -42.05556550387064 33.6735547186552 -17.540662130163888 -21.576984877384614 32.319960509141154 -89.42842215873121 9.362611279270176 -107.2175188067595 -59.141576294801496 3.662892984231078 -4.301535374679847 -46.64108903905963 76.47972597360466 -17.921473983475607 26.642086036432943 48.69380467770192 19.099926573438477 -13.217589322873101 -7.45371913040709 -66.51804249997348 19.028349743709935 15.847422190832132 -70.91513177003364 17.04798886539101 -44.96867882593967 10.386970666433264 26.65108910033306 -50.20076575512998 19.751143199258465 -50.99231910278517 -63.71535243587476 -17.254361231235787 16.26769926457067 
1.990768931304364 -55.3755454607376 15.015293961684545 57.47435585887281 20.947356728339564 -48.351120254926144 74.51299195851524 -14.183221525809312 -6.88538123424549 7.276145715025049 47.765346443721356 54.82269033569397 -1.2945550485725317 67.0075146425119 -12.820289814362253 -23.710475020641727 -41.01877350924198 31.526825341052533 91.83482866950001 -4.569486849142956 -29.437648388064524 0.1834583268536202 -11.114278797398821 21.61774277742887 5.112901879296941 -4.488948624837804 -48.92354762720783 -57.01270783058437 -21.67631665570237 27.68603904542468 13.070078864228364 24.1534463435061 13.750837683924694 -130.8799361579006 12.081479910148364 5.483052275630273 6.1451103411185155 82.67396962234237 78.96275792591217 23.079046474433664 -25.654170851663352 78.41617468486704 
-24.97517123662223 -15.89947056623711 21.112931356604918 31.338366545647165 15.908685620587356 42.672109525655635 27.444873425350206 0.4925249144052698 -36.81965822154068 -51.47383884009399 14.098913485493616 9.919717818379501 72.50259849377804 -34.35170875634325 20.298601713705555 12.537295575381712 46.99392358059554 -55.374456507933516 -43.80857186761204 -4.19811738164392 16.472176804893227 28.286130499477828 58.29911075447795 -60.329674995539705 11.822859869528656 -56.58438866705778 94.53003581053872 -20.124460051977593 8.048033331749428 2.881393641606825 95.51350471683637 -47.614665850730624 14.647747858257837 16.68337466056492 -68.20255544556085 20.756694263364654 24.44654754351347 -5.360084114754682 61.7492749746528 -12.747624275243131 -5.645907927731961 -8.328251554009478 
74.09685050820684 -47.12763175397625 24.443530508190527 -29.135026957348032 -30.92635693772869 41.99260561025824 56.93017424805274 30.092475283247254 3.2198859122340466 -25.290643492485692 38.971702408935634 51.058006250869774 20.55829473134318 52.92212306110968 -53.847249440881754 -53.78836442865023 43.99111499455565 30.075430897954554 83.53860108328749 75.562192195918 -24.663422123163805 -5.263845227294786 7.150060656065558 37.844422471260835 -13.447984183580271 -72.4610774402005 15.975362038426258 -23.733709515534258 -74.52033258265004 33.904671995220156 -67.67112227547159 10.31786814202547 -53.41148790797642 -4.120143887414156 -51.64109696511146 37.88040731534877 26.615539052766543 17.55129507747835 -61.60074674536704 -14.158301138161734 -19.88422724759025 9.115795761949505 
133.85805310531708 -6.125209734445717 -4.708449269039013 -21.165807202033093 -21.369186152080694 -10.559679314485372 -10.882634764423104 -0.03653389275782029 -73.83145914930972 37.11414526348003 10.000651306059748 27.68355214862908 41.763993933740274 -6.075012205034194 -17.524246551403966 -66.29467354443996 -16.16843737969919 18.058535142373785 44.690969228231474 12.118483465460361 -154.79697288135702 -0.9346616397659842 -69.93813031049967 20.8822100085449 8.679791579467846 1.2032527851126595 66.15052941056022 -41.21826907089819 -58.92855824400774 88.7840430255384 -26.997442855211602 70.78122393291545 -36.5075552028269 -18.346886164112743 49.6030668074912 -25.521364675146952 15.936846440452337 54.163361224921964 45.39788880446495 -54.751844951467454 62.214312670198524 -71.8043923203317 
-33.204659950500876 -91.43199083885857 40.063567059306685 49.66171344079488 40.49444633985655 -16.81407303425164 -72.1786230800072 -55.35838199907183 -17.02875598521229 3.3847169666095307 -87.5959624084086 -9.167412867552748 -71.90319734736723 -56.44751125380461 -36.408096446529115 12.022918233201844 50.37623844852902 -0.531285999793187 3.9863847049016186 21.86305849822994 -7.0952043624177525 79.68876929871949 -22.559304415084167 -47.42514057385378 30.906616836155596 82.2002054276734 -17.19305834635323 12.979577187420759 65.24399367260054 -9.413945819227909 -48.65007225015502 -88.4022880000791 -96.43908512922427 -0.09707420196905592 19.137885859155215 46.539763763222055 12.575164978539606 -8.956349430153004 -34.648146227400034 26.20152976583878 29.324474998096704 -65.08688384053751 
40.53343566533768 -16.620948791923293 -67.2635708013463 -91.77556180263144 -82.54876072021767 19.816662264359827 -0.32882626021340733 -68.20492877063724 -6.778843216489219 -45.28148115804233 4.240787365293562 11.671526733106832 58.86374666333948 12.124962399232267 29.048353671577825 3.8360316159599726 9.319569299060563 -46.77740794076949 -44.95062297650187 -39.799116564316115 80.97704725967817 16.178939069748015 -66.57915482907157 -85.96691171046278 -17.12156774126478 7.405051215302934 -82.29908768122908 -87.36579204629315 60.77979715729476 -3.9675684157075377 60.32613531050288 -0.6340142795091246 -51.111519391545144 11.589559603195056 57.63118213538752 35.89488087529246 -64.06891358690994 -51.60968525094676 -92.59847481697983 30.13246812701394 -80.30893227670873 20.143990250781567 
-69.66387566044189 -47.03634357091065 -55.1539193699764 66.3027011299815 -8.49170313476071 -41.91380435153896 58.34299748629664 -20.711173638050525 -12.906951988980214 -88.47595405479669 -5.382421628537048 5.98771498823787 101.54624678828662 -8.780393883184498 -43.43144905457991 28.329674039978272 41.3829940814886 -29.501362950134737 34.88920642140942 -14.123475641137874 1.8984460227063666 -36.09801701909542 -14.324239581278704 -52.67377370547042 31.890573668410443 -118.70915889769608 19.63328275973922 45.2365975816914 0.6725627976206958 -0.11596409766322291 -43.9554650782899 34.17288096918139 -48.05936942194784 30.326359584056583 38.820213528020965 -34.473124923918235 -30.63900464840372 7.056646212542539 -34.116610163216436 22.012639472870966 -50.133417493547014 -2.8410416927999504 
43.428849697373686 -11.244345241112228 -2.2165141210481916 -35.673834143199805 -94.89517557833358 18.15149547434565 -22.027659913991894 -36.78228167413276 40.1466742139034 31.77867330796229 12.556628316716685 -5.090328101516396 -5.866263344058357 -46.1105030572222 21.55015625241674 30.594490009332212 51.2235666746468 -18.907275817598862 -17.98182880879146 -72.07669286878486 15.779650317907455 96.40771806797517 -3.4964444640539094 48.73876795419497 16.530550990914435 49.28539741164339 -33.11668825915875 29.431312872477644 29.59034899544586 1.314436166551928 -7.6426909823279345 -16.983858297765842 -41.33286898407939 30.74353710060494 -14.40232223671953 69.61603326932536 78.42419858908865 28.44085871603462 -78.60900150692387 -102.43341403111705 121.99029194508627 -55.366272534305956 
40.51877139795988 -49.07899171031848 -50.09360958270836 8.016095139368428 4.421338454381076 -103.871735013972 -50.9057982214449 -10.795004459684412 -71.48440064957099 -61.12926801911767 84.46078139444482 -43.67406813399518 2.742645783662077 -93.14526457553049 3.9995365489474364 -72.28872412256342 -28.56537026566865 41.83999307730537 -70.90731364481665 6.0271717587966025 -5.479407126024326 66.20980677054527 -12.50416500912954 1.4121872338521442 88.6257007409913 -73.76598715459609 -28.21431972583478 48.480792281369965 3.7238068953711023 12.036548077838656 -21.275030946788668 59.33252576922318 -35.00725519018704 -37.06877147923774 -49.73505199836298 29.39291764246853 42.816601598300394 5.213078222956427 83.03036307732917 -18.628970314245606 -54.0936325446409 -30.9129522897831 
11.056407172440132 19.80147045789107 48.70097436858075 -58.971791250418185 96.35070506096 -41.25435064201794 -97.8456240172578 68.81257508457745 -88.63963429628858 -65.30667408240345 -20.7395283030017 -28.538461762513727 -17.604876433540227 -35.056428466974964 -27.61325229269188 22.187136998790788 -45.72480156867671 -4.610954010867844 -79.5015679556998 -26.471904721264355 -10.6842506137349 -14.622603740188808 -8.459251871209096 73.93025956439972 28.173830192845596 58.21231568148598 5.4026481000727875 69.08383973736754 -76.62097265627631 -28.971604814525886 22.31862469322522 -25.289641226143928 -21.79604062186552 -18.998736621538505 46.62055148286264 42.30527617775161 -72.19364009402148 -75.08252280607825 23.32166300105381 -29.542548707075433 -8.175811199529317 -15.11009451788877 
-77.59720625566256 28.761867064691458 -28.66901979671171 -11.329278894058351 36.77947531096465 -125.17351282160966 22.831587301523488 6.256029994256332 69.23225783429243 -21.70652576023431 -10.305924179042227 97.16348427854095 -9.609373429206839 -128.2523176086812 39.65116582722073 17.127609852091943 14.11381985687148 52.47657974715676 -50.81739924575987 -79.37049987527872 -2.1140219650654504 12.264108749649823 -14.719417447101058 -48.17464772107573 -29.546143217259623 55.90314701911496 -60.95402685320888 30.285724278599567 -45.28462600984123 -21.586525096616306 -43.35377805446529 3.883747266470278 43.523364978914906 -14.659781433527723 -17.321923866233753 -1.5624599336656049 -36.1607500656259 -33.71459861182484 31.710581825093275 12.790542628427263 -75.72660342392072 -44.844804823184916 
-69.05484188364849 -16.523663232720708 -66.81339938338293 13.78783278075675 34.82961246641411 54.03001454767844 28.439182005298537 -24.958117044478747 52.98530800647771 -32.28096110057147 12.515697490480648 -15.488470628154532 -81.43303358404171 30.718659099790685 7.544805407104844 103.71661134322919 84.6326299219853 65.49153254184144 -4.432566120617249 -61.61907053327398 -12.946615679269797 4.411192684561942 23.86080554591119 83.22753024179268 50.33713027182073 -10.792676136748646 -42.98320882017686 14.937789761467853 -32.261154955904146 -12.807560947198379 38.38536732259355 -35.50351557076166 24.90970242390031 30.871409405170464 46.609471232547406 35.34695196373336 -81.54583346806406 -45.037289974118146 -94.94101482676511 28.540847254143348 -6.52300017539395 -36.82389236370286 
-30.436399202682722 66.64878602726536 -14.046984611634338 -35.754873181183534 0.8777421917738658 -111.20635848321028 -46.76686872536273 13.787956724717757 32.47337328934084 -100.42157199973819 -23.233056131473692 76.03070602322143 -43.86924829877334 -51.96873403925507 38.62265988016707 -23.795186974738844 -23.05878507445388 71.02418257218513 -72.2053699657366 -59.651794059710745 -5.149916992473243 -26.896990486228372 -93.0076080478573 -51.54211676287575 52.91630130022766 -120.52737979990097 49.85055019405314 30.18248693617568 37.144147560072916 83.10523663623619 -55.653691460773715 -44.63975968776552 -32.21700174484887 -33.30294128982529 -14.510752681079914 13.982831667039427 4.814922292125476 102.63409765256547 -31.51706875547187 45.42233850810299 19.541186487678154 68.22166799779863 
-73.75752371945855 14.4877021508655 -93.77670207365561 -20.919585187527748 48.09588774004492 -14.33502218736738 5.289845000944404 82.7133559430132 17.033547684011673 -27.974217659683152 -14.075224087221374 39.95423218563613 5.594477921180964 34.25640758820104 -58.746140039037066 52.016624923785734 -62.05514166421972 -88.86827140018072 -27.299161700058118 -88.40648859064761 -3.4332881829295485 55.53134215542189 -51.51761280261951 -12.425155919095491 -8.86693906134863 -19.67740640103806 19.52584428626173 -51.44315398323656 27.835423379936277 108.11786985417291 34.335178668545076 53.444873845354884 6.398850315902646 57.70315737521566 57.70323289162107 -106.47181614105897 -90.49093133860858 -72.18302416518927 -14.041764264522126 102.90578485122889 -51.539080537761954 53.72105184380914 
-4.751559485399154 15.878503234347235 12.478457701994524 -11.005806102097765 65.1598554200059 -47.84604208056431 -45.18512478423406 -74.02354668760131 32.323261597620665 34.72394830235977 14.584702767145707 -19.59744791756687 -15.418711976746955 -47.62562924220031 86.47355250115763 61.61974912413751 -13.646583473573044 4.5087238094412445 -96.63763055208885 22.986648036523466 41.85178879564103 -20.549973550812293 24.36586823671753 -28.018073475156715 -70.70378034270888 20.963047583006915 -11.256729174844262 -13.392341892475995 -71.03304639315735 3.7332897819650723 45.55722531598023 14.110944283488601 57.44452345765501 -24.010192687141075 7.06008583616336 18.39189748813448 3.4095459681357627 60.872627080409615 22.631993150056346 44.38357806613399 -68.46969577048996 7.672007206612855 
8.325554150093378 46.32853362498838 47.5607579670384 -47.803133078819016 -92.92749585790362 2.2324632591944322 14.829149665327694 -10.766822152592027 14.751396228991217 -99.26160572333255 10.036651993400735 16.958541737285397 46.996231677911695 -14.763896736796722 -117.78018050307945 -5.092787512454231 -1.714619586650056 -13.86391450773595 -41.228079241925364 77.43949426399146 -54.747615896970785 80.32218616749896 -26.179405469565967 -82.26290173884212 -2.2516041067083234 1.9698566733965719 -5.4477661830329875 19.557986168531027 -16.481524057712534 5.16598602042585 -34.782019642578675 -20.912029923567133 -48.243693799056985 -1.1424607928944868 101.62469149833566 -10.804829273887968 -47.94077662262085 3.029886019928153 -58.128630718410534 -28.657276085143472 -38.99444214535308 39.77883371829703 
38.38405680876075 59.54788949658267 -33.43010966366168 -21.59116338124693 57.1449923339849 -53.04210057809812 34.86617475022528 -21.276167445785852 53.70339811691597 14.431437991440312 -16.887350388007828 -24.498407519640462 -23.83748923371554 17.0855889047058 -10.242073787224045 -47.29872073692978 -37.34730594637241 13.360895184277947 -2.625473684961524 49.05362542630549 22.712113425963466 27.595706003213852 21.220589198827437 -74.83443864485537 42.411392509375744 30.40083067020365 30.568849514979025 -69.05511829756409 -63.82320646488211 -8.936979658412575 -7.984066400935816 -47.027860419915534 33.59931714516288 20.644748522811728 -20.72282935993386 -11.08898413506285 -25.430893012434353 -44.36692446099887 -88.66510059786351 50.415317449779614 -51.709190142400075 -6.1834456059406 
39.52215748151169 -10.249302544377505 20.868685324294038 5.534934124337704 4.182503815099021 58.33704767409342 -35.89823538774895 10.23974686826847 69.82856167243831 120.11597750253053 12.613360439132169 8.047675147131269 -36.22783983793304 -11.66016821778317 -23.520479309029596 8.331334237027125 27.703952500153893 -29.81521029124591 -37.834211434819984 -23.430185396321303 -23.988999015131334 7.942101909395561 -80.51388453654211 -30.637790642645104 -23.35364618906265 -17.26684527177879 -37.74941442241128 61.49162457911563 -11.496885253165987 84.70423523209192 -59.351226213335366 124.24101432814187 58.723978894009164 26.815500198092693 -20.81806015820521 90.20493761919347 51.23044061606408 87.65758446675879 -39.78295339037392 64.91826138459508 -35.40256100506634 103.97514205891692 
-14.965020025887725 -78.646223131129 -22.393600269007287 25.695494558266137 4.08162789109345 -20.544990409880672 8.953274673925351 6.092666391186619 55.696893055933515 -106.52686507702353 -72.09534613557472 -2.117480586701187 -46.73871088626579 -34.94328851861141 -34.389659254226174 32.377380637998705 53.82563749635355 -16.527753126991453 -0.2547228230384505 58.993403827658916 -12.674357265265144 -98.76985240859473 30.668033600665492 -21.30033849801256 66.42347027851474 -3.3506351722303 -99.10535939163792 2.358825352901647 24.673896962435492 -0.026201756730840083 -12.795935225944683 -6.9145445445142775 -19.678051544649975 -26.6136500753392 9.029437636056224 4.414592131426936 64.21001395041155 -51.15930180943231 35.96858596713997 92.1707763788152 43.31725883412848 31.147245456520466 
-13.022545949652237 -101.04812004785391 6.304164173238882 -34.15151910282058 -10.223530626143445 86.66379064628012 15.871663472304572 -4.9133649172653975 55.46254563879933 -21.397818277359747 -3.6748221567122794 85.09872865888049 -20.589577040329036 -101.55939060053734 1.0972456272257483 -50.14035190149264 28.457814391329798 4.603343861679763 -53.173034847819075 20.937279696727774 -0.8410732200326287 -47.50662210168002 -71.03918543236927 27.274839248156127 -141.28601426616729 27.577006365593462 52.86160203870891 15.03713121743078 130.41950460096058 25.71170783673698 59.224608387016985 50.60750074644554 -37.975730640404386 21.560735423018027 -39.773774278329505 49.888747374396715 -17.072911583975024 14.49747410937914 -9.881698490401224 -76.96601843216952 -1.177852839891237 -42.78243563444328 
66.99805152724946 52.7385147721495 19.021124869883245 57.65455149431269 -5.2029277120606165 29.24410770769967 -4.939356465809411 -0.20413835415889361 7.592636445473611 -31.531777954568767 -63.050205677593 10.227070633160297 -80.22430454726886 -75.39199449014114 10.21556983774121 87.33470150099389 -29.388110439912463 58.06632109926343 -66.68091203203716 18.93048509756587 -41.739127731299384 23.57580967166524 -24.22084598436065 13.286654723752118 45.384841383199195 -4.101816153813158 -18.583603064824654 26.177100986298854 47.806259993684876 82.01248821116977 65.0718955257314 -1.9245456019464917 0.21818683604394848 68.80199239900024 -34.918852155223384 -20.069759863934898 63.801049860558265 -18.379982574157534 33.14789466218978 63.085289610381714 -12.876137159889126 -50.95581148774669 
9.48989241305101 -11.760321375073515 87.06490855892967 -70.93758440034232 38.62758412835073 -3.231925716857694 64.45361815833877 132.7540423156151 -58.06127602125614 -125.56044810699215 -14.757795604117478 -83.47220692616624 38.10249063062632 -19.990491706307598 -35.49437597605863 6.746003131660575 -42.09820127106584 77.89871625177786 115.11393811231947 38.134858795803474 42.19889070563693 -36.32410776287646 -84.79049002671647 27.38632864696738 -27.396805815208193 31.9989085298177 -13.018749383792759 -36.34906822756321 36.73391479786627 -34.30796700312113 -20.757541603977288 31.1913308513965 73.77814352232214 31.438760167767335 -55.45562125433668 -40.481344273196896 34.00482577468731 -5.994262934970347 4.573067225977373 34.18933349952478 -57.69345270163083 18.574983089665317 
-52.837462403163286 -69.27156773384331 39.235956714552515 13.99867979742198 9.209451276379152 -17.161415994434314 -57.01524142760579 -14.509298342401868 100.32144187672621 130.7639788300039 -27.53550921254743 26.042197455425963 4.328478899617953 51.30062090491258 37.50442891643421 -57.74620135338155 22.584377248461674 11.435577707201999 -27.929219891223823 28.499058837377596 -29.279830620114744 -8.438946346916232 -57.93121816694088 62.621006720787676 -0.9275283091370866 -18.856136459730344 65.06309728294018 -13.072714820893868 -83.83442041801472 20.39836413518055 -78.45244609437643 -27.016665211328185 -17.24835645392482 39.924186798372546 -23.957756687124878 13.044644217993982 -16.517650697307552 1.3373022696688188 72.34569700650451 47.45133262161589 -25.526565358030005 -8.140491049321563 
53.07859779896422 12.222708913288567 24.502398254257603 7.322038989463373 39.26643625183559 -2.304410156221966 45.027652616958136 112.81118419215429 -25.755503868379293 16.411661875271882 -7.784912513624063 32.55036019593482 -12.885907149506266 -76.48249412230828 -7.091895337737153 -65.8530693727914 39.246503249161215 -29.719776800565608 41.57182099395563 -44.83182586706617 -14.114066090945185 58.91737620577319 -39.64280615712599 51.47597674346163 -38.70449224693424 -1.9122212692024716 -8.889779056863148 25.31450326748042 110.9345373380367 -1.4383531618447973 7.1346301341146345 -27.43050072056826 92.41921338072451 -4.960713917461311 89.41050059664458 74.33726521579167 50.01307739056198 -43.162678265775995 11.32011624004131 -44.8385656022949 -43.65123514521674 45.92239868401318 
-8.048613244540329 -68.65164878431372 40.98918513413911 14.80040602232351 31.859384092343163 -28.923207788766558 10.244809111541082 75.71928479666322 -24.88748076917004 25.75128180982104 11.134835245920186 -7.727739803453418 70.08354794678004 85.17629086998447 -19.303992374186144 41.49433621159063 76.01789145703015 -4.369646707230258 98.6745373378663 12.305279900261006 2.746477045653736 -64.22957824282184 -5.213181142806485 25.60997291014493 -12.938407320002195 -37.19033921449363 -12.675013033892476 27.98155179260107 -82.98170577636797 -10.695095528283842 -75.11651365598559 28.739455261494687 -46.72067122623643 -13.619440666826435 -82.19565040688012 71.87766170545325 -7.859361085301431 -3.6580805052433694 -34.93133996247046 -8.584525261127224 0.05295780787105231 20.335768059523343 
-24.54224756061144 28.842002599665815 20.750020347179326 -18.36654676562137 31.98277363750024 26.161024206095227 34.65263926404728 -38.17547709617701 16.826377601947474 -69.24018159187673 -6.451041265240179 -52.611239412087606 -73.2521375752374 76.11933658001696 48.02074687947788 46.4817563107823 19.169062423557143 5.670028545260329 -31.57583513661584 75.28838076832837 76.0353558955843 8.085997847262473 93.8326496233305 -35.41937539546441 3.7763440740028567 30.287668424097312 -23.368589120546282 14.376846847887187 -4.2122748207617615 41.10469931810964 10.74586581031339 -72.28466392361956 1.6834842805884254 -46.51517407197568 -48.014800683213046 11.129495793960812 87.5992710559872 -54.028583676557126 2.7530803650910234 -16.410275466763547 -79.02397308133932 -27.71425794719346 
16.257530472649908 22.316913261542137 78.28534664768685 9.86216409016838 -94.14858493033147 -20.500292305225717 -5.924324858605743 -44.02300292170882 77.13917659220583 -15.580561480931937 63.602586052649556 20.99206356540098 -16.564964052749144 57.77561400653511 7.858463357775585 2.3825239044551636 65.918866442474 23.637414357380663 -53.12322354025631 -16.395790915838276 62.91704219916921 -47.202279900677446 -43.626533704096936 -36.19609379504493 -33.5127851784593 29.84049418016273 -34.04554824146029 30.005302049423186 -56.12777120629776 34.09929600427116 -90.84544621265687 -8.439838501512325 15.408493039972617 -50.04434360800825 -72.66663617099415 -10.684468147412577 -15.338653774520688 95.32187640715138 3.4709500397128954 -39.954110058192505 79.56364911960168 53.689131062484826 
5.615507690268029 7.0335935811483115 27.240564821538126 -51.39415116707396 16.34334248591334 -123.27757468704314 -58.42230666508726 144.0705430897812 -5.482871373151652 -14.295878957213159 15.900693785602963 57.407253497788076 -39.89889720913059 19.677960686699226 16.630592839894163 117.06837311233664 60.05566593555457 60.74042300702873 1.2728607458362409 -48.16332656936851 28.91553077726683 -49.76508878967449 32.04171355858161 22.98102853574149 -7.488360973583233 -15.336287718055171 23.42575846445934 -83.33500981557373 32.3034154915295 52.9375257425867 22.08570604831744 9.012955753012417 15.113587080810564 38.15270202822227 -57.23007681922414 57.2227323684417 -17.731967833538693 15.004096774080477 -94.33522656859986 -53.13997041005612 -17.204129729672974 51.27711954381403 
-67.22720953356114 101.40643117326009 -19.13348288920795 22.69336642424331 -9.078588399825302 -27.094371929767853 52.98093605386662 -14.011784794289493 -103.44083310141725 -7.2401741657673755 16.144113216274526 17.33018126632307 -56.483257147761336 -74.21470108831495 36.038794872153495 35.907918343588875 -33.203925622897 26.75060362336968 9.04232923220631 54.55482673261939 -14.698003502727332 -11.194055860428575 7.294533965929496 -48.02209493740462 -70.45037218648375 -19.89287023393745 -117.0191068531619 -68.5457681996168 17.230299245686894 2.758783805773116 52.82472933045459 89.48574747660972 7.556021468220279 31.442521754935843 -47.88563229555046 -68.61421005725884 23.074246668696613 -39.50680706732146 50.852865313405104 86.94707109934478 -19.727370455404504 25.19776745024188 
-44.12276778051367 -11.239956337434489 15.240211117055964 69.5367829694196 -29.117625511151047 -37.931868105708865 56.62693089848068 -22.2133509137529 -25.309838423552193 31.281597859240268 34.102181855729235 -8.257763430875766 -82.91389347556849 2.540563459372663 8.418655085661266 44.45323698961838 -4.610941194284328 -64.85148568389704 4.211121314056189 -26.940064374008042 29.444245909409844 -17.90848695529872 23.75454616758747 28.291058750952722 34.945266182979154 -36.54547138547016 -8.975960343290183 -36.76843636030287 -101.89054821229652 -29.046401686534814 -65.09325406171311 -0.013236264642902187 -16.78098637000716 15.517087171036328 -1.9026044502990545 -56.165679541453194 63.09019053254679 9.11433802265048 10.76113286997749 80.82376888882425 47.13948784824874 -85.07075515855051 
-4.229050054965083 -2.662409052841005 -84.5831756770519 64.22687003192084 76.77608885464436 -4.469909767955653 16.241893828211605 37.48270336399787 -32.74005910519847 20.131558382858305 -1.4248511719081056 12.6251451382604 54.329265132410406 63.27534584711569 -50.753810262715305 -9.932543451618098 65.71516440777367 -21.677851750879327 -3.785618299845859 16.833240726576204 64.19284721443442 63.10362211102251 67.11102652233284 11.372762374215906 -12.082464515910146 8.42472760062472 63.91658347054142 -30.4334433973233 -11.07676771991792 8.094570278802808 44.340330287845816 38.36582427884251 83.34550767065814 -9.954732245894732 70.46470038254871 -69.93507547248262 25.979957361469502 -33.54453849260502 35.05306202464239 49.44552279502608 9.331058053854044 -0.2578112776498323 
-71.14358557132783 22.305284812078842 -23.39353722923856 -45.29364511339834 32.902087556257754 61.9097858829496 -46.535785493387735 -8.698411450291086 -7.405571214724343 -24.94300667136655 -0.7011812143737212 -1.5555720664425183 39.929103915721406 -36.17874571623401 -68.75547586374779 -60.79194220231867 85.58235046488147 46.81696092410592 -50.254855472529094 -1.8680351196848974 9.893947381866962 -60.75816723358427 -0.024350544907956295 -32.95895246975356 -10.174432086138337 32.72950102192887 29.48594680240756 5.715670784160598 -3.364277111162388 72.63672409154644 68.40241156281498 -7.475974649178058 -19.134922641285524 56.39268230620704 27.112790632267128 43.5364884199346 15.33677300720854 -49.957104111429025 -53.249796496159064 7.384240931340016 -29.604624167756914 74.30645188025916 
74.5477237147139 -29.638789879706742 -147.8686445694708 -2.4629928141807613 61.41178266075597 11.030499735045334 89.34940083354242 -25.13064327067667 -15.767962877559434 -19.606372647808236 39.02202638371101 -58.73251618711741 -66.85739421092207 47.90120083376783 -8.197810867606613 112.00793723106392 -40.565319793436 6.3704028408853794 -42.748929012881064 46.34983574170531 9.729901738209902 14.330043766022696 -145.5036427946148 3.8756427888207057 52.420520880338415 64.35212307841795 84.9632606530716 -27.22012643441347 -1.7206126339922674 -24.79687581048485 -5.716808525809702 66.34703825951752 -3.5028783689284 -17.71183016419669 -28.937918871960136 -60.621036792702675 85.72511624301585 13.328323324295763 7.262862776271796 34.44238649349176 37.641286444860164 -17.501994145690652 
22.96049785748992 11.041279512292117 -91.68911900228649 9.954952080671017 -15.886195776394883 35.36469875956931 -15.88627996744347 -9.121710224969945 39.79150268484748 75.22498793872398 32.457505708404994 -40.68596232681636 88.83703715317263 -18.085733163411135 37.55986951390406 23.152840107113967 -44.27683088149023 -9.351625376816694 85.63617363173414 32.698501323379645 -19.703652232732427 18.18540465155681 1.6144596215688722 92.7794529364696 63.92907292197359 -44.385397042136766 -99.42108563135181 -23.743925359868225 18.73861924840745 -48.9317857991261 -24.769206386752977 41.469310032087655 11.421492085011565 27.648297584230402 68.28604879495693 24.5008920938353 37.19526545124658 -69.48331732451743 13.51207432206189 49.03604754581897 -63.50971471398964 -42.236326394398766 
30.560872691393374 11.669633735389063 33.809726698253854 1.1276929041786699 116.78622822036415 67.97202929498422 -9.234838348655172 -20.201741656998163 21.1466792690213 -9.504949532684911 -31.913652680297076 -74.86062034474243 -11.545356172917852 -11.949679932018428 -50.50519767498383 -8.952848668070574 3.2505575525704704 54.21374829975572 -2.079838316297312 6.5674930275762025 57.716121358062736 63.0923066484596 10.374958618460829 31.069713097908522 40.363665619548996 61.245093031808004 2.502662310135021 33.78963174775781 26.60137880316895 -70.54407720047726 -40.377261581020356 39.803671475093346 51.75256150010698 -41.67045659502162 -45.34251810366725 -89.74909206616718 23.340190444069776 59.49921531174398 -35.48334141162677 15.071089634858588 -52.418182315329126 10.021847018843072 
78.48927750750775 54.37112908508049 -24.6682005602705 -77.0076202342437 -56.06374640061138 14.52953408879107 -17.03172960877979 41.72720225969983 -18.174582707234393 53.12643132001383 -32.52796122929839 -36.435689046016215 -23.074684537392134 -72.07165296725132 35.191656810631464 20.491110188165568 78.57230711549079 -28.25028328446257 23.883017308847844 -76.3299368376164 3.827605688105878 -69.14463145484886 1.4693353017871713 25.56790690099 36.430427592982454 6.2337524456561395 13.243701413022798 8.610612696396084 -17.546724218716754 72.60721590924634 -48.39304018742727 -42.8788083125428 22.579153835207574 51.64692273914315 -30.605468134751 31.30804392354699 26.21189477971996 68.56923993739021 -27.681912778373484 24.13081789158233 45.58603357299554 -78.27111057252354 
64.78923168579993 -43.52641513036251 -57.18306428845721 37.55283619824052 18.034012832620647 -39.86346560254555 12.776381603186088 52.382034219831304 -61.368214230060886 -7.39473339414882 -24.848118385792564 -29.257087426353376 -33.97123088274654 -33.66918151709524 -34.43371072053835 -38.32862816289616 -5.1247795715759406 -43.83793923110674 -54.28031737126556 48.338127004114064 -2.066956954773186 -10.988287824173838 -25.27929728669496 8.174416610692651 -63.123711572039014 37.36275613760478 25.050169682138808 -52.07043739809528 42.94658143373849 7.295904535558822 -36.364808859373476 68.90829322700687 9.54190388681251 22.19707226248315 39.99539384428236 -34.810070371783645 -24.70929010933387 -31.571694396266697 -57.90993088022171 -11.368397489208826 30.99196142905504 -127.01873081755764 
4.916298706477971 -12.294968195175716 -11.297745649696182 31.981598690217922 -31.59841777392658 5.931391132727031 21.28013771132175 -58.23094812172591 3.6121749054480414 14.245410419971138 -17.970037600174738 23.903502076154005 -26.63123329815623 -15.346913475517225 -17.82610515194728 20.059304750177013 -4.0269225486324025 -13.006095355504193 -49.63359128972146 -8.82318926722268 -29.10720626767396 58.17812135353229 7.667346034442603 -38.026405268514694 -69.03064576102781 -62.1255224226435 -41.52979608421807 -30.997714157586817 -20.86869578028929 5.659941718175085 -77.17858299037222 18.130635433684233 45.732379764655775 -33.61449423021189 -77.50220017440847 14.989189747861952 -2.0586957885818777 -50.98651639872608 -26.645024118930916 -1.337526545272956 6.405879283635593 -56.46044995898943 
5.976332299081188 -2.008934571912919 -28.739908154381716 32.0986916271385 -5.213911843175815 -2.8467740942307187 -27.935722794989395 12.5593883807783 -25.98947595871838 -21.06413061811921 -93.92461706536608 37.547221600017956 9.746493075970756 21.781147547116337 39.5666766737233 -2.235545004419152 53.10094890579133 -3.004639695451396 -18.25348568205574 -10.099649681821255 27.87108376748601 5.021159661265885 55.97121480169868 -31.028582607799372 40.38975000702859 -0.1391950236594777 -43.61977657199284 49.92301343259779 61.1710824646017 33.822281557037 -5.151930433984576 -80.83215441088224 15.635700743753718 -15.762914171734218 -58.05643114245601 15.619252774122927 51.42798497584312 10.236778489855034 14.273857081770785 -22.905102869217657 71.46240538180766 -3.2117393295678185 
-65.74274064629239 -16.569530634438077 -36.067316664763126 -7.865757615390655 -22.14783586002215 -55.68850262778398 -58.71370118980327 -69.4194238760316 -58.119003011630696 -103.0043149193573 -18.686164331648296 40.41194281008897 42.316003572523464 30.76817035398223 31.158335518812507 4.629618581328215 -14.799118685966105 33.51875501642592 -66.0966482766542 14.978760913479816 6.315897153363407 -17.146310563812378 11.892887888643783 4.392308404844071 -39.40145527337651 7.707598533322303 -60.51982281319152 -13.676508899373951 27.684551677506803 -17.505486746272922 -43.288605955528595 -34.72291367818646 -25.31227123510547 1.0041790339341967 18.53532826487108 -15.794094355451369 12.658385955299504 21.923428082929746 75.8550272443367 81.35492263879996 26.263793567783424 -24.100485843609324 
43.94088822257833 93.40646885079852 -9.093282067316006 6.154913886804995 1.9741604185123198 -6.7007623300299475 21.625381391599774 -11.472857542535364 39.67603793904426 14.206251866300557 10.326147674770832 -13.482746961396556 -55.76770269776301 -29.022096407603936 30.715847046755727 13.995313510477608 8.65280288694922 27.790954842217918 51.826401503510155 -63.68433576656692 -6.912191926258092 -58.40781172330675 -12.72346380683656 26.15278044070421 11.715543647413108 46.12171842850907 -12.095732718023488 48.31219934589355 -7.862151277530957 -57.05518629581866 -94.79798470520319 1.8372199914199665 59.046915325997226 34.02387020487776 64.96864950133735 -39.89980664739875 13.135598869796418 -63.11972638023299 -27.936443853854993 -34.602287633546005 -42.0528223530517 -9.438961908090223 
-36.73352193784704 -4.331702836937444 0.30019398178589735 74.05894277170437 -28.53411808669845 2.657357341363596 -37.203601424425656 54.43833194628326 35.4715372936442 -19.943969963607188 36.609090817880244 -10.909946575424637 -55.99445390671553 -63.82936088488175 -0.6359586164828701 -47.37035775991008 29.018767588722387 1.7557322295877562 64.94480399398812 -31.12624460560322 117.67074286172401 -19.672189335490415 5.328925861468132 47.71837304297689 107.57781644363759 45.01564760602408 71.08721739776182 -58.94339816171471 -115.49798560613911 50.87750061476414 36.64243678350323 43.12219014089403 42.01360183603159 18.66830172918866 11.233075214092121 13.921150807762633 -11.471195960983993 18.57077744191289 -30.113393717280612 82.64966711116948 -2.7585198578235683 7.283117770316041 
6.893631065729774 -66.0755107877094 -10.716411094041211 77.71566267331056 33.38595822017436 75.68138483286297 -44.31277533649926 5.572373206914361 19.749153957392654 -19.04233666412307 -85.77380545714558 38.67259567598422 -11.644858350891658 -72.23354913311532 -9.623383857426639 27.85755004417997 11.642032737742035 -1.45146366746766 -56.64394028284144 -42.89094309182864 -11.317409775427443 49.73144746866419 34.452794246435545 32.958514299570275 -32.870907294509806 0.11837010936738908 45.73308043797675 28.63150661633265 65.9618426357683 11.339512627833317 -3.7585164412853818 28.01717641047106 118.17362007541028 37.84845366470892 75.28993618910252 16.290550606982894 31.22231575062308 -21.53786128599898 9.371698630716129 -28.614013594855408 -44.24360590144717 -65.26669770587091 
-59.626146313516394 -29.327572597821355 -0.41229695971128705 -38.775040537023095 12.786141564591064 -111.31459324003671 -50.09162992651398 7.759357887382858 -58.297602253387716 -32.8816796961517 -35.62385954508712 -10.171137006568244 0.3026369119065975 58.838090554214865 -8.46644979173946 5.649399619237569 -40.81491783039945 -45.33881251082362 -2.8611197988922905 52.1160452141004 -6.727355389768606 -75.51093195988132 116.2385593468354 49.80850206738563 71.56865147170656 -56.73336081883565 -39.32718836610949 -56.76256169157128 9.627096896694178 -73.89240698442198 -9.833341739580613 -51.578092697589135 45.67650269596814 -74.51435419279002 48.17620796771342 -9.77680554567739 -5.2933715114177895 -44.08499653042129 -24.75558307745451 -129.7641970369783 -98.6555240198716 43.46172724107445 
-0.598369188596513 -25.715449087167347 -32.5499914274478 -44.35009867444955 -123.11857616970211 -50.06083941667603 31.497229638855256 20.456586335989655 79.643488320738 -14.117219725359316 41.33274656418336 -3.895990216508788 -23.952611301984085 -62.35056539607022 51.2412941997843 45.738495085086335 27.797758389719576 -3.77754385715432 9.05447713069822 24.78051637107677 -18.664219797488958 -6.221312434059746 -101.79784591232844 2.4812018683101487 54.04004515007529 -34.46937550430326 -25.326826421266077 -17.40470004160235 56.39255600437712 -153.67326181158532 49.15857406043692 -11.121696625065908 34.79831566122468 -13.473298057497393 -4.165647693755729 27.958746104182236 68.13228152472267 -8.83503057984181 20.505961769407698 -8.249670387088308 -61.98463051144644 18.63646223104307 
-64.79208510335069 72.6704328119936 10.359460002213664 69.78423688070363 81.7132962725316 48.86213825807499 72.05136655049272 10.303521031560473 52.2571225558645 36.095511755961276 -52.12921928915194 -19.02423103676883 -5.09952676370167 28.170338941333156 13.289119860918975 21.214810920346284 -61.3845333713155 42.68054297020513 83.99563832182233 -103.5381369174071 -32.11258572841528 72.90046911002035 -56.47168508957589 14.87585167300743 1.2522951117722487 -49.75078905764644 61.51085584646278 -20.349364541567038 13.329150966774918 17.5373125929661 -10.72927717726613 -60.70478400821406 20.93362665496169 -77.3565832717581 17.832292680299506 -6.755124766619139 -42.46152729698363 -6.910452996672147 2.350421443656971 -33.07151901981335 -0.15567816749601063 13.49083650302674 
38.41934118217071 7.656319150205315 -1.2870572389124368 -17.174425427673263 5.291256167655064 -37.382495099553736 28.622776941211654 10.16016666786434 47.42202477254284 -70.92928113133603 59.72679411847473 -61.58564811668366 -10.648428647660435 -78.23416791417918 40.99714866090502 -31.73701693686451 48.405475725700995 -49.27031411476154 -16.069858356021573 33.8570590071643 -42.631813249374716 -9.991466718622927 88.37931800803662 66.90661626779428 -39.29805125002282 -24.048599582420806 -79.92560052530212 -21.70640641194321 -36.854943382292106 -52.46647679461895 12.641935266139889 -90.58840391877659 15.079008922943851 28.835312454231293 16.739556535296416 75.35599798254988 32.8076487850232 71.36964170219872 2.467780565921351 -6.452955931688988 37.71892841975619 -15.587544615728733 
66.06243514885392 -4.857159908306544 9.000248450981472 -48.3148787391862 -31.340255282387304 12.078257427934508 7.7118670784688215 -64.31219527361996 -76.7629676894677 18.653763509810123 60.50609809980076 13.336578031477682 4.892458550575338 -25.197190149155233 -36.2041314482354 -76.36350213860271 -9.975360931702054 -6.022896350041186 62.84061717988983 70.84227740077566 6.529756209469286 124.49721070076757 3.7940763625430414 -54.87057410790413 -4.811351114209003 -13.28017411049858 -108.36300495864404 -56.651227992110606 8.90005236383885 10.434625879568076 16.84096590437322 11.418744882675758 0.2691267437998202 7.200404889125366 -25.588364539446587 13.82748172625799 -87.1464827629962 84.48380487707583 36.45968926419426 -37.65755575346665 4.540273795275097 -71.32481518344667 
26.924315246124326 30.788416124213416 14.637988970922299 -10.339526308669248 3.9638462940776438 46.61411606492205 88.48518576620576 17.603029208635846 27.912212124380137 14.05252162400934 95.45537475341185 35.38959713332814 38.2450386850535 0.5698095158525971 19.371160726930317 14.719194566131248 78.74639029736669 -18.8157497351546 -21.580845522500418 36.033995647358246 -74.49029432619325 27.90515041202555 -50.210811345700904 -59.57649691490146 32.22880295254153 79.7634669014096 -71.66680691266161 36.15516154061536 22.141938710339325 62.7232755594601 53.35864708813714 -17.14154833669741 36.185178627717534 -28.71290142820191 3.9749744829680886 -49.676161296671616 -28.05021035957661 25.24450718378117 -51.20206368537594 -35.82532260184332 -83.48809821449493 -45.91861693603571 
-93.26421247942945 -6.233531759552558 -65.84605605091572 -37.35556801591364 38.692642459436 -10.574229009200561 -19.66504644871768 -9.398467100881744 5.418255775451154 8.094188714688489 -19.81929679819271 29.97212662209743 -56.22254187120484 35.317850561940105 42.803870331502864 34.53593823243495 -25.43048499571362 -75.40826891408138 -16.495595411725645 23.943116260008797 2.918490514999281 -18.433790570151363 -91.12160924759841 11.227754234052254 64.41277016437594 42.40953483421135 8.384600568609311 -28.939834324424066 28.771396962602257 -21.037653922525735 -5.163612846307403 -15.788505292947631 20.42533015557163 -96.26506480052713 -35.06067410353673 -9.686291770732687 -17.714299176578574 -43.09529996305565 26.39302671276219 11.378386038238967 -61.68466221552641 12.492501284016278 
-102.59121840362852 53.49814489073836 -19.829838408372144 -8.489252777163246 14.840321174935237 -1.1940935575004303 -77.42876060455664 82.92133853689168 -13.401847205048604 -66.59034619954457 33.936553060810475 -10.109606707203746 12.040211228498073 -39.6854138931531 76.56150440791043 -53.27374221239518 -91.05863666997223 15.369828804375821 20.250340941304007 -38.03381600046299 25.10509394392569 -18.54126494458408 23.860848745680556 -49.80630828696294 5.844879156309062 -20.28105659327804 -17.22335748170256 -67.42433438825178 -35.57728658618181 -8.40195037640543 -42.984855714134824 -83.47357783037465 -21.197730497607008 70.79227158353744 -102.55189816738651 -50.94146935819321 11.264211323173615 -24.65289227423985 20.136177464558696 -66.3788048067153 97.3179895602226 30.925143088907205 
-68.47359024429612 -5.561363512863431 -19.603179412716713 -2.552111071642037 -101.1237686091813 27.336757425354733 39.56826628113997 23.929695537631172 51.514809353419714 100.36902894174885 107.52600284561346 -15.92353509526299 17.989467246145118 24.016891849120263 74.55118016417343 -40.84690969428473 -20.821280349615705 65.18440247296239 -36.611503933879874 38.26003418608549 -67.14676157129652 -0.9522346129546447 -54.803249908173626 -5.382416738817306 -6.175297077908354 -45.01690708082983 -6.924454782408103 19.80099152374464 -16.146981376909327 50.82419985690957 7.3735246332002085 7.667063191505551 59.42316546800106 -95.14352599264882 17.991223028063697 32.718076895742065 66.67134055760532 0.29624794730371273 -26.989223409665293 -12.168649963920402 -64.74247063099197 -65.8654859770228 
43.728703291337744 -22.338348199273952 -81.59503985989359 -50.03381343880419 -87.1855858736672 -43.30604130468146 33.09498660794825 -3.2893091239883967 64.22551450834032 39.159341440292025 38.66582472356525 10.840483408293702 -15.12293805694759 40.7347590905209 26.480183637678753 -3.908570476895371 -20.777112519285303 23.92951656076253 -22.996709141275293 44.276444126157095 22.468860324515063 -45.90698661333558 9.615645925870464 -7.5414852252391364 84.42781588431559 25.602413609147924 -48.065948460527395 15.249807010538241 -68.75460769611227 70.42222112302666 5.272262190516384 36.93252654172447 -35.016041869577776 34.8912404022713 -45.369486920781995 50.5310265472786 -36.733644910709735 -30.48773843722144 -69.54639083070772 -40.8648076738718 -45.84005737928206 16.521943615924954 
24.912286892430867 -7.532885515129566 -10.071746634533882 5.489734672667538 64.820560914036 82.53683460041006 14.303399545107316 -38.288157217995725 -64.371142256373 -32.054378404065005 28.5300547023023 -26.488684556865 52.18425140198312 -8.006691484684875 -11.199684810520864 58.18339842288135 4.688175897318273 -7.566462425581612 13.98491505517403 -38.31089573991958 33.2792524616416 13.688188596305256 44.75214016520061 40.99285183905888 -44.20923810161615 19.465926201683963 17.566242108379303 61.03388402309561 -43.28310821114228 -38.47555339337519 39.501809327768854 -56.99676081763408 10.229428364541674 9.54539647773152 -34.351384754056035 69.24435206231476 -3.13856544266012 77.18989317039744 -40.790446181536495 38.5597250552617 61.83838573736744 -56.250102341847104 
-68.92821156998097 -113.008863463084 77.53327303848576 -19.3300782276215 -26.667033525534283 -20.240019066182967 10.425974260875597 5.762102192120434 -58.72366432787377 -58.99061873782575 48.83483062177692 -4.062211756011474 -59.98556556354828 -7.465902948894973 10.441987513344333 11.874436610616169 -44.59812755248314 -20.732349745072042 -13.125133400246089 30.90613513740778 27.328200444979043 91.79282965441331 11.773694569074069 39.18246190017783 15.754011836143517 55.75827513721725 -7.37098912197927 -37.508165359267934 22.56738636168728 -24.60941864926484 51.56605066173681 -41.34080792178447 -20.909636236016745 -3.7941808677828854 94.47146209865622 -64.61483458907878 30.19619094158872 -31.048939608209952 17.65932221985716 -49.07762590977933 62.05575160618995 31.952772623426906 
4.108891233429 -0.7207650372489803 70.44587827975911 -22.80833554376447 -18.819956738622945 -0.8789792014793343 -63.03188595488857 -22.361212485162127 -86.16581723328387 43.142125542111046 -6.530627771832802 24.95380863186754 -1.3395703019990128 -36.62811895240685 0.9205214572965124 -29.37844999176558 44.29349139395678 -25.048008612618716 3.6640341214094576 49.1001481149673 -59.64555149997972 11.234331622076992 16.309994539652546 105.63689243157808 54.509737833303475 -29.680466101512682 51.86615580748711 18.99096973271902 -56.92396120404063 9.983657622027325 9.576295986091402 43.41248382499929 -3.857413964292128 53.866436029081164 -42.787629040554535 -99.84725374619595 -28.310959494881256 -13.393946087189596 -47.280262445788736 -64.81805574498506 28.298053046320874 -13.44349801365164 
36.67105301616172 22.378936012945505 17.445897963406882 -65.1255952839101 26.38670952912779 8.488656128550288 3.0684131526381306 -13.2059981672277 -27.713195312690683 -6.739562436730699 47.84513345389904 -49.94614688928308 -54.43596142917377 25.935340592210363 -22.871377323970396 33.08137655143741 11.942952660023675 10.70850981702688 -7.198856192010457 53.83953831407919 -1.1175021000163161 -34.7200032342649 -60.656858264780446 -104.40621042621346 -28.871615434721637 -83.92472194341968 -16.923621956861062 -30.66396067093453 62.390924696639466 -5.840776222495857 0.23080389560839723 -26.46333999538393 3.3964166584852244 19.731954102431374 11.455215285039536 -14.879148128249494 -21.72559558370733 9.587457584934274 37.907855039967764 35.707523169671546 28.47333282152296 -8.528844612759265 
