67.20117198004353 51.95226171457814 -10.330460383846072 -8.218654085462251 -61.56272316383773 -7.403931454159908 -58.074688028999475 73.74941467501345 5.342372965902132 47.72723727802644 -17.985410900942405 10.922436094759128 -54.0883009255554 -4.270420117689235 14.352995366177309 31.215771784853185 -51.940754319725194 -63.970221730285665 -47.105747749852576 -8.190903292470209 -48.0754296880615 2.379170395504353 -63.98650901773193 -17.854674851612103 74.06899295914418 -24.232957714643295 -7.554716734652339 16.23941161488464 14.596007189639227 26.561499396169886 28.672407612707477 -34.03188162317835 4.929190413027336 23.972073343982863 57.541088657142225 -13.821721446630274 -9.871851851424834 9.39274935824421 21.696928304638735 -25.658885627924334 -0.3874388225201032 19.994001787649456 
10.06465671504558 -22.24987874116884 16.27611126934577 -33.058526431353926 -61.31330686357825 13.592367938050925 27.74675126929792 -51.05675913728395 -41.52261173991705 -36.59087014021986 -55.64426013235639 29.45042099612376 -7.011384049170162 -11.674605634398187 9.1801559144063 -46.53636803541789 -11.133261306828835 -77.5024215824773 -38.86308624615631 102.71349821367689 12.42129237170612 -63.11007378236877 20.394921536990793 16.032430064199307 40.53350214830265 -8.315535381730834 61.01237339611276 -50.33211185839965 41.20999939259814 -63.39931735207956 -108.03639321119022 102.58279139998655 -12.560951923690816 -68.66105201440811 19.145082103125528 67.71394735886794 26.128342572953414 -14.743478420546158 56.4769076625267 53.938692712327885 16.104547812664705 52.17130389892405 
0.6103649657425579 -24.321574624783935 -101.88558562057732 15.828369233133555 -53.198216714905776 34.92648169353218 -107.32738456612638 40.54689741837786 -21.649363667877704 -0.7543204246964005 11.754391609034148 -17.36727764938442 46.912604850392796 42.36964165708364 25.393865826439324 -46.87313692283212 30.585953397717415 -20.16925891246216 17.81217593368428 91.92432289384696 77.45357409166716 -23.752600461907036 -5.199498615239025 -50.85986148199114 76.401347258383 -46.86509601827476 -10.877790810303262 -23.679250857067295 -11.7788172988791 112.56228617824011 -8.114084885218988 9.923912467972698 65.22757110800532 64.73743681127084 69.2666896917443 4.262620876542635 31.859492874483454 -75.49269372925733 48.118884502038625 35.25380353022472 71.66034660454741 66.79569155548319 
29.359262764413835 -48.525684507906035 -128.42479472271773 -30.68920372292746 103.34973881909404 -27.72408149759713 -104.98712827497704 74.01785630186333 -18.914282987088814 9.196866223062768 20.26352087748311 0.5747557530196101 68.68776126956458 11.68852849950575 -28.71269908396102 -14.28128755742599 40.53458153860924 54.11241524034784 -5.513591775879744 -73.01956163726095 -31.435156555585372 -14.082905003865754 -36.4060060063683 -6.226965951876349 -12.07581264563991 -1.608400412797168 -9.949659987448618 -54.85471758579324 24.219196738883014 33.107285908707176 93.0940598305989 17.501970698824387 -138.92351441494557 -10.866000981511712 57.53175414690805 65.45118848625907 39.38790451479999 -10.208074644184615 -61.38957826642486 -0.697334994063502 -45.28369839912396 -99.22005258302052 
14.44233893057171 48.443106032511245 65.19695480892294 -68.50434471299894 -17.38183760086327 -25.798257666694553 -25.415647738008975 43.79080065559654 32.458100441678404 52.28656094747828 -43.53907263938497 84.07161070018125 -63.826116434356024 4.308376065021808 -17.69315616290703 -98.38757921039078 7.264512073740431 -55.76786943558375 77.04256146460597 10.504992937138605 -51.94609927237144 17.308523443825635 25.520594294067585 -27.463156613556695 -74.65086520649828 81.42775129092291 -11.28899838966221 38.18398609590668 -5.574071384398332 -17.09661873333148 9.143301900195672 -58.24647045737013 -55.297883464313514 4.4872315300116075 -84.29316897493122 36.99878428245558 113.61824639942168 -55.45588183504723 -13.844404729057224 45.534309798494675 -20.45137073025313 -31.33328127483598 
5.074583353695436 -38.55680679255706 -0.008270675377418744 -13.917439198156101 -5.2617085834056105 16.961301418083412 30.529947914813512 101.60501301699553 -92.47786806846007 -16.10104292400524 -31.265911744078476 -43.26926832819499 25.80893630843371 -56.03831111154666 36.63863513562483 35.57390221514643 -102.03483587736662 -54.882874669225856 -18.279953629974333 24.375933089208093 -19.764577495306924 32.779144535172385 -29.79112528830373 -65.94866712765982 -13.161553412281712 28.4321223285401 -85.45452373950326 -20.269287014722522 28.884197060037675 20.14951648160319 76.40465046403156 -47.288510179035036 -72.80018525889315 -45.570648101261014 37.36046640532179 22.035838312063856 12.140998150735221 20.255384376403224 36.153629784945586 31.693037841962372 -5.623487356832717 9.147575241839554 
-66.32099400105396 -120.19966157689578 30.505900361625763 -32.50190770459652 65.09182194281172 -8.202383184949245 -34.91834520796919 -36.69331879157643 -70.55839817022154 -37.21900106322747 -52.69952878462942 -6.114199262259181 -6.717868824352608 59.01029267333201 -41.957855567062346 -27.27514244516307 -83.2244335281999 51.74509508223514 8.770034084611925 28.980630625460524 24.256888373534668 -49.29144558359292 -12.372577426485638 -27.774640082147545 18.066056256071104 -70.25886133006054 3.7546124587905414 28.528276231637555 36.462690049915835 29.21367323227201 -0.10761668114009196 -52.493440354882395 -27.702341387608563 49.196069721116295 24.56286653381763 -104.74520529087172 87.37131001767018 42.21938048919586 8.366927463025695 -20.933309433656614 104.47163872787526 24.47735585462042 
-26.63370072804138 28.024250739645137 46.87948123644765 -19.072790318279154 -52.24558496529302 -17.44046437227219 48.824797200397924 0.5244601325727665 -51.14409939475024 43.51703221526338 109.04309525931288 -2.929436352592574 4.691212851995888 7.115467521978675 -61.96318228047509 -7.069964779597484 -24.974819613098294 -1.1323842575980243 1.687569934253053 -34.5279853425888 -82.48128099600078 -112.68532214353495 26.029536003885383 -70.094556983931 40.811603487037424 -4.607304448482701 -39.302046708589565 32.20028958846038 -77.07048351255544 -9.962244082283465 32.72835240057867 -99.77100918248986 21.389459398648157 1.9583502007561968 102.06453168477726 -38.547839141031204 -19.770018968122304 30.00998575118967 -49.83852323692825 -65.54902140151157 40.48508993354942 -28.241651216257985 
-37.97637955237635 -41.428126443845194 -2.6923219820571727 51.37349588555894 -19.22781111237764 -45.295383897931785 -41.88793796029821 -28.355649875183694 32.78753647323285 -20.770815037557036 137.56230818086618 -21.75912073613265 -79.79615073903072 -52.06501984953434 -31.079097201992603 7.244497268053325 -34.97871289041802 -25.019918955769214 122.21452573512906 -52.4813266620889 78.9540713217518 -18.709258111864667 24.312356165446868 55.57871488465705 -21.794315940669435 4.04643898994876 -33.044028998443 -17.727876786188034 14.885201650047982 72.15478174940006 -28.462649522144293 35.61483365101238 33.220089894075336 36.91428561673676 74.45009094268332 10.965076496698172 9.015860840841997 71.64106889534791 -38.011317140484095 -11.405398284569156 7.367431196810663 18.56358907773493 
-53.258714304696944 10.30877075342553 2.425608469953541 96.05921665367715 -53.17926557947412 17.841463757667984 37.26549172466533 -10.79715748994554 27.1165956993789 24.856232241923163 -88.28390318531238 1.7145563286238763 40.59460726928963 108.41793980970336 4.213853429460653 6.425842032546457 60.518596100349896 -26.083684363326558 71.89667123849851 26.86867700906153 27.01179471549258 -38.62834898168671 -83.26746097066237 -44.054457088537724 31.02550908042711 42.1398039326195 -21.559657898926464 -16.1840375710206 -53.773888699634995 24.622474069406312 -68.76322618218461 35.493024748328224 -6.186269991408448 28.13979909128124 -40.59528266819874 51.545863567801916 5.218250218803127 -26.596074774356254 -39.45064418920221 -26.006538694320685 -11.359919158940317 -0.21981298065391597 
6.549477811754063 43.79298364788679 -16.448946909830774 -117.7956851926533 41.85255212603534 -80.83376826177462 -25.302639741368353 -59.454310225595414 -32.70097421048518 -50.023811675813086 -15.187364817839752 -13.86780345116442 2.278259435196031 -24.363328360565628 6.722890278921567 120.44561494635268 -56.35578337256341 -32.20814106447307 -17.34088766028097 -57.69024250009707 -42.24001018717474 29.928738378482688 5.919459285869575 30.0118453429134 1.3360596037145878 38.22288187151923 -40.53601443899078 71.97941608839487 39.23933076148798 42.85374298090921 -17.80699625981975 45.705176011669955 30.886159079419755 -61.013729256762616 26.304957650162248 -26.43660216972465 18.75931723052967 63.014962547564004 48.27026436242959 22.493595794423022 -90.16828966100073 48.859237464194386 
-30.722113703307656 -23.293868190478214 -49.458348801871246 6.646713541227773 22.779051896502114 64.46805669641482 61.185533935273234 -9.346567534189195 -1.8182789400894532 -18.46597682447989 24.694140134694045 45.36442363763585 -16.383174823288176 -22.053614975608873 -0.5647737467980585 -17.601826587557117 17.450677002965335 -35.824586011542365 17.172443124604168 -118.81239592464615 88.64969493139088 72.11370008660386 144.6741162866766 -20.94439122850155 85.06538818003612 -55.840260761173155 111.74842624207683 -40.76724951910627 74.54660576995735 15.87966581212598 -14.834899186665034 -12.690679850568337 52.070595368057205 -29.154429674615216 -87.02434831728915 -20.63633946156576 -79.08582945811777 -39.110581592757676 -57.15693618148076 28.897051266643075 19.728933819231624 -32.470108909431524 
1.6805347382431681 58.49359238114852 33.0188719394359 -30.63055276949772 6.450504458714747 -13.455115496424284 102.79511772679187 14.096520542668708 -27.198293150195592 20.394210183544804 -5.57771339090164 8.160105645864236 5.355740668196431 -48.68515239418356 -6.6823298162221425 15.361628269501512 48.72108380001217 -34.824978675697466 -24.944952190544903 -25.511078510184447 -7.692248949530268 21.364083515971327 15.49936153172476 -35.23804513164933 67.53922987593238 44.81323463258375 86.91732515665318 -44.905529327504524 -75.95274946207098 -6.073780248008705 -73.17650330540705 5.423740101331615 9.384905817319368 -18.04214475013833 -42.34152888984017 25.62604090968572 73.08697223224814 -11.884392674012615 2.402699893141989 33.15470409835589 7.7800693987377185 16.78769621944089 
21.078446693144485 -35.88040899659504 -16.463608326896097 -40.39970432749238 36.83375250840305 21.75855514295002 11.92298987564188 -7.99852936999509 71.81935746644243 40.788948127470604 0.10684612776116474 80.6854971147129 20.159156435854083 23.16670317623113 19.141904473038444 35.82357627288825 -78.32709148317694 -60.38443870755152 -7.864743145925724 -48.64536171598161 -14.957085187114538 29.173334687555066 66.18378698286816 -7.021170873333366 65.30185892201037 -96.83232194111022 -38.038253620443484 42.52322268955849 -40.348214454234856 13.181137236928837 -44.00723107972348 -9.341009340410135 40.54541717688212 82.99877268230016 -9.316429932812774 -67.49014056530437 39.0648318089301 37.619926439321794 35.16666358695173 -48.51137740722144 18.789724201781986 -39.45160794378073 
88.05159818525534 -9.349673445257976 -16.398350293810626 12.623122119591637 -18.94758343275006 10.078267801973395 20.85564281210714 -14.438480782655192 -115.8134849826382 -122.3852353754621 -74.07666639773187 -9.20758761227973 91.67153449707925 17.73164114140156 28.101418945182314 8.636281268743403 1.5593551318407108 70.33099810042954 -24.62312446581208 -70.7362806446401 -0.1508461957179013 6.013920788349335 51.205227039388035 -9.643561050462504 54.82605293175249 83.32425904313624 11.218227135791972 10.853697224652164 -21.04117775350666 108.66868836482469 -46.75120947720285 -60.57760443966866 -50.038008839585 -38.749534579234755 54.61965867661643 -20.132601934546674 4.779878043398113 -23.815979170970955 24.939790831700748 77.41398474235717 5.836394861840926 -8.750909572562273 
4.0238883293304 0.2255081097525292 0.8647370902976536 21.850529524303013 -10.495867503691382 -3.74306845082098 -79.41976623082854 43.99422855642777 -77.08861915328016 -64.48823209288075 -65.0196313364958 39.326784146882 -92.12216694245453 19.20461176321714 23.610083646978534 -38.77600361953132 47.485400904842585 40.04388896588659 62.18706737548531 11.975416596643816 -119.2655782124306 21.651129465060446 22.470303073871598 42.42024945780036 5.903812449170051 6.421670240123027 -52.662899020777566 28.228142281165198 -18.320580728235612 -94.49395243835758 -8.637213421725699 36.60243793692978 -5.2662324424547196 104.41376461674753 59.61989774219664 -15.759677892805538 -20.059384406908922 24.13259639052639 34.69770225164688 83.76505080528199 3.535205037096963 59.8594644858742 
73.61750525907837 100.10028450126784 -33.572292756453336 -58.6088145196406 -57.204797527093305 26.23555241257029 -53.838224102647224 -38.92328586962161 24.080834477331553 -10.63804341178373 88.72626076309943 21.57265126628603 2.72499308576477 -33.21443402055647 105.88080236780452 -30.253715924509827 -47.13652248366438 65.14992565793705 -10.25759649777251 -19.657206363367607 -38.854090520382584 -97.96412444480673 -4.420236703345799 42.15504978998495 116.89126064435767 30.09092225100778 -122.61762175364875 -30.94471763253174 55.138400163333394 -10.403429157160053 -17.167911810673132 -73.60057898491519 14.661046987370792 51.32090916011083 32.8442880408975 8.212619592183575 19.119177833147226 0.7617160457695197 2.3204982645112033 101.71366303285677 -61.94184956649088 12.357551753115864 
-55.4025926582992 -78.6787346162049 50.15818075460939 16.536574248804676 7.0758483175222135 22.14509157801566 44.29370124496589 -51.430036807737366 43.81852609161038 -44.82780492180755 -20.67804520331813 -25.482661720627267 0.16808207089090085 -30.560726843294827 -9.32831571877591 16.67371747527891 -62.928295464549045 -23.400115229012545 34.125125837440095 28.26545184670046 0.46939228633280683 33.66209251454595 131.11479089671138 89.80147724715688 -38.94059229361028 -14.689462896780915 -12.57639406784667 -29.435002140286247 45.82564431298345 -9.667761948576567 47.4029481340626 22.279227793697405 64.63335400183023 -14.667815106404056 -48.47111235206045 -142.24838324764093 22.55418775872592 20.131290321080655 0.9097960719831272 -53.06472887907047 -16.052860910883883 -64.15492464351273 
-62.46247046718446 77.66081754172484 -65.14101074742716 -4.2650964355290535 -37.50202732768675 -87.1281774110063 -36.289233765314904 -24.4236812173661 -6.6979573031653326 0.6871529307263664 -55.396703384191596 -99.29977382841733 5.7136999281965055 61.57688756578342 96.22566320639402 -4.428204243136477 -76.92708166051901 43.72179308763908 -43.46945531457763 69.19280309664816 -9.16265311782181 -83.63072369513905 8.377502768352311 78.35941379779652 -25.788986898982603 -46.061215588495465 6.856366863584903 -29.107213451316625 60.43347871090248 58.87314991304306 -35.20073375349816 -5.616755338305847 -53.393606385066924 -18.79707949706409 12.843337086904171 16.1104156717017 -0.9711334067572859 69.9056171835442 76.60421979103042 -0.8126724538757891 36.11039253517264 44.223387850085906 
37.687604153135624 -68.42578709010365 60.658848154651615 62.408587050448794 10.924258395959162 -54.66484236333645 8.069587667692156 24.01569583929411 0.8095910343071796 28.112975384697858 -8.852848784095626 -3.7884036334515394 66.92905310501578 -13.294361486791574 -21.498702166535676 -22.675282276947502 -23.041488754679957 34.713638614737626 -34.53388602408184 -25.769559278040408 -15.92434415098551 -55.58021363964817 9.273471076889223 0.19211676425173624 -17.318718812754813 -34.6880048628702 10.48488892470708 -51.2662885662571 33.813746514838726 14.203582087167819 -76.68097245178927 -39.14258190156292 -4.417518450866812 -64.62047505687059 73.12942722206051 -1.2424585767117242 24.588331573924062 -10.500251370496787 77.03410250961622 -32.473736414620525 30.179490269823095 -72.20827182406045 
-7.940673576285238 -62.06262051313025 -15.257068254382451 -49.83921148940409 7.367883529188281 -2.6167737452400486 -97.87439270404317 -8.000899838333826 20.492941748163393 -36.29343114086103 -15.714334024408208 -37.89105753372296 69.37989677728847 -33.70764622883585 -20.94174083368495 -22.57083714909613 28.209200986157175 1.3632423076849514 42.182946710557076 -49.85132816569789 19.445623532693237 72.03631397322035 115.08323836365807 -28.582038058834588 15.732899751280382 6.76413903026908 -66.89903282095618 7.9601978567096685 17.188340842955032 -1.8832762022448633 -24.743450552238944 -6.3590911014874765 -20.47897877873908 39.27496047867144 56.729012005256095 -39.458159665976915 -9.506127359183537 79.05979704305764 33.86886381188277 13.354097379641495 0.7371735053909552 1.4439893737863425 
-33.39378226693886 -42.47815930247955 -16.578449247485082 86.6512788398161 -26.079827032276185 55.39582315899184 64.2385174309412 16.342400576115033 3.35338138407529 35.36005685940785 24.055820927779912 -31.104474048887994 -24.13083516603855 111.80389928496619 -2.682703916582914 -29.223530513223395 -33.514485106929996 49.73719725892244 -14.63914517048939 68.97836219702593 77.6246184341293 1.6358618806748937 42.82800522109419 -45.05997646647821 8.995677441196674 -27.262138581691342 -36.72179953915338 -48.13782867606659 20.422593639310502 -91.39787800485692 -84.58820470014575 -44.23881363307852 20.43726635764791 -17.438793218354075 -44.894541226256635 -62.23516798613556 12.061737652269441 -11.197669104928144 -98.25611678191271 -39.25111917734403 22.1663112689158 -69.16361321458106 
16.685812456942614 -50.06794939813604 100.65017669452222 -10.60665218898815 19.91474071253755 -34.50998626472079 -37.51218301335027 23.316633441933924 -41.26651945789267 86.68568844914938 -20.527472748028472 19.527896775401164 78.72883940419108 5.836486449242675 8.211161885556034 -47.66186699896347 14.540933482027711 21.27223192421279 -7.663650629739347 -23.854138956075904 9.576495534190972 26.035437848915556 -19.266468552809865 -4.8717528521542794 -13.432175479214907 12.722958659593594 -25.473039446430487 -35.05355822722337 -97.06591847626744 -57.797791225634924 9.724091898075772 -26.12527671027757 7.594947663707299 5.9414172055825345 -44.46477049203363 -101.8377412404431 -49.0835604998246 41.6619793758443 44.59058139217063 26.094629953853165 91.61413641129025 -44.2389011272397 
-9.283034997091425 -1.7943672556449868 -99.07430404475247 -32.56295874496749 32.10910789483669 -59.03492726908725 -29.262959349412363 -36.153225007736225 0.8225630486848775 -7.557145874226603 -1.2212284591072313 -6.462575097211583 -1.8224706780118065 38.94799060987259 -66.85016605900562 -51.77864640484993 113.77818085066377 -7.992376446320895 67.3954988842609 22.089517937075048 10.824437178687198 28.874181806710695 -39.01127287305884 26.386117528917993 -21.307098903168374 -13.448054599296137 -49.04201390835258 6.587675583230163 36.30502085320338 -30.196629128587304 32.093607529609805 -23.54842276372246 46.7176258301749 -25.185284211292636 44.46537863582134 6.351552224874573 -30.16952088907243 4.579387741838143 -26.746092717839645 -15.265404837464006 -73.77239817686416 -29.590964624608414 
12.019935040507972 -39.0178137781092 -79.80273220959496 57.998825682263245 5.736904402760862 -53.60187481463396 14.005970029443027 3.6253177340210185 -63.21718219472925 -67.27540996211367 -6.464903385136039 -22.056101537482746 -12.81480696174252 27.536021158289596 -3.9095166951418605 2.527728406777872 2.2544108471710316 -14.655783352238416 -1.5260369587858849 9.520225012783325 -11.223147558531535 39.62273141071254 25.954956369494525 118.59493342558591 0.691035201966568 -53.50392432610799 46.42940548467969 -27.85873647854348 -38.21329264337993 -4.46407035951569 -5.291265652892122 -35.23624344693915 20.603747204623247 -13.079545688583986 105.81354632027345 18.22990003774528 -56.46389083110997 82.19802787525153 -49.75653512463771 -108.9939288494196 -25.427984839878633 18.398066776554664 
-11.497006968962552 77.63783432544963 -0.23043373502982056 78.59420172247206 -7.695669084028255 -50.76209079915019 -80.57842942159895 -11.64915267704714 4.877318229220351 -92.8800427758825 26.417230873753052 21.822683265517597 0.0417745283763071 -41.28487518239539 31.465307310975195 74.26735704475936 21.2465410490779 -3.3744780658791944 14.270960410422008 0.9360289176032819 35.26142291543247 -20.915939920139937 -5.129567486286588 63.3634474555116 -19.994861330784502 -16.31797557752818 6.157590124344678 -38.78374546388173 15.920454836526755 1.1317578238719685 -58.36897668476791 -33.420030949547346 -15.818037554904029 -24.575007517558493 32.771419510969 22.86884165418183 37.993980228577136 -44.1965891203534 87.23685325569491 31.638953923974256 8.045940297235921 -36.14546846249328 
51.35413038233538 36.107713584399164 20.969700939867497 -93.09693633785344 -31.462435456952075 -100.30242275013823 11.693653640716127 -77.3661852442853 -37.42794534567034 -37.46869336415154 -88.3204233340881 60.416858023194514 40.27561080496265 32.59078238816876 32.66933245791334 -9.443067448985314 -32.83502917864554 57.55204575639195 -51.69690126693096 28.109412139665707 23.933676705148972 -33.12722202974788 108.92329781446512 41.31736009546254 26.778599956249035 64.24864327893509 71.63377087331664 -16.044598943535 -23.989842906354294 -16.817575662830205 5.12928457866603 -46.65881241355684 0.48656715591785604 5.660960710264409 -33.70024032434509 -4.488419308724347 26.368515388047925 -5.883243067386606 30.202354295967698 -3.9182811390946877 28.073710095418196 -106.90582381544856 
108.41228727507085 -41.762348302631636 11.898017063572295 42.78259067456289 0.8835343516699599 -53.13302923774942 -59.488867663381534 -1.9328282616321957 18.284211406558583 84.33011709162304 -22.18536067872524 -69.32145993800141 50.22517476473799 -44.21304892487101 79.42177451593595 -41.34820316184235 34.29396917210826 46.19994988921973 -23.816207581294513 64.20043797287707 -10.012985061091547 -27.902105360692634 27.15264712216252 -24.807221997171418 -0.7818179783544851 13.371412554131739 -61.62125387752315 14.023987102938065 -19.88164341346583 -88.61536468283532 -5.073639090374419 31.44830360632705 -62.445407620219335 28.039337707090034 24.77747308744946 50.80606029024639 40.44985142407345 42.53044252079728 -79.74167441476894 -81.85964327772047 25.050885555470003 -4.758430077123632 
-8.226303128028224 8.727190689769651 22.622303516186093 -23.253202718543854 -33.51707684389209 -68.24191091313914 -89.91915177209732 -24.450641020328504 74.74832910175772 12.450635236808171 -63.333961649324976 -31.39416659482514 -122.6970319836984 8.023765763364517 24.049674038860914 31.400664678317234 -7.479394037916115 -38.96707976497601 -18.888117036729522 12.486927725550204 20.852110557156035 85.20287820358142 -45.54016204522653 32.50658992898929 33.68272384214509 15.777748607330045 32.524048186822064 15.893772655909704 12.306521433181716 -58.30209374564789 24.759639950868404 19.683316244107736 -20.44061286429452 0.221007607212621 58.59981777999293 91.17010447308871 12.052206563308141 -76.48317185917156 -23.2644174740595 89.45949142164305 26.90262696209359 8.167574128268235 
36.30953845580199 3.023497507152023 -64.74426525051686 -104.62311115277998 -45.36735282816557 46.42481258892489 -19.818596341088462 -32.35136874283644 -21.642933091895575 27.337297144558537 -47.90144093223431 -54.72852958432201 -21.202254449721075 -79.77013785891057 -22.129984194802038 53.6405616254683 -35.56181949387042 -9.458360833539794 -6.905048371899517 -50.670504076788646 6.925240969846096 59.317271617019806 -9.265374228842129 74.6442693674538 -58.498020941389605 -66.92058751280291 -4.354257647729003 54.27103066387478 59.43553596976835 -33.36313445764282 -14.946801033878497 38.167612408910564 -25.936774069539428 -38.17634240566262 -31.680173307340763 67.37463907530172 -54.07470634605615 -45.462067680119496 0.29839177096353064 -103.44929597397258 68.85302763758929 42.33214110340108 
-19.388831579210816 76.58251750675741 25.34765196886081 15.3712009789811 12.211287242163941 24.769784254223875 2.850886166828278 11.89017053154748 -62.47082896930165 -38.387074947448085 24.893367290523564 -0.4439948605847427 2.8187823334667073 27.775618917433494 101.73087238445724 -69.6285426327508 24.29776942146044 99.79288616089897 53.00619498354184 43.478449303380856 76.36732067949855 61.67598648667187 -35.710100883690835 -2.0219554584689026 41.60128568017405 -47.35746123785246 115.17620811170919 -13.977250348370571 63.9530890821401 22.900872380686756 -27.482483396671157 -33.86714629548821 -15.68481947613274 27.629081986423092 -20.29005900315201 6.414538109354666 16.080840704028304 -39.13128967847295 83.31246457743856 -73.60427667467494 33.06086447569004 21.472428740365107 
32.0879080539231 -98.25928837221726 1.3773020175913497 -44.16383692728882 -29.371239565247155 -8.82960189930826 18.078530786518193 -29.640549107261894 56.388295436722615 -65.34345100471549 -5.716613310611888 20.168219120525215 27.845229933586452 -52.727584748147805 -15.037937043736026 44.539841071701595 -55.207444997570676 -47.766729804157826 41.88852788370052 11.153814878122175 19.79488618129677 -63.93902516433048 -25.039464871333976 32.644426037086824 102.43751423892326 -51.04930983885584 42.41501897630345 29.11594711077644 36.156558153535755 39.5343223817631 24.393487942466518 -0.09059322773943887 -12.194569357972815 -9.195786575698502 -9.1598789286906 35.409065862742565 -10.508438602951504 52.537102320216164 -1.7681090876174324 26.53187289773002 -5.069284116168519 42.86196075183699 
71.21218112915992 85.37939817489651 -99.13329360087677 -7.291018886949198 -2.393732627613463 76.46772396631646 -40.84906438145976 34.22790495602777 -83.32409886106761 33.12620226368582 -87.93822633779853 -62.48398362245945 11.815451584043133 -42.613707981376535 45.29286485580113 49.8075416784582 -21.974165734450047 71.49843636959608 -12.503210290698984 -3.013569916067964 142.0047734872931 -23.669840761480227 -20.721791751146586 -43.44705849981468 -24.56531013031472 -58.512788061642915 -3.3905232428206022 75.00120558095206 43.166427691984524 -36.11929181154168 64.42406591906516 -30.892613532892963 18.060373546340234 11.856195706898685 -9.831429402173297 -94.31145967938838 -5.612993935545897 -30.884731876342666 25.30363782792547 97.00817531960882 17.18793339593548 -12.777121303064076 
-93.26345161010836 -25.4611927942527 73.36696984612347 -17.076156064305408 66.41746142749932 41.16636633841527 39.9988717585324 83.58956181028235 81.67622049264082 -86.60579534285225 -81.92103716460815 35.710990931905734 16.048328100494157 59.307386199506084 -0.8431857421785918 -22.185766319724745 31.929752331368334 29.731505089680542 -14.289394653555275 -41.06530060202209 11.318510231553084 16.592009985411888 -45.3363578123077 3.7151918877068684 83.8662730966903 39.898729520784784 6.23603813448352 50.04917739536014 -11.320355886552415 -33.11320297671855 -1.7273275510134076 -7.7197457051958 92.76133231025955 62.759190807093894 -13.771599633691805 -38.25532985031313 -39.179963348105595 54.62006836781134 -91.52061920954307 -7.38860323518519 10.893426427585334 49.418495716522536 
53.359802799428735 40.07259206924202 39.44406946678137 -4.56595243076026 -9.942467096114756 -43.77165610578831 -76.42049057233332 14.201939620568297 -1.1609198767707676 -61.90500027171786 8.559992140432733 62.561474303642896 -54.13913667197877 -24.05933179897752 -62.11942466843613 -7.92393050466935 -18.166214237252387 16.812833451856008 24.208321107364167 3.515904782636717 1.9836079353110863 24.533373859749094 -52.62200883714089 2.026967104505495 29.033423556835125 3.5164391423940247 -27.49268345532123 1.9474853081160788 -46.954968827062544 -8.961349132592725 48.66341920586338 2.5467574235661794 -38.82208375961086 114.34183240663904 -40.73977480982631 35.605113414583286 20.899715749520123 40.60325793140876 19.766329232460865 61.222456839125556 -13.25726650524487 -71.65445896064077 
18.36004012935404 0.5874215263471936 2.7910734535710846 -76.75607834927588 6.423958800291783 114.95541038360865 6.69295172993372 -55.43667200407657 33.549982008408364 -17.776555000343375 56.904161073206375 47.63595236130642 -84.36085713680127 -121.79556610287187 -71.80752398540477 30.520267757897212 -100.03254756143885 -24.699282705389102 -49.07349561158448 -45.16536989701222 -44.1272993223187 -15.933881589014593 -62.340586861085384 -59.56991706331484 -16.581917741668885 -8.639701596285793 15.244542511119265 2.9070617595800634 -37.69837011575399 -44.39045904150893 130.09698579304575 -54.48692891726625 51.02882747334243 20.888207473188842 -75.50801711713427 13.137939141680933 -52.60856436674823 107.07590348346116 57.78175991237172 -52.648004228743766 6.855528262408746 -15.1762015114213 
15.108276503114903 55.31287906671548 -31.235970714008193 -121.84203782209303 -8.860201624973978 -78.49890346692106 -12.196289621287937 -9.818819275078436 -8.984454139673074 7.641965371318164 -67.13845948772686 -46.12927972043979 -30.533524841294447 -71.16441966414595 -63.878628611610296 45.3576410116978 -73.02241727532555 -18.548867641835567 -21.956861805114897 -11.783036939988737 50.91950821005429 38.2063580979474 -46.97305992739052 54.39951727221888 -10.973642098937422 -15.662642201452345 -43.88691465362403 6.747144164722304 111.3145485863865 4.442287186361871 32.13054334159145 47.612558093374204 -75.96124428409128 17.779925370313368 -43.03353370882145 13.044250017939007 -23.67090252353563 15.65753622580128 -36.56239604849394 120.22068130788365 -30.175823350684595 81.0820563092533 
29.04429575347988 2.916916579334034 33.879747218825756 -24.967553750682683 19.251466492150616 -97.81346109552491 -29.957672524177354 78.59465549056202 25.28073513840593 44.370425665449325 17.79712880940974 9.28834358536619 -28.700099122730485 19.643265636652757 -13.043113817571788 -60.214657747598224 -57.792437082342516 -2.629350621494497 62.93446628507212 -24.065800576830885 4.908389277369278 -56.96942752651113 -3.990579704822813 18.30235352109182 -0.21064713734396417 24.455681355875175 -48.349448535155354 77.79786903130712 48.14932160583064 7.362884792957576 -21.353756761608008 45.31299048784509 41.34844813303486 -26.07923838885363 1.5199180566870634 37.08502838688424 -90.25565503626115 -22.050373458111718 -110.610800629976 21.868125948945547 -22.889496278685222 -15.211373703779373 
37.53324968915306 -47.76986950102374 -21.640756116641715 -10.313144379368266 -54.25384330339843 -59.674075279980734 62.79736005090496 43.35907917198029 28.655687272872843 -17.060277904488938 -28.47924640855447 8.055787777011005 -43.05189815071375 1.5411764752563968 6.413067754434819 -62.73366115766045 30.361581987608314 95.71977650543869 -0.951030393423369 21.694505713732244 33.580013842253976 -20.05225609415814 30.80500391041069 54.79635910623578 4.412537968448339 2.253521504690908 39.127742163152206 -25.308053077695547 -34.47114123534497 -11.78616742304068 -77.7748382796115 15.031564593947817 -15.351187322031775 -30.73690865934021 1.1313074641184129 57.26276076180278 43.905407018165626 -82.51188046253854 -25.074834017453068 20.7716182012087 -39.47160018595471 -18.464286448456665 
-3.4327899619345077 -42.14813742839373 -80.33391793564357 -17.84519697586191 28.710596561203708 -74.8143578440625 -56.88413202971333 -59.46320467837125 29.914298460797905 8.143403739423155 -17.132472839041565 -85.3472553659524 -14.3548392701102 -39.315303788165785 -64.40796696714914 -62.68788504140561 -28.728513282116786 44.18355443911559 138.50004727680175 68.45760282789122 11.83867291682139 13.173361559501561 -44.85607822486395 -75.61931316589119 85.46738254299231 78.09273630389858 -62.9098830776377 -65.49387678956758 16.88901868227245 19.582136365022453 196.29204107403103 -17.588781290846192 87.07350165819616 -32.93141448502429 -82.73923332230893 -82.54391726395124 -13.4901999529383 52.173474980286926 12.139998354690743 -10.653236896711038 54.6557123448175 40.19895831778616 
-13.994093424118882 3.3882773077735915 -6.89736261800626 52.557805027823726 48.04926293518326 9.469788661051652 -10.51809160629375 -61.56827994106371 -74.01754445524924 -61.34440424470266 -37.6616332040638 -68.87134257137515 -16.36661067728106 109.2836518457027 14.62393334855954 89.9226571476385 -15.953472817137976 -111.3657487238887 -9.80380337802301 11.736183410986241 26.320404005675698 -7.413763578970373 -56.96474918100841 -56.05249993397261 78.58386523893215 -49.766904552025586 23.78765174597988 2.7338050749642386 -25.713377495888636 35.64765463804805 -40.98374262259937 -35.677563746219846 -4.273314341992494 84.75903509985396 -2.9004575758199755 50.8872927485892 32.5620612138152 33.731961817028306 57.87036167150709 11.879811582882088 -51.50952739721324 4.840829529707063 
82.64242251901742 72.53597243871316 42.23782009206202 -120.35008898064861 -4.450212683251123 5.286845112125247 74.69284320535355 -21.002148186426243 34.349763553462246 -9.135347324962183 2.388066337167023 -20.70991706632544 61.55801614180245 13.691841502729659 8.378733012175754 2.7337930261325494 30.088717994702986 -7.475297928772108 21.992412821025656 72.22368325663714 91.41032461614377 -21.92586183994723 -45.03520678210011 53.09209693312149 43.51608725549295 -31.813312142209046 0.5868059424697933 29.508870584337078 -63.751879077367235 -0.16008027653944845 2.01571841437099 116.3514670968292 48.91567414386749 21.491431130566266 -53.74735334342277 -8.235525738986293 -8.948401135407758 42.0258060170703 -19.096912282342874 -94.29566398538772 -24.827506480366626 -45.8166561122993 
-107.03103604477094 -10.394769766067657 -56.6423082636774 -4.737140670884693 53.648079100313666 80.83063302370734 23.06021929836922 -6.383356105613826 -6.349003068584162 -39.84894594608396 37.07000415305011 58.963392100694406 61.42904936943416 32.693261083462204 21.17924918312813 31.364200763856424 -52.37681952380688 106.12812597901058 -68.5161012571452 40.63859509526104 -5.8216648017720365 15.256870227389856 3.6579553677255756 29.42780770639592 -4.657070845548198 13.877397813045253 -28.72159297697222 -20.888108051718923 51.61296243016368 -9.683518668419685 -100.29558742262797 0.6019178066021176 3.735168725330003 91.17669237480311 37.95034841872672 -44.712308421202806 -30.11104787668091 70.11313570755782 23.475383524210415 57.86841454357463 45.23884345961636 14.58883303608644 
-103.31223374523712 -16.934299038629707 51.9134473363633 47.15428527844988 -47.833149289102096 -45.27919773981043 -67.13106321858923 -38.110264278732224 -56.704313440176 2.7761096321454777 -55.495052434786786 -9.67170207757884 -6.8284535504197885 46.65734907599742 28.1575547685938 98.10527055360772 -104.65933916665136 2.1796776744641932 42.77421807288975 49.43683995949743 24.332621830834626 41.079508452949774 9.42308350334792 75.739343707677 61.12939995037994 -13.593023435356873 47.25213059948131 -3.494253598737807 -132.6803319662295 -21.064477893128682 21.95673683577093 -7.824916028263452 -1.4417419731882166 51.40358784852887 65.55720238573102 -86.6496718733684 41.30531227196778 63.880854155890106 11.250504556088242 -28.14763796173045 -40.45870091781678 104.26616698617595 
-18.96837193131434 -41.22794733841094 44.42155156920291 15.829320279418292 100.50999503155974 -9.851956660272586 61.46596495555587 -0.638756202758094 11.721831612781001 41.502557897713984 -34.10866546999021 20.096558826245257 -6.93210869543047 -77.40239785187626 28.264613177733256 -9.338368001298683 14.513207633013602 79.01707014415481 10.120606210081755 -15.61151029138919 10.730154815385708 -47.32624759463275 -5.950350296622162 -2.161739317145141 -24.094855099301263 -44.75383900482901 -16.579234078264303 76.97756709066906 -91.45329602255948 41.05540566561338 -1.6079243292466305 -77.76783465469596 -21.71317522098631 -11.469946151736279 -41.275792849724155 -65.80529223941593 -86.22504561098116 73.97279915557061 -67.87503675592943 4.8468388766083095 27.899638688400163 14.783732299819633 
-6.814762725259392 -8.199346365575327 -85.89012219747599 32.92264186562583 42.70661618762331 15.079123537570153 -41.8928368888136 -38.03728225701669 4.739175286217181 -14.60649752212875 113.34838041991027 11.894537013114183 24.786557528127965 -79.49538470845958 -38.18280122786155 -36.21719624398503 40.17621907671196 21.492474867335456 0.4304062326058541 -47.86580192545636 -29.91530074788441 16.125078261431867 52.265576456436975 14.388264676825292 15.944653274295492 -32.29509118425042 1.2558551396883428 28.94377149986756 22.682462965887606 -30.23871618972825 118.28289337983452 -11.777185821471482 18.56030094153938 -21.283230823801365 92.11076939368422 -34.91142144675487 49.232764243529346 -44.305513844238554 -11.7522835883918 37.35615502463426 -47.19656568211931 86.58302480534873 
21.82590669693983 17.915268000336393 10.813238889104571 -5.235029238929977 12.379963712140155 -36.45421107451634 -23.43556735224359 40.224728954126086 14.85258392202154 -7.974799150598156 -61.820355780818915 -3.0719416272211326 21.977132967682127 -7.1403177325110105 -23.604829362522597 -38.162701453808324 -7.340190620695517 4.300653475204026 -6.1802771825946765 -46.590950189534354 -25.232591851690437 5.673205165747474 -32.54601041491019 -78.04166687459842 -6.6193162008754145 14.773726001208278 2.824588065967825 -32.10187444427164 96.26983928723786 -12.791155216672015 115.71990277846713 77.43688177183894 37.01075221959051 11.249243997882907 -55.98798292402858 -29.25380826836074 -55.54864965692134 8.903400018239017 -27.852159023023987 7.7771428611585165 51.95055296561115 38.70875917592865 
35.807299297215195 -16.437803603914897 -78.8204760690709 63.950314555324645 29.62827497145194 -1.2457403058261016 34.32269649462593 47.11732479010648 -21.50156634004104 9.79450278969523 -9.535993511489798 -44.306521431970204 -51.84165785000429 -70.72967426233255 -22.805109441724653 -29.36844537856286 -7.768108253669872 36.00669040705509 -1.8442623153954127 -67.15687193065646 -28.741510456178464 10.288695519871762 26.69572217144763 -93.67553465180632 32.383715693882216 -66.66703490247066 -4.458395018063236 22.81518350475566 -5.24391911993162 -5.670833024853505 11.288655418769817 -5.784301373656789 33.52579935687006 -29.832772757428447 -74.06283768217483 -24.55789651447963 40.47516608459536 19.93824149377182 -23.158549619166767 75.53791254498488 -96.98854147110256 -23.111714772019337 
54.358979287545495 69.07766974426806 -40.125931589991495 -62.55623793172197 -32.780298876709196 75.49238972716653 1.3059562496342265 -42.746717540358404 20.679810837997174 7.429710271208089 27.55439563802398 -8.731221026543981 20.66272343132772 -7.654974752447195 -59.68377450098623 49.73227198728207 -4.299716397932583 59.53129242853292 80.78607086813534 -38.47646819592117 -53.88415447422671 -70.99276015300852 -39.87039747598576 -31.136728006204173 30.61313213713993 -13.864327370536877 38.517603972474696 -29.004260995204067 -1.7048317128628954 -48.77471241704445 -10.830386005728354 -72.97602677312271 27.975871173126727 31.507695088133833 64.65517893546627 40.93315936665068 -17.162584988536608 -94.31612714561597 -41.74376268945485 10.301428564295271 -70.32239747479126 -27.33808173141481 
23.57878160720707 -28.378851212993887 34.1470371414542 -48.25622806530759 -73.25537245968553 -18.467521511027872 -83.29892952100369 64.8811002881653 20.486866134027185 -12.660970945332195 -35.04658371690612 25.244602172193492 -9.053495351238443 94.08105585995305 47.289014590708945 -44.309097220657854 27.842726463547198 -31.467124609936914 -40.237847149820546 14.055689305128778 6.936923287374151 38.610434654015194 44.09963274369794 9.092114421746224 19.105764681200974 -7.250811298041417 -5.585029141469324 -8.368955946352033 -51.476661204236876 23.709517770904522 48.58351026049439 101.22400804320716 37.68809863072865 -36.079202079328994 -26.773519718779266 7.281839257187643 14.659266826877632 29.330796277372027 -19.996632084900856 84.46979666183712 69.30553531048606 13.522850284201995 
-54.3343230110813 2.7313438980683564 -11.19974971596804 13.707009858685549 -25.341696354789562 -22.65851195684599 -21.01321947228631 150.39131708927152 3.3972356654311837 -51.12737559230701 100.34356141449125 25.229520927615013 -9.742969997444908 29.03798571341142 -48.33808762771746 1.322339372149026 19.243891703291176 125.62592978858255 6.975741329483802 63.7292988069102 -29.20263904845866 124.59395396801136 39.6200213871858 -30.466938397851887 19.206782927380445 -80.79819758514763 -1.7111891099493701 58.27397488402808 -98.81632240287935 -20.963405162780038 46.55013617150206 103.06644231502487 -20.459469032371135 0.5103349659481033 56.77197173739692 19.837558598968794 -39.67605934479408 -13.560153349783421 55.18341053559917 107.39314712669011 6.654667915524005 32.64303953843303 
-85.09884804484976 -43.92401773094768 -24.258529721642965 14.953488853377989 -21.36829614198261 -3.7212998713034118 37.170006119788056 17.53682897287848 21.773154488835956 -54.55000678188794 60.11915546626254 92.59778211349362 45.447342798311084 -9.860527573956215 8.037903673486225 -59.042913492544955 -15.426230862347321 -17.572121066969768 -102.47437806030477 -32.628907431752836 11.99630497671084 52.902312772107884 -25.586445432905272 66.24608393546254 9.638302097346502 -27.47541214351398 -48.90167329304253 19.942836257055724 -96.6125423675067 -36.67329038446782 60.81101260913612 19.792073765052066 31.11037659967278 3.6670200000415094 -21.06954736067893 73.3030447931444 0.5885153709128702 -13.463275701732648 -11.995745983283006 4.8853831314908716 -73.69502128023142 38.21287809789358 
-16.66982519495223 6.02396039148135 22.304080950243062 16.746198931955643 -8.75883899111206 16.053065194842095 -36.29016302378643 -22.40670752452775 43.04911845377074 14.390184227530723 0.8540112027755042 18.375929391275598 83.75543146831049 31.3118160859075 5.619955602568154 44.25200279013899 20.198735990745373 4.115085817533705 38.41142695622881 38.81077370631688 -20.474363540126717 -10.493366203116992 8.119959740173341 15.485723170931308 -30.51548171716172 12.723676388533516 -13.197574441221391 43.21625126269369 36.903670378400705 41.46151381716506 -0.23335967135484964 18.09153046718413 -15.682929181281493 19.768598064846035 -62.958081601348276 112.85340390627546 -85.6947836201236 18.912204137815014 -66.88892341560239 46.29102891072557 9.92791567385629 16.436283107450176 
-37.576849135783405 -10.319842840255363 -14.176085519069552 21.72621562584213 83.59917688666737 -73.45101121394175 63.9699736728645 79.63178560644097 -74.54213653330571 -55.32890948058237 76.95037534456907 -73.70600172586909 -48.289935949675375 31.970334790124657 -23.24745673170391 14.307249357854376 -37.34085461890982 58.431959827595065 2.8109247087257625 -8.656278779604907 -10.693504397825132 63.55301480552495 1.2922977177809805 -10.154202820170108 -46.26307572164994 -40.42063205198336 0.9038831862900547 -50.832033848356204 -106.86708582764739 -26.928116634036677 -18.137705159683655 18.347169756439953 -57.76137685658281 22.903875598975286 -9.050723150571061 -13.942851607969143 38.4499417417884 -57.870256190111284 -66.2930485637784 6.664151310604394 -29.34440851282973 -42.95345576151071 
87.67254616979741 57.94711552533623 -62.109539953297585 87.68169933071336 -23.531108486920488 -39.14519628983958 51.45412768388705 50.25620205704516 22.43765187402663 50.32792319628258 64.33166270706347 -5.603984491557131 -72.5632534739364 64.17716910204797 -44.68956224376223 124.45794467135602 -32.832681528331186 58.751913759145054 51.04358858903151 14.480524456165789 26.091243595687768 34.34876604566957 57.19108956654965 33.60433675796684 -61.896165724449055 33.686070701408 24.35706300190048 84.37274764595695 -30.773452503039874 38.94850657055873 42.04895755921048 -25.62199472185266 -100.8204764175892 26.76910165314964 -91.3228854770518 -8.511177909166774 2.8394895666003563 -41.015588054801604 8.211341597792213 -83.94219735246297 81.82887444034684 12.02798461967216 
-58.19329722784016 37.39341802780011 -22.553359313449718 -39.4267616631134 -7.006694904790981 0.4519234154040307 -84.52475717087843 -59.095704619273015 -79.1735603280767 -63.1748576696779 -27.859215955280035 -26.500656052921645 -54.10723022569068 77.42688828575133 -39.45498736011343 -56.83448421801206 5.855544257824623 34.069485418699685 -19.764249741381427 -2.8228919877162233 45.36547484433872 25.18163883129428 0.8150069147283231 -3.506122308386986 29.753490980453627 -88.28918754726082 32.659466181129126 5.801840190194053 -33.88945675446204 -67.73930192134502 72.30864872654459 31.274759877264973 93.25929527137363 10.187206540925674 -43.43843623596791 83.86055149964372 12.665482268607184 1.5472739886063944 -1.8558177792245136 26.463627588704675 43.66591798788784 39.083380894126286 
-49.84581230066001 -9.764393292737354 -48.739423296581656 -0.5132383093388475 8.706996702365403 -81.78024098483348 -27.536653181877366 20.965106080136465 38.17075720082684 -57.307870758404526 -24.73566423699775 -39.57302440190768 41.173792824492246 -1.5828759825899923 76.1008742802075 -31.190964342382294 -74.84549430711715 -20.949318028018084 -68.97164798357664 67.97132747999748 -11.375835512718602 54.42720103518722 -3.6603828783538215 85.21156111733092 24.167324639172453 -31.743799095516874 -10.341507821360901 100.48616906883437 1.2316114364308346 -83.10046854177739 29.08919698740388 -20.047090880357707 -52.865311219443136 -9.413744427259179 59.171757513715924 -41.57067166870741 -17.65724377866899 -1.889921000533295 91.92108831397573 31.03307969207413 -48.609427762687346 6.180130533421901 
30.822586673739785 -41.598155442519236 20.146878901756903 4.019870059241302 49.829197982578414 -114.11608523878338 20.40775252334418 7.130182276762609 -18.828099653193046 45.92305687986315 -39.514352397121435 10.878581759017319 -0.7031989930907753 26.551201253660576 -8.78266414256279 4.151493574187665 -62.134785266092045 56.462820913659826 54.366332282183095 -72.64895331721594 90.06863497220101 9.096880804436132 -52.98312020935127 90.46005821947031 -10.279453797119498 -29.458574002718997 0.5057442555863342 31.897945763384254 57.51127610045629 12.81875229867451 14.357233391206757 7.70157067651044 -33.66576712255294 -40.984882997577465 -22.204112768197287 -26.828192041836953 -3.512572119427398 58.98704234865699 -33.27470978554538 -51.56982655116283 -46.60001645831442 -58.37194761341739 
13.00155130850108 62.78622039493866 0.6535085642659569 -20.818806261548367 48.76260735258569 7.165355894139254 -55.28220118760416 -16.354090591151436 -24.549581812357587 -69.17252477040195 -154.5679095449626 34.371878743335635 -26.039912087194537 -28.84846703001098 17.383859098221148 6.308999812740579 17.83881689600759 51.158022556648056 48.61879947650593 -66.88296686402198 -34.956113338265894 -24.152552878161774 -100.35006044489491 -48.56232174064012 -17.046245156464877 43.61142119242655 -98.31433337168798 -33.64100795081983 0.4480691589584787 13.212107631956542 109.27443046792737 -9.838355490804117 -38.63872909963798 0.8231791983716178 -18.695747988657253 14.79823887800952 86.12745994682692 18.467131806220806 -81.35553221842932 59.11809175388903 -93.50495853013538 49.39641640679737 
-34.373352075839165 35.416788111537684 12.171456710975962 22.855776696288462 -10.796967146229905 -22.48680018282395 21.35025268444449 9.313788931192317 10.561346311586055 55.474137979202155 68.53785337781991 4.841031881480837 -82.19557940748825 12.826522696964577 -19.60183650301314 -8.605172883278383 45.92685541117252 48.366682515426035 20.421921121332772 -84.80974698280274 64.27723248378295 -29.48676733930897 -12.351107380584521 76.17678329326398 100.43049442791997 -10.71383721635289 -16.589706138218983 89.0847502066163 -19.276167113948144 22.569471214583018 47.60822956597559 46.051044109995594 11.409448769707573 62.66369779443463 -16.25672584516186 6.271124153056799 3.0115524017110795 -9.302527929409106 45.602805549276745 10.828876890103802 24.017630609173654 43.11738021765289 
78.87104561196867 -52.62642213754943 35.145430761095255 11.309298941164771 -57.31590541795479 8.507177533181554 21.598206870698004 56.28987970211039 29.59249377539611 -55.92175762002003 3.85518300282208 33.67407149517703 -31.275030863601682 13.958004672292077 31.861723586866933 2.867619946721929 -67.01167847969 -22.134094604649395 42.51402444951628 17.34980394810605 -57.507753451822595 44.33523926727831 27.78882066756348 -33.96183141674768 8.33633185811974 28.343650286632744 92.70896816514404 -45.719995209887074 10.201750815491945 -120.49811512215791 -67.5908725444657 -19.231116083702496 -24.20929543241288 -89.9179087072357 72.97920562686276 -38.34585506079969 38.42114435006849 -56.40344046289985 -35.681778243774765 88.0503191161053 -74.39310296958038 44.4002632764008 
-58.31087649888484 38.0711150148312 -0.6293792210746052 76.25190526972801 26.60148668667559 12.93298165346925 -30.171533787076623 34.521695908666274 -9.21520898759678 -21.959148774187785 12.143776134816889 -14.622186477892434 20.61848543988157 104.01946767177333 -4.560612949333916 12.342773416500533 38.57585231992859 -22.29977968214396 14.031308527139315 38.350820249368844 -42.59253838296589 -28.92653430419724 -26.678109005884128 9.795719027056913 -12.722333464834962 -66.26768760485508 22.414751599728888 -91.15435939108268 54.45336729470404 13.231654634646612 -79.60851173335044 28.18228195150066 13.660888334781161 42.64257814573472 47.692730639090904 -38.04955572111971 33.81287550387306 134.11989964601034 2.7474094164472542 -4.925633508037977 -60.96616479548986 9.642955460404186 
-21.796636835647643 -44.61334833316033 21.50350367371525 87.1870866903854 -0.6471533063462326 29.269085807025945 44.20349756038908 -67.43654785740526 63.79763195308861 20.300904103432025 -24.551117958312407 31.486087729578802 43.90270641616513 24.363785253320934 -86.03333941697917 -16.602812675367872 -60.143276332084355 -71.769998993599 -35.83084506625709 -84.43734996503134 41.89218926850076 -27.263537853177027 -9.997834461722933 9.78121123425102 43.374007569818744 -13.046396823299052 13.853874380006616 47.78563540507639 5.672498961531038 19.67309864321498 -28.873010391412436 31.251678501176478 -81.73162626673188 14.68145557432641 -42.43273055019051 -119.70203232454402 -67.52421868597865 27.3689824059342 64.292194330969 -15.510089692839015 59.174193834783445 -11.689840826471602 
-55.27012322782538 17.93241476196162 -17.142665725327188 -34.20568533575637 77.14385735137132 -39.21151246825635 18.138076830067863 24.3276437132219 -78.9005519538683 -59.612372207182105 23.564296705750284 -5.497940040895154 30.660425921801895 61.63610251902101 13.756011196423337 -52.063645999011484 -49.966052935356174 3.610556883185326 75.30755643472753 -26.9525923191889 20.13648149339766 -22.979948232674584 23.72418559206305 112.95791079170968 54.879380950881455 22.706119792598244 43.24485718656772 -9.709240580897147 133.57781490752225 -35.75979938847748 -45.118380092980196 -25.813122895685087 134.56139715220587 34.694987033779086 50.12936642286694 -18.730231931450554 5.823675582277065 -35.7582107077439 54.95968821347744 -11.33279246753211 -24.633757934780267 1.0375863498831557 
23.43185337387949 0.7213196314779622 43.63289434021517 3.9783452953020153 -6.029706925678031 22.09135766265367 -45.57548815631908 29.610433940261647 -69.64148077911656 -98.23332477187296 5.932245318381506 -14.387569623599695 -33.773540396087476 54.87126618075404 93.70829914456367 28.18013018518168 -58.047568481580356 12.852885029119872 -46.07062890897438 34.58114491107002 123.2056774358446 45.38437760532655 62.929796615398935 39.927092595093534 -31.915973921043282 -12.2955869146718 -3.033817131244797 17.033844789567315 132.71996028151636 49.78892645461686 -67.94770423148209 -67.34570275022418 48.67594993918924 36.013374272665516 65.6890181987386 46.97094750373534 0.9046685615914336 -24.261473548249267 -23.980618145128012 40.775526561829146 -74.17503008905734 -20.553505653952083 
20.812047688593967 34.478127381509104 -11.554999965927855 -16.81407375070549 -35.402843533942445 -15.842534336028324 32.06630386652596 -68.19491587254782 68.88635168442767 -30.33672313606904 5.462150387814405 -6.652869394462866 21.989158857610022 47.898424679746505 9.155269974516939 69.81626582112686 -22.605967033990737 106.89715336982493 53.77663534298912 58.98992062802806 16.01214312846925 7.802297789098163 51.85259211927138 44.39640071633362 -78.55267020870973 -5.925884887138108 72.50879853065281 -28.240565996835052 -2.2154435702361535 -37.744247360235384 61.77449255676665 132.29825646016096 60.65256866048077 -11.934593909871554 -42.731908482693484 -52.487539181037924 -60.605769516734355 82.46343659865681 -12.932834701807625 18.476493339446506 -17.626368536179466 7.790426504413438 
-33.7287249576883 46.678174879472024 35.31914436497021 58.44178479887727 -13.17426265183559 -81.33145007229268 -27.52575944606232 -61.39163170506071 54.72005541980205 0.06721390327739282 -55.18045620096612 -55.38643086914155 -165.9759943902716 20.87511872580036 41.05667758861636 -4.711056603079053 -23.43735854127597 -33.34183449489574 -127.79004582387216 25.18091590908524 -1.1384606366388392 47.65520464075628 22.651691836856614 62.165152797204215 -54.00334144553462 64.64888486111975 27.88915781597893 29.83633431004355 -16.12623859290973 30.17176198658795 43.11919094196166 32.24545194994437 -32.35093412322061 -4.04802644004039 -14.705891165148426 -73.29524152400134 26.641752570122396 -47.32925186839702 32.94103284836523 75.28015243985645 23.82684475647663 -59.17911024017001 
11.718283612154423 -2.1585368905639992 19.63256757319167 -11.814326595740152 -11.310956262820062 50.473595061752754 72.840490773848 56.27995523363034 3.504675818829968 8.70503895401666 -29.354505955704408 -46.586393206895835 3.961388117337804 36.42430057397944 0.48541469873792253 -11.425843831982816 -73.65436659212898 -25.47359394580031 87.17580179993523 51.71972490346486 -105.37045225406763 17.323736694779825 14.051970210254597 -9.298277249483093 -2.1122805851085715 -84.3076612911847 44.648557367807726 3.7914188742377815 -46.41976222796186 -75.22200038674266 -6.883749710942775 -36.521719973368405 28.462927974345174 -10.205404794631573 13.224195062885036 5.109685186787131 -33.84129115273442 -8.824500616428404 -74.63723111029816 31.00009049695737 -14.2064441511587 -33.87544824027049 
50.234621037104596 52.50640972061072 -74.50203097884499 -18.58429010073783 98.50292644675046 -33.81971838679303 -1.754668501470653 -58.17494011866236 11.93048961531098 -43.39249093367085 34.21280452611606 -17.50816298146033 -22.86122747755448 30.842958595382626 -90.43193462548318 9.717750799927591 -107.24855607765805 -58.62767027284255 3.310181306074451 -4.681534065046409 -46.6532788112847 76.69378651263655 -17.935836233258893 26.577590312693225 48.1745395246352 19.146508903283575 -12.778801949928885 -7.942829491058871 -66.10732979078306 18.68864882127366 16.461778389357196 -70.84098002814807 18.048850876235896 -45.04669773073404 11.774332422779237 26.336962871221278 -50.09008862322742 21.83724427820862 -52.58939106312539 -63.722735594322444 -15.17053504164941 17.428350891610688 
3.117000248952221 -55.45928885467592 15.111174388880219 57.42902648061184 20.885935720337724 -48.3170727384298 73.78021440629638 -14.606880828962174 -6.748237658714519 7.206046036664 47.85147594456126 54.919497956009735 -1.3331716856337081 68.06048315848396 -12.879610822996115 -24.842473729594918 -41.38090762225377 31.509999167741316 91.74870388360311 -5.792145001779966 -29.36357642672034 0.09755887733087118 -11.169112295734895 22.77260733240367 4.75231538383277 -5.197459628751545 -48.91387175742887 -56.95919474725647 -21.685403141239316 28.073677009387037 12.738407109694796 24.26932124342059 13.554672942722283 -130.72862635576786 12.545993605078241 4.386660087542698 6.2305716576671815 82.76093480750791 79.19979528819971 23.147703069954012 -25.619759401401968 78.44578493384847 
-24.980619245713402 -15.393167514898089 20.89624164469451 31.376210565065747 15.907894768985564 42.656879187594676 26.694242434681566 0.4351638017673458 -35.49941950883872 -51.58109229548892 14.131876491467242 8.89060841596032 72.96373160445765 -36.26095707191257 20.302724542223725 12.625165878440889 47.99372087607655 -55.04106251317247 -44.39874913180712 -4.122753349795898 16.628076741480328 28.33058959492184 57.99028759268942 -60.31983321337413 11.175515506947077 -57.593626787585805 94.46612670176863 -20.172615933637328 7.920335979727623 2.4296402197595124 96.90712551148708 -46.648868260468085 14.820543199860625 16.764729567359375 -68.59808875783352 21.968181092207097 24.588942578058777 -5.473875844260907 61.28041970476382 -10.526372835909644 -7.9610719418561855 -8.325075697331876 
73.9165720499199 -47.31429062330738 24.444374988480906 -29.9026010916401 -30.09302870534116 42.92411435096544 55.72289854068001 29.69971504251511 3.1733509387893557 -25.82997405809681 39.67666584465511 51.21228863704478 20.02087310293175 53.733875258018145 -54.19434219286871 -53.962815745799084 44.33858594584118 30.05987013908054 84.13459980409534 75.2166406077601 -23.176768626372606 -4.904962135860854 7.213750316030097 37.17501194167687 -14.24175020119893 -71.62997741166699 16.129194465522488 -23.538335954031712 -74.5104128993914 34.63812402788312 -67.06358968436845 10.307509120973469 -53.341397256692154 -7.067029404589294 -50.98455974447621 38.72720869178674 25.756380719525676 17.535959970588266 -62.273113769896845 -14.322067531950818 -19.841273638897558 7.333880173116236 
134.39770285999185 -6.119185350206071 -4.379502894053791 -20.525494996774626 -21.322525375550477 -11.131535599917758 -10.796008412341425 0.02791510369425117 -73.85093276784053 37.25435732013715 10.23197978328473 27.37231103816493 41.81369358307123 -6.001594559284135 -17.383118285336792 -65.96676336800412 -16.129845343415823 17.864410193728403 44.63962706439219 12.346214786822253 -154.4085799796827 0.2435983018411756 -69.69290737663911 21.18594927973556 9.868939340949465 0.8098813914094091 66.85699457276642 -41.21523513821601 -59.0447514852277 88.72854922154593 -25.596694750547954 72.30411241954401 -36.12525984823584 -18.76684629655415 49.78009606068096 -25.45796670200718 15.54404461255205 54.33341810709993 45.42775276930904 -55.595043751545504 62.651623106699255 -71.95819926820234 
-32.757486283290845 -91.31125171093792 40.47108877036777 49.655661727582206 40.35455024531577 -16.94468173326523 -71.69776811476352 -55.360803870603725 -15.413865248898757 3.380344760181718 -87.57888932198858 -7.553471735299131 -71.21701357309323 -56.41870546404465 -36.51826427102948 11.299804309094895 51.08646537167657 -0.8401539359084789 4.063143251968249 22.260283956878354 -7.326363723678982 79.65855871520725 -22.814579987264036 -47.29877982612035 30.357039101585595 80.918825110289 -17.24813217753195 14.117419584569245 65.22089991428983 -9.08328505373487 -48.60926426136395 -87.18035994774614 -96.37173530619765 0.4658543885861622 19.127103502611114 46.831111847996574 12.65210841309129 -8.996731835983223 -34.54590861681948 26.90951611596067 28.935605827027096 -65.02868513362958 
41.29211177256018 -16.930038680570437 -67.01815058969957 -90.9883494765904 -81.76920735069424 20.346754615768248 -0.2830678511002987 -68.7002505790062 -6.607340182796035 -46.244650987335696 3.118947247156897 10.616181075712813 59.33821162399557 12.351376294618255 29.212842543228774 2.702176892609143 9.008293571078957 -46.666726529300036 -44.98470024731734 -40.208232660447194 80.53372790389403 15.695726844426774 -66.30530455089016 -85.9256083543208 -17.072353182806015 7.348363113532909 -81.2186602002833 -86.86648151808261 60.89126554783939 -4.208302354048616 59.70874090738528 -1.2147813241939138 -51.03717602178478 11.607899650086187 57.91625311792342 36.046719178211156 -62.82609750785476 -53.35512163960738 -91.39263833523083 28.977811966898088 -80.93248810497968 20.18627716216194 
-68.57655398483476 -47.80216907664175 -54.86228597493942 64.77154566726662 -8.163694496844625 -42.09978811445864 58.26807420619305 -21.9081702013862 -14.439479546114784 -89.07212281405998 -6.482604363304037 5.542461634211747 100.76097499220958 -8.726671511864664 -44.268784662806254 28.85209151930095 40.47003508834753 -29.923002895789388 33.52530323368317 -14.495410172829402 2.3777799498327763 -37.1651761656723 -14.88091746297788 -53.50914585776446 28.857276136538456 -118.43821658789699 18.70129311135603 45.76965022522347 -1.384756766277502 -0.5464292142528775 -43.415940563446824 32.68720278862912 -48.07613440178036 30.301774516146363 39.511223794426684 -34.485734207830085 -32.26787968123707 6.675062275853868 -34.595315750370276 22.067222508084217 -49.85284158855502 -2.106794039537247 
43.45519319507083 -11.661088836992741 -3.2868673685929775 -34.21488917872372 -91.59002411706248 19.00334509269193 -21.988080175522878 -37.15168896221842 39.688582237035384 33.506928577761414 12.851866056688362 -6.142423155027274 -5.770798819207396 -45.751228775920346 22.690298535503494 30.416467920971275 53.22477377136669 -19.007847943079767 -17.472404013818316 -72.27457949092992 15.786689869463183 95.76920836290418 -3.5321406580111363 49.02923593594052 16.561777252052956 48.516631388101956 -33.26538321730875 29.542386332305618 28.443577642243323 -0.34285689216288906 -7.540081904434828 -17.240488410436047 -41.321823669874476 30.194159306988023 -13.59254409922629 69.62556339282402 80.52037616290471 28.086857057507387 -78.27150998650822 -102.55959317624293 122.94365150956516 -56.483707339156844 
40.419914414256034 -49.295959095972634 -49.989938043316386 6.804304393878792 4.403100501818178 -103.82742454956423 -51.78651455113634 -11.170888630276378 -71.61137437801446 -61.122294751782306 84.56165517997472 -43.91449839058664 3.4658427792153987 -93.03720121407882 3.776144999179666 -73.04629916860542 -28.94657548190237 41.74916210955002 -70.98014882585672 6.0905208468040355 -4.36873670664033 66.14948513364747 -11.649379954928614 0.9647312974619926 88.25445377649847 -73.7504970611003 -29.350671646687232 46.2278144657332 3.6726087455163374 12.02216246662029 -21.756989615962713 59.36408476096466 -35.64041149333259 -36.865940268477196 -49.071618023522305 28.91379351896822 42.14526068016077 2.2260791558821422 81.96637944090494 -19.60604012901996 -54.22196531517032 -30.93507090815971 
9.596843911479368 19.891032952626965 48.571771422640374 -57.8819119174261 96.42674379370172 -41.738296101633 -96.51236961099568 67.89535061684094 -88.78688698081586 -64.91846109875273 -20.654027489760352 -28.63649116681839 -18.099326844059714 -35.04418021120393 -27.6489608422077 22.09625007789177 -45.41533027241663 -5.368904034582014 -79.59826545490347 -26.601582094547794 -10.989337093863114 -14.821141657931092 -8.66816659459991 73.99068870720224 28.631981489573707 58.03968798300169 6.26354820061276 68.58137261079185 -76.78652130387736 -27.934326434384385 21.689960700578954 -25.63445188860354 -21.77600214044917 -19.102465600605104 46.67007243509472 43.11440747403332 -71.76649613504537 -76.22881031829063 23.217082648148992 -30.46955984361775 -8.579498576487415 -15.081577309986603 
-77.40504262292644 28.71902570532883 -28.096703924552205 -10.67073899427479 36.74674631445299 -125.03949134375758 23.12402495438554 6.306439583269968 70.47539197030667 -22.09853433076998 -10.258280721271802 96.36596989001316 -9.53057769949179 -127.10534745007025 40.98649763976635 17.697929050199388 13.801368654072938 52.6625882259946 -52.087469508598225 -79.50175627843923 0.2565663308603762 12.483773872634863 -14.670677382742914 -48.65469303230577 -29.62325433496815 56.335970969819655 -60.4697544727212 31.468277152046703 -44.599539215673786 -22.880413987187538 -42.51685361943225 3.7356810223232486 43.99445301974197 -15.224481136140911 -15.836861990885783 -2.397401652749689 -35.56310445420511 -33.29081981888557 32.383689784011516 12.968611400711897 -75.67816882100749 -45.09775319868685 
-71.99390558816148 -17.17401804401813 -66.89257146167618 14.126599251606025 34.76386982076343 53.891201449992685 29.0322367961759 -25.0541357830992 52.242344005607464 -31.88448175151516 12.535595309922465 -15.449374892519712 -80.07179332293671 30.950237692276282 7.101991525023652 101.8446186551672 85.08420984064007 66.69293488968093 -5.199254032636598 -61.61858921424117 -13.015973489675982 4.4147040682095815 23.910792683954085 83.59955767100506 50.443762714569196 -11.3780607869043 -42.88980409856459 15.682394744162604 -32.73176978170695 -12.567971871983566 38.42496120770384 -34.8876717761497 24.904960675942906 30.989987300656306 46.592225447528605 35.55638764044458 -80.22494066829508 -44.98753095479157 -94.88843417419707 27.57402343119898 -6.566165374926818 -37.721408575025805 
-30.36602947548481 65.4334720068869 -12.974767339959785 -35.86330032497044 0.8346042301538944 -109.81435721123411 -46.55111825211185 12.3513573153095 32.078185085043465 -100.61370793691523 -23.234740948403328 75.09583026933244 -44.86437689019909 -54.019416940121594 38.5722398226681 -23.7924043958739 -22.23694079565041 71.03988057475073 -73.49253453963273 -59.46829274226596 -4.141854545297494 -26.729435415140404 -92.95439728643247 -51.199652829183634 52.817362832185786 -120.94306950147106 49.9413880301636 29.439769144662602 37.23468652815802 85.04316028900598 -55.29114115680024 -44.66881976764778 -32.59004146759358 -33.294892102509465 -14.61528560751129 13.919208352116941 4.810406094652521 101.45963113278742 -30.917780443067777 45.39598278459124 21.896945704145878 68.8636383432071 
-74.44199306033867 14.135269478961574 -93.50226967351865 -21.787667069257054 49.29820240038084 -13.713095462030818 5.562451235881262 82.2436747635468 17.06009500109118 -28.683210806431305 -15.096897603347571 41.33154001703719 5.7017958808845375 33.94457785907297 -58.69115007562624 52.18569711987806 -63.35243605893218 -88.13445129035108 -27.09579081763783 -88.28206673005582 -3.9994690144436182 54.61217490949238 -50.713604651558846 -12.236061907236788 -8.817878881910527 -18.38176528315847 20.288559210667977 -51.48723355671537 29.81929523405914 108.06406490698943 34.80588611746286 53.291916962825525 6.340472311353586 57.67483371661326 57.78825328451045 -107.85810758051151 -90.77482946734165 -72.23728222718594 -13.026337417704754 102.45138568650962 -51.15515004685446 52.74061846650332 
-4.947564359616052 15.913238269341601 14.202285969903329 -10.958522176687982 65.48876988823191 -47.78990769001241 -45.24050324387105 -74.28270546623419 32.131329588650324 34.45460363474456 14.690817258388538 -19.64200994846403 -14.097606194041518 -47.78122016738772 86.56834109157587 62.03795881620784 -13.972730807298927 5.790841916445851 -97.00338222135379 23.094671302507823 41.85019250735824 -20.46343267702983 24.35112183181717 -27.419138780941033 -70.76219629304431 20.592879126471345 -11.28607580983048 -13.035465594348418 -70.15995148135646 3.016003638320814 46.86297032485296 14.033083078434046 57.08036528711862 -25.46410711825095 7.204869614667866 19.067773065037727 3.250059319361433 60.886324955040294 22.864391689991322 43.7811759447706 -68.47698123308366 8.937835051924095 
7.9949857034915155 45.708653823728135 48.23941032460663 -47.67696591977817 -92.45545278083688 3.3239715271292782 14.452916331467108 -12.498034645104603 15.124370177356642 -99.2089496662216 9.497646409251528 19.764734186437398 46.33984899417846 -14.786777872684143 -117.84876312765944 -5.028385297369803 -3.0633571271972477 -13.884051071744171 -40.86969162194657 77.16207109038714 -54.56744071166441 80.44793228363436 -26.12744146589809 -83.02089913629622 -0.9146085440174072 1.5294781115627194 -7.073073277541224 20.03794261665461 -16.201764866063957 4.6103257321493 -34.80453881055247 -20.941859607883437 -48.35344394533411 -1.1964987191724092 101.46684947096679 -10.738626703580113 -47.401706029151285 3.9045109817855015 -58.81498004690591 -29.997117475858026 -39.02159730492979 40.547119400527684 
39.80299794385745 58.818986906981124 -33.03897850438911 -21.650912134511202 57.22396631055084 -52.954890967411494 36.0786876187679 -21.565907557208607 53.40919044089768 13.95940133790022 -16.833846898304905 -24.473293305024313 -24.383090649553075 17.116165393254388 -10.287969686161983 -48.46709359227747 -37.396414911048836 14.03526340904008 -2.649599530594054 50.035477638366984 21.77679216316359 27.73585385849527 21.8698370959859 -76.1456761963946 42.41266928298977 30.04383406348017 30.496982034721956 -69.09524442037875 -63.160939147825424 -9.44630030106166 -7.752404487847771 -47.01362965559152 33.84504968313584 20.687306194475898 -20.63147109111449 -10.954133127029937 -25.561423443306474 -43.74356453971128 -86.25384759966475 50.54037848107165 -51.77263979228252 -6.148614452060378 
39.66039389893608 -10.180748100590899 19.400699359086456 5.609739928945131 4.341917525195424 59.12243903975118 -36.59276330645643 10.320479960353115 70.06802671006912 121.59649094524745 12.334128121598173 8.954110682509837 -33.674239682167816 -11.518221266355559 -23.529699984803074 9.055740109163075 27.55683302760872 -29.790390170873362 -38.10498205679474 -23.469551713014017 -23.90540697659094 7.921224445398284 -81.11808745378218 -31.549745609054696 -23.261725321336222 -17.321140343405805 -36.49199806565972 61.255429264971745 -11.632940583852989 84.75583946247143 -61.02585308361643 124.16644381539747 59.20421423619689 25.6939522219089 -21.405958852474384 90.62349013632027 51.84323287676324 86.2141937808695 -39.6960777917492 64.98988080756043 -36.57626547021162 103.78889275608763 
-13.538907402156612 -78.70898396508494 -21.994467007660997 26.141395181127304 4.05460907029475 -20.850810844467517 7.948741009766409 7.825055634140513 55.9849749146363 -106.22082597971638 -72.03918684722753 -2.04377944557551 -47.03545036337532 -34.857416955899744 -34.66763735545836 30.737718222789766 53.78030196336595 -16.27693309064263 1.2181676782939004 59.8372698903469 -12.99825133511345 -98.4243362108893 30.93789004843272 -21.318428942840615 65.96272940332935 -3.285231447484683 -99.05679414494332 1.4520958037834553 24.112295181952724 0.24001062372396334 -11.87860920532404 -6.484417608623045 -19.732456325481127 -26.14412584288179 9.040837691520407 4.415000244766919 63.4999168414354 -51.15305154813117 36.33443493806416 92.42712952419272 43.15657135976 30.56733289105481 
-13.737639859875662 -100.31535290453883 6.271083826855205 -33.509091965913264 -8.457686134343097 86.65361986419215 15.924136925049925 -4.841250799655479 57.25952743466278 -21.279795360102298 -4.07969346553336 85.08389308342612 -20.27252668574499 -100.14248933599643 1.028988397116102 -49.56364456942379 28.55777633770484 4.627687447980284 -53.66956519657366 20.947267002996927 -0.7691728897303967 -46.650844513519786 -71.1417763996896 27.29849295398422 -141.32769962122674 26.97047262376903 52.137352477491795 14.974782872378123 130.70028795060182 25.36690503698449 59.21153121528277 50.231403084620254 -38.62364334198087 20.906000960466233 -40.12889026815607 50.140315423570165 -17.059664077221534 17.48656181345443 -9.933766549764082 -77.99946113774796 -2.0498777966305015 -43.20589869148304 
67.96412958787057 52.70821793690739 18.76352687608661 57.71212023806218 -8.028893716779203 29.978430210448987 -4.9265516081012555 -0.17681732021934826 8.684235040774045 -31.563378749558446 -64.8032983954142 10.331626824423024 -80.5909468647319 -75.31336708915659 11.972994480871455 87.24808154985469 -30.401776028425896 58.0081983249342 -65.8879785574899 19.163501324145436 -41.794351299424946 23.516045564822416 -24.622479080668157 13.48317720622216 45.0125232773471 -4.045273810011781 -18.62736303794959 26.566362983028995 47.336186024863935 81.97247028679949 65.82029218158932 -1.9235448009460905 1.0093385974775806 68.82699303409103 -33.66834979512347 -19.88790948508035 63.884826957403185 -18.36171063696774 32.552302513010304 63.55814259350588 -12.180881058652286 -51.09895393284526 
9.562136330881188 -9.78866823166805 86.65921598314922 -70.95005907359881 37.934502745352326 -2.1930837808053214 65.29503019618926 133.20109002614583 -57.32419460488899 -125.05644836508533 -13.945210595342406 -83.7005270460258 38.08748404087734 -20.00365867876901 -35.40676783068799 6.827099186849095 -42.82927844245641 77.87102015777901 115.06373824627173 38.08179102129128 40.95317852366796 -35.929676208157645 -85.84675530329814 26.521816506570733 -27.689211809502467 33.3588970435273 -13.324026099136297 -35.50575256769592 35.456680450075275 -34.15917148326131 -20.775256484348223 30.589439692314475 73.72983624702435 30.506421974533477 -55.46775083356602 -40.48901869514646 33.33651913389748 -6.202146340348456 4.274688495900679 31.38084375510088 -56.7139454263448 18.42011287360983 
-52.650428580139156 -69.65805386623863 39.13477852385636 13.973796114093119 9.09587452081193 -17.100539441143276 -57.5979738084128 -14.441735528773652 100.59851270410782 129.79143819533786 -27.905023970823702 26.530207197706577 3.6837624902237565 51.821750163522594 37.82873636452332 -57.42695765973794 22.240652502697472 10.779668774121742 -27.940686288204812 30.146668594409864 -29.699888142099642 -8.598417456596126 -57.46015383788037 62.4047773117233 -0.9596002105317961 -18.881849428861532 64.94038503689248 -12.97267372659069 -83.87278893836033 20.18604609421803 -78.47046607376912 -27.8881727044525 -17.53638540489475 39.77621111398331 -24.044922637129208 13.55161974914772 -16.17813609842827 1.3746463009371221 72.8976702989013 49.599323225667206 -24.40636606061981 -8.40035751752306 
53.48962784603327 12.598717480029814 23.152368492954682 7.587495456427302 40.251121057018196 -2.1739448295404973 45.0175599506333 113.01819485892156 -25.496794222694394 16.614526020272805 -8.218781974255306 31.83450517797944 -13.000812587969865 -76.51224469742446 -6.572076926155964 -66.01863270800906 39.46533440743804 -28.72541463664785 41.96348869370761 -44.73015652487018 -14.472542033036008 59.04865006112885 -39.37686229042574 51.440850038361646 -38.645789180565494 -2.009295560326483 -8.910944408396857 25.96757259240521 110.96078491760699 1.2829010634720246 6.0792398968353885 -27.455357341914265 91.76299671075975 -6.551621474052976 89.33773628695252 75.74102983928337 49.963059695761764 -42.35032217104904 11.293856954285344 -45.102086391366775 -44.50709931095882 45.54910038554336 
-9.27520558834227 -68.70436217501234 41.29865688372032 14.852540227580821 31.31437173239238 -29.010746100174902 9.455134916322312 74.77635012655863 -24.908362511122903 25.763297873002386 11.180543397960705 -7.725953648489928 70.1057444828213 85.25620160381905 -19.8294190564243 41.4625720716669 76.09834398403758 -3.860677965771942 99.7651616535988 12.28727065205285 3.3937544886220077 -66.08624508318802 -5.2666273900063905 25.414875002906314 -12.334992340195921 -37.654303532630955 -12.88239515584783 27.741101729440732 -84.00261466428111 -10.421242810465507 -74.71692465940927 29.110359119301897 -48.71361305377539 -13.666921638484322 -82.18820239676316 71.83770125555543 -7.068802202876973 -4.799434351670423 -34.901985363904195 -9.158180242636522 0.4944605229986682 20.36563199618479 
-22.552548798163123 28.747910201955197 20.63835951681606 -17.72250643022795 31.907100399209153 26.28411656192896 34.553655445535576 -37.267666460479035 19.597701594410264 -68.73804369320094 -6.783866908965496 -53.20345266305561 -73.2004347734331 76.1271566978912 49.99421384091723 46.86785341693259 17.086862809510283 7.39842477074211 -31.377556094583326 76.41076856600698 75.95323478571422 9.44385024555487 93.84565783169681 -35.609474085433675 2.8991253106385764 28.653292136860102 -22.898618626789375 14.47090067523188 -4.957002609214729 40.381490935376824 10.059869523319406 -72.2726243293724 1.5112569974556558 -47.195400407343 -48.52623776954698 10.707771767184843 86.10622331080003 -53.17043656775927 2.865953362576598 -15.902699070448437 -78.53669853394995 -27.686969758275854 
17.267350742228494 22.308256121375923 78.28358592243463 7.887378494362468 -93.87219450410079 -20.547663382907515 -6.249575359933951 -44.65197637668172 77.06896525027398 -14.782412715579445 63.54928101501784 20.700772117755633 -17.508482981413163 57.8062553352037 8.11542711913135 2.0929631554624013 65.06107089343702 24.112625239013504 -52.7805422963646 -16.93401998428718 63.027033554133 -46.241408218009774 -43.578274281407815 -36.877354490110584 -33.558309529857034 29.759657048581776 -34.7368679213995 30.98152557014857 -56.04179130803641 35.12926546082999 -90.97020109410737 -8.507273943234209 15.356222507897256 -48.455514782097374 -71.58482190549546 -10.676855460575194 -16.196378585137836 95.09399017026196 3.5652124433522183 -38.512889927491344 80.11833779789214 53.48680343306421 
5.631774911686832 6.993302287042938 27.151212067692907 -51.81563895597535 16.28839580654517 -123.23893382921513 -59.02269582537247 145.10922685291314 -6.94703351914993 -14.283650316933027 16.776819748371345 57.490529292132564 -39.047478414203724 19.93490450536315 16.947517195469146 114.77190393019102 59.450837720008195 60.16959867386685 1.5646452239859052 -47.895174271294486 28.231894457113878 -49.396335629932146 33.19359867157437 23.051471971782174 -7.869634193758049 -16.45255444059252 23.381383528643948 -83.01179126626657 32.29517425255922 54.13800844436287 21.915083041699596 8.767247976224674 16.8545979419943 39.080583055566926 -57.48556155551945 57.28026728372117 -16.73551421153465 14.641261823025081 -94.33722405874046 -53.04207270355839 -18.63490673796883 51.287170278793056 
-66.58304644412644 101.37065451170061 -19.162968152810503 22.210082718121303 -8.991109528444747 -26.3688215472387 53.273316428385186 -14.043388957249682 -103.5849475730564 -7.933159748449852 16.063496962942512 17.449880208626116 -56.60891431771007 -74.17681455535887 36.53517630015138 35.21265323227134 -31.384701893121804 26.734328268028698 9.62377953900631 54.63905449661471 -14.395206394361258 -11.220020293174283 7.167857905205692 -47.97356374751117 -69.46911410153467 -19.868569033612435 -116.92671102155802 -67.80188671552457 17.781868863906357 2.7599578560692777 52.27394886209301 87.69115866085228 7.142812998554624 32.501911608819235 -48.40747582758196 -68.08963224047305 23.06774312915466 -39.42056493971586 50.9054484526219 86.93582967610945 -20.784505203665834 25.151824857478974 
-43.163150071509676 -11.684625792889495 15.63833672267459 70.02481545911459 -29.18249174177111 -36.78875877141342 56.617413741185665 -22.804158913035884 -26.36439355352804 30.40482506452938 33.39192370804941 -8.259240524799438 -82.8020966972253 2.489576622038034 6.7822786153621575 47.002130211992636 -4.673543908029537 -64.91890160716639 3.8582478762128147 -27.32205091509475 28.885110015109152 -17.153452302078687 23.966887393371294 29.117045109888636 34.912775101600374 -37.379915017335556 -8.900468679382172 -36.73216755116335 -101.95173458811935 -30.0417076709848 -65.07541906012975 0.12187333298471885 -16.71211544365872 15.166526749740777 -1.4821528150664363 -57.24652557241484 63.46311814545294 9.487586555119574 10.863491147347034 80.51218453718221 47.187293314615545 -85.10407108730354 
-3.3199421311695216 -3.340949582054149 -82.97619147323584 63.34423791718141 76.78643812749127 -3.3416320964671056 16.285767577488066 38.58353978274516 -33.3113966002617 20.472169080910465 -1.5040765172429278 12.105323437953189 54.99348091733401 63.203241678802065 -51.52810316032631 -10.560752269723428 66.14538708486178 -21.7056253775536 -4.532935322799898 16.376662164862225 64.14199709333332 63.01317253712632 68.58871082085287 11.964110231430881 -11.801737257590997 8.972690720899385 63.97703965071473 -31.305665698433852 -11.75170638254365 8.520347647853585 44.391809479801445 38.32170013089146 83.41979907224591 -10.33455861628196 71.78973628638475 -71.03625359856775 25.94750895134179 -33.61371381655954 34.6002263567074 49.507113241900704 10.293854545824773 -0.43091183563099966 
-72.49343976361568 22.39809662715056 -23.454753583879892 -45.199913983079675 32.52626359950253 61.693477338361696 -43.13952847981423 -8.675221139832981 -7.919926459505413 -24.76984983680473 -0.6989421526155906 -1.5522109888056552 39.69695969088174 -36.531903669560485 -69.05873195382519 -60.836343695841734 85.5955115892958 46.318958249794015 -50.61645845275508 -2.0711887967189044 11.60158616418372 -61.26196260706449 -0.07021605502203009 -35.68009853701605 -12.132461771664827 32.72159316503638 29.520742694519452 5.341971559105771 -3.0341833713361623 73.46090180592441 69.77012881918264 -6.4644612373431425 -18.883099043703677 56.11596056174735 27.6468604837317 42.86087310519847 14.898874411252853 -51.09795603233063 -53.43841043604089 6.817022347055033 -29.547107167672795 72.99257538073937 
75.41604623831819 -29.58025171844277 -146.51441200366168 -2.693070662362634 61.389064990476946 9.411556611042357 89.248223340364 -25.073060488896648 -16.968087837398876 -20.491994438756365 38.99842504950414 -58.695417390166405 -67.96932711275066 47.871962204457645 -8.068441437488906 112.28154655710804 -39.36806426427467 6.488394294393807 -42.8454890202812 46.35264688684337 10.677604016556593 14.414287068098718 -145.04390840251722 3.3550319621460933 52.44433159424607 65.1570380050295 84.79441902705166 -27.34906767159018 -1.814541276928773 -23.92154442623473 -5.2874863097525 66.54638833026141 -3.7894058171152962 -17.78258492437977 -28.30337706428733 -59.577323712987884 84.92264599750045 14.457997426138759 7.991522001420693 35.101443601081215 38.503408175908916 -17.178738459930177 
23.220388715195035 10.391233474359154 -91.78050983998253 10.201260302037772 -14.823213218594542 34.56654864462292 -14.17819521834853 -9.034841119363707 39.77643234226425 75.24097901145973 31.75415763061549 -41.32130460096137 88.66973933983134 -17.732085776929544 37.830606352478426 24.977548098137706 -44.20910190149755 -10.542607952374711 85.81149679714123 32.63727088745387 -19.648700067197563 17.27778850711902 2.2350710512545318 92.8595047109115 64.03722501396666 -44.3292282942429 -100.37672596946827 -23.00606451253544 18.601756014840433 -48.362797200407634 -24.612995440139937 41.3853886655936 12.673400297145692 27.639042816698883 68.31143904825763 24.908927006303713 36.14425658126713 -69.0184047617522 13.603921769629746 49.13734752228421 -64.88069572166033 -42.330899571150965 
30.824472878295907 11.653907566898605 33.85205923036264 2.467310519828257 116.7954490255558 67.44145834915716 -8.414683296872068 -20.07338941328902 21.19476835718157 -9.5820932742255 -31.91549913234625 -72.35131391225639 -11.776313513193523 -12.252956923808433 -49.36807326315596 -7.664756502576073 3.21389980615833 53.41742416182603 -1.8931567406728163 6.404891325578748 57.01194147675272 63.43800253289695 9.879564778834549 29.66664357199227 41.71630733846555 62.37351946422527 2.942251294754279 34.395549660893934 25.129650203905733 -70.6044261419969 -40.62688112481048 39.816242067346465 50.49853106654379 -41.72555798308045 -44.382695207646044 -89.63887187449544 24.46345425240128 59.3103005141209 -37.306101842375185 15.945506832349276 -52.41283707389027 11.362523783797 
78.34144982458177 54.40384678752345 -24.388243633307926 -77.0485212199264 -55.5254595291033 14.50636683416574 -16.99668790571765 41.98976582302901 -18.206280873863196 51.691180471995224 -32.34719371710115 -36.0713545952755 -23.461819700775642 -71.11656785293835 34.32997395853367 20.227954733146973 78.6687799580925 -28.43031918450086 24.160837540689425 -76.03836824332566 2.7997982850987118 -69.09286651003555 0.5342030380596527 24.4523711926876 35.45584478882349 6.930817231233866 13.121449858262666 8.599767845439914 -17.608563807925314 72.11045547829026 -47.3058070979949 -42.89790458323407 22.91338767448354 49.5213963681488 -30.91271998664338 31.138477543920942 27.078318542662675 67.89602575295712 -27.73528937284571 23.416641913285417 44.75980454062432 -77.73489742069235 
64.69478356057128 -44.219243882732144 -55.71968854409219 37.21629142214255 17.47221744612785 -41.47597353517916 12.738295168990366 52.723567767901166 -60.60887759838461 -5.390213264141945 -22.305100435850147 -29.09754366410413 -34.32899325143781 -33.155225800190124 -33.172709624060445 -38.28267290977383 -5.292142639058006 -44.690813126326034 -53.56332522180907 46.6406837261577 -2.0409570051139547 -11.124691806498024 -25.276283500193053 7.805077566925091 -63.574221514167085 36.8269978131332 26.16285215868917 -54.258297885861 42.48057268782662 7.2552192751453 -36.37365002946237 68.26595447263894 9.082390588385431 22.264971591153618 39.893392086410785 -33.11887283759772 -24.639763811150566 -31.105778858449007 -58.56623235577204 -11.76040502878816 31.138591499664283 -127.27916146465058 
3.4829334153637763 -11.564143176164096 -10.935385123543366 32.73123377330581 -31.43518430615697 6.401903531778852 21.274207467849244 -58.221506481301404 3.551094607776986 14.20202903405207 -16.082079878844716 23.191057524325153 -25.58798509070166 -14.70373844447512 -17.450397489658595 19.97326509342606 -4.03332966040046 -10.647465728933797 -51.54644820453617 -8.143574534162573 -29.25318349574127 56.337865990100916 7.870258934172589 -37.80304672177993 -68.68418565401463 -63.383072729068225 -41.46752833053817 -31.21956912941467 -21.316616637079605 6.084664108416311 -77.04626384930594 18.338874705389266 45.361745284989865 -32.986160626804995 -77.45883706347819 15.747808644534935 -3.1142707995221475 -52.30843263629505 -26.25570941747478 -1.8671674328206311 6.514261695601545 -55.470737296747146 
7.1489548510018786 -2.4358964711389515 -28.577125160701264 32.04901862960812 -5.22792918541946 -2.7526366158884747 -28.36655410873177 12.58998268598027 -24.81955177538197 -21.401545433297194 -93.31084387902351 37.529998076005946 9.82312697947286 21.0715245533974 38.71021554016619 -1.9213173209035617 53.09287962170065 -4.077803393778888 -18.196810950976612 -9.869084368500427 26.904197496406596 4.560592007715906 55.76842215902124 -30.987943928202483 40.594155383929916 0.04273826254378849 -44.63591562972694 49.86974840657362 61.09870219042401 33.798255372997005 -5.369125020099684 -80.83097259199205 12.504530143899755 -14.815684183485411 -59.82037294566747 15.65311277104152 50.80329990049865 10.3155028265787 13.419564299800099 -23.469751164918463 70.84884681981181 -3.1656710465141567 
-65.46522756331086 -13.255047336333938 -36.00549075141346 -8.00535339412048 -21.694004579850905 -55.68197963766791 -57.55939301670927 -69.77535482649293 -58.13420378177338 -102.68537765017909 -18.76487112160295 40.93330554465934 42.2120816346825 30.85050908040648 31.028298949365006 4.657919644037278 -15.235458752413251 33.49053013927624 -65.89788482507724 15.095923309244261 4.67517355408646 -17.725998709474748 11.132534734376037 4.332296649958015 -38.75122251945233 8.032827671666508 -60.470222592287016 -12.856212235529867 27.279819982376974 -17.24518266763411 -45.540193370872 -31.759233137601225 -23.874947267886487 0.45452278420886116 18.597749570357582 -15.470218189510586 13.35813976726473 21.764025013706387 73.65565729808444 80.60296507747896 25.008594091411243 -24.09396371357402 
43.19512883548731 91.8793640727626 -9.03222540918214 5.557061656306327 1.9074440662903318 -6.740924561889482 23.459277157605577 -11.687580002046479 39.420985722757315 13.465333287690214 10.605583306005816 -14.436351345787719 -56.43513400895755 -28.84195791594587 30.35394248487104 14.138650616457452 7.894976117653748 27.656783649828338 51.90464351425263 -63.821063404168605 -6.500598635257419 -58.391508056083616 -12.739477964272368 25.098998920469867 11.679932175252175 45.68937123827749 -12.047240226136317 47.61605586963151 -7.992674995285807 -57.98194632017647 -95.71081319790491 3.080307187379476 59.21956729025866 33.97850134618739 64.0112476514861 -39.84103276780141 12.656943495196643 -62.49898871188491 -27.836592444736638 -34.256969424931555 -42.01384209089905 -9.479068187433988 
-38.981072190016256 -4.323596617449549 0.47611205135617285 73.98460147482989 -28.48895781025724 3.3928370840039683 -37.44924493588945 52.7937127185722 34.32381107804597 -20.02993629866104 36.53308270664245 -10.932413115712286 -56.118190628822624 -64.14846047469943 -1.194499917754638 -47.3235813782748 29.4622538395487 2.219663391297474 63.43373821286106 -31.00682668414359 117.64797556311244 -17.160907087389145 5.406052837643353 47.878534563851595 108.99071523660152 44.94401913865551 70.93156902314134 -59.4134575040776 -115.27905573611008 50.75703784728499 36.68050559955513 42.42918045160005 42.147470841313684 18.73605818478218 10.694172776342574 13.895798165263786 -10.728824350995934 18.55760054214168 -30.322461283026644 82.33223766158973 -2.85113885229727 7.291588001581891 
7.205424705644251 -66.0990873457447 -10.790344756257657 77.21647459349344 33.42034934251089 76.27220283582017 -44.398307106474164 6.371186626392668 20.12573065543179 -19.194308794854205 -85.71333131904534 39.327183644791184 -11.715420576923595 -72.0165186185501 -9.599221160252752 28.838918334745944 12.238520551084072 -1.8036111213805575 -57.215222919453154 -43.11290092183679 -10.953493690114827 49.70276083967106 34.193412598401885 32.9899118460348 -32.77497182221969 0.14552457511807637 46.07304632698149 28.648857709142707 67.62759461569964 12.964580840778522 -3.743537331328233 27.914299299303583 117.96904440599937 37.17179712293558 75.53366535437745 16.321580565182916 31.449983534717973 -20.790921161248338 9.155442330544645 -28.86204853130029 -44.14588695571936 -64.77151014160826 
-59.662084670941205 -30.879445875597284 -0.3680857590112749 -38.77774848579398 12.838570494201658 -111.55526473966954 -51.877760590600644 9.247984849982279 -58.041847195091876 -32.96969698571808 -35.89433551088982 -10.55589790276005 0.1743820718884754 59.152497934884785 -5.03820477416461 6.4494284091362175 -40.71270598187366 -45.85007256451769 -0.9263015993080849 52.082073399232044 -5.960429784452242 -75.90878577721368 116.56397090186837 49.22735800106451 72.62070179535473 -56.210177107469356 -40.4130354389537 -56.9182389170962 9.534017721846768 -75.46287829902384 -9.652712746511922 -51.72696338570284 45.683426126562644 -74.97408386330697 48.16089816283419 -9.704390969996975 -4.912312529836538 -45.93218346806186 -24.399854027798963 -129.790936296325 -97.69877727988649 43.225479043824514 
-1.5924154556678343 -26.43306299579945 -33.46140401437319 -44.55738912359574 -122.82060523966238 -50.80324843862129 29.83359048975694 19.999896401589904 79.49666641265928 -14.047097055786352 41.168616464977504 -3.8609280404507165 -24.240415094030908 -62.77971692164545 50.528711029322736 47.75725147373565 26.38346085584042 -3.61045793741787 9.119489361657664 26.277061386695983 -19.599769769282716 -5.541516325609354 -101.52413159927973 2.138556381876123 54.02002383889745 -34.49135289209434 -25.40272181896636 -16.957183893175102 56.455342344852724 -153.67788697083105 50.2313099761487 -12.292912012648925 34.52997997398827 -13.416139656983141 -4.1677872515333485 26.513385935022324 68.69294639335573 -8.99121359194938 20.428234301003013 -7.971584138004857 -59.903978088292966 18.721511640159655 
-64.41339928650093 73.1414819581325 9.935468864687973 69.86252755086237 81.68578177303833 48.86301602609499 71.94180108683948 10.728474754941383 52.28887476271766 35.59406258424213 -52.723680918909544 -19.200634495369766 -5.172949754437685 28.627095822188615 12.861586837568803 20.94060403413378 -61.36936407520151 42.376416030120474 84.07521200212679 -102.99727797832313 -32.92388901242887 71.06313528226157 -55.32546140483003 14.950909860050837 1.3484856798780103 -51.02081836240696 61.0021854935955 -21.211102090532556 13.390571804371056 17.55740785664334 -9.276814292700763 -61.23203029578884 20.802512402497392 -77.38193873229584 17.82853350126131 -7.2398340641712124 -42.41570988294916 -7.173882726719907 2.210327415200114 -32.57840932316774 -0.029137125306636834 13.595467418600517 
39.554660307823966 7.8012841315726575 -0.8244142231378768 -17.515353302965075 5.455365315582291 -37.38340520767919 28.54314388829373 10.13827326146329 47.27300625175067 -70.92850226326661 58.55136507563024 -61.61162335273571 -8.855062340285707 -79.15802019314593 41.33684046151815 -31.540984716603816 49.8356185237266 -50.167305725871856 -14.985520829365747 35.067342247019596 -43.66916261260316 -9.820579168697492 88.01264289496004 67.0379483026679 -39.47613559733776 -23.192767063042126 -79.88207809148072 -21.306881465899806 -37.62035241630318 -51.33742452711725 12.945177192491814 -90.65291146842445 15.980736911801921 27.606598271592528 17.302870709006992 76.36742510057215 31.871154455185756 72.10988085179139 2.32364326940672 -6.5384224742768335 37.3475165397482 -15.286540152831988 
67.44885299511986 -5.853955472227456 9.961421708351448 -47.406919332167085 -31.31413546878683 11.82729621407864 4.328931937550927 -64.30057947016354 -76.63054664799144 18.25184879875097 60.37204036594101 13.581662488594622 4.612037550933622 -24.909725395755245 -36.96390566399121 -76.32396615065635 -10.00646518727705 -5.976112739552204 63.12647521507996 72.39205933315469 7.472328603650966 124.4567426377052 2.964700161649808 -55.19158352990454 -4.8657360078644745 -13.27569423333158 -108.23865030367944 -56.53733918318394 8.73438815464295 10.686627968529844 17.171851850928146 11.230153889913947 0.534560727384624 7.774647872783965 -25.179916877742972 15.529697593394438 -89.37006303990862 84.29813405128586 36.09151807081884 -39.927930758446315 4.637708178198745 -71.22106813655755 
26.32931646773982 31.088271771793586 15.295489262925505 -9.803604443936521 4.706580539061978 47.51542103341181 88.72529204708582 17.23342018405601 28.010319265087112 13.156680546259583 95.41042251310316 35.180021990733565 38.2546078741925 1.0940650704372914 19.34637225150086 14.753415775898981 78.75604433140865 -19.545038776655442 -20.755740728320145 35.100958971432085 -74.19169248314265 27.80526791344921 -49.36674530731094 -59.93092078066939 32.480990181155754 78.86690250417912 -71.72128846356321 35.83191078296039 21.286680442330027 62.90400868906592 53.25687012404957 -17.1313612172275 35.29703804649074 -29.418829741439612 5.057553794926972 -49.500534565996176 -26.810457627317902 25.154494664343193 -52.011731659136565 -35.87134409371644 -84.40833806016506 -45.85279000863334 
-93.1433112643939 -5.942596761081313 -66.73474660888876 -37.86875253112273 38.41323504309453 -10.634176093419654 -19.682615462486396 -8.22927999101227 4.72121678215182 8.105196521482231 -19.639399698409697 30.096850634109977 -56.64075272163592 35.255448057607005 42.89084864689657 34.616183820812246 -25.44387255681321 -75.52268640324179 -17.243381513027483 23.465844134647284 3.853884573887747 -18.941122649893636 -91.12013483109803 11.653928692602049 63.985303377370734 42.74793889613681 7.889164988372702 -29.906961061779988 28.67564795466547 -21.867969904930757 -5.162064448614011 -15.75043255964777 20.340084446378963 -95.70552246756141 -35.41247862869272 -9.646023400999827 -17.745111543583835 -43.07165782105757 26.34571806761017 13.22362823074621 -62.940802194687315 11.426854477440777 
-102.6698861842042 53.27867421970911 -19.961392443172308 -8.959141016687783 15.46670498477634 -0.6408425613720854 -77.3521542708547 82.99975290745562 -11.419490600974695 -67.19551899170682 33.669061620568094 -9.261835278043263 12.084543730589663 -39.04227662708068 76.57340492463801 -53.282365821454505 -90.79539512672208 13.61492612776437 20.270118851809812 -38.02797641385793 25.13178906584267 -20.62381388925062 24.194928368133063 -49.89360820262355 6.755324199087236 -20.260771046524948 -19.412227228419354 -67.4024392989582 -35.52330792200084 -8.599358859349735 -44.71276035490144 -81.37339904832592 -21.5853445973522 70.87031058898323 -102.54006170646238 -51.21867298831684 9.435114669612457 -25.16979375891336 20.511559846159383 -66.46667473935227 97.67995605067189 31.231280126999625 
-66.97444674086037 -5.819998977981334 -20.155203022850284 -2.5936258757956523 -101.76811247687226 27.087027600263912 39.660957645447645 23.2280485637137 51.35775122422918 98.96537749102846 107.6074406788841 -15.852217703220807 17.24175553206904 23.700991970239194 74.2039343558584 -41.1152559303501 -20.55823575312004 65.14658211814344 -36.92153043628889 36.46208524348386 -68.65805346830493 -0.9697043844698262 -54.34376667990122 -5.389325914551135 -6.055799850135758 -45.06973799677965 -6.655524622102517 19.033355419166064 -15.779737463302212 50.18974988289567 6.831300052800237 7.094845778872706 59.47117628176344 -93.6055275242168 18.044368104758796 32.75744720045363 68.52105596512531 0.5888156972611757 -26.55033840278917 -10.436558193942895 -64.67371035159886 -66.12036601365725 
43.23366070101675 -20.872210560693325 -83.33825642775493 -50.0087186689949 -87.19447710064402 -42.233839381219035 33.75446725837148 -4.669626921803577 64.09175589555763 39.0892283192914 38.76312696348173 11.86008645538331 -14.690837613396093 40.56157944335139 28.0674049248288 -2.3414374686249118 -21.522331890735583 23.59367791812986 -22.65750021342136 44.255852865027286 22.36891266934363 -46.77983591248113 11.646749529251766 -8.181158968497803 84.05788059130998 25.034890434030935 -48.76851418168493 15.246471983300326 -68.77715932901674 70.74886258735296 6.746863499572793 37.39602509224584 -34.910515143486876 34.77143420841502 -45.555800766939186 49.949125888087586 -37.282229953993124 -30.732435126745855 -70.3120151021226 -40.87166920685292 -45.87893835467212 16.744774985859674 
26.05988664618032 -7.119774068324948 -10.048580210281743 5.347115305679332 64.72885712464472 80.97553668495296 14.29268237454401 -38.68192853609113 -63.58406682412393 -31.991980740231774 28.93467018608496 -26.477381967019472 52.22745005831924 -7.887103105382369 -11.293702977203763 58.51922585952349 5.411964354518561 -9.949516874149765 14.320801976894568 -39.60255030061543 33.59311482386784 14.12595873515702 44.69372813991237 40.871517652892074 -44.307273482003026 19.027359888901806 17.52002228128554 61.03274288492724 -43.21783882035815 -38.879805580513214 39.72108710628841 -57.3878637628272 11.742735086165187 9.876384384243988 -34.09108418830989 69.58219360169406 -3.174571740961568 79.63416387545621 -40.13523689426577 39.74764388086043 61.62622144606856 -56.34156400050759 
-69.50862060201669 -112.9431463004251 76.28419200864725 -19.204477704017428 -26.65863116131758 -20.77905760247176 10.11777388914602 5.472163402430687 -58.81711151816511 -60.671198828308704 48.99457495477219 -4.023046756769975 -59.07979327519101 -8.205421579733033 10.105281757364963 12.811758073561798 -44.60689761503991 -19.23632743173256 -13.530410598586288 30.706286719958218 28.046457555443826 92.36610853405307 10.654657094713599 39.23376213896517 16.01035830270948 55.725121364214345 -6.106207184507334 -38.671951068445075 22.653698288287377 -24.643020898007702 52.67709087226623 -41.312441660746984 -20.76398862498408 -5.943764801734521 93.99454461150432 -64.64583557991219 30.84881823418868 -34.64515211063077 17.940078167076496 -49.01962384151371 62.05821644838603 31.96750651333509 
3.616350979234836 -0.6950367350613124 71.93562334326063 -24.705644337242244 -18.7474231357094 -1.5638717755770977 -63.09902236164867 -22.279815723594695 -86.04064032323896 42.74958526946422 -6.503486207026124 23.60687942430343 -1.423091217408231 -36.44491269815623 0.7697642163198147 -29.783974871802005 44.73402926275715 -25.077097929549083 3.6314815575212913 49.46345715151706 -59.07942502243046 11.086819006725891 16.044500240267013 105.61065905765658 54.29967188417448 -29.619078536642863 51.108189525733984 18.98478359380652 -56.25386251957335 9.941034466326983 9.415817086158082 42.646721607241204 -3.7729577901960325 53.71972650047275 -43.12933236300025 -99.7958864629777 -28.24434549526371 -13.721632322042247 -47.3476832124536 -64.25479363639774 27.610129154743536 -13.32614787655872 
36.057900905762246 23.301980566715525 17.268452487587968 -65.06029082393826 25.74007606257124 8.115920789622157 3.1964162917952117 -12.848983908675086 -27.800043074775033 -6.616188303523818 47.76871686821316 -49.779666275219874 -54.40069726561164 23.73518368360119 -22.206545591726805 33.10060160179359 11.882922911554619 10.636176219078122 -7.079539376463144 53.725902404224264 -0.8681432463530345 -34.772239866635715 -60.63525094135643 -104.53932101554284 -28.815402898809637 -84.80441649095388 -17.029913820199788 -30.657997853515642 63.82716551981334 -6.4685683317980915 1.438959863412342 -28.069782346949903 3.2479263238201304 19.880589848450768 11.144962182676233 -14.965373559999284 -21.68356155796741 9.656384079429102 38.07215104594917 37.0025454006579 27.111077497360704 -10.0539884229238 
