67.43714169729779 51.609777837343216 -10.338918732356909 -8.315702561358915 -61.9873525273556 -7.3735098637920276 -58.01785652922191 72.96332969084001 6.122660727278523 47.70141350404764 -18.566555081591364 10.99840634217983 -53.30972661759647 -4.311182958023269 14.706352318266587 30.577214582779956 -52.617541579508654 -63.684830952789284 -47.20562449051948 -8.352862944636959 -48.034145181229015 1.70388765116062 -64.69223131403474 -17.16623829554087 74.4879646130891 -24.26534086416806 -7.673958460580984 16.201520123242197 14.824259419201105 26.707781755183685 28.481264841174696 -35.04494782206745 5.367866012902633 24.17952970885891 57.48519197859639 -14.265248157645072 -9.905244756544327 9.705900985994143 21.823572299176238 -26.23882000200926 -0.4914367032323753 20.04614137235468 
12.127770124161442 -22.086755064927026 16.160917193252804 -33.289422203755954 -58.813716080260214 15.123065119319271 28.088004248544642 -50.70423957987558 -41.7100161655025 -37.81815610048414 -55.52016853315863 28.96079481333663 -7.091723034530708 -12.322877242574963 9.377974331839951 -46.47441071617405 -10.8130709014997 -77.55873515844785 -38.911911691672266 102.28709075255513 11.251397034785482 -63.140555863846956 20.234814281760997 16.016164550458875 40.44210214472389 -8.295648734338197 60.965694703249255 -50.16166647928492 41.72712877074359 -61.78485877030202 -107.9415462931264 102.33980191606697 -12.512471949646693 -68.6735794988715 18.14800317411574 67.96032973396582 26.134740472810392 -14.581759748746569 56.64051927069087 52.624728120359116 16.06806679689195 52.11777905032423 
0.7963042085100465 -23.921592953611476 -103.39200966359034 16.491895585883725 -53.10241525519665 35.436393995689166 -106.8173776352943 41.136115245884284 -21.840714550278967 -0.7275714056114915 13.018035773509633 -17.316333573473816 46.985314572484405 43.22754875096461 25.489453275235196 -47.02304120866756 30.192392291974823 -18.940549519436832 17.621439304918237 91.23308630870406 77.34159519854245 -23.73172663837888 -5.128893730308847 -52.10546798640272 76.68335775105307 -48.112637453599575 -10.205424990603028 -23.04312272110813 -12.834280880036369 112.56947076100698 -7.901767822178247 9.862692888658552 65.8471783940425 64.73335086477046 68.28133180015338 3.6126278468718316 32.215333036032234 -75.60728827101723 48.15353890494091 34.526229242074 70.89911662592027 66.61422770506933 
30.082871840698765 -48.63936020538874 -129.8404890316396 -30.676181717471625 103.45582881272136 -28.336186900890674 -104.95611753825128 74.00653746136531 -18.96334447772394 9.692526480960233 19.541604010291575 -1.103431694798349 68.74414323125048 11.727076541461383 -28.706493804872814 -15.305587751777555 40.582058989532456 53.25071348446046 -5.1044096197541 -73.00140422981372 -31.697571011063015 -13.422734070506719 -35.1136162638247 -6.067481556745472 -11.835879866928384 -3.4888871702327298 -9.996217828609744 -53.479515693248985 24.28813874379824 33.791645310724135 92.84983531275934 17.90563411393816 -137.84202961941452 -10.108594272304058 58.086915969855625 65.42922929490452 38.46817233778982 -11.77380561037882 -61.39961275347806 -0.9656284358832543 -44.86521757754089 -99.00783454487919 
14.602716725393108 48.612533898755174 65.20681374049184 -68.5414467240708 -16.97506738102321 -25.801717667466804 -25.42170862673798 43.84077025028427 32.22636472910818 51.79502036112343 -42.255762128764566 84.7175950038987 -64.66957119660452 5.105463111618718 -17.74525217137654 -98.79814568023772 6.65159968363815 -56.32265804919612 76.27959816271738 10.256316491435268 -51.996666739772834 16.699073326209714 26.815597457420576 -27.873730139647652 -74.68228321361721 81.76846523121861 -11.859148511151963 37.99214856969867 -5.552156750033384 -16.35374740286087 9.193154382974992 -57.639833697482196 -54.80889355787869 4.813048957006535 -84.32852310849974 36.97907296763259 113.18734887813768 -55.43393523119388 -14.438857590827197 46.308317194458745 -20.99981071575109 -31.33891768908205 
5.044152234964413 -39.47818310324178 -0.6375115982921469 -13.99366925641099 -4.886104970843499 17.050593209771716 30.001334195427155 101.90558627220665 -92.72315010613387 -16.159671373592122 -31.247370451884578 -43.117957041855504 25.588568498132357 -56.85273096395346 36.613398597357 35.9553890779096 -102.04353442171025 -55.66465889939022 -17.5514201852519 25.091491355247978 -19.104091541838663 32.57883484362007 -27.861028060884323 -66.53771588357978 -14.811806836277354 26.23969370768545 -84.1936229086476 -19.924210137242817 29.020043999255005 20.118071483751727 76.30570592748897 -47.735614452495696 -72.7603185970002 -45.60849359901783 37.381255300650764 23.74965728716935 12.167483904189343 20.519694601657978 36.16713757802588 32.64941887895426 -5.5270520566742 9.189946722573575 
-66.59249786131583 -120.56057245353625 30.280225816872314 -34.22174024090518 65.10708627066226 -8.5712333501438 -35.5231884981455 -36.776517603406546 -70.71378524221838 -37.075582521930215 -53.21625403600746 -6.188315770803175 -7.899838939254981 59.910500873426614 -41.757951101558845 -26.744195960747618 -82.84491896378947 51.00016175983992 9.590079521747715 28.607576007400972 24.225518148420235 -48.61278895301362 -12.321714085507 -27.26999223448273 17.742058674904413 -70.52970354354211 3.6264091160706453 28.386900057338057 37.03708670180693 28.713918670715902 -0.21114612231763577 -52.64358041065374 -26.956944545137958 48.65203450707391 22.460664166853313 -104.67029188105215 86.7938508632757 42.61496611777479 8.208445367298676 -20.539821869490353 102.96299165278378 26.2583983355279 
-26.2237621884165 28.262532718018473 45.85296607929153 -18.728363091738288 -51.84587945798014 -16.8410419720249 49.21573318516921 1.0539507952128684 -51.27689820378763 42.938881826931855 110.17833329605517 -2.6110480445984225 5.5415135522561325 7.082783548975419 -61.588390171854236 -7.353826549833376 -24.29852121075164 -0.881873409829008 0.911507306005983 -34.05158730472804 -82.39243915213954 -112.41545395849201 26.00448088607418 -70.33083109228849 40.78766259961399 -5.492991559714547 -39.21745344978366 33.13010463753813 -76.9199855632425 -9.933842593860229 32.70867046558099 -99.77924832129561 21.209860723041878 2.080707016099146 102.66705129640543 -39.03981147366376 -20.609256605207765 29.90802833194212 -49.645840709810905 -67.81041990873759 39.99099928881183 -29.088762480951132 
-38.41351218685358 -41.61927366643967 -1.809503791511235 51.41932502652099 -19.375536857414403 -44.107667569242345 -41.84549263911893 -28.338115091389174 33.21506737396963 -21.97282326303935 136.56773837745442 -21.76355241158013 -79.86034348964365 -51.611977284990495 -32.14693637541702 7.166782652132642 -34.910411326245715 -24.998805033594294 122.3126943228453 -52.5835998065798 79.24072607718173 -18.73192812190823 23.960275310997424 55.370486458597924 -22.033292587596467 4.223218331088106 -30.911047395941527 -17.682927637661827 15.060106158602508 72.07973812390068 -27.850572364826295 35.243503516948806 31.019805278264734 36.79353977226766 75.67906275488919 10.862295516191969 9.033019669941593 72.38273085616632 -38.452876661468046 -11.4169588636889 7.332588256305061 18.155486898170242 
-53.376407342738844 10.302324075225917 2.115408622347271 94.8670994201859 -53.254412698905384 17.337248433249833 37.397046751167316 -10.827391938405205 27.07453746847672 23.398289170935467 -89.73094368561154 2.1191187353573224 40.249834401833176 108.47957302646321 5.318450142369935 5.793126974646834 60.041320091554525 -26.140465657324754 71.90788749746896 26.40259781479769 25.879075183805565 -38.30635778497926 -83.1126563931249 -43.93957009924002 29.45800022691488 42.12607411950583 -22.143699930196142 -15.101965931234837 -53.86677065829204 24.365194032211697 -67.34404063664303 35.471586559144235 -5.462934454199336 28.561786039497512 -41.08454059623601 50.815156504175484 4.6513867269015465 -26.988598122795384 -39.66388781447808 -26.097938883341104 -11.046702664345771 -0.1870349030627095 
7.376621849403159 44.232094091022766 -16.850186962677956 -120.89787487669024 41.72207646823788 -81.06610722410198 -26.19284040082184 -58.24486251929699 -33.72835747368417 -53.36377754721513 -16.14140059700818 -13.902559399583415 2.7330376961985765 -24.16372749645574 4.622963685763271 120.90896839541553 -57.686770326698074 -32.96977006988398 -17.48543286371202 -57.53397278757294 -42.36122682924397 29.667166288555997 5.479805502676277 29.541912876895317 -0.26304128880827643 36.571558366527675 -40.23080082451548 72.3170681898568 39.64830232821039 43.207213991253674 -19.28661977212118 46.3812358827634 31.93157820625812 -60.49801179295051 25.986811433168924 -26.390230620576443 20.107696469872142 64.25995838687743 48.58833501663294 22.196895467717614 -90.08480360133645 48.81216145283754 
-29.439165808683153 -23.506673373487484 -49.1538440576649 7.1533268058854365 22.137591561475357 64.50799421748754 61.49918119273399 -9.201253647270176 -2.229285786937874 -18.40374650041513 24.77093821540332 45.36502233656829 -16.059420332643413 -22.310701304531406 -0.6893062246396818 -18.19433369875794 16.388600335185767 -36.195627956351935 17.324427188395592 -119.24606375294502 88.67919357148698 72.00881057197975 144.61578435934237 -20.996646324450687 85.1873356949799 -55.585397646495096 111.7576724921204 -41.75721280261352 74.74993757826464 15.941412190128867 -14.7695418014165 -12.77164981067692 52.27974525293935 -29.172813907904686 -86.36404824865632 -21.316486347527952 -79.58474378026234 -39.00374317234721 -56.573914573721595 28.778727385110937 19.10706283669775 -31.272114734701894 
1.2567819611404898 58.37851901738323 32.35074113981551 -31.96635025603638 6.436123899749433 -13.857181128963777 100.96949777877403 14.261324694049499 -26.95378676513533 21.35692815791444 -5.239297454845373 8.38060298667319 4.827840001510471 -48.47952697970167 -6.697514766728415 15.528729384682288 48.69596439552551 -34.26670538262212 -24.841816782095098 -25.444754598614487 -7.307810551489423 20.317500823577404 17.822367833896358 -35.13948168599607 67.42079474921933 44.622215759155026 87.41657058500637 -44.961408133452544 -78.80350990015589 -5.967351046680515 -73.16493968308973 6.088744708948424 9.394589481573556 -18.796321870087056 -42.50045026063809 25.665713298061792 72.11755982070925 -12.13912438767869 2.5987237010859805 33.08340596270904 7.843070341093076 17.148322619440084 
19.488190375120453 -35.19588481518255 -17.20780562952916 -40.28559978079991 36.786037226121834 21.993947274333618 12.892893348850572 -8.501129751329144 71.02939067527139 40.75985811441276 0.045574429387326976 81.13834828051522 20.202112885923896 25.338725567288158 18.958180342857524 36.340256928108076 -78.91503470574658 -61.06822304331075 -8.672091604260986 -47.91320062414964 -14.01906130994376 29.18413024760835 66.20264092513327 -5.802525844276726 65.22062476162151 -96.53744993118005 -38.023485609334514 42.42273875429273 -42.73402997025553 12.965765307823904 -42.756777143169664 -10.270487941757331 40.611717113708096 82.98688909038799 -9.134915916047122 -66.6983562963916 40.5037008556497 37.81284789316746 35.14006403872311 -48.529622957813025 18.699129022857573 -41.03399632797645 
89.13514700821322 -9.85679709361964 -15.396871604890276 11.769618766890778 -18.304769822314032 9.908232985751468 20.87631851743525 -13.47408416035638 -114.8601578956037 -122.34810897532904 -74.03437828813914 -8.805999195511854 92.21723325255876 18.0840666107964 26.74191895231905 8.310391392224027 0.6267524793321405 69.67303381282443 -23.91221902589813 -70.91877719215748 -0.5656279058448334 5.89004864806226 50.83291015957326 -10.54020622753496 55.240018557167275 82.48051808291373 12.798122036305145 10.799484125044712 -20.986797116686084 107.126505585815 -46.68889692898097 -60.48469611082943 -50.00572183124539 -38.80831079791301 54.5623170335742 -19.831000301921065 2.931930897135996 -24.045944337352125 24.866012926668336 76.86098218283355 7.566200817211174 -7.702621763451992 
4.026357911547032 0.6579100030353383 0.46213614036839873 22.490516405272018 -11.022998595595832 -3.814373998687883 -78.06052805027116 43.96478705915296 -77.21577930658768 -65.36906192911349 -65.00314231213208 38.267345340023134 -91.9381221573854 19.521113979651055 24.055108520829943 -39.044118454155665 49.35943821025577 40.77934807134168 61.64873916267919 12.015725880959574 -119.29576781610038 21.92609588896722 22.27087143977127 41.563466824226204 5.9301964520086194 6.553020826616961 -52.67543870156052 29.51756753063989 -18.253739796422416 -92.73471476551249 -9.001172299136504 34.773733492584206 -5.460721503551539 104.063509048049 58.925267834712116 -16.224593920637012 -19.10898583357461 23.972390295578478 35.18137856106261 83.71417710756734 3.6182764626642085 60.03946241313431 
73.57640753211574 99.46084842176667 -33.76725846197818 -58.46752943017352 -56.81222442113239 25.22703662814521 -53.148171488516255 -38.51503314865338 23.448963433545494 -11.86041089088834 88.70232523928216 21.495498132864373 2.7204525564796267 -33.0264939224053 105.45643177499953 -30.299638738038233 -47.1435199715701 63.99837194117358 -10.21205390783757 -19.575725201581058 -37.58317875750299 -97.57526263755146 -4.99411487218545 42.59248624289391 117.31038019813 30.071446770064657 -122.7193563437726 -31.254471500949705 52.817389119240715 -9.531992699269688 -17.185327667448 -73.67926436362131 13.056266424484217 51.806858490174434 33.13524983067372 8.277603287475285 19.78634321401066 1.2124266921716602 2.8700469778464317 101.54372036127685 -61.93100264541997 12.408000913809241 
-55.070115030383455 -78.59754801763316 48.29115976304388 16.46864926765124 6.485420033059939 21.683262430887137 44.99327097207206 -51.15007256010356 44.68481525316129 -44.824294977495406 -19.64984677153007 -24.67978237886933 0.18361603052859005 -30.633220271425003 -9.394278990441952 16.75658677221752 -63.73168477394843 -23.474705452506658 34.16642089502266 28.256704182513108 0.1189234483424493 33.131588743138316 131.0731645690407 89.49992421510814 -39.93869098113752 -14.62664662735457 -12.88755113376365 -30.32210270223639 45.73425102102911 -10.730099644129863 47.443977774895345 22.304957872619713 64.26213778742859 -14.472744334023433 -48.49865570733297 -142.1740650724591 22.30209643346279 19.63620978632812 2.0872828477244347 -53.146696334286695 -16.00342530621765 -64.07079399885846 
-62.79364060922198 79.21184222176441 -65.2597607071977 -4.239869355728683 -37.570648220053144 -88.3336164355446 -37.57936643478307 -24.743982964774123 -6.484410982069511 0.6513175179461904 -55.52435556509796 -99.28769133435088 6.039776024564244 61.20619130771547 95.22673698204146 -5.379072463378822 -76.9939211493049 43.700387949615575 -43.69101134352123 67.3115379072389 -8.741536906897057 -83.70989581651807 7.976078021910828 77.09144290334562 -26.200981788389228 -43.167593681604146 6.866839632681498 -29.60562220950538 60.757608696153895 59.115030534858995 -35.95236114500104 -5.654824279566245 -54.11387405399814 -18.234034150636447 13.008122188315424 16.051820653692037 -0.972509288010213 69.6153382186634 76.56252971950688 -0.6857421914781399 35.938670061806604 43.95424768570732 
37.77521029031128 -68.23234410923882 62.002532322278995 61.57233516970389 10.812443563095961 -54.22527309815416 8.298429411966413 24.680372146277225 0.7432457684073124 28.026096647676106 -8.656133884042557 -3.7944114474697788 67.46973819876915 -13.155905848637497 -21.483907665927333 -22.723930542465563 -23.071875419872786 35.421313459888076 -37.040579749428304 -26.014723892553626 -15.049946915269736 -54.65966081658209 9.569286193168294 0.5236205384182223 -16.74275352662923 -35.55174462716974 10.828156207313517 -51.78104421464195 33.84910074790612 14.025577127267088 -76.7545377043393 -39.10475245756328 -2.998331107691764 -64.9743141588727 73.0843195792605 -1.8648023775535754 23.49434902284872 -10.215315117263922 75.40740765450462 -31.16948839886489 29.517783681546234 -72.31248013683778 
-7.960905744910287 -62.10603438834191 -15.19546446387664 -49.274425551966985 6.4266673498305185 -4.096414351429458 -97.89075913900899 -7.968676414694999 20.028534658957977 -35.868005484958985 -15.625018920628882 -37.78859392864414 69.0073941268836 -32.832752068253576 -21.12655241084708 -22.096379605638276 28.799442151604083 0.5564345541428116 43.48939062939034 -48.91911640955533 19.98065975854281 72.59434712444188 115.52737206196147 -28.266194063184898 15.37316627369294 6.682168849394744 -67.22791705942483 8.032957207069119 17.53137940704899 -0.6810141519031351 -26.444546911941007 -6.235636118123225 -20.18806503184912 39.356915478927384 56.833495017511304 -39.45722801047774 -9.074011735028442 80.2811479853319 33.86562677358882 14.472325576041447 0.3018105092595792 1.608716068875837 
-33.381979874126884 -42.545708699277846 -17.928108885108504 88.4628293943207 -26.686086117751582 55.0667242359942 63.26522508571522 16.39113411895532 4.089796668287833 34.85515763587569 24.078720353745883 -30.73798213766222 -24.38591493861449 111.79434259190506 -2.7234453297192744 -28.706865485870967 -33.860231735605176 49.447525480017 -14.305303042451769 69.33926572384418 77.63835557212086 1.6593719092176282 43.60318249468431 -44.98324358625588 9.060785872126615 -27.606995712112642 -36.827381746860105 -48.083239468961416 21.809765983490443 -91.1341278577155 -84.43935252942475 -44.90390447186931 20.377859009918428 -17.492694365075856 -44.58535455875027 -61.468943935474584 11.629479350452774 -12.04792960946116 -98.74662589826438 -40.29181993777051 22.15058003714454 -69.16066556384806 
18.649064078707006 -50.018380428253586 101.55474901711257 -10.685544619639975 21.64773615781363 -34.22838510185035 -36.850355664017634 24.81339348171021 -40.22912179549642 86.26967264402526 -18.93476872801487 19.476981853662803 77.81750472010684 6.540911536174601 8.994009864473991 -47.99175785464218 15.30885470670323 21.17267275969518 -7.8397350673818345 -24.10680883756708 9.370121813833585 26.06373238320116 -18.74104985851036 -4.945752748331769 -13.857658199409022 12.692870602715507 -25.832506956928846 -35.06790875983 -97.07903384687312 -58.649054723407914 9.861980164855 -26.79275456437869 8.4460595441236 5.38322408580678 -44.48348790644164 -102.35260454806702 -48.41993251109685 41.922065874699925 42.93301350382497 26.111709475140778 90.62157699743189 -44.2931912000456 
-8.723356549093817 -1.7586455011264923 -100.48969561495569 -32.42059820581769 31.872137034902064 -58.97127982542661 -30.197564295863675 -36.054196055690426 0.7082715025829319 -9.10017608657825 -1.2119756878141161 -6.289798976244912 -1.9268713322079316 38.88640806964706 -66.80505454672048 -52.015494457772256 114.62833447874064 -8.043468737249551 67.394242144576 22.385138010955163 10.954054793962873 28.755793429830277 -39.2162082103659 25.921571021543393 -21.188954170917924 -13.595460527882135 -49.4463970485095 6.939242312386003 34.787920669682016 -29.724774302025665 32.70883145946425 -23.997586159306824 43.11513452291875 -24.663495717704176 44.42163354821585 5.396595957797598 -29.924799622189642 4.673855091862368 -28.22006656007157 -15.260517216411369 -73.79095964218745 -30.11890047935254 
11.88593774732252 -39.10890889149162 -82.21196593327632 57.55577078861102 5.8070729099132645 -53.28647882005317 14.215569333489228 3.9354237648440193 -65.17299934029803 -66.62713013365625 -6.214610188989544 -19.926683622517455 -12.753831860804885 29.22149948167559 -3.6619300341058874 3.2717359492947 2.1630004256064495 -14.67472337719132 -1.5449470895301043 9.61597277716545 -11.219431056923305 39.56854756065145 25.87696291980055 118.07949606092109 1.571393405066625 -53.54716069637718 47.08252458592856 -27.8991069758215 -38.50641905108897 -5.200247875471477 -5.393087614884883 -35.666659519572626 20.539958469672595 -13.074058268358097 105.769938323614 18.249381762143326 -56.51056336398631 81.76413846051312 -50.00015663601536 -109.05310167318655 -25.382060499742767 19.236338413646894 
-11.575464582727212 77.14487695681251 0.21014958801503672 78.11232841968132 -7.086128271077258 -51.45625067919455 -80.51561970170539 -12.105856760692884 5.67633579349394 -93.97207536426683 26.060142983839196 22.12306728991211 -2.1424729713292687 -41.514759672141494 31.632494134860018 73.82686308326055 21.887334691113836 -3.303393695884066 14.32131117571282 0.4943422991743343 35.216210975458786 -21.016536990953217 -5.156074520076195 63.398311438899306 -20.144990323245292 -16.578347781670317 6.173496124367661 -37.57839524986838 15.960291260909253 1.2763712014851138 -57.9972150891949 -31.626987422262623 -14.723224361906226 -24.9744957776311 32.73694744535079 23.411287516529523 38.65452467955003 -43.22049629431452 87.06648298969377 31.61963444027189 8.032339816376375 -36.17728419735727 
51.47982807209301 37.03990544660381 21.7187314295244 -92.6810617398718 -31.50207898047956 -100.2723865955017 11.655102024323167 -77.20259268384682 -37.37112587247153 -39.41176893560235 -88.31153375097014 60.396997133062015 40.70889436659696 34.32203477254427 32.674821498762455 -8.635924315311007 -32.876310446823624 56.650560061098 -51.79315852065663 28.74265763758254 23.880934200102235 -33.23222569754471 109.98795286364611 41.555218637574534 26.76163996563107 63.61335898000843 71.14294553289815 -16.258515629748395 -24.01464355454564 -18.870141581205484 5.319093038103643 -46.60550581524785 1.367968360990866 6.560800326018494 -33.54787522319086 -5.362266709477847 26.692816500876305 -7.3800981843096345 30.177456907248796 -3.410516012858253 28.111215849483404 -106.94069937729346 
107.63651596883915 -41.454398803249425 11.972190288344919 42.67148694118387 0.6867926581972464 -53.33096216844559 -59.517753820540904 -1.2760051318634644 18.27002815851869 84.46541592886699 -22.47070876947227 -69.38923939840801 50.60679339186298 -46.25094495778863 79.43390820818254 -40.918197652245574 35.17982646581084 48.64232747555671 -23.89628119798689 63.77988511545344 -11.691247487937261 -27.903212319906004 27.53450769283053 -26.071199167084835 -1.8335322921283648 13.387289701160958 -62.11861637688349 13.624190400076804 -20.953211220303643 -88.76955859907618 -4.949344320548198 31.723313136825105 -62.87640569675212 28.295520190235795 24.80127990897388 51.20455226904375 38.62984718910762 42.27757702362726 -79.32886167638863 -82.18993054861345 25.068746781675646 -4.788404326824753 
-7.324956551220477 8.759448593110886 22.679099951306977 -23.098365691472146 -35.7486481366397 -66.34757465484971 -90.02603742710066 -26.817744803160736 74.74639233121998 12.528937561269789 -61.55945891670947 -30.902252994651594 -122.4824584123131 6.21145229625023 23.841174215108648 31.126032472743546 -7.553212112745055 -38.33423049620765 -19.13904993912993 11.411838791821244 22.556973725367783 85.27718460125614 -45.27760010964245 33.473789968311856 33.171167796832215 17.094324648960328 32.859373352576135 16.820498013349393 12.02606714240147 -58.0865680446451 24.804769469835332 21.376867303920104 -20.489722700422387 0.23280225989175185 59.53322974662986 91.25532918386912 12.748239003011559 -75.21055387686043 -23.06365084593058 89.65487227114367 26.882786286544434 8.480288181145202 
35.95883722086048 2.632345581889365 -63.06757750439183 -106.0786647847979 -45.87543103949394 46.88169506642626 -20.679760214229404 -31.803685218439632 -22.23963715190243 27.429963748544417 -47.796778668985986 -54.28540375597748 -23.083336692446014 -80.10402288439019 -22.138486081951086 53.81052807202221 -35.54015921803037 -9.353127935758721 -7.027150106261745 -50.69137243924274 6.538669939580866 60.97524924875054 -8.711656657469886 75.81269740591937 -59.015286475211674 -66.81993753034085 -3.943073839486549 55.97050778244 60.65761166124119 -33.14599332573633 -14.69395083177522 38.66031753238655 -26.148941803129553 -38.18402225654632 -31.679837014972627 67.71205660932483 -55.838082500039135 -44.808424163342146 0.6596481920279734 -103.63962653203609 68.8672437560172 43.46265245871191 
-19.44229775333635 74.0992176803498 25.839445254498248 14.288950731582455 12.186127239818905 24.7426797616686 2.892228543603122 13.191665799139557 -62.00584292758174 -37.18980237194344 25.869210432320862 0.6360892574244813 2.95756741302016 28.245647201952085 102.09099743090066 -69.29282373273797 21.473493787430893 100.03532961458892 52.91170393029237 43.26322303745727 76.0002464132158 61.416526414948784 -35.67478082452641 -2.8786544641157197 41.092646181808 -47.273477944706066 115.80075296698826 -13.832587676833187 64.1157338866004 22.85927310306614 -27.408028555388086 -33.52867458909895 -14.033361833681626 27.640059089239088 -19.081374907129504 6.483172821697036 16.118759016399103 -39.287263415967445 83.90484445283626 -73.65115637497755 32.8945153054362 21.25907046573598 
32.60472918555113 -98.33825019854388 0.345658383797397 -44.77175315351212 -29.01379669798056 -8.932107794068367 17.928249723840974 -29.621959638584997 56.10587805146654 -65.34329228365743 -5.537291905022303 19.90573816513136 27.23698813916522 -55.05837853262306 -15.43838978746449 44.84758020483815 -54.30201065594629 -47.73089612627625 42.22569833117912 11.533527664267615 21.827889635308086 -63.85910072431132 -24.89773237356168 33.22535389929104 102.5182933884352 -50.36473089344799 42.42153466417816 29.384654764032526 35.98821911297064 39.859527764505415 24.45497986006656 -1.8537166893583534 -12.634375938551361 -8.82870580607819 -9.49725856602708 35.065642932453876 -10.452845810185304 52.44490674517888 -2.315233893512283 26.60945154135264 -4.0084732865379795 43.95570258747561 
70.94195210517657 85.60384071262833 -98.19640430460579 -6.852468340488242 -2.062103979588261 76.48743290455323 -41.04062637267936 34.170589425571855 -82.44640869860068 31.939762608814824 -88.63426123925136 -61.45693753562312 11.704772783382207 -42.01140640712261 45.37691022979392 49.17035972761274 -21.779740730167557 71.60910209647797 -12.708519738401591 -3.546374350285784 142.20175078125666 -23.44686522552502 -21.059456822094493 -42.79829049199164 -24.563985159650436 -58.53111397452269 -3.418634508232285 73.85423639898323 42.496138248580394 -36.2035112177265 64.58591179919193 -31.243706559470713 18.03293375244854 9.748459163454047 -11.5671404613908 -92.69405926060315 -5.166249208890597 -30.517733068545176 25.488331929656766 97.64856189118042 18.54123244606091 -12.801895029288751 
-91.9014207295346 -25.392685177386575 73.09289474317717 -18.988961997565283 65.83710730370599 41.20674315738761 39.902589813704026 84.0302202663191 81.54344554221628 -88.31527256430536 -80.3860263011868 34.75879785764114 16.48894309951142 58.937010464666805 -0.4538121133829671 -22.186736680192794 32.38280720356916 29.98032087360652 -14.30250676172285 -41.190067450424344 11.678594566694926 17.230595293006516 -45.36856518296155 3.8230176022577953 83.85550338671487 37.028103222975204 6.181173394186024 48.85050836432894 -11.219906202414437 -33.05236792230755 -1.815576261128647 -7.676755193066901 92.70371170497313 63.68883845886343 -13.724917788140758 -37.79422345122232 -39.25336065128986 54.5059802744441 -92.24531290448238 -7.244297018915359 10.95471138697063 49.09281995521914 
49.91998380752795 39.92328116081434 39.46429208294463 -5.546822882990649 -9.963373443964556 -43.31164782427008 -76.85091686656844 14.336533922075633 -1.645399253739023 -61.016741132022005 8.513279216558525 64.29990057788628 -54.55301362331971 -24.46147029525941 -62.848494057024844 -7.6049405018174285 -17.24794750132578 17.037545749346826 24.01983160975651 2.926240681954502 1.9112951150780635 22.68799188677073 -52.65662676458653 2.064863041827999 28.7171114496608 3.8989547727474254 -26.995890066378596 2.0983683646487212 -47.174344935311495 -8.450661365108106 48.8073270354377 4.453741021981034 -38.02161057096916 114.81188668774362 -39.670915207106155 35.72450222453892 20.644659756762508 40.65826417995855 19.76556013714468 61.17983554260954 -13.23549211587965 -71.44971475856687 
18.41624651519175 1.1794617625685888 2.7665993496102073 -77.04725009956938 7.122548364222212 114.75320752229096 6.826158735581518 -55.065908464064 33.61522436459786 -16.139558836998187 56.77387293007307 48.06763585124355 -84.31746653764534 -121.66001476041387 -72.00090529580042 30.46269995478264 -100.14306322880516 -25.407014949365315 -49.15624576224756 -44.63545597514044 -44.196803329208294 -15.92997930289325 -63.01691114514003 -59.51361175795206 -17.254291416045852 -7.703870356709868 15.30465833138299 3.307341375621462 -38.51703966868792 -44.491572204635794 130.4042431620102 -53.029462400496556 50.75775341770986 20.86766445665969 -75.62023467693521 13.126463860775814 -52.66756773682001 107.26043502496613 55.25992101015137 -52.1423700376003 7.113307789452877 -14.843741965710201 
15.144745666817743 54.56688700922327 -31.234432353857624 -121.32710807514582 -8.789847364146716 -74.73782121983969 -11.91861020278543 -9.395543680892553 -8.256566571753758 7.897183919658557 -67.92780515570061 -46.21544087888554 -30.56018055969361 -70.80619812895769 -63.85246106649318 45.51885694446081 -72.96426928907714 -18.89622370619953 -21.848127927029832 -11.482612295558452 50.4764893264589 39.96737113063316 -46.88971714915755 54.39508246586318 -11.080774055381779 -15.865671145937647 -43.414350510248454 6.510971720874111 111.20112772944893 4.038164273854382 32.52700767308115 46.891987650371995 -76.52208921024456 18.248390193919125 -43.15725902923946 14.314010101689469 -21.497147490806718 15.531494677548292 -37.099274908571545 120.32745547830278 -29.93584988857068 80.40352826507358 
28.98682508417369 3.580193676044649 32.28074609716581 -24.747300265551942 20.17475480039647 -97.98708083057852 -29.797491536302797 78.63108797180682 25.31580458140629 44.30343967276033 16.8065938508284 6.92751595068386 -29.439957421013293 19.646566153898156 -13.36307927785315 -60.117544857771 -57.639985064682186 -2.632089327054869 62.047601923997 -24.399311161617216 4.887439741137851 -56.87885279326393 -3.9603899035401886 18.936354505776887 -2.0328589400728814 24.68741471285444 -47.262812800261564 77.73874837834018 48.15596699259963 7.438758092299553 -21.36891177352571 45.674889483030675 41.600594731485195 -26.995327865733145 1.757568472985044 37.75994821362755 -89.20405696135678 -22.128947869553727 -110.68316986383833 22.329333791037577 -22.528302061629766 -16.652347843588437 
37.53311156650163 -47.25487307577757 -21.511418242400097 -10.08203631433381 -54.21321611707415 -58.155995104962685 62.39640552780418 41.882186022473505 28.621001387056133 -16.749323648306053 -27.65085632657901 6.929198100170112 -43.741624151554234 1.3575585353343314 6.298067118991059 -63.779571931643375 30.135838398204925 96.13715559854424 -0.892166715021395 21.66235719230312 33.110222082782194 -20.770732677795294 31.281963688704575 55.78612885210411 4.7836953075342 2.422492086629281 39.08335098519863 -24.795911655994132 -34.706229150609815 -11.506276365763068 -77.89759167840504 16.085137737997165 -14.597776915295931 -30.986883898812366 0.15293149333295625 56.99422057100776 41.45749458016916 -83.13550073581078 -25.19520649301471 21.02391711179059 -38.645146266887295 -17.998751634614038 
-3.804813688218093 -42.93629948462184 -79.03874094403156 -17.5351053242487 28.670521151112563 -74.96561331772016 -56.77354534968642 -59.49405988712308 28.95912171440803 8.15540413580148 -16.774527714940547 -85.5145866769791 -12.702988783183654 -40.06184593087196 -64.25947493462674 -63.532067974583256 -30.937045496793978 44.048987931560454 138.96429435476108 68.49361618057925 11.456470169677733 13.12797922850937 -45.73908262419866 -76.401878217181 85.13102856847695 77.61081731559956 -62.961256908223135 -65.56270074644426 16.99164998819899 19.50763709836505 195.20213344925233 -18.115347584009758 85.64447951215135 -33.99577004109777 -83.0646975554392 -81.78384728738604 -13.501436173866034 52.2021532738763 12.240541098783169 -11.168540779307152 54.988049967782466 39.76887282144499 
-13.838669918330499 3.7536859048512814 -6.736146025737592 53.42319739808118 48.14666710673328 9.34098538269955 -10.85192363855723 -63.26343287899506 -74.105796942983 -61.27867493320655 -37.5362490199213 -68.84825847262822 -16.500909422757545 109.04402657822311 15.015124531981616 90.01936983143085 -15.430512238899961 -111.51249670325218 -9.870023540834273 11.657789319044046 25.43256168252796 -7.485867139276572 -59.52870354796868 -56.20696180592057 78.47067010029207 -49.70778891477763 23.41232201890723 0.9287571357048164 -25.846589384226235 35.69648952348269 -41.0917020139935 -35.90257803429841 -4.151551913092957 84.5936081506764 -2.844836786140352 50.793798524938516 33.60325544024759 33.606577821902675 57.821372465332544 11.879498978104664 -52.20061635811566 5.04541836156176 
82.69135122782069 72.77147483355135 42.29840949314868 -122.04080803318965 -4.357553180324918 4.696174429272145 74.48834948487834 -20.659335350222186 34.315230405573296 -9.333407124736656 2.219456586853563 -20.69311159009697 61.146256757162675 13.775203964864907 8.274464030400685 4.434061512117101 29.783536058624335 -8.001850655210765 22.049455929577036 71.37284164084801 91.18723069741401 -23.184103842310346 -45.02212177116211 52.92573395285655 44.230093752810554 -32.07554722932949 0.7882814231519829 29.483424326245604 -63.79142672292198 -0.395489788230374 1.9976580641984352 116.22318981448234 48.34148417034675 19.14518457586409 -53.46669155334389 -8.368105208765336 -9.851237580391153 42.57062360345529 -19.07592333278308 -93.82932889382845 -24.8374072623951 -45.74508013288867 
-108.08153067215159 -10.570888994904038 -56.52967555398063 -4.717672308961324 53.78291278315056 80.4285249395806 22.677378056834705 -6.386280437803173 -6.663100198418938 -38.30426885947171 37.349852025885085 58.06920804300326 61.52638915506178 32.75667266371182 21.090707600750076 30.852253772846712 -51.03924329022658 104.80560229492434 -66.84279508154263 40.691185164323095 -5.799442032429055 14.39863192548443 3.4738077515873473 29.262151005642675 -4.5423536608920925 14.857088732689554 -27.61601118222138 -20.326214678233235 53.15718526101537 -8.011557137518476 -100.75460048295535 -1.1999613736454446 3.982780399141196 92.6603788691974 38.00108437373215 -44.20406708636765 -30.025417597379448 69.68816168119811 24.37047499799004 57.98828149871551 45.89883630471402 14.96825144375516 
-104.75825085334115 -17.36861761826761 51.73777528627815 47.33478058151199 -48.02375990007428 -45.88475714307591 -67.12829294002104 -38.07662693594113 -56.320153905305155 2.7324529686026526 -55.046871361925376 -9.400118793847007 -8.16421549598742 48.7859974352052 28.127812455342493 97.50103054981616 -104.53353475327192 0.8252360069010698 43.097784675288935 49.1702413768967 24.439354145922728 41.09235822362827 9.461615666529275 75.9444355686638 61.038473675900555 -13.656918348096195 47.60009268711349 -3.7975664825160464 -130.70356682880148 -19.968499377870945 21.964065076682914 -7.691263705748699 -2.057435240842151 50.692761175013366 65.21049662058503 -87.28627939540172 41.25213717141956 63.96173931035136 11.468324778832026 -28.17618971275481 -40.81480133420407 104.68263107476133 
-20.92090726561504 -41.55479892338935 42.80664285830791 17.26387754492108 101.03153749047578 -9.890635890841486 60.81528816673116 -0.6217747558731588 11.087960024782351 40.757943396271294 -33.45341335232223 19.84841389338992 -6.842312580546144 -76.82124477193608 28.54718570430862 -9.622248642354032 14.94684525191148 79.07125503775269 10.344410644312342 -18.49636022756632 10.735138460536547 -45.75620824436296 -5.838364418086898 -2.0618917440896922 -23.238247550783015 -43.26692075696368 -15.130346104748037 77.13300908303349 -90.04926815987184 40.61030338396833 -2.102309805785348 -77.72479558543847 -21.710135919251154 -12.433362502387011 -41.746991851270735 -65.72056951483002 -86.57260573158334 74.26295666916562 -67.52506777050341 2.872892982179701 28.230062640402398 13.836161507487232 
-5.429811115507882 -7.9599983689006395 -85.70570597543602 32.12546923948489 42.130104769575055 14.893089617917234 -41.97710361944941 -36.65141234740487 4.665524980230836 -14.934882912107357 112.93177561788004 11.90698658136056 24.762721779406096 -78.9711348882815 -38.15389801022158 -37.54196098667316 39.33348567947368 21.65459933532996 0.928032117867126 -47.89685392117484 -28.977693974208687 15.704002651716731 51.69833340277704 13.943690240806502 16.797827612323015 -31.228282709857922 0.9657909646002101 29.609195443045557 22.225209211778182 -30.37453151368555 118.78720687257665 -12.442845540134734 16.764281943655753 -20.87240809122801 91.9212415339561 -34.86102976403226 49.31891620723089 -44.53587856080089 -11.666988792077486 37.570393049393466 -47.27079181022902 86.34892130735565 
21.437844829246494 17.968570475549257 9.97254299047831 -5.255178608287069 12.327064048612492 -36.42489002466177 -23.34168700139314 40.258783001447746 14.156765494774978 -7.908107365596076 -61.79517743682279 -3.628515873435743 21.90507123261925 -6.058962832077481 -23.043651579656284 -39.99329543068036 -8.086989401546642 3.66731514991094 -6.352969043249413 -45.877725754727635 -24.99750761128252 5.504243130089049 -33.35577961507171 -78.08796985485618 -6.6996464511684675 16.759710664090495 2.945105469325451 -31.787143923642073 95.30683354380513 -12.701091962110937 115.466675789491 77.63787683370333 36.94976949228368 11.24223735732398 -55.87613536362495 -29.608617242978635 -54.45278804071983 9.307029589982886 -26.686679795848477 7.757380797701373 51.72960192972168 38.82865474441267 
35.556747268264054 -16.65936908073366 -79.72499509677367 64.00870201604718 30.499501275442377 -1.6000983259775698 35.04854619694983 46.65735633513049 -22.287259796823772 9.804480417004626 -10.144787228047129 -44.17617068070346 -51.857357371076105 -70.43323375694696 -23.43977501038402 -29.226191088919286 -6.577266807488711 34.53401634010243 -1.8032741751094539 -67.14325137948478 -28.791942110821612 9.433934988468595 26.3145544952103 -93.66485924377172 32.439339900169074 -66.49471624640876 -6.843960554093997 22.82000686147659 -4.908574078916217 -6.529029937038138 11.634072061366185 -5.0065229323157245 33.22023032442866 -29.78628945484817 -74.18184750209423 -24.774405985368954 41.88613013966251 19.826001962867387 -22.727644238406455 75.57720444348799 -96.55481179668404 -23.507891997965007 
54.0384132103422 69.54804919955019 -40.21246370704949 -60.06537149349967 -32.98010519398368 75.37629077277647 0.7994471206751026 -42.72046326384427 21.016346069466195 7.801586777638096 27.814854320492167 -9.334281724387129 21.877738839210846 -7.756446584493252 -59.75181785193978 50.25583825406846 -2.091068443483345 59.273955887090096 80.78074240424719 -38.53402212586727 -54.58477962906137 -71.07763212438721 -39.5842141467553 -32.372496857268466 31.55621846048796 -13.894416305003285 37.2118817626553 -28.493200594732098 -1.8170801026593575 -48.751943251466535 -8.141083396080125 -73.49813891338236 28.502284739712493 32.49281975048388 64.71556654142802 40.48202939098978 -16.27267624138746 -95.15763173445988 -41.5868169908935 9.361499133098876 -70.1779603979115 -27.240522619889834 
23.55697711987003 -28.56284651202855 33.4793085065894 -48.02201312447577 -73.54889680633943 -19.22665811120088 -83.29666223069461 64.9592717096278 20.486262679755338 -13.081401841213674 -36.04667969160561 25.287850466367626 -9.03517538142902 94.07650755440022 47.15833187972716 -44.00414262684246 28.104955696727757 -31.6952800182933 -41.282008335100095 13.879683397731096 6.903415891454344 38.86514266089925 45.52015048241222 9.057742099952659 18.70915357150357 -7.020110647170208 -4.687686532990249 -8.351105931949524 -52.31251194247882 24.296910308443714 48.687191897439035 101.39635665792059 37.306245300156284 -36.27487874300847 -27.274159439800638 5.853600629456212 14.659976801470915 30.60655774451433 -19.8713595784057 85.75471686035101 69.95024360905167 13.39214206290751 
-54.37888843260459 3.003405384248738 -11.131991636534043 13.644380227536956 -25.86391298521697 -22.142365045311145 -19.49017657171419 150.37146175323775 4.130422649018169 -51.14171226696737 99.80935278485791 24.398758655437945 -8.608492166895966 28.843396609324856 -48.35227861203383 1.8776585075689776 18.53140905148376 125.62919048819813 7.798025512626815 64.77695292477127 -28.70523270067515 124.12956736675521 38.68104652711043 -31.013131811521227 18.48479999443634 -80.73326742365884 -1.6743681055805095 58.33446669273053 -98.80945923824042 -20.956383051601215 45.055980818740984 103.0229475121898 -19.934287832375677 3.1633951197870056 55.22216921314298 19.196140290186985 -39.565580007231944 -13.41423962360828 53.77330561386872 107.30230136111972 8.122781999297782 32.759940401125775 
-85.48852250479533 -43.28777394078841 -24.207567172963326 14.107071829611803 -21.251584152612736 -5.294048524734695 38.456023068748024 17.25955909125347 22.03073179399646 -53.661136575365134 61.02732624101572 92.37677808904328 45.54664755476841 -11.36719310753447 10.304547601589663 -58.77265013853236 -15.47448245768241 -16.899345289074795 -102.50631164053902 -32.86715158229227 12.112476827903734 52.77429403195248 -25.544249353966904 65.48058333395515 9.656988642140531 -27.06969224262872 -48.94613951384994 19.422111821390093 -96.2848455447258 -36.69303585896109 60.885609593721924 19.90693192595661 31.08020741340904 3.1911587443856 -21.148974193546007 73.32496795150155 0.4987783130233915 -13.562812157183458 -11.797633878577823 5.276178627483745 -73.12021129548947 38.668129608718104 
-16.644608897185794 5.6282168536327974 22.408535993997607 16.668652920606863 -9.354245339467639 16.22356762972547 -36.845867512839924 -21.20883799303486 43.02517612734268 14.731909795753127 0.09432485062456562 18.159927175313946 83.81412699277779 31.27315575556706 5.662988099956591 45.41078188277657 20.245358866508695 4.377200962859272 36.934838418603604 38.193105207512964 -21.13745941553539 -10.500000860913785 8.122046038231554 14.1953072813119 -30.0749075001983 12.691636187855218 -12.67515765727427 43.29693953162398 39.33925938317224 41.642377648264706 -0.21751438272361906 17.75856196267059 -15.654267090851208 19.934801525306067 -62.90712192233479 112.61820655105458 -85.55569078965438 19.266376281520007 -66.03593477909718 46.09341565609135 9.474851955679886 16.34324322944243 
-35.456024001913384 -10.403643555561722 -14.583697337499295 22.737131289721155 83.39466160298534 -73.36179863751846 64.27535179769191 79.43863739075034 -74.63169697276307 -54.66513826194414 77.08894633233675 -73.57275240731393 -49.25817502942728 31.477276977349764 -23.494999885477384 13.850597185759561 -36.94970362014199 56.99716561458321 2.42839316684318 -9.371010922252275 -9.503822842552747 63.70141475732381 1.2413165485079205 -9.626409144975849 -46.8226039052667 -39.747443814072824 0.9842878243634677 -50.27614561816463 -106.7843359160783 -26.940836396907585 -16.947907085557652 18.05492332698249 -57.74112346510187 23.008795891204677 -9.0266474098499 -14.153060807075505 37.65069765272213 -59.04472809957293 -65.5526981376034 6.936898601986917 -28.645371680232717 -42.168494963712945 
87.1877557708887 56.55822537235126 -62.078618716586135 87.01869723209592 -23.57603980007586 -39.60941754922934 51.48467294608118 50.72496437208183 22.522306184838204 49.784025555539095 64.10441402405493 -5.662456425963217 -74.41886942663263 64.89450079801942 -43.610517089631344 125.61221905018019 -33.05227019828721 58.00917532096029 50.897178138052006 14.560235236328218 25.105717438289208 33.919681176624174 57.793323245353854 33.636072978613996 -61.979213614095336 33.43631837629146 21.939256012588444 84.35810212230469 -31.125584142151936 41.510031881804366 42.143557721585616 -25.47848720636594 -100.58931442211887 27.05277000704881 -91.48106752409363 -8.086330368117798 2.908140272372647 -40.75464832691532 6.69892911117233 -82.8955878550733 80.16443175265944 12.052667624156241 
-58.21902537772831 35.27626753484185 -22.530323870625992 -38.6156762419319 -5.55230144156375 1.4612700820114959 -85.5860450894583 -58.88516862362896 -78.54764994038989 -63.272589384239204 -29.374288820393897 -26.695945059544815 -54.11721379271388 77.50630956940086 -39.40285412505323 -56.45205428434458 5.982064796989495 34.76159300929147 -19.782145845706804 -2.3945728916229685 45.45011060257074 26.229162303941703 -0.6709951545830265 -3.641683508550858 27.84738243520938 -87.78595952632874 32.68871750731494 4.394266606146671 -34.30794173084839 -68.25241686117117 72.9268339841791 31.59611595759735 92.62303845234747 8.787466637369741 -42.944743163813406 83.83708452113474 13.213083803276058 2.2127889713114732 -0.9823971855993341 25.98248940336921 43.717164400166745 38.00111139270811 
-50.617544867703124 -9.587676231698742 -48.785918738299955 -0.40375558527147626 9.630422434940614 -81.95335355042296 -27.759228108248287 20.83273563333909 37.390299504483906 -57.28869277229367 -24.845580069399578 -40.18336100054333 41.5274485631795 -1.5913507190187612 75.87430676660269 -31.187032899777368 -74.91347446260957 -20.86691101349855 -69.65685028991389 67.61979499404084 -11.381407209146062 54.53481862426723 -3.6086567429467853 85.33637528902004 23.321556659530202 -31.763435749841125 -9.720451217845788 101.50898715712374 1.2385966998102487 -83.34403525640572 29.115727200691474 -19.60554302371093 -52.41058400269914 -10.980321194159183 58.6484968682194 -41.40120335452402 -17.775097215957672 -0.5619399610455235 92.66077142838091 30.77373218089436 -48.30613595050089 6.938967857167639 
30.922355630092113 -41.74448386733373 19.804712817324436 4.08389040404044 50.227523374364225 -113.97815360981667 20.411409602969755 5.602383258791358 -18.840841984321315 44.88727481584967 -37.52320474337165 10.68600549067823 -0.7121197957888183 27.218723296912366 -8.910780894738375 3.893504894685256 -62.33916079193172 56.56168412351081 54.391749069469505 -72.52400511734899 89.89302635815005 9.361070952779832 -52.891445077789456 90.4634300846766 -10.212287033606453 -30.045836093188157 0.5801462776383699 32.312293223410634 57.379482198450546 13.799558481630987 12.307248542954236 9.630994443765909 -31.47194249692268 -41.38796665896845 -22.029665326726214 -28.016621868558175 -3.1502577547043487 59.20203046511688 -32.774863806236134 -51.00002540077183 -46.65687555345251 -56.748983807852234 
12.698034058337143 60.90089779253782 0.4289570209418568 -20.79242222784621 48.382917637340476 6.965887341760345 -55.2587540122941 -16.590670128114507 -24.47805964668424 -69.45505167969687 -154.99728407928848 33.77986717103751 -26.69265622771583 -28.91174655437188 17.384623342357095 6.360766415672007 19.165558762466684 51.22304917154366 48.542994743886155 -65.37895688841327 -34.99020506474194 -22.46443968978592 -99.83549279063133 -47.96784909239102 -17.897188254044842 43.58700151503501 -97.67516036164281 -33.76303346808733 0.47782182316941363 14.03164633444403 107.92933584864289 -9.648084534501045 -38.568259381966506 0.8070795947325861 -18.143265209886785 14.76542646115593 86.61125459540384 18.473813823456478 -81.89489808331204 58.002447817463626 -93.23878308247102 49.8354059401462 
-34.530042194223526 35.47672988395673 13.8226157610638 22.88888730618971 -10.891425665209841 -22.171534908179318 21.379942063359373 8.075402632996251 10.554060241896487 55.46280642715636 69.7647925939254 4.430511739413358 -81.49091545171181 12.802604860479502 -19.712405964861407 -9.500228179849683 45.36039922832446 48.36949771953463 20.324365437426376 -84.62593906351857 64.66154104488379 -29.657249910690552 -12.958808066506318 77.3850340050156 98.54529888315906 -11.183396678957688 -16.188254680161577 89.1360589174582 -18.688413587798326 22.671889969221112 45.52232426749833 46.78495318948761 11.922827865647424 62.4350722120448 -15.808851670646554 6.009911964322706 4.339267811468262 -10.033585619478869 45.880899326833664 9.56569967369525 25.21004799365923 43.39569453567814 
78.64167875241321 -52.54385070055169 35.25907640859967 10.975162313276556 -57.142829540412585 8.139753098477255 21.728068443568468 56.578927496198 29.336827565021967 -55.90406151285892 3.6533552508622265 33.61864068012862 -31.213174224549576 13.915906417141834 30.52956352124654 0.5946075317647733 -66.74556000161198 -22.071116868555777 42.23465832382461 17.08708990604882 -57.932695612935284 44.44786168394469 28.71651032754273 -32.872262571416016 8.465792114776681 28.365013706056562 92.13337807111928 -45.44322977282763 9.80251293048941 -120.68091446310083 -68.22937350032385 -19.256733377969606 -26.09344840237105 -91.2805751080449 74.14306143389236 -37.668389792132224 38.381760277647345 -56.21961384829035 -32.91555918822221 89.62594091271775 -76.09341130324887 44.129216251095905 
-59.81008482003989 39.00827871980349 -0.7061776504773764 75.2129087301938 25.448311819308458 12.951783870955953 -29.668518410828437 32.8871031722455 -7.318310694859628 -22.303232103321236 11.97952570763741 -14.475823673575231 20.114819791690557 103.70519238262999 -3.3958952375994302 12.223310916712565 37.87803276235431 -23.41769463182974 14.028288250517448 38.73232506442687 -43.458421715420876 -28.403904421580783 -26.62320293462925 9.384393031878597 -13.210058623923251 -66.48850632157891 22.406000996560334 -92.82402762326038 54.019952478407724 12.78955060740976 -79.3311125334139 28.191165584373408 13.765435381695891 41.61219453975932 50.249484524634006 -38.65517786544389 33.52937551375196 134.128583191019 3.1971384523843254 -4.5966688216712095 -61.25554389340919 10.817498619143734 
-21.59125770966451 -45.697337615437576 20.626963526718782 88.29126043332256 -0.42521524415054734 29.306313207637714 43.96862925186088 -67.32340548846933 63.65293080011592 21.624560299522134 -25.990209122868336 31.40379074358849 44.37056247360643 24.3295115944269 -86.02507178940758 -16.51955730787523 -58.93500541912661 -71.13712910334148 -35.733157460675116 -83.74427201839785 41.67794552039117 -28.383321729001626 -11.187094903195684 10.40041447673044 43.07765747070796 -11.55325204460643 13.807393965052698 48.23803964706129 6.2487637481629825 19.71982018045188 -28.18044815500782 30.11465246463048 -82.40989148446367 13.300871279128275 -41.97999860694404 -118.70102622950562 -67.53631213017219 27.458367592941386 64.44311770347979 -15.834263185403076 59.05574568032278 -12.740224149228743 
-54.57157447045371 18.28899198571808 -17.213103431847184 -34.062339337155606 76.29331497734118 -38.93004261185691 17.72129772683126 24.211051275403975 -78.88419736214941 -59.29691326463547 24.059200849922668 -4.696884239172709 30.87190973019338 62.607091682055334 13.844743183774035 -50.10690589115816 -49.4829786367039 3.9516413416291005 75.29846109860972 -26.979278472792796 19.875153467544028 -23.03496630338956 23.696900482991147 114.29836352773162 54.89818335505469 22.852963713258283 44.179937597816284 -10.384675339912622 134.3416392712876 -36.01105252100019 -44.70786328927225 -25.779604256629753 136.89543623110245 31.173173652172743 49.902138870764325 -18.741730510614385 6.297643754171198 -35.08825823583377 56.053704443115066 -11.435878793518631 -24.995264500799493 1.0152808160984794 
23.40462516416316 0.7337736026827529 43.819446726617784 3.7609948883663202 -6.534074339318762 22.830306126779004 -46.14155709650161 29.15873107049687 -69.10943429955543 -98.38459888064037 5.875283494312491 -13.725308572149691 -33.693819401510005 54.91260978473418 93.73720879090203 28.738492880921857 -58.468131338608636 12.559636976050346 -45.763039239673276 34.632114786675245 123.29582345160195 45.47344255564731 62.75176766602707 39.604964931437706 -32.730698991405546 -12.15511712507261 -3.8549033673406017 17.033697277839163 130.74164678853333 50.39164032600648 -67.94234968074839 -67.33740293926445 48.7057232626186 35.82274070730761 66.58045309345965 47.62219695072068 1.3068034370900734 -24.420642018996254 -23.96949957079239 42.007325459945164 -73.3650078532447 -18.180466155668924 
20.324856106393785 34.0450881061526 -11.336512297065969 -16.183343264293413 -36.680030441678035 -15.764210274800195 31.95756575982119 -68.07079783508357 68.91826427570572 -30.43062390438359 5.184989066782529 -7.013447979341778 22.675204020501 47.84314034909051 9.236969567662541 69.83239114468833 -22.883843051054505 106.94764920359135 53.805015239371016 60.47779023548132 15.537588946204373 7.844956826360463 50.70976088711625 44.67702918072528 -78.35029062831158 -6.312353419261627 72.50993402319989 -28.779530400225216 -1.9133283607876328 -37.861463904778354 61.643517072790125 132.60071932143492 60.59112334035627 -12.117598445922535 -43.60091851614863 -52.47147095971494 -60.709934617021496 80.53990724640374 -12.804022333963857 18.4555224101144 -17.973927412740313 8.672465550825661 
-33.63689363849567 46.668025112035664 35.23564433167996 58.82814076825646 -13.183544262199861 -81.59290573630832 -27.48156585452254 -61.39711134123219 54.869716082147825 -0.12160021134382581 -55.12825009245972 -55.30068518462647 -165.0793663810852 20.410537148753964 40.710339934095046 -4.677547762123287 -23.372615394777814 -34.73328310138882 -127.07164210810522 26.016583688862774 -1.0656550382936343 46.7314275090585 22.569453632900437 62.505628905280126 -53.621022755899304 65.21898549290317 27.820715120066968 29.159187903136893 -16.212220279043063 30.825493269536082 43.05093415429042 31.900630289465038 -32.382037585904406 -1.6971652825118104 -14.655094399716242 -72.8044107101654 26.702526573893135 -47.70397653892971 32.816339693064194 73.31864088445494 23.80246551422016 -59.60165854924932 
11.860766255100673 -2.5497665179988873 19.72372931561879 -11.482029292128702 -11.95506314623498 50.47629779535717 72.93912412507389 56.746494270388595 3.4044527738025203 8.568630342687314 -28.945818862295415 -48.67941199182589 4.24391666013634 36.180785107740036 0.14332064223620014 -11.521134102298848 -73.96650405973733 -25.56277191847489 87.5841000095734 52.116359775373844 -105.28742331030284 17.730198891177633 12.723234714189633 -10.05996424639274 -2.241149759082085 -84.33612923223889 45.44711951466347 3.7000568937541853 -46.375999458941514 -76.9148200528114 -6.844676963017399 -36.4425062764287 27.297778116231623 -10.230868965000282 12.485151700725437 4.713183382781158 -34.02149207766135 -8.88932248319047 -74.76299700424697 29.318269220214585 -14.235050387694606 -32.81625441249908 
48.949230215925574 52.29315509593149 -74.66194724560489 -18.26430273321455 98.34020049213146 -33.209721687916186 -1.7097851401797595 -58.2705891168751 11.75713531771038 -41.43690693013421 34.8514079539145 -17.549412905545946 -23.84030080211824 30.322633767029778 -90.39728063437083 9.330851934349573 -107.57369252691835 -59.07458639950565 3.551225462381736 -2.6841191980207233 -45.32928917519319 76.63978256668504 -18.615718930039964 26.617994809311416 47.91257837097579 19.06610652598251 -14.557914252785466 -7.71210066420945 -66.18816384480148 18.687938824357932 16.70969764376251 -70.9063162054703 17.051754158699495 -44.884584032745096 11.62377680685161 26.310052168638972 -50.28625502285881 21.8168335343148 -52.5760894576307 -64.48416689643429 -15.237720148041541 17.444478338833267 
2.751648462937394 -55.49998975653174 16.36951174150414 57.72516513626213 20.902991797848888 -47.952258272372724 73.94342028750322 -14.377798523493247 -6.506570291202909 7.323074729840782 47.81075731123154 54.94187868966443 -1.2843877690794487 66.99460776298014 -13.334502450300494 -23.676195603985743 -41.04896911158861 32.02750707428663 91.7997563248648 -4.87440960218821 -28.545450699336346 0.516264845481482 -10.71275952674068 22.733677568420422 5.310810530901493 -4.485027557941345 -48.89995004236491 -56.96409781833239 -21.628060583948074 28.003996808731323 12.573820950764942 24.527722313552804 14.418325406030622 -130.76617753351402 12.64153636957366 6.258472863768793 6.35156902217006 81.0481586033437 79.71273066724349 23.112097952815432 -25.49995049511768 78.1384109906568 
-24.81590557607431 -15.869182026398043 21.14635800390038 31.03739757744922 16.444507215796644 42.8215898135339 27.094222815713113 1.5076007738906594 -36.7789563929932 -51.47793084358148 14.565220759659606 8.860032681154532 71.55754816512409 -34.35027586304047 20.27856003453411 12.92749202835528 46.566021443825754 -56.54725802567432 -44.820635345559005 -4.200460126459978 16.407136677303964 28.32753797994643 57.95335281608127 -60.35487981838695 11.746662223451018 -57.59451594630847 94.35602020443068 -20.181615372600685 8.244929947876084 2.8719121657203113 95.98935017292371 -46.420075074686515 14.876811122203243 16.889396384745176 -68.33333589676198 22.00287850102523 25.17293955022326 -6.162843253845766 60.97273003826805 -10.022432073310037 -7.964572910766834 -8.32461203805701 
73.55136888541074 -47.030388616894506 24.475953420615483 -29.937618787238083 -30.741570513699095 42.86101223271711 55.53870033312248 29.771086388984948 3.166502336763088 -25.573566955234824 39.72681803546048 51.27651856094436 19.431995018166486 52.797112923590376 -54.62944442270915 -55.244977899705944 44.20610833337058 30.064335939990517 84.22047151945775 75.50575232142067 -23.554111869990628 -5.266586508269323 7.350861547436389 36.72868688382559 -14.583975909064863 -71.77769553380861 16.063478067303265 -23.321676871424984 -74.48813018305871 34.72125985577004 -67.50988329346872 10.066035581444444 -53.448569678993394 -7.36523989730526 -51.57076282909344 38.592369235002536 26.944457911260816 18.330159366273193 -61.59790403703358 -14.398365440546378 -19.88093399418725 7.260044872608798 
133.3469398879535 -7.728913930250588 -4.871805965474844 -20.164896633042257 -21.41718933671077 -11.100587191576155 -10.661231061969664 -0.11715316975916588 -74.34281911194338 36.67537499309456 9.930411044253937 27.495830782828424 42.56553842744258 -6.103271562313482 -17.423116611239635 -65.58631840800469 -16.130183424774476 18.208107982958616 45.55236846900738 12.375364846167345 -154.7213816662896 0.28654413497454123 -69.88587249672588 21.15359531557375 8.657897565740052 0.5604981465502599 66.94204601631928 -40.259419492708716 -59.17771888819041 88.76380498065879 -25.516344696768773 70.84804225156523 -36.544877973541475 -18.75417972830869 49.63166500785212 -25.393006603220496 15.886197720649843 54.811278161555755 44.93032857153997 -54.81498975771983 62.70264488025143 -72.26441323923416 
-32.719020860709485 -92.52285035085077 40.400611582837335 49.286982821042976 40.20296869020357 -16.430723878767743 -72.23106711613075 -55.338377598207956 -17.057404770950253 3.4058750979941395 -87.86837680999108 -7.555619656997605 -71.18755248305759 -57.72315597235685 -36.368292573314804 11.650719723803483 51.26430206776735 -0.5703543477268245 3.851525384209847 21.14528268512358 -6.69820984976892 80.67797228462182 -23.134137765018245 -47.44795991495451 30.9244102441315 80.94734973683651 -16.467881886514075 13.92626531131867 65.69981097697301 -8.298243478066276 -47.83108651786844 -88.37453469317545 -95.76336115652504 0.535130003880062 19.745968204254787 46.27464464396521 12.73658940396296 -9.067399713103686 -34.109000447266475 26.8355992344594 28.748231904255306 -64.21196911224337 
41.79739888137019 -16.83544227702755 -67.22754251385356 -91.79033304180791 -82.52938412409588 20.456662745821234 -1.0102994491908577 -68.24148557266395 -6.675520648321071 -46.323414170147565 3.1340185771358104 10.551254552528585 58.32241171144978 12.402215177853444 28.76574933830919 2.221501902784435 9.324323948926065 -46.729742591807614 -44.08487871978886 -40.40769993293193 79.56015717810733 15.103406443467957 -65.83143590696261 -85.30975792345235 -16.917679109611523 7.438034493060459 -82.05238373569215 -87.67480486956899 61.061390735264396 -3.927559741209597 58.761949472032285 -1.6288992660185786 -50.28255453243821 10.750358607230478 57.84352293268155 35.860758561198956 -64.6993925026525 -53.49525299114641 -92.57674885058108 29.005814550237734 -81.15584782493085 20.90417807746847 
-69.1523232855398 -47.77639835356372 -54.900957544979796 64.8641595402 -8.10327683804412 -41.62568003641792 58.203839209121824 -22.018475904409527 -14.792668319385456 -88.44844572808945 -6.404875595159084 5.964349281439117 101.55364735196844 -7.739309714042559 -44.32823651094141 28.836739381890073 41.43711650175897 -28.83959649676019 35.25642319710245 -13.426641327150215 1.8669007833319633 -36.03268450710172 -15.042691317631766 -54.151216277932434 28.895178632843542 -118.39952426133429 19.598625857244244 45.25413245377121 -1.6021409549022858 -0.16294524162322216 -43.94006136202709 34.37217448357098 -47.91942270340102 30.879783006624272 38.17260621194817 -34.460422056623585 -32.29854602667846 6.801868350433846 -35.3617274603722 23.300648157416273 -50.571915801880905 -2.7576589512791525 
42.47005743066397 -11.80648822741104 -2.26448129165356 -35.26830335762017 -91.55210980291653 19.18424591298253 -21.562594125922317 -36.77847157648358 38.91216500939863 32.29279178771658 12.51649665339347 -4.901717504709737 -6.505120905624759 -45.74597224303673 22.753397809686025 30.267390094424186 51.46813407713805 -19.012231972520098 -17.557402617942657 -71.51651737849039 15.725327715598805 96.36779824545363 -3.5377693788882496 48.70826172405897 16.547017259021768 49.33005756760683 -32.81289334777166 30.434787368420697 28.27349815015138 1.3341514964479835 -7.628855382042053 -17.25078246609068 -40.75466021261349 30.73614227803355 -13.579158356463871 69.67901731345208 80.52799532167968 28.691244956595828 -79.38080498842166 -102.25312251231354 122.00651381174711 -56.31535333542585 
40.58505164076756 -49.04234686154298 -49.25774525651045 6.874192705119744 4.57407363703395 -103.89464172032491 -51.503002796311534 -11.209930902517586 -71.70720790925483 -61.1479173525828 85.0592060191445 -43.747751147814085 3.401208563087402 -93.19143669300603 4.864164958698475 -72.96203463786483 -30.127540879902064 42.21989515179378 -71.93460598325248 6.025849822426181 -4.491233699411265 67.018668114599 -12.538933749535783 0.8898876102309818 88.5815488246442 -75.21443274254273 -28.648298169133344 46.575946703013415 3.752045835124033 11.995504938944821 -21.263359123592856 59.38262573696543 -34.90744197741795 -36.834724274846394 -50.10140970655768 28.88413052156013 41.84643168638494 3.5615271204521655 81.98041965873959 -19.78065643116145 -54.06137060663005 -30.913125960784125 
10.229987815770194 19.7718672581578 48.58542374963048 -57.840834766782685 96.44418154611182 -42.10888429373354 -96.30297654210558 68.77690405604174 -90.0580098043265 -65.73168034964131 -20.598089026994565 -29.082895254552607 -17.216339179181332 -34.90751702285732 -28.819264880810547 22.101654487054 -45.00344923534428 -3.2635151379889575 -77.45991828109048 -26.542190508408037 -10.077297728754894 -14.763565659545614 -7.610912551023032 72.9677505727411 28.659771121567132 58.560582097490844 6.6341073539745565 68.69270251881395 -75.91668579677165 -27.541702281083037 22.296128837589453 -25.148796719160224 -20.72145366135393 -19.000613945869986 46.677095240651205 43.302578318608596 -71.30602721213212 -76.39031305723219 23.081330896700454 -29.548113735664874 -7.656469978832619 -15.16630437372758 
-77.58760819920907 28.68761893837464 -28.189352223436 -11.398595119548782 36.79316950892049 -125.07290708304048 23.01881181325608 6.129925105077874 70.51446283180735 -21.690260526231672 -10.014520976659632 96.3926590652924 -10.210114480796083 -128.2092819171122 41.024726162212154 17.103913815555536 14.202706996753506 52.678554443540314 -52.41767910102361 -78.03661802897955 0.23184910369297318 12.42532709500159 -14.84304168721991 -48.599048855720945 -29.507521553719283 55.88622861787957 -63.02781688630483 30.60544242269264 -43.96755857004992 -23.187681378830366 -42.50064651498261 3.3492550283949742 44.03692309851753 -16.498582628192295 -17.0656195176418 -1.679598041576736 -35.14882992835085 -34.09967855301357 31.732351915718375 13.157977797454393 -75.71471306918619 -44.35516259467046 
-68.99223030739661 -16.515716495771006 -66.64985376632437 13.554810795511806 34.95093735304931 53.99379143178638 29.082383528665357 -24.15680846156602 52.16182540226372 -32.25298216927842 12.516696694705754 -15.466997913362238 -81.38490818767461 30.85381856511087 7.539036101568357 101.83672654683686 85.10731621418965 66.09969349325036 -4.4174082045196466 -61.670604084444356 -11.767718512225633 4.439295054314403 24.17337311211611 83.18847311454262 50.09960688942217 -11.351491809259889 -42.99737573388495 15.369180051629817 -32.389031343371094 -12.75752057873831 38.35873252340889 -34.61175554782884 25.21008472382843 31.192814261407428 46.57087554871017 35.98786579460949 -81.52465520658578 -44.7641300957476 -95.30115632913268 27.101161163911943 -5.998667381362348 -37.9764111575126 
-30.416800906047754 65.99496021014428 -12.910523572305916 -35.83666905106622 1.2159721510639816 -109.47311023426428 -46.10655739875859 13.501775712705873 30.829831169095442 -100.76245208657114 -23.990726997129936 75.997205261494 -44.82089147557529 -53.90891864616252 38.908707484632714 -23.03147034241571 -22.26297127614498 71.2501010078168 -73.54618019839138 -59.74080837646516 -4.1579050289309425 -26.952770362288874 -92.94080482618888 -50.088827524621124 52.625131472416655 -120.55130025217338 50.96117731655855 30.37967695538452 37.087217409865644 85.05898617456373 -54.63584692208726 -42.82117136540664 -32.84389920585758 -32.74236472154598 -14.301188733182737 13.865753673705726 5.138506023059807 101.49472137087243 -31.133007005267157 45.524988539417244 21.139186982639302 70.20075112031478 
-74.66190993883801 14.26455753538673 -93.51268721120094 -21.779950881884215 48.060280238814045 -13.802089623835721 4.963459938220831 82.52527058746692 19.732098024116844 -28.011841835572326 -14.133860916445943 41.37938188194315 6.339443074275768 33.890888968370305 -59.21750472452526 52.018650657687814 -63.542549848404185 -88.8118212484191 -27.303441549260558 -88.36075121078412 -4.030763919535914 55.50528755892503 -50.686020286676424 -12.34820671348325 -8.871394430480972 -19.62995058480626 20.760816162480396 -51.43945793285883 29.813377641179187 108.08472125922844 35.0567730693535 53.46431938987629 6.358947925736091 57.66177584993527 57.865833795984074 -106.9487605773613 -90.58190011441803 -72.64759873892451 -13.558598566115432 102.39107853257413 -50.62784049340103 52.72699833537553 
-4.946937730684317 15.47190317262876 13.774313038011009 -9.796583476100642 65.11950402158655 -47.60312182975294 -44.87545614499841 -74.3925813861768 32.14598865562022 34.148439968379684 14.571843437969118 -19.43990145279634 -13.884107544370304 -47.7979262722542 86.68328273560064 61.346116353460346 -13.433786337422898 5.770288163021189 -96.80945963558582 22.621698304089282 41.81365325386126 -18.560545055922706 24.373821597542577 -27.224491948664554 -70.43846876200716 20.885961561558457 -11.507063486547004 -12.991369807816524 -71.09068922791435 3.215124555246668 46.72293938519071 14.165158600563565 57.41591289512456 -25.16780727971242 7.945247233189761 19.029877616636156 3.681271327179686 60.87768728501991 23.310349253501652 43.81196856858519 -68.489890240006 9.098663696880804 
7.675560347712197 45.92444014108637 47.58557271751504 -47.705358357647235 -92.37081316812835 2.295672724276498 14.385231562671944 -12.105839458788738 15.557518330192671 -99.28203934638674 9.2302860617471 19.310715569991643 46.41529370334797 -15.347435597204926 -118.03878472466141 -6.324967775162061 -3.0661689794465876 -13.886861633607742 -40.92099238445303 78.78953353345113 -54.09864416623109 80.27792686051728 -26.43974818477874 -82.30944517012263 -1.1633747651597564 1.5143196140616173 -7.061893270203519 19.536735565803454 -17.142949710332555 4.559950380758911 -34.4879331289402 -20.843768106629675 -48.193212443210705 -1.2005719718260295 101.82850453823559 -10.594255796149593 -47.464906817200045 3.915331201133818 -58.47491393757 -27.7511328903697 -38.579360241088786 40.62345233227073 
38.37541755004975 58.72889796639267 -33.39810649345902 -21.51654869332985 56.74096590439631 -54.047416118058614 34.8891046038256 -22.02518937477008 53.81187737970358 13.82800662752084 -16.845804843366473 -22.865073518542765 -24.313621955060356 16.88247281461078 -9.347736668645425 -48.46101857197618 -37.34125050557267 14.130661810723872 -0.013254167291727355 49.09436921489513 22.49842887907544 27.504593736627 21.76955770676448 -74.81564130818651 42.342513205538815 30.03538371425463 30.228822167615473 -69.04268781491814 -63.84410137097323 -8.922405598438399 -9.134157771524377 -46.301807971075604 33.054754177593146 20.0473355047342 -20.572466451028866 -11.045983391067766 -24.740696799068598 -44.35834955483612 -87.92543174667954 50.567717176873245 -51.68157157980888 -6.121628150776377 
39.638208272601446 -10.647504881418664 21.21067352440384 5.493605689916068 4.2002402587955014 59.05499790615398 -35.415897879594695 10.311711082620635 69.86814969994045 121.67865688187749 12.762803984009915 9.169313098308484 -34.109731798987006 -11.63560877109804 -23.574314263993045 8.338317516427251 27.144165756255834 -29.84250894255094 -38.19691031447317 -23.458003086041497 -24.05410924073327 7.958778159966103 -80.56349830986068 -30.606867321621984 -22.651227970293846 -17.303485189594966 -36.44953599047705 63.72668480609185 -12.452532413030333 84.70375009013955 -61.01165414538744 124.24663092094856 59.16034171766259 25.49761595344475 -20.85075397479921 90.39972220797291 50.83317669870486 86.65184777360868 -39.49486884793492 64.90360996816239 -36.75041430618998 103.54342276163013 
-14.333372777593347 -78.89994016306628 -22.43300878498867 26.468839061699555 4.599507465938546 -21.0574332507216 8.061668998266207 8.386445022691246 56.15012496893312 -106.67522154232952 -72.03301725062452 -2.16311654607737 -47.16944997898487 -33.20644214890949 -33.78520263850926 31.8178116847349 53.79495394239403 -16.692521718630566 1.3682006479325135 58.95437553077578 -12.765514637130607 -98.53549827106953 30.907480423946325 -21.318438782114175 66.50371335568946 -3.316591241685274 -99.14580964515967 3.184612081334305 24.97644970233389 0.4590033398507011 -12.501135263151383 -7.285311300579095 -19.656945974231533 -25.896056858569985 9.604230970849713 4.410041802126705 63.26610220872923 -51.054996591609076 35.97158815118277 92.41957199331463 43.19282444844647 30.278211045561278 
-13.12687434565514 -100.02014735494832 6.250864787838899 -34.09406128147806 -10.198143643665272 86.00935920620277 15.825392991798946 -6.856293215403298 55.4068538441775 -21.726915375023214 -3.4685772969100546 85.00323771721963 -21.426696101189403 -101.56335957756407 3.4460772450313026 -50.3460127852675 28.61261659376797 3.8863942532045144 -53.20053123965447 20.949921943011415 -0.8777993998495511 -47.08214810722645 -70.98681983740578 28.14793723126766 -141.43846556074246 27.532440125415462 52.10560704691628 15.016150874628456 130.41339736546533 25.318292968664164 59.17394881632738 50.50525385840899 -38.8788414909411 20.744046932765514 -40.069334753513594 49.8601318872173 -17.78123638679321 14.491244030981608 -8.656134988063014 -77.012260837792 -1.3223369087219903 -42.32692776096812 
67.75993383157018 52.73988107988507 17.44206749920507 57.9140702696288 -5.19156612739754 29.94792540933781 -4.914998363326814 -0.19221597207978114 8.569431665024215 -31.608245767044714 -64.82167284223974 10.27859589512559 -80.57157458895516 -75.39478760938884 11.959538558865415 86.90223526216096 -29.152726471317113 57.95971522807538 -65.63871264423271 19.42316872106449 -41.74949413230846 24.358859821885453 -23.488075136950933 13.651633947520155 45.574696797772155 -4.026927734217118 -18.619908539973615 26.763952577054354 47.80749985410276 81.95096864952141 66.3876210003335 -2.222984861252833 0.3172800830899895 68.83162968263754 -34.85014624686341 -19.857646716742384 64.58896460143079 -18.412693436300685 32.42124044903779 63.691581059176194 -12.189013241745736 -51.67613960250567 
8.049907237741376 -9.574223483967183 86.5923057759002 -70.93737012342476 38.897586140489196 -2.1438537524008225 66.02222877647247 133.04424135767786 -58.01893267830633 -126.04460703966002 -14.736769314451225 -83.14943692733718 37.05243363071504 -19.986228514786184 -35.37295942371633 6.705218561373188 -43.11069380368531 77.92203239954081 116.1667544030589 38.86167123444186 41.13303048764526 -36.33237865007716 -85.81308854393922 26.42529084586713 -27.371654417536064 33.395076158929385 -12.8947599786752 -35.10656727144282 35.49320412034005 -34.20340410328297 -20.80930407210533 31.07451274614718 73.72941126596318 31.55732486068537 -55.46472522393371 -40.47412653870097 33.49962132313955 -6.021331050522177 4.65961130426178 34.09081058225667 -58.25913443236165 18.421791051657685 
-53.28728197996933 -69.44524511562062 39.16759151904597 13.948655822110183 9.160214179400162 -17.34918995336827 -57.13865664269045 -14.44352694572484 100.56494320437021 129.84293615934163 -27.946594285852598 26.055274549762803 3.612986778905417 52.67145106425514 37.7034911922579 -57.336022566734705 22.30759132442845 9.189534696222514 -26.869500307445097 29.746143277697723 -29.307650890029095 -8.087568638325651 -58.47727824918614 62.23889738822372 -2.03667371932523 -18.825114174353647 65.06923068006334 -13.022212861295761 -83.93290323124074 19.62322198037595 -78.14196915080095 -27.85750995691324 -17.48437763492552 39.85693760453029 -23.778614394465308 13.186363408929969 -16.703912346394194 1.3545703855868465 72.73942484562261 49.17630531533028 -24.486956817312564 -8.47978220633495 
53.136247202568384 12.66716833439114 24.49465999926588 7.3889352902514664 40.194900210945015 -2.426971169934437 44.78993523383467 112.91902269082978 -25.452880218014478 17.140792031856314 -8.099090376793708 32.60697924763874 -12.821625723700441 -76.26360236368751 -6.486394296715726 -66.3709173493523 39.17281272002538 -28.690923113702652 42.00732588966918 -44.766956283777034 -14.466229729536616 59.98380097900586 -39.291560507949775 51.383052910910585 -38.58124713093258 -3.062463165644533 -8.564834100888744 26.18856283386987 110.85893004719054 1.377489786478187 6.352481725129162 -27.454578321093727 91.79835561847848 -6.666651840012491 88.8125803418197 74.15413577141945 50.007590470438046 -43.15311879806952 11.264248109830644 -44.560400657075384 -43.62809969428392 45.56770969978021 
-8.524015939149521 -68.76954558098485 41.31539825623266 15.251601284433882 31.54531597587029 -28.898798017028646 10.273534887459917 75.17415244593454 -24.805574964011722 25.83176911544397 11.054097398898111 -7.7487950549912865 70.6348315122105 85.23521496120395 -19.530681320178537 41.52715533794033 75.60955398965672 -3.959204624368647 99.7523699078873 12.679385663792745 3.7308453756785713 -66.0812669042748 -4.607178717523115 25.530704880217883 -15.076745980370964 -36.951744175423926 -12.77727239684186 26.93638937786363 -82.80287446047225 -10.384802932222506 -75.13337786680627 29.6087241873257 -46.782920274846596 -13.720116224822654 -82.22957558833411 71.83271852921337 -7.102734815672893 -5.557432342800255 -34.92935874718867 -10.030685718543209 1.412285243045732 20.33409367129067 
-22.445673992698563 28.129637123170287 20.443742052724833 -17.956811377703364 32.032840630269924 26.17945860223567 34.657899604357674 -38.13685490985745 19.485858373894363 -68.5965376688844 -6.739392185674113 -53.120152191374984 -73.2372547727586 76.15013814289385 49.62222589023665 46.706876264080464 17.14273590732361 7.5524388403677225 -31.78745958870119 74.72531807388654 77.25078474563449 10.01207274942035 93.89658658807572 -35.42083169581452 3.677564979475484 30.36458236021642 -23.438969138738273 14.550502994855998 -5.023088270857199 40.709024834676505 10.7333547167537 -72.21335444944698 1.63681673048919 -47.26890431190939 -48.02106862466983 11.117783538018973 87.56326380212046 -53.26823418531758 3.38353207448464 -16.378008805807337 -77.25875727532639 -27.703696279489655 
16.283937616803392 22.27049964117048 78.29205325577021 7.59441497838816 -93.71599316123742 -20.597671958666815 -6.189774532463189 -44.67683142453756 77.01069739811435 -15.51822622905389 64.16531956769906 21.296091383830152 -17.501118562011165 57.71382884431435 8.495087776484288 1.8585931284014114 65.53950699455575 23.692096628430015 -52.961149425818256 -16.77250201628515 63.01852765259058 -47.20805813482468 -43.87194437029657 -36.56729679389939 -33.1902043452918 29.566234018671615 -34.04659186911625 30.620346472592793 -56.191928090606616 33.65986887890389 -90.90290303033791 -8.184158977430874 15.33426062591229 -50.074154785130006 -71.15745630210075 -10.675793091021276 -15.018693113782168 95.1313862114456 3.448271877408565 -38.61253856692604 80.52955086317066 53.627194952943114 
5.59493683403844 6.849329497833937 26.51322559201643 -51.579842613389864 16.490622553959014 -124.10415248171367 -58.657384881000795 145.3963802871133 -5.512251087062273 -16.127841175241674 17.972520601274606 57.351581773494054 -38.69366218412486 20.683411670281526 16.61543475957169 114.88445604236836 60.01505520205234 61.62013383575632 1.2071442817921854 -47.62423178913362 28.699064264119485 -49.727148673606145 33.165266707438384 23.004009305946962 -8.305670920617601 -16.424602541962233 23.362645838554066 -83.15911139417457 32.32678685983125 53.397854031548945 22.058508117048326 8.704292424308077 15.080761326233532 39.28123382272451 -57.28948851849717 57.2244569419185 -17.19164838236298 14.989703235825358 -94.32769895825432 -52.88905273595464 -18.741212665181546 50.4201718489753 
-67.3252409791012 102.02819014448097 -19.164896352958305 22.203868660576248 -9.053239152122787 -26.174234892282364 53.113504029534596 -14.029320093703316 -103.37721939270006 -8.187080277916488 16.356163586948274 17.47340935477462 -56.53339415078468 -74.43624806132857 35.69115109124041 35.64999306780873 -32.714584921012396 26.83704253870708 9.631317749138871 55.11980879450439 -14.717219296366002 -11.137105517637531 7.256624450733268 -47.75253846463349 -69.48077412872419 -19.875904151626006 -117.04225142556271 -67.77373818176444 17.265404231126283 2.74026486080228 52.7944383834477 89.4838348127639 7.515468722533827 31.99518357843238 -47.888613974460526 -68.0736629609511 23.095583506993353 -39.53333096926255 50.68726687169366 86.93180066624967 -20.7906380063358 26.68599278142639 
-43.713801302553584 -11.365621687400973 15.285384912164517 69.54968462854575 -29.150555521598466 -36.89747747951713 56.69314408953314 -22.812102774121637 -25.491512787855697 30.420191888192495 33.31038092596537 -7.822317236001001 -82.66285392864376 2.3754223018403424 6.713309924643419 44.51529038502191 -4.625709767953684 -65.5703397700021 4.071696628327758 -27.21825536622498 29.036502447800434 -17.162508325421097 23.791837580151473 29.039976415469624 34.97836750091737 -36.78045381282053 -7.240747640429616 -36.73575484383822 -101.96905572398934 -29.03989476329797 -65.07950303781081 -0.0921001376677461 -16.703844159954194 15.419819284687428 -1.3574329236881968 -57.50680953539431 63.56592130000811 9.500898863937303 11.299041316534575 80.65518158099776 47.194454153554155 -85.19162891455572 
-4.574299995952401 -3.3203615691319177 -83.28942316583166 64.20967097023481 76.7372765975979 -3.0355478363430777 16.30742648317271 38.26739386278302 -32.274680876540536 20.49121638607083 -1.51445949788457 12.625358303280173 54.343039779771516 63.29925993758835 -50.73957977899872 -10.650812875563592 65.46119715403792 -21.02516545765031 -3.804372772388619 16.33144636200699 64.21167862474407 63.06992117866023 67.1222291123795 12.372463480798318 -11.6862872934886 8.059063252175825 64.8384363595523 -30.867892501519464 -11.736606972368518 8.068257041230563 44.44027974306384 38.33954824361174 83.14252888509687 -8.74537986617902 70.97877637750553 -69.81556209799824 25.977748711118508 -33.57124898827552 34.7199888533459 49.32556138356889 9.363388040689102 6.880194242064111E-4 
-71.18031538671109 22.285958480520208 -23.31675707798921 -45.08790599545365 33.48805756959616 61.95703392699462 -43.974166615874 -8.330596110483357 -7.679189811149015 -24.79534921801084 -0.9821966215012644 -1.537551813051956 39.73077517012027 -36.5315564487529 -67.56616120506526 -60.91492049741183 84.9680876736137 46.021884461050654 -50.892842523724184 -0.5550724222250762 11.282773733653883 -61.620664021447396 -0.011199267999905258 -34.13883192042232 -12.088490197552778 32.73753400465055 32.04382505733474 4.779839625821996 -2.360832498095039 73.72944827169242 68.10629189965341 -7.4802488705247345 -17.442590929787126 54.93462874056735 27.72716635080782 42.546037577254694 15.33515133727942 -50.250848842715826 -53.81678122605199 7.12895617863683 -29.844915141663936 74.82757997310242 
74.84449401401002 -30.049138299020882 -146.3658685976244 -2.797176967153791 60.83417569436141 11.229255652580793 89.73788371841366 -25.03225496280666 -15.760872556990106 -19.61767898316585 38.97419486776249 -58.78592287702237 -68.15124204340714 47.820732531321966 -8.201865441380132 113.2902280782353 -39.632888807683386 6.112123316927554 -41.898556615639684 46.44279278088489 10.013919769416521 14.38992352854289 -145.1645547519549 4.4576559666271764 52.27222274969946 65.38333151812637 84.01573882688562 -26.908483346644292 -1.177271032572729 -24.8491872061498 -5.672078338904163 66.59915779877284 -3.9266220539655388 -17.633170694877272 -28.36586631622651 -59.63661324632762 84.9315199154529 14.901275146598953 7.971388214555228 34.730069977503206 38.75420969342471 -16.848768825689998 
23.132026979017805 10.976623317864782 -91.7142193701238 10.098529093628354 -15.868077312890252 34.61911733948225 -16.34494762159775 -8.881642799744874 38.90537403577205 74.62947150273946 32.14449729047625 -41.68352727164073 88.31566253821076 -17.748498521968934 37.58587669362285 23.30088596703683 -44.32935560746702 -8.029491289592617 85.52804111530612 32.37920229054358 -19.598258099076897 17.58605085015776 1.6736587133703844 92.75587332670565 64.09245946402498 -44.41223772739495 -99.29249331689738 -24.93641200484878 19.43096601930604 -48.93612898322355 -24.281455278057322 41.446471292820085 11.41116208985447 25.092264455373893 68.33061065639856 25.271283802713338 38.91656530504956 -69.38400515668404 13.16132566703772 49.39744933605499 -64.61830537635132 -41.79330828182044 
29.74261841126269 11.29712410179521 32.6779361212223 0.7851771510831697 116.95091140259326 67.95332635929626 -9.1998065193048 -20.074707971899365 22.135814868158658 -9.069473204331073 -31.913893637319937 -72.2464580628062 -12.2961324450274 -11.98384746205744 -49.454700667088225 -7.5875483031107285 3.553853188859208 54.19419991334605 -1.5503031215930791 7.360058566910801 57.94620315787615 63.46630375788696 9.935398058322427 29.220706095112085 40.30962336117648 61.296730200339525 3.5230082168225207 33.78765281427333 25.242240699425817 -71.70950623185233 -40.653691621258744 39.76058894768223 50.48138066078789 -42.03520443251262 -45.3012446626259 -89.69143607467322 24.963448446089973 59.595209902027335 -36.85060515569267 15.821603065390953 -52.57152273494629 9.581331113628941 
77.59520534624849 54.93386553460367 -24.57088517476081 -77.05033018109985 -55.60301043257478 14.678475624448119 -17.09506540042563 42.156312357562896 -18.18953922745723 51.86781621350433 -32.54360874693386 -35.64569861474071 -23.121843738085047 -72.04738971992911 35.120464004994915 20.550906579683588 77.92441146562237 -28.777107325623533 24.535231376685275 -76.03295656946786 3.258742705260154 -67.17245927288775 0.9851457241661093 25.486559543842233 34.99300300762318 6.266841942318565 13.246728743382553 8.16906600908735 -17.55770189073144 72.18815155942352 -47.6238216995558 -42.891511100303354 22.894612392458956 51.69031286193124 -31.44612699430115 31.2539769974093 26.231294758434654 67.88649088423203 -27.68200931611103 22.84048197074592 44.59746753712741 -77.53891418276824 
64.25991756959999 -43.497788206391995 -57.1872244161979 37.37738685769237 17.709582624076177 -41.19430182766254 13.162702918977375 52.693971426645156 -61.33371091684229 -5.91512038265219 -24.62185176473603 -29.71949586274219 -34.43422704456306 -33.75256397530637 -33.3612538123847 -38.32218111018637 -6.498535260252677 -44.74083306075197 -53.4767143320405 46.62888618682129 -2.0139862003344424 -11.047896178833113 -24.031471177780055 7.766597163315435 -63.515095542033876 37.20242886773079 26.070663129274052 -52.03332070248367 43.02574525009832 7.2740805316412205 -36.52653032061442 68.19993593983695 9.083131016624007 22.231360654997516 39.91047149259333 -34.72936087326445 -24.665555913839974 -31.073379042159132 -58.306486176790735 -11.63060906506289 31.526798512675136 -127.23921170534427 
4.884327680093494 -11.083236800030205 -11.07289637610139 32.52318637150824 -31.396910103902556 6.678845206395993 21.25056590633825 -58.19823177572676 3.5436930228554284 13.806929640732836 -16.17795339883707 23.444827860340908 -26.0677124973561 -15.32633551178956 -17.429559794953263 20.078584197603867 -4.01246444466191 -11.721988712591015 -49.66188979541129 -8.16564435991843 -29.063694217663496 56.28729155591222 7.702515185236734 -39.58666407873116 -68.17923946348205 -62.009976261755796 -39.70464847416211 -31.207348207079924 -20.808172913967 6.340736753116833 -77.17786802045133 18.5364107125509 46.27266137506625 -33.385343804589105 -77.9780464110835 14.988655504487209 -2.0075202134613517 -52.2411571226213 -26.903202928080237 -1.7062963133458822 6.263115216376346 -57.426290365089 
7.676742565689377 -2.7958384962291043 -28.663038802014597 32.107598416038265 -5.502328131308618 -2.5782181056674434 -28.52166375204738 12.722027046959514 -25.945138698397386 -21.514650675493176 -93.29168765495184 37.49882956226458 9.777611865197489 21.825816822302347 38.968583797860795 -2.234965356240334 53.852387760528835 -4.146128753268686 -18.137711655892087 -8.956048086355954 27.87877361911075 4.562634940123167 55.89816725122827 -31.02420852275632 41.55008004536836 0.13766877660697333 -43.33610309610526 49.92327881356853 61.23001868009154 34.0093985151938 -5.290606913749697 -81.882636028278 15.636193632194887 -14.585261757442542 -59.67302550081435 15.613277122527363 50.38008761124019 8.917910615313483 14.222033337901982 -21.834274393998815 70.80971860561104 -3.180798321038705 
-65.49288053326708 -16.55075365183858 -35.98997274789323 -8.047691392293459 -20.54427715569112 -55.53722854013717 -58.76071544240795 -69.5405584265089 -58.09892536102542 -102.65510017043604 -18.64984825873719 40.95615649096957 42.11268058147532 30.821894817310923 31.2267856318805 4.946767370685986 -14.038698476747365 33.040303855547265 -65.60657840763116 15.063192759364258 4.214212593370334 -17.876287256107627 10.976899879103593 4.861855670741397 -38.28482498858463 10.165911006576257 -60.92526830768637 -13.001284741097402 27.709839354085446 -17.308257999985113 -45.187375573136805 -32.19655531149503 -23.76740710472577 0.4199503779256864 19.037449369275578 -16.8398129526102 13.320815945629203 21.909003518418817 75.87736715574043 80.63130464407078 24.751301969234348 -24.112733940108406 
43.93867365779352 92.28933213144865 -9.108440393375167 5.945502784799797 2.0187507647806364 -6.266708081336423 21.972091602878074 -12.193990609463615 39.56225151348119 13.442644362283406 8.991309577149922 -14.449473888159488 -56.5272257847304 -28.429726859015066 29.924527278386336 13.980153340028153 8.623264908538 27.919654843309914 50.86249980096329 -63.34982106435097 -6.771857283859722 -58.762200368377464 -14.179811788941048 26.370924683106768 10.59438188058017 46.12094544095152 -12.050203372066107 48.0297564308253 -7.818742243247366 -57.54372061691561 -96.77286230582783 2.3551219842815847 59.05446531403612 34.10699618938032 63.1444608088119 -40.147159518530025 12.460837339150787 -62.46578298120736 -28.970400070462308 -33.78091332776834 -41.73322463715129 -9.480540609038673 
-39.06479037796439 -4.333744599202427 0.575390102303157 74.16035183972168 -28.54263856501261 4.273272804748851 -37.01063061687474 54.484436367864596 34.32702805314728 -18.862215474558 36.564535104097274 -10.91347063770873 -56.47602287781603 -65.22611295944243 -1.4207363446948134 -46.617379189829634 28.963241201910527 2.067153195225627 64.90337467274229 -30.496149562913065 117.61818738278349 -19.73958410569805 5.482498727635304 47.75670741155374 107.60983095753569 43.64552566918538 71.10353670720087 -58.99585505829008 -114.56952829302891 50.78955163599544 36.68783211332811 43.001523908919715 42.54571480758191 18.78399503740167 10.23667963639223 13.891901933176486 -10.859015701099597 20.36472671348435 -30.06697335491684 82.3813853099335 -0.7114972304692017 7.257688283004581 
6.740376846010978 -65.63249365051082 -10.769919726954562 76.68286935873729 33.374677469878556 74.40967804261429 -44.72273693076922 5.717524551626772 19.669027679136814 -19.351536051135277 -85.80329105335248 38.6537044789364 -11.385763682015568 -72.13883619122673 -9.623009394156899 27.549008423252506 10.945276196975591 -1.8848036553753054 -56.67715095428434 -42.8331395643709 -11.303515104713947 50.65179234158138 34.99004184610807 32.824817716341784 -31.617815971148932 0.4495696921910748 45.303076762589384 28.384518057331263 67.68143497863558 11.382022252020088 -3.7492477529993375 27.88708958951935 118.15436133089516 36.99990398180902 75.65210282275964 16.295988243082732 31.236058583430705 -20.738713392636797 9.629191919999426 -28.844715877235846 -44.552852490563474 -64.75608779939428 
-59.583406352158896 -30.65079429616357 0.2766709251572092 -37.336030635454826 12.82783898205568 -111.33626118674725 -51.88101195622146 6.228931965969659 -57.968987556409054 -33.108824630201575 -36.188067576491534 -10.085345402433603 0.4874227084238498 57.89377699195795 -7.923541397609431 6.321310535535852 -40.77503922776105 -45.80072107722431 -1.1861953413184247 52.108267208894354 -6.47557862589172 -75.76126818168278 116.70456975991435 49.63297154717638 71.60483731349558 -56.719055864050084 -40.80671027662609 -56.5248909955536 9.66156264056104 -76.10356850810848 -9.882367038250923 -52.0596613091822 46.14125116547638 -74.8572712781095 48.13891797819387 -8.953321874265832 -5.305056168341356 -45.417717504041654 -24.818733108377952 -129.71540580543385 -98.65611782625685 43.736725261612236 
-1.8977349675845328 -25.681373882157448 -33.25908830523025 -45.36133396977562 -122.78568648937399 -50.045681637926435 29.9764036584444 20.406541483102153 79.6467400619379 -14.046414020075195 41.21173383668471 -3.902158798940971 -24.22215927286373 -61.87187864198412 49.574372194884226 46.80783761344653 27.778883129244097 -4.068575767063338 9.566288485166565 26.44391268421232 -17.014076119965914 -5.96543165985262 -102.67653101198353 2.5027841445758128 54.02863531761973 -34.64909667250079 -25.80009707795243 -16.780233367207263 56.461325650707174 -154.06150371812555 50.27528272307972 -12.899263259267318 35.33956289180033 -13.38384872919312 -4.182810684152179 27.521336445156127 66.29393906137786 -8.816155581899853 20.08424960323842 -7.961720810845958 -60.62248452326227 19.16368357431639 
-64.35563567959298 73.3903246615715 9.67418286984879 70.45248710866147 81.58786704431772 48.87752463578037 72.06083794507747 10.785514089359506 54.78622987412285 35.47618499613361 -52.12524115791696 -19.03902375510083 -5.501707527443163 28.72496401816961 12.337689683561601 21.452512556557146 -61.325115914053 42.725937900087544 83.00097496163701 -103.5136989912958 -32.70916779236342 72.88427180939009 -56.63607852783781 14.823784744372825 1.2410719955394416 -49.73368658251693 61.301102401837 -20.421945696708352 13.273859901176625 16.889708747665793 -9.207125332204914 -60.770676087018764 21.14599799021302 -77.49962062872211 17.812454119753244 -8.21009808516177 -43.054132738918064 -7.17591732683861 2.7515719863975594 -33.09695465895511 -0.0887800686670151 13.64952225964404 
39.08259165982801 7.784649393547247 -0.35699625214748426 -18.71888600150585 5.221708695595302 -37.276139288007236 28.49700659065912 11.156258283062076 46.928332089490375 -71.61959510137477 59.11005186365729 -61.44952363872673 -8.896201151728489 -78.73603050394121 41.392132616436676 -31.850996182236155 48.57802660383226 -50.07410270332446 -15.504634020076098 34.69342373140068 -43.419621950475964 -9.776921083214884 87.92167057216103 66.91230883254956 -39.13066579121115 -23.794611769511697 -79.91161818396891 -21.644647123233852 -37.537455473824814 -50.32727735359319 12.899748195147698 -90.60658438476538 14.359002958489675 27.65753547471462 16.092889400178702 75.34754468627222 31.94379826383594 71.96258062188893 2.1814180575547564 -7.571741806606059 37.7090419345043 -15.574480134415195 
66.32001439630096 -5.48753986375679 9.90667288679198 -48.548640610186446 -31.33170318757803 10.552229160408682 7.981457402544934 -64.93194948424133 -76.72060612886321 18.264416582376054 60.56812659714831 13.807740234324141 4.504780740008325 -25.12536957350717 -36.93188681347708 -73.99246417845626 -9.974038021565221 -6.073002903512002 62.833990415511884 72.33365856582869 6.471928303535286 124.46881976020617 3.733388065032042 -54.691158345711465 -4.868281561420655 -13.288726787141568 -109.29342587352967 -56.53199016412782 9.124736703730452 9.915170769691017 17.232416866289764 12.055728380141792 0.547817146660615 7.730212223532385 -24.83316556667817 13.81181407034226 -89.18882527567054 84.41492718584807 36.620820891778365 -39.791195789778264 4.892408831996899 -71.3252610229968 
26.303507522646854 31.36823734971443 15.19944502236276 -9.618151156964387 3.9344220970783312 47.44125137266258 88.48542768159481 17.538089382951366 29.236577722877133 13.656344082372653 95.47428949090607 35.36800402318942 39.4266082544611 1.1710627631869381 18.465490700849564 14.73176631112944 78.73460407669204 -19.956272189579234 -21.559148740478225 35.47954690318241 -75.08909142921937 27.935939847252108 -50.59653970831037 -59.56408444098269 32.56423011998121 78.22874785886766 -71.59455840137592 33.31119524062541 21.33026348838763 62.8554082919166 53.153767051988225 -17.077423305038792 35.33479326218741 -27.064146523248187 4.360586746953469 -50.08480977551013 -26.82717464147101 26.20620646505465 -51.76482732442322 -35.81065851578004 -84.14817785906045 -45.84721114456975 
-93.14975194446232 -5.637116055035345 -65.77139999540303 -36.306760512376876 38.69673447737883 -10.643651225516765 -19.656928031488146 -8.255439531031508 4.431024961928721 8.099788928990131 -19.66835406245262 30.21783198794931 -57.093522935531276 35.24796292146814 43.75918833058537 30.46636439097598 -25.41818672948107 -76.04664756615146 -17.29722696075701 23.88986473552666 3.5008656733137253 -19.05591829840138 -91.34233312035113 11.320758419222505 64.2648814742025 42.36679783226162 7.487556539028925 -28.99342946577811 28.118389347483017 -20.952594971450942 -5.290484088396647 -15.772756579340564 18.47571494319975 -96.60449184081833 -35.144291448275474 -9.89997511998972 -17.36268060223351 -43.07334265943152 27.16566826825281 12.82053972997515 -61.876153369824216 11.354253180720272 
-102.96860670189773 53.69647472935362 -19.82176309935332 -9.443141956096692 15.016479175588302 -2.530253730345818 -76.50240651953372 83.06149516019646 -13.398296866706874 -66.56373719239481 33.64851272158698 -9.217854385594661 12.045464001084897 -38.78901039274541 75.56651853797791 -51.610517177566436 -90.54713158332085 13.346488372869574 20.26944351653418 -38.06054154975905 25.0948015049153 -20.591634625690023 23.905987029772003 -49.78547054872913 6.738531115139173 -20.564654602858987 -17.2938316920549 -67.36256309479324 -36.0440328249792 -8.885478540350736 -43.26145381461167 -83.86390134490235 -23.0263782550807 70.59936843434265 -102.56408164283886 -51.27400092781497 11.252145015990326 -24.776175394486522 20.628221218126725 -65.35637905366126 97.2057259296831 31.353270031812638 
-67.3225265797614 -6.089680124070664 -20.11910910179611 -2.607568515047965 -101.36817989103247 27.299886901793723 39.50721300063588 23.95926865278631 51.21851537247562 101.83997592723381 107.57595861753825 -14.479336577906528 18.136347457946055 22.96563042414 74.07955029659517 -41.034166640030655 -20.01974705337609 64.87201414487147 -37.24411068745315 36.970814426359674 -67.34686770323587 -1.763003035278122 -54.22048715524927 -6.642930256641377 -5.965981271061252 -45.064445494399195 -6.089686544081188 18.23415592749029 -16.087578484446823 50.00276202005188 7.370990696176406 7.036676732033102 59.184345188077266 -94.01376672265845 18.32817782537044 32.62482941472467 68.6342564447984 0.29712255364729356 -26.996349494039936 -10.821188993993454 -64.60630697930424 -66.10801379140607 
43.51251555847013 -22.32577145879663 -83.55317265606217 -50.00352481306876 -86.88328601459385 -42.22418481788012 33.036039068846 -4.4907316230499195 64.6683996856065 39.123819299253384 38.10081136095544 12.223262894042085 -14.373893777268544 41.58344055839981 28.48193708733687 -3.7707773684994486 -20.75518007204677 23.859340317752388 -22.6859205114614 44.264673410318 21.796334323880547 -46.49301672204707 11.266381595389637 -7.305004525554782 83.25219509461269 24.794349125038483 -48.27616369270441 15.23979660996004 -68.83125791742002 70.78732100149428 4.631523069229768 36.9196845231744 -35.565397763428464 34.88363371367688 -45.1891694811973 50.15831374133552 -37.87669706696642 -30.860467515787054 -69.04125561486894 -40.8104862509607 -45.83651077776381 17.008762296145154 
25.64430251199637 -7.195100725838555 -9.922346176257895 2.5695211048836812 65.40063004059641 82.49681381288308 14.226528446662135 -38.66566119621681 -63.63816324916 -32.09044960374147 28.95700830454228 -25.96566255086051 52.16097679389145 -7.198897103841613 -11.230953969541915 57.92598830553944 4.70947624208451 -7.594982189107108 13.999451452024557 -38.30218393867442 33.85960818346864 14.027941875494074 44.6924781253958 40.90291353618854 -44.195478023566764 19.44299770658491 17.845908794475584 61.006929457739936 -44.186116214700945 -38.457803283621196 40.64988160365539 -57.0527896122485 12.0457643245763 9.55843435995937 -34.58576211555428 70.16944265416949 -3.172364712174878 79.61839485431754 -40.13605697814435 37.70370362150784 61.84372968835117 -55.701170847755954 
-69.00130105411935 -112.79396366684203 76.5562593113163 -19.38700158151199 -26.659314713798118 -19.67316524437913 10.75205082832983 5.903134001060274 -58.65400414475165 -60.353212764090884 48.94229770698024 -4.1169377394133955 -58.8139541304194 -8.663737995367606 10.52777188147535 11.906288786983886 -44.9858757556915 -19.004109264243773 -13.164690814378583 30.70405265892824 27.809982500456172 91.30119445123977 11.73783912909777 40.24508606597606 15.856148439670674 55.757543270363534 -5.819639130344047 -37.43879873757878 22.966770204076663 -24.65888353821593 52.07058191457026 -41.415716343422694 -20.38704434924972 -5.967701574436961 93.94270134195916 -64.8454297584875 31.33038014005845 -31.048327306438228 17.658122626374837 -49.38866417222275 62.06048785017029 31.70268345781894 
3.6274739785969374 -0.8962490339129954 72.26141828531016 -24.314493382488045 -19.520950948610277 -1.7568977583471923 -63.04943380027935 -22.3543768863885 -86.21901104365934 43.15640759307948 -6.792437692732552 23.594950685558754 -1.4268539402854097 -36.40973214273686 1.164349303291274 -29.700157424730776 44.886605544828406 -24.49877867709429 3.686134258449606 47.62347598801645 -60.80979995172635 11.224741387088452 16.268349100442965 106.54734526168833 54.390059663428474 -29.69405396462253 50.39483354739198 19.039196838236766 -56.28268582187479 10.852112177909417 10.059813982160685 44.159813975094714 -2.802839358202311 54.017533372271146 -42.91293109152834 -99.44448603804143 -28.333084024773505 -13.716201235200579 -47.19544616731378 -64.3520789695429 28.347478998178595 -13.470444278663448 
36.5097362040185 22.200790443746126 17.475049203532723 -64.72100843811717 25.453386912382257 8.013086510556281 2.5502126399779703 -13.1787022705907 -27.440469787246833 -7.945801140859833 48.16078059004919 -49.495392563412345 -54.50019431023269 26.331534624826613 -22.327231088039408 33.02916650793495 11.300800325396237 10.645147480756364 -7.070172610146143 53.776954762634716 -1.3879842761143828 -34.989097323644415 -60.66887996190584 -104.43455332601725 -26.92167114341343 -85.98745328636704 -17.24812285097909 -30.69652891912593 62.50787152945025 -6.91656607396426 0.9054728744873324 -27.983896960269924 3.374898546109288 20.512257520236666 11.173603582433227 -14.58278529360848 -21.72487399800357 9.61146566667714 38.569780298641156 35.9836529063893 27.164628847086057 -8.320217318326167 
