66.32536070641439 51.930718439883556 -10.859904867400019 -8.325930102480543 -62.276221113723174 -7.371618493193826 -57.91754569974636 73.3421111252182 5.415309125496828 47.48297081276221 -17.982371352609373 10.932629934693567 -54.067771521800545 -4.159113161885946 15.060681222119268 31.264542637374976 -51.89120306825579 -63.98662816382006 -46.868386325124455 -8.21852151600653 -47.84860850280664 2.328452483555739 -65.26338286426017 -17.837733960746327 74.11622987891404 -24.726208066629546 -8.542519608577729 16.296468124804083 14.769850511308572 26.608408637090488 28.817373768762508 -35.396513580198274 4.951099208659761 23.90902083667053 55.79544365521828 -13.635717749236905 -9.882683863849946 10.596751266904397 21.677242194517348 -27.553316465209583 -0.07672713492872793 19.813684292232647 
10.049687591425817 -23.473199429568755 15.533747722811466 -33.0514457847485 -59.08070090582486 14.406480242770208 27.768730396109934 -50.51079496472919 -41.55948113398814 -36.517164596313094 -56.2000200601538 29.084439076158443 -8.424037432324292 -10.932220703696181 9.817690192556112 -46.53250133540641 -11.152251396050712 -78.292017316536 -39.269332169853215 101.90826616373663 12.434770948255451 -62.50611045661975 19.6955589519231 16.22856587418691 39.54785312818825 -6.594889006459205 59.70145628562298 -50.332604358645234 41.19407822167027 -63.387630852174894 -108.73721480104362 102.56790784528108 -11.988684633017655 -68.69276457360507 18.95927290588126 67.72615795349658 25.35728553842801 -14.575368451807835 57.97846643144703 52.19681470254956 13.8212141301171 51.76013148807644 
0.5967499205220103 -23.689268248916274 -101.7762771250751 15.80746161014322 -51.64916803921649 35.00860185149526 -107.47643978406725 40.34700444082445 -21.697789874653708 -1.9659137525853336 11.823181954418137 -17.68773905023978 46.95265921894937 42.43241648711725 25.68390125577366 -49.10364473586363 30.530499534380986 -20.213140539899037 17.299176598142672 91.84757416000151 77.97725891650555 -23.505226293923165 -5.816500337777628 -51.81728729470508 76.17420865607829 -47.28399279943942 -10.579421782299653 -23.614179787321632 -11.761281295568983 112.48897003019661 -7.343547913942916 10.64271010471624 65.21919115548991 64.72926748552726 69.21803967065715 4.583693421758762 32.055615458136096 -75.39877471152295 48.09118439170952 35.28825352300631 71.65347401352277 65.2007039171457 
29.48885931556371 -46.87598714830298 -128.30558582906676 -30.482878761715934 104.44631445990443 -27.694782919089864 -105.09002894721921 73.21658504175797 -18.88868837126001 9.52810905897847 20.01156946739295 0.5836128004216323 69.11385397122795 11.563545048387448 -28.65654219952994 -15.766592329399254 40.526430821544096 54.068725406305575 -5.534761047296958 -72.90503995448306 -31.39165305244505 -13.918214186754659 -35.03751716808656 -6.040850676004468 -12.023106434591421 -2.879417892062422 -9.9620586520312 -54.88350610524337 23.969941986034296 33.42756107708393 93.03964458915523 17.545866892756063 -137.9333096095162 -10.04569445202722 57.5574749654164 64.15781788898796 40.19622263947861 -11.312061950148301 -61.33744178646871 -0.6395399652357215 -45.329330858002734 -99.1642017602695 
14.812327322636625 49.03774861339424 64.11461849544217 -68.37648647566245 -17.303054510027536 -24.0692830071399 -25.090893643518918 43.57589310672957 32.441639943490664 51.79191350600297 -42.164926014997 84.13074416050989 -63.80482815939566 4.354022217822147 -17.730150883125 -98.33922389767015 7.3021019933477875 -55.3316369718904 75.95446661178961 10.532284172260864 -51.952218055491485 16.617802731873653 26.764954128828418 -27.473685330382267 -73.76713119737663 82.90271955901682 -11.292116281713735 38.409764628335644 -5.58310058196674 -16.00161157767522 9.687454746257869 -57.36714259472582 -54.23359967178266 4.507486776944318 -84.17101106351544 38.658858127528546 111.03330336276446 -55.30169942274691 -13.551173192496522 45.517420346999145 -20.66113421852303 -30.777661350567797 
5.051586636525743 -38.87716452855184 -0.9906573926135437 -12.324224840824508 -3.9490777671257873 17.389785894708986 30.55819798462691 101.61596281951537 -92.49726220879569 -15.307288677808916 -32.265614783372534 -43.4232994677018 26.508469877197935 -56.894769866069275 36.16802583195325 35.58471210785747 -101.7562088370205 -54.90094861581027 -18.10435461033347 24.33305642639622 -19.745028255740102 32.69235161791502 -27.52089787534404 -65.99611739296957 -13.079459245833213 28.431638885356826 -85.12301453424826 -20.28445002779593 28.131532811180207 20.15722150610204 75.58431531275093 -47.30666474185502 -72.55332505608918 -44.88703088039948 37.51477641360317 23.80425786351443 12.21003483603632 20.281882384351388 36.405374193232056 32.58817579581381 -5.58817747027269 8.609037290882526 
-66.45954008874128 -120.72232370962143 30.206305008236928 -33.165010952179934 65.28065618425146 -8.513967205351161 -34.9361573434804 -36.74722293311673 -70.48703429568873 -37.385433486469786 -52.66855565983479 -4.72927733478512 -7.095247381393903 59.35436566028945 -41.91296280755563 -27.219875290304802 -82.9821062659921 51.698651257119316 8.761682219403033 28.760822375881386 25.0135181201177 -48.35716078207552 -12.445821792522263 -27.75011017337936 16.54079988365591 -70.26471543537923 3.835416344882328 27.09005974445853 36.660412155216086 30.37378642184062 -0.09883318235156745 -50.52028931218518 -27.69436761345678 49.199814375813084 22.812345764313626 -104.65172899263753 87.35806116804339 42.23481013530061 7.913932846283249 -20.90819309656969 102.76409840362263 24.54420708064842 
-26.697802000109764 28.95946025675985 46.325254648472885 -18.67674245957171 -53.52500572535962 -16.92353425014421 48.1109642834777 0.49193920933550417 -51.16670788021641 43.561740249817774 109.06814316937951 -3.0409065443318855 5.667981185931024 7.521493387267892 -62.01168017296369 -6.911062693651543 -24.473495720012142 -1.2061134303035375 1.0156565657722816 -34.721943548827355 -82.4603943014902 -112.93132976455516 24.27742464755817 -69.95662783903005 40.73217792221811 -5.127266290405284 -39.17012848192804 32.16339802072691 -77.01375068110892 -8.892225707289318 32.66109273035615 -99.85893724028425 21.440155598659953 1.601680811995382 102.0975336791487 -38.18611997732657 -19.95111077942266 29.982273641854153 -49.58480518411916 -65.50885701187809 40.7486599009253 -28.262958164803507 
-37.909836814987756 -41.45606516362497 -3.010376074570386 50.58868049284731 -19.204833083743114 -45.40145607706431 -41.97932400077975 -28.391771214860487 32.81350377414146 -20.544986124372997 137.5001072469234 -22.061437711561652 -79.81630395146998 -51.97932413027888 -31.794821655371123 6.279747014419038 -35.08845852809489 -24.889389525988356 122.03512933074704 -53.02785865608474 78.79408353143663 -18.764470980155565 24.31944592272607 54.93763247584506 -22.08152973917976 4.030597906527834 -33.04727333656397 -17.22234013886965 14.566927325627223 71.28623671441967 -28.464462421599123 35.58843236163329 33.19972245645866 36.88546652946533 74.45709712897107 10.97803866001572 9.186728179398237 72.33082566773068 -37.9820589198024 -10.807506831026966 6.0972966412788505 17.776310116854383 
-53.31638203063474 11.627944129803183 1.5387254681027986 96.29843897672318 -53.2619571432687 20.63073521682588 35.862337644844565 -10.77210960811648 27.334134804829695 24.04934497234335 -88.3167605304149 2.154202192613333 40.14830278165644 108.46094501984224 5.187173140675785 6.508811207647792 60.00113614722707 -26.2278256302669 71.49317607454306 24.973668730309168 27.094837550186107 -38.70120808957125 -83.1565115844142 -44.159591376198655 29.210021681415018 43.42449147802412 -21.847645533785567 -16.22849748200176 -53.82185437599268 24.66916263014967 -67.80181249365272 35.59252048925365 -5.251409005932366 28.183809350040654 -40.9123101392263 49.79862380288055 5.156802661635724 -25.952048891243223 -39.34884252162033 -24.501608193322145 -11.917802770825785 -0.507299575915099 
6.509908141876215 43.95936904322527 -16.499162559359064 -117.77996774395565 42.005949503249724 -79.59740633146878 -25.310783793552318 -59.83440953839471 -33.81291285230261 -50.048017058166145 -15.235728277543341 -14.027704870700811 3.2285432764662874 -24.033408315570195 4.174657108550666 120.45439546837869 -56.427016806712636 -32.1852464115691 -17.197195009857772 -57.64047148715157 -42.37083581033605 29.932779159852593 5.8700025555600375 30.555899242222136 -0.10229786761060013 37.64231538517001 -40.53296842985376 71.23172348223648 39.25172078558375 43.26931037179436 -17.844140870559762 46.450485164657096 31.50315311424676 -61.005881937629375 26.49829650090703 -26.61900597732215 18.271622291718764 63.37869809328613 48.165034311562025 22.027644298588047 -89.15399781397892 47.19004922583841 
-30.660960168080333 -23.828465412023522 -48.44469349915998 6.685983460980273 22.131577629796386 65.10429357328098 61.052883595801795 -8.38751207585606 -1.7705349873469483 -18.517819101767234 24.161267397200717 45.3115909895134 -16.76259539146192 -22.06267061737392 0.4754643424949842 -17.474456516094126 16.57132272473473 -34.67113461995976 17.835666071982054 -119.07298271150023 88.5074543327866 72.12918986464393 144.7567742676459 -20.494557326436745 85.0090209933818 -56.27527788417223 110.08685607255596 -40.20815363545604 74.49915236707614 17.441519476577376 -14.946473081797164 -12.131670225626038 52.11656216498555 -29.077039295695286 -86.53965514204171 -20.683218702667553 -79.0951230481243 -39.09822052168402 -57.223403926790425 28.87183571866548 19.40939497562595 -31.44455084041343 
1.6867654036660655 58.46802156897911 32.609680621982875 -31.065088305846263 6.427331152684697 -13.35585090307053 101.14715444556961 13.964068276900221 -26.5348082408624 21.6251355415929 -5.2771485558909985 8.040397650505282 5.064221487108995 -48.3310683231901 -5.941667061961824 15.425447721852796 48.76628082940378 -35.23880588867534 -24.370141333736814 -25.09872002058316 -7.444616615197844 21.331350371481122 18.48668393580019 -34.818225430220565 67.54850176503179 45.64460279177042 83.61316221973792 -45.290698204788974 -78.76388486800815 -5.919533552675303 -71.66171184350404 5.982341174357732 9.410935085062158 -17.12405812921167 -42.03055188044349 25.196119502039245 72.60936039005121 -11.946652455004019 2.407249910681425 32.75805042419625 7.3827524020183946 16.73544619116408 
19.584880354380093 -35.17672411715199 -17.37699059557109 -40.33485767505054 36.90273833196611 21.059068024130582 12.801553065156725 -8.533352769432343 71.81523630595646 40.85700947848916 0.12688413621873784 80.83222184348293 20.66799282965634 25.269338980298507 18.768418098426114 35.12609516212581 -78.74833586058541 -60.804337643205926 -8.284940346076414 -47.89439220066213 -14.959068670965607 27.993726791910994 66.73270991354829 -8.03439565340771 65.30045844937386 -97.42443203975067 -37.27150840252848 42.490529213307006 -40.07766873128756 13.62952743261057 -43.75888423214049 -10.553980068728563 39.484722859540106 82.84863858524128 -9.466942312102672 -66.83997467280383 38.741033044551564 37.58978103422912 35.08793231916304 -48.31004711079269 18.807276386062014 -39.5070329732876 
88.93687731879481 -9.328724442856393 -16.961405336099244 11.999586808118027 -18.659727219426443 10.144690400781329 20.291321000503903 -13.14366598788037 -115.82843567737942 -122.02301009010334 -72.81366087239293 -9.539688016493246 91.67581820651496 18.807011475650928 29.175504028193192 8.718039318640503 1.5733423510155904 69.8475887621901 -24.032460222426046 -71.12908735518323 -0.13932097556282952 6.039640649829878 51.169695220145734 -10.730814652533157 54.86162575627917 82.52643607363443 12.545541905054957 10.901534811793546 -19.08842238092034 107.02659957294578 -46.61070011174249 -61.131356123489276 -48.17967127608095 -39.88716000871201 54.568104069961784 -19.726249811568774 3.0594074989440374 -23.118714305501445 24.219426985485814 77.38709444582341 5.813367454638589 -7.92575124336025 
5.121404474251061 0.41544955926199534 1.4928400973181715 21.77939960771585 -10.79873606976513 -3.7507547634789256 -77.77424107012885 43.536282647097096 -77.030465338186 -64.44492842619485 -65.03254588175339 38.08616881783604 -92.10492216564182 19.25529661269088 23.55075747707839 -38.75757302933346 47.40958370512326 40.04499553709789 61.67545463943985 13.218864768310182 -116.94070519828382 21.88555769261852 22.145000234707364 42.45777106683286 5.910202530312618 6.250286781690265 -53.00968480377063 29.554607324313704 -19.958332102933465 -92.95352361859175 -8.56564085813293 36.12267008920607 -5.230642411187513 104.39877042084136 59.56070091382378 -15.794566738112938 -19.192869828632396 24.15381803226162 35.88836903212113 81.83299655608776 3.0096722650086005 59.89144872138347 
74.89793473623858 99.70958831838075 -33.56091428103534 -58.59611941264139 -57.24372182561955 25.789926569721874 -54.53873117148763 -38.08770658467669 23.9296985281709 -11.042980082113775 88.78803701120583 20.352274450884114 2.7926132101615697 -33.20818318675446 105.86145504937367 -30.194601673235233 -46.526773947192865 65.17797978963569 -11.134457714008379 -19.65510651424776 -38.73067130155461 -98.10777318169778 -4.9904782248049955 42.04586197243646 116.9082798135896 30.119098265377943 -122.37303568399459 -28.029210990729513 53.314343944933036 -9.989874525828476 -17.223694697701347 -73.73371950831317 14.61138037439495 51.60807515503427 32.593039003398495 8.212382218882123 19.325564044870656 2.002033522756337 2.4105108098200345 101.49210829899941 -61.78659761487438 10.837278312183491 
-55.36014223233754 -77.11210586720381 48.34128994081665 17.25276877436795 7.042420793504091 22.042794455360426 44.54582367184797 -51.451320616863505 43.835715318586146 -44.88235068542943 -20.364624420770127 -25.45304683174493 0.5329508106771562 -30.639203604638762 -9.331807301928713 18.13031261913987 -62.455437132233975 -23.25163452204338 33.71792029906391 28.714648858105676 0.4522424712111249 36.17858175092124 131.32646249168212 89.78800178023384 -39.502258859955134 -14.70158795233144 -12.897141492198651 -29.499821287992212 46.20790140075487 -9.75234314877997 46.55332185447342 22.416286742373497 64.60191380769946 -14.662202149308742 -48.441087749276356 -142.2737980776546 22.499162957676173 19.712534655395494 2.095350617353645 -52.78812853040662 -15.948232268579925 -64.47278463011227 
-62.54095623436983 77.23393966860428 -65.35067928649195 -4.838325267156516 -37.487497679419 -88.43384345541712 -36.28684202705738 -24.41074901313164 -6.679924072037278 -0.7485392389159125 -55.391852628089 -99.38724292571169 5.759267335036762 61.61573416404015 93.8145095422061 -5.469125333716477 -78.55032360019345 43.513668731268275 -43.2362760347494 69.02675998122902 -9.259272509853421 -83.84283277625211 8.331961773331054 78.3533433725313 -25.997246021772646 -43.56046839937333 8.98139378785728 -29.04679663942244 60.721955269404155 58.84380817981293 -36.22283709906154 -5.436753879319757 -52.021610696362885 -18.83142668254938 12.791948665310196 15.819413113340241 -0.9664452550628183 69.8535125019278 76.32221052134693 0.6576612650946273 35.251095096341444 43.72475693632322 
37.71202921530735 -68.4337972059987 60.660400194172674 61.707334017211835 10.984487182702251 -54.72727451553586 7.116682711507763 24.014071320287588 -1.2423032950549349 27.830740318366956 -8.87831688248182 -3.190833385260001 68.18732056824877 -13.151720163568243 -21.470463651669593 -22.801217347876875 -24.595391159141716 35.217636319583185 -36.56850522126669 -25.825057739396442 -15.004817713137191 -55.52854282248699 9.179192560491057 1.250303762656982 -17.3128381830595 -34.47574505049245 11.723382027455466 -51.8142005738876 33.81611503446835 13.176149791650232 -76.66438686689108 -39.18431318228949 -3.328273409228129 -64.84192600287007 72.3791296633096 -1.300250569747479 23.381987180252928 -10.39348981919607 75.44643315863517 -31.05791324170187 29.773150711364057 -72.37090931245044 
-6.814942744384665 -61.270828818178224 -15.352574731989156 -50.8221186708678 6.564976093064431 -4.471689005576006 -97.60908999576115 -8.625945817800707 20.48542274019768 -35.854221971605156 -14.661683106235916 -37.60899959269456 69.33351362946033 -32.886477270932325 -22.40428871183542 -22.57477191324381 28.879253678511834 1.34889807744495 42.11994839324821 -48.992228148772305 19.84627291484698 74.66488924112204 115.30725712103859 -28.552304327412294 13.732348579059584 6.761965022962222 -66.88799984836824 7.616850537690558 17.16146778727316 -0.9265996422582928 -24.098139243581816 -6.091428614710417 -20.47050606643882 38.49429185757675 56.77779455790979 -39.54385813279542 -9.451590427852238 80.01035914646675 33.14853789619523 14.043799763225882 0.7175511389941581 1.462548203631216 
-31.480175744568815 -42.43009770003282 -18.1931157915071 88.30143462876684 -25.570039959151924 55.36748710386607 64.27673009126433 15.369267474757823 3.536146616022078 35.46642035746843 24.692319300525266 -30.943387125993294 -24.508147978374357 111.89921351284063 -2.758597730114577 -28.42326740460368 -33.516709029409746 49.235154797982865 -14.450217741123522 69.31354276728169 77.70507320399426 3.220037430339919 43.845630441527774 -45.11209563808729 9.214134259812795 -27.338103533346167 -36.68139726032127 -48.13834599264238 22.29301380034373 -91.4161069302001 -84.06908775888323 -44.23329051498387 19.905683402091544 -17.358797248676975 -43.81493296289528 -61.3551075342101 12.095209426603327 -11.207976066137768 -98.92809700215942 -39.343118972602696 22.260850080873457 -69.19011043955479 
16.928264238231357 -50.2423155016785 100.73031436785122 -10.617594012536637 20.873804221623814 -34.441994386571615 -37.49990827208279 23.429054962056064 -41.324691666043904 86.64723915111047 -19.190401889190415 19.517033127435926 78.78269926214558 5.790292314564869 8.973600795544648 -47.63495664000952 14.592203982426916 21.447283617584244 -7.631604820190271 -24.53432289968364 9.546678577815538 25.12849538928816 -19.29861178016596 -5.037976831321236 -12.749559058251483 13.17154125813236 -25.4790155778798 -35.2071843751966 -97.13015021211699 -57.7933741913612 8.718550886168849 -26.06074040179966 7.625944593160902 4.762082936036787 -44.71292825234529 -102.04556967733697 -48.59255705468771 41.623597306920736 44.64791256545242 26.159316372563875 88.86056520427617 -44.30474229051433 
-9.2655206451738 -1.916131156184829 -99.09632688058907 -32.65482082210207 31.915855794043242 -59.05815875593994 -29.23341743785694 -36.19786836939971 -0.13781583571774614 -8.420611567328004 -2.0066064430256607 -6.411142420312528 -1.7599908721829662 39.48530516166152 -66.8179377339635 -54.234339495643404 112.79483878420844 -7.10652456032063 68.54478373411749 22.034454786805355 10.070693354526092 28.887442601989626 -39.08934107584634 26.376351971043075 -21.191720399938223 -13.373776831642008 -48.97229284315191 5.410219828253685 36.347365324046976 -30.131559201147553 32.67823033498197 -23.471392739626598 42.98142975691446 -25.24576750101233 44.44199242167775 5.989905877890157 -30.23252045626785 3.218459093837504 -26.692689229818885 -14.624929600390647 -74.22237707620258 -29.573597775691614 
12.727229559667256 -39.24259881123086 -79.93882129431101 58.00624262247264 5.650984065057656 -53.64006433274804 14.037888526905911 3.674794619519492 -64.28506382410704 -67.33490490202848 -6.399029632803026 -20.649156615103927 -13.315195608221984 28.245395758980635 -3.6605796508209556 2.9791018560410607 3.2739070397010357 -14.363983044861584 -4.33005581038412 9.469359494551671 -11.412325980607717 39.534489251026436 26.500826519160604 118.60912256633027 1.100948709840533 -52.29581286000784 46.43822303373413 -27.20615173046208 -38.22333833807887 -4.668727866244227 -5.423123170200152 -35.278202111827625 20.548247835214987 -16.42800537959089 105.86193717508039 18.453839396145057 -57.25647471938747 81.5462777240117 -49.43925762499612 -109.0517261854227 -25.49783667067738 18.531258077834217 
-11.523996055894118 77.57080189930568 -0.6688625921893189 78.57462640913546 -7.75712398887187 -51.54214203798892 -80.40032926517121 -11.702110715784645 5.533094800765856 -92.47601390834492 26.82279507196691 21.761272900384945 -2.4829616390726623 -41.337639907904034 31.40376303688624 73.66244169542617 21.213800633386168 -3.460428016873765 14.090461379366522 0.887018122723224 34.802079875264454 -20.934709646549848 -5.155584502641283 64.7797553481241 -20.485055026461406 -16.308668589711008 6.1450017992849935 -38.01454017732776 15.623982487826941 1.1108308958279933 -58.36621285898324 -33.3093391032418 -16.129566160959463 -24.662887054863138 32.78139826706664 22.031831991216706 38.00622878218951 -44.204852427306136 85.56264178270985 31.706687528735078 8.262912641557486 -36.561035506927716 
51.28425938190648 37.06489404689546 20.112229250574142 -93.08355864387907 -30.35625237375323 -100.30048137790345 11.609207038025703 -76.91508536002374 -37.45869297245189 -40.14582531823678 -86.71110202939012 60.33478028168296 40.036681285256094 32.57418590890647 32.81859397806211 -9.431807627462174 -32.147461862002956 57.42836122405327 -51.74431764653335 26.07849814799286 23.925123869500762 -33.032504735290495 109.86306359074487 41.62445335684852 26.84509079261249 63.54326974567589 71.57092407615136 -15.939031350894709 -24.034453082500665 -16.81427821201744 5.091180917738965 -47.91872831811868 1.2977453341436256 6.396100005959711 -34.34200009348917 -4.417200365863206 26.573856777935703 -5.904023405979705 30.638791878488203 -3.4861660584077625 28.056457718241475 -106.8502828022214 
108.11733650213013 -41.69591213624051 11.832629130056027 43.165474136681105 0.7710549956031599 -53.106571084356084 -59.184897739934264 -1.9859689296321172 18.397333688734104 84.3849412037757 -22.597925568671485 -69.37001423743942 50.30831916905767 -45.599592677698595 80.01552355086228 -40.73770334433216 35.65886411255408 46.56867930341371 -23.188015256261767 64.8888744388173 -10.020678912312933 -27.377638866289935 27.212553782514554 -25.475473552704738 -0.7333743440637325 13.377127717504061 -62.57033878946944 13.936526860701111 -19.85590059376549 -89.45972498748893 -5.161059891534748 31.50604244675819 -63.15733513796288 28.11890495721156 24.504341531435077 50.83573869677594 39.95091943326877 42.45640280222961 -79.82741618575999 -81.70795745410005 24.707680139550707 -4.133612590083237 
-9.596019179019425 8.553076292235108 22.63797316657851 -23.094585644172426 -33.719710614873264 -66.23084601765412 -91.20720955746948 -24.445680949511974 75.82825100489936 12.580420796764729 -63.3280387988307 -31.456064743115117 -122.20537573887823 6.826797085138309 24.431872663925496 30.76157907840162 -7.039081776606536 -38.45352924384519 -18.92588067671678 12.052522861450349 20.819110678941197 85.1859809599863 -44.61319409348061 33.3178226856162 33.76987327442753 15.839933738775622 32.762477144198755 15.965720088302572 12.994859431002217 -58.4254706327607 24.87080775113675 20.200291773148514 -20.780382454460746 -1.0728386840897892 59.34330727855443 91.67174706562382 13.02567423786104 -76.47383866155906 -23.614403880756527 89.46682800014969 26.857555937067378 7.894110682740855 
35.62231142622908 3.034949518876903 -64.63404179427059 -105.29199132186794 -46.249381355219484 46.370836841825394 -20.726248245349627 -32.07855903774823 -22.29160959104127 27.09490163611771 -48.010204623383494 -54.835967845536274 -21.259531790187047 -79.78452018515948 -22.855253689844755 52.99924942353335 -35.57029810935967 -9.52043297700701 -7.760506557467798 -50.6291006035746 6.94609529568003 60.79692782065775 -8.137718598105065 74.63720836412942 -58.823878685772534 -66.20590248043905 -4.41124788872109 55.987559582224094 59.429813479175515 -33.335887504025266 -14.952945412745839 38.93400187328741 -26.426626121338465 -38.85722156569389 -31.714148560980615 67.9102605123616 -55.96798150857166 -44.37725087126286 -0.19975124483484277 -103.62306223121092 68.82877291191106 43.25596354342857 
-18.595625008046433 74.1188251411729 25.42837477834873 14.552105467913556 12.112005268391336 25.271049105319204 2.294058058225089 13.057322916089408 -61.770691518051514 -37.66866491086349 25.019763790113366 -0.44492844157819034 2.834770969471863 27.867881951710682 101.76795664547818 -69.61386349827342 24.2094335494368 99.83164686094364 53.15668629504692 43.552011037217156 75.67895347814371 61.70453181255592 -34.41766422585692 -2.7003291946729555 41.51831772917018 -47.1510107690651 115.79447000020586 -13.966869318043326 65.19141510772494 23.73872880609091 -28.184427311279304 -33.85337532636301 -14.738917753445952 27.198119828886593 -19.376107689372073 6.646522198542911 14.968926768965844 -39.174366125742964 84.33906292786226 -74.12705853838554 32.30062063848297 20.774556794428374 
32.876000627238895 -98.25273332555976 1.3442808058322184 -44.763097530015116 -29.36684332290025 -9.301487266374822 18.092206128448442 -29.025556099179862 56.41189835998181 -67.66293088515509 -5.398189571919046 20.357494618077602 27.862402799560765 -55.22241106213613 -15.02382594403134 44.559851921091855 -54.9307342428887 -47.948793636053324 42.379293777537754 11.181989209837925 21.872913458289545 -63.70326875591807 -24.45408317263996 32.673575976823024 101.923069694842 -51.280943352158474 40.54959680259582 29.00440562042448 36.1309350818334 39.51391044302633 23.37433937416176 -2.041622345800624 -12.386590901208601 -9.225346127013598 -9.166560895297236 35.3974414361427 -10.467412109544187 53.384069074501774 -1.8239201839398593 26.526880789816015 -5.002485612920783 43.57685842281251 
71.10742694544024 85.4924837425981 -99.09526650469907 -7.230061643821598 -1.8719643144876192 76.63942909353733 -40.85003313880255 34.2304656940752 -82.09356382184565 32.947116573873075 -87.97184045242648 -62.6234035523636 11.696508470718046 -42.61955348769384 45.32751528634044 49.5123812510915 -19.90362185543961 71.73652393609376 -12.802333742851465 -3.024418858688361 144.22740659502944 -23.665076375486883 -20.72081814537863 -43.23259074415391 -23.908630193642345 -58.56368087714222 -4.082330468348257 75.02742450651901 42.905078428874134 -36.830073540442086 64.87276104924565 -30.59170440091714 17.913598977234294 10.217265281848471 -10.200207977397653 -92.67143002928103 -5.636524371896108 -30.223546593487242 25.348586636135092 97.04090022247718 18.313329790375565 -13.101352348358192 
-93.2299390560835 -24.84270981785924 74.01779791123684 -18.46127149841571 65.9434566693346 41.68653377413449 39.98345717713892 83.68161914487496 81.69154089348956 -86.61653183170408 -80.80947871245087 35.29930054672108 16.08722594211442 58.64880384414318 -0.834969785148028 -24.608780967243757 31.931669437734847 30.250389234071847 -14.311519309077536 -41.13633282365987 11.285828954981564 16.34099381704139 -45.725018176528074 2.420710229658825 83.39950563325517 39.8335160981648 6.303719340588742 49.54894597367065 -10.21870422899804 -33.14848775603033 -0.9058917522460755 -7.736203300745409 92.8220256371649 64.14638772498361 -13.773183629406773 -37.740570975918644 -38.99465214444477 55.67889157086263 -90.78624099375081 -6.978032278754281 11.02157574606972 50.29466804393899 
53.36967841995895 40.3246150440085 40.527251282070914 -5.630951199791259 -11.084653797271715 -43.80492138641728 -76.51745483669183 14.58494301185026 -1.3185844089120238 -62.062813124213335 8.569658428762114 64.51373091221497 -54.125830890992866 -24.207057846777456 -62.07433818465892 -7.408399935405691 -17.658940930448466 16.852607527142784 25.120518600804616 3.480468926184559 1.9412508633949053 23.18069060376385 -52.78605518929373 2.3261179912501673 28.868420323835057 3.8692323379647444 -27.33416635499429 2.086140910042623 -47.046277617390665 -8.207113887299311 48.6688737974948 3.6781778692197893 -38.89596556457814 115.09626566612782 -39.69446098863458 35.61297402578317 21.337579207719926 40.60187476999177 21.052187349302077 60.53263521882885 -12.679771828770772 -71.3761238340376 
18.3488264549111 0.9973050017971037 2.728264621327332 -76.69141675424301 7.1115986299312715 114.58777899488003 6.691436783953672 -55.286935477948674 33.6916665702596 -17.706551100829735 56.919454033175825 47.54643395172232 -84.8971336991991 -121.7904750658211 -72.44450034825009 29.656040462416783 -100.0818024281302 -25.500765129223325 -48.579311122114895 -44.91333661688215 -45.166459783312455 -15.892262271263215 -62.30564421994852 -60.8014430838574 -16.578860322528246 -7.743750644971613 15.90033346612917 2.576760949911849 -37.638552639366 -44.357511370440726 130.11378141986464 -53.846395739234694 50.96617358980415 19.687735138212588 -76.6676009244272 13.636594801109904 -52.591467926595364 107.05309399488031 57.90436956207562 -52.093297503828694 6.894891243845898 -15.287775775713367 
15.481370635472318 55.395480820540044 -31.310366551967128 -121.86627032006476 -8.903135101067997 -78.45030914487052 -12.200464232769534 -9.752492736599018 -8.291264404035232 7.620142963632144 -67.675192074226 -45.79233188672436 -30.22740414592958 -71.18656725917585 -63.889798310868265 45.46715328829443 -73.02765712397003 -19.417757665887684 -20.442782457812974 -12.204510471846023 51.010835745900025 38.28129721723427 -46.26641291872555 54.62370627928514 -11.017039871055474 -15.469872781763252 -44.89302868038756 6.703669242058091 110.4285260219165 3.6445206118994453 32.21800443104286 47.6584678614874 -75.97908436392711 17.12895422567709 -42.79389261805162 14.013959009638496 -23.69155915448024 13.920541017658973 -39.010402936393945 119.80558718900957 -29.497862819836214 80.48518252640245 
29.073499891165405 2.915714968886287 33.89384146990461 -24.838148632553548 19.21605328302751 -97.89970659077167 -27.473416551931546 78.41296944454182 24.919724599385177 42.836781287989794 17.75416321241685 7.248832636406926 -29.385994637951672 18.887545626003323 -13.089834314938956 -60.400729728636975 -57.7507120284101 -2.702120322331822 63.28856675443262 -24.015455881936546 4.368925237067134 -56.3773644286121 -3.9987615730824544 19.098071531340807 -0.0647096693142068 22.20702736207947 -48.00325876285794 77.82890767632401 48.05163899016748 8.080622596144064 -22.078089546227723 45.672542968921775 40.468340317967154 -27.225396599842828 1.7802999291158124 35.585141876278165 -89.75771454164408 -21.98779658007978 -111.2781466398855 21.84625744732523 -22.944105783202964 -14.633293091942196 
37.98296386467605 -47.9082728572135 -22.074892088816497 -10.299630063632035 -53.3250180521578 -60.108445783232554 62.81501957151371 43.423317566781066 28.080268822615096 -15.493577608639487 -28.617315094956805 6.629864944643025 -43.02360763754763 1.9926341150606337 6.449737375806142 -63.59807074134601 30.43770230297232 96.24302828138775 -0.7681457089909818 22.02731412880415 33.396385482807005 -20.018816225307354 31.2423383758673 54.74334705045495 4.627884872080374 2.2216371156701986 38.90363221273199 -25.364069937824684 -33.8849554387839 -11.868032399296904 -81.58092115450897 15.2162161339745 -15.336725628492019 -30.869037299765733 0.6955139329867894 57.16692754602678 41.45819845487824 -83.37058296165534 -25.07275461110574 21.307031475180203 -39.89448620756646 -19.795296721537543 
-4.129859877430733 -42.1909349639841 -79.2087869140032 -17.878196918678253 27.837244546013796 -72.64330626417096 -56.161285845441995 -59.06773656289796 29.893685445644454 8.568238618313433 -16.70874633283049 -85.14835280944925 -12.538615261913604 -39.811245161772455 -64.44469368371226 -62.685822661185696 -30.948122567123615 44.010514059132106 138.62977475789745 67.99946156337649 11.791843854446379 13.50538708096623 -46.03499086639859 -75.33548203228386 86.225971870637 78.09599075651307 -62.938659071886285 -65.41699397185637 16.71396192542783 19.693758045262474 196.67117169592782 -17.994262808002993 86.61459471617304 -31.78961676933765 -83.12776870475061 -82.53716255961108 -12.94157009789622 51.893876687183194 13.254349202348472 -10.685869350308437 54.62865352935442 40.184013465545135 
-14.06739249989051 3.3668970916836947 -6.374344088317094 53.466272964584846 48.10034218301597 10.191585172993225 -10.550697138917592 -61.077630133234244 -73.93902005866816 -61.36129733171913 -37.58409400533113 -68.7085446368237 -16.270535964050584 109.44400880951189 13.680690864900601 89.28719647143204 -15.989398687367101 -110.45085120386597 -9.791718414071314 11.791221014642588 26.295219436859046 -7.486676370963467 -58.10427285639894 -56.11492574082382 78.38739658169068 -48.295401143547906 23.842817465840472 1.8709842143643232 -23.231677568536238 36.29313422123221 -42.261262669695306 -36.42959687471118 -4.664669556793687 85.54936220285515 -0.6111082011388559 51.1897887079323 33.28910106635426 32.74789314432774 58.66401964712444 11.85962070731712 -52.11609513828005 4.862605347327633 
82.55391713625987 72.58754894372403 40.994106050097535 -120.32845379293802 -5.141076480468378 5.310164346975059 74.71678206994277 -20.959044122376934 35.90143839245453 -9.138899786857118 2.4192411856079405 -20.749353399769575 62.45797062502116 13.973918075088697 8.348565986119336 4.230106833478241 31.764699411604695 -8.173987509431647 21.92879101666113 71.49685592095466 91.35415551085468 -22.39046431423078 -44.957095405827395 52.62321003585297 43.56330789243423 -31.802516243374786 0.5853908849149257 29.338042665425725 -62.689614584825755 -0.1271762282979965 2.0251382007984438 116.56509747332069 48.74180827696221 19.147398843822163 -53.08126807034511 -7.047547542765897 -8.947298612160454 42.51071122710182 -19.677485116440756 -93.95332061447509 -25.28927862326514 -45.84582417976443 
-107.6124739962228 -10.585863058097383 -56.556690633129534 -6.71965367345419 53.645458695290806 80.4884125297388 22.758023877689528 -5.891978789880787 -5.933810061858851 -39.28444349158668 36.987057527801085 59.008325274388675 62.71224489771112 32.73732758081021 21.196778106070525 33.356320549430734 -51.00215496630674 105.11029099606878 -68.62258861771676 39.51025924654823 -5.72201974400342 15.267330794510949 3.6814248480880405 29.296609594444583 -3.5833352583836895 14.424839820391103 -28.811175689999796 -20.9306044571157 52.92621880171513 -9.641180269743948 -100.28440869586231 -1.2186136653729174 3.5317022546455155 91.2330122490349 37.92351417581123 -43.85119676283795 -29.994286414591574 69.3905992458628 23.989761181606383 57.82431916481137 45.17144187488599 14.796688455718314 
-103.80527644748058 -17.69150777655616 52.87348279148628 47.14097232545394 -47.68337320303238 -45.49512365510294 -67.1527113614233 -38.19458861021923 -56.92895586608749 1.9290185357403475 -55.349762736140846 -7.81736767745804 -6.852010834942753 47.85152965551459 26.22875805225419 98.15551048030362 -101.92117975051805 1.6384052464387138 42.51071511651477 49.48626252573169 24.066359665214947 43.186557419176005 9.699222160735244 76.95010531279188 59.48389717247511 -13.67871100801483 47.21614856770003 -3.4613649321791335 -130.52290258281118 -20.961290643255353 21.763811975672212 -9.066438653005656 -1.2113547659717658 51.34817125399363 65.59797034907446 -87.05153453635408 40.85891170294813 63.86254533697157 11.019244663777112 -28.100671869929258 -40.43319081557514 103.21828824433084 
-20.708251358673557 -40.43449969965592 42.64263633247819 15.869126551204749 100.5880650798531 -9.851608688767735 60.65884340473123 -3.7801415299013943 11.73819053345118 40.35630938522816 -33.6051507962933 20.08173754022029 -5.202707712535935 -77.32311314569993 28.20207204901204 -9.28009512207246 14.79033906768554 79.1446590623088 9.807222753519126 -18.20825740561028 9.09032449393556 -47.3304229791999 -5.866769196766383 -0.8150121631340392 -24.172315826314243 -43.94374059592882 -16.092442407993982 77.22730482355716 -89.85262130037509 40.4535710842489 -1.5459756100466642 -77.76148125778566 -21.714567396126878 -11.499788817969337 -41.21267618426053 -65.08732076034202 -86.40076228360269 73.89940559108292 -67.9478909672138 4.813378870277419 28.070590286348594 14.787449564086208 
-6.081725164787936 -8.186993415025679 -85.90952515124002 32.21722192832536 41.50308739118894 14.819450256392042 -41.60982625575042 -37.11902484941715 4.766556080526876 -14.688113721548568 113.35505149072256 12.340508593322355 24.723795909066386 -79.51754129909389 -37.969683415598816 -36.18191867868709 38.91530412459957 21.398372579898435 0.4645466601988771 -49.005022129864365 -29.406146139279503 15.625599316626701 52.816491933266704 14.327483239535436 15.751624651965358 -32.31617702742901 1.232460575332577 29.62253040110838 22.042035245883962 -30.129599717873962 118.52336513621107 -12.405495517244804 18.609215009152784 -22.164255724799308 90.97491421717133 -35.37728996100692 49.27095385461955 -43.55129025359221 -11.677341621040318 37.32025982850446 -47.12640724344973 85.93748977891673 
21.836536126763367 18.237181018027805 10.248793347963781 -5.3353397562187395 14.146690374659647 -35.139518521902346 -22.46749575007636 39.769651231962314 12.381023873170907 -7.647460898942751 -61.79592704586607 -4.163980092337803 21.86439659027398 -7.162531579016633 -23.146559414870428 -40.18495213356482 -7.3122309285617355 3.9632796476974943 -7.344260478028758 -45.96960570498971 -24.863124541988594 5.693107756944104 -33.18440389341027 -77.1079122202041 -6.747092327860501 15.404582291894165 2.8157138394207677 -31.828815717137985 96.13292127742926 -11.761244312500224 115.69127263373312 77.45676937439086 36.93595765034416 10.413209481636919 -56.50586244606496 -29.298779191245767 -55.59384744355943 9.83982404375523 -26.53230141501476 6.479060931946885 51.90097795506839 38.671597382376454 
36.35101482058077 -16.4326536341603 -79.80778573493114 63.153842587514156 30.358162394693437 -1.255917474096363 34.389914350770376 47.15771428343848 -22.302125751673103 10.298527487483256 -10.37831281686855 -44.76097925789595 -51.76254660711757 -70.7342444767635 -23.84431115114773 -29.350793280853633 -6.390982251562516 34.3172162884204 -2.433563849422136 -67.16685825296844 -28.94250865150301 10.281753122011962 26.608187368888462 -92.4969231513479 32.703461725635435 -66.84898383438919 -4.81098397301417 22.830876790865222 -5.262051570911277 -5.651184638504674 10.61226642814274 -4.6951534107743385 33.23925342941314 -29.8104261315504 -73.30189037416521 -24.580780334051394 40.75474273030171 19.88365304614208 -22.657876499968193 76.03852448043212 -97.07490636235217 -23.881428675566273 
54.17282207957242 69.15840657082485 -40.19331432998992 -62.13023257720796 -32.798029174213376 75.41967359046136 1.2832466331416552 -42.79771353507344 20.611531617755123 7.5104199636015085 27.568387826341382 -8.747707068489339 20.548954834697813 -8.140149563831692 -58.856239161687846 49.27986184054814 -3.831534897173637 59.54347481680078 80.30172693405699 -38.32050761706152 -53.89761317293767 -70.30928560281097 -39.76194600398767 -31.141005347076728 31.6151088601826 -12.544290918044902 38.72344535131259 -28.488818301914637 -1.5796368452294571 -49.59985907155242 -10.964371098517006 -72.32749300935065 28.055043417809024 32.00728442359555 65.6326839811154 42.20580541527802 -17.342365541137777 -95.55557824601175 -41.69231077243826 10.25165507624564 -70.27299647000767 -27.596660563221878 
23.546400400873313 -27.68849956068043 34.20808003037639 -48.26462454622673 -74.03350261434761 -18.415957973984657 -83.23086548611025 64.84613195666408 19.05538970833709 -12.61723564005241 -35.61783223425838 25.625993165430465 -8.796830297634312 93.90875723617883 47.48343802531046 -44.287617306536504 28.20145786158957 -31.41788085743792 -40.33419034092405 14.022746520528623 7.572269052771533 37.41537924730789 43.711052295121505 9.116891988300809 18.801599657651536 -6.937783001975488 -5.810471873843824 -9.248949841276552 -51.54960326558652 24.58117850792363 46.718408611259356 100.95560845693458 38.845961813599764 -36.27898361540459 -26.78047101630423 6.2909584735164525 14.87052385224879 29.238334923809774 -21.52251185383339 84.45954240266326 69.51352747453615 13.371613162273505 
-54.29481205637072 2.8684424572250005 -10.500402019330318 14.072574135235259 -26.089796767453706 -21.795923268964184 -21.000578536017844 152.4333384591601 3.2313778873368606 -49.85917444009374 99.97358508824337 24.04526494105395 -9.699292433355065 29.32500209280981 -49.18511133055628 2.528712555496696 19.208018384436308 125.74228129506103 7.609734962761036 63.65402927709476 -28.17390477088991 124.62157160620689 39.67715620465878 -30.487741245856878 19.275152977648528 -79.97485531878979 -0.6492804203606102 58.6623278792025 -99.30167274388755 -20.84148821332025 45.934809045285725 103.4793250514651 -21.072941464847222 0.5027175748694599 56.77461928930394 21.03119260743462 -39.70113574227463 -13.605491445039947 55.174864718967484 108.4596131931514 8.137557987140095 31.328884148913733 
-85.08644827038674 -44.00313300385034 -23.58941151182604 14.227511694506259 -21.128952625581704 -4.3726886813324555 36.68373189095516 20.176766456451187 21.734121825474656 -53.423811520492016 60.10368059981272 92.60343872981473 45.18164670275767 -11.396167749731411 8.253861336325645 -59.08482019620493 -15.060373140407911 -17.593529071291016 -102.71888602487905 -32.628952131387 11.816770079662145 52.89187547764956 -25.577338971059767 65.74412354772689 10.441682044961235 -29.587300175389885 -47.503451503058834 19.986980510701034 -97.20320575639577 -36.381638722398435 61.160290109343244 19.407253327200955 31.647563980260458 3.570843348850753 -20.641610621756016 73.2738205547128 0.9830152285223329 -13.452370764634413 -13.05094984464928 4.964417614047811 -73.40784215437152 38.172700245287935 
-16.03042978603877 5.514600459605209 21.8070809768669 16.65446457837306 -8.808680499603966 16.0325470922165 -37.0932718469195 -22.3818450371499 41.70045009446513 14.389045441115686 3.0366405703625934 18.41133093170021 84.55677083916088 31.235387984581457 5.4146268055463995 44.28000561629726 20.100147551331023 4.744838014443865 38.12665605504283 38.80259416877458 -20.46610606345501 -10.517823967522235 7.8956199378587115 15.403166072652873 -31.54152383207423 13.4713907701462 -13.303757753888053 42.86226710222717 39.10560453067521 41.10768546805788 -0.021234717348151015 19.03299974838364 -13.217946010297261 19.773885504220097 -63.30472707673635 112.67470432985691 -85.3323662407372 19.269419594300306 -65.74360500893636 45.18840009780294 9.248608275652183 16.577082364906772 
-37.46260387426039 -10.550487325914935 -14.216536087599804 22.953857011469445 83.27777451516897 -72.9329736204856 64.13160387748215 79.65249802006066 -74.39980395044454 -54.66905043228844 77.11031415539185 -73.87496338208761 -48.20332372508145 32.03985206641122 -23.228611323920397 13.858514913281843 -37.329425434419655 57.30279671851778 2.760110163384461 -8.780950159856884 -10.581634018662541 63.568124187559995 0.9385009882027757 -10.166320946565717 -46.81151991422254 -40.39132807810943 0.8397798487199808 -50.77816749040807 -105.42431769376357 -26.90134949024987 -16.854112996120286 18.398720517919017 -57.64223663205144 22.24042742729284 -8.798829129359502 -13.940119034688745 38.399302224438514 -57.85466718199912 -66.31025442124526 8.057189737227665 -29.298922751319836 -43.08044138587446 
87.62718971927931 56.7663849082094 -61.8742365859239 86.72225687460698 -23.54573627941421 -39.12685380281902 51.232456528711786 50.27376864764433 22.503405215626984 50.54516149664098 64.24232261518311 -5.8623244815941735 -71.85137142362998 64.1684041939227 -44.32066116199056 124.45389382657642 -34.22701608238906 58.86222326810253 51.91883528746519 17.22760183242459 25.74492954660164 34.33732287717627 57.111955819279096 33.5935711804679 -61.65609332079819 33.62264459520743 24.375290371122677 84.00733064253797 -31.33901542463754 38.982416253638846 41.9346513243574 -25.50905771210309 -101.38710669861118 26.476824761760057 -90.76650458540158 -8.913422625004436 2.812299579491293 -40.75497878211552 7.062249682659841 -83.42505646418765 80.04742721290985 13.038046360080038 
-58.6001017030481 37.33623555341347 -22.468369421868964 -39.45683795795359 -5.51186503698322 1.2892066344484066 -84.47671856251917 -59.173452812463054 -79.19789825278677 -62.729249054347775 -28.918624927962597 -26.772194600254366 -55.4310948361029 77.6670002296857 -39.372707897352576 -56.9399233715946 5.160929208401482 34.15000690173842 -19.519043500610266 -2.503989700450647 45.78388981690167 25.19189159096114 -0.3158941302314181 -3.5374582461920046 29.175756436387044 -88.09389495021505 33.49222160858645 5.8038278953246865 -33.86738455754686 -67.73263710844127 72.52664603323925 31.245720536493753 92.58448189078838 9.209969750948384 -43.931794023145734 82.96760980360166 15.173290528163681 1.5422444114109741 -1.6386335699081893 26.420126510501575 44.07453632276638 39.07411402170598 
-50.550630452030916 -9.2618674923889 -48.890678731887974 -0.5078948587358283 8.686715987091443 -80.80858924985827 -27.521124726791644 20.852560887069334 37.056903092225966 -57.71843159457351 -24.690046583349876 -39.60973301506712 40.898613352956936 -1.4178131374286405 76.17159128680115 -31.17104582065107 -74.82099579761204 -21.0350468643273 -68.94831905161111 67.08027660158344 -11.143579622975915 54.21276788457316 -3.601304205510576 85.24444344956797 24.411545379906322 -31.636607191670212 -9.849854701958147 100.44425203203397 -0.29258671034049427 -83.02128937947658 29.26037688337462 -20.02866620547584 -52.85756870404998 -10.861897023071174 59.18734645483561 -41.543111248165445 -17.643937718820155 -0.7616325114171077 92.33328695398329 30.543203409169866 -48.65982325605951 6.216918689362081 
30.125481237665753 -41.59272259612435 20.11783165512351 3.6974489454810624 49.91638760245149 -116.01232838548128 20.630737548703433 7.092164091887264 -18.456506992225005 44.76383852948388 -39.627444545852626 10.598924838370925 -0.44301847483280143 26.526138667371278 -8.728797633819669 4.561873877955076 -61.623195063728616 55.49735640880981 52.61029831902363 -73.74348965757619 89.92373900018836 9.142764947075468 -53.87809859593602 91.08818104671538 -9.455835199752487 -30.089004238161824 0.41463525546341023 32.3120074704376 57.554532972634 12.769895697876803 12.552087588638877 7.633545827609429 -31.251895495459706 -40.044937498484884 -21.457476507754837 -26.919204048460514 -1.5504003696357829 58.98191872030256 -33.236257834710315 -51.541084384545286 -46.752746800345314 -56.45787801913964 
12.995028407310198 62.644724586933734 0.15197541371899376 -19.18745437844608 48.753758237573 7.188224701738364 -58.688102317205846 -16.45906881321578 -23.92747464890261 -70.10853676922005 -154.5211614621837 34.35392910254038 -26.111325372238035 -29.383902987714453 18.83060349597183 4.976171011512487 19.06123216031795 50.35098070298199 48.930331680371566 -65.45486419944916 -33.91593144649592 -24.22058774948728 -99.41220521077233 -47.76585022517346 -17.28099243901594 43.64644101209477 -97.62230158332184 -34.20839236138738 1.3982163698915984 13.673931382819115 108.85727171227467 -9.837193965611405 -37.90282936199811 -0.7732075279110402 -18.65388853123188 14.167057379997065 85.57828876129398 18.091262807983153 -81.75230465066649 59.65933353275223 -93.50276073693873 48.6669526623901 
-33.81446510444816 36.21008239857825 12.231185418866097 21.370373798321676 -11.134366703711718 -22.424634038671055 22.612586472281425 8.46479062306264 12.612449617877358 55.43993394217677 68.726878154959 4.3363647954003115 -81.45378173122499 12.800384348755243 -19.546455284609337 -8.565003619430707 45.787261587133216 48.53191313098163 18.00489099412669 -84.83899634199433 64.29917326796729 -29.17095717445945 -12.59236636791034 76.13696869393421 99.09724218828048 -11.39230310731519 -16.269361023152328 88.96525078827443 -19.26470053486348 22.50615706995466 46.9630894767405 47.12056526627423 11.431061676815991 63.51291606618815 -17.174921268305614 7.564183699959164 3.2078423372092186 -9.079344462225905 45.530572893179894 7.684767354338012 24.050188675153453 43.441162036155276 
78.83235499866093 -52.64932095631005 35.58524569246153 11.138427511612289 -57.36012667446421 6.447224169653362 21.458285416427376 55.48048403172521 31.3124826715884 -56.22218748663964 2.539832157245862 33.989219145022304 -31.97718928638528 14.028732980089387 31.911592295264274 0.5693502833088608 -66.68965411358299 -22.497211192390083 42.463718617253235 17.51773956716004 -59.03609437801936 46.9981355900819 27.808308033021177 -33.88381033409907 8.32192742902496 28.195900128045064 92.42930117911567 -45.72670461527422 9.791045649201012 -120.41917116699194 -67.62700217426222 -18.716223717399526 -24.125956491899288 -89.94018053688035 74.18945311051614 -38.359638489131164 37.63964255568959 -56.04060112350233 -33.89607011776138 87.99270715506087 -75.70268220595914 44.398132224285845 
-59.473669575437285 38.082370862350935 -0.6446806522369359 75.46398493117164 26.602733918494543 12.0664109752684 -30.18993536465354 33.17496565658687 -9.219350780116288 -21.923935395670096 12.255790368368102 -14.658371803489388 18.46880987580994 103.99264877059731 -4.524776312637988 12.316070505699878 38.567569534066706 -22.337318866289987 13.824661162849612 39.0105663325743 -43.54463763712391 -28.29360032879389 -25.746344412398336 9.5900252001911 -13.293964213745724 -64.41589191656992 23.10486239634873 -91.26060463304523 54.43573890774864 13.199494904240618 -79.04738810021112 28.18989980074901 13.63390453266166 42.66739628135761 49.834131424951075 -38.62792508136215 33.83679323763078 132.96560701402223 4.02766346727068 -4.9869281769249305 -60.9706289280343 9.706193899268523 
-19.20682435658638 -44.674519710970735 20.210681584958124 87.18834582393767 -2.5122543522557668 27.118815697890142 44.18356372446061 -70.79955727063552 63.8117191081838 20.690961632130886 -26.405585473698682 31.708873957304245 42.64309822011661 25.282172112936223 -85.8199344014883 -15.45623919726784 -59.36594893621065 -71.61419535929444 -35.814414008361915 -82.93340309509294 41.64284310785105 -28.293703415594074 -9.631401601063295 10.603891450551707 43.64951419520652 -12.246650114208665 13.853332582158572 47.808386055070905 5.690868438661637 18.839456924282825 -28.848583710368544 30.155904394793644 -84.02752083708152 14.637295473084462 -42.38714901520303 -118.90464049776207 -67.81570740160986 27.98712525616142 64.31718790571227 -15.86454830923349 59.14519660532856 -11.68293726820086 
-54.895748152093965 18.941821777466505 -17.184597235711983 -33.78192490716488 76.95808407221614 -39.38925777907905 18.08672014023007 24.323094827123402 -78.94950672374256 -59.577271477372186 24.306974038131326 -4.455947817492933 30.91086294509056 62.572432717077135 14.026615700609554 -52.15735838760691 -50.030794538213385 3.629485999959151 74.68240937533889 -27.26805039831389 20.05742910982722 -23.040945132712995 24.152217579775876 112.92577735516574 53.63949510593513 22.674181928345543 43.95658555850133 -9.954545303466968 134.68590574040724 -35.858373394673386 -45.127048438149366 -25.764705632583418 136.3537794961575 31.48272782681945 50.423234259736056 -17.63753589720491 6.876988029058452 -35.39668941080626 55.71965398277181 -10.35155135740863 -24.562661965861093 1.078920390570119 
23.47386695683826 0.6815068870666949 43.63928743497151 2.681450844876812 -6.094930344160238 22.043177293699692 -46.16621265584527 29.427080127940314 -68.49214028573064 -97.64440586330271 5.980492504797177 -13.615855580697222 -33.20756767674276 54.99966001247177 93.69616194489438 28.208275243020687 -58.01787359943436 12.857838509441198 -46.123276565602985 34.703141967804946 122.7278465139355 46.497108496350904 62.26532677379001 39.944333014994214 -29.866748019147067 -12.349075615799185 -3.6463749827597547 19.341406267567546 131.83386624914348 49.84494585839698 -67.97302281932164 -67.52839162065469 47.56139079035768 34.94444150059247 66.60723845774717 47.755530591355935 1.056010025654936 -24.25945276580009 -24.26056232742593 40.78877659104382 -74.24568797414942 -17.873810937667287 
20.857752792253894 34.50119477354158 -12.509367322275967 -16.804210629900584 -35.47813877552534 -15.127216735147428 31.74740048602685 -68.25274493557731 68.54055844167084 -30.36651468752549 5.544283824469283 -6.641351146628431 22.546792995527554 47.79493384307844 9.166569839602198 69.83174033815524 -22.526470776773238 106.47783234960959 54.6769578938161 60.205675255874624 14.203649635910777 7.948364242277666 52.35902646320985 43.9171780767368 -78.51154869922908 -5.917775517899483 71.63259647389812 -28.299621621654005 -2.223589593331477 -37.21637159019961 61.75357380086593 132.57874510156617 60.63833109437587 -11.966976506614929 -42.788398820453 -52.05188563783124 -61.5455860616646 79.96525881620644 -17.033257266829825 18.44784394801561 -17.626787458893624 7.710497387745104 
-34.43262181608013 46.08894997339099 35.03838577133736 56.96030187408612 -12.449779538841064 -81.30217352565536 -28.79211212200006 -61.24796988410732 54.69193615941743 0.06858321446210523 -55.644851023165344 -55.90666527751188 -165.6941774925219 20.325228480764906 39.875029640797585 -6.315824229942247 -22.798094380826633 -33.41299501518966 -127.7202822836856 25.518757832110474 -1.4355192801171364 47.058124481800284 22.66235566087493 62.168940621051306 -54.010785193469104 63.93508528564911 27.569887893258667 29.274429703205932 -16.732738401234013 30.493225781713686 43.280610010012936 32.17386593950973 -32.449046837701616 -3.601929421238037 -14.958020523655293 -73.32502825515023 26.857076187092485 -49.30095702730234 32.4795238628953 73.92820510732795 24.116798312886612 -59.23703075650384 
11.648295824516921 -2.2571929840977867 19.613264932710905 -11.722477299067304 -11.079592747169126 51.22107596332783 72.65238634020358 56.77459421627842 3.5083170910112775 8.696563800838733 -29.46839347220408 -47.2087899068678 3.9695803707350166 36.353864385711184 0.5415457496316295 -11.400621368361978 -72.97019406849122 -25.489063242559343 87.26597819035068 51.78096924998607 -104.81286223606728 17.32533385699904 12.72439500058237 -9.570071973504884 -2.093976140789535 -84.30593396857084 45.348576450782254 3.67683206202136 -45.00746591628056 -75.20177094734044 -5.096645900300505 -35.94487507265382 28.447913536581492 -9.049629061646623 13.328095935637327 5.031982502583053 -34.249986266290215 -8.6126909327427 -73.94660125976807 30.994281014590214 -14.206070992894198 -34.666113067577236 
50.00086131438903 52.287316851992536 -73.34226333863423 -18.31310811503399 98.45104941302199 -33.79010122719224 -2.420738793561274 -58.20373117076283 10.720079803801058 -42.15289017878823 34.568969977973346 -17.193383934586517 -23.701961587164618 32.37193207576039 -88.94640974235563 8.99847165341217 -107.21472923625183 -58.104589488465585 3.8938835541275822 -3.292005786372386 -45.21638225259692 76.44321184466963 -18.422070083466625 26.680447968990464 48.18119660129243 19.287497723501758 -12.818044847319435 -8.541453089509771 -66.57555143518113 19.076906358591174 16.47563563087446 -69.83637942991858 17.99214478925304 -45.14052233214067 11.796161220370923 26.251918845470296 -50.41846688999037 20.57470542712586 -50.92763200783049 -64.15749218219979 -15.16304856471078 17.249541627032272 
2.016182137625121 -55.35007985844609 15.119365242732211 57.67316821182368 20.916483201519824 -48.25262263383402 73.6757168060706 -14.728576340916629 -6.948047281356648 6.582127578217044 48.40898590876541 54.90366982936672 -1.4175070912509606 68.06054689115753 -13.096323390578803 -23.740315059047 -41.34377172067195 30.805930024148534 91.70687712362783 -5.908114485866588 -29.42659219152995 0.16648111769411433 -10.99006522393428 22.62647811151236 5.4459700681550265 -4.4639614648709545 -48.989360393590665 -56.75974453530334 -20.653338705392212 28.032145270262063 13.09079918456535 24.14536595729752 13.63155899375088 -130.86315910781997 12.610062487250115 5.756613691346371 6.180128193678444 81.18887891668246 78.95000014117784 23.226563653166046 -26.521652744660837 77.08347102527982 
-24.91895742766102 -15.381043156463658 21.00297976065225 31.423014622817607 15.64609240775335 42.68565288029909 27.24559147982393 1.4482203190824143 -35.57475199517051 -51.45653345159701 15.009163439430079 9.527169872858758 72.98957602384885 -36.26782187681678 21.57799223954331 12.557400300488599 48.01227709214646 -56.368068974966555 -44.333972266265455 -4.150688068092819 16.63156610949739 28.582540210406428 58.446531213045255 -60.26988430227417 11.120788728520544 -57.661307490973165 94.45856242407828 -20.0478752650647 6.592876805456457 2.4073776332418486 95.79793352067465 -46.60742549082847 14.672252255209305 18.30227259809696 -68.28929722057224 21.921139110251968 25.122191195190442 -5.475785666643547 61.724739355667865 -10.556016137140931 -8.011013971827365 -7.80736960372555 
73.87090351586683 -47.32735044596481 28.449696750541406 -29.166719215262386 -30.701229836852466 42.98313759888174 55.71370300501696 29.738582922106414 3.175523644858558 -25.852610248231358 39.234147150536096 51.47598769193743 19.525262157211717 52.924591365963785 -54.268677081043144 -56.15911765354491 43.94061503985777 29.886291108485658 84.20688532885939 75.68885263640439 -23.339430265993194 -5.1795555333109675 7.22867598259671 37.54033922986881 -13.474588388817518 -72.38332002857587 15.124831530355683 -23.53483144623126 -74.39428254716644 33.41679183470459 -67.06752677983121 10.072346779756826 -53.160433655447854 -7.058282975867896 -51.141969874980816 38.18606114424049 25.74733779866154 17.942396326209714 -62.27212319564473 -14.401634848368124 -19.93444307999318 7.562493223446818 
133.92519627202023 -7.5377756663655475 -4.5107041049990855 -20.60335982268875 -21.22550530476896 -10.31525796843641 -10.2733662172466 0.07476541783267274 -73.87357140479197 37.17901555428684 10.162138918707194 27.66930531579024 42.33595274607107 -5.231089386071556 -17.875904777456242 -66.89906296745566 -15.792762375250605 18.144613134172875 44.61296793554563 12.37904574999433 -154.43698087936676 -0.9816573665352336 -69.80391151476972 21.203029481127924 9.432985197777485 0.8194421389696911 65.7682427210149 -41.731469396052475 -58.936334591671546 87.90624119322774 -26.69015132589681 70.85141578176918 -36.10760771247461 -18.802882654922144 49.741043071054946 -25.4616898025901 14.12969778066557 54.27657853102532 45.386001756527314 -55.671432146055906 62.701193760335535 -71.88633379116095 
-33.10920463530554 -91.82705127298088 40.177316841082664 49.670291283942596 39.301173398148514 -16.867917134980452 -71.87674006069265 -55.33224330084087 -15.365279780537886 4.050491878069669 -87.64768415545363 -7.648394915283872 -71.52244049070733 -57.99037256642791 -36.40582016926822 11.266791723877517 51.038564901155794 -1.5482277084400216 4.535258248973506 21.275571616232558 -7.291454799741553 78.19231176381065 -23.108945131267884 -48.008470791657004 30.847322690230662 81.62555716877014 -16.67333248694128 13.677041557793343 65.55612290934782 -8.853348326987327 -48.55001725144053 -87.32258045536234 -95.95292472298911 0.4859548214042689 18.850603475592123 46.83697021187508 13.035776238244006 -8.824031579103163 -35.124665240905784 26.59763585635984 28.930463563030628 -64.53023275268355 
41.34306374027779 -18.187970374086387 -67.04664548164193 -90.39840160582388 -81.74459493884268 20.292814813088743 -0.03412166661420633 -68.65872576087288 -7.283705129995014 -45.728352455185735 3.0284870901623293 10.500481370096084 59.299461804270656 12.18490774096681 29.171728246196935 3.9459892303720765 9.123932000948793 -47.427334063184816 -44.75721315475416 -40.1522692144941 81.0747146992348 16.085949455500973 -66.21568196840546 -85.71361387873041 -17.07906196476394 8.086522384544438 -82.47994411765481 -86.94667958138842 60.719880549003456 -4.135130411581747 60.345224931468536 -1.2293616132477385 -51.17937783616994 11.62848113124013 57.80206175850271 34.576296748097874 -64.03871443783478 -51.61335378203848 -91.37688821068899 28.681757603607657 -80.88223318122441 19.958940412603067 
-69.40263384385507 -47.175547018141096 -55.35454223028944 66.14047516255161 -8.082952654725585 -42.08152366241525 58.27411201125936 -20.661163609243417 -11.846765029534929 -89.0641269317041 -6.032026399334387 5.571030928354073 100.7173315970504 -8.12935873561438 -43.84939082058305 28.85011601355753 40.48994496463947 -29.95893884266708 35.13685138186442 -14.49142756327871 1.3448509875757566 -38.032214939891226 -16.07477297455922 -53.548949386616904 31.899846215974353 -118.66458508073788 19.43201674441543 45.6164332978467 -1.3721292586403173 -0.5410062429129681 -43.34083076397356 32.632264648510606 -48.11225328944038 30.4443215099374 38.826838833404864 -34.79293053424236 -31.096205041249586 6.949512145322764 -34.6164344526357 22.916915799307194 -49.81216472180933 -2.0974970381804336 
42.72404316509209 -11.37429867322744 -1.6994392765645394 -34.231792486298865 -94.52338219309799 19.015283723006043 -21.959830150511966 -37.18464564784727 39.78090116746961 32.010756074979085 11.376230609091435 -6.196020947668634 -6.0761608681244486 -45.5772878736321 22.402916636815352 30.308193374041437 51.4547520525835 -18.918532821123694 -18.41701163125025 -71.98488650218208 15.501638621033845 96.09713729237474 -5.449020617141768 48.72836229449828 16.585430196430895 48.528078751027884 -33.32766853869831 29.930940142371636 28.3820731591474 -0.33498424213129424 -8.576272776481124 -16.995680168451766 -41.25219859305639 30.198796039115383 -12.994220047348154 69.6247910220388 78.61821139996063 28.29795452759134 -78.08639926878918 -102.50110646868197 123.13878975292268 -56.43660439462476 
40.796510701159846 -48.712025592639534 -49.83600022109186 6.9730668880938955 4.439995026952904 -102.98755161731633 -50.85484024976357 -10.727068746521896 -71.61148573031649 -61.0960940868156 83.55877561688847 -43.14300961217425 2.6722884798436617 -92.75509304539622 3.7520582662578112 -72.3984928493056 -28.638876496837185 42.48646048497439 -71.6484354245664 5.035718648508475 -4.5270317972997 66.11010449467112 -11.62652133634338 0.8915942038359674 88.87678484057207 -74.75956143700402 -29.32561964499363 46.26350462390393 3.631319058270596 12.016316114958464 -20.224523955020434 59.364305751743785 -34.855123308798845 -37.07192649721995 -49.781588939010035 29.649691767596796 42.14684441727437 2.1743297771491124 81.3354369444417 -20.155513931620153 -54.24534204128375 -29.369537791227437 
9.568127615359527 20.482008097274687 47.72545600496709 -59.03469458713836 98.31650378015816 -40.92269438004615 -96.52261839915546 67.9189208317876 -88.73356695277258 -65.37145589462934 -20.61652163618879 -28.524974029198972 -18.11769012737527 -35.06221983527546 -29.643348482733636 21.26855307705234 -45.401647857745075 -5.353925105507641 -79.66097212670434 -26.26076847516647 -10.738198682102006 -15.076640866354483 -8.589370306557662 73.98655335046568 28.174391981902073 58.23763723214104 5.273520335757446 68.52462841171143 -75.97421519249215 -28.997326798928796 21.709789934269207 -25.28577056452144 -21.23547676727773 -19.164332905979837 46.88032174632641 43.08415360515104 -72.45856909789683 -75.18971137687221 22.12339745953431 -29.74829678173715 -8.555239731477084 -15.795121899924132 
-77.41595247048444 28.767732879125088 -28.510486780203063 -10.958456653328447 37.22739307374803 -125.02122639714045 22.91122606731366 6.061619937482876 70.4382153098912 -21.54971725554987 -10.312811885404317 96.68411146913634 -9.62101404818589 -126.94717177539071 41.2823915709858 17.16075520103624 13.810959089064504 52.670485093383135 -52.643516715669165 -79.51681691376571 -0.1824507093750765 11.551920140635772 -14.571981300484978 -48.13200767383941 -27.900278666830317 56.358787901650565 -62.53613035182993 31.394639344281572 -44.560817830092155 -21.86941602841192 -42.69946941453413 3.896828180939737 43.967703162680735 -15.094829771270206 -16.04440623388574 -2.3932085559981426 -35.564577543712765 -33.29865774541323 32.48719401046874 13.050094386006766 -75.83824873131789 -44.88537571747408 
-69.02509516491847 -17.142343846602596 -66.86673318462817 14.104413544169619 35.20671338669487 53.85385525485307 29.032795008776837 -24.549485149135833 52.23007713583508 -31.936563214304623 12.534107624285069 -15.87653162059921 -80.01478561591442 30.95493405178872 7.0895008384829215 101.88736780335516 84.90782537879338 65.62129577161717 -4.548009876830197 -61.611840636323166 -14.79613802078231 3.838824204012359 23.871480029541967 82.34337400776147 50.559016654550334 -11.158360384660563 -43.04815088941806 14.82494362414388 -32.74747563894985 -12.617432084329984 38.49205709427669 -35.118785585141076 25.443546963607496 30.832225725709545 46.351660930951624 35.55709379933395 -80.25405778391631 -45.974427627482434 -94.88758781198392 27.478748589475394 -5.9288528621380046 -37.28523151775462 
-30.792363196562334 66.67313847934548 -12.742201329461528 -35.2249127429612 1.462833283053598 -109.76792130419577 -46.56814901519945 13.718758495082932 31.211431180170933 -101.16182383048077 -23.696755848562763 74.62009251699509 -45.3643288371565 -51.667784909327445 38.80777017082719 -22.815721829872906 -23.070196331652415 71.13545547682902 -72.11221522280785 -59.672185004011084 -5.0588324910165055 -26.76056371533134 -92.9417413966493 -51.26733157223991 52.786982445941426 -120.74151393614908 49.91950287311591 30.122983292727447 37.22946528146447 85.00290916293805 -55.63881866074392 -44.653015401420305 -31.892163232493143 -32.93301549218292 -14.137935848217843 13.548410994721415 4.662297875252364 102.6291823608137 -30.902303121245428 45.75812825085768 20.77355563405033 68.13510136051042 
-74.40958109274364 14.152397013926608 -93.82555602177531 -21.807933983837312 49.23217927039343 -13.75566874423282 5.578752758931345 82.72174123188313 17.402424494604396 -28.627173915704727 -14.97566059865528 41.41286019694963 5.2303030072161265 33.98043381650026 -58.453501192809796 53.41525485116266 -60.848705393969674 -88.16977389346297 -27.749437452940587 -88.43679284697997 -3.439369426566636 55.33770521880102 -50.766209233858355 -12.314158548546525 -8.541967861138536 -18.412403448367495 20.403973477078512 -51.62605262465393 28.09488917061776 108.86343012740018 34.817594559598845 53.51574715018796 6.237380460970098 57.47093825147723 57.811476920401816 -106.98670092344004 -89.88575119963542 -72.25024824898841 -13.04449439424929 102.99464140249758 -51.49591654899593 53.62316355717952 
-5.636566844122366 15.07284956336944 14.151547418610404 -9.863775112350783 65.53477997362803 -47.25251672525114 -45.24731878271949 -74.33430654682967 32.86720204164666 34.448201779931594 14.006629942468102 -18.664930682037625 -14.107394499785919 -47.57538998690541 88.04075483236512 61.53337916871712 -13.730343014399114 4.5025461625490575 -97.03808314258369 23.08082655354229 41.65917122145008 -18.636797477080563 23.534688538760356 -27.764380795887487 -70.70017806724825 20.521176269511653 -11.391909171711633 -13.692428786428986 -70.21962436748714 3.7906413190088646 44.44077983361857 13.417354711433427 57.056568977204186 -25.548776225317326 7.518520772739039 18.77963927457193 3.32829715710912 60.59001883826045 22.559648131571542 45.50903819464387 -69.05911380933878 7.291210179879321 
7.977029609899798 45.733402101480976 48.22065904010863 -47.68862941420563 -92.7685465146442 3.0610691428484573 14.653312786072808 -10.762997214483788 15.148395500408117 -99.50865252667285 10.578010905815288 16.909297718969682 46.44576888558383 -14.840902543834094 -117.80800860422876 -5.435920786889335 -1.9420324391719075 -14.17853176345709 -40.88458354885116 77.176421812795 -54.86192188415597 80.50601687242893 -26.09136185068284 -82.88552351840791 -1.5515338456599266 1.4989814124282204 -5.741439653548448 20.06472267154671 -16.16290681717528 4.653721135244958 -34.670240529568254 -20.925394898277602 -48.17211132501333 -1.0726733107864956 101.45447508308149 -10.806750923295066 -48.08423550526094 2.825552092299935 -58.05535173434853 -28.149485760849412 -39.06623533413162 40.501733075255494 
39.65550142760795 58.82708112548205 -35.7115884537422 -21.648211336050373 57.15025040935324 -53.91008665050458 36.06081090325988 -21.32023562027339 53.34039753877235 13.950496692102881 -16.5462966261641 -22.958034869431547 -24.047074215332188 16.784009111327787 -9.263265060177385 -48.504391385103716 -36.538421361101534 14.217576376346123 0.08345659164520057 50.04240697016735 21.858871609768023 26.99753696509929 21.62072647298625 -76.10971518858867 42.395594068350675 29.754833870132277 30.1063854320788 -68.6664761176928 -63.20384298550306 -8.226531954146692 -7.953750556149997 -45.95560313297386 33.634056379358455 20.698242160621938 -20.756773773328465 -10.207429704400415 -25.43473458365728 -43.77293574532668 -88.73386127892148 50.734762482509396 -49.65359943622008 -6.554055978881525 
38.58124837590281 -10.121535543865186 20.679934382831366 6.212225265336724 4.4709660154687105 59.01809037459584 -36.640849299359594 11.419484767496794 69.44504331328517 121.39425759290594 12.4099052203486 8.102427470472405 -34.38436477846974 -11.01477365426801 -23.456049620017495 9.07709861855842 27.616894123541165 -30.194492729596877 -38.304547317848325 -23.406525687343006 -23.998002743641518 8.262431930589974 -80.4855934437735 -31.407487612464127 -22.549539730348457 -17.739012235732776 -37.58760147065178 61.259125409542186 -12.313419659175834 84.66319384743893 -61.60067782254973 124.8561433677833 59.26406165126481 25.68169432801374 -20.58896075422131 90.27905475766607 51.171766563378974 86.21664742347744 -39.70130770008639 64.94108052216117 -36.723570374184334 103.75940236599286 
-13.552453645079071 -79.25214853975693 -21.990712177957068 25.936852617445105 3.430568653889769 -21.445557449505927 7.938212400835668 6.372450627781483 56.045898632524526 -106.22715483481868 -72.03680908575181 -2.750736661253215 -47.09155576991119 -34.8434958302782 -34.02078229142581 30.71661581175451 54.199809454923745 -16.417502262934324 -1.5610466933504306 59.94121602183307 -13.052208325546319 -97.50958883807232 30.976912548868533 -21.19446155754295 65.39278604908559 -4.134181035741186 -99.06665134607795 2.6680322860816017 24.749651338972594 0.40130968240598697 -12.868402213608233 -6.521155548689734 -19.759980578923003 -26.353047028171897 9.512982462907813 4.075376452113785 63.503534455487056 -51.346652211914005 35.908155088740585 92.83189122998694 44.14873375360757 30.599003225607746 
-13.003834402291156 -100.3347213124258 6.3378043825635615 -33.577090422471414 -8.511382179121439 86.68152681197384 14.099059314858545 -6.512159355987075 55.180836648158824 -21.374213649916452 -3.8306509587016047 85.02375343255528 -21.06285069534462 -100.24567928667885 3.8367580062389584 -50.16244235721406 28.425425184108068 4.599670589156264 -53.4129304665509 21.327854519881694 -1.8542983621697924 -46.85381912930445 -71.51379211178487 27.266453357074536 -141.5301366077648 27.39272756252832 52.64644996186853 14.62194689213286 130.81470919289828 25.345417760987058 59.113203438778804 50.64446672079787 -37.535625278943314 20.93889460067174 -39.166316072180834 50.16395251449438 -17.05315960333469 14.231777264728684 -8.639692225382207 -78.06345796262042 -0.8601229964291063 -43.29958083080444 
67.0357002444509 52.410307856285165 18.161992506922946 57.88423915610379 -5.078974079003751 29.322812498254073 -4.908199077778056 -0.15391036881049622 8.662009012506411 -31.583153786662535 -63.58547956637774 9.63952569037353 -81.472698746452 -75.34292905588426 11.749929940314564 87.27723668673461 -28.944866404548264 58.02459437234475 -66.37946160302454 19.189488858220685 -42.40805321153324 24.302139329514997 -24.3528315095593 13.455507162531829 45.48800491383184 -4.187710416201304 -20.82710059598216 26.611114714617123 47.287255073257796 82.59658054517988 66.55867081148403 -1.926552105216471 0.29132408738389415 68.25914417275938 -33.64280406896279 -19.938494130881704 64.13642080711567 -17.39539378590207 32.75544954967673 63.03574855475535 -12.246264594351013 -51.05786649027276 
9.79545610773425 -9.792908055562677 86.70776303175502 -70.81831534824504 38.01113058732468 -2.1985689554880237 65.20769150605516 133.5453885704754 -57.38805944763494 -125.51273103011474 -13.888915442315255 -83.78382093047031 37.700582781921696 -19.46225270140953 -35.144384961305605 6.8486230862288595 -42.42139011340891 77.93776294797257 117.10931443972972 38.027548127906236 40.88782252390446 -35.89959633478608 -84.83812481867582 27.307482452767932 -27.527443455984177 32.314266887226154 -12.78936074503518 -35.56547332394036 35.88035194828342 -33.20121424551744 -20.253527075252276 30.586594288210442 75.36659261722419 30.548408850753354 -54.92723578231407 -40.747328014558356 33.34316777083168 -6.280104347243682 4.246302962846413 33.5311662439698 -57.168705172058836 18.868279886049773 
-52.91335965046203 -69.25708451557782 39.07946871012607 14.112126483421815 7.47838321360784 -17.654880553594072 -57.58427021995382 -14.633964838234474 100.34870948909432 130.7444121984702 -27.791735553493528 25.49812899553059 2.69347269925287 51.78312749660118 37.588130913366896 -57.300034181832196 19.64145803252524 10.731046670849826 -27.51988480300923 29.008522846983162 -28.15795814480744 -8.408767292089758 -57.21149954423034 62.59810678202506 -1.8196116025018372 -18.63917153815717 64.86527932237989 -12.295909898112042 -83.67773388438023 20.25567350714235 -78.45261526199826 -27.01510312962746 -17.295709706587143 39.85137279930578 -23.845393922870997 13.083976944855625 -16.20084750274966 1.3114299024955387 72.65638508036848 48.153746148510216 -25.518449034702172 -8.382594986198944 
53.61011041116798 13.041782285918401 24.32979902801346 8.338382868251859 40.0910879586412 -2.175972341673456 45.165037760982315 113.0245507244528 -25.431850700731545 16.599467451729335 -9.20220630100284 32.476666319386965 -12.55392423444827 -76.44931044260174 -6.60088150494703 -65.62978154558614 39.45658033223834 -29.67811282663342 41.243332877747484 -44.73324581166349 -13.792010947866693 58.83749511825638 -39.23631711238112 51.42217680341696 -38.466806476658704 -2.9912022995674006 -8.504985579221628 25.32784271946013 111.35685873023037 1.2874612042033016 6.107122252359835 -28.820605425547967 91.73896589501676 -5.018318065123827 89.23697261820384 75.12331820394652 47.66654568608215 -41.97652176447004 11.328533086632063 -45.108620651013524 -43.417925260367284 45.65152209905197 
-9.34733295482805 -68.73828299514659 41.26071728447036 14.678035903573475 31.306287935309594 -28.80821002819695 9.394448579377968 74.62134338580897 -24.935824969915508 25.732301933762873 12.755244924022183 -7.4826281418879645 70.2838718743445 84.72945633528316 -19.891735071752137 41.258801991195824 75.85747983938137 -5.285234787505344 98.70916587378846 12.741333151455057 2.923713714101898 -65.09817879378238 -4.746435569075688 25.01156184644363 -12.281986985459147 -37.57591595829092 -12.67416044551687 27.850813582617448 -83.96620650357366 -10.250139872778618 -74.69527146401906 29.381088881075556 -47.0088423815132 -12.711663348432495 -81.87927929953933 71.97180177328701 -7.262942518197904 -4.8440747447766235 -35.5579293945485 -9.212358343322567 1.0584885902029892 21.135037619889886 
-24.918745286662592 29.18004510358485 21.16275035135571 -17.77828665243079 31.882419604303127 26.140479153126552 34.45402185032413 -37.258494711975324 19.6649019248261 -69.10546649913833 -6.355690328077344 -52.437861495709775 -73.31245209990337 74.6909455882984 49.55227484747161 46.87488534764126 17.017602070414185 6.764110772362901 -31.29147998757649 76.36237444846822 75.45298774177974 9.825579845173294 93.32605370961616 -34.91487171683034 2.3630328313410898 28.63294340064608 -22.799516517020606 14.707620687673044 -5.125826791828986 40.38286918950509 10.757292446843142 -72.36824859373615 1.4839345399804198 -47.029577130810566 -48.54029365063633 10.3309430274575 86.13152284509869 -53.17604051829623 3.5615092613057415 -15.056794994834911 -78.95882672583707 -27.516037090672853 
16.239361230638 21.784001482735782 78.35828532506878 7.881188591632754 -93.75233555219914 -20.595025663445497 -5.968380069642259 -45.47521422868785 76.66424231411666 -15.620060873092473 63.649872494661395 20.719733007972607 -16.62882541816239 57.402220468654804 7.208904378517407 2.0225767954898477 65.04938947503364 23.671029876623535 -53.15181221004287 -16.644279154250064 64.12396248664248 -46.2437043237122 -43.85977485004254 -36.79773954144685 -33.810577400270745 29.73475436389698 -35.676559568342356 30.99235994597035 -56.08674342972004 35.20284947753051 -90.99630658253487 -7.820488172583026 15.353839283950133 -48.46147158885759 -73.1463634366131 -10.6748882265817 -15.75069881195884 95.29182888057079 3.518029712455204 -39.97303886402626 80.089860714087 53.43058766810909 
6.091548104133388 7.361929266502164 26.139174741404936 -52.13660510884006 16.363594650965688 -123.88286187148768 -58.977375900579034 144.9946157429044 -6.862582279944133 -16.254015089618488 16.76399841054709 58.538371310346626 -39.087561305265844 19.980276668134152 16.965717016453667 115.36805352407123 58.95937594355317 60.16441513757291 1.6267733984269603 -47.88062034203912 29.028508637934564 -49.465656187916764 32.02479082833217 23.84941236857437 -8.853464182756266 -16.032428713777787 23.253917704553505 -83.03523436276033 32.62891909741389 52.961564145368264 22.13862734882948 8.697336927087823 16.854219622554254 39.142300729827745 -57.44628663158158 55.854451524999455 -16.73347500476766 14.25741757715763 -94.34216431351817 -52.88872179948549 -17.175126334519103 50.8322028743486 
-67.04135311853103 101.4565183546438 -19.443921443024895 21.75836749799084 -10.46456680582461 -26.381345389579515 52.685825232241164 -14.132504164330353 -103.36514171046417 -7.717451932736876 16.687106745652226 17.393971457160077 -56.42643390190805 -74.01386882565807 36.50494266784792 35.247663454747965 -33.50027408587911 26.472730238191982 9.855386442227353 55.010108347601935 -14.562225871196663 -11.958047732801138 7.234562623812874 -48.11009545378202 -69.69049034739365 -20.02587260452934 -118.4167774260102 -68.89911538656852 17.100549484903386 2.744629794323276 52.36390168820552 89.23394225830418 7.177729005339066 31.432122681932288 -48.358639714342836 -68.95560428908385 23.97273623914931 -36.65138387961419 50.85176838604864 85.90172471828903 -20.779321623319742 26.212054558915106 
-43.126717297217375 -11.657258348265128 15.153644457793366 69.02485435950511 -29.488067025242856 -37.86377763553957 56.29010363044471 -22.20753352899393 -26.285753641856143 30.37012359164505 34.03741380969496 -8.257539227992334 -80.29654217800619 2.446214617276869 7.164950078867899 46.92851106876027 -4.571818851643038 -65.34958534224107 3.994102571945981 -26.992220632745475 28.810815401017337 -16.988998780190958 23.8140980660887 26.32285363382075 35.79649144524866 -36.55374851127066 -7.550705562935721 -34.47561779572359 -101.85697505570015 -28.26969146830814 -65.55114531431606 0.09788168959926594 -16.690537330694944 16.89601737517938 -1.0363305611913207 -57.28771612346619 62.633702565109395 8.571589044261762 10.778007314540677 80.55853090456908 45.92004628591257 -85.12336060085555 
-3.325875655457415 -2.163784245058788 -83.00267677363959 63.79570869194294 77.39134142605664 -3.3323977067377544 16.284565776261186 38.6771894953781 -32.95493921436429 20.464214833592195 -1.4860922601038602 12.17647261996279 54.9019731071977 64.01970300950492 -51.390741816463596 -10.31748731044458 65.66540053401073 -21.15464345511255 -4.587563712719114 16.730351077328997 64.3426475970179 61.8106036142684 68.58808641814804 11.381304158989515 -12.101528470436433 8.094966255312015 63.708963149268136 -31.001845576171256 -11.405011714764248 7.588984436060527 44.41661401001495 38.38002184352639 83.47550629154227 -10.006374845055017 70.98790111230294 -69.97651454000702 25.98042149115978 -33.64697347111888 34.3187323633987 49.53554371025489 9.767366465430365 0.8963083407376835 
-71.0717799895325 22.28284055743485 -22.98545975338364 -45.39308980199197 32.53663448651841 61.21567515030703 -46.542314064473615 -9.162104345305416 -7.891150921524979 -24.86366938225765 -0.6310552301332856 -1.8211929083216711 39.99723184825016 -36.54231092902314 -69.5075468057804 -60.899515220619264 85.57246877978348 46.321110747586296 -50.248335458148965 -0.9838970999646812 11.623466236892556 -61.22781346263108 -0.11117966228920557 -33.03033993500552 -12.278743135395402 33.634094821594694 31.33661581647498 5.292208761070052 -2.63911987633315 73.52713957091737 69.83685686705707 -5.72508518371691 -19.118473021363005 56.095756178030555 27.668086744244942 42.60027133578311 14.884527415638225 -48.86716534670593 -53.38616735851247 7.89007305582331 -29.614502029170804 74.66988588679185 
74.51423156280345 -29.673219431094566 -147.71434094413394 -2.9004344186401383 60.77270098300192 11.058274068356393 89.28676916038674 -23.70485235558056 -17.007490342788568 -20.405172926276038 39.26336785038117 -59.43381508123576 -66.602204108214 47.97822301403127 -7.896138681344656 112.35965360171639 -39.69457373815686 6.387809481568144 -42.846937799122905 46.38708509448697 10.50794384559808 14.079621909379146 -145.30966882022267 3.382559063661158 52.150118755890375 63.75215178908398 85.57500281642895 -26.83814374223492 -1.452346388906158 -23.88939472019114 -5.385258151349092 66.18195891403376 -2.995581191295675 -17.76604476504218 -28.92130384303797 -59.66125626606251 84.94388416395698 13.463533566639702 7.689777077269861 35.08416526849724 37.26290408522134 -17.115486520791308 
22.610889323074016 10.39069249032107 -91.09597406402847 10.259092499882602 -15.286396733183722 34.769949698798776 -14.661955814094831 -9.057112843562802 39.68388005286995 75.16257353686909 31.762265228402637 -40.83795189598501 88.72349998674365 -17.50643612095719 37.8210649282056 25.334538045744395 -45.13015546951436 -10.572934606914162 85.77056774181465 31.91062994779396 -19.648576537455863 17.29881456369999 2.241542200193418 92.81919416687877 63.88414749047434 -43.817288335104124 -100.3418399679565 -23.812886093591775 18.691286210416557 -48.618761456948405 -24.986477857289373 41.16178112921905 12.661957622564804 27.037886275988047 68.41767422158816 24.02958124008188 37.221873797175554 -69.11421878286116 12.836895400332281 49.09037040065521 -63.93497908571127 -41.64563787043705 
29.598505465196613 11.34320622479956 33.70006966371378 1.6398913674790445 116.57227144434688 67.42752792397337 -8.346376882926073 -20.049638489976378 21.695647479822583 -9.637730910631726 -31.70419332798038 -71.86974739452785 -12.89597940284457 -12.214453537296238 -50.49564891080784 -7.755254572216583 3.276486553979194 53.20557041372451 -1.8280444334330062 6.331111322625181 57.6084114356381 65.2107243669944 9.904763849505839 29.63202668634746 41.72335425395571 61.477974536258415 2.447349007113768 34.14407143918024 26.279502415651734 -70.03743626447806 -40.78635847516736 39.7432074171773 51.99041514074772 -42.625135114654476 -44.35791617344794 -89.53653348948089 23.337404436068383 59.49167160905434 -36.46976522997719 14.7469825039475 -52.37886001737807 11.330272186312573 
80.05368638616336 54.33533857631236 -24.3393658523986 -77.2446619172939 -55.58004565641308 15.774632321372156 -16.747449269674718 42.12456075697189 -18.075949975992618 52.889305425262435 -32.79445811672372 -36.035006273475986 -23.461382787308825 -71.11348479506562 33.68525670306937 20.86834473209014 78.66075973476582 -28.214132030236968 24.244864689869257 -75.59280388079065 3.190456738032569 -68.6006703000743 0.39429648165860376 25.081073163108957 35.44218993164199 6.97280147922086 13.333486556042557 8.466291809762394 -17.526659825934555 72.63043248240663 -48.04215788957717 -43.0088799592711 22.94199267583477 49.47450618568693 -30.81564554871882 30.467101049028134 26.018133677329555 68.43207813428448 -27.76099933526287 23.389522078546165 46.56328046840342 -78.89787944798793 
64.61810279908319 -42.863028694743875 -55.8846319984834 37.4462169813193 17.971512648592626 -39.8466546078789 12.735737132804477 52.64949876077445 -61.439746960670774 -7.4126942971533545 -22.62772785287098 -29.134194521995912 -34.27782315783427 -33.86212459567929 -33.166612472652496 -37.67289244859185 -5.351982231087821 -44.84380010464298 -53.52279572840578 48.36394836127864 -1.0928729264079073 -11.701645976736648 -25.2871949423511 7.582692330595372 -63.59298630673424 36.79110319907221 25.093615060443522 -54.245567019761985 44.11496615184263 6.748073140510399 -36.850201337582 68.82261312064881 9.799709586034204 21.531693915148175 39.83957722153513 -33.09530141693051 -23.980996483996126 -32.66765411895379 -59.15756362739429 -11.798720672157376 31.03613150783761 -126.25383818520882 
3.50385922698765 -12.34341260604649 -11.365904624536238 32.684991821472565 -30.745477507575576 6.4349738362382425 21.309686293523328 -57.55657410614461 1.1746313335975789 14.12197754964771 -18.026113348346044 23.457465397355335 -25.522143036208018 -15.442683577836867 -17.35801303735395 20.127609488721458 -3.900444847593098 -11.50227223736216 -51.51969004271293 -8.377407182941846 -29.246295347578705 56.36415371831354 7.924101990613241 -39.034498519088956 -69.03798818209486 -62.18642822703654 -41.54734875389313 -30.88252651592354 -21.36319160068167 6.612627184673516 -76.56300868957406 18.162716537241067 45.729099791218964 -33.32224656871619 -77.43723268610724 14.750454520757865 -2.1808563544576924 -52.302476151713684 -26.198625124393836 -1.877259266147825 6.928460826019481 -55.55476973863946 
8.398735377027094 -2.4170041953065993 -27.430987129164496 31.990558828234374 -5.178052329216799 -2.5170894282093967 -28.20263322867893 12.734149793823523 -25.788713974203414 -21.219331701350022 -93.93176908443947 37.245887645488665 8.83057720866418 21.265120064359017 38.72588825164193 -2.606062930499559 53.15276317347343 -4.210519265904913 -18.17548403249407 -9.881054997899984 26.857123804226088 3.572399592076304 55.919973654888665 -31.100295743276696 40.515903133644166 -0.1249441988625693 -44.7112676921042 50.1628050640442 61.07707875606556 33.528630518131195 -5.363776980037701 -82.18116896204499 12.477009194967293 -14.867355429813411 -59.27185110599058 15.69272051185491 51.197988477644756 8.63936999075127 13.415038060816421 -21.712054189944727 72.23133369737755 -3.118324327411811 
-65.43964789194463 -16.531495234838214 -36.01910875234416 -7.993197993561785 -22.15883470971584 -55.18221444773606 -57.58043597227622 -69.59194568023038 -59.718589787219194 -102.38966132697608 -16.018667911411374 40.87441150247959 42.29576235153351 31.0685512933798 31.013123753938263 5.2558735661630775 -14.775094133948674 33.45155790545351 -66.28054609667083 15.781107324382218 4.7259261046708785 -16.26548199302163 11.181719138923166 5.176105196324893 -38.80023417737144 7.840628878433084 -60.51950689236752 -13.168403640312675 27.764880267411797 -17.295567473408376 -45.53544745829583 -34.62367268136243 -24.443147178257192 0.4965256984728185 18.6128427847409 -16.726607886291628 12.44588345729018 19.892554406642873 75.88396565390835 81.12396755805831 25.999452227687854 -24.02817900674526 
43.87092893527857 91.74577256330309 -9.938822601020904 5.638295554288575 2.8076079644254333 -6.4584220845209135 21.969256326032983 -12.030425393316765 39.6121342703562 14.125682005603924 10.329864633520979 -12.916973213126848 -55.6761401407181 -28.797470380424063 30.751074063688865 15.138132666574439 7.842740361278108 27.43291363623769 51.0369547108544 -63.82848585966023 -7.28821398995088 -58.472396563782425 -12.738208529386785 26.205190810690983 11.928345223235228 45.64457055291346 -12.465093335293576 47.578384172461575 -7.961993603203578 -58.06236336226823 -96.75331915596767 1.846409341854976 59.22232430277077 34.29049575830922 64.01370264382342 -39.14637649214251 12.634557478922993 -62.789881620760774 -28.811212141156545 -34.24543728545923 -42.05918686251009 -9.53284928239575 
-38.9855663266333 -3.969215959091919 0.4459687468148406 74.06711536025517 -28.47296755249566 3.3873428784627664 -37.44965864296773 52.80260958983687 34.528829742358475 -19.057458819801557 36.597012387541625 -12.937257902007358 -55.95125236868527 -64.74565061766877 -0.2368746856704048 -47.33494327121754 29.465937102939943 2.031278910090998 63.48991316567672 -31.062553933354078 117.11326021204763 -17.45245528743346 5.230556682123868 47.879966155947876 108.09784892935652 44.872548005731126 71.14857717015744 -59.394528062682355 -115.9293714545723 50.852626428254645 38.29019245145349 42.488770437776104 41.74545850574549 18.755965001043716 11.067224617095974 15.76064747272704 -10.967684950343518 19.160944393437244 -30.303578802224333 83.09000530232889 -3.062216361743625 6.3843902490731494 
7.196576908989536 -66.3882169696265 -11.195034885265027 76.70309378688253 33.59037442420232 74.77315373014363 -43.79157156047624 7.151421365570822 20.112160090133877 -19.203353576133765 -85.73468781777866 38.60792912702943 -11.479590828778443 -72.08287890206518 -9.581536101432409 28.800948676742422 12.229650698063317 -1.7950945448741 -57.44887073659074 -43.14707210238493 -11.597092401071006 49.762783745888214 34.24233763340632 32.99863090378475 -32.206611429804944 0.5564329973886429 45.82619065966338 28.69152333102619 67.64106110504791 12.931786104177867 -3.960539054742254 27.643928706673698 118.01228190601935 37.10145051301184 74.49854828975465 15.207383256071116 31.264922315784172 -21.585437338483455 9.329692863495614 -28.895229821888954 -44.17979499194003 -64.71246041939678 
-60.603103778539285 -30.902633976058443 -0.0024147028526825057 -38.453780205157855 12.796278965033006 -109.22120805474157 -51.56571168714597 7.8242184466361815 -57.87030352699682 -33.017087761407645 -35.687731838290695 -10.888049105245395 -0.5694981646690983 58.91373343212607 -8.511586306815408 6.272892687918258 -39.54997574958395 -45.86045307211961 -0.9214385427258797 52.14186009497836 -6.908055959720876 -76.37218507642801 116.53441666699908 49.7827448388674 71.61762221248837 -56.260059210853626 -39.34906665202052 -56.84942267141543 9.177254676662203 -76.4177545234777 -9.64317546909782 -51.68577723883702 44.89171386532923 -74.64912325400836 48.04438654117992 -9.301514556372505 -6.288440300577601 -45.87649008547303 -24.805595199242337 -129.7412794248741 -98.6458061654957 43.18903291225469 
-1.5833825280994203 -26.03932428717359 -33.53693321316982 -44.990599080540655 -122.6419770961028 -49.350630784591374 29.78702984470463 19.97874291944828 79.56263619916912 -14.03887088412604 41.11553009167972 -2.6722524889139057 -23.97187412484998 -62.500867657949655 51.612125948798564 46.40951835307811 26.4516389364574 -3.8591484828820435 9.122314562543762 26.247445768020533 -18.47075300496508 -5.540314808073792 -101.45765945559535 2.1618114781088797 52.99719067130471 -33.9888805174589 -25.16569683385775 -16.98611477374352 55.7643666536378 -153.74147707831034 50.25336245317636 -12.257970277981585 35.26998507290331 -14.73696639632846 -5.161657083624741 26.5507658463271 66.43063642059167 -8.94962735742421 20.493732228548545 -8.30775430253345 -59.89764048359261 18.692956093474873 
-64.90181504522322 73.45533633759435 10.232060084946657 70.38593340264536 81.71480173934667 49.20459650337984 71.50474391684125 10.667613944506446 54.44633204199153 35.595804820963494 -52.733948955605335 -19.230951349235607 -4.632108890976186 28.67696270539926 12.923475310367987 21.09418648790282 -61.66377289040852 42.34539834440399 84.2993990087134 -102.95816536924653 -32.93200460423205 70.72161037267549 -56.536876075983876 14.86257091346427 1.3455153535785143 -49.5129027031854 61.08600157204677 -20.784080666250432 13.658268287219325 17.59921014342004 -9.264266953142055 -61.256521160686674 20.917871335446566 -77.28958288212598 17.45436555274977 -7.105283237592513 -42.56602464557093 -6.971423387712228 2.2219258603683785 -32.59284351135476 -0.15060750235641318 13.489442274950164 
39.55692760698096 7.69520875261075 -0.8666794729911628 -17.53969595117927 4.666691198193417 -36.99505387676369 27.644875792658787 10.643788425178377 47.28175547940397 -71.4045053144136 59.26601712622788 -61.47517869025746 -9.246508517553034 -79.20455718282177 40.475444613576336 -31.591539529047655 47.863521044497226 -49.37152753388016 -14.756719193970378 35.25710482710795 -43.676415095706794 -9.484095272194006 88.94131497212507 67.99079636070391 -39.35196359466358 -23.284468241160134 -80.2618613602559 -22.064714712606463 -36.90797278344172 -51.84869576439664 13.072771491992304 -93.28532143700926 15.961802569816614 28.8472910706867 16.813683738312342 76.2925749283249 31.449900966979165 71.89750266892449 2.497682939196442 -7.183370426635933 37.6957347164738 -15.608179800089594 
66.38239234639671 -5.833650021588638 8.580387685982517 -48.61763696244869 -32.27624868206769 11.033865667240189 4.361585152062293 -64.2736660662884 -76.49109689840525 18.601825984941716 60.39787546033727 13.695074043325747 4.42426909325625 -25.091509295485395 -36.98808622277624 -73.73378209931988 -10.671050132521307 -4.6648629615197565 63.146726142342814 71.15338421654151 7.476881880112849 123.97622804189304 2.5211750538710205 -55.20152518713172 -3.0421396239074627 -13.873032143462252 -108.76476884871714 -56.74920215080451 8.981734648893669 9.985819214109268 16.83650639167441 11.031296231568533 0.26485117769086636 7.1702858298552865 -25.07786912073278 15.554594056926781 -88.802395747514 84.15831225824148 36.08710856142003 -40.1972196007744 4.55401122547457 -71.21248180777948 
26.450576813833546 31.092828722498744 15.245922387394083 -10.456472335180353 4.7125181721796885 46.569313349204656 88.7203506356508 17.21644727565228 27.78860991628789 14.04535501792279 95.34320638010702 35.21877000462518 39.10128458056765 1.410043837839102 19.063678355170456 14.438477115480202 78.66181099051212 -19.507381715405387 -20.72284732595361 35.13167762429762 -74.99558428284394 25.8803623998811 -50.015184405615884 -59.9370964279235 32.43998563061022 78.88444594133146 -71.03255525968692 33.65800778274496 21.7990928350015 62.97443442890455 53.20064863003046 -17.635387580549857 37.16419491394859 -28.683995450129462 4.9809803879333785 -50.11096946551748 -27.58866859273406 25.729659387445228 -51.97718786642429 -35.84818973225643 -84.45856955930385 -47.15944488002349 
-93.21073185951808 -5.8889993329760975 -66.1680292178434 -37.85441317236607 38.0612732794035 -10.575566677773752 -19.16426980784366 -9.037004043852038 4.686301016364776 7.517005660271334 -19.80980450370179 30.07728311353147 -56.49772147559035 36.781109177971864 42.78441962138039 31.29041625383067 -25.605353520621637 -75.48811798810047 -16.27076954713033 23.63229287583938 3.798449976941715 -18.53140002795617 -92.4596446173858 11.687354585454083 63.9751251358985 42.815640648652185 7.836960544603158 -29.86117275427117 28.67393916062675 -21.913971178583708 -5.06689928570901 -15.869624894074915 20.972947811356207 -96.29201751409187 -35.365428505015 -9.155598597236423 -17.197509456817894 -43.66107918241037 26.38914698675197 10.969839147304894 -61.6934201756123 11.53584403160059 
-102.92169893740659 53.07385602672476 -20.928518715747003 -9.00390078962009 14.850060952822307 -0.8106026168294093 -76.71720925939375 82.96179588225189 -13.69596388968437 -66.60431156346293 33.9051932556125 -9.07774900838261 12.727027301358696 -39.03125650672954 76.03471798405452 -53.16732026527663 -90.76931924862316 13.630738579842156 20.184212581693227 -38.11550360282779 26.880112884832197 -18.59774634917766 24.321372581549223 -49.978476607567515 6.7044869801827405 -20.244947733483084 -19.480956297142775 -67.50225776584536 -35.52414778838982 -8.173663248097407 -43.28775087728214 -83.12175486023263 -22.632394470037518 70.55898065551266 -101.06097633443974 -51.19903894272876 9.416210978384505 -25.475131924906965 20.444312034237278 -64.86073041035169 97.92973176227945 31.383550116574483 
-66.96313522289542 -5.807972846832319 -20.482967888082275 -2.3109553009757717 -100.87642020965387 27.08153816517283 39.62561146342652 23.272944689513995 51.40014966806158 99.02893990076979 107.5965494896178 -15.385285968724606 17.22182432960772 23.442655523856917 74.4176459649197 -41.37543943044325 -20.478325018985267 65.14883696850157 -36.90663289827158 37.30367833176759 -68.63948785769706 -1.7867036192793426 -54.29831658096285 -5.496875705696103 -6.167712445253072 -45.83295490918189 -6.842232231139156 19.88474123257939 -15.821974377618236 49.066692171002316 7.801290071729215 7.153761281653982 59.46995357283855 -93.61260058685416 18.02674434175715 32.90453894739193 68.95113332139603 0.11247603111118383 -26.838579127527 -12.342450211251 -64.384605112807 -65.63199105469658 
43.28315791683747 -20.855521557840564 -81.61599665407688 -50.121436473084245 -87.26777442742983 -43.35715938662559 33.19677734887766 -3.993541532554794 64.10281404164941 39.47392596205673 38.84395450166835 11.123783978738091 -14.699817359017308 40.5893448188194 28.066644235156467 -1.6531763163047175 -21.458785528011887 23.525520026453666 -22.99369618538064 44.524027529571775 21.796298603913375 -46.742655918501654 11.643041103246597 -7.851977798752583 84.58875965031619 25.509538671041575 -48.72017898339048 15.213022965693696 -68.36250705444357 70.43105390107682 4.862068773912904 37.40215539846887 -34.940365245835565 35.4374165680321 -45.47522531862894 49.03357718737442 -37.2469634965064 -31.037204850747646 -70.48075452496387 -40.621763800211305 -47.15490241089704 16.686183456175566 
25.141483936120885 -6.379757959720434 -10.414751234091451 5.80980077492625 64.46079764641266 80.99519645333247 14.03619891816661 -38.76002045088593 -64.4393146921121 -32.79830292008124 29.356178495809242 -26.158707585902093 51.85846971722346 -8.124486250439364 -11.399756775024255 57.85360882697659 4.873180248776222 -9.67496522110891 13.494282246721866 -39.58231065204183 33.548611412925666 14.107538457142322 45.573006244377254 41.10608783207715 -45.056705489214984 19.428814165804596 17.418761915082698 61.55788266840731 -44.610784109299715 -38.93623026223147 39.718341275094105 -57.04121614210334 10.296173992968809 9.893758976573896 -34.21500542001086 69.6608829425011 -3.0636058137190525 77.41757925948463 -40.54734593287825 38.55419216343252 61.59632655473958 -56.40006219966911 
-69.28695375152107 -112.99809050152979 77.22285263543912 -19.880541693402428 -27.39481258471255 -20.807513912389762 10.115788910251062 5.443128749946493 -58.82011729633462 -59.08656511353257 47.383880330459824 -5.238147336222466 -59.16280757900479 -8.220438524431259 10.260461368317559 12.78492006602634 -45.48216883111397 -21.891836644733576 -13.557531424925122 30.749079875153082 28.008072162461293 92.01977936065454 10.645357872483343 38.914738352172115 15.987849536786477 55.71167546498487 -6.083389847926363 -38.650134110421476 22.725521274322606 -24.956767822726643 52.680042149118876 -41.14642348853798 -21.237881211742323 -4.2935681183311685 94.18162387997099 -64.93973083364526 30.877812266125584 -31.059309477156056 17.88477872697256 -49.39710260111 61.6057921931555 31.20641670865384 
4.476867655089338 -0.1012144347256449 71.91373733996187 -24.664471431183653 -18.785144145837123 -2.8950489187012147 -63.42925261894187 -22.96402082206319 -85.24603237373334 43.117934555113024 -6.922935813103341 25.023637871743627 -1.3870245239795822 -38.21596118807816 0.7930431122873929 -29.831011593093283 44.48373632873653 -25.106258752974302 3.610039185665709 47.50710646945275 -59.06086471392711 10.516686758844607 16.332942195831066 106.8277987775039 54.0141554039911 -31.078311298972057 52.930589972742304 18.626353167340433 -57.04840178305602 9.982916852971314 9.67046665657719 42.646745235784906 -3.3994909894087395 53.76424365229204 -42.54074923116269 -99.25509819826863 -27.370546905555138 -13.258649072755986 -47.30875171928852 -64.78229606899376 27.563121959332623 -13.31877972094399 
36.861002888540405 22.11772515870867 16.96044503204876 -64.2178913257759 25.721665536088 7.3056701955706185 3.134918045290788 -12.838805752425213 -27.774103835233458 -8.301185070763822 48.194279106127176 -49.185128463083885 -54.60204732949517 23.65359618636868 -22.372815650682305 33.01212013608142 11.700424463276324 10.159029944763454 -7.094937559181396 53.77978015648773 0.183902479815001 -35.50437791340262 -60.425822049116306 -102.55929570387131 -27.088078786281564 -85.78739249919596 -17.42152420563075 -32.01884524661543 63.801275431387 -6.496271433617138 1.4917973138969098 -26.094097651646877 3.264167561966996 19.60911004999196 11.533552255077005 -15.548721689218782 -21.18944082624244 9.636484350527411 38.00810253930402 35.665640328157615 28.406280814691392 -8.80928023995235 
