65.48317008967429 52.408522010511724 -9.34234449821366 -8.412641310523956 -61.074952093532765 -6.740283781988582 -59.270771420861834 72.8489350029001 5.859470912770283 47.62371574191239 -18.15580701672311 9.20826721731366 -52.65868737428581 -4.62619781196876 14.619323522402688 29.743342958313228 -51.64113297953717 -64.8705345446344 -48.015902115451716 -8.497526726140823 -48.75632628195678 2.1590729318459148 -63.9196734384857 -18.32451440354867 73.94825011682342 -24.44433971357499 -7.281578426801859 15.761490469200497 13.231555798177801 25.38540459108182 29.04344256623418 -34.464012642335035 4.8122710849882715 23.457413412946448 56.2714237842452 -14.777116376454371 -10.203297029080991 11.196623571515097 21.54398652095523 -25.935633787999997 0.22619300889052102 20.510185811090604 
11.002529810577606 -23.508106041462156 15.913974582097703 -33.395328510071 -58.92947074984821 14.745189925815811 27.614709447188943 -51.20083651767808 -40.70033989042693 -35.95167465788729 -56.68425704843786 29.552043194382353 -7.234557931970944 -12.562278644098635 10.528039469703534 -47.343265896925246 -10.834311441878555 -78.36496789630792 -39.13778536028173 103.46872537585975 10.7819291378054 -61.71252377810225 19.131381868366745 17.290485385982194 38.99212450533549 -6.594901791299394 59.173575685868954 -49.56619139670463 39.977345172094054 -63.49213951774858 -108.61426258461731 102.85800109660832 -12.088108040486429 -68.29816152151407 18.287890857991417 67.90753877498318 24.957238517542084 -14.383963651366376 56.74893860422528 52.89956918590481 15.664875523905627 51.65534105198192 
1.4178210885901499 -25.155994679905078 -102.63698657382557 17.0627795617173 -51.30345621191939 35.075171969623504 -107.39043109840641 40.73429035584823 -21.746766572460306 -2.340357027455066 12.73611096540294 -17.31360471305017 47.27070145015651 42.435000322923294 25.521109872573284 -47.7784337223656 29.983901778510877 -19.70339140000727 17.056624695320018 91.10420474294008 78.75916441843262 -23.69188013779327 -5.567220961484676 -51.21825272422043 76.92095326746279 -46.98426759314554 -11.527775087380627 -23.15380756672716 -11.888372302703734 112.87418088093851 -7.862738642321239 9.626250902079322 66.00679484351426 63.69302697592516 69.28669460716968 3.8181645957185135 31.42915859170782 -75.08368932945194 46.84693628279773 34.93326965763614 71.33139495927082 66.0400822620978 
30.088527162640265 -48.055136498928256 -129.59568170750734 -30.566111894290657 104.66547904270983 -27.482474978387565 -104.91751552484745 73.06676195185851 -19.297307492265638 10.185269365180277 20.1252912469419 -1.0925816148271545 68.41734108008667 10.841762349665032 -28.05341498692648 -14.885154026139602 39.730787631800794 53.861766089826084 -5.606712260129301 -73.42116614687579 -32.46507268173541 -14.178807025280944 -35.7855379258285 -5.704324380157253 -12.412542005907165 -2.4507240035278413 -10.284876584283666 -53.46051060164828 24.12483873736078 31.965307181925922 90.89626196109903 15.853839815223488 -137.8515663218729 -10.816402570933645 58.43226759573926 64.98325519349842 37.66834240124223 -9.974987048962394 -60.91375911503864 0.2921910358432833 -45.14226555582953 -99.09764376833391 
13.854460863469832 49.488284791305574 64.57935727727167 -67.88284629915164 -17.91781416404383 -25.09159630758745 -25.849698329663532 43.51925104163518 31.577331197296 52.593020153950995 -44.29840575417045 86.02087059447906 -65.45544941894107 3.7839112594098006 -17.966994876734947 -99.13114679669692 6.636597308011653 -55.552034973709915 75.28332555418716 10.775036941766919 -52.094228436736195 16.267015172926182 26.962152169002003 -28.806713593574358 -75.17158942745326 81.52588727182003 -12.103328311121015 38.68219788242722 -5.835910162378375 -15.130291672186118 8.675043937595083 -57.73436202643276 -55.15648200152463 5.029192108388368 -84.36367071271034 38.897428475580426 113.66403464768358 -55.44108802565441 -13.745113609928936 46.28420378007414 -20.573600957783842 -31.6451261689565 
5.184415469239705 -39.31836960652868 -0.06126577782129228 -13.616357209859338 -4.045741763954298 17.47541439229269 29.118261182328936 103.61836572226403 -92.24943440496283 -15.957208589673513 -30.006677557674507 -42.43521772176664 27.114231832764425 -55.6075727137081 36.27206343369089 35.95849569015186 -101.72625004362679 -55.98332388907578 -17.336946289945374 25.116910061617578 -19.209693285056538 32.5507752835268 -26.710094520577037 -66.71076007831286 -14.215179423170186 28.382001224675555 -84.25635973775617 -20.249994817445625 28.73502382352244 20.430471687021587 76.80118683515678 -47.96295583469164 -72.83092106569686 -45.488253625967324 37.62979304760766 23.37908167082911 11.831957380970428 21.763095853278557 36.826131613195436 31.295186785397586 -4.935897571002837 8.491682354072152 
-66.11946247148128 -120.75991739871144 29.66553185038634 -34.32724063784195 64.87383553352016 -7.890245525221158 -34.6317511287277 -37.275156799843494 -71.11703610070974 -37.688078540341365 -52.89945622057217 -5.160731748629776 -7.539677703040642 59.082111910316 -41.56191312288927 -26.918661828518957 -82.27997918273974 50.54449165734672 10.041033845277656 28.785521760676065 24.645104817363855 -47.59059423775435 -12.372962008779956 -27.793845499758394 17.292750383572677 -70.26458603146925 3.892281519429602 26.844836243457266 36.319618480577425 30.727778607358577 1.0985388324173209 -50.424531349660505 -28.461015043720224 47.269044639054385 22.72550106567065 -104.51956321821532 88.40663922932906 42.36383450114128 7.9553968135390445 -19.54130603957147 104.01809059533073 24.95045189185862 
-26.85452375342225 28.649852104599486 47.10128541481641 -19.76681633793567 -52.182210473646286 -16.768006502830552 50.018592620340534 1.703426013156217 -51.49552622594714 43.19249883521398 108.71618129717926 -2.1231999834101245 4.683167762745022 7.226622664349169 -61.40762645695414 -8.262080998416266 -24.560481591743343 -1.6628538617771658 0.8377364301378382 -35.473440036227395 -81.8098604170107 -114.3424146730422 25.620759270775824 -69.70668776481142 40.12528017731072 -5.530355825150216 -38.71929025942783 32.96286695065784 -75.0305477647582 -10.482301264867296 32.87313065121449 -99.77193505134301 24.064706247616687 1.1080559870549038 102.09040524291082 -38.45699577489967 -19.6376832664003 29.66632451581914 -48.63416714938457 -66.0338670895926 39.92140681191323 -28.616145707186508 
-36.856203152763314 -42.14006691307641 -1.5449017355037398 51.4512377424084 -18.67962650761757 -45.114563269379346 -41.652066544936766 -27.673046950153996 32.55007102669271 -21.236389909945046 137.05281584910935 -21.721925785032425 -81.51363738708525 -52.7541763711524 -30.95510239497711 7.01409984889122 -35.672489906082646 -22.602582212613523 122.29214319308068 -52.41826516816286 79.34747343412172 -18.59788438868934 24.444434305596715 55.84029076761326 -21.876978572006795 2.222621377674441 -33.12368207963485 -17.522321987856515 14.557250863254339 71.22761694978257 -27.51693629164682 35.8856610426163 31.058521091836617 36.95890472882277 74.39171077955014 10.251162176584211 7.557907161507239 72.25534145049717 -39.7488678148245 -12.727004060782932 7.429754227983911 17.754699795073797 
-52.96904652624417 10.936295114512953 2.8225460965454054 95.39553941111008 -52.81364663963209 17.21907001328994 36.52997872940041 -11.615127266095808 26.503943898697802 24.377796981412413 -88.34877518381195 2.0063266871777685 40.38063739800053 108.78430863469717 5.706774927271972 6.5785491424855325 60.22714735777352 -26.321638046573902 71.25950544961404 26.74964569131298 27.482063434467765 -40.036862800863936 -81.49994459368035 -42.974367536342164 30.332664404011364 41.96162065980131 -21.284823706020752 -15.266178982909805 -52.76040957403808 24.607109372128537 -69.07243876270361 37.062597702379776 -6.716058301926084 30.867577286482142 -40.51083673931428 49.85534008103163 5.020523655734914 -26.395453158849037 -38.42800342000368 -26.157941134778227 -11.428771444181988 -1.2901165198312619 
6.421771117941907 44.19261184251193 -16.899511232642173 -118.26347076017372 41.25950390650688 -78.66238383777397 -24.927555983377413 -58.91637795983105 -34.50477095792141 -53.14042323144627 -15.90754456046039 -14.131523035198265 3.1314454003185803 -24.729310798233325 3.6394110847528602 119.88285120850716 -56.30100413036073 -32.310648390619995 -17.354318766495883 -57.857770688597085 -42.83854216698952 29.355110681989512 6.871762551534707 30.06584574913727 1.1928025479593445 37.115045977581836 -39.55383681602067 71.03663478881043 38.888172888200906 42.523332654976834 -16.1202905321958 46.904854133653615 30.94018283548353 -62.160064323984685 25.50718426031763 -26.62783354602226 19.32896649305573 63.40200413061413 48.73200618529431 22.634904093477513 -91.74978385022015 46.533549185062896 
-29.816676699525914 -22.58153757272195 -49.183661943820354 6.720823723618279 21.88036073052527 64.74713886745043 61.136351728565714 -9.927467772906427 -1.8896117455596073 -19.08069182978315 25.216854967937035 46.29534218200857 -16.670375465862406 -21.275179385424963 0.6435599931232184 -17.4249441053399 17.46468959217188 -36.62628435048063 17.695058440335302 -120.45423570961414 87.72575779086091 72.83815035878796 144.9359600256277 -21.090191839926327 84.77362131908185 -56.689211926855954 110.58416016653281 -42.259368311538516 75.88374323043337 17.806021674072216 -14.417298124306722 -11.465084065856574 52.06147860716946 -30.136766068461956 -87.15739795515377 -21.398197446006307 -78.01176204193625 -39.302292611945724 -57.25452774616506 28.196922300025104 19.24983602639374 -31.664292863704837 
2.5162166153815604 58.890871963085395 33.00406643921751 -31.61330767660287 5.6601776577894425 -13.331545905314238 101.37812923294551 14.306131408249305 -26.310629355767727 21.526379890161017 -6.420093174835535 8.43355214029229 4.323038648899832 -47.74889185141341 -5.268480124728759 15.762630576836369 48.69903908645781 -34.075737555232934 -24.133154228202045 -24.73108048999341 -7.575511147857245 20.36239368901875 17.756117081482753 -35.614152470760665 67.42307967773014 46.18430460165336 85.27781483716805 -43.442072121622616 -76.53631392468237 -5.372504666516351 -73.20159600449354 6.118517827447355 6.983044181865864 -17.798005901789494 -41.3865190066477 25.74637137595045 72.58719374179633 -12.122392547673606 1.867169881897317 32.575104624266984 7.210882954462679 16.981337539547997 
20.13008551535082 -36.111600073401505 -18.289972927671162 -40.035650777297825 37.235091844873814 22.671226389534564 11.212013551519298 -8.50537461220194 70.25882428334668 41.39169984802373 0.38918158081508475 81.06230964195377 19.8138751353276 25.972314839524994 17.846687718380366 36.61059773691694 -79.41464836814284 -60.55568223267761 -7.895958777669747 -47.98237930900114 -15.518232421385395 27.925211320820374 66.86704137027557 -6.904616875885285 64.81805215856251 -97.2757738937689 -38.286918393045575 41.12483766864784 -40.25559771474884 13.851429414950799 -43.563608919108226 -9.718733774419208 39.268076225677994 82.94762056660468 -9.291193465422097 -67.92423860705442 38.64262150263407 37.327100318106645 35.60992972813571 -48.57547482042826 18.61755514879595 -39.88819594411745 
88.25328035677246 -9.897251371319356 -16.83700952491659 13.183813726359373 -19.221143473435664 9.038664527366972 20.588796779007232 -13.937687423524027 -115.51654374284888 -121.61645592011749 -73.65151691674701 -8.505762003612563 91.61341923837269 19.11726025750291 29.37409069703658 8.17121054791001 1.3218387299828023 70.22706787732766 -24.755524637674448 -71.64544827228269 -0.8024933450513121 6.180348347298839 50.5815028216652 -9.689282282405175 54.640287115328654 83.87660638898566 11.091885949404727 10.249787203703006 -17.87966922447695 106.9373371080033 -46.6490985579244 -61.24476500220103 -47.66669810420971 -40.32039685730592 54.606334358636495 -19.326381015297443 4.723318788342016 -23.590556471148172 24.81845730340179 77.41635094018763 6.367734501048957 -7.984784288100445 
4.439226547204074 0.03246417391944134 1.380914472853696 21.251679850826157 -10.320291519751981 -3.8884306263179704 -80.01939293939473 43.35257882319065 -76.692934167918 -64.52799916460951 -65.72602371758147 38.74329149096453 -91.73988295280455 18.780541349277105 23.90237102179448 -39.31812764257516 47.69907512939674 40.68659441199272 61.74777634976843 12.911821242189573 -116.97936554240906 22.074284718568162 21.19814245292787 41.67003664345465 6.48933941258148 7.558033842509818 -52.189838155922644 29.554962275561827 -19.579206263059056 -92.43282353390344 -8.742563357532248 36.227397272252 -5.197258735874517 104.36318218777906 59.6641494028525 -16.617251207008934 -19.936583364615824 24.750526557196213 36.24422158558843 81.96420645053173 2.8396614670862883 59.463245075691184 
74.56885110910764 99.96189562570243 -33.719840091534564 -58.53473202038766 -56.09928818429813 25.961229063938248 -55.129053638474794 -38.01878195187431 25.04505487979469 -11.679500009767319 89.14964687306095 21.853799274576193 2.3106240274257845 -32.53416924336433 106.19024058649458 -30.11475456764334 -46.002009668061845 62.915669709307934 -11.459217877886655 -19.66430921906489 -37.64920274336688 -97.45840360667083 -5.0526421461186155 42.26250444305893 118.13351878656688 30.35637600602056 -122.23014179105625 -30.10258369939974 53.58676817118066 -10.819110967647768 -16.082752848663198 -74.32663802832994 13.733372196700556 50.788365420271866 32.57062818443913 8.48548320120803 19.034242442611173 -0.04986179805490117 2.2180525329799123 100.87063851006074 -61.812555181219814 10.240322959523132 
-54.86866861547171 -76.63004312942547 48.565299919526964 16.738984204630572 6.292123820515124 21.399403400525568 44.530399839181236 -51.17737880212704 43.6353996190908 -44.777005824181224 -20.282417009162813 -24.06957171204114 1.0673518740208148 -31.301968692555793 -10.445423236152056 17.16976728042039 -63.75480956262705 -23.966352435459928 34.94208600227115 30.04753400196922 -0.07996988088753959 33.25682727152984 131.91993537691042 89.51201300646123 -39.61319799676266 -13.813188021735112 -13.641892952432624 -30.642818418596043 45.0677313277463 -9.70517782137234 46.81166654466496 22.71119984812406 64.02256608253712 -14.683841763535336 -48.12137243450198 -141.56227657270222 21.947639619597755 19.81719198528943 1.7648991856172866 -53.902788103447804 -16.255154392146547 -63.37516881275106 
-62.409577370080385 76.13037813312746 -65.82452214816351 -3.544691330063681 -38.28846762010218 -87.23326724309497 -38.28041749194599 -22.65283976213689 -6.960688609145379 -0.5597049542965633 -55.59999706955693 -99.00431990062512 4.81606503884968 60.97546591005838 94.72719181683152 -5.1227570793948 -77.53646885781706 43.585617771480095 -43.982215580457044 67.13306987541043 -7.96650911658805 -84.00311358997644 8.793911280657216 78.14840729073939 -26.037867202497345 -45.2756399688087 9.338103381813749 -29.6849120465793 61.402226749496364 59.45125776172343 -36.594413432586 -5.817172524558168 -54.14781116125906 -18.608897363911186 13.018608646045106 15.986736268420024 -0.5131851356721187 69.36067246074529 76.23534941490183 -0.7580447965595407 35.854227761338585 43.98877488919282 
38.09360129468389 -68.30891174371008 60.67994116830807 62.31673308183103 12.98199406375127 -54.11067962410336 7.44154502091413 23.57128163479197 0.03792592893582716 29.132430542658323 -10.037919881058123 -4.783881380648283 67.7114742570238 -13.598613648690389 -21.72394115622265 -22.20621675188147 -22.426766227414397 35.80793123538283 -33.95659669048452 -26.0939327629999 -14.960758066077403 -56.03512196721383 10.158373313356526 1.4760487088289853 -16.05136321697352 -34.76151144739714 10.809720734805046 -51.774886863803914 34.00672006473779 13.765794689526984 -76.4112695901409 -39.712672752510244 -4.783892669843481 -66.00156028088323 72.40061657860338 -1.8454364873236693 24.55190623902601 -10.319711835180243 75.63800125340781 -30.991813778466984 29.558835448743476 -72.016697801415 
-7.830703127266734 -60.74956196978807 -15.152765470626054 -49.690168534132795 7.304523428000099 -3.9722699871264786 -97.96888227329686 -7.552003802707404 19.665679848931507 -36.03267685813395 -15.06850158640368 -37.93558206409378 69.78501619241118 -32.608596686423816 -20.30740442167633 -22.124225020089362 28.85769384359901 0.2830909125415748 43.31653746181505 -50.22693513798097 19.775139900433725 75.45996576918432 115.25018941925723 -27.848023988796335 15.708014883075586 6.732047180578928 -67.42140402652993 7.146362340030145 17.254858016247034 -2.5786998673057946 -25.143810957216786 -6.064653783332924 -21.261808409400153 38.963039469794815 56.26208536611977 -39.05402830144663 -8.869428334585566 80.17232088706587 33.142518992020165 14.230637525203537 1.0703040530568262 1.092623962929902 
-33.153591559003225 -42.59785897620416 -16.783143686733844 88.18605814508979 -26.334100794627776 55.96026706389924 65.24979563472547 14.930510129112099 3.908517598271405 34.741429018812376 24.199857907093705 -31.11979825216942 -23.807866888604742 112.97299226633852 -2.9666533257236125 -28.7399345348683 -33.66416937745396 49.16694594482144 -15.749753441296015 68.65014431136842 79.9031008983738 2.1220152298242 43.25423825036104 -45.1171274340742 9.250505272781364 -27.367790838652343 -34.88918863856215 -48.807911070163854 20.641988655661113 -91.29205485064301 -84.62922052520302 -45.10008852639408 19.173654431202227 -17.741474551301565 -45.14848616955755 -60.591383653062344 12.263630031755724 -10.42205528202219 -98.78118094095773 -39.47929121321905 22.6723634596747 -69.22075581573395 
17.588852542084116 -49.94210796704347 102.32126318164164 -10.129489408325455 22.057622235756185 -34.79300130917543 -37.199703987590354 23.61034415938693 -41.53096497312173 87.08747848373747 -20.048271945520035 19.458311339781066 78.07900663305126 7.139039705988646 9.773241617855065 -48.241918046107116 14.787683194866526 21.98475530977156 -7.840640853931168 -24.57277816020534 9.290698855669138 25.040203497715815 -18.661243550655247 -3.933131039081821 -13.340232774102041 12.941108280304634 -26.18229772159113 -33.94109225585067 -98.20489037388403 -58.130055894161444 10.264442103925909 -26.948270594819494 7.034133710102264 4.826421296399577 -44.27335041145852 -101.79851069401724 -48.480496376769665 41.77331075451817 43.80235058869485 25.195015630187477 92.4623713243148 -43.92463546151902 
-9.404367627746694 -2.62672223740631 -100.33247485967075 -32.856991647530556 33.18900436068098 -59.088912805827334 -29.467138148117144 -35.83373644631515 0.4324273852085801 -8.766227784306649 -1.970237382680368 -6.501960490863883 -1.923496011891531 39.5048591179912 -66.02758732085567 -54.190285903260694 114.26557480034143 -5.701911849432627 68.31202089400027 22.110004495726447 10.721180698807641 28.880723960707414 -38.8830680587303 26.72456435089012 -21.37271724348714 -13.572742171910347 -49.68485136841064 5.9822356555162015 36.977697524217625 -30.525276944867464 33.38110381190809 -23.863611957398877 44.851407532222254 -24.194842359945262 43.45162397710806 6.067037557381227 -30.20101081726325 3.529820650254265 -26.53929692698697 -14.683107491193914 -75.401756509707 -29.54037203511592 
11.518075733383725 -39.654581239064974 -80.24204900807933 58.75148164100278 5.763880447049069 -53.92487619761553 14.016206482903755 3.6654076831414004 -65.16591286887099 -67.04003885789975 -5.173515868066579 -22.207898054368258 -13.044059602228725 27.599151941094426 -3.271559534895456 3.16203408627071 2.5678759330454786 -14.552628809160696 -1.4911855934874763 10.138215032913484 -10.993463756156784 39.73490139136256 26.218555733825067 118.78713640648517 1.5311982487283358 -52.21270488620145 47.14539183379206 -26.818272989324864 -36.440726436777105 -5.110639593508893 -4.683328595580925 -35.58864364445927 20.462088739932057 -12.505704240945848 105.23387710857483 18.768886336737587 -56.68065677340131 81.0940341400828 -48.89147250260881 -110.29549186606971 -26.853737227625466 19.25027361558207 
-10.75720771448058 76.86536299872913 -0.358679173093142 78.85625589619995 -8.547560283879497 -51.15385539369666 -80.54601009064368 -13.82019727489273 4.979870454409313 -92.78673035809736 25.758232195184355 21.928890408423474 -2.83774550740062 -40.867053609900836 31.525028225269764 73.69918026974152 19.892499107274155 -2.9150691768287067 14.392550276232836 1.305621134025631 34.938064601143125 -21.26357347929828 -5.489597045604387 64.70570522278531 -19.711320967129524 -16.654450706031128 6.065239503082724 -37.93074045108837 16.17971060344402 2.4112009698379087 -56.87157183731605 -33.06580444629278 -14.499836907302566 -25.55768308762155 31.993607768522317 21.399662236998175 37.90888457478555 -44.808843676351344 88.15348806347 32.21426235766837 8.56155829607922 -36.21296330007971 
51.60703597333918 36.3592372655922 20.787042991412765 -93.77703014265073 -32.01514291423611 -100.49214952507512 11.203117658234499 -77.13394683277438 -37.96933190586475 -36.964729158444435 -85.88640720130996 60.38203716907038 40.485118879334365 34.33385495976356 32.75226551682919 -9.465853667385518 -31.928731349926984 56.22178790290296 -51.14913926300689 27.82500503351821 24.339600789218757 -33.466830338745204 109.50960327668578 41.45834462826656 25.771584748066147 62.73816356024883 71.1649233595574 -16.7037497529054 -24.03143610417172 -17.297999617777883 4.616493843036156 -47.973070413238894 0.5561328177878326 5.502401965709618 -33.607736779161556 -4.670801743329137 27.480947886089915 -7.94288651410055 30.507424158150037 -3.7656046173108857 28.26558135437606 -107.16225718601852 
107.98482458609337 -41.76402361695226 11.90263473173619 43.33563038421633 0.8211091381382578 -52.9000827975999 -58.58245583450511 -2.8167930260340235 18.905150989411016 86.30826219856785 -23.217905508031073 -69.20594671740852 50.788703385412866 -46.30849581334913 79.95377684905691 -38.66994767209098 34.86020140844492 47.25874745855808 -23.40162067175311 64.4586076408239 -10.549150923385152 -27.893004805896453 28.794085987966476 -25.35340144289888 -1.1969214882226629 14.196049982453339 -61.91331689432064 14.079082456840183 -19.71536352617731 -90.14253660574897 -4.297939533112794 29.651971985886657 -63.35881742482202 28.06781785660495 24.284693849844633 51.28859967517923 39.00439974774063 42.59244322799623 -78.93270777531495 -82.22484286667621 24.259915658903687 -4.199010224447641 
-7.895530048252202 6.731366914366896 22.59012943135881 -23.327229652338776 -33.15908318366256 -67.96539243706346 -91.16887752267604 -26.701502138720922 76.15469025415884 12.48991264020491 -63.16872675818234 -32.395762707485524 -122.50215564702494 6.06534556828976 25.446855719541905 30.44163679699867 -7.4594076542464824 -38.92990580832793 -17.86192677117593 12.401517723678124 19.9925818214 85.05761506415027 -44.50276303381208 32.22421915877376 33.44427195241716 15.403935283630007 32.531210272075235 16.558435172489663 11.43461295914529 -59.17694815382918 25.092117494578932 20.26870434147788 -20.762522460638415 -0.9181145269934617 59.36991662207524 91.12070443134961 11.438175400347166 -75.54777568287454 -22.260373397207562 88.67540692216174 28.069303259354534 9.258604154088045 
35.28866415039299 2.93623825599873 -63.23040202626397 -104.75908374188731 -46.338407934053414 46.243404461276775 -20.572964841963753 -32.87029677268373 -22.688507531214825 27.03226516695737 -47.938211529602576 -57.54201903227386 -21.6364179245663 -80.95483018146462 -23.130374053986845 54.45341436643183 -35.86002183185733 -9.23096156842055 -7.76966910135206 -49.95656703561675 7.649324949723678 61.230037833714576 -8.899131558132336 75.88518733903433 -59.29396137422957 -66.13507188474333 -4.168941797633619 55.26754740372328 59.74808783747608 -33.47961394202669 -14.193271003739214 38.24157913860572 -26.034735551904735 -38.367938987854785 -31.433514945346772 67.70213729634452 -55.15712649270184 -44.5377164737356 -0.04969119198606137 -102.86414970735753 68.43772337207332 41.64628588670242 
-17.984135011558372 74.28627945190964 25.449423706837376 15.328260126252982 12.833211234913636 25.833575432368338 2.665988981326317 11.587152409371042 -61.94629173459008 -37.33491246807829 26.269232867535887 -0.7696398790605093 3.451948972089027 27.623529424051288 102.54587853730112 -69.84248485040673 22.02879808944085 100.58161166962174 52.59525343263403 43.2145052715353 76.58650741303859 62.10382894440447 -34.03272572869183 -2.4191534306159728 42.43837826491884 -46.899398066518984 116.03701620495148 -13.48328226461467 64.8146805207818 22.570672309704907 -28.061766848118562 -33.452364264223974 -14.02726911986628 26.662441584686746 -19.027465524585388 6.618083301345349 13.95567809722856 -39.8551057167777 83.64118111618312 -74.0459306601496 33.079026498686744 21.290142227449977 
32.15607734184424 -97.66745351319885 1.294530232371407 -44.18699272703052 -29.124536734802238 -9.946870009212963 17.794698524473425 -29.110211204632872 57.25873781073461 -67.6119460277248 -5.221283701273553 19.91912994779761 27.79493921148999 -55.20605537619058 -15.002189172995577 44.76448023917425 -55.54087005185498 -47.23495914155737 42.88102586895 11.185849581577733 21.41087653791189 -64.94870744927785 -24.350748950367354 32.87557661128297 102.4722846388853 -51.0510075100173 42.09326106813796 30.013616931517888 36.35581586608232 40.552662320196504 24.732292601452702 -1.0531161345194333 -13.059618873053974 -9.951302364480092 -8.917457778468432 35.78743525402214 -10.47060438086038 53.75918951569907 -2.6928208374948537 26.87316794958032 -5.797699677568303 43.718075818641566 
70.2903166364355 85.71662678880048 -97.87152353694502 -7.247592865990862 -2.4444934835843863 77.47623838292526 -40.42368442859638 33.88293890209008 -83.22584597413243 32.07874607222539 -88.930116481572 -62.48898653069464 12.62494213629783 -42.10746063392519 45.557347683561794 49.183812783616574 -21.357020080888905 72.93542989249293 -12.492035419171671 -2.700338556214984 144.51128316978716 -22.745350487122174 -21.034404532835566 -43.629291597058504 -21.327727314043916 -58.72075477012757 -2.609632939432168 73.97563596988508 43.35191761100805 -36.890371027366946 64.32409690383628 -29.93356484333946 18.50499958193757 10.896129575303394 -11.00389696643196 -93.57272040004733 -5.438997513943329 -31.253488847647855 25.477971057069603 96.9569673655731 16.990394383010567 -12.519540851428886 
-93.48304256207325 -25.787186531529557 70.96161609367753 -18.990605063638665 66.0505794158258 41.1925026639091 40.341951546586266 83.20542368723767 81.45932642637976 -87.44032669526312 -81.56665820505722 34.707135338565024 16.71302467168308 58.95375352760015 -0.5509959565882145 -23.484648042901867 31.887289593069877 31.16695973061027 -12.578356331719553 -41.18875463874441 12.59800359304086 16.013256343328486 -45.59442307964125 2.3812884950419635 83.35668512924467 37.73246364512506 6.37588134118857 50.26315640919146 -11.062641355293893 -33.28077860785317 -2.2115082710766587 -8.557346375254795 92.7555146978381 62.678296807097766 -13.448823910900291 -36.67843836664773 -38.056559575064895 55.8015847571179 -90.97611657082305 -7.661497030056872 11.198388174037502 49.2918625708688 
53.05121663181023 40.253108436661506 40.7298032951359 -4.903793136934706 -10.40585269496159 -40.66712613426588 -76.44019610522876 14.347923611353284 -1.979288947087025 -61.64414955423377 7.8818747386376575 64.53167039049575 -53.8764266948616 -23.818064404977928 -62.318046278766765 -7.698264489160625 -17.957569824324235 16.495587222070526 25.318908087462113 3.8654459863320705 2.565765969912691 23.106838851034798 -53.779522902555755 2.1082022344245677 28.792181232700855 3.0632950622088626 -26.276560119216825 1.2468711616941006 -47.42036849448845 -8.094784994591457 49.45292062228923 4.608565913493389 -40.89175377710348 114.72863710892835 -38.879116305846196 34.83654927221519 22.186059855467708 40.250863260065856 19.80018100186323 61.06796819802929 -12.408457845777908 -70.82065189660032 
18.03415018937122 0.6537189293031704 3.411701388598975 -77.14691169968648 7.430519172336353 116.15993319907498 5.864276244793418 -53.517228822581316 33.10413234169975 -17.11553610023021 58.1856645673928 48.409285642461185 -84.07630500466722 -122.45369504199836 -72.45686783015339 30.438719201053186 -99.63435676775786 -24.758605809942146 -48.221099110580845 -44.508354609547915 -45.59729422409418 -15.807896011718029 -62.34639375758606 -60.32771676771871 -17.241317370408062 -8.853947817579193 16.17202177665976 3.1559654512373174 -37.3224676124252 -45.071471172167385 129.86710132588038 -54.12940017628571 51.51193954604059 18.61008773613042 -75.61202278525465 12.483581623909949 -53.796247510947346 108.88995200860649 56.16781492225354 -52.0074643716223 7.224964808020478 -15.42132207787613 
14.680314791564898 55.09669576141951 -30.123302835196743 -123.03737955396106 -8.789875510135488 -79.09907314945747 -11.126076179658655 -11.554749877922573 -9.250272477322785 6.910907311232712 -66.65909059764437 -46.33548734113479 -30.225175908449497 -71.43823364903776 -63.71186089457419 46.13930454853211 -73.55321579626482 -17.886700376509236 -19.95566457259195 -11.87669286495828 50.76656601362042 38.62994282154359 -46.6182661674374 52.19562730327298 -10.645902357718432 -16.369364655955014 -45.07989379854042 7.9981275178407305 111.64474987363415 1.9649742565106316 30.99993820187383 47.089782626437405 -75.71872658841926 18.790633561591147 -42.472047614840484 13.766361783689627 -23.65722399058715 14.616788956362184 -38.55176266163417 120.17709752763764 -30.687657111546073 80.54640833600284 
30.100338165528367 3.5104614003127614 32.456518347939536 -23.922991426984563 19.726975735755808 -97.5531777729817 -28.099405917341397 77.32981943674405 24.565471559928497 43.01654097965771 17.43810761258746 6.4762030742763885 -29.75694325039308 19.82707655870073 -13.50231719734709 -59.67173936142763 -57.291577963489736 -2.775645566976171 62.38915601057929 -23.894149495898674 4.540709060447802 -56.334024329011704 -3.160195371785271 18.64169559615638 -0.290207428529618 21.924305901160107 -48.20213710326761 79.17197385292512 47.915262306675636 7.068344438666654 -22.39922306971087 44.49517484576478 41.084827188560574 -26.896524239689864 1.4538881210581915 36.916962857997135 -89.17181601325717 -21.646617389524508 -111.3769527860888 21.576000018625408 -21.929338355007943 -16.273294906337828 
37.43097620578338 -48.36483900338377 -22.18113385249111 -9.918624138921874 -52.70642017662169 -56.21530545373916 59.031909789609664 42.001245289044775 28.92840515481013 -17.77269833676462 -28.009458151262162 6.66248622053266 -44.39852757368465 2.183906326265669 6.617374502272255 -63.582534263876006 29.883404996550478 96.4475958972245 -1.3469358338806794 21.554603600434326 33.286694936831566 -20.23472707042687 30.132867833542747 55.850738814598834 4.6943094890134365 2.3651350285828934 38.06658561581866 -24.778197784134623 -34.08814373551026 -11.52256305970608 -81.79648103904059 17.32490346511982 -15.383684503779586 -31.24198444683983 0.5760072170504028 56.62555611037821 41.558846103591456 -83.52315706159044 -26.487132844931672 21.2510833677063 -39.83078404430189 -17.322011330894604 
-2.9551581759956504 -42.01644500355053 -80.75727772810458 -17.387217225283557 28.325086179010906 -73.38875782435139 -56.06729389411701 -58.38544398840652 29.33479526183471 8.213475997454314 -16.548180735123488 -86.43686545654823 -13.784408371859291 -39.063116965255226 -62.570200272659044 -62.57290407535434 -28.643829103959124 43.41379823060019 138.1319251162607 68.88811347326494 12.793543377842632 13.388638007786744 -44.78421211909232 -75.50004615114102 86.22575244858507 76.87379980469215 -63.15750233035403 -66.08929960438934 17.526720602907876 19.57067825920276 196.60295691913902 -18.20257988641562 85.96282621106499 -34.77829799164284 -83.03217287567222 -82.03134020614657 -12.690743019829446 52.74620021789249 12.486480504835189 -8.510773487876829 54.568146584157624 40.39159238564444 
-13.848763238031742 2.3244777675017514 -5.922252465382348 53.49638237281314 48.37099157636478 9.008945297668568 -11.665368242216083 -61.538775135165245 -72.65354660857714 -60.75973800103057 -37.74820855222178 -69.3718522677364 -16.321534911300667 109.65559011735635 15.054298032647914 90.20751777653305 -16.063860058859156 -110.45471572693573 -9.045784608396282 11.32884968012395 27.41142681479639 -7.08440596846007 -59.888990748286815 -55.84640885699029 78.70491058826985 -48.33331886408094 24.134521781439553 1.0426956582182334 -24.416430893819893 35.859100663848295 -41.313199355500096 -36.888693858240934 -4.996659495763926 84.85459470743676 -0.769463594040473 52.25358887816275 33.38972647969425 35.27913081730024 57.76395038860672 12.157276376890769 -51.65440739451642 4.658370411869944 
81.58985206295111 71.89288903568122 42.20687339872626 -121.83224636618498 -3.588610542537244 5.207327874762701 73.86444728873249 -19.72792591162813 37.202640048963254 -8.243727376777798 2.760796697376608 -19.701547159090417 62.424598987399825 13.633037037456722 8.898771139658884 4.41396181448956 30.16891247546586 -8.588245124241407 22.684256756221323 71.31585855465198 90.55562617145509 -21.202716877134016 -45.72773445686187 52.66307432942782 43.208376901582255 -34.76619780542508 0.2429203527765027 29.628719033435654 -64.28846398700297 -0.3330222704046439 1.6825599855481883 115.52795880133282 48.3290066909981 19.141870296486186 -54.06754835834423 -7.072658384992755 -9.531890480623659 42.02968678822197 -19.32943671028402 -94.31851220395794 -24.809503684231963 -46.008925675338574 
-108.36614042515124 -10.078418330717072 -56.35254118627111 -5.146664189191881 53.23428300319254 80.59302477501069 23.96459235288778 -5.492786865800335 -5.575169276529661 -39.92319764901976 37.574557474115856 57.79065509850429 62.023538880709886 33.0108350979019 21.20579108383908 31.617859245179385 -52.623080332082495 105.38235242212367 -68.42842339980929 40.76641007605125 -5.792277684028516 14.457668614552905 3.5960260894683103 28.104634637285418 -4.104448215043957 13.808926421394954 -28.9065689826485 -21.200545008802358 53.5312886219506 -8.404324203869884 -99.1536726968305 -0.39081958812802453 3.774375918261197 90.76794276221172 38.30061938487313 -42.71850863536788 -30.643620754449746 70.99927696827133 23.42548249521747 57.18066916494552 44.834598908431005 15.260719811524051 
-103.5972542042074 -16.021874666071092 51.45767611604392 47.64936543169084 -48.26840825452683 -45.88568450331945 -65.81462001558444 -38.57998095687531 -57.873454880914146 1.7448922970166088 -54.45781585618492 -8.960807140353584 -9.083483904190166 45.5388687925014 26.751092075319157 98.36575285281799 -102.56929211654355 1.647974532945903 43.973523993518505 51.221207359876146 24.038456537779986 41.83603117703705 8.771383942245368 75.91785084533123 61.09642123313355 -12.354974115085993 46.53842941481751 -3.4295130276587305 -132.34210013022314 -20.359522558792403 21.805372668932186 -9.391520318853198 -1.7734618312859016 50.293771573164456 65.07624831356503 -87.06607980595253 41.099596004108115 63.40340388073111 11.336564613499233 -28.092735004705883 -41.390635247388175 104.92228186458543 
-19.303991027439178 -40.624214531937255 43.6888842254053 16.383152970976866 100.84417482094352 -10.035240049113817 60.93983317771489 -2.8955526815332773 11.157204937400088 40.61337145661419 -32.17777795208485 19.59787293648219 -6.273590484098065 -76.22332462804793 27.86117811673084 -7.910817362900218 14.271307101586137 77.74354701312254 8.636274412692554 -16.126526966538897 8.224961456909867 -45.954853790873955 -6.51063226733073 -1.7821916066688153 -23.748034117248036 -44.00284519785529 -16.321847938614773 76.71130960525822 -91.13887956908223 41.74328436931332 -2.302678677432803 -77.51332333850415 -22.18892377048733 -13.02076512282497 -41.14592386912309 -65.16896025085379 -86.17996836138101 75.02751787569058 -67.72952049939347 4.912707591229285 27.986867932318997 14.32662363952834 
-6.431342018675952 -8.155347272325008 -86.08970299994074 31.816510484460366 42.4976356064198 16.732815587144344 -43.20741370963819 -36.60103766858982 4.141464850535038 -12.73141505271252 113.69323630047177 12.222441969829442 25.201011929767542 -77.99226475530094 -37.70278611918934 -36.440477645759955 39.345064538091826 21.869605326085733 1.314685241352729 -48.96964807613171 -29.250578323651542 16.40650622694698 51.810046468972764 14.804569898127712 15.183137257977009 -32.20628142080948 0.9332832476255849 30.040188337540805 22.84378120708574 -29.47155969824782 117.20539215875947 -12.529419468169763 18.03022403086659 -20.51778751114399 92.85564588784678 -34.64091835576134 49.355976875237246 -44.08680173258552 -11.312151255437843 37.522278451159366 -47.98404611348409 85.63928990823409 
21.228557799174588 17.61670962146919 9.923182941113724 -5.901478149882784 13.644690258290883 -35.28153497860668 -24.27613592543369 39.806933159680895 14.016031949869765 -10.513198376971088 -61.95322142108286 -3.452512885224132 24.771593980322457 -6.168726139435581 -22.813587192055714 -40.211439426456714 -6.992284128224657 3.0749246659669263 -6.641581459546562 -46.88166965865002 -24.57624817392894 5.145544503600563 -32.50052131671908 -77.13146293320315 -7.552292264527201 14.787586298973043 3.1115823911732794 -31.76409370870443 96.23623595725293 -12.68248522301986 115.56347354477829 77.2475067860641 37.67680429549933 10.425331529768862 -55.705921444996086 -30.067235497227532 -55.50609327227915 8.882893700617872 -26.552178345246084 6.7165602163477205 50.43850409329739 39.064097950278885 
35.26210808423655 -16.200143703830896 -78.15646221206967 63.34116632609312 29.7349234272991 -1.2161890885189652 34.87285065621995 47.42807601317777 -22.184347473456878 11.374332242664622 -11.023587107459052 -44.15419606936841 -53.750863707305705 -69.6013358521739 -24.812995838903547 -28.9744139689522 -6.8830845862998995 35.548609961251636 -1.5083087343330925 -67.84599405602502 -29.58323714388332 8.767302543456802 25.999796753020807 -94.31661437883217 32.472169088895264 -67.16637624655472 -5.630201736284841 23.176600142307418 -5.362709081128981 -6.660892055335891 12.03924333893602 -6.532749507214636 33.5640508494729 -29.98951076186143 -74.49764883892811 -23.855843817851444 42.31568920571213 17.89106853039681 -24.220259605577873 75.59511031583143 -97.903369536283 -23.503518500886514 
54.0454288202651 69.54117776770657 -40.246601122547965 -63.018463994207565 -32.839123008170745 75.12558274403962 1.08387628885098 -43.027621987957964 20.210451239485014 7.562978790845189 27.521228852432927 -9.006412762967527 20.87400126871544 -8.05255312020597 -59.39716613390111 50.70818276741572 -4.495344141993569 58.884859311374285 81.2236336597381 -38.8125453115127 -53.988119559904916 -70.91054705324696 -38.999446770888405 -29.905038986885618 31.775900533681448 -12.467874386127626 39.21679845304998 -28.479009325751843 -1.2266418857868122 -48.740146854107095 -11.765309636870464 -70.94731674204002 28.612501318326633 32.41633292710898 63.79207755910494 40.09283325495208 -16.15034204980083 -95.38771610315378 -42.050989163118935 10.49782444827619 -70.25803806590294 -28.036170118197642 
22.94817235355359 -27.8180350162132 34.49052581915954 -48.4956033177439 -73.93064904548416 -17.749131263026104 -80.61129934395325 64.44059632168137 20.47306550463185 -11.970988990625528 -34.330957922299284 25.94986488069426 -8.448881119541154 94.2272990811596 48.03394982311734 -45.07652536434904 27.52396008884062 -31.195705814394014 -40.17920247523909 14.538875485798876 6.498775874142619 39.511043390107154 46.0697483958158 9.97714183689786 18.70516469942371 -8.12164894412495 -5.389528018458801 -9.09650731150479 -51.85363978487167 24.449109824011654 48.099247917988635 100.8991765599934 38.24120206615531 -35.32418332215092 -28.415615125155135 6.684101762526972 14.001107393108564 30.895309346291388 -21.50823707024764 84.95713137853214 69.32264121581979 13.372603245026456 
-54.058729674394044 2.9392603783232083 -10.887618323712223 13.816417843265024 -26.468882284385618 -22.995480807003766 -20.830360452643774 152.01606196889693 4.163121496168882 -49.6741123286639 99.42235725863905 24.89691028097395 -8.891278885744441 29.4918291965447 -47.955804629250224 1.8230339103078639 18.18468213608995 125.67145462471794 8.13890003845389 64.19884089785837 -29.41854189026232 124.48349095708507 38.79123346590279 -30.699769576223684 19.17314946789907 -80.78843971079087 -1.9092475121828745 58.5667566204852 -98.74371230146768 -21.666102644453023 45.71104574387312 102.58682857969798 -20.495810669683017 1.4156592954966074 55.463088631862846 19.662067214084725 -39.65529751061803 -14.036040152522748 55.37757749355008 107.48409351188235 8.722514345742146 32.44872597286811 
-85.47812084526512 -43.42727568370305 -24.221860713547965 14.691257048907518 -21.951040710018653 -4.6694494878917245 37.537493561208315 20.455369947327355 22.251195519168505 -53.315489366132155 61.10600433623651 90.9611219769125 44.997940224205465 -9.261323323304381 7.973351082420165 -59.59557772346169 -15.798808246011584 -16.859941690989007 -103.41508068608557 -33.064263641929486 12.930068250087764 53.365564170228076 -25.40069711037775 66.11813448274292 9.942186011158103 -28.78529440959771 -48.31754082443685 20.033382572948796 -97.29309204809981 -36.13874000232126 62.20833944733895 20.34643094599817 30.613651447731588 3.971912100654939 -20.17798344161779 73.45838190047213 1.025123484364123 -13.54503528631629 -12.233342443241371 4.678142349015149 -73.62739382092677 38.77447240534445 
-16.252384641371705 6.3123523946419855 22.108287527013093 15.53475292805732 -8.799336714291721 17.032347415541118 -35.821424900531476 -22.378451642775595 40.89583229529404 13.642248133528785 0.4475289168033421 18.314504894920667 84.58315492241665 31.387669755652954 4.825165568541294 44.28010693158876 20.626809330020865 4.685781784436519 38.11786205297907 39.17146617136575 -21.200651450620335 -10.346276339370231 8.58110081954583 15.116623489830355 -30.778627054258983 13.384011040268152 -12.433677143621363 43.572992520804576 39.149918573750604 40.992397446167836 -0.6377028139749386 17.117619397601054 -13.35031286287273 20.660184930736914 -63.33008336251835 112.24044375958204 -85.48842768682542 18.81930541613741 -65.33075316620098 45.72504745330967 9.179795155422253 17.734052890071876 
-36.66339454243756 -10.23051046569621 -13.14351940105434 22.76352130872913 83.65574904569148 -72.82545887059504 64.32242015361255 79.87695891395371 -75.04944540857409 -54.31041888096397 76.33780976960479 -72.80913152114796 -48.04841932551964 33.41746566830697 -23.059840041962904 13.552189240293966 -36.31637551248771 57.47281994814957 1.125603572156694 -8.484526460652635 -8.124394554612369 63.85767480796142 1.1951258146170858 -9.67062356473892 -46.32067002513493 -40.571327912972635 1.606551675742256 -49.816167841130074 -105.51947913547072 -27.164881577249382 -16.34985264878908 17.765847407887513 -58.33777917824239 23.436400036149962 -9.980024025935245 -13.303113377622077 37.9396556532832 -57.95342318710963 -66.82438810300457 7.630770689793759 -28.59586699435176 -42.29503803189749 
88.8802428798765 56.9272269957687 -61.020522860668414 85.85170950694754 -22.95298440346046 -39.044631237822074 50.96491697083728 49.99130212959954 24.166807681762215 51.36609182255921 64.54158354225788 -7.256276807937679 -72.65195471448747 64.17052694795275 -44.55980258746349 124.02178088970075 -33.602395473911294 59.43289445554492 50.161456119509104 14.533395772083049 25.85955930127698 33.82110399153099 56.65765548945857 33.69016203133066 -60.021721244215605 32.17336041428216 22.44397403875022 84.59151048188419 -31.125535519244668 38.17032261985869 41.75426667608666 -25.035627388883864 -100.60623655877275 27.014704624854478 -91.2826082832511 -9.107733588634536 1.8649367480832097 -40.743746403881474 8.92466443178466 -83.49479703503528 80.21781060444297 13.582291775915937 
-58.86464105745652 35.32098194508761 -21.866372948452714 -39.01519543481622 -6.416475009457971 -0.3130408231033279 -86.13810149320561 -59.74152577651352 -77.8219788607595 -62.75201185345616 -28.608257403266336 -26.54436969073034 -54.77905006561121 77.29652013540827 -39.095176992511796 -57.3047028488165 5.411520943293052 35.2316015014586 -20.476566656847897 -1.3091590891468643 44.33158156771969 26.053463797350055 2.4928397772917927 -4.437052725561586 29.128903308808304 -88.74743729187338 32.43666760323103 5.838793846306767 -34.204794553143266 -68.09402469196083 71.80999902397369 31.324788311925392 94.70461351106088 9.302698257749476 -42.967781324035535 82.7330772674705 12.869446247610565 2.5776627255912907 -1.1840116355771855 24.793120430243434 43.556901113783574 39.12710225606374 
-49.82089728018597 -9.857686475411658 -48.83545577075376 -1.381483652430139 8.905196779471193 -81.18190475228938 -25.78302775602045 21.743260583982327 37.98068443596881 -57.22658783058352 -24.96607020759223 -39.735041749911886 42.050811394278696 -1.5611741747175585 75.05294912840804 -31.240677755238693 -77.57382094013393 -22.322796600640945 -69.5489990951163 66.93930763328167 -10.968334017512817 55.15254775970633 -5.001663031415682 84.8219469727545 23.85794647491399 -34.01775582409875 -10.570983630498207 101.0258642735866 -0.04983873035605382 -82.4946925699456 29.116419669572373 -20.30200881365422 -53.20023158166397 -10.772179444195688 57.49697873599924 -40.74198722867522 -17.044214248223298 -0.7935764811814351 92.62592325668152 31.3041195670081 -48.52728747385441 6.146257244351563 
30.79017143013761 -41.49060425622608 20.44472466365021 3.6737028596963155 50.18263172908207 -114.49083713315034 19.837860720650358 7.0349330932488465 -20.001398080335274 43.995778637627915 -38.72855202174489 11.12312475628958 -0.9785755376385342 27.280015724792076 -8.263662066107692 4.511872504557074 -62.683413214019616 55.463387844452946 52.17125848276629 -74.00564726428449 89.38183866308391 9.275244232047731 -54.24598770232013 91.7136101934176 -9.37572745744868 -30.32278952723171 1.3117704908921852 32.51967919989081 58.13551934971737 14.440066228205147 13.974576302090957 8.748721403730553 -31.71333698235301 -40.01136459660256 -22.22557128793179 -26.495951032776098 -0.9390176044230065 58.84272806150559 -32.84627488697171 -50.60874022658261 -47.198210885818774 -58.75164039569194 
12.517940926045284 63.47211214039173 0.21556487375331784 -18.97943011565135 46.98661223931967 8.022994590256575 -58.64532323027897 -16.543865440421744 -25.514605306095923 -70.33200550503182 -155.09575765772857 32.95799056452176 -27.09603087555149 -28.942981504456686 18.478385439954717 4.79714371210575 18.8347069998455 51.55379137131699 48.162312173001155 -64.85335600777186 -34.094133462385244 -24.344461444231836 -99.90340534747959 -48.77266939441912 -18.10704257002243 43.674648903418486 -97.27782841951517 -34.29006625123473 1.1915873057135746 13.137660874989523 108.45480078187069 -8.101737105222364 -38.20847412868948 0.7189302901611012 -18.522286598290908 14.360620396643133 86.36955037321623 18.61261489343518 -81.64180561943414 58.98715734707433 -93.21353541541224 48.108909473997144 
-33.59008155391866 36.04211052106589 13.2639025026515 22.932739927011845 -11.820961871527304 -22.778364180055014 20.85574883442723 8.508442494894501 11.310240090933068 56.93897733349828 68.61345273313519 3.259027126394116 -82.41236009386918 12.421346584967665 -18.73460247810231 -9.7334131171777 45.957242841114336 48.961518315864325 17.10642770654793 -84.23791194090882 64.91607558147673 -29.056048736221122 -12.527620867368054 76.99697870980425 99.30034535202456 -11.898867755892736 -16.95935288583985 89.42767984483923 -19.608181437567758 22.627030365449514 47.23147013917218 46.97807096152258 10.373894213545407 63.425945395037495 -16.7995276291536 6.669035480489228 3.329460648326501 -9.639589098797295 45.74288241722002 10.279361094282583 23.56105346813131 42.85937886933605 
79.2322688678339 -52.21599882799004 34.31545169048802 10.728877723349436 -58.35123522112777 7.970070876454849 21.586818933013294 56.164727326383584 28.862773108185817 -56.33549821565257 3.239231844976987 32.96065779932505 -33.24328797017836 14.674575618314504 30.59269632704296 1.1085142104908214 -67.13521200851409 -23.54793417712356 43.41089656879651 17.44503062669888 -58.94917408052414 44.22000525071537 27.57026222961523 -34.19493821877268 8.537370213851426 29.118444093320505 92.28363005724437 -46.013083185178886 9.417640744985677 -120.58408688878866 -66.56681298066556 -18.363042075376818 -24.36144834764837 -90.48749064123514 72.8371580621915 -37.606647774463575 38.051898248990035 -56.6200163459996 -35.76181645259313 89.91252981818614 -75.97456288836976 43.922618125226464 
-59.48399484638533 39.18754117179132 -0.510626436757347 75.97781414666993 24.251197406863806 12.129529718463537 -30.5386389062672 34.46763544740825 -7.411055127471565 -22.326616980172876 13.977807050569188 -14.760012545235567 18.615571580301527 104.64043247588509 -4.2232353776889715 13.480144568796945 37.846111742909414 -22.63443972148579 13.862965165292472 38.72666578670375 -43.57134176032394 -29.249563293110604 -26.2547770059526 10.734952658181104 -12.90648365126855 -66.19781376474157 23.518808758274254 -92.14898033700592 54.388870958818224 12.13348112145721 -81.38475822762588 28.342178507814708 13.938437957384114 41.126811078473175 48.5240063848297 -38.808337670546926 34.003417910833605 131.93722872093733 3.6090585375792164 -4.972940344561556 -61.857380936917835 10.645848915369397 
-21.55100324238669 -44.39485291744117 21.032789893503427 88.43750009518325 -2.134923058691993 29.062084900949685 44.34386889305175 -70.62588924380309 63.51612290420299 21.570772193985853 -27.073878913431603 32.1071838947791 43.67620419369251 24.08263096957917 -86.72992980384531 -16.147197553950964 -59.48278109692352 -70.27219031599107 -36.840285546047284 -84.36196110756481 41.587329944427964 -27.7672534234946 -10.333292978630164 11.238805869004103 44.0708685440544 -11.94261313262039 14.397004124175682 47.66630645024713 5.490144415663671 19.90913388019073 -28.544021145773254 29.997892696830913 -82.59784570562749 14.748810332845295 -41.75428675864974 -119.2804731293087 -67.69665941056391 27.712098772589627 63.79368216209939 -15.771236706934673 59.16432527832013 -12.78906213900455 
-54.90232192055124 17.54932898840895 -17.802289804015146 -34.45950009719739 77.85836979853879 -37.83568156655163 19.595175085795283 24.496503389980763 -79.03440483021043 -59.15417571761572 24.040224037390786 -4.481073708138263 29.15911554290327 63.82965447168182 12.390842746403484 -51.65744429915274 -49.702626307349966 3.5879761265795054 76.00927751591983 -26.950366111893494 20.35246878218163 -23.20193940763296 23.904230160318733 113.86535275723726 54.411914515148354 23.218329364587156 43.62956549038391 -9.769404410661235 134.31181697585956 -35.50154435593037 -45.59033704781275 -25.304922758496776 134.52322533081147 31.44297109219401 49.244841806065416 -19.164625588119804 5.628221665484351 -35.947476570599335 54.620249803463565 -11.046564111687449 -24.098036702531978 0.7128822902110893 
24.581471914554204 0.42110170867942176 43.9103907083093 4.234978160951819 -5.825739510581485 23.064811573343245 -45.64455633778621 29.38528635401141 -69.13294869661635 -98.81092882622544 6.902325372396447 -13.728760916708932 -35.41003824210803 54.62258038238133 93.39283814306567 28.528896968592647 -58.244735949148684 12.581822925203817 -46.39111058898717 34.39258188854217 123.41989078720648 45.96502322953655 62.03650996765231 40.7069183904026 -32.478619782291 -11.704312356506218 -2.911910322728619 19.449939164110276 130.23065397422204 51.1166072786318 -69.18830567837989 -67.94177366700787 48.05858387306426 36.753012993840215 66.62743555615153 47.36105952117994 0.6908541751699587 -25.606933895176972 -23.240168668730853 42.90022748965789 -73.50389971428127 -17.533068139385247 
20.714962045022006 33.689491510589946 -10.907463564999786 -16.454043483446824 -36.01376664051535 -14.680394951629598 31.666064979006826 -69.17404274760811 68.04056989306113 -31.441434599870302 5.791455159785267 -6.907919493783508 22.3517918625008 47.16726018147759 8.906038898345818 69.94472974849249 -22.457463013776522 106.20504662940704 54.528544003634025 59.62948656713279 14.986165670747534 8.80102202304825 51.8029946108928 44.28526843609541 -80.1329735899947 -5.67527332422349 71.301188248314 -27.254023660609136 -2.5065357280132816 -38.06764345615163 60.507469695267204 131.64185450494503 61.54908607830986 -11.118083045020436 -42.922748969623065 -52.262286524083514 -62.020072877088595 80.29891604243451 -12.746617862009051 17.6402521992804 -18.444810910810304 7.833830234735724 
-34.81677314635806 46.14751318579713 34.97718745789196 57.97982563050021 -13.888536868026224 -82.00232069826966 -28.954788911607313 -60.660073979619206 57.44761162257963 -0.28936186883098014 -55.28950874182513 -56.048763737556094 -165.2885043687378 20.299737249483478 39.12781875379643 -5.019892087575397 -23.069161255750693 -35.093735408980095 -128.1408244233483 24.5713888407086 -2.106008023086307 47.052677556375755 23.30919963551231 63.590357635289536 -51.24690622169266 64.17335990334142 27.642626730422286 29.70332215138326 -16.60448969622723 30.925515010577335 43.567839897788375 31.499476248940056 -31.12802279469953 -3.479960235990739 -14.721286234496597 -73.33839711308188 25.913098894287327 -46.57337145067364 33.07367551533984 73.67622918182892 24.063091107967054 -58.75355794485546 
11.806739104957314 -2.5725514508013183 20.636294258015692 -11.897386612531449 -11.762581939011328 50.78558565353775 72.45930911188599 57.137317553934366 2.486017204342992 9.437911050303807 -29.056436419780848 -46.39519460910529 4.999931866834181 36.680689406536295 0.6629699886376879 -11.728330532319072 -73.01649658237584 -25.770375850358125 87.25934237153263 51.518433302639224 -105.22992071784361 16.787452309289677 12.781213558964595 -9.52169642232643 -1.9931595829504456 -83.93557324883713 45.384272475426094 3.800956404361384 -45.54598532540908 -77.34961070732629 -7.416248297518766 -36.34937856477142 27.512474588826166 -8.981920233582086 13.530131690848707 4.637714813868624 -34.52986462334049 -9.133215617912017 -75.28707099706271 29.08358555424638 -14.835088324491313 -33.40811140799076 
50.43943715754695 52.07562726644447 -73.96939352427718 -17.37361582978582 98.67132398427356 -32.31441347723582 -1.7150852534774979 -57.62510174382789 11.21228185402768 -43.11175813254231 34.500810781922006 -17.724018150953555 -21.778498017682757 29.870914556671416 -89.11434688859978 8.628876995887 -106.28824118010229 -59.75108075163923 2.1117594856020787 -3.191172250095072 -46.430938449670215 76.63570069854053 -17.672965449884007 27.507527025212866 47.98952400308222 19.42627333715368 -14.346157532540376 -8.675208479945173 -66.87673475966312 19.21445719137743 16.525702474738633 -70.3970769456927 17.899689110332066 -44.88961051409464 10.3725853526242 25.682487180654046 -49.88973451037738 20.111813865662555 -52.40250231299353 -64.2985458125372 -15.480376992607452 17.301740404411145 
2.5348246561354877 -55.713468194248165 16.210138198210547 57.20487599538153 20.926428622589835 -48.94314209546176 73.24733575406454 -13.884412464190994 -6.82608643168825 5.865740385033744 47.50997988888733 54.331493779552154 -0.9562851684537289 67.79577394382585 -13.753454770158042 -24.837116695374895 -41.010695311792205 30.604554989317574 91.0374727839298 -5.766547145303415 -28.819684417416 -0.16503119601182809 -9.8468084142224 22.060853370347626 5.948738858635275 -5.028934956827674 -50.71359538328682 -56.148847076205996 -20.971387735713687 28.15646775092432 14.124586243483387 24.271050587393688 13.834678618605635 -131.17665200162116 11.93810370142133 5.5791582422961135 6.501085810059951 82.29818868731314 79.76535673077139 24.743238027828266 -26.534837009661423 78.86875767617579 
-24.485779156568437 -17.352481368405606 20.73927225140281 31.370599800572194 16.172676141253245 42.76305914960845 26.87354650115375 0.1652822921712389 -34.73040483499924 -51.40169433351988 14.999748951093627 9.846246838235853 71.47301832367637 -35.49605152438911 21.913837020258725 12.652751554823723 47.52001749944559 -55.87838607957496 -44.00887853701762 -3.3074254101086114 16.924367230353468 29.117863908227868 58.746638108525374 -59.84071224328841 11.984367473027039 -57.200074065541706 93.49125665045194 -19.261938029299888 8.160681633847538 1.9654687666205506 96.26341403118994 -48.20387308910363 13.372827271006232 17.617347406051145 -67.51714310307379 19.48754816272951 24.84689478675588 -5.776663999789543 61.07103027513775 -10.77826477965912 -8.1743284612639 -8.174731468709524 
72.46016066591044 -47.329706833347906 23.665272165383737 -29.535107333311032 -30.55149044937205 42.99768326040794 55.852389555798645 29.58886661144437 3.9221209478195234 -25.660268735604692 38.793588374555156 50.98060997022568 19.87343503335348 52.98429620152707 -54.75306198046551 -54.1980561055989 43.69375087557617 29.25967996603689 84.66191889357168 75.90847938870698 -23.646735571222663 -4.8852096995603915 7.069739384045192 36.51418749755582 -13.704561506616777 -72.73299380486561 16.642003512475206 -22.453521988707468 -74.74350138278908 33.907811241166364 -66.30605805305913 10.437133167578686 -53.390135283763414 -7.362625240137631 -50.64864542650135 38.26242091798907 26.964233770749317 18.470385124096058 -61.559441646664894 -13.476678767860191 -19.104498793825904 8.459984589555965 
134.24510749646103 -7.707591770837252 -5.1005456157367455 -20.559345076100165 -20.359413105567757 -7.586460280141983 -10.050339020703822 0.48106352309374106 -74.90598464604355 36.70030683137371 9.372074249527223 27.737953919847907 42.547602438113714 -5.656767361139489 -18.427041629952132 -65.57371097588208 -16.9053143651903 17.187249514427812 45.369899095380525 12.39124278450996 -155.06528081653803 -0.9693015200659026 -68.68820232576577 21.08470872064237 10.400693524761863 1.0540794006650094 67.08366148202205 -40.22128677828768 -59.11341874880002 88.88952637342628 -26.54226822476427 72.9834233867404 -36.59956588307419 -18.105740814338535 49.97960629287036 -25.714120288856236 16.315968520843473 54.063523229007885 45.52647113855156 -54.59590582155778 63.333269170928325 -71.79098372200984 
-34.8185815659555 -92.02938181695554 40.291702439983915 49.02577539590677 39.29352630455093 -17.308746971362442 -71.47285082127213 -53.416147607177834 -16.721302474011896 4.559138663958923 -88.31313977214684 -7.48956411399444 -71.28919946400649 -57.452900477592486 -36.043127341991195 13.073452314411684 49.88722187402743 -0.5337501530864885 4.979321315093633 21.860243453075668 -6.666363583326717 77.44806436784634 -22.547379119510484 -47.777967481647615 30.087768264834423 80.11481187126107 -17.44280981708895 13.428572630525741 64.53007993428619 -9.125646918634597 -48.95290858003377 -87.74336076548921 -96.93818431332058 -0.3068317508809972 20.131491640006686 45.69802150513358 11.959165818284962 -9.170478498726288 -33.727715335120216 26.275034513025606 29.416457055477146 -64.62480321058482 
42.356819896624 -16.573028550211923 -67.2309273681346 -92.242587890292 -83.66896439649902 18.99898546123966 -1.0548198174767776 -68.62936490879825 -5.797830291254799 -45.79462115677556 1.8730862704964404 12.3750161912108 59.56823993566188 12.252716663921436 28.25288695422422 3.131014473000396 9.65799013776208 -46.37278954115889 -44.75114604259231 -40.16810946752933 80.89967575661224 16.4644841853755 -66.04600941313488 -85.50133222821447 -18.150767836922878 8.223428429127463 -80.50492427602724 -84.71509644448655 60.291640172033 -3.6367640348128516 61.51948111238921 -1.2329114598759654 -49.820851885972914 11.814965355597455 58.542679357706625 34.711047466019224 -64.95378830059971 -53.9348252023285 -91.0015812228778 29.024048178605163 -80.72433690055942 19.958394525143827 
-69.15725302086605 -47.26409653557997 -54.15110240007813 65.26030525777834 -9.28536435356351 -41.09194778756242 57.89727124428298 -21.838375083494324 -12.60797315792209 -89.48135204890626 -4.9892809949810815 4.853681301636942 100.52787885300728 -8.103797346376496 -43.19636858711099 28.111051279277383 39.97580339011695 -30.6967055237564 35.879741147231826 -14.451112655548238 2.065703952575358 -38.70988860703239 -15.846920687306907 -51.66245723720247 32.16775679528709 -119.405530927687 19.366959927121258 45.8294660699395 0.5830135595388123 -1.1177941203815904 -43.482270660934105 34.22566289762709 -48.217472783306484 32.021381933461896 38.3629899031637 -35.15779535621064 -30.805316510617374 7.410410798159924 -34.69574320925023 22.535995146345396 -50.67986999008724 -2.3751182348791025 
44.434622490117455 -11.681111199542846 -2.2747932005071907 -34.87743805260395 -94.37935837838144 18.948767441459044 -22.176415204769096 -35.78724561113576 41.75178197100881 32.59510371742338 11.544199002461765 -5.407564450874782 -5.890779576091402 -44.716344147069236 21.428259040402626 29.771126077750775 52.00340854923109 -18.74546427587211 -18.24347814513049 -72.30193118204481 15.634361440088957 96.03740190347878 -4.7916266661513225 49.14014557748651 16.347755877818976 48.32209452262561 -34.812611716945156 29.981512141468315 28.953046814116888 1.5249137116445772 -7.361063224961767 -16.323880228181984 -40.10489982422733 30.105416981612628 -13.126778243189698 70.30491506227976 79.84399971676457 28.678630662138573 -78.1620986899139 -102.23153861381313 122.86405498185172 -56.81897549440802 
40.11968438869649 -49.603613846221 -49.78396293887284 7.309813697547173 4.740200210665725 -104.0350553309874 -51.269168009952466 -10.227535914693432 -72.14145264008563 -62.228055789853876 84.6605482705659 -43.87269897340944 2.4440068166877316 -93.00029217631236 4.722919800520774 -72.13159263587804 -28.290571332436556 41.9422479739362 -70.44091373152582 5.331559038019316 -4.3805936316562475 66.16197007966247 -11.885550816983507 1.1590073157262517 88.8546253621918 -74.07721083606572 -27.953340531824047 46.350216275357276 2.1102353222835997 10.159144971646647 -22.605705672002195 59.93640709599325 -35.297519141904765 -36.673545909119724 -49.37400823929009 29.915495760256302 41.63140634417748 4.266055626767668 81.9877615291346 -19.77403119447799 -54.43507893028159 -29.916389905093638 
10.292774250142342 19.572440593428194 47.71205046481329 -57.17548172945099 97.4318416168864 -42.09361888012022 -96.17606028673482 68.62349113929379 -89.14190399705916 -65.69186623367032 -20.688811726188504 -28.687127407048152 -17.943249560629578 -35.223643616664965 -29.52957210353727 21.25442658010611 -45.069061265926024 -2.9632000112815478 -79.82135182628706 -26.3571094827957 -11.428781613781878 -13.916998629837403 -8.684902827148436 73.24794357394723 29.451503031802105 57.95740389651275 5.7177880132694705 68.82885640222523 -76.51297492426121 -29.162635340830636 21.47628702274393 -25.473257338755488 -21.049751192686067 -18.849646893510307 46.26469760117269 43.339454630432286 -72.35170251512686 -77.83297661822077 23.231708992156367 -29.807244968524646 -8.285260073240606 -16.09150322748561 
-79.69917204775932 26.98760164984918 -28.604313361495414 -11.026723307042209 37.55678670112089 -124.44741725609232 23.42999738463851 6.756937103862275 70.14965610652914 -21.26658315396859 -10.255735877044104 97.25153797784247 -9.993807128073833 -127.04783577753616 40.87535119754318 17.941742149425878 14.805247095735064 51.722079255875364 -52.3876906696843 -77.63374744513727 0.013691787578028261 11.371040035466544 -14.348861583095205 -49.47982584997263 -29.901465966656843 56.58885894646683 -60.996310332826575 30.810356100064997 -44.87464939560174 -22.25234102886703 -42.70671950433963 3.966773418184536 43.89522455966057 -16.24754665880468 -15.6976864302496 -1.5030759919191916 -35.605702047788796 -32.13903956913506 32.42352847512992 13.239703174925824 -76.18417563803003 -45.23670856843378 
-68.55080278281604 -17.352685829972568 -66.44211218696508 16.15974874771074 35.78526466815567 54.3103907702673 28.12123885111953 -24.418602287944356 53.0104667000751 -31.728474094343692 13.62263800739673 -15.388532062371464 -81.64274940470311 30.206512045735643 7.062233097308321 102.2243341746466 84.66103899489522 66.04234324087871 -5.266238852821866 -61.35360428956208 -12.753995071277792 4.472587524294561 22.354524458420446 83.96564029262414 50.4015741261191 -11.056836943997876 -43.576040329989404 14.936289469970284 -31.865609915483184 -12.527651920336785 38.221634679548984 -35.733243426077635 24.45770684052059 31.36769341361064 46.36025533907108 35.20146554720243 -80.36777256917416 -46.08621233477356 -95.15490393626885 28.23550735086519 -5.968412678342826 -38.47686865294071 
-31.2401712922522 66.8257641531903 -12.537461816157403 -35.070371663286366 1.593458851717883 -108.75296682190837 -46.92118290716514 13.063799794786908 30.746872918941648 -101.7026721303113 -23.85555547386669 74.9928246272704 -45.59361990112069 -51.41568562893686 37.88713723960251 -21.95747604524029 -24.143082978133435 70.7456135939457 -71.89583045702531 -61.902999477297094 -4.577882999528569 -26.86701177015441 -92.06071805805047 -50.09996953049306 53.549682954901435 -120.47975619560982 50.10098818785861 29.109991197390578 35.190694513025754 84.6922748849992 -56.36181675998742 -43.89852990428647 -32.58779609659974 -33.68501713122511 -14.918863157156629 14.111198048062533 5.344923057735682 102.1456718770259 -31.591912941909907 45.86655833814093 21.428580952597695 70.3694023638152 
-74.80747044209971 14.0751192974734 -94.20327439092482 -21.407369995340847 48.11329196530878 -13.50697746792058 5.427794254579484 82.1271189162908 17.125700205205945 -28.349118547821924 -15.509186597404458 40.11086305809615 6.336991161770447 34.55915855118165 -58.65891162106427 52.19135915192192 -62.71484434287216 -87.2686386367167 -27.999131603925736 -88.39344106263002 -3.563420646668508 55.65823591290612 -51.06311546434746 -12.444601956236477 -9.237699179928788 -19.827782797613903 19.69208924942245 -52.205021373792 29.332034997065144 108.65408721624122 35.0713858927281 53.83224251676765 7.493985473484406 57.86326662715091 57.961480984751766 -107.08944397628811 -90.49107663513033 -73.35680357897877 -13.986981302646154 101.94290123124655 -50.91392766735835 54.38090422396859 
-5.775849408156078 15.793031321419939 13.566711195501536 -10.683322426100695 64.89615958047328 -47.12698962231397 -45.34487235197757 -74.34840761639798 32.795915118473985 33.15189616553947 13.540148096211446 -19.301648140805487 -13.656285379268084 -47.642377920343975 87.06981856554034 62.74944189398374 -12.880148548227561 4.3541816648277365 -97.6329681965866 23.167062352798776 41.503196470433096 -21.063809818449492 24.13746488539037 -27.778513511975987 -70.45127852974085 20.959611184785064 -12.248694076557735 -13.876559293387974 -70.36014698274533 3.051017412575961 45.75580350798504 13.397339288014694 57.575480730898036 -25.75911103652467 7.278985991835204 18.139781130005673 3.5039121072027317 59.42863906737433 23.178415699394503 45.97316135092959 -68.77510019653214 9.548685480540362 
8.600699612673242 46.20494842982487 48.071832898898215 -48.02746736729415 -92.7195655974799 2.4085507575442966 14.977455091934518 -11.318783868488747 15.370018032966954 -99.54339448734869 10.818606867624613 18.000446361661904 46.465005836801126 -14.859362841479825 -117.65514427685551 -6.682104996365342 -2.2372462552706094 -13.656735341246227 -40.89773904580056 79.11433484319178 -54.64827457139356 81.38862700602033 -26.553640062021337 -81.92658978249928 -2.4600567947551 1.2175714841718586 -5.396236996238376 20.23790381690111 -17.652074277248005 3.976701768440666 -34.450535545127074 -20.036964315666825 -47.495177632483006 -1.1908632690235859 101.36052501573317 -9.925887111310475 -47.46348928535604 3.2518745773236617 -58.76202061368588 -28.057378803123665 -39.44672079393742 40.303140443863136 
39.62899639852767 60.822690052416796 -32.967908886253284 -23.248030209102883 57.65824384537775 -52.496490218044826 35.91156639170895 -21.466759721633974 50.480810154477915 16.30559952673846 -16.949152245574943 -22.08387488651382 -23.36840323897028 17.207599885815696 -9.918586492702387 -47.54120913301792 -37.11809907054138 15.17110561985453 0.7209633600190354 51.07157061334617 21.376460158507907 27.603113093047153 22.36594445866981 -76.28677055596548 43.20706574382361 30.504846455766096 29.414864525677594 -69.06329989803999 -64.07559511191693 -8.278809548732454 -7.516400859488944 -47.12325134976699 32.863158358439456 21.891212528534297 -21.204799964942 -11.782155375236385 -26.04839397486811 -44.30281533210488 -88.71542675683271 50.56374363750406 -50.297267429133846 -5.789025120826962 
38.76166583851288 -8.198881610921074 19.507253198777487 5.027737110428556 4.892669416020683 58.88853834658293 -36.205428217923455 11.194395169388521 69.13248390377088 119.74831956770046 12.854471442499298 9.278248678403372 -34.353563165493746 -11.996737599516369 -22.906293820318258 8.933951515581585 27.555095272777635 -30.117969914071978 -39.067851640331845 -24.19926942072638 -24.3026940247415 8.554873168615451 -81.36663948534763 -31.250613094849054 -23.3036682085174 -17.70277207802093 -36.57749648669683 63.46940685771439 -11.672444711011911 84.29720669855355 -61.29993778631927 124.44951874993407 58.41895669649451 26.598122176467562 -20.674225330121494 91.00895987171646 52.05074880545166 88.47172997146276 -39.89048615391831 65.16503042823463 -36.022166739085165 104.70613077343397 
-15.578577291690467 -80.10895537206747 -21.985659487723346 25.762382399415706 5.1787317547881075 -21.306890860127602 8.4943826154686 5.688684079526491 55.64357923251831 -106.69959768379583 -71.80463446138276 -2.275089133699141 -45.91177146101702 -34.460659680200536 -34.21485355927835 30.883960289133274 53.293693005284084 -16.724557272345802 1.5306989430489963 60.155598781060235 -12.558005504772016 -98.80436072234349 30.479171001144095 -20.364817640375982 65.8779823483143 -4.447591464056616 -98.83002782909334 2.7412527623936804 23.819536006173006 -1.2101015837706681 -12.005967517091252 -6.818877720216328 -19.29518078018959 -26.272207635778194 9.780670456173592 4.4483851853098315 63.04544567862316 -51.127620792401565 36.90285084493493 93.31872191110402 44.96715079961393 30.538108036827676 
-13.305716302759514 -99.77753810199677 7.139894096797002 -34.229610157042735 -9.608441046203417 85.67419469965644 15.952312461309443 -6.1658233736592685 55.21638330884338 -22.074578144354035 -2.7789970345887287 85.55170964893804 -20.483899445901997 -102.01489047261614 4.543249552809871 -49.096779520343716 28.192991377020032 3.4599965326099933 -53.877528435888614 20.94548783617985 -0.8819151784365485 -47.96282410645806 -72.17489096515389 26.515101987141666 -143.28353122662318 27.253752821513622 51.56189098689509 15.753700481386332 130.67932216924356 25.502220913654366 60.193514976829576 50.769213040751566 -39.06413690930637 21.12356375053755 -39.919170468895594 50.01439807087221 -17.622816520757524 18.114568600116968 -9.130094239122364 -77.50548385002817 -2.099308367471489 -43.471399423709144 
66.29478758178591 51.479789940735834 17.97773239840842 56.283113433841756 -5.924533405390709 30.21846812364951 -5.741295149040475 -0.16594817782171123 8.950964384556379 -31.571714919774237 -64.19026143749048 10.010372580875442 -80.09964611293753 -74.59718814719965 10.719973881724897 87.26998573927281 -29.017666725737765 57.93839494053034 -65.95281866260363 18.53892633162308 -40.94796869718074 24.252992636585983 -23.69516182630586 14.110411201691385 45.9627456774708 -4.126866124814589 -20.129125799620624 26.21161906012979 47.56204026410164 82.78483318299352 65.51670357584385 -2.5604302861832706 1.08845472417276 67.95599074045082 -33.5994025445717 -19.646558350895326 63.941271099684315 -17.92572623899805 32.60754601558594 63.473039506307835 -12.088102675048177 -51.602287320012614 
7.698847335323928 -9.472235720367843 87.29009612403019 -70.9806306376166 38.69654229590123 -2.5801314548235617 64.87661958461713 133.3206879024269 -59.10911107012476 -125.14363421771954 -16.513786582919675 -83.4892992104395 36.85070332626974 -20.375855866470644 -34.82550000805922 6.972168152888122 -41.42720480371725 77.9269596708945 115.90262287910436 38.39088932813016 40.89372862308543 -35.78714006895643 -85.6141283883318 27.115765914707055 -27.78014523386611 32.65867571910551 -13.435794575746815 -35.304524785096646 35.42031320803516 -33.434449331837214 -20.794330925847696 31.41603009604019 75.19595311864803 30.560679224730166 -55.398363047463185 -40.21029733390149 33.40830739816281 -4.941341119956622 4.1939071771485334 31.636686321826915 -56.43670445492347 18.757466615432214 
-52.50432643920801 -70.34295540385509 38.75539975784784 13.75931117989524 9.294487888321695 -17.391987516406086 -56.87537870170223 -15.258589226422933 99.8262182155314 130.59755885831012 -27.026250443706754 26.813423046174588 2.1561945036302266 52.937255799374434 37.56712331589628 -56.47990079545669 21.045459171740177 9.98408859534459 -27.266864136185802 28.752086934149617 -28.788916344541548 -8.760523027882526 -57.917788605266914 62.652254946824904 -0.7956831538115641 -18.472751196769536 64.88653315715682 -12.964682981402374 -82.905183502512 20.45217038454052 -77.57957589956503 -25.920357531334318 -17.874871527615248 40.08921312122702 -23.802800890964622 12.481799485922174 -16.51538943059647 1.2947873651911554 72.69852124078457 50.40921865919458 -24.69501503615169 -9.107579283834058 
53.26758124587221 12.131146703742559 23.84899904250229 7.519457875963867 38.70236279694099 -1.8443887503133864 46.85662587984128 113.06560978248271 -25.354151375499256 15.821123157582514 -7.915793776139257 32.62486711730096 -12.75191448926037 -76.85052209129812 -6.813107212969491 -64.8587778236754 39.4083134740244 -28.454199868555015 40.87519234767164 -44.84926203900191 -14.519196114415061 58.88193311993163 -40.243223909457384 51.44314163078744 -38.379128930568854 -2.48565057732769 -8.56825817766938 24.394470384282197 111.45364257002088 -1.329161217552525 7.722677887035311 -28.285330863223894 90.65690579910698 -4.499154831447669 89.24705280801636 75.00474737798783 49.77142087574912 -41.91249047789044 10.359572633400703 -46.07080977665453 -43.40745160051966 45.6529820151859 
-9.731746985478756 -68.42928447808102 41.847198490631925 14.877063481881581 32.607298649381605 -29.610800208382713 10.499557506454854 74.01971671198059 -25.35295434264242 24.442149582829355 13.25903085490336 -7.6469588660134695 70.78196804276621 84.4128651551612 -20.019156251447235 40.99248863546889 75.85298290176253 -5.2538547260083766 98.71285507438274 12.622983947687455 2.1222755107951454 -64.07395063319693 -4.466115445644065 26.044605058638872 -14.08616359897667 -37.54010430529411 -12.209348945776386 28.02184640959607 -83.48924170314207 -10.04029921816757 -73.33587748973831 28.826509252787243 -46.37768121705388 -12.876825688785079 -82.9190256593421 71.83909107510223 -7.127088713702709 -4.447130911095502 -34.50723526726459 -9.599398061740871 1.5169139431619016 22.807323443302835 
-22.65033116272778 29.61073574587389 20.29658136054542 -18.06225223718971 31.329762748679325 27.282480247346413 35.57324801348244 -36.708191755476136 17.407688492995753 -68.9204796961431 -5.9236452727896935 -52.54622384456537 -73.08275125589044 77.4498861218901 49.657453626643054 46.63851289683773 17.0608990224313 7.453179564885806 -31.906924965673696 77.01631515830697 76.07897513461599 10.132197011456963 93.5008212677937 -34.96097814573021 3.737458648629492 27.934339355174213 -23.058563636035785 14.831084122921753 -4.273304552252754 40.003582982853935 10.391674439937868 -73.33776978324636 1.829584220985725 -48.192383103956765 -47.30940250347243 11.437192562261698 86.5040630162006 -53.09278192016367 3.3055738499386527 -16.158349209586763 -78.59234680592073 -28.218551085651715 
17.938454267751244 22.11024005421762 78.04486643406433 8.328881519639353 -92.78627145036569 -21.93828467308669 -6.242767296035281 -44.995688688233344 77.13250926908583 -14.452439166920144 63.63029248979011 20.333589803078116 -17.632000597584707 58.18152500225231 7.490862708021613 1.7344065514197828 65.82094701528118 24.175099485983527 -52.75569196730493 -16.311618415981666 63.401517141448316 -47.29346506663446 -43.464283284852854 -37.616785769552116 -33.67942248255487 30.02425932462801 -35.50680585270723 30.790320177015513 -55.97154734707542 34.35035778193825 -91.00721646534518 -7.935339385597337 16.457106848942107 -50.21957205646616 -71.90595536684353 -10.558055675896293 -15.298825390407648 96.08623344604246 3.0636064146988393 -37.81980737251208 80.85749753676535 54.34670559163677 
5.2299145925375266 7.814944065998061 25.528046358717706 -52.32829099313198 15.602586179058564 -124.1280627640955 -59.225000853333746 144.26603662161853 -6.987474267062035 -13.603056188961801 17.111485189909807 58.618317758198174 -38.117682921003514 19.15496423713951 16.995684996165664 116.36190842750521 60.13753450249279 60.07116091266003 1.275027121552605 -46.52852735117713 29.125090669571343 -48.98912219794762 31.950620638707832 23.222022001879086 -9.078176209029703 -16.15670934377527 22.689285902565338 -82.45760841459891 32.479556268624684 54.99266549486503 21.491350491611275 8.715988709415509 15.092605386183092 39.185658451785734 -57.376596458332436 56.51803354577262 -16.364631992731244 14.038357252179697 -94.76479075781998 -53.31775106895353 -17.667850772409757 51.3973441208386 
-66.83893649170246 102.09787325224201 -18.65355670034775 23.19116181735094 -10.501016277820424 -27.713990845067023 53.63817830679069 -14.160636289009242 -103.70614362699192 -6.676040185708642 16.28445457820799 18.285459276790622 -55.60370490966979 -73.31035926223404 35.628163011443185 34.51983262903459 -34.14946139536278 27.091504464810342 9.812212894211441 54.11324168116262 -12.589468753192683 -12.239296233487556 7.180422975500572 -46.933116788966295 -69.3142824931703 -20.11674841716234 -117.73720388273854 -66.64122105873103 18.357586654148662 0.41672567574267794 53.78534285063644 89.86242245014284 8.34652193900759 32.44334541992532 -49.98786999043644 -68.98320110727978 23.238418123368998 -36.39867205061101 51.01440893940633 86.7423127253415 -20.827117295224248 24.655307004031098 
-43.72159800887465 -12.587153264305936 15.018203528456624 70.15382237831498 -29.420426937560133 -36.34202734748933 55.96726368530788 -22.362277537865502 -25.800229882929774 30.352379616368687 33.4684618716912 -7.626083642908883 -82.77134052132747 2.5973063884678567 6.15909291733912 44.49248929659262 -4.870150307008737 -65.8742131298922 4.875548660258688 -27.24799503011527 28.77770668847048 -16.322934752381347 24.25644239368312 27.39538383394872 35.306316108590465 -35.71185551636412 -8.920410303184934 -36.80304058860174 -102.31692614291974 -28.955672383354365 -64.37720689973438 0.4673675008250917 -15.825045491165639 17.16098167573566 -1.1668244770186926 -57.04923482408035 64.18218602540871 8.400733166558693 10.982462945528965 81.10857154138279 46.50637027482906 -85.12341216549808 
-4.602286996153349 -3.0511176444912245 -83.40674073747279 64.14342289517317 78.08321837161324 -5.141403536447818 16.80050947722356 38.71071133174982 -32.458120778182774 20.40796488357876 -2.196102221329896 11.801348607666167 54.593323803463335 63.779785611238985 -51.22159990349278 -11.266767366533186 66.39430043079565 -21.395835469792907 -4.129362125901137 16.472036058561308 64.67354080094348 62.37739303633352 68.57783859716591 11.913309551444463 -11.78111424679109 9.658677775516297 63.985164257128815 -31.658385563037463 -11.868129731195502 8.099527464949219 43.87532847701366 37.877551496089566 83.24417782814528 -9.96071132985545 71.82877988684332 -70.03454911820349 28.234549440280457 -33.667738913406716 34.426437180737516 49.227504428149125 10.102756924045524 0.07924104872639726 
-72.1777766761169 22.125068895790584 -22.972768142391892 -45.529833822812506 32.7326146168774 61.94231258478815 -44.32354234476534 -9.098379346054976 -7.62401255620032 -24.40597165585637 -0.01793129784255565 -1.5745373249868653 39.91705914606382 -36.68767289721014 -69.67513981432435 -59.18760452028874 85.38875684249085 45.81109812369181 -49.965639249407666 -0.8437677682791036 12.868010400905625 -61.033006210768754 1.5322701490762543 -35.795660653582864 -12.103699636119043 33.75470623057743 30.74499129381016 5.102436832644052 -2.8045613032128665 72.60025416474365 68.35340374691886 -7.317317626627275 -17.99056761585224 54.573078132502964 28.80236303821204 42.3030610675049 14.709866115969318 -50.87133830050274 -53.66069732650822 7.181636250896025 -29.230683422275337 74.5294054097359 
75.41301350205272 -29.679656762635755 -147.5843501346542 -5.929183419714263 61.588681951045004 9.180231269418545 90.2286688165434 -23.754962782331617 -16.80783220456288 -19.25963729002599 39.5267270541126 -60.13793369852805 -69.592895213003 47.0947402994236 -8.270819986267153 112.61328039031564 -39.86317936121082 6.246037435453272 -42.623380259786984 46.42382244425837 10.178023792825845 13.723814874921725 -143.10428262350348 3.536468266332541 52.24469017742419 64.14624498901303 86.35000338139736 -27.351681371794154 -1.9199008053250894 -23.524249030126466 -5.575803394293857 66.50408770837707 -2.929735434800471 -17.958708614331705 -28.631519066393587 -60.19312468402307 86.2739903464195 14.221716658057666 7.245299596138992 34.8561488208361 37.731994711809115 -17.796960219828016 
22.61376413337894 11.461228094025591 -92.86670580985982 10.810278327505694 -14.394408128507221 37.27992714447475 -14.873607900511816 -8.982899756914353 39.145377253043286 75.7295902040659 30.179844072279955 -41.906207013293425 88.98835296283579 -18.081611805936138 37.830080077993955 24.833398602589348 -44.33938935997499 -10.306248860501665 85.75446032771492 32.34761932773899 -19.48251752338865 17.159567592960233 2.769424581767965 92.56344219384539 63.796806784753116 -43.84775654523469 -99.19174840399104 -23.570916783216436 18.22242080175213 -47.595780711985796 -24.5887667487976 41.83886064286827 12.575458688040165 25.15044395210312 69.02741057279059 24.935659256311457 35.26733691003655 -69.04103265197789 13.077272595226813 48.912760348767975 -64.63593902021756 -42.643859459234434 
29.25264090600511 12.6141157089321 32.13878645160539 0.9785034072519225 116.50364409211161 68.83599493471894 -7.570314608260198 -20.042735995443046 21.343120795083145 -9.340476332955701 -31.436799922199132 -71.39984022868677 -12.580435838653639 -12.795225507192644 -50.63746811274089 -7.350158572726717 3.542952218570758 54.58726814725618 -2.421361381166073 6.38228942924865 57.50082365248831 63.5624771564588 9.759606230180568 29.814907110266617 40.069132144895406 61.29523529815664 2.9144841520054117 33.41948596050495 27.490020543864237 -70.96929999921628 -40.611274506033425 39.443729463655025 51.03171484908957 -43.17934344091954 -44.85960116566268 -89.74826060971009 24.189630799012303 59.912081722054694 -36.55915193797324 14.898285554281333 -52.73870087293919 10.945244687819853 
77.15336766038267 54.16142274457452 -24.709815763458195 -75.65297300953166 -55.38685093171182 15.27978098259314 -16.939645404616954 42.24958059084847 -18.158061771568253 51.24720873208302 -33.31206429633145 -36.571586864480196 -22.466277220861652 -72.30762772870482 32.41884838911918 20.740548348066998 78.02384978665317 -28.223193127114733 24.238641359071025 -74.97373182284652 2.8000586735341826 -68.96897471504302 1.06577068002259 24.23642117275312 36.018837510656155 5.755293516653796 13.76325458970061 9.498385414474102 -17.93148854236926 72.65592493386308 -47.58616906287717 -43.276844427890055 22.64402782523828 51.718357382845625 -31.015639903887607 29.65061143054523 26.91593063599489 68.51586155014239 -27.43838510451706 23.214654801160926 45.9802190735114 -77.90767000293287 
65.41721195306766 -43.46670878843927 -56.28525043440077 36.340449458144676 17.443467599149695 -41.85063556628618 12.755180321952974 51.776050956303216 -61.63897522814532 -5.446585041540083 -24.359650898930912 -28.693905935114454 -33.70196200668921 -33.39393693612912 -32.634829330343315 -37.46207958239698 -6.465513545338997 -44.96063089301793 -52.34695633248964 45.94572420752951 -3.8067950561461212 -11.623909030538107 -24.024075681379603 7.951271837046001 -64.2714698676439 37.796645678911865 26.169363360634815 -53.285246767343274 42.6240284342767 6.899186062099712 -37.411096065486646 69.09003402030048 10.38589210528341 22.194146205413066 39.3851768012835 -33.98412722860867 -24.21881387570461 -31.358464196648214 -58.060155818153994 -11.12333705776702 30.85024652540055 -126.83743030141879 
3.886043631440651 -13.250332052129654 -11.728970063926358 33.059045355039004 -31.392651076038856 6.224004477214782 21.267286054104282 -56.37098023599599 1.11973624157082 13.88553100461676 -18.593471022443577 23.83763364655984 -25.553763314878484 -15.405369424121105 -17.514592135698006 19.324320702967206 -3.5581709808987485 -11.454631622837164 -49.84762288297704 -9.076789558542945 -29.191499126912746 57.632347841253164 8.167332421477955 -37.23520690494545 -68.6936328312836 -62.83839982270223 -41.392982816108926 -30.330026763933013 -21.16874187798548 6.3171358320835775 -76.15503062566718 18.474220673358932 44.65764194590598 -33.116144030630736 -77.19460009858528 15.710738097603262 -2.5791068497781535 -52.14890694193259 -27.266825292910276 -1.0358194498512368 6.026725677685062 -55.286982950118805 
6.9138583941026805 -1.6520672041315305 -28.24432170338295 31.63907523141312 -4.977052574414018 -1.875460629004578 -28.804359104268418 12.823617829500703 -24.31953496147222 -21.833292121238134 -93.24750167860509 37.015170613599864 8.230584963400853 20.95174340963415 38.847632622443356 -1.983998943065864 52.840751696190715 -4.141564682671694 -18.658871914920763 -10.319280719295678 27.455567801024124 4.295247112837938 55.43629789061879 -31.128219492284625 41.96253228525576 0.4136575819452426 -44.05648906115896 49.6775481266608 61.26023065937951 33.88520497201182 -5.709028086416975 -81.01574382613924 13.175295583536158 -13.872851559299988 -60.2150201593188 13.788563742975558 51.41433184747765 8.432701257888711 13.651328717466562 -23.32154075229682 71.47296602682385 -3.024597922244016 
-66.29155106094083 -14.287087704969403 -35.602827417596 -8.594839398169716 -21.784950868739426 -55.57145723702629 -57.942543625752435 -69.37223884934751 -58.373751137609545 -102.66085727566036 -15.597113962548702 41.03357224115369 42.3061892798077 30.426390387321447 31.182302150787486 5.230718947191897 -15.913576316579569 32.46303301371037 -65.85290245657598 15.174069395974675 5.551717413070383 -18.478301282320977 11.473531122139537 5.680352977956482 -37.7415505524808 7.4365218028692865 -60.11521347620367 -12.428213454894221 27.724169275061445 -17.568777651683792 -46.05829270299644 -35.07262193060563 -24.573600730643292 1.3635981207251866 18.489712167307896 -16.669513161335573 13.034155748302352 20.80776796258445 75.17203165749127 80.87997111815984 25.30851977404638 -23.791249849330885 
43.67962583418728 92.47739734559713 -9.530181886857566 5.420472392228335 3.2825032643646805 -6.258599335651304 21.81158529513458 -11.687921239301728 39.27498234980699 15.952576315288038 10.664482686276514 -13.968694085142298 -56.90232850280841 -28.318040100960616 30.435617823542824 14.455125505332438 7.63717847784836 27.387568925769582 51.59502103747613 -63.86883375003996 -5.872873174747039 -58.736187915149436 -12.130886288857758 26.657621804677586 11.101264912459676 45.38509259703573 -11.152533206704598 48.07452817195993 -6.780651818777563 -57.55826511164389 -94.8860280156377 2.2706886333304723 57.350163250443124 34.70080523436971 63.73924097779905 -40.04820301614066 13.168498473413717 -62.7305162337379 -27.54193935019711 -33.0027706727751 -40.81692324881898 -10.201445403836868 
-38.43209708682447 -4.408850202065141 0.8086610936416867 74.47769073820325 -29.788778137255882 3.2638634948725356 -37.517143911558335 52.558463588789046 34.841648308463924 -20.140035861792548 38.17546279527968 -12.110959691455072 -56.2580555932025 -64.9831350835021 -1.892878686068971 -48.003106077197536 29.39667843146668 2.0965320201391657 64.89740045231055 -30.856616899967538 116.77895745932287 -16.981616026849835 5.241938039747719 47.761634023706854 108.72397804973248 42.9690565814448 71.27763753381147 -59.90390925432975 -115.75376477293521 51.044094477626146 36.93624823698594 42.659294729272595 42.36560519913498 19.977006833001024 11.695726069513976 15.097842584305326 -11.804906828303492 20.204022220429053 -30.606501980477507 84.19876695807956 -0.5480564717446341 6.441318606229962 
6.277144454592483 -65.56709375211194 -10.728507135301799 76.04852954007534 33.061545311430585 76.47879679656646 -44.62908866716285 5.668179505400862 19.550794117562734 -19.902639026897006 -87.03295919632819 38.54264754767348 -11.486899890487805 -71.50453101675811 -9.485856748831917 28.484604035351918 11.41200178225698 -2.7496340124976784 -56.87837106260094 -42.63553570976632 -11.148889445073873 50.11883339034484 34.48009056488731 31.8535457110162 -31.87136952640711 1.0697399125572855 46.525328907935815 28.020148547003423 67.1131356497271 11.335627211196453 -4.029948259482046 27.596533219859623 118.20604027309301 37.712442355062194 75.416172283218 15.568193783144945 31.590106815905823 -21.0680917642108 9.81658231990952 -28.43153772676473 -43.98111843364512 -64.41461403093629 
-60.96948573199629 -29.04897600517986 0.7490882143952242 -37.33005291385335 13.391644902864634 -109.80212375786677 -50.09812968144684 6.54531173723564 -57.78516829447937 -32.44157550133018 -35.25528151020821 -11.497053468320983 0.35678113437334863 57.88191895937787 -5.09521605658375 5.538564794779621 -41.293949538243155 -45.543435956420296 -0.4856465541295911 52.343295332309786 -7.054975102598662 -77.20346990641862 116.2809855593088 49.69244721540678 72.10116796207487 -56.509476065106654 -38.69225773119418 -56.93613162396608 9.931150262805895 -76.94480053392094 -10.78564455879352 -52.192445975133325 45.96082391959219 -74.92759597452707 48.224077676020585 -9.457274418679797 -4.6456903137613015 -46.33902507698481 -25.8125084099078 -128.5189977993024 -97.52060428599172 43.80645626134881 
0.6777769513079392 -26.54080226790037 -32.080361784104326 -44.3406542857061 -121.93734104300414 -51.134226631905946 30.647190564720788 20.381701865015255 79.77698878999229 -14.557688429655595 40.70204974358991 -2.6894164852181373 -24.047799991263698 -63.123838411280126 51.10066439518012 46.903445154868955 26.708583987644232 -3.2552832790573594 8.504014853346316 26.875447256396445 -16.572445064389537 -5.829756773976914 -102.32374483789641 3.391187201434834 54.28730960001649 -33.65132616336659 -24.674621519188626 -16.78865521907914 56.100201841221775 -154.06886214855155 49.970509994299235 -12.721221493701263 34.53057591571325 -14.592291888114598 -5.02758227630626 27.915030029025342 66.6868591571684 -8.50441788841267 22.60705714072406 -7.976364506409771 -61.30312206645694 18.2032875750011 
-65.47865771082452 72.91964625567878 10.707463819669423 70.42409870118897 81.73977439865835 48.250385173990814 72.1172949700447 10.451509024295724 53.858748585265715 35.42517884974656 -52.07332556621383 -19.194618475199082 -4.984193317969675 28.32980595329658 13.412447371415091 21.598980896954632 -60.98245527857363 42.81931296732424 83.36175952745945 -104.34932259661969 -32.49048436728519 72.02777782926005 -56.496376993697396 14.275810590560624 1.8332695350503596 -49.1200953098252 61.42077768148481 -20.442381438104427 14.086784525739983 18.869552186724604 -9.591142806567106 -61.49633116992678 21.29062448663671 -77.9227561196527 17.595049275910714 -7.156815329232289 -42.76077071048719 -6.027845021608685 2.6763335299546007 -32.74798471869419 1.0621826381277994 14.49155043076602 
39.5465619655015 7.753528467212647 -0.929471133038385 -16.59271406341679 4.948825072222549 -38.03062106964516 26.717964897805892 10.910181997744317 47.04824713242518 -72.20423128247742 58.25837787471287 -61.85014501542809 -8.782762736842574 -79.91553864481811 40.21932151840695 -30.877704477050038 47.855508454863354 -49.46914994309627 -15.191059287487889 35.86210952140099 -43.66802641290231 -9.4016022722176 88.1874357808652 67.10737985533102 -39.20139922539771 -23.05303005104874 -80.82020448355598 -22.106117990154086 -36.939000058889235 -51.98064236317852 13.158060405991 -93.20981116460571 14.428157600247415 27.145191927687165 17.102500715974706 76.90220348491978 32.32077447865954 71.51312142539793 -0.04258247521758529 -7.600266659592965 36.577575218984826 -15.299964383544712 
67.28013683896745 -5.133787757819785 8.99439369282446 -48.143941272004874 -32.20694752970383 12.217582827459212 5.175257862490894 -63.54085423248091 -76.64762324992635 19.032276305756486 60.25627832743348 14.227715667843547 4.892536363059588 -24.507694973149153 -36.46844737230275 -75.95990134086902 -11.809964664997581 -6.612365481880413 63.47360473749208 71.94892006833832 7.525810342425452 125.59490891592432 2.185504486665088 -54.85145770055552 -3.8971582050264657 -13.885246589201213 -109.47567447122438 -56.98774119891035 8.525155818544617 10.405431101365084 17.217263449983314 10.4309831886512 -0.24336456823411 8.107406628659465 -22.234221096984843 13.782623003610967 -88.27161465821845 84.60225953730833 36.40132363348346 -39.46512249711466 4.631813207347749 -69.40059226530026 
26.823700153614055 31.002784775215638 15.431757859279474 -9.59138721441452 3.1050434125720137 47.42980793891866 88.2303790343756 18.242334395449298 27.967580954084703 12.762668734445784 94.18355494261453 33.7510551768349 38.551022395279716 1.337954054150585 18.826454818687044 15.072403374967433 79.24841894819664 -19.52595338874709 -21.306123766930487 35.283378433346904 -75.11032528117929 26.17415226623439 -51.21012447202329 -59.97705071055951 31.36088744864313 78.2461621475915 -72.71399989699695 33.75294427752538 22.044821834428838 61.699500605691966 53.77239105198806 -16.78012307268277 37.14260614545983 -29.76156607778877 3.997075649707706 -48.11797075097624 -25.964565045750188 25.089592252968078 -50.99305283710861 -35.554573987773715 -84.02951959682535 -47.73921302874704 
-92.52479697382591 -8.243881349189131 -65.8449449703532 -37.157357370399325 37.86635332439318 -10.18173987701029 -19.442620185623678 -8.01120088342176 4.327470054199322 7.314702364300926 -20.14162355387095 30.450952388172897 -56.58732090676158 35.59911201422564 43.28612184784002 30.38121727676899 -25.853296651480697 -75.53739865403487 -18.1694541994329 24.435438056400994 2.262696941123623 -19.953727876801167 -90.8537886167631 9.501589749021306 65.05992238626649 43.208419482959194 7.935707758459003 -29.99949453551419 28.142819867074493 -21.509961956154246 -5.229671059575635 -17.042350070203366 19.73148779084722 -96.25895488720482 -34.18826132311538 -9.521802504209795 -17.423022047450765 -43.41573794057939 26.366944257726185 10.870041553765539 -62.71314172547688 11.235443663856818 
-102.19847288729879 54.2824264487757 -19.17843261749522 -8.188922774291829 15.345285667258267 -2.0754105935738156 -76.7882833434692 82.7955593417301 -13.490919941841428 -66.56639943589488 33.85952142769264 -9.181862931980833 13.285093536583307 -39.31063121930837 75.80352903094531 -52.70711470151557 -91.06191176491805 12.692631569642263 20.406254879550854 -39.634141752263474 26.382037923789866 -19.079629956651566 24.152224112005268 -49.63045668992846 4.815684519857327 -20.006661575450494 -19.7235773324746 -68.32195677693196 -38.260191470733616 -8.524248308304552 -44.070598793011584 -81.1116616329966 -21.335448384793825 70.6893190221677 -101.16640422925276 -51.319637693278544 10.738164153560053 -24.527587241071963 21.250623625213983 -64.92631313748699 97.5466865497456 31.412995993723253 
-67.29652679334816 -6.634937515180132 -19.83481562844212 -3.3542248524395935 -101.53622971266813 27.46560665343283 39.27978554195257 23.377327187112943 51.522292100790615 101.48239884726918 107.06129816020837 -15.482631020860603 16.719227800228673 23.45908765505832 75.38159241401738 -40.95154891636841 -19.640568420592395 65.2231344418669 -36.2909218851254 37.3772627693769 -69.06939873222326 -1.3332640927695567 -54.65703879040333 -5.365733673308253 -5.7355619656793495 -45.03046837265978 -7.273817660306204 18.27679996803506 -16.037223987074572 50.30737337184879 7.4828348006124035 7.221836675936992 58.56132787027192 -94.1604297903152 19.38190150122266 32.76259484067542 68.10210343995088 1.1571761967893117 -27.150228819065923 -11.031267189594077 -64.09002453999784 -66.5686865877436 
43.434907393599 -23.84744409055625 -81.9064666791728 -50.68603305792106 -87.39626311082415 -43.76609247786328 33.13017152217645 -4.245833699705851 64.40484569429641 38.98091114692866 37.96191512741493 11.703885367471743 -15.125662366862336 41.95706811964243 27.277908744311468 -3.608477147673258 -20.80969250251932 24.115771946551387 -22.385155421235414 44.43191145489526 21.725527511682326 -46.85444815815505 10.722867346712087 -8.658461950407105 83.57182684185149 25.70243219976315 -47.623083003681884 15.333016386637484 -69.57496934552532 69.30150986039922 7.327319889843569 36.37675274461417 -34.803800317039524 35.48790150986891 -45.76145525316419 49.49904431464562 -37.76975270422584 -31.322241581620656 -69.76002377603693 -39.646289789242324 -46.312971586138715 16.68049961446846 
24.6255965853146 -6.385984026874949 -10.819350746175775 3.441122657632234 63.840569945798165 81.47319108538336 14.704534028910714 -37.06862441805479 -63.770245885426355 -32.78942758174626 28.991806110504047 -26.1113484271781 51.626281639260064 -8.60250171977337 -11.737267204325168 57.22510631872472 4.8409569031084345 -9.97074001845663 14.011105518281234 -39.01882299890232 33.41419685249272 13.608666182381256 44.56090633578403 40.77823806699314 -44.75607436084643 20.25448226936374 19.52316204987905 61.9602777919386 -44.719079888510024 -38.568220313336255 39.87582286301132 -57.846003143820965 11.57324718846332 10.936220646088588 -34.86580599126081 69.46114828650545 -3.3713302049601044 78.89582528094928 -40.272700791221126 37.63829333683484 62.20632032168833 -56.31156417492299 
-68.78097414014795 -113.74613248506482 76.69074358059696 -19.68119125460672 -26.802033072327895 -20.684471585688048 10.063125660261964 5.632561168438078 -58.755550993521176 -60.47810309708321 48.96599991130234 -5.228041151340669 -60.47586415792917 -8.287055897140352 9.37946482478481 11.797305451601463 -44.5506116919867 -18.841519982328375 -13.113602177173501 30.36868520841597 28.03894191546734 92.10976192926141 10.984867318728181 40.13007395166735 15.149680110560007 55.140545523577366 -7.012798079196172 -37.02163548032528 21.94668592126031 -24.264628736333254 52.68211188057024 -40.917987895671146 -21.01166137287621 -5.9457871948221825 93.26544092956743 -64.99865278160118 30.33799928280439 -34.13856534463796 17.393689142159246 -49.66867399716458 61.88456784332011 30.33055275970579 
3.723240150344728 -0.5036664709873492 70.5896767545638 -25.125899069829387 -19.686573893343446 -1.075658603014051 -64.07662329176682 -21.468465717941786 -85.86446929061991 43.13949570498773 -6.111257005582554 24.212961114804422 -2.7448434870203045 -36.03555726910464 0.8729475377249255 -29.254927856301883 44.31833457165368 -26.040565695136525 4.0728814271550196 48.019762691586735 -59.94608327024025 10.478000906938663 16.087553306922477 106.84579911147296 54.62198716140702 -29.284085562072388 51.11235510932769 18.91483448338065 -56.38661430538857 10.535562916684313 8.425997203352507 42.746063211738445 -2.8150751414750466 53.74750675113872 -42.25617289044179 -98.18598480839196 -29.06000497457028 -13.810243162967998 -47.08037825345046 -64.19761974276707 28.315678289244516 -13.839938658775159 
37.11160595848644 21.502584899923328 17.928826259003625 -64.48567010936296 25.00569506782208 7.177990315535079 2.5692043584501736 -12.629327720000287 -27.905356384159074 -8.925059369014935 48.04789054674459 -49.978230442588426 -54.219086150260566 24.583414412402238 -20.443532106425522 32.13357521308127 12.31272632474668 10.272793231212635 -7.123342508549299 53.356187359634795 -0.36732025708596655 -37.22371432509336 -60.878829060391446 -102.73725948860167 -26.793720929576114 -85.30071245083371 -16.876539268225336 -32.742111787335176 64.65493696537916 -5.409797095115565 1.3630075538063435 -27.925613661332026 1.0871090713463536 19.27917825660217 12.021054043350968 -15.075308889651831 -21.7019748608803 9.988284114721639 38.54014605539196 37.01158357869386 27.85673409745237 -8.436052148434097 
