66.23469532624954 51.78887699637452 -10.87721867128315 -8.4772432380959 -62.73832127044144 -7.430374734836443 -60.09372820756466 74.03459612771734 6.175839883155731 47.80116597912154 -18.170415429549738 10.726391513880833 -53.276336872458145 -4.315730648543043 15.181139138102472 31.031946114537284 -52.2105615558846 -64.00704407499671 -46.71170814266085 -8.87943466563276 -48.68444280306137 2.6359336567869716 -65.11880089293209 -16.908251867122935 74.57178808153424 -24.227488339739946 -8.649138384602997 15.952221167976349 14.811265248384194 26.036122368310423 29.03564944173243 -35.81875790956427 5.887476333838681 24.147146736854296 55.43722088020664 -14.640176991567314 -10.54230721418312 9.882434448783078 22.167068825984558 -26.25310656856891 -0.4245656282770126 19.566975125372434 
12.209210392850817 -22.970180451196498 15.941420753003891 -33.31621175125 -59.09604776674442 15.337681978754492 27.988102536229498 -50.41596474300144 -41.75888989003541 -37.04423457034684 -56.24272106709981 28.96766368167658 -8.367670501870421 -11.83522894122823 9.477112464915338 -46.66843322517094 -10.693618719326052 -78.19829678835816 -38.956472744687936 102.31437284665246 12.202866452275801 -62.41398304401731 19.196057611637514 16.124137557847554 40.4677715687171 -8.070635890877407 59.48622431623693 -50.175344764525434 41.47212920698267 -61.44847139336344 -107.52515044619703 102.61779928380281 -11.820974928555893 -68.2357783717265 18.616673326285756 68.0296685247519 25.42637245360896 -14.456914056487056 57.060696844906566 51.99631876495821 15.858975901042694 51.98035480165331 
1.006254932205473 -24.01050676481993 -103.37457564697664 15.631322505019286 -51.619164233991256 34.73791721664995 -107.28970838875269 39.63001789441693 -21.231404561216138 -0.4989815095663233 12.349177787376796 -17.6666483127477 46.86139758913706 42.522529279973426 26.094746522172887 -47.94328821576654 30.835992882128068 -20.225475664160257 17.272615699569656 90.76669785407314 78.05283214902349 -23.727170226457194 -5.056842742740641 -51.74359803487069 77.01489263320519 -47.83046666348397 -10.579903252432631 -23.588491968990102 -12.905799653593185 112.42700843325704 -7.4611348231486705 10.775582098014816 64.85933214441933 64.85407572428683 68.66880557945458 4.770685839181862 31.980155066844105 -76.99023904572373 50.49834698735323 34.55682969454539 71.1105070317111 66.61363085265872 
29.762895214531323 -48.24040593162417 -128.57252490979297 -31.384785583315022 104.23047561379268 -27.316649684150338 -105.08054498198328 73.7871133755921 -18.98660907117383 9.708897400102188 20.214523035905106 -1.3148773512772818 68.28128790760836 10.485718172834074 -29.201396720920687 -15.292927561156487 40.6556706842812 53.95064225859456 -5.408001628835096 -73.26672362795144 -31.926965448612755 -14.0753625762836 -36.337933034307824 -6.438145706570843 -11.94756178584589 -3.201067191696875 -10.244746701688408 -53.4739254388162 23.994773602995632 33.84414061782982 91.34232063252313 15.800715303767642 -139.35301360853381 -10.886901666593108 57.27072243345431 64.99773792442585 38.113122853051266 -9.958775261150349 -61.0430710696146 -0.43526717996036624 -44.1693190609858 -99.32136211164632 
14.730452732664313 49.072398233921135 65.25518336982817 -68.48338143238877 -17.566222671187123 -23.511371237863468 -25.076558185831125 44.31768685389992 32.14702842607597 52.02480818739005 -43.97637796692228 84.32926763783132 -65.21403374206396 4.253459783193977 -17.2442684611091 -97.28334343344542 7.17341022554976 -55.11181743144538 75.95123364173679 10.991628852367517 -53.395156911054166 16.98302520335941 25.59884275428934 -27.042100977671957 -74.68019417618163 82.81275108726506 -11.663077635993787 37.6050682591142 -5.493831535520544 -16.389220059025728 10.006091779229562 -57.897503193494565 -55.151448070067346 5.535069670169571 -84.25986322117426 37.04954716459391 112.82244145655483 -55.425588976880896 -13.593450776722856 45.48878171423723 -20.00107600982156 -31.252038468966862 
5.3062212024624245 -39.00365704469691 -0.5496870778961415 -14.254695215857714 -4.9092618957120155 17.14181244139364 29.33870909210918 102.94798291501644 -92.5295411788505 -15.238970402110262 -30.736435010529014 -43.300841134494775 25.67090802633095 -55.44795223640989 36.714309372724124 35.473496623689854 -101.49604816096476 -55.330601779191326 -18.309033617204157 25.087792216316082 -19.745473083384603 32.7021931986797 -27.49068160988222 -67.10069702470305 -12.571754306638855 29.447400637454507 -85.51017227366965 -20.25747134818159 28.773571641503835 19.62352218696181 77.21681349865571 -47.08528359197809 -72.8271331139871 -44.75428903932658 37.8154785817829 22.489838678420206 11.801543540555059 21.00589041699635 36.037892209824264 32.45710325565946 -5.132039207769946 8.93243499832002 
-66.83331129090185 -120.59724220383943 29.684861566948406 -32.63054148802361 65.07294590463019 -8.555080954890103 -35.28894587824757 -36.92186964815251 -69.7428008482393 -36.99153168417272 -53.1744090251414 -5.505784960957592 -7.064741452863519 59.455982260762525 -41.31697658031962 -27.585952523998802 -82.47277038971255 49.50370123265886 9.355344487063965 28.296348290332645 24.800112061883503 -48.00676698934518 -13.091207637365686 -27.694061605846695 17.52132721142645 -69.60080778949768 3.8814654664523665 27.086266535775675 36.34894041489137 29.033403717153366 -0.030618630694493176 -51.4669786809321 -26.93733607138056 47.84537700218944 23.136349445762953 -104.94823649364274 87.02876297344959 42.162602919301854 8.181223487295721 -20.35859894264199 102.86970611953441 24.740659103552815 
-25.915367036145685 29.220849256411153 46.8850706229899 -19.5057844727458 -52.21826673465637 -17.13380081936355 47.851502473956444 1.8221586118820947 -51.72530687745334 43.10559341390768 110.27297087559455 -3.2775975381894438 4.484439457347554 7.734302597001605 -61.59258810666473 -7.639636862648015 -24.56500944320503 -1.5170843986317217 1.8943994641031594 -34.34887390092913 -82.42205201806001 -114.38141223722081 24.47311475047867 -69.01652505722129 40.737818539604355 -5.320686245526228 -38.37318169409304 32.96015772935396 -77.18306563186087 -8.616011271292388 32.50051371448464 -99.6383951570384 21.166094426565007 1.2549186527211798 102.42655395635957 -37.992193298973774 -20.440605768589247 29.517960814994705 -49.601139641372725 -66.49718306087671 40.57085938694112 -28.84772622475913 
-36.8520350675761 -41.95878472437776 -2.028864569306853 50.48169037445455 -17.395606633281595 -43.24288865961391 -41.594836441813406 -28.182038345437984 32.139748506054374 -20.70478340844588 137.54739041534822 -21.500376808039114 -81.00901093575798 -53.2531426005875 -31.215660008485685 6.79453911832114 -35.349722238108015 -23.748664650499673 122.09810663914739 -52.27715205487278 79.12997723463717 -19.24917150915309 24.836743465745887 55.770058480051844 -21.970687693773677 2.625700273631748 -33.36317655156209 -18.27579260939228 14.595104134732662 72.06439092893696 -28.29979404882091 35.65106349771209 33.568832646736 36.95541108581741 75.44967444589531 10.76526189260208 9.271491640835213 71.59862197779947 -38.93350554394966 -12.93637140442459 7.266084714393379 18.680955562140305 
-51.68125402487107 10.927803107367229 2.2439337057147637 96.13628162098215 -51.29680392966574 19.677459165858288 36.86845094306733 -10.802441787687368 26.957562170807147 24.745754923203673 -87.90668977248859 1.5918768183945176 40.65052435388693 108.99582777589598 3.7341890205307187 6.307544571254049 59.912095469387246 -26.495571305813442 71.43150599835137 25.332322601735846 26.181928997994127 -38.59715387697843 -83.26163940090494 -43.440890454095054 29.033532730945357 42.261897935447536 -22.044216568753406 -15.937100449702045 -54.82711999214003 24.64085048159857 -68.98495107612646 35.842574762762524 -5.772119659190542 28.60020994559908 -40.94037471546999 51.30114933322159 5.197001653745657 -26.614113328866036 -39.39750142327465 -24.793356463089456 -11.048421452678257 0.09681278384934344 
8.944411664366276 44.250626683061 -16.87239680869652 -118.09239134141967 42.80594852629412 -78.94469336226808 -25.43253063658835 -58.430956165892525 -32.23727225325991 -50.101202314889164 -16.482478422079435 -13.597793081235054 3.262795950681502 -25.16664691734169 4.6500980070665845 119.45853913328853 -58.45900023300393 -31.788043743760205 -17.358212616792787 -57.72130532417799 -41.794231855925645 29.866306748671548 7.060294516249258 29.904671724438973 0.6475533187107568 38.387502935194966 -40.02166493601893 72.24062171556201 39.16579268698407 43.005753403631104 -19.554566817532127 46.28782785424654 31.06938565268571 -60.77263285926125 25.35353658317939 -26.139466182889414 19.102310218176278 61.26510822802869 46.6673652234809 22.812326744252818 -90.06237962974926 48.77484393777598 
-30.97251016032735 -23.653395243021695 -49.09676337949395 6.65380021986718 22.845081632732306 64.06490348826472 61.28333478335507 -9.290955768052433 -1.6921851913836718 -18.51962000251937 24.066041254519114 45.3536550069646 -16.9343295616042 -21.64674599239212 0.5542506846231292 -17.760398013124156 17.100491853285277 -36.28430036800259 17.282194162135003 -119.00725094825884 88.88354731644911 72.15514299041216 144.6858455524907 -20.97411698010052 84.75505295205976 -55.69035117133628 110.63219808116932 -42.115527784278115 75.36996298625027 16.078767140353058 -15.250738047398892 -13.101774499974411 51.85651658946628 -29.060288636432844 -86.10160136245976 -21.855043474298444 -78.82344910575662 -39.52292585378934 -56.83882488382014 29.596361022083354 19.419208760325418 -30.967646438033615 
2.035199404637875 58.014488761698935 33.395355236278206 -31.213977135643017 6.196065307135218 -13.732884362227262 101.0923089980525 13.63023227730823 -26.4331290350223 21.539326957663885 -5.291349971065267 7.993832747233184 3.373123173282489 -47.6697138063605 -6.949833170887604 15.903962632906305 48.3637133157003 -34.85265607595395 -25.022065628270294 -24.409033573536927 -7.869186214227921 20.68440553724377 17.6012124953503 -34.63570721058285 67.66775534049025 44.50796610708163 87.00323210990142 -44.189449180368186 -76.90549897268576 -6.493763257135187 -73.29078750459281 6.2239698185554255 8.123365009043335 -17.9777898995311 -42.12022401262483 25.629374645265944 73.37870444189997 -12.242470495280516 2.7381881473671243 32.4407447794039 7.393610159993258 16.8120733411204 
20.845595573230625 -36.18134250620325 -17.338691275042578 -39.91376375841067 36.789348872103574 21.731308483698538 11.56191356143949 -9.778021052572871 70.23726475085279 40.72319832101892 0.49998352382045175 80.81356859301897 20.19784141944809 25.055451823379776 18.10582268548351 35.13553107481291 -78.02629375942948 -60.602983242196174 -8.749059392293814 -47.95146638694242 -14.493123213891023 28.05857982479764 66.66670595076533 -5.270791569479502 65.41601232468153 -96.93641509867082 -38.735039645121304 42.49137081438987 -42.92167718210406 13.125613530932021 -43.51612812180511 -10.7179613145996 40.00910021879691 83.36142674573532 -8.651824854563358 -67.54789013069446 39.562212446633936 37.33462688956055 35.233083069612135 -48.863097294681324 18.72229275419714 -41.252972336705504 
87.99057457073924 -10.203074657017993 -15.579296714074504 13.152610025650649 -18.58183767852844 10.360524019980287 20.57037514968357 -12.751968851404248 -115.80107783430292 -122.05298694628299 -74.50091655477522 -10.382285446884795 91.83481218634721 18.530605269314105 28.64604709803712 8.269420127709031 0.9296256316707018 70.149788816998 -24.60134012706084 -71.12557333175587 -1.8724769542395066 5.67346604303082 50.322581259646114 -9.496964527007835 55.17647824135886 81.9774433725884 11.325789227352873 10.56123623930645 -18.719769262224705 107.31327608614059 -46.33117651254833 -60.95178451568381 -49.62307909314528 -38.354615655546766 54.9630431717808 -19.745831690768792 3.150947743598178 -24.531649043467368 24.598538944082087 77.57301972734483 6.102983003704472 -7.777937462016695 
4.182296609776834 0.45192842748120154 0.7295875100207697 22.047187629470212 -9.826489711912075 -3.0656633634524897 -80.15182244819185 44.53036271882887 -76.98995350427087 -64.2062036341676 -64.99483809029167 38.70358552881192 -92.366603308774 20.012613563519444 23.293390264231615 -39.587807194026595 47.37835079912579 40.291521125104794 61.85353830579325 12.570002930768242 -119.6206197654132 21.589926021464066 22.338923534097887 42.15496610993028 7.3676872263622055 6.4462837282381535 -53.30859014387016 29.627156581797696 -19.85584906238044 -92.62105352650778 -8.813511333305613 36.244937339060684 -5.291090877235321 104.89072831966044 58.97059410881582 -15.772824259879263 -19.889321461318495 24.5597279924837 34.80393099949251 82.04581564685508 3.5733993334279095 60.05701555859912 
75.02641019021156 99.63691918374408 -33.36353726492292 -59.19702655563502 -57.2019767556014 27.429028273841368 -53.4111305535568 -39.41800666083908 24.1288122883133 -10.900096481370783 89.29190154745865 21.55417981116067 2.5465815013774264 -32.15112496614221 106.28173269410101 -30.578165421585588 -46.17399155945833 64.01264306306457 -11.448038852956225 -19.74169449228499 -37.61790291666683 -97.2020059463031 -4.5886803510377465 41.59583041848546 117.11711876567817 30.656039940009645 -122.35504107700656 -31.659055410717603 55.36514416475605 -10.378638377621385 -15.839534051617932 -74.16342172219579 14.796004666490346 50.31451345555275 32.996422891496515 9.230389688473533 20.24146796814174 0.7912544992277133 2.144359160257343 100.95304135971188 -62.08818835995556 10.729519706813822 
-55.90365584982331 -78.60955900904399 50.011477119238116 16.55236415171094 7.2093143830498585 22.22345012783045 44.802099174315224 -50.4145558595156 44.05847400166732 -44.62761067945736 -20.77105085973693 -24.69236296718132 -0.19255170681688036 -32.12565683591982 -10.792818020941489 18.04046427676897 -63.35805235812706 -23.148377993539885 34.44643494866162 28.111605017085516 0.490194282332161 34.10036675777916 130.6970190402039 89.75494612579266 -39.191070082218815 -14.507425967107912 -13.672957494749808 -29.345777818375975 45.7775172672108 -10.45883680412081 50.649253287251454 22.914870150926983 64.13747053301842 -14.847014970717995 -48.570536071383295 -142.13518998705342 22.218027070071376 19.958981624170328 2.2615663471806404 -53.04949051324776 -15.669911960784905 -63.729169543027105 
-62.526066539649605 79.44855269798221 -65.0513551394945 -4.973997348531247 -37.77038055220926 -87.35339657814811 -36.55478458386433 -25.14547875895815 -6.970026491121893 0.5519802181205494 -55.67439823776446 -98.80244349816276 5.002279040345447 61.1360217876363 96.12490492946178 -5.212441331539312 -77.73247340734822 43.83947368398896 -44.028972857592834 68.82823625579334 -9.733745881130632 -84.41985871234957 8.313393456874076 76.90371416042387 -26.369669806384298 -43.27073431339273 7.423073635541573 -28.306579046438173 60.31569171818126 58.89944278905869 -36.25722151330399 -5.466888706297959 -53.52912020677841 -20.28274336620096 14.355361320525011 16.156096067808456 -0.908074982689976 69.3546650890281 75.6470207915188 -0.713515374784827 35.85410623247214 44.627550730649524 
38.18522046419221 -68.18710912628129 60.79742394743712 61.63658221836606 11.316917975974034 -54.80094926912531 7.835776046205958 23.917190453286562 0.6677973400251266 27.58082517144434 -10.028636341702228 -3.704937161895774 68.2817306594763 -12.8585101051545 -21.784882222773458 -22.515117068904402 -23.50080899662395 34.588332817675635 -34.436518715057524 -25.632257708251398 -15.729446343308803 -55.56630442127197 9.472113863495492 0.11012877400352639 -17.26147158619037 -34.85288084039089 11.290020619216548 -51.42157978780916 34.07382308539305 13.192484743826947 -76.61346364340388 -39.05838933178734 -2.693543008754687 -65.42874990697797 72.43432198343972 -2.3295943602080986 24.5212982135476 -11.08492698483111 75.35991640975274 -31.73246323081955 29.900513010285735 -72.40571194223575 
-8.569392074250295 -61.199206616669635 -14.850145485733034 -50.51902449276159 6.854855240134917 -3.0996866126863374 -97.06049385524435 -7.26692470167019 19.916721561462012 -36.02253395946846 -15.665205188855015 -37.825092586858915 69.67120834323666 -33.56918562942765 -20.129435860826227 -22.035263167450218 28.637913629142773 1.2562360411398164 43.5029083885195 -49.03260429100652 19.53731121359995 74.88778623558723 115.93798362792768 -28.586317339071233 16.146582025906532 6.596255164119853 -66.93627359058934 7.731972159208896 17.279807374703772 -2.6989953981420203 -25.12155026372342 -6.565401877431763 -20.563855388283212 39.37244228257017 57.08174153945628 -39.32985887346375 -9.8585473935261 79.95596021843646 32.78118109587139 14.56511295313971 0.8403236828841999 1.518878410822913 
-33.371880372846505 -42.798631467827825 -16.440732509865843 86.52159484577973 -24.936618291528095 54.72402631467996 64.18112940204149 15.598984371626084 3.9431870237721056 34.641788547143506 24.408543312966522 -31.060516839848816 -23.811580871213245 112.99169228148874 -2.9672148578102546 -28.433416245232802 -34.03117974822263 49.333740700600025 -14.542721449885144 68.83585550074045 78.05434915069318 1.6493214357277157 43.646052505343455 -44.68699366736857 10.131536458138521 -27.402992848806655 -36.621318528676326 -48.16653268515149 20.228652767628404 -92.02721575777103 -84.10825539515592 -45.305298034450324 20.718197235965636 -17.375237852877202 -44.98042816022151 -61.54530012881138 12.385384246521983 -12.317922982079525 -98.91535876520093 -39.36630868100164 23.721377761769112 -68.93074205263892 
17.862131726144966 -50.179851742254606 101.36601446463219 -11.224358082057526 21.371691018523432 -34.202920101498734 -37.31842700789299 22.953657905377103 -41.453751411061305 86.80889059560062 -20.458319504193643 19.454734866644262 77.97242211666197 6.788268532175371 8.419023510728067 -47.83736039418312 14.553157774919544 21.234389817624564 -7.618777748968783 -24.488350036384833 9.94130899475348 25.75905581387671 -18.02666250083316 -4.377086225268438 -12.701844395815026 12.492411702903196 -25.91249123588128 -34.44588394382038 -96.8663211168144 -58.85452487961007 10.084085761754173 -27.705010720339843 7.282538050436488 5.348157948443123 -43.69610360509417 -101.5676267498269 -49.60220518158943 41.58095772478409 43.49497149150145 26.0934390948909 90.85642280886798 -43.77764304033577 
-9.593152488613473 -1.3970158139534474 -100.23549550214388 -34.03913411331764 31.619325827168055 -59.334712623780476 -29.070973829797957 -36.02922779100741 0.24861147556087854 -7.987835316551745 -1.1447549232188645 -6.156413705711837 -2.3874265871397764 41.32707264564858 -67.03880541103757 -54.59747876728126 113.68400446375905 -8.005308657401331 67.14687376689596 21.864183879336302 10.516551665260318 28.864089395673886 -38.75318861915737 26.389308138613146 -20.904376497641387 -13.59205833273041 -49.50449598762594 6.403351493510055 36.440464367112966 -29.761472916285047 31.77728478469493 -24.202548852231022 45.38168311060167 -25.540254665817194 43.98819324543235 5.935299311013389 -29.89192004778623 4.86190703611782 -27.469286879777343 -15.030142194688418 -74.39017496958665 -29.268616356818406 
13.162218008142084 -39.196588949278464 -82.01518393321577 58.48485777282802 6.543637448745262 -53.31925748281257 13.553440659857527 3.863114756155409 -62.79272489928175 -66.59742002309775 -6.345381250422218 -20.86067872403812 -12.353887761320518 27.464044266545123 -4.071922434061712 3.177451221008998 1.7682737166567772 -14.619071500593869 -4.1950237181419245 9.434518111492865 -11.395363707161213 39.58143965545974 26.525797427176446 118.70097087867966 0.5416669140332984 -52.535741350677306 46.81692768833339 -27.05952157650191 -36.536849992604786 -4.38580951989742 -4.890359422409283 -35.25375398902583 20.62543712119069 -13.167802183220388 105.51876197253098 18.919821210705773 -57.09931725193541 81.50129455228938 -49.28745747680983 -109.01930323380822 -26.412497356309878 18.51926792247156 
-12.7089806846883 77.6953654696008 -0.9495129998165897 78.28460734687108 -8.140849098181421 -51.92562887779502 -80.43749242181237 -12.827253091789807 4.9817739673454975 -93.8869235853219 25.929947015173706 22.68945364391621 -2.324906165165396 -42.19467577036393 31.926100019396365 73.9137416155184 21.039275062659225 -3.6778675547566766 13.562160094039323 0.8170422360587569 35.390984149162804 -20.699695685634357 -5.0031374942681985 64.9962904264896 -19.576415282341 -16.25262195452557 6.800620147673071 -38.55720840426867 15.062510085694631 0.945334480047951 -58.04348957177042 -32.31964130279621 -16.655995321929616 -24.90458386790543 32.85029638440146 21.65197820150358 38.11431137768796 -40.086128511105315 88.65826831623207 31.771553769751105 8.10958284444922 -37.48772632104785 
51.738526706606336 36.51386240838506 20.4983337871662 -93.99870740945659 -32.101782310884666 -100.11134640931401 11.649942210101488 -77.05045003537067 -37.38248416585701 -39.87277273859883 -86.85426657693749 60.103582650177685 40.656269444379156 32.71011474872343 32.70844845035289 -10.022391537135816 -32.365026376651066 57.58560826696896 -51.60119012166385 28.358131084448843 24.234913074557028 -33.645060123900635 109.55978798782495 41.3824423257747 27.012260259638015 63.90733629975666 71.22987528176634 -16.350394310049186 -24.24942998125758 -18.27926085502314 5.311250817826091 -46.613763712625975 1.1317025754239556 5.563791294691163 -33.44881113554586 -4.298776549536328 26.13576955431121 -7.65583683493123 30.59838277488004 -3.707221382100633 27.97411020938242 -105.8737895077859 
108.8464830270713 -41.607924177052666 12.485909262389837 43.3680023967146 1.1840113794694997 -53.35407547497739 -59.76492741614841 -2.37090977447298 18.42216329747283 84.72729390399091 -22.485915931004424 -69.57638117203167 50.629310583647374 -43.948798551337404 79.90753698896478 -40.21867984048114 34.73608870279973 48.57666453012653 -23.77691722813577 64.87565419353346 -9.532112223877446 -28.025619841451732 28.117615292013415 -26.880624015305447 -1.4904417116058921 13.800278955572045 -62.05955415128438 13.660338439905978 -21.029521968566375 -89.36598372960508 -4.967147513048754 29.906275555410087 -63.28636331769118 27.705026863728843 24.35997355159227 52.38481035195654 38.67474677245873 42.47032684810742 -78.33757041121333 -81.63022461796507 25.223536128849915 -4.819132337722602 
-6.855530184300908 8.668695458899169 22.298869650194224 -24.15057947159631 -34.09555708086755 -66.5098389917849 -91.11769036880936 -27.284871417028977 75.00867695583882 13.936283095948465 -62.29252468831396 -31.59704157033729 -122.63097000775171 5.4531134983507785 24.529078422456408 31.54230826377107 -7.846875220494918 -39.15239288478531 -19.022531104777578 12.536892558690463 19.96918644051206 85.65421153601555 -46.008708523438635 33.106042523283406 33.723031498080495 16.090568704196993 31.640670377447652 15.85058931521374 12.124577751237663 -57.90400906595433 24.905838227504642 21.41029324904242 -20.098052966363465 -1.164712343153555 59.78713221678161 91.28575730494774 12.491460971606601 -75.26869463201311 -23.555256884042294 90.00913519508212 26.956906941075136 8.20977741108556 
35.419077196981156 3.6431734637934836 -64.75826039701285 -105.52698189593204 -46.65551805541519 46.9745665052263 -19.751322510274903 -32.29206198685408 -21.272524850979156 27.317714195750433 -47.75650783842868 -54.18446418531154 -22.930777288280463 -79.86235101840042 -22.820748684149446 53.594753733162214 -35.2789362750373 -9.63630711314369 -7.368610468389156 -49.193000136833874 6.998733067639801 60.83569361820127 -8.797103956655462 74.72258954563353 -58.95244893199537 -66.49507971238427 -4.134316533160852 56.484261479249895 59.04304146258435 -33.27668604080931 -15.341785132965457 37.66806358210921 -25.799297674033514 -37.68620941595425 -32.19591024965502 67.95558563218533 -54.71644769841461 -44.82750950124553 -1.8710227909566537 -103.01188178119054 68.34540115983182 42.84694657135706 
-18.597694970437736 74.40660326980844 26.801804509721293 14.553175103658987 12.491264315702006 25.513567048243132 3.1713070155115886 12.05179515995447 -61.7055912601089 -37.39321971257146 26.18197016227276 -0.5488662138766409 3.0799610985007324 27.748940864843057 102.69887382223142 -68.89397955202655 22.649812117347427 99.92933032686209 52.85307128651004 43.176376578259145 75.71165511548037 61.99811880210917 -33.55123495364911 -3.1681725940592504 40.92042551171486 -47.4508710759882 115.99624212166965 -13.147199487404183 63.86636995083501 23.394744099604846 -27.52098863430959 -34.66094930148564 -14.760464191260018 27.330790942557893 -20.41766734111105 6.724880999688577 16.170918096852006 -39.143046232781096 83.95332079192383 -73.51900967095531 32.816968809130785 20.921032174127276 
30.51170789723049 -97.82105152138442 1.5360524064323637 -44.632378011537 -29.561398815918153 -7.739271698296783 17.19214624970729 -28.98894925771925 56.64472281339681 -67.59835374297221 -5.762958713732591 20.14105962439539 26.967045875727464 -54.663625869949925 -14.064174288021201 44.12355079416757 -55.63219147469389 -47.9260815201679 42.841026034039366 9.957200050580981 20.13687405475876 -64.34644817483233 -24.621065949562425 33.43726626869063 102.7436959342458 -50.049958606769756 41.39932927678589 29.92282984357585 35.64400652100091 39.96234412886713 24.282696108216864 -1.047993996456475 -11.751044118561323 -8.502112268779166 -8.147510231790925 34.66816100347946 -10.131370850959152 54.243235189994245 -3.09324474563133 26.793587659144727 -4.287543041628821 43.70984337792571 
70.52832880479025 83.85836994044533 -98.95954718701988 -7.645632137802136 -0.9634736333660819 76.22739094604094 -41.300773529217516 34.11513003880565 -82.12318216658828 32.86858228259455 -88.96395946437461 -61.4305991355064 11.646357493201059 -41.95619102877822 44.03274534589335 49.0064166117343 -21.09385860696656 71.84419820193297 -12.823053253461476 -2.4806800086038727 143.6934030297432 -23.010677934214673 -19.8693379055192 -43.87996887421774 -24.20630722563377 -58.6744874838854 -3.6550442352061268 73.38146722370493 42.858986269651986 -36.74412639135778 64.39332483477745 -30.54617038682618 16.749326716427575 12.443487971629413 -10.591148161580112 -94.17569663041381 -5.342343049444823 -31.365082611284624 25.56913254956615 97.11492140488079 18.336260837862632 -12.763795843244845 
-92.5788115116469 -26.066812440873637 71.57351969075073 -16.865263696724522 66.1388743990467 41.026641269998954 40.14120222360278 81.34584130322371 81.89736361073133 -87.67503721343375 -82.10572017593555 35.787942366023906 15.669594470023494 58.89987076771877 0.21985264936201507 -23.21454843367212 31.862701737728358 29.919279004061554 -14.169641108584594 -40.937600627473536 10.852766381463983 16.287587959969887 -44.93085727898687 2.0757511036655893 84.0826691701209 37.241569651127946 6.505027656406926 48.72229628410854 -10.360541300893509 -32.88863773642357 -1.5141203133972783 -8.185235781846957 92.74492513854538 63.381483209599054 -11.044425213460674 -38.1170210430397 -37.62559165064823 53.856882774493606 -91.39116697349546 -6.498509248184944 10.221994893953962 49.58316173474508 
49.63925303211646 40.49731304850205 39.54667951381886 -4.299498436684309 -10.427387303411678 -41.88900325496873 -76.44623925922802 15.070626331726316 -0.6944744327699354 -61.58855885244277 8.06212449543907 64.60829605857785 -54.332265070271255 -24.907689810865065 -62.87570992118129 -7.510074679456343 -17.3688627851882 17.026473594527047 24.484895457317304 3.112751574544897 2.4280302521619825 22.44258547158091 -53.90489810131543 2.1657284957574956 29.305987377348366 3.086985457534209 -26.83443614128951 1.7211779661541102 -46.817700548879756 -8.699052210626208 48.99091982834916 2.668784072053539 -37.872654149856274 117.1193534393764 -39.94712488298768 34.952489507335166 21.574184406763237 40.91639013666081 19.35633134096467 61.552104442139004 -13.284249413742046 -71.28961296601551 
18.08336664265323 0.6853101532293681 3.784861006312899 -76.66294532598772 7.006497280937757 116.40484598501287 7.0492205641262755 -55.35604038205257 33.695822442385854 -16.301451877679312 56.57494213676775 47.65571721438747 -83.82692133323091 -121.93048264145594 -72.06211358677275 29.09516629149388 -100.68485878132842 -24.86243226044456 -48.23848495952378 -44.92854793074338 -45.36070512434111 -15.864385564061713 -64.29274208597536 -59.54983097687573 -15.923650788296744 -8.562304649159191 15.728046243825034 2.820381285329465 -38.25434153078025 -44.747603810285156 129.83150278241123 -53.40700381802267 51.45319784332455 19.41037771301864 -75.07192804285661 13.204871651143849 -52.376075973231025 109.01659948776444 57.58114156590445 -51.97345485148166 6.484104559826351 -15.343398162589459 
16.745425210845077 55.574330544490785 -30.64738861623105 -121.04157832760086 -9.131247550077484 -78.75474996901654 -12.873600894823795 -11.508600388144636 -8.233420689354073 6.999885139023301 -67.21047883847619 -46.29851106291884 -30.799880631878118 -70.22392051626771 -64.15454391963414 45.44314279699504 -72.68017382856748 -19.646035276046 -19.80139136749633 -11.389105423837348 51.27706856892837 38.249664211703276 -45.96400316275924 54.37719275099311 -10.812883810972785 -15.919759280264042 -44.09007987726187 8.33732939086113 111.22300606365819 2.632871951536228 31.825086456734137 48.14398627519278 -76.94239592975329 17.065060292537 -43.21429242523062 14.257832942037108 -21.60717373438854 14.420105019934388 -36.52395367328216 119.96692789455125 -29.73753139033945 80.46560060953426 
29.093112978835897 4.447124194363345 33.908089646352906 -24.297104029696786 20.160382929896375 -97.80772896827116 -29.58112725862049 78.2028335863871 25.55792747874729 43.0647203930006 17.823562709362683 6.873592215185743 -29.409578388685034 19.55015009777485 -13.6696850150224 -60.112989715362446 -57.60101253541489 -1.7754878167291468 61.96091555873073 -24.522430071610653 4.85323494961807 -56.73818998001548 -2.878967286817411 18.613271751019727 -0.11530562412614101 22.23697740588858 -48.076451909970295 77.88992556650898 48.184385320288754 7.260866160676107 -22.1235996638426 44.56817331441573 40.580271216335255 -27.41755734082018 1.7563381603631247 36.57117740330845 -89.65400477419495 -22.60463372121152 -110.79314855483388 22.31081237074182 -22.3192400308245 -16.78364483691514 
36.98959143604086 -47.228205385744445 -22.091472283780632 -10.321348530145816 -54.08437700628881 -59.584453299528846 62.53329527329883 41.48168703718049 27.850513844367708 -16.9032183041201 -27.533715379499117 6.508804083887125 -43.30632901310663 2.115946141437963 6.145604761645443 -63.723983161638955 29.791305896286158 95.9858326329617 -0.8106322869635142 21.260269600158654 35.06441122907165 -20.00336400663917 30.152976453656734 54.914188774936406 3.930243035297246 2.593310591110254 37.355150436619645 -25.34400510531214 -34.09556204577985 -12.056506789467091 -78.23010286185368 15.904631984391761 -15.506513590695514 -31.216956583261435 0.846533558497664 56.587534065973315 41.77011014756355 -83.54151088157491 -25.39232374959528 21.41747704316383 -39.19366149565746 -18.48653666375311 
-2.7156769638029514 -42.9484320942619 -78.66484116281804 -16.595211254224566 28.315236390193636 -74.3428775896016 -56.3024342676305 -59.474375333985016 28.90789475998807 8.717484513406356 -17.480194575800102 -85.26824395689061 -12.54853564154096 -39.73853328057403 -63.89590939803938 -63.82712566221886 -31.28669694177905 44.10626660430806 138.98425939894858 68.56618436141908 11.821781768043524 13.595739540685107 -46.407061572306695 -75.25362265223774 85.18414360198112 78.668555112922 -63.00094512402908 -65.11430169522448 17.36715276093424 18.967448798203566 196.29062928943222 -17.26882112741653 85.61647407251442 -32.92541686256945 -83.31347117225572 -82.56408320200217 -12.893004058076087 52.1988197344543 13.159030081940658 -8.862936770947057 54.84264737248898 40.257289373994 
-14.402485031455022 2.269310213741222 -7.0775654817591045 52.59677661877079 48.36998756132502 9.48916075419976 -11.728914343364174 -62.01919956130388 -74.42364308242865 -61.312063611927364 -37.91674687516934 -69.42646471739809 -16.958580688818245 106.98576561598365 15.284687184874805 90.09199622821782 -16.25627384075521 -110.44810649035152 -9.749140907145117 11.363066372198437 26.44964404239192 -7.3304019144527786 -60.06568756080709 -55.362281441386685 78.72062748953034 -50.20690115076496 23.434445055436367 2.577999389250547 -23.621828148936313 35.86905161843253 -42.04213840897131 -37.0353628672389 -4.587252637408494 85.75915323141656 -2.1960635115248137 50.32997275341758 33.29694554346592 35.118661476742766 57.82817217547624 11.581968479161109 -52.30440278996862 4.5596057096513585 
82.8530329599098 71.61924895041118 42.910966897873536 -119.26046851862898 -5.028713562852774 5.461607208944416 73.63027187146373 -20.247494237298213 36.08208414240785 -8.515942002549789 4.006336028783971 -20.80872918553923 61.613377731967915 13.385834924948865 8.198814445417632 3.8005301569582897 29.943632599461772 -8.047038431809694 22.121780272176853 71.21857832208859 90.12878810807733 -21.86629955768891 -44.52251849618075 52.726058595146014 42.972151885207715 -30.93923826974767 0.039009923264030355 29.918445316520263 -64.40309882477088 -0.1636111111625227 2.335413048822582 115.97518089654491 47.87101618007179 21.981844456809146 -53.77886196163147 -7.064077596617402 -9.45438960094836 42.67546038977351 -19.130874872287617 -94.04665207156823 -24.63884329889379 -45.404798858930086 
-106.63449060071694 -10.128201985944921 -57.13426023273296 -5.537282640846885 53.833333136815384 80.55630897487767 22.81410551413124 -6.343311034280825 -5.329796301820408 -39.29198966889467 37.679821163355825 57.943702804593244 61.39777441080526 32.96476832544097 20.779946425387305 30.955028315624837 -52.63950712335222 104.98823343372173 -68.52701004195266 40.0994807419832 -5.408140122133565 15.393925076308404 3.4624837689946095 28.496350653421587 -5.775065512850178 14.67956253491064 -28.10185157260684 -20.344913538004516 53.38873672254568 -8.515467353044205 -99.07542041388201 0.5617359588292118 3.6892582746335663 90.71109621966893 38.313653534054104 -44.3401554087715 -30.11570052352546 71.94195602442149 23.37023335134638 59.95498257006799 45.61653649496328 15.03777862131043 
-103.94063108783605 -17.79817998178691 51.891702243564026 47.28108516738406 -47.61040574236439 -45.384392948836386 -66.73371808624962 -38.47889958375915 -56.51528000169866 3.143481196656286 -55.02653918918315 -9.458112305198757 -7.607693029768349 46.26024442326871 27.89741253669504 97.9450324761893 -102.40540675479949 1.3045599359593383 43.3675654709133 50.20111379588268 23.985158395422648 42.04863431430038 9.386804997442983 76.10738355782566 61.51145398834326 -13.207963203343924 47.24853694108801 -4.705418365076404 -131.9151659359172 -21.509363556935675 22.1947696778933 -9.40625467851173 -1.3863683183195321 52.08544680128809 63.230770078122326 -86.60361784491165 40.805859552582056 63.173818991798825 10.984931427858655 -28.457904856859134 -40.90338553355293 104.5614599827261 
-20.926565141745183 -40.66332214936491 44.32560513592692 17.428766111099133 101.78473337298048 -10.08590187430688 61.19340586627712 -0.9158021461518295 11.340413728789407 40.76802672276556 -33.699865575488346 20.591440609682806 -5.134518908837822 -77.30660945632597 28.030428357825553 -9.423152027468635 13.951877816697742 78.9504284288001 9.761092430847947 -18.58119536554828 10.6658163862736 -45.68759973663679 -5.941903267201188 -1.2498638547021068 -23.93050978623495 -43.67392427386793 -15.924656947004355 77.04780139346724 -90.32646769599029 41.24127004946646 -2.3044447103811665 -77.42377070671962 -21.614955402415525 -11.885616043844658 -41.615661123085104 -65.52284364684671 -86.76046291600849 73.94302006253722 -68.05587960867142 5.5413519103204605 28.41400963532003 14.006721387737077 
-7.255028997162865 -8.674031237867515 -85.9410865860398 31.2450237573655 41.48686484045836 15.827507699142405 -43.36282128223103 -37.2364033712725 5.766605196089878 -13.034818558526142 113.03735227971258 13.444330752196453 25.909697237314493 -79.48105309580252 -38.605911030453946 -35.97208746578712 39.2301589672439 21.624479506777792 1.7851172573657559 -47.945251142858766 -27.804465485963856 15.861452663861705 52.63961280710795 14.217994035266674 14.97108961164113 -31.27304986978979 0.5433452995435644 29.349930301151108 22.40141356144366 -29.708059959597456 119.09749491453819 -11.434277006763383 16.777422908973765 -20.836142079616703 91.98069170674162 -34.600312340446926 49.416139210218574 -44.41618952512361 -11.584558696805765 37.402629292547424 -48.15070224614238 85.8095925586283 
21.62765149319868 18.29646244698388 10.646653169076362 -5.049785805644799 13.298121694204818 -36.56817395081264 -24.505626314519596 40.536860908861314 14.864675758091273 -10.74049107770448 -61.00904668938661 -4.503053499607031 21.954628199848916 -6.090250498483201 -23.131940922804002 -38.29767133782754 -7.277933323908421 4.006347952833987 -5.8493871514313085 -45.475384361082895 -24.590890093176842 5.040346268677531 -33.16229403238267 -78.27867376175733 -6.797204151586995 16.63315124685938 3.03169586502013 -33.339227281194376 95.64934700758971 -12.783796116299227 115.25829572574118 77.55857811852022 36.71572520935582 10.814699570316119 -56.37560869541287 -28.739130232294986 -56.057618142107785 10.064987006944783 -27.95442142746476 6.195262907948903 50.961692718372795 40.481972616490175 
35.41174619128385 -16.682508164616202 -78.53158481446899 63.7452531428986 32.716136428897364 -0.9159583027347842 34.47712506981385 47.2144982423982 -22.274127894235868 9.664502426621834 -10.715597888858468 -44.62122785444756 -51.7005417009491 -70.19261986714757 -22.897266528698616 -29.058994165161792 -6.120211966893606 36.17076465808016 -2.338426009561994 -67.28174876613457 -27.784437093166826 9.847885152702075 26.39329688015032 -94.22966796253418 32.716331961684766 -67.18252688556984 -5.596080109607501 22.738599749851755 -4.746820031500469 -5.971429497529219 10.432713667840195 -5.49186632727644 33.11398633092117 -30.24328543318303 -74.25709743825891 -23.31252114772398 41.24027951650078 19.48956455714573 -23.514755350667613 75.88651432273295 -98.18774866022841 -23.931174452155275 
54.282335185114654 68.94331353164715 -38.14312245758904 -61.40028279264265 -33.07903527753041 74.88182874655146 1.4210371957995533 -42.609233631569076 21.01936262777484 7.2136116546843345 27.784749510297676 -9.012532387961802 21.299327012149206 -6.36580094818999 -58.82204882427192 49.151481457526636 -4.8072714436615405 59.0696385976329 80.320415315435 -38.88487502122322 -53.40186074180055 -71.72190855419421 -39.91794867535211 -31.833021993212526 30.85980261053673 -12.663948693923397 38.69649356074051 -29.248976365871656 -1.6824056319042495 -48.901044324629225 -8.181643172793201 -71.99990163174043 28.196821605527497 32.112934740570836 64.77893541481383 40.50888664691297 -16.40143882598964 -94.59564579289118 -41.96534169320931 10.470589824822865 -71.24151795791879 -27.663885262967497 
23.876628758878525 -28.231818768220215 34.60625332905034 -47.99130101438535 -74.43665806129871 -17.888307450207577 -81.44411084992628 65.06680408248678 19.721336590456783 -12.509082045048922 -35.209589653681256 25.497816596846942 -8.631539496483935 93.58861484454786 47.151278892319645 -44.8565820549957 27.573782021954585 -31.675048309619463 -40.44642784105837 14.239352494538679 7.060600393864258 38.511065834166786 45.34834862148494 9.915636333345944 18.410048499109987 -7.750390830696631 -4.816825569760064 -9.390159522232938 -52.39250760568065 25.001476815580773 48.125979079896744 100.84073514306104 37.81850535692155 -35.192092841632835 -27.822845788147077 5.903150635256553 15.659876530387654 30.541777982570377 -19.930804672689117 85.52132785133787 68.90841870084027 13.102322480374966 
-54.06694241496765 2.235204613617799 -10.953191323147843 15.001897154664281 -25.372958276254977 -21.941505202273646 -20.810899677481235 149.95016606612907 3.9092241331269975 -51.461822407257685 99.34469504167868 24.356791155716525 -9.249461377592613 29.528431078588724 -48.518919217618084 1.516803453776326 19.209836583594328 125.9922682468211 7.256999765004547 63.804826450449255 -28.88088753638144 124.16497587065415 39.74889163626429 -30.4922654528446 19.034420567433276 -79.72900643322978 -1.8091251277380227 58.71293436965704 -98.93704420879759 -20.886455295924396 46.75630066145212 103.19850291918313 -20.40415772903988 0.3264894373225205 55.56149841086461 20.066377083952492 -39.964089305355685 -13.970952804948707 53.27559919944481 108.86496511338271 8.391392020006782 32.205288877121475 
-85.58037389677843 -43.33666259132917 -24.158581799225306 14.963680273759627 -21.6154379463761 -3.722073174664686 37.6939175121102 19.715223143821568 22.297389252671532 -53.168608498956665 60.665243241038695 91.86198765052136 45.79280777198328 -10.946108551963508 7.963172312591803 -58.81698038980036 -15.46743932803591 -17.475149269001445 -102.52351891992373 -32.942007134045184 11.814540635052504 52.64999633093658 -25.38231447066058 66.37710851121227 10.107366071016482 -27.35661728416612 -48.95269301400222 19.480487810571535 -97.0084587533079 -36.133757456630455 61.973040044069315 20.078346160370497 31.476108223309502 3.3149529532332553 -21.334137394652622 73.80421025191775 0.8085570218538323 -13.951317884909445 -12.967924260954799 4.961118346537288 -73.31646493010118 38.1471245522112 
-16.07136862498961 6.565708743223024 22.5245119889914 16.57295161594135 -9.212194360424062 16.85088551707108 -36.67273822656897 -21.56875817785489 41.18769784985612 14.418950412013794 0.5010612801694091 18.76537972420494 86.52303656265269 31.619276146018 5.169500412935562 45.51476001330999 20.32443751505661 4.936712119318702 38.35578434225448 38.844234691814 -21.334660652108447 -11.016704111819708 7.419226062092328 14.55941099580661 -31.352830497360603 13.184541540527258 -13.146188807909251 43.456329371142566 37.409769987810904 41.609675254592425 -0.5680443588936976 17.889235603939323 -13.007367400598692 19.80864473964574 -63.59679331164656 112.64035858755649 -84.64084843704464 19.688635216030278 -65.51312528953403 46.26351183731794 9.24689155523707 16.41241832449411 
-37.55130417326502 -10.088716009619647 -14.671678169132123 21.82109594332649 83.67962411564599 -74.51281343731729 63.854232748542906 79.01273959350154 -74.49565797502129 -54.796055216642365 77.9778600824189 -73.5531460154468 -48.254449504709214 34.06093887682635 -23.151292671740187 13.556157829500764 -36.762152451390776 59.17983578469899 2.3909613889713053 -8.447339608407356 -9.051062013818292 62.944790817307016 1.0357849150668643 -9.596424947404364 -46.29351146166506 -40.37404848012595 0.9157851659944956 -50.605097448693144 -106.97530177847266 -27.396706514691196 -17.230504990865175 17.55385266274524 -57.560203240728185 22.59092213765456 -9.665601499078821 -14.051230329011073 38.885373122674466 -59.88656900961678 -66.60620322157189 8.034792630036268 -28.729835580916887 -43.21863013036962 
89.59830831949043 56.40752945446815 -61.71291872195382 86.16047190105816 -23.592787509550636 -39.434719973072795 51.84437189997068 50.78980690849969 22.98502332675263 50.02521956267504 64.50500497873277 -7.081108135618074 -74.36061848821102 65.04225955456427 -43.534683680590646 125.79325819221654 -33.552955634244604 58.65120862496191 50.0579576485866 14.459509888479475 25.76591528888346 34.39130280648878 57.06671990271283 33.551693469851784 -61.742658292167 32.11679513456334 21.96409395637617 83.71201884807626 -31.89560582675772 40.790426303976375 42.616170354861076 -23.9909376276176 -100.47768925063751 26.357255827021415 -89.456653281701 -10.033271899177262 2.583439058281387 -41.09676016495827 6.682944166108876 -83.40684571698976 80.77582166914111 11.918260240185738 
-58.55296711708934 35.39948046045611 -22.614636050330127 -38.61884202588637 -5.255458376002278 0.7312051626730109 -84.08539115236265 -59.22516550783954 -78.823716359968 -63.18367784654047 -28.81998793189971 -26.414659424996408 -54.58799780990348 77.71723966546158 -39.0424214727829 -57.16053534871263 5.221863607833413 35.461733531033886 -20.402102984035615 -2.531114642800009 45.39660447354345 26.101811966460495 1.0404453858101523 -3.574930566684077 29.162845785242524 -88.36514273651635 32.64660225679111 3.748764484988502 -33.50332755822852 -67.74558593175264 71.49686588518419 31.789211449071317 92.6794361105263 10.8143196096045 -43.17860313540422 84.30994709871698 13.166853068892763 1.7591521624723625 -1.3588798429228213 25.89094752348586 43.57058348854826 38.16380844268517 
-50.509267943023154 -9.09107684131287 -48.863025276366685 -1.0253317763245353 9.078270937781836 -81.85110289849862 -26.566880785751074 20.543922551336124 38.50999437502011 -56.94858568919923 -25.045381162472168 -39.247815330150395 40.26141070134663 -1.548247879965525 76.45000779186606 -31.873970428720725 -76.82198284543306 -21.600943443233323 -69.08322733758736 68.24702734216469 -11.052147322613934 54.60639881116385 -3.9844150899892137 84.51443610444164 23.208551160169655 -33.88919372936615 -10.346336743593218 100.28971576298039 -1.1054606593949412 -82.76497433517169 29.470970030906244 -19.782690238461242 -52.78044321943006 -11.025748611355134 57.77713913239557 -41.53360132698076 -17.33205185193156 -1.1370364249484892 92.73156342366855 30.62841877119868 -48.611122088434904 6.737590446317737 
30.02936044806075 -39.59437011158417 20.646054411812568 3.3765857244459645 48.17316353410364 -116.24625890546022 20.392645179416533 6.9002749644656705 -18.86273746793115 46.09911539128506 -39.16671128381508 9.70773321448973 -1.0065290014870913 27.324119649207642 -8.39910214376621 4.096540259615692 -62.45495440973118 55.17722065498254 52.47038737499468 -73.67920027381305 89.42374687240559 9.152377013905728 -52.96698696125549 90.96311909468656 -9.944565430297775 -29.41895986864015 0.07465497325435477 32.20457744625317 58.251153226519094 12.641269775701504 13.871037263192454 7.776757620995884 -31.457876275689042 -41.40402242812053 -22.20357349296529 -26.646800828903537 -3.7240181424075036 59.02692414924914 -32.82260361044511 -51.14429423116627 -47.28136679118105 -56.396965223288134 
12.21168816710896 63.582007084105975 0.329002942901864 -19.509417436601435 48.06541882571116 8.218059757403436 -55.65201858554519 -14.598724866822018 -24.67694551927836 -70.01001187641322 -152.51422599527055 32.81993500986731 -26.872961536293943 -29.40002883836333 19.02154042326324 4.03767694956787 17.91038052992243 49.86111239468071 48.750443223842524 -65.59237046681268 -34.04992134148807 -24.173784934758235 -99.12663480764274 -48.63182376102695 -17.39339381100761 45.45614361113854 -98.2490746117918 -34.566805400102766 0.5926772382920379 12.749527406296227 108.25714652062021 -9.576918748750817 -38.43993931218838 -0.921432817102439 -19.832425597150284 14.57386882564064 86.12219187243802 18.578454416939415 -81.66906705024569 58.19014466398211 -93.63301625069087 48.41392643715088 
-33.65132273592332 37.06427089591521 13.202889423769141 22.698703796788006 -9.09304225976532 -23.064839487033286 21.334001071346602 9.938836581484937 11.132756048961928 56.642141983264494 69.03705241439953 4.310975951743904 -81.9244781212343 13.105731323118087 -19.52264727158354 -9.340509425783237 45.437781016239214 48.819102671980346 20.80482063555139 -84.96761886268376 64.71818681463915 -29.801186523569566 -12.301122175758257 77.54348512084971 100.05863690698365 -12.334724574387414 -17.141601787791135 88.98273283068626 -18.631528020849803 24.29692992933571 45.54817211300712 46.048372043876235 11.834093316868127 62.707587669821315 -15.560913223822295 6.366042346472733 4.811154628620894 -8.939253106323552 45.536925336536484 9.71952701055058 25.09798632585 42.82791671536749 
78.85051613882186 -52.17792694156014 34.984566792169765 10.800838955864506 -57.669972320814814 6.388949024960562 22.479387086076038 56.454986806771565 31.305939977627933 -55.39053694184535 2.848495461643918 33.481903820863714 -31.748806647671405 14.066744360530857 31.817919089129486 2.5014528004649756 -68.39473136449844 -23.227993349213058 44.33861222204392 17.957546557474004 -58.8348369705746 44.772304376641834 28.13862650655303 -33.89110544579722 9.313567790854067 29.49508248614419 92.5119973117912 -46.44642850154555 10.304175955937469 -120.65293408061954 -67.95508730907558 -19.171503045933363 -24.811010289985084 -90.43773444400942 73.7123210585759 -38.38862427319465 38.091545719932164 -57.711853514298554 -34.79471516392501 89.86483738195874 -75.78405799440509 44.23031750157507 
-58.77374625247379 39.67804510506731 -0.8943625114087463 75.63496912594223 25.500595937169418 11.745497172348795 -29.53140440086145 33.672269497170014 -8.263668781733992 -22.035780767353558 12.678412753295305 -14.472601359840153 19.700766822631504 103.15289775617867 -4.144506802102967 13.027740342507029 38.58807646545488 -22.29494080990001 14.417219566670052 38.700989831548725 -43.94586319529588 -28.562159712720412 -26.61873067289393 9.533279667663654 -13.383239105630496 -66.14055475695343 22.166372849366745 -91.50543094739437 55.061440517254184 13.090992259847573 -80.03694305242716 28.223656700338243 13.040627002215796 41.41627957807597 48.57645542623573 -38.83308846789299 34.01981485898692 132.5914006430762 4.108208443757748 -5.84567303750478 -61.56370596720448 10.64794629355248 
-21.654716195284344 -44.604915692623635 19.65434294214613 87.8794112351866 -0.6563349745004625 28.942442523222233 44.309086708780676 -70.57675930142969 63.40239997097524 21.95877969214201 -26.403851628115202 32.1420298753465 43.328254271061844 24.53985963542666 -86.92373166758792 -15.579906198361693 -59.06732414116806 -70.44359998403273 -35.580496934343714 -84.63806861326718 41.931988944627264 -27.248886685638684 -10.465438243743955 9.846591433958212 43.65197450643956 -13.096041050536476 14.03187484247175 48.62390946251601 5.6620376785181845 19.464181601100357 -28.75863518354547 29.53306499516166 -82.10267283008842 14.660800893167577 -41.6184003714517 -118.43588047418532 -68.33034844113145 26.72648323834487 63.62727851044552 -16.656427212637187 58.951474392805586 -12.768659124283602 
-54.428243931262266 17.7706609013589 -16.76544279757655 -33.73344531048674 77.15368520994978 -39.04803624692138 18.099625886638997 25.012728987766227 -77.75309069620499 -59.348539998670546 23.889653222299618 -5.596450225535765 31.140020776669 61.70914333613418 13.494136143661372 -52.358432558499814 -48.919438484211256 3.9338995479831107 75.30274217050386 -26.981015824387367 19.91410725929966 -23.18777381791563 23.410198747660047 113.55550070936219 53.74824822760074 23.216848457141012 44.12213024852629 -9.837043922128977 134.00353970915992 -35.550285299628996 -45.0443063874593 -25.531619898412117 134.83652947623256 34.49576742763476 50.64801558362502 -17.676396277534323 5.356722255026145 -36.15875055733263 55.351286623942 -11.88896990984992 -24.627714580178388 0.8676016218132097 
23.687593190802772 0.23028186341451579 43.793264569485814 2.810060305983323 -6.64827481659116 21.944579325654498 -45.69403505727439 28.572088589982506 -68.41278793710468 -98.61697877264655 6.249015712064264 -13.648887043955659 -34.21399943481025 55.26274931600244 93.43302630608834 28.157131415584868 -58.287576956775396 12.640280549384206 -46.006151425025955 33.89320236076932 123.13310071768865 46.89462377758443 63.62843425971095 39.68983053371081 -30.052147888773504 -13.0333616925374 -3.2360646922773086 18.141608068224173 132.04168354318367 49.8880205916552 -67.588025858587 -67.20862528710155 47.59636647605813 35.82286886255803 66.77433531648416 47.23466818439089 1.0853435091956196 -24.497477513485293 -23.712599929187174 40.86278260002077 -74.39969003514804 -17.40450290421731 
20.766743865407655 34.070770293522855 -11.15842179504925 -16.220513243584175 -35.1814119611506 -14.761596358150143 32.02257237718778 -68.77064482674713 69.13142702453464 -32.212010574326555 6.31962300605504 -7.9281531397080025 22.80620821605707 47.69953136028242 9.38026807430186 69.5916588732945 -22.55902105992404 106.63044245558551 55.173387228231675 60.88939515582379 15.753965946364387 7.831468898896876 51.99527941803139 44.20879689907723 -79.47073614937953 -5.732379626033936 70.37041614557677 -28.05476598651567 -1.6863633192393979 -37.50842787743094 61.00650842985102 132.5708382513726 60.52561965399952 -12.317921818903715 -44.41742784858029 -51.9471166347667 -60.75255325759899 82.51684275549339 -15.090292726384936 17.512973335551802 -18.05260151242713 8.456064746410306 
-34.83401122916713 47.10449284781377 36.03265315486066 58.31278056435866 -13.52790240632057 -81.53842349399225 -28.47970199097295 -61.27214440571851 58.68219819913776 -1.1363238183116038 -55.20646945162886 -56.010215694951754 -165.81323933120652 20.496503137637706 39.96326626268607 -5.1663585958052 -22.699062390134483 -35.21442489873753 -127.65992440622094 25.771076295318338 -1.603084142836966 47.26562481561809 22.8442052668728 62.299106188396905 -53.819916954337124 64.9411063997756 27.517422813749455 29.657643845183657 -16.734533514599615 29.943969883664987 43.030375452879504 32.91492381765862 -32.20486595843721 -3.2627382629578987 -15.357369926160965 -73.51705179871658 25.197597112967443 -49.367390353564446 33.00110802168687 73.60009196506451 23.774198248885433 -58.80058580919986 
11.782898170679971 -1.71334396584001 20.307370752620766 -11.434943224947224 -11.626032334990981 50.72257282997381 73.17804955391586 57.437233462211445 4.349999625372553 8.6276575691849 -29.159261377868805 -47.512718559084036 4.279606483922385 36.4760411901611 0.43442941751623676 -11.169696293356838 -73.67683238607297 -25.34501160416446 86.8418666460431 50.759552769304086 -105.5177575074216 16.673153757506526 12.899985734212468 -9.055980410765569 -1.8484674564720034 -83.91717495840454 44.185744628368646 4.2760435370641865 -46.57021421715877 -77.13120366124905 -7.00524982502157 -36.35217342642351 27.7575746057548 -8.60683670572541 12.426186741779865 5.103915134746887 -34.265485010025586 -9.157643990079796 -74.4559310959944 31.002485774588585 -13.576993221090127 -33.91878619304778 
50.5794843733191 51.91572162518472 -74.32385529911524 -16.855949671601742 97.9623153536691 -33.01708405497424 -1.889809074542781 -57.59317001134402 11.73635174963623 -41.67459662797914 34.44329955350174 -17.181214395424114 -22.452484379359152 31.991928640112715 -89.66200819461035 9.951414249469106 -107.50063898145713 -58.30416768721201 3.417452484008717 -4.574698621987501 -45.176453877416 76.85451131320056 -18.83689879529898 26.253562857262125 48.43769140665735 19.531158368175156 -13.32749193502996 -7.3515667458728675 -66.20104814608183 19.166642000926036 15.975155888762474 -70.85598748522948 16.9772889103231 -44.32820423369433 10.455277483131274 26.150407609744686 -48.737276927614545 21.83555371080723 -52.51086194156389 -64.48301534850916 -17.39776433815295 17.36053889134443 
3.0501602880299026 -55.452213658625354 15.413686807186831 57.78369522504724 21.518720876905302 -48.81713353594459 73.83537543744558 -14.289983904338246 -6.7474955990639325 7.533339154689994 47.71870598946877 53.89977154056986 -1.8398702210016027 67.8216822363053 -13.039853325485954 -23.548986375887438 -41.30260364440481 31.752412059575793 91.32768531255692 -5.813994808436041 -28.89546200044037 0.12619400590569504 -10.45452230927142 22.235419872001078 3.435649412699744 -4.400436074436499 -49.00685881430608 -55.371012335847745 -21.48732606766258 28.84167017880132 13.18420699999888 24.46180162342997 13.682705813885105 -130.61041518745157 12.176452929505418 5.979042759012495 6.040927151796915 81.4889335683781 79.03546715200983 22.713550816408215 -25.847516537811288 78.29408857262068 
-25.305229017779855 -15.800243109496016 20.97892018406345 32.54244099264968 16.046141243944888 42.840728994066595 26.89571408980794 0.6388331366812133 -36.74610370929535 -51.57120062407128 14.287366837034499 9.48130992266078 72.86411691035401 -35.222001984199004 21.799410479899745 12.562176986514306 46.969302308898236 -55.51217745494848 -44.63309288655803 -4.254199714165303 16.24945581827036 27.66522327287961 57.82068716150069 -60.395019983596164 10.703724356129536 -56.354125797372696 93.91650744570752 -19.968275198660315 8.04847789549016 2.3229089115998205 95.50809013724651 -48.24563924390013 14.556277965844146 16.790536060863776 -68.66716220232082 20.12566441271656 24.988566761621325 -6.512529376047786 61.67340202560338 -10.565995714619355 -7.991773431038902 -8.027286280326573 
73.9039232232616 -49.090145231244335 24.232028736659636 -29.916469682286298 -30.14273820099474 42.89181085308143 55.84929107903645 29.455155786536153 3.238451938492671 -25.612096480529434 39.16469508573386 51.215751903679326 20.393288120660955 53.641233663937456 -55.056014233463124 -55.042462114678194 44.449908231776206 28.553181345069586 83.93645364060805 75.2113344874277 -23.184988634756177 -5.5705622732429845 9.204970233569943 37.45295198726039 -12.81766928960471 -72.47040125664383 17.210291623705086 -23.17273515655596 -74.28977479839399 34.425778142713135 -66.51104834533271 11.304213872091225 -54.20218462474481 -7.605347131791307 -50.89861136747785 37.29146001807238 25.22379006273957 17.715826257480494 -61.24276639078968 -14.95953540279569 -18.72381087319093 8.632259237805815 
133.09800874065309 -7.373363788269944 -4.507553536464092 -20.897040890845922 -20.89813333123577 -8.447289432401021 -10.233359309791924 -0.009775062204843463 -75.08833590786419 36.552895332871586 10.992500136961159 27.716963601730917 42.68109990175059 -5.809374446062285 -17.16968472439594 -65.18177274799447 -16.428004799325553 17.87759492340425 44.809665540463826 12.470917690065447 -154.99402324638731 0.44613636827762604 -70.02011424695928 21.20046991944134 10.110147621470484 0.29073517190218506 68.21159349939543 -40.70752634443289 -58.685964502814855 89.56438102872042 -25.800924640508164 71.16803887436025 -36.5796213498194 -18.80684039336191 49.88165964942473 -26.442259379100555 15.839757962616845 54.82791695462442 45.656360655972605 -55.961030448989 62.194881741019124 -72.3551800962309 
-33.173300790296494 -91.43178902694636 39.85778036747802 49.56382245090496 38.93683570107694 -16.938849902708792 -71.59319559767891 -54.78540143979029 -16.63117944803317 3.810780302306457 -87.4866930012116 -7.931711330242393 -71.71817408900019 -57.78459074222687 -36.41849422929751 11.30503856936267 51.09641315998794 -1.6723998628778858 4.327288066852554 21.064264641606385 -6.958487190879289 79.77856641755768 -22.357234215804745 -48.6646950595135 30.39023332398124 82.58626661608973 -18.053602937271204 12.968223375638143 65.61552371009365 -8.68614675380494 -48.66257771414376 -87.41978641511459 -95.74447870513907 -0.20734588378857113 19.883911797855937 46.9692754631795 12.368479784417653 -9.230733010882094 -35.084159784305754 26.58011432663929 30.475497476693004 -64.55560761808998 
40.53077681775185 -16.537063501496885 -67.49163242084394 -91.69474426920993 -83.23374395088702 20.116279990695446 -0.821945342584559 -68.05361344265702 -6.42034483652722 -43.72546057179175 2.9726897834594803 10.711562057076147 60.015217124155456 12.129879737590635 28.76416065147848 1.9515345028530235 9.565556683537645 -46.469585128938164 -44.379788479153845 -39.74108700653256 79.67226069529316 14.611729793034876 -66.00662349086495 -86.42951042811792 -16.94556627088547 8.064570966581005 -80.99912342898979 -84.5164777161635 60.92456298648789 -4.386613240094783 58.57151319731653 -1.3544983138495428 -50.095151074692396 11.308448777151272 58.601230058130824 35.5908325377348 -64.54676117225766 -52.618090420073386 -91.23179706204346 30.71826939231592 -80.5662396738867 19.850502243919756 
-69.92590067693546 -48.12849983635636 -55.993608708199034 66.84665252806555 -9.164977041367527 -41.20818106785065 58.48190632797114 -22.291234848313287 -13.99613621059988 -88.14998579228399 -6.383224819025067 5.348900833623799 100.92373679455311 -8.602383312182111 -44.34912975309467 29.204879530562874 42.06241286763029 -29.973077920343307 35.56011796200358 -14.651302525604903 1.9294731267594767 -37.719013344964814 -15.20769095862979 -53.935685668029286 31.849423851462312 -118.73958520030837 19.77445461192798 45.26703734746963 0.704046350195455 -0.6831325264961132 -42.518321502348755 34.75401815543208 -48.53247596035027 31.590629788511443 39.029035058857794 -34.24947900152381 -32.22480718539574 6.633058652322233 -34.24075128206975 22.48954034308393 -50.987942628563474 -2.4393600045698296 
42.70936350371032 -11.463647999486527 -2.3026124594742403 -35.57148502541714 -91.24332224913401 18.686692786574397 -21.970399579582924 -36.355383757867465 40.500036037179164 32.33630177330035 12.708718856324783 -5.789753986722629 -7.466522099399866 -45.40299422193502 22.742200049038544 29.87568968631014 52.776317804311226 -18.918044414333565 -18.147134181461066 -72.09268446608584 15.244967335083233 96.12763866088399 -3.7311161637637387 48.89436375047742 16.709717000666824 48.169052115165435 -33.7728871826375 29.36160833037625 28.89251413343297 0.9512407932880103 -7.592586084270894 -16.96573168853911 -39.642658543906634 30.92025917506402 -12.556104516664345 69.90207038425756 81.00253316615526 27.828963516540284 -77.97086570884333 -103.7461191530785 122.92932511145976 -56.6585998291804 
40.39307179765391 -49.093016171779965 -49.72429165430046 7.167215654447249 4.912800354728028 -104.33987948224011 -50.42654369598337 -11.220133169547164 -71.80542685394278 -60.882437895966156 84.1552444282651 -43.38976301740548 3.0855166823240134 -92.60748704146863 3.129480808062902 -72.39168234733607 -30.293799820387683 41.78079841531859 -70.35849989341683 6.139940210401979 -5.517483367375877 67.0751856141154 -11.936066364046152 0.9360130000326701 88.72244068648811 -74.35800330481368 -28.800156648956026 48.58299100138627 2.0559267672452806 12.355446348558555 -21.64409129405768 58.43557472206959 -35.688196020380005 -36.991676667656876 -50.04476868267653 27.634040258754503 42.71381016777204 2.924425228537167 81.93274933259666 -20.118047671312176 -54.266360786108585 -29.65617563632061 
11.385251070712041 19.943867934591236 48.256465569374726 -57.49808700587693 97.46281623443964 -41.04018410800114 -97.95982604254553 68.87028517199921 -89.95090659319322 -66.82283039519075 -20.88440534935474 -28.633237886254957 -17.607603450209634 -34.14797373753779 -27.39785636179963 21.983141058913873 -45.28093471077226 -5.155368847690303 -77.4946224065929 -26.295888134773598 -10.629575245003867 -15.803875199225384 -8.553286672954753 74.33017613547267 28.796890309924017 57.634050599046844 5.621375332725143 68.63650347971267 -75.68017177999836 -28.306764813183648 21.659429985758354 -25.599123538003234 -20.862253529049877 -18.190120565266515 47.027814997691856 43.128049234816785 -72.53713811622058 -76.14682630740776 23.3077208979377 -29.610972020416114 -8.512467533362308 -15.467281493570031 
-79.50460441638154 28.630356141361176 -28.350402389540196 -11.31571506955103 37.01818317542302 -124.8918971759341 22.63937443103677 6.49297127598069 68.88031988260215 -20.72849018034462 -10.648194803088781 96.07278609483829 -10.24005248570227 -127.23890840227925 41.20344516566046 17.19574432884819 13.301146432709562 52.77340204714375 -52.011397952503295 -78.03777049121695 -0.1407100068434971 11.95061892555384 -14.89548795224588 -48.48497439228466 -29.456967837865704 56.21874699454468 -60.40348474852041 30.393958033316792 -44.061184728139644 -22.78437398606639 -43.766106514583065 3.5421613118834485 43.531377430678674 -15.364973527879863 -15.867463664050161 -1.5138490212955813 -33.88600018865206 -33.0634409655343 32.79589906121636 12.985764706168467 -76.1751418107201 -44.83311082043677 
-68.9270450005011 -17.30791309581574 -66.99089753656925 14.351767138162634 35.525922299783176 53.75615227139247 28.68910534976422 -25.277535224095733 52.71367901462722 -31.884940831793482 11.101224153711117 -15.089839810080317 -82.01164312767472 30.730663474714365 7.634944984888497 103.8223677736231 84.30278902764373 65.6851736866977 -5.25702752672162 -61.5196147251234 -14.222274299069237 3.5556332563751005 23.814754028506538 83.66040841121355 50.10023132374669 -10.766972099678659 -43.28735506728247 15.117835667058904 -32.47782345495049 -13.015134740966603 39.316762784294255 -34.798884117625136 25.34523574152439 31.309581205539924 46.589813523432106 35.00372821067498 -81.4623766820541 -44.81951707210406 -95.42116748687138 25.378346991637006 -7.134622243543038 -38.30074630227158 
-30.910143602556165 65.42051223913896 -14.002678764061477 -36.041651050134725 1.150647658503079 -110.61540346145216 -46.789843711788 13.190906549188718 32.61634670263846 -101.2200475873787 -23.38294372402895 75.63211879298086 -45.12782371589345 -51.776650671048955 38.55618304231243 -22.71403611893912 -22.834276199824753 71.23411761875576 -73.56619879594166 -60.133032529450325 -4.869549242744988 -26.731721649901566 -93.5707925676233 -51.1892739748854 52.58122597816384 -121.01514944835556 50.17499449969141 29.825246910080175 35.73667312851676 84.69430499727667 -54.83170764699425 -44.09097262892963 -32.977532258733575 -32.34775206438697 -13.811362911017243 13.17659318391493 4.661164214910174 101.97161103235122 -32.12410572488084 45.74067243203843 21.50355807840404 69.40333244253371 
-74.6299824989497 15.35124314021009 -94.84257920365346 -21.25788939451503 49.64393194299655 -14.893532682688331 4.533606764637244 82.39586150944425 16.954744769862195 -28.408986676725178 -15.521778085103191 40.14304635325548 4.83447060341441 33.98791180257657 -58.42186495460579 52.21456081121614 -63.51463803889425 -89.28050508474853 -27.96665198946541 -87.86086072104818 -3.3916744490175894 55.742751691821084 -50.576417250312275 -12.52149907018338 -9.333101005855486 -19.6512070836651 19.36288876342467 -51.11959186786589 29.778241188614277 107.11817325383983 33.97532314700941 53.328071935857714 6.519339078949061 57.628555281445394 57.60896459386613 -106.58745407440269 -90.42196893418365 -73.33689645212097 -13.285896816147657 103.10164360206176 -51.36479051279265 52.20569580602136 
-5.655748962089932 15.849427105140386 13.728901778907419 -10.234252303704793 65.24272656350448 -47.39191549338002 -44.98836187845528 -74.32821866626516 31.95720519868449 35.05229999211915 13.867299026354567 -19.532636923202126 -13.609767134170271 -47.99560399178999 88.24773330392279 62.927134551799504 -12.990191519292535 4.25959656847104 -96.93297037411078 21.771933074410143 41.189375851287224 -20.54141231269797 24.397318821025806 -27.302583599719416 -70.57115115521243 20.695893181512343 -11.442947616359302 -12.558898616690607 -71.08983033066995 2.9831447203034265 45.13017223627704 13.414140566568866 56.9475662544619 -25.352853506448447 6.899627611581805 18.89339404766336 4.042606162139689 60.90088131977444 22.876274676939477 43.67070290693209 -68.17582129167594 8.929006849183642 
7.668633248202102 45.392795410674026 47.43246693590454 -46.8807989087715 -90.46020254969689 2.236417493938807 14.429074015618301 -11.018912069307687 14.70764196078598 -99.26395800775333 10.871219888844536 16.672200221790984 46.30175215259174 -15.563139911093966 -117.73033971411279 -6.338143923040181 -3.0458097294546653 -14.560269970242631 -40.77616825365152 77.24399302673211 -54.51428827127878 80.26034817684558 -24.88329791996804 -83.22192534510948 -2.718105936733914 1.6293329973978128 -6.170266429117051 19.18593900748562 -17.0076423491508 4.684570138397964 -34.31907519025166 -21.53384504668024 -48.570569839885806 -0.7344396062603377 101.44253301323857 -11.303669550988866 -47.55310571074749 3.461748180212526 -59.019299744472704 -30.169746435300205 -39.0887386309996 40.65097485588444 
38.154198090850706 59.69116431641216 -35.6686225486297 -22.04766139193721 57.72454016894143 -53.185155309597505 35.04372932473971 -21.04811616063103 53.02351015000286 14.703708631379207 -16.290945731434146 -22.729400550271738 -24.42928751725685 17.018129781034226 -9.724502749698713 -47.13483946517449 -37.56259908992219 14.73025723640596 0.3333866614786363 49.07640735539932 22.665607755607095 26.872517250554694 21.963850985764836 -75.86688436152441 43.34471244244118 29.655707921728997 29.663119519411058 -68.48162129256687 -63.990264860866226 -7.792639136925846 -7.72274848273252 -46.53328887597669 33.410601426800504 20.543543146913304 -20.434748022541942 -9.970522139202412 -25.64813751048658 -43.65563312765107 -88.58147272318445 50.61794991545839 -50.027747631873176 -6.162189127835058 
39.406150799727335 -10.206511150383532 20.984441170530516 5.31130445067432 4.331578814290174 59.35371571180447 -35.523002127493754 10.258421763494297 69.66297752915597 119.75144113050665 12.422829564959875 8.842382726051959 -35.310970794314336 -12.459804937186696 -23.508428393429817 9.66200318775511 26.491509661917842 -29.882633688466484 -37.91701211795043 -23.009656343258882 -24.056737120789517 8.7213868399567 -81.33126803662913 -31.390465489257316 -23.723419594223145 -17.47253332003528 -35.87825445971326 64.1401325671884 -11.588436268481347 84.72693740286232 -62.23182816186205 124.4516731668346 59.98876612991302 26.927281393977946 -20.904268973882377 90.9204500303043 51.14466158190656 86.29764723097522 -38.7551113418223 64.57474087896793 -36.67113615457941 102.78122254878205 
-15.350103234880676 -79.3898577589706 -22.760773815576137 26.223089778119245 4.167867562054004 -20.98978690306369 7.905023254123967 6.300888705385372 56.02459841760416 -106.73217910615068 -71.24281699998726 -2.552750459484265 -47.15290364278891 -35.52894085923961 -35.14291934474779 30.845695068536116 53.698271889768435 -16.656348571674513 1.5373896051266802 58.68992267324528 -13.109761360838485 -98.20907776663108 30.914241035586137 -21.093981120332057 66.58124037618563 -4.044294361532191 -99.1608689028219 3.217306192261527 24.451621066151436 -0.06536186088116741 -12.178180151266364 -6.983433699934368 -19.827849018562457 -25.66638842562149 9.530479321663975 3.495517386917696 63.13298873623044 -52.25844601112234 35.53704206282416 92.25750828872101 43.707499845807 31.33659967399449 
-15.782467080640929 -101.23114004109077 6.073055291620697 -33.91718002359101 -10.06930716356874 86.46659932410688 16.026411500467244 -6.328958647631272 55.508758928215784 -22.043058961585718 -3.5570982435097833 85.33141235103245 -20.754195169310535 -101.49634419777213 3.9675173145595792 -49.98992688302142 28.33498322651872 4.069770251835055 -53.387675648591966 20.59020794205916 -0.7862972324403406 -46.57698676257537 -70.90684483030033 26.952487373429886 -141.34424931234102 27.945642004993243 52.49240144627403 14.321311235916939 130.4780272117148 24.975593255347363 59.62981415530861 48.9809164179374 -38.976341659872155 21.903676631522718 -39.44512601564936 50.22901473788876 -16.737933405130928 17.229745688732034 -10.10578659069653 -78.28547588440507 -2.4161631594603463 -43.57611079527005 
67.79624970959242 51.50430938275004 19.14489263385786 57.80932592198373 -5.349114083729278 30.170055574083424 -5.439160939689233 0.04889518883536752 7.232111883198309 -33.39509551352695 -63.44156897708412 10.486879005180235 -80.32500079449602 -76.32037474256057 11.362078436859905 86.86411284658449 -29.7644493760688 57.90890700479648 -66.6915869046248 19.577893709102355 -40.853879307685794 23.776640712141457 -23.521505560334944 13.283152584188059 45.33839350644621 -3.9239889669662316 -20.149194134552783 25.968619888658925 47.06250902187511 82.27774940197115 65.11309572778111 -1.9596341440597698 0.17520353439231384 68.16501246802011 -33.15221605186334 -20.289589497988217 64.26939129549285 -17.535921428535698 32.982215033742044 63.39091097693029 -12.081390784173948 -50.29003146692418 
7.810604221069781 -11.561877990586733 87.0946119553933 -70.89491505795442 38.094456882941735 -3.460959719617402 64.96406324226731 132.9058095166283 -59.578064849985005 -125.13347275107714 -15.069505409796855 -83.81119535234593 38.071260023753 -19.531855269392754 -35.2623672598702 6.725834254010559 -42.04205445735687 78.07080019864411 117.00542765434872 38.14093561216377 41.801457832959166 -33.12698046496232 -85.61829471874596 26.762268105756508 -27.925525289827767 32.98518445173079 -13.226193655231569 -35.64939061252975 34.809411626331254 -34.40028633531329 -21.07388359597917 31.064764469209244 74.98257851760711 30.81014340997983 -55.07537625559695 -40.42332015829869 33.56242200175612 -6.167950890238635 4.178991590393927 31.487518924812665 -57.77058431163987 18.751403599261202 
-52.43534613711353 -68.9730493184363 38.29636650271719 13.933596568628083 9.565035420595434 -17.68191524777696 -56.86306947060554 -14.186304198274973 100.82922445146312 130.6877866345754 -26.117959054777995 25.783467336403746 2.4455148338749 53.01582083643982 37.79390252364475 -57.53985747603633 22.806374641150654 11.437786587737163 -27.061120198501243 27.81058971269217 -30.599457012075867 -8.558231184061972 -57.59689589850213 62.61969152138782 -2.2132944882780534 -18.96177114567768 64.64513462919656 -12.841536116049612 -84.10930441770725 19.692498793312836 -76.80741911667124 -26.819119383233073 -16.730184392338778 39.94633420586619 -23.94330412956201 12.400585912980924 -16.886530073146847 1.4091888283047813 73.08508688612709 50.45366460390497 -24.315176333106557 -8.300133128028998 
54.00841111528847 12.156787964487794 24.283775118830544 7.839455685983161 39.64207627210355 -2.1193206180582624 45.53674321362656 113.28112836069384 -25.218219479906193 15.745113547283653 -8.368190077124895 32.85953842443174 -13.019463870928998 -76.69918022884174 -6.438148836694828 -64.82567734604172 39.725984306117205 -28.786563933691315 41.69926812774689 -43.81049865968199 -14.643551649331426 59.01028370944397 -39.74252852146688 51.15236790327946 -38.127431620374175 -2.27987908364054 -8.661907763421443 25.068125999469057 110.8421790133513 1.6071296754412765 7.14149987106811 -27.965821240856204 92.61278265837652 -6.208171781360284 89.22700622735391 75.71953683319575 50.204134400940674 -43.1687064940082 11.428173475933596 -44.509717886905825 -43.73321253892747 46.13543714289681 
-8.252922900973392 -68.80338041587832 42.608570694312164 14.812084297855366 32.59501483804293 -28.89493115173979 9.630709431721218 74.63891087348438 -24.22449313195122 26.026177077166807 12.270520240193154 -5.923586368511528 70.23464174797198 85.19808887242253 -19.781017882900905 41.00969798044595 76.2633964207985 -5.177043060647527 99.96457135359253 12.17373519164751 1.4528805842576036 -66.73602406728737 -4.9120786130920076 25.439209409425896 -13.09550504081034 -37.85562605305824 -11.615375433478524 27.81090326553909 -83.63309077999129 -10.631435566531184 -75.55090229139176 29.58200679397504 -48.04070646241009 -12.72655120174701 -82.8038618654919 72.26854805810139 -7.669460495594687 -3.603314973776494 -35.23518242816337 -9.508333686442747 -0.11127326879702756 22.370205893905222 
-24.065879553914513 28.80340954724279 20.37219850219973 -18.78788316866838 31.920665449109123 26.558789751438272 35.17017627927517 -37.2388852298658 17.45570833110824 -68.78616463784556 -6.285346346249134 -52.03233611768313 -72.9107962823532 77.06477253220929 48.65311254137224 46.41622239392606 16.47461745161566 7.708764918614453 -31.578479882544933 76.82822831737076 76.06972029076987 7.85791653078011 93.18165907240632 -35.946620639827174 3.091759541267188 28.761441415483745 -22.30258072180461 14.33279253895651 -4.807383906365126 40.05818213644018 10.405089496912796 -73.03989788074482 1.492298965745572 -46.72268223723309 -47.372416525302256 10.032481808021604 87.80996797757344 -54.246028848391724 3.8452277665410297 -15.334461671020494 -78.88806755457409 -28.125877665194263 
17.147447065674356 21.68248480425065 78.76749000079552 8.016023521127888 -93.81951686154194 -21.144190684982505 -5.745360209736058 -46.42217661094037 75.56399626863157 -15.220269831328698 64.18255595292298 21.33101095419967 -17.28699275969145 57.77830282055972 8.18942043200565 2.3379385291026074 65.41029640548561 23.82860685932822 -53.043475353475635 -16.278134478351745 62.97439279237016 -46.14899797138931 -43.19133784757109 -36.30644514408278 -33.293819271256304 29.284882324711557 -34.72813347709166 30.37876564409858 -55.982357395586725 34.52670585767979 -91.08668060372115 -8.913829888718308 17.17454201107979 -50.140256002949734 -72.15837862407086 -10.560068322456406 -15.714825134354987 94.40503737031658 4.19674926121009 -38.19506923094442 79.31906513333773 53.478003409529514 
5.736570555480986 6.0781797370644925 26.185502341950492 -52.98673221761842 15.516249738563541 -123.38977296067054 -59.227695628851656 144.6704745389002 -5.280333613559772 -14.314941700195998 18.017198189717934 57.909578253129006 -40.59842008833842 19.376105994023586 17.008373473121466 114.72018989160854 59.78575216689676 59.91823049169966 1.7163547817027662 -48.09133835517562 31.301121775693876 -49.678093988981296 32.17836620554782 23.99206667926279 -9.175048683212609 -15.719116368007178 23.181992444033067 -82.38449535302361 32.50553547802699 54.87996088341859 23.235331694463998 8.289879201232221 16.250399663773504 39.23146565789917 -56.963842861095245 56.97177815834647 -18.293715120062494 14.378535706677322 -94.58854787330652 -52.76770284891141 -17.167985654291787 49.70536579564325 
-66.95308162888648 101.09883417866163 -18.872903463730896 22.242607096033186 -10.52160591874398 -27.108058987599147 53.03270031115795 -14.361233764907801 -103.69693137936459 -6.857624892067975 16.703969225989216 16.915796044433915 -56.69512904111725 -73.2150174324758 36.8280084137928 35.52336429869433 -32.332337282638115 26.610435710639912 7.945211399298904 55.628672776179585 -13.964465521486055 -12.371286449923922 6.822038290779677 -48.34644549462324 -69.42994813754716 -21.244161050825696 -117.23213920402348 -68.08141923662993 17.472799618908727 3.0271751186212703 52.50958340212525 89.70391940927817 8.063066076674549 32.264662703265266 -47.95637883714588 -67.9299772690578 24.261154071465985 -36.549822877838615 51.3142493104159 86.89650263037939 -21.22635964562882 25.618628463404914 
-44.02295332403285 -9.736050745363595 13.814530997435302 69.78628661453871 -30.00331705521533 -37.0614313902974 55.884728981275956 -22.343535499543915 -25.668482573955963 31.310221029733 32.78735165012106 -8.504937803872847 -82.5775758286799 3.2669831369009734 6.770365113470247 46.27850474426162 -4.1132985584953055 -65.90586778933046 4.21849314449007 -27.97613679899805 28.805027710693533 -17.5592520955655 23.994279276937966 27.685596185873543 34.985847876584884 -36.373170629667804 -8.278367321362975 -34.68453032859058 -101.92728231606021 -29.58019844644369 -65.5368353152693 1.1678256838632375 -16.642469115196246 17.236399833463512 -2.14101550242741 -57.382142631423335 63.111602446611435 8.700438777760361 10.318081076741171 80.49247357412429 46.992626545851834 -85.74617671664029 
-4.674468366061877 -3.3578945954241526 -83.83724186250382 63.46004982448449 76.78273356725484 -2.8091596961340928 16.261828732432324 38.212874279674075 -33.03138644562848 20.22293102816721 -1.0898121090398727 11.092692294521873 54.83052798063082 63.36009317250435 -50.69486015728898 -9.841080885020197 65.67290012365794 -21.330226724724028 -3.587349094248808 16.168235847002265 64.49084721799854 63.12647612817862 67.24265327873543 11.51545674656664 -11.878728022831286 9.339348563059893 63.48987135158141 -31.43623111599309 -11.600604882380505 8.1411024345725 44.9384687684401 38.485600089185226 83.79436350468019 -10.031581850555932 71.82299685848848 -69.8828721945452 25.763432760670547 -33.525263000002234 35.42641493032588 49.33861198729944 10.310767427375545 -0.46445612635975164 
-71.52743854238021 22.109994545733397 -23.18843283073814 -45.1769319103803 30.960666032142345 61.27670907119585 -43.826153659937304 -9.146275337076226 -7.260343577791175 -25.09570664874867 -0.7295989738813193 -1.804234074703542 39.59905821903754 -37.56070072324104 -69.72589565235825 -60.84351083097556 85.56558017817929 46.57999506135931 -49.90277444647171 -0.4322118135556986 12.637323640886661 -60.95327986495498 -0.1854184145227319 -34.22839271511032 -11.834018159708318 32.735526284877864 30.041469412405373 6.302660210969823 -3.458750891028052 73.55694794914449 68.13384701181658 -6.830847191016019 -18.906328165881877 56.186838038769444 26.850145794532075 43.61818320428169 14.764715132045682 -50.571014059976164 -53.8199159427536 7.4247896938031435 -30.08176316318825 75.06229680405112 
74.28374952061739 -27.968943627028306 -146.40106428340295 -2.9022375653074772 60.575463260454576 11.44239575048358 89.55925291136302 -24.884582780977592 -15.430699997284522 -20.07647017208928 39.04772694463052 -58.649564794608224 -66.63414729383392 48.45459825912912 -8.600833497118272 112.58342136198605 -39.97671123749738 6.073966961345188 -42.811589709339486 46.625431606186744 10.128858993353532 14.964636785992283 -143.94309383632805 4.662987200511828 52.23276816728991 65.01711364100633 86.00503257482363 -26.742995407259748 -1.513977130824931 -24.55834065356922 -5.951680907018432 65.98900525842157 -3.717049851648002 -17.831610456136815 -28.5292479717045 -60.50948974659299 85.69278252165631 14.659486368957584 7.889959304788487 34.597953104040535 37.959816873209526 -17.11178521496356 
22.43035720364169 10.87874005004579 -92.8958570987997 9.221985129881858 -14.994792868476875 36.38162565756393 -16.230819384068674 -7.966145338755727 39.72908997185834 75.51164337329463 32.12355407188402 -42.16323771705324 88.75296369951415 -17.40580628334965 38.22648378659589 25.486592894449835 -44.30124170694404 -11.213526516206697 85.70283268191476 31.925068211489343 -19.927685925939375 17.937075167289773 2.6655310918608253 91.97143805747075 63.95060817592968 -43.991891306543494 -100.23615528693387 -23.917908039576545 18.002555854486772 -47.79822475511758 -25.119948512790035 40.594323722767186 11.52335474892495 26.995589654477413 68.07302449779176 23.802608529393215 37.3571013831414 -69.56363994885191 12.963214643275029 49.121830201446286 -64.64971328587343 -42.63620882317028 
30.40862656933313 11.268366297197465 32.81151599418699 1.8084348975284485 116.9422590400369 67.98709513356053 -9.146839782471567 -19.657905492643714 21.479757931303816 -9.76379389641245 -31.71088451461478 -71.3944180225074 -11.986818095331971 -12.535082701679851 -50.92271372127574 -7.883499759564866 3.387699741672888 52.91004278754433 -2.824862715371791 6.049271850797 56.990073092630524 62.8797464639999 10.058025614536382 29.46215003976137 40.89009876380767 61.68194207348592 3.015225059409813 34.26743866910846 26.75298113516895 -71.27826917533086 -40.31270539244131 39.81048722161184 52.27620359314821 -42.057105792913106 -45.81054748100807 -89.4246781870268 24.419153884435556 59.840143600726286 -35.509044458495616 14.777744833513028 -52.461503750050774 11.070505023717848 
78.25151840378629 54.68749074598585 -24.755038127493446 -75.78110484989521 -55.53865261503493 14.762021146984043 -16.600117474106785 42.39473731107274 -17.83226756459355 51.711181202840464 -32.6880958909018 -36.470628464157045 -23.400404994263596 -72.0712980682579 33.03215834803017 20.048123283081786 79.09338382442392 -28.487226225613483 25.2680585061304 -76.09215225048072 4.2800401087436235 -68.84637696665929 0.9425534717697053 25.442316469434164 35.63758646920482 5.95185482781036 13.184913047089095 8.738713831333213 -17.138602633993198 72.52053614603514 -47.19917863663493 -42.67198538493207 22.962643960400985 50.390170092348285 -30.28766472700974 30.217395239245 26.31428554719078 68.2764737763183 -27.062292967946327 24.792560881546493 45.17050015427622 -77.81106152076107 
63.61776288354253 -43.53161749904121 -55.78205720246206 37.09079882526907 17.553540352202138 -41.46838006074309 12.664370209375326 53.021379167770746 -60.996698015072546 -6.73845972083312 -24.309687786180703 -29.510131542858716 -33.915846377658134 -33.69294706318662 -33.28919128926783 -37.42102951700562 -5.955334890446888 -45.03602877421559 -53.10510121360157 46.643446586615006 -1.9210159987427997 -11.462093217985172 -25.41389804578805 7.736659175815814 -63.921712232904376 36.77467492990705 26.54516000955085 -53.32589191119089 42.977859669544046 6.627300891048008 -36.698978176657796 68.91034323528078 9.062094112696839 22.659823997547846 39.83361023970354 -33.407834888247834 -24.486398921422477 -30.780401951301748 -59.64517189118213 -11.612683173136324 31.333530315148042 -127.42159263897804 
3.7980105770329735 -11.288978993137798 -10.531138439743819 34.09363688800245 -31.445683136588492 6.3219237320901165 21.263923122157234 -57.892939812027294 0.647963129006133 13.720293757904733 -16.59038365850512 23.648377689668926 -26.25297974057494 -14.652287493918713 -17.73083614698502 19.65524501266762 -4.417421046570938 -12.029697403312989 -51.10210894457098 -8.002071152032492 -28.663412682913577 57.302049194823425 7.7493275637649734 -39.3222087546118 -68.06464311952152 -62.78409440796095 -41.9644663732484 -31.625934253713833 -21.065959199085892 6.290579571935218 -77.24109012256461 17.33935783321014 45.322504330183456 -33.05028365222437 -77.64306992645169 16.10851243219021 -1.577188460824469 -52.04149765482958 -26.599400031448674 -1.6454847199183222 5.907343200736605 -56.87553621851573 
8.148534232235685 -2.5317694465456873 -28.77534990184337 31.88291351348691 -5.92373592082011 -1.9619112511169159 -28.151515455252703 13.149004914646856 -26.08821193514181 -20.244555032235123 -93.47686452093053 37.61120089312388 9.987463283787903 21.03445068075847 40.62710251419509 -3.118249316597992 53.11315527335309 -4.536436167155272 -17.100688917420275 -10.25447559357279 28.173680718676042 3.502281950479375 56.31325208628809 -31.063531004564013 41.73806008943445 -0.0051799948492383015 -43.958537665141655 49.88197863915095 61.363632651258705 34.045095685549704 -5.961788053507785 -80.58661850584751 12.978931897454801 -14.56596342978663 -60.04373454970607 15.290855688891197 50.70300559267846 8.864490499461281 13.922766021937022 -22.912842171231908 70.24762604849369 -3.21488713730106 
-65.36903829898233 -14.151812464184314 -35.92902959713505 -9.231505302396533 -20.949895493291127 -56.0273330824977 -59.0668990691599 -69.31733237519853 -58.40971968552232 -102.63357456992547 -16.046979045830426 40.5427220456713 42.43521462789486 30.881490849985816 31.636287164693954 4.785781253114507 -15.955711138924414 33.41163788246237 -66.31465780086627 15.250752741181254 6.0739422350736865 -17.48672954426797 11.163687056923505 4.529358440510861 -37.93522019125673 7.799289139485061 -60.713257814087584 -12.752693933562442 27.259528635914794 -17.41013964658429 -45.70409585029441 -35.04085054375158 -24.442399468506494 -0.7755324999440097 18.57515787601102 -16.543072319343867 12.920750683021687 21.962356890936523 75.26769618538314 80.41792142957041 25.487178440701516 -25.905853362643416 
43.90810936520504 92.38088116006051 -8.613090198339663 5.874959733380559 2.7463186814895217 -6.413610793452857 21.727564105292018 -11.612672133173577 39.091323131745206 15.740939498955296 10.254609161990963 -13.81526078247791 -55.752750510107425 -28.78027608882638 30.774140175055614 14.74996946804603 8.065517599484926 27.210864328403584 51.421254353416764 -64.10819491060181 -6.247970737863736 -58.91151913534821 -14.177432478608619 25.023335200768976 11.701183049123413 45.52543136686149 -12.574148165786648 48.38692869033767 -8.568455206347997 -58.29496895969049 -96.87738380231242 2.5507304639457464 58.888622959161886 32.703197024132336 64.23906128259695 -40.2232574776783 12.575084114750336 -62.79821496563196 -27.643704974123768 -33.74329005325205 -41.56107577029861 -8.970090250596838 
-37.48879847181762 -4.550079862969682 0.8013686279963842 76.79410203502152 -28.695631246837817 4.808138861507316 -36.76837765523463 54.533793133410136 34.561410431811474 -20.53277768511914 37.89658306292907 -10.792993442923928 -56.280125595235745 -64.7012804221225 -1.572494184279465 -47.85224287566278 29.13335928100298 2.570591461390095 64.99135999637264 -30.939056994499108 117.59002800333683 -17.763537353527646 6.420225064221266 48.71656743001368 107.6451867863427 43.4264468402127 70.41866162600157 -59.49128837158678 -116.01768467055766 49.569488712403476 37.763639985886904 43.33693147497316 41.8786082216834 20.43405166264832 11.033493894113494 15.894934699366848 -10.766257701623319 20.041296007087738 -30.754791314777442 82.83614428050836 -3.093628629403491 6.8675753846588945 
7.930381425569528 -65.68375227440578 -10.73461838148121 77.25908035482895 33.722926638212655 74.77729498956715 -43.607283406049866 5.199526057369281 19.53391279819565 -19.516784837545817 -85.85986443123682 39.4530933673386 -11.744261487241696 -71.70785064490494 -9.545400341983184 28.261579297554842 12.186929699341167 -2.179724034678241 -57.28903975162737 -43.43957507845224 -10.860699357233699 50.083193718974876 34.08304740882246 31.060046761574963 -32.77080324298423 -0.2424782449535822 46.360994222125974 30.63451117019679 66.76077895222718 13.09110967411717 -4.266733110896675 27.012217357973597 117.54219725779275 37.757013089758054 75.75516309743797 15.756774227416011 30.2277470994349 -21.50514969835632 9.515042429262138 -28.577350280573413 -44.12860212610444 -64.60439022100044 
-59.56198603088281 -29.212754944178684 0.7790684098037117 -37.10007494784621 12.423000018098454 -111.38146953992916 -51.990385476061604 7.872984507652736 -58.871497163842314 -32.9332579010128 -36.06393561205013 -10.784865098611727 0.2185007408585025 59.25984172444928 -8.129016129966603 6.218652381829233 -40.665860602247115 -45.92102308216304 -2.7183324271710165 52.340038483350696 -6.8283390336511625 -75.48210584411616 116.34050995665302 49.2292648616812 71.67081964104108 -55.59066997640253 -40.56395279274445 -56.79566499459259 9.621955133675485 -76.4794756022294 -9.82031889185993 -52.340737186544 46.181928071453655 -74.24894433728312 48.13968350423573 -8.93826361558213 -5.219073316134736 -45.73373675770118 -24.636000567617675 -128.8730072252554 -98.38059638063525 43.21256246294344 
-0.6210954412539247 -25.847335929314816 -33.96474895966365 -44.73421607675964 -122.76741088307398 -50.74755082747885 31.913415727536442 20.646984305244366 79.77428182259979 -14.398327612020386 41.584995884898774 -4.153931256380214 -22.812995736489547 -62.69905473397467 50.13392472948526 47.69267203577205 27.569618049451996 -3.645852319407935 9.346346494967637 24.781976983313 -19.936261937404353 -5.519047238981336 -102.80214087435927 2.9154180487202956 53.11484565306123 -34.00161055414197 -24.853008058853522 -17.665614161530875 56.79202940102665 -154.73181318909124 50.01553384819553 -12.048441556635659 34.40659635961801 -13.90296650486709 -3.81781115055413 28.471293107272963 68.65807262713358 -8.300886867951979 21.293733738623228 -8.509156478053503 -62.174547096070995 17.8361408182776 
-65.34809320519818 73.59594530385023 10.317517274600801 70.52834381222087 81.34653902741218 48.928215690066395 71.54387069352106 10.78883402205291 52.44230562608904 35.45444240949356 -52.14551712860921 -19.51043101488056 -5.277447902364788 28.6105980947075 13.35750837030123 21.90653191961712 -61.53959786783747 41.93034036147794 82.68707678270009 -103.498738273602 -32.72759034112691 73.10026115140867 -56.55084184759652 14.565050923764828 1.2917627427757399 -49.446971045260725 60.77004029641009 -20.660635100118245 14.257650048543242 19.816492520467882 -9.109402645755498 -61.14077030672731 20.49851378758702 -76.9254167012244 17.683648647833966 -7.609206890204421 -43.35727612618239 -6.611927140475967 2.2850347477852657 -32.37302357015973 0.12064863202891005 13.292936042134109 
39.99221905844563 7.468389907881639 -1.3547022222269547 -17.82004100588216 4.894976559502611 -37.35533043840509 27.56482667846429 10.406581394341908 46.864030081342335 -71.93151422776535 59.651999481551286 -61.914659336777255 -9.028652432930874 -77.98069820185145 41.174320555778344 -31.53727407912313 49.44592896975975 -49.68340764754326 -15.22468472382515 34.6684087881132 -43.291702943873624 -9.92821272963119 89.5530301898648 67.85340546324561 -39.08369178872585 -23.119464666153064 -80.4124197045488 -21.605495442656228 -37.685753990476414 -51.55984590413868 12.664955634471989 -93.23700937736078 14.972988520688151 27.1268632045727 17.102602736547414 77.0597492133012 33.239179587977645 71.71600493223393 2.7312533958663616 -6.862596578231826 37.411404236221365 -15.306066427518793 
67.57336688621272 -4.964058003495012 9.895256304524532 -48.76476894156109 -32.499895435271924 12.061501430566405 7.820605352530538 -64.19462103843496 -77.05298544319588 18.916799585702922 60.09576313275569 13.628446640840803 4.971526282939787 -25.635611415255976 -36.211946039828824 -76.43379739380815 -10.468091118857064 -4.037651644838113 62.58565942288529 72.1036668424057 6.513023023198278 125.31418857827326 2.6245735636754026 -54.398200237603405 -4.527614331213622 -13.709975497097878 -107.94591666878183 -57.44414882700478 9.355104002429334 10.826395221109108 17.427254568164255 10.528565722648954 0.7703883130291997 8.007886788660157 -24.974334719008034 15.240953726538333 -88.61535691232186 84.02807890947476 36.47234139353675 -40.200193354734225 3.83360885399432 -71.21096074013563 
26.750986309183183 30.733485672377988 15.503503142139822 -9.71901676824101 4.013848962820299 47.24977681172005 88.8255183447938 17.79897596952259 27.278380559806862 13.560985689788753 95.31548744137037 35.51760460313496 38.48572242547318 1.171961628369845 19.421635500514064 16.09073600401992 78.69803819360754 -19.125526794755917 -21.665780840233108 34.9262076671534 -74.88991315221763 25.788242498125577 -50.25363560852501 -59.64308083335528 31.810756552831805 79.13428181626503 -71.15685381854463 35.31475608695655 21.756814977305055 63.026794927914835 53.69061764590354 -17.103724114101865 35.314382631713826 -26.66681933233246 4.774693296806594 -49.58367349119829 -25.816589319413097 25.879390466981125 -51.45047690505925 -35.937087731498394 -84.5381717838862 -46.2232562491784 
-93.02800006677431 -7.977888807493651 -65.82899585685908 -35.91325051822119 37.74137759402597 -9.922670504823216 -19.708359960334658 -9.082461680047178 4.552982920810921 8.524463130713329 -19.535335127944013 31.673425172546708 -57.15543877757876 35.86484134006166 44.89203875643141 30.54536363767298 -26.316331079565966 -75.30063065573496 -16.13551732943667 24.231741737881936 3.208042842136215 -18.94318452712858 -92.26731567302863 10.414324794047744 64.51169406761055 43.63034092298273 7.069391932047294 -29.94832451690675 28.387304122287446 -21.06056851547514 -6.58432613703519 -16.131321113039267 18.917972054395857 -96.29481358479465 -35.35208294534577 -10.01792997465027 -16.60662749958298 -43.5255033422426 27.635688626177505 10.93842870475298 -62.55500589083697 11.435460017405687 
-102.62046539680223 53.78962625147329 -21.31513741583206 -9.530175806580058 15.094320972248829 -2.8884669538013257 -76.58744497276244 83.65234525980419 -14.103506822989276 -66.73822077537957 31.76917364299964 -9.071650917015868 12.804608813089473 -38.71203123947122 75.68609826075937 -53.223665764530935 -90.63837695428587 15.417469093077713 20.37165666526472 -37.79572405431067 26.88562885327934 -20.907109938453246 24.365440167938782 -49.768573918840694 7.262648428184377 -20.377991605367857 -17.564255669964243 -67.40070527411146 -37.86794834650308 -8.568857395940155 -44.294606499701786 -83.25287008521384 -20.90468592820724 70.89962962344262 -101.06683116032573 -50.86613274096826 10.861656005522786 -25.365022003324125 20.006802817340347 -66.27730619206324 98.15563769451687 31.68638408720012 
-67.69922629820668 -6.0921865551331535 -20.452476148486575 -2.8773061519100103 -100.81291843714511 27.73802837713556 38.86573668751595 23.651943455237756 51.548270146122974 98.85942235037004 107.71237004234166 -15.824067543845114 17.185638599209163 23.271462333945347 74.57722912016433 -41.533188095624894 -20.230280712784978 64.94478410214334 -36.418234539916654 37.63234867007696 -67.17608406136355 -1.667965854577864 -54.997517103324725 -5.744545225423628 -5.628762178279305 -46.05992201645539 -6.958879512258436 18.620574712209425 -15.741772199022735 50.797149276085065 7.072131331552794 7.442708184667488 59.03971525781938 -93.95114448937304 19.497222500162852 32.593592718919595 68.75729451579566 0.5317455821926919 -26.60848237613764 -9.997240943544368 -64.80281840454869 -66.21777081488254 
43.606348047797475 -22.26575598714153 -81.49714909488814 -49.99275284547943 -86.7076959026784 -43.21058411259365 33.396937839839104 -4.515848144476282 62.426600940232404 39.3420572430726 39.1691456566118 10.8349412358485 -14.739868554002985 40.54338054315336 26.669656538231504 -3.3048471157692867 -20.851980491158947 23.83696101168734 -22.24536208971662 45.01372506556839 22.534361028005414 -46.9036745467976 10.607662093064668 -8.002476754313433 84.21119985311597 25.251255980350063 -48.64397094360107 15.052997875523262 -68.17622768856275 70.31250468703287 6.306599690070258 36.423934961463765 -35.072312004195 35.519408955603794 -45.111715063039995 50.45149636907931 -37.20582874470857 -30.885579969212056 -69.50166855958263 -39.430214747425914 -46.133498230447984 16.55997701308364 
26.322391219397247 -6.607461857840675 -10.269172314076215 6.180568812830727 64.41567594229319 82.33433706627976 14.145995531166374 -39.162889196963874 -63.650046525374194 -31.48754325408687 28.84933070335313 -25.44430907286017 52.820997737516464 -8.460745879726183 -11.239317128075513 58.36908975709668 5.388407994491166 -8.750361794141842 13.831351977589394 -38.17529458009289 33.20474329032855 11.437590965755385 44.890711644800255 40.9187240076225 -45.45642021904809 20.003473808398663 17.866892914719692 61.16358377606684 -44.521507205973094 -38.051169731750385 40.211487256235195 -57.744882750055545 10.583460630298843 9.44955118267174 -32.692598538126234 68.56658705483311 -3.337575146826116 77.65054005786513 -40.78004448130306 39.757420728456786 62.27438952887778 -56.086482207649375 
-69.48553294380419 -114.91746447301091 76.4864688931965 -19.922338808423326 -27.01376989632586 -19.856704306118697 10.08364865835609 5.415752716540057 -61.0545742163611 -60.61947130722692 49.03662895119621 -4.0453344423170075 -61.224890977251796 -8.315251572203039 10.377013510020733 11.579667491983175 -43.922173322480816 -21.175651103386244 -13.738304612983159 30.145061551311233 28.164904751161778 92.38790569921315 10.860302539293492 39.41177521177581 16.30581747821606 55.90739676913434 -7.42010152277513 -37.23947134766826 22.49953651860878 -25.50515560967943 52.62490681913999 -40.835856857419245 -21.301019735191474 -7.022935602318555 94.10007602504629 -64.88170339341062 30.65489760544916 -34.39449219981929 17.36396465525386 -50.00288748909889 61.93208079467468 31.232805045285197 
3.634908496807597 -0.36622173432505933 72.56456505620622 -25.08405181772005 -18.8045902162323 -0.7944305463816779 -63.37917758055864 -22.66687386313798 -85.89585200464286 43.45254805977936 -6.547483227560108 24.82741764543769 -1.5589562147771954 -38.300898674027344 0.9792222099389581 -30.149808989567543 44.46634756378172 -25.714968853555266 3.310355826509452 48.93180344110835 -59.65667023490259 11.22235080661105 15.152980054124246 106.22232071175529 54.28985736034557 -29.946429868311167 51.2930590922673 18.439886976844857 -56.16675909868519 9.974025674983194 8.82023691483181 43.049249516452456 -3.229889896789895 54.56728996764188 -42.918229404634914 -99.12764572641684 -28.233624631832004 -14.120089448632074 -47.75005065412341 -63.4889356666347 27.618569868539364 -14.10869606628232 
36.542582459164244 22.029888359622724 16.714609629018767 -64.66884147711428 25.504829559434498 7.473479148758665 3.149384427284292 -12.933005129429988 -27.4416371804408 -6.370999714235775 48.01464333074218 -49.67294444773123 -55.2608262040464 23.745854036608424 -21.927067395360062 34.273749307215624 11.127290467498204 10.621444275964663 -6.970907314581289 54.0953609483301 -1.3804738866974207 -34.85990526116529 -60.29571708227475 -102.50456548839107 -26.91584202555158 -85.44471346104179 -17.443973056325394 -32.54671835112376 62.40052876236773 -5.699957630744465 -0.033617712187959364 -28.40412341794041 0.5643008957778283 19.281000103203976 11.857461939131124 -14.683446973245623 -21.51945828678183 9.428050192355983 38.51853186837664 37.074746443527424 27.08075434771671 -8.625585918461462 
