66.27318723993571 51.593714933338894 -10.94061111317657 -8.274735328224914 -61.61651311381073 -7.68941803150944 -58.17511265856847 73.61200463824953 6.112141397668721 47.551404320593775 -18.942117091223576 10.999704286866288 -53.09676138731327 -4.406054639653959 15.085010550294305 30.563062355674127 -51.66350628643216 -64.59871388609557 -47.229304355426244 -9.09540910127642 -48.06505963167595 1.6841174876215483 -64.73643609910619 -16.51527257148104 74.48627070000015 -24.153857827711885 -8.22555169731728 16.62777526169015 14.759331225118336 26.7005996718029 28.75926388022238 -33.95190776104146 5.678595269664128 23.523931375032365 56.70636118447903 -13.881748756012339 -10.318592222717836 9.695708489086996 21.712841145106076 -25.60290759013747 -0.41916745685591994 19.781534013492735 
10.367143194327705 -22.946467575698517 16.16788808637963 -32.89666293607714 -61.18582262693856 13.587527933093371 28.635220604226166 -50.52431549247313 -41.67151824603666 -36.4941927921162 -55.97181328275694 29.475024737528372 -7.066099756743629 -11.687002882481952 9.35441084312768 -46.54401807881714 -11.611133646443001 -78.34457947955488 -39.518391446221216 102.28245201289077 11.238266689885418 -63.024033870511914 19.737133814724356 16.03012868531049 39.436451657448394 -8.233539990663893 60.98880630185839 -49.822402130335306 41.761682522810595 -62.25018126027594 -107.93397343739113 102.71454180135656 -12.447733372374683 -68.9751814952573 18.895905079600496 67.48418018031515 26.195893287421114 -14.593939865797807 56.62418363425348 53.87410392273223 16.04640884434228 51.77541403310771 
0.8351145850552625 -24.098160680572043 -101.19588101863891 16.327703205627582 -53.09646808102603 34.83452033777454 -106.90689461752066 41.084778533808745 -21.76489747217965 -0.748013983190343 11.700857065750245 -17.80537314440479 46.992027087176176 41.58421787566782 25.72010762587787 -46.93499343971864 31.897874589573256 -19.810092949511503 17.627115836885512 91.22472712052584 78.19056949604231 -23.648912281058752 -5.270747816251859 -51.84661219330957 76.15815643729869 -48.12807267253744 -10.214937995567723 -23.05391301002337 -13.18343401773917 113.92040438943101 -8.09824281842699 9.862619983098572 65.78392510248926 64.77132380103279 68.30350909573895 4.287162784634077 31.66712351245098 -75.39168980341049 48.40431415109796 35.235243890809684 71.613173291657 65.02962744043789 
29.528179380663254 -48.62550094946637 -128.26348841444664 -30.65509090204691 103.41020676146555 -28.334808086528792 -104.87857969040638 73.9641612428978 -18.42174031163629 9.613252833483498 21.66688166992169 -1.1123006674595752 68.47822158195247 11.73721690571862 -28.69880043438088 -15.816846551898866 40.53999978347467 53.667185284904384 -5.65324579252296 -72.96782922262753 -31.612063438232937 -14.037555736020426 -34.96817709161503 -6.252003102818274 -11.898407403373948 -1.1591787375121307 -9.984375591045184 -55.86665891814742 24.44450735993234 33.4242291273461 92.84090908096228 17.78774916958239 -137.87993020860782 -10.805545676300863 57.59671357056939 65.44380738212604 39.44419599562003 -11.77133216622727 -61.396920642874434 -0.9712805826633565 -44.94528240036082 -98.54954535153972 
14.878988572894235 48.475858684890724 65.24534142306999 -68.4023511719381 -17.73294935821924 -24.053358524036376 -25.39827712748305 43.82067299300223 32.169217327740185 51.738142166544385 -41.85761669311176 84.07320218370135 -64.333848881464 4.283298452405704 -17.835313309106976 -97.7611132034049 7.2425632324417215 -55.39307391692443 76.03299804650989 10.45512003141505 -51.935023621378015 16.92526212167065 27.11805617948843 -27.54817659713029 -74.69129140352734 81.75347453340312 -11.854420295501006 39.85079592839304 -5.536684235203509 -17.123402284162413 9.133830353843354 -58.288071455591 -55.279886997050475 5.1676568144934585 -84.06203539771091 36.98835409820126 112.9823230937282 -55.310226572410095 -13.466817127572364 46.323509264626104 -20.310601145503377 -30.811455492489543 
5.088806024037539 -38.85525833971696 -0.016807777991340398 -12.384901569748607 -4.452062120377906 17.04548938507553 29.42244680532624 103.38920101326478 -92.57594527913658 -15.272365278503987 -32.369759691470506 -43.31863111735287 25.56112002780843 -55.904240807053846 36.69031173409133 36.012812542063585 -102.0408214656296 -55.29345623986877 -17.474266083516806 24.703234596153248 -18.81274297185585 32.55385586745308 -29.733588017369772 -66.53452825074164 -12.986712084335387 27.773784886696205 -84.38671215401119 -20.642245387363722 28.885229443663444 19.941616163962046 76.95559166158132 -47.710680468554926 -72.59922992328568 -44.722553335526264 37.359107026468465 23.57820696570022 12.10680489811854 20.730997330030274 36.162908173487324 32.83816778717802 -5.576209655229313 9.130434634950522 
-66.32849568870829 -120.20795210979588 29.88685800567742 -32.454927935679024 65.29416218958359 -9.028831146612566 -35.48059197523562 -36.558683894098124 -70.76227161959501 -37.831180560628496 -53.19622307490357 -6.277811566535182 -7.123642691012112 59.00884710340386 -41.79516789930285 -27.256144409765525 -82.87250393784691 51.967963459837044 8.672400160891952 28.960282619226497 24.153884810585314 -49.4244127728993 -12.377489218763577 -27.754898080984464 16.56968934768944 -72.85070422004956 4.178682217475398 27.531609697186745 36.38159495172523 30.41510101395861 -0.22054763300288172 -52.4831900322007 -26.96258808567661 49.936994703523744 24.57840258666008 -104.3337106215043 87.53225425586504 42.56506189435555 8.329759234891776 -20.7299514749227 103.03201220168377 26.332888720805673 
-26.39232068411564 29.39091836379046 46.374944950678284 -17.32903203259038 -52.18404319384433 -16.862755925616764 48.15431980499311 0.109977439913348 -51.11608064299104 43.44319748068259 110.20399593395744 -2.9962024687623483 4.859648157669511 8.026621147475261 -61.56722660924556 -7.095572998092185 -24.898973110676923 -1.3863109269411489 2.031436280561672 -35.0133053425695 -82.4723071344437 -112.59128765986759 26.02229020602868 -70.18117243797111 42.08541513068801 -4.382379089049394 -39.22223181532364 31.592339423421084 -76.91629884912209 -9.930414159803526 32.813122162585316 -99.47543086626114 21.15107823401541 1.5548830588673237 102.12213266462679 -39.02965563239268 -19.702734493221875 29.48322224546517 -49.56100230615518 -67.53415137431122 39.98916293209701 -29.102108204678558 
-37.56261850502752 -41.233080362745405 -1.8596868878075974 51.41893130640831 -19.399878141467227 -43.11310986687448 -40.82276702551247 -28.24663810215961 32.80923042248015 -21.795292634895628 137.83150974451397 -21.85823194827604 -79.80231661270133 -52.85260856035294 -31.78985995049437 6.735680275152617 -36.71904028224398 -24.95642382604308 122.33516108653829 -52.01393578132598 79.25678113933499 -18.31542149831577 24.22871737371096 55.75067275394105 -21.96186687230785 3.098452911196209 -33.606515161589094 -17.789976991708873 14.403578282796127 71.87794296040927 -27.644995471062053 35.289947752133436 31.037292889883055 36.8107243922303 75.66831406023692 10.923426877338066 8.72396420218127 72.349114617783 -39.19922390434442 -11.175023130111912 7.503023197665668 18.58076624795859 
-53.4248252008627 11.507533183194214 1.6297259517260305 96.30663976631658 -51.78351312220197 20.723545673099483 37.28402280641534 -10.495048530192955 26.852462082701216 23.38301293922807 -88.57838948154054 2.0865123884106644 40.2922966409767 108.05128813083518 5.316902990466042 6.474829823397715 60.06039423300515 -26.094189524036338 71.85410613644582 24.683310818046486 26.531565007621197 -39.39336473806789 -83.35573874478187 -43.3363798061184 31.081271172982426 42.135082960703194 -21.826225108537933 -15.115087101383498 -54.49109725550332 24.41589118578321 -69.35760142715971 35.548424607852404 -5.528731342938993 28.640553301974087 -40.62729544688144 52.0902104610278 5.523355511222398 -25.86403867571804 -39.736986436915124 -26.071001840193716 -10.974149140932756 -0.48346690468189973 
7.373252060402911 43.99940010715485 -16.02805778905129 -118.84359267290252 42.04164227166597 -80.17226636616978 -25.35080554451105 -59.83341528239319 -32.638920938996456 -50.51935997016485 -16.107806348171017 -13.938017987879638 2.3000204321849167 -24.38914840932985 5.635029113212331 120.53247633489543 -57.75618115151254 -32.97685831788758 -17.015746322217744 -58.11529909432998 -42.44140555915652 28.871807132220194 6.668169389432821 30.476557374437643 -0.17863735016253468 38.19167137414396 -39.20215289348821 71.75641979805715 40.02444077213581 43.483068435926114 -19.315947401171734 46.429215267230504 31.944741065210092 -61.447668874312406 25.70963742306258 -26.062360237527656 18.630475286472798 61.698043679209995 48.168400162701964 21.817181684780653 -90.45701991684854 48.81010288886871 
-28.764957114713667 -23.496973277346306 -49.06902881591515 6.520291825195583 22.15217575559667 65.22604876491681 61.019289624882404 -8.852809955528189 -0.8785325223970889 -18.58932990871105 24.74638048208741 45.3385674060148 -16.411681943799586 -24.319577012752223 -0.6782928783804364 -18.194289916602443 16.2372153937432 -34.90741255784474 17.27075636752097 -118.8170141459958 87.99973531734577 72.13598464225484 144.6196286155898 -20.501171548104686 85.28050650472079 -56.864850806073306 110.90012765483898 -39.894083261902324 74.92449379914113 15.856467215763953 -14.364740922220182 -12.823234003550004 52.25032984895852 -28.69868652767408 -86.53990823155357 -22.308971845833486 -79.39418725406433 -39.04668019473698 -56.02233268923555 28.82335678480457 19.425507342277474 -31.396279954312252 
2.4116162927889535 58.366601367201 33.1646380443013 -30.619141496676182 6.4046135531579 -13.398088188564179 102.85502901918596 14.042336321655561 -28.259911457487867 21.554557494046477 -5.564965311365032 7.480025437793191 5.194887942389467 -48.60910898080703 -6.163412364943635 15.508150873606507 48.755460477558756 -34.22064028243602 -24.84740382120607 -25.061179664152675 -7.658913437296158 20.33678578028717 15.705521150041335 -35.427262489322175 67.4236407182308 45.58721763025696 83.54804054045795 -44.89152934754154 -76.07596158381196 -6.555379214856043 -72.34671095368694 5.378112018798805 7.829497760815937 -18.657752302629994 -41.94233445328568 24.678051196017908 72.68219436922074 -11.828722455323673 2.0900576533744486 33.20165187615828 7.832587564185691 16.806315433905034 
20.439060259307844 -34.99687811874849 -16.529930265421264 -40.402869167897514 36.81098170998695 21.683387253621675 12.933936007380947 -8.02951288113631 71.18998875375671 40.8810055563947 0.1213734436730612 82.37991382506706 20.154223538742677 25.506725490197425 19.072963609892213 36.25082151170144 -78.25193527237933 -60.86085329373723 -7.876113245466173 -48.160277765216776 -15.049175686415273 29.160323044584217 66.12338675213422 -5.8626732000297785 64.95570990248056 -96.06686939169899 -37.095425041021 42.392556994666094 -40.1965387112517 13.50057391062649 -42.81368105271467 -11.422959821410716 40.63232997718724 82.43627953574975 -8.411465115444193 -66.88296998735352 39.19233712101187 37.61709226419863 34.78921966114508 -47.91003298361833 18.717903277993702 -41.06860821326613 
88.31195217118336 -9.786530524908965 -16.848535751826823 11.793296587462361 -18.715853728166167 9.692669103325196 18.880676601988384 -14.380228468910573 -115.90744242942496 -122.35974211087752 -74.03365059489423 -11.427906052944254 91.60895878509197 18.69442915276098 29.06620218320165 8.696477848595189 -1.2564942941797355 70.25856043561619 -23.827392114025752 -71.05615814115502 -1.8741189523075217 5.628845710220729 50.85214823115657 -9.634845822932947 55.00094512380096 83.16957085725042 12.561665236308237 10.79953365594686 -19.10413318393286 107.16877271776703 -48.11346450941603 -60.50116028041162 -48.19497016661097 -38.832574758102915 54.55189911773398 -19.779651814868416 2.958979106389039 -23.14484686560389 24.250276869717926 76.82735195050181 5.714665801687072 -7.65533567926027 
3.8996695766887175 0.8918345549305142 1.7486893484281254 22.50252520853207 -10.396545825637832 -4.373680773968107 -79.52925729927281 43.99327334648207 -77.00332573389335 -65.40180243521081 -65.22393184301693 38.289103672112184 -92.56549197361366 19.516187275262464 26.153104042711075 -38.817295177306534 49.418262641787784 40.02480467997857 61.77919479505015 11.959913965394108 -119.33198189045231 21.882332049277366 21.959124509108406 42.136146568271656 5.868592719515014 6.149174384843961 -52.67290088579431 27.522368946389467 -18.241014064180906 -93.01935901130618 -8.700887613281287 36.6243162392313 -6.30279554591408 105.16213704694476 58.99581663419429 -16.128891998761873 -19.696384047916183 24.521603949074244 35.003839401638004 81.50026757659377 2.8808211670539987 59.11685920579684 
73.56347947919869 99.50178787114919 -33.50515857516583 -58.85635561232361 -57.43625989655714 25.50128990740698 -53.98851621391692 -38.26529557032111 23.677997449547817 -11.922881202356672 88.2493806181655 21.45726365806798 2.7780642289222195 -33.32255798243629 104.9693878299551 -30.344495002379624 -47.15839777694297 63.96474781680434 -10.287843718649263 -19.568148432423435 -37.54339653121552 -97.93952938396394 -4.3915736325138175 42.40591910199712 117.49668985555061 30.27294465157375 -122.41806087602212 -28.166066325132775 55.309344188960786 -9.999934127008693 -17.18155899108434 -73.58555753728649 12.90753288093682 49.75670681242085 32.958966001619125 8.273547854033485 19.49160597303733 2.079848909021276 2.0991161928126063 101.51519213993336 -62.103314241136104 12.366528642702526 
-55.197902006259056 -77.04875924669946 50.205061924871984 17.00252926278244 6.7081050954118915 21.67846685866861 44.34795836161143 -50.28514144658867 43.96284913522047 -44.270701728024484 -20.053326319020698 -24.681961830309923 0.19993295503013875 -30.617234962385 -9.418613064104466 16.693826550886058 -63.72657669381463 -23.43916233544161 34.16728945170349 28.63358621373699 -1.4867275478401711 33.54625959038901 131.02962052018634 90.1737358616562 -39.23503776917401 -14.28069466064143 -12.652267883977714 -30.27602864195582 45.73941733343526 -11.219426713399805 46.743046663270604 22.552213582807067 64.35350788951172 -14.473465242166785 -48.52827735290109 -141.38073448731842 22.43014647697655 20.212266292993355 2.2524501295649313 -52.73884403545748 -16.058182664359506 -63.879189947077165 
-62.77155863296644 77.27131776434013 -65.43731175127749 -5.307625073995628 -37.575125295361175 -87.33541978690522 -37.66627849222615 -25.017317324850342 -6.967136569441255 -0.6893883102261974 -55.7884208014788 -99.4419972266495 4.810695004720652 61.18871248750547 96.22515679123728 -5.692588315116934 -77.02670887708308 43.65363550489139 -43.37220149525371 68.74782261990349 -8.822289754953054 -83.5795204691323 6.962915202554157 77.08943359596965 -25.95949868118798 -44.68460252343885 8.313441937414478 -29.051756131594086 60.71763015522319 58.74021907551434 -35.289902124999124 -5.600041982331217 -53.715884663483045 -18.219661723444506 12.847928502576298 17.17006821039085 -0.9349332550001082 69.54876950850172 76.62392205504985 -0.7196718598467691 35.21704001792672 43.2465974086611 
37.7872877936665 -68.11895376484081 60.98987915053952 62.1460913017615 10.774066155263379 -55.20528948324312 7.158143330745281 23.90256595306843 -1.478238229757404 28.120686728148716 -8.936247604640828 -3.788385848911522 66.56150998927063 -13.04892230360743 -21.57492301218189 -22.767203439575614 -23.08625283581157 35.46557697476655 -34.50777252565969 -27.044560618105788 -14.220137503199279 -54.68453681878959 9.121409656019939 1.1389252783367543 -17.04633093202887 -34.47019619493672 10.80104472825364 -50.98973849169329 33.86117013432309 14.037584080566447 -76.99013992854313 -39.17296115318155 -2.9982029124114864 -64.96455159221141 72.5754254322776 -1.9298335216297215 23.540605568086573 -10.40486080305239 75.8808757089211 -31.908580584467863 29.63999793315624 -72.3123986881261 
-6.660212725915438 -62.03368828177564 -15.208263803997216 -50.87147463654217 7.763154342744957 -2.513566942627551 -97.92632035806332 -8.683405949222488 19.38870584301684 -35.818722457690065 -15.631911395418012 -38.04408682288387 68.60951010851043 -33.58213478387489 -22.337877333968276 -22.03977481928618 28.877087840925245 0.5627974204765367 41.79341880639386 -49.85421250940331 19.468754947895338 72.60550152853772 115.16867773615479 -28.501626417526715 14.706014968933777 6.467954662535538 -67.20575895149464 8.079547721422493 17.12306489430413 -1.8855219409689785 -26.131618317408098 -5.692539267751491 -22.39448715465535 38.38629918019762 56.63591808828869 -39.45237317661857 -9.034540414971179 80.50830916783737 33.81402805757578 14.644816716849828 0.7024131546078303 1.431031573766623 
-33.38490927285406 -42.54550827685095 -15.737501514156147 88.65605063204 -25.552323446476006 55.05017294630832 63.87067495745555 16.351619729508915 4.0281290063233905 35.64753241306013 24.016778827727908 -31.153625374427296 -24.221128082382133 111.83974790327385 -3.103865283824434 -28.037743489822816 -33.71284825983149 49.6041338090653 -14.287171648995459 68.95578987356883 77.37571042784099 1.646162517146649 43.981968771552104 -44.911315752899256 9.903494980057497 -28.628124541502068 -36.30705218288328 -48.57433977372728 22.03786380890162 -91.77479161021186 -84.60772543388583 -46.019425773446414 20.363063117671615 -17.515395227396603 -44.56852796019246 -61.41377755815756 12.4493712600729 -12.028135914526258 -98.20563902677188 -39.21595038230918 22.141005418738708 -69.08561927605153 
16.733286875204797 -49.50432104125855 100.65529148718025 -10.848841309333338 18.884406880729987 -34.23693243155262 -36.8196945028563 23.332167388266235 -40.22914422811507 86.68490441681328 -19.254060002822413 19.72211517842161 78.72893835325291 6.489013610138634 9.057110582817364 -47.03179777475315 14.600432177864947 21.17765582534195 -9.078853895636218 -24.60914639445341 9.377839935735288 26.05997895461506 -19.172347189097618 -4.644933544912686 -13.126903225413528 12.734477504383124 -25.966725321809538 -35.11644058070237 -98.76754562183791 -58.27084828249106 8.497904801640164 -27.311804666917524 7.255813324213937 5.4393409274597015 -44.521582619102 -102.34242684088095 -49.076623256364904 41.2745092582825 43.443873596651756 26.02687028708398 90.33227224189645 -43.556967809685645 
-9.646432134249803 -1.8924997345007024 -100.36593193730747 -33.89862139821145 31.81262020223278 -58.97830278969519 -29.22896477322281 -36.0559435666583 0.6705684980868303 -7.531372804703922 -1.1931256957167453 -6.271968642519502 -1.9091300284300563 38.8637052923362 -66.35486679103694 -53.92755068300635 114.108200174789 -8.0871863065379 67.09989669894452 21.673649130549038 10.96053607602183 28.642225071168323 -39.205457139239066 26.277913931020482 -21.18023337319533 -13.381499322648725 -49.02947670846063 6.693448910045016 36.277876486087365 -31.03170286123388 32.76895280375107 -23.157452674762645 45.17818800890568 -25.226132732515094 44.44445018531326 5.839085577355935 -29.90100402234217 4.655098072556294 -28.15580535018458 -15.27477123397043 -74.19431307529119 -29.967581379767733 
11.909994923238045 -39.21309143480509 -79.9146564879596 58.39465188089854 5.773503653279876 -53.657046402462015 14.231848885537538 3.0847143725755033 -64.2257461553959 -66.14764136438025 -6.414310092782944 -20.92226590324254 -12.80092094478026 27.48913632382051 -3.573750138669838 3.0252946680448205 2.7320762916667665 -14.645247414188663 -2.6715752691992702 9.56194392858412 -11.456195008842773 39.59604891192037 25.870871699698473 118.34845729712549 0.836522579239623 -51.842674996298314 47.02005944971016 -27.25513259110308 -38.57124376214261 -4.834632744656071 -5.4036246812068045 -34.47214357564601 20.604358763830334 -13.097992333597242 105.76127828890512 18.20312581869229 -57.11862822059448 82.21761590066478 -49.929820939125335 -109.04303552038982 -25.39820314857629 18.21665653570429 
-11.610171666357509 77.22310649980993 -1.4013280668630186 77.80826194510621 -7.828513023503111 -51.53068768886186 -80.50001571519812 -13.429202258151602 5.358541778703414 -93.83417132139367 26.445503336269635 21.49653131203367 0.10605189705439155 -41.4287702733868 31.364129139582204 74.33403220026996 21.256726243593018 -3.3302769198149447 13.593424320678352 1.0393054537908408 34.77576857591326 -20.718506380803092 -5.1809609437822814 63.34214951982239 -19.918976281154503 -16.577809249913734 6.6243625208945875 -38.57782932393026 15.99148701582258 1.417268218749532 -58.03591300814858 -33.428319252901815 -16.281813720519423 -24.616127991342452 32.78689863501941 22.114370529721672 38.619538633422984 -43.24049923939402 88.97109975424564 31.88911459386392 8.487251326556247 -36.11006776149584 
51.03103019517825 37.26715381180055 20.113804128182238 -93.81377748035575 -31.859306289514425 -100.7417313416032 11.582597273838223 -76.51606729512724 -37.47587952552053 -37.745342739102234 -88.29383163941301 60.80488266558446 40.22141610527367 34.041417834184564 32.695407270005575 -9.633182414842256 -32.878343178479994 57.892847536665336 -51.205550644752535 28.131261507585805 23.93428829614092 -33.03960307450044 109.1521990505844 41.316948984462485 26.429221294350576 64.24220692277441 71.98414836004068 -16.298956317937364 -23.7853014761521 -17.279529431506614 5.349724201752652 -46.60492158957276 1.3708850373933317 5.800716579613156 -33.09929868271522 -4.337756572110862 27.784162603305855 -4.648850828960611 30.217025916085902 -3.4196504137161248 28.01750963795869 -106.76174556772614 
108.07381627748387 -41.55702478543271 11.813757883117477 42.6306673269289 0.8655896000971546 -53.15306832452331 -59.52484471370156 -1.2712908111445238 18.40015049716426 84.97871471507109 -22.09741686897264 -69.42782866734055 50.31243117265428 -44.457963494474356 79.35668419335563 -40.508351915267696 34.331344073912206 46.081257960083654 -23.861786068557905 64.96869311250317 -11.768929399584724 -27.338310230550988 29.00010444697911 -26.222032322202022 -0.41698185250603154 13.319291649771243 -62.65175822154686 13.219062795231483 -19.799012384884286 -89.98625073088273 -4.90765660865177 31.663927852111524 -63.16186161470735 27.92813098692685 24.69960873050592 53.23029986610655 38.569726619573046 42.26327945999948 -79.60885521254002 -81.79128399452749 24.64402094523229 -4.787355765848992 
-8.202609578221935 8.757104985155271 22.661760852144017 -23.089945138445984 -33.74050327120029 -66.31218106657576 -90.42924229993687 -24.291428569799244 75.6622124053128 12.338132706472763 -63.32894589318707 -31.34831111107224 -122.54085183338101 6.629533896155877 24.224255400635208 30.748697547256494 -6.943870586994589 -39.10841605704854 -18.938510254528204 11.99546610247104 21.434324410750445 84.73566852140549 -44.584791996096186 33.64003281011604 33.206486962832145 15.85821553913893 32.32987701467738 18.022899877301196 12.981249951831755 -57.86707337849527 24.754985006787482 20.88657580533288 -20.225135726993674 -1.0543013384012507 58.51002286018276 91.21724433533409 11.87549723489183 -76.22056494001107 -23.26168999211082 90.00078492295185 26.602301699537446 8.408589386779653 
35.46225748595348 2.8267763944855746 -64.8600945657341 -105.38374566071477 -44.807135648546414 46.98368985777834 -19.878209863266754 -32.342528004292156 -21.612779121665056 26.998337318946646 -49.042671115781225 -56.80121847260623 -23.10665137834241 -80.68250166091967 -22.099998188041347 52.717172032390906 -35.56597343332715 -9.221389351938194 -6.982043654313678 -50.268440482050366 6.404107587584689 60.7936321972277 -8.729251755077662 75.83788627797901 -58.55002505576038 -66.88935453678585 -4.0576899488172975 56.000913261497914 61.05430617044262 -33.0715234961317 -14.191875226075611 38.66753988903787 -25.877214905459592 -38.174790604625734 -31.707124936795733 67.42081096336186 -55.85155421494116 -44.89061875361667 -1.3568090978812946 -102.9330892372506 68.8846211846541 43.31973303537351 
-19.39829378791589 76.66046657558053 25.677827732351837 15.674453295752844 13.697981942024 25.342148637401632 2.910077709090197 13.339524507014119 -62.43302750684281 -38.36984543437269 24.861585736574153 0.037890488729068396 1.788841369846513 27.879363093641157 101.68259055410103 -68.96658767051989 24.227342919715966 100.39488535815848 53.73472738746913 43.19637953681119 76.26069655062996 61.41807437296101 -35.70707521403228 -1.8242440217280715 41.57525006240823 -47.562069894103075 115.80342372655844 -13.163645218081651 64.13608093885875 22.8808270560053 -27.392277320263084 -34.912778364287504 -15.67343808932589 27.666611516045954 -20.197793466189257 6.781523708859773 15.351503393604858 -39.35300152123656 83.82999516060381 -73.615459204241 32.09279261398215 21.27596168863421 
32.149853457979624 -96.83965060587377 1.6117150884376026 -44.19904111700615 -28.385697063471824 -8.949820296177581 17.404438095601677 -28.813055346514357 56.163494070168234 -65.26375640485836 -5.715331457803817 19.934965422564336 27.34879484790299 -55.12867297415349 -15.434650056468426 44.905844123137875 -55.09684783932614 -46.96787164477263 42.58310346196549 10.220829565235318 19.4531403494202 -64.30953989758731 -24.978350384533563 33.17725229857345 102.53322962781692 -50.36592057148174 42.401540346705616 29.210995786321746 35.54062870880727 40.34504206388891 24.512893467649857 -1.1312645204982585 -12.321275729246933 -9.127121522127497 -9.502044379976011 35.72948886642075 -10.500821423689285 52.553685532578314 -1.86315170985193 26.846792444218725 -4.042403763051829 43.009982359051904 
71.08632519439011 85.38932683589171 -98.24502225858949 -8.784159396438307 -1.767260365284695 76.47606209522014 -41.26795874876138 34.1093389434626 -82.77282383694553 33.15883609241716 -88.12794494110041 -61.45503338796238 11.849286166648488 -41.93069598175944 44.30805186262635 49.51950743299655 -21.802295715096296 71.6380327827072 -12.88550846199972 -2.742164909496809 144.2671979294339 -23.529805803582878 -20.560583401239114 -43.22900230900004 -23.944022037536946 -58.598536759072076 -3.3900045469695383 73.88988025567978 42.67383086429882 -36.15071784189401 64.37955751074067 -30.720046237608152 17.195494740766264 11.740056787737663 -9.823332707720356 -92.69124720131524 -5.664582108298212 -30.563812568225167 25.487275479020628 96.83815487910002 17.25646699734431 -13.641727522615689 
-92.62750898577029 -25.497680484311335 74.05477433525157 -18.999504092221404 65.8216854504994 41.17441341950397 39.909980594896645 83.60946939440137 81.80131614456641 -88.24840167222392 -81.92838153651915 36.51218528720637 16.224594629657407 59.33217058456892 -0.7175243876978948 -24.67511872353804 31.911824546851282 30.05874575067966 -15.179417515754086 -38.76697871326712 11.456199197331255 16.518376226583328 -45.790701077655264 1.7078559483762814 83.27319562705807 36.61909665422852 6.320878290259074 50.15930615570117 -10.263044128766413 -32.987485329749305 -1.226392881834168 -7.844405257282814 92.77321925028285 62.043138880755016 -13.477979116137123 -36.3170254322103 -39.20476078929968 54.52542746079573 -91.46380974581758 -6.243124520776692 10.812742651341853 49.410448225671914 
52.52353028974912 39.72419038594566 39.41532048247221 -3.9005951891416943 -11.125664972645623 -43.34079835072066 -77.53774042467707 15.530441185152382 -0.9854428007726409 -62.475323247196656 8.532429458490904 64.25604653157598 -54.269320444497 -24.283048115574157 -61.571695265597235 -7.446782356627646 -18.14407330545466 17.06236765596331 24.079167107732758 1.660699885661597 3.1550857169927196 22.65404214004674 -52.147667575784794 2.036316916734083 28.811010019915777 3.7659342588258102 -26.96296644020008 1.511059642389991 -46.701933445266896 -8.87287993242161 48.845549654966305 4.567692366964567 -38.00222991770968 114.29231099510568 -40.328347956817446 35.76836178653834 21.372456127134143 40.90917071668264 19.767912333184622 60.80559286956705 -13.199979494102152 -71.47036039303308 
18.399278443279343 0.5328239310669874 2.737335731476426 -77.05517212336568 6.372576538162949 115.5083299237167 6.785161985388456 -55.09884435626882 33.71263131597557 -16.551856501206096 56.75165305445134 47.9807270039016 -85.19396733300235 -121.7960375960547 -74.33046431560363 30.122747838042482 -100.08636498296455 -25.554274191135132 -48.59304776580332 -45.063740962347126 -44.1557839352184 -15.892419273459517 -62.950375339691455 -59.676037153566945 -15.79052375882429 -8.686373258832962 15.88774183622402 2.8990724105943717 -38.531818461934826 -44.41717017391824 131.1426544177629 -53.79838782457111 51.23341956339176 20.90234420995476 -75.60859204585212 13.15357489458861 -52.19587719399389 108.49667487123597 56.350292493579694 -52.71759739793504 6.8408703378980835 -14.394128291217946 
16.652881200673264 55.73903548415114 -30.882407763562 -121.86356313335209 -8.844627243236102 -78.26890300790424 -11.723892639675903 -11.309106062379866 -8.23923467326201 7.508081158320114 -67.24312295335136 -46.03058249697721 -30.54608916334857 -70.34936777364187 -65.07468225249322 45.46110561884518 -73.00010891985099 -19.34983418174672 -22.21476478997686 -12.015725714556883 51.59449115256188 40.00030966240434 -46.92935273262507 54.41568269582796 -10.634567318399677 -15.852526045207233 -44.83819322986827 8.410918893516127 111.24733147359942 3.7056930306103135 31.938952612085064 48.10385783665251 -76.73851565943285 17.938579518767703 -43.15418483477515 12.944163420126973 -23.22927873713462 14.005303368426922 -37.019893189342206 120.31281838947478 -30.233200153890266 80.35869485933284 
29.652588016019333 2.886446011669912 33.85773742623786 -24.820259142128485 20.12841942236569 -98.0051785011584 -29.834709565453114 78.27182937077903 25.32379415883689 44.05079818100131 16.789216219411685 9.234223138330824 -30.117496470213457 19.645016338502053 -12.935315659641 -60.320836172060595 -57.774470303490375 -2.6135183819169763 62.14514366510771 -23.580463823155345 4.831712165665795 -56.91289216665891 -4.538241757683766 18.332845792995123 -0.1629254187933713 24.93316156363978 -48.377625841384805 77.76263754169028 49.54841388276453 8.135142176648467 -21.306651198461918 45.288631256804564 41.22215097868484 -27.503341249095556 1.7464733954026463 37.78829321771265 -89.78982326004845 -22.06492693263001 -111.90379789470404 21.757597852801872 -22.802047402117026 -15.129530394274363 
37.68085015356693 -47.23520577226318 -21.53206133070387 -10.225371856671144 -54.29084779250068 -59.81154917664807 59.58131505786988 41.6024055742754 28.641330947169575 -17.433056120657245 -26.574024214279586 6.874503001394401 -41.87098010032377 1.3253159086754347 6.684980235911463 -63.511889821888744 30.244748051772884 95.7153148855964 -0.85518886219395 21.990764844667847 33.07149113699154 -20.119092185540563 30.994193571331646 55.74058157497856 4.446355454286045 2.5912270103800847 39.10369986806385 -24.422727969107406 -34.36445940924086 -12.02473858529109 -77.85287762732133 16.144972260375294 -14.001866788373057 -30.763346282155805 1.138958925354795 57.23356161426573 41.11430729951309 -83.18439357615492 -26.133162102043624 21.217367366224668 -39.716181351850494 -18.224028925360052 
-4.183036141165244 -42.11314571410036 -80.2380421369084 -17.801692399763724 28.611560418255742 -74.94032139028504 -55.85142520886874 -59.565525591561645 28.96518203064857 8.25493678122469 -17.950814169356192 -85.73045891098788 -12.563913164067161 -39.29425251510795 -62.913671391385414 -62.72178283958085 -28.76979078390155 44.22132058162946 138.958350793719 67.9036111687056 11.361410802176342 13.162706432555991 -44.96781059230844 -75.9463573936515 85.53604622996222 77.6113060831802 -62.54391321834072 -65.50149195211922 16.177224587443614 19.5490663052375 195.18105576577994 -17.713348810089208 86.84077525819318 -31.804223691943957 -82.68149378057991 -81.31351978328024 -13.213756353310973 52.11444499137673 13.346144293309326 -10.540629930231825 55.00834790701045 40.139176147508046 
-13.730910139799555 2.127894310740482 -6.65207040243656 53.31987599517945 47.83862856757206 10.206996087320952 -11.716998108599684 -63.22937399274472 -74.04785310655797 -61.360215441596196 -37.29224298558481 -68.3437720951657 -16.282311644795197 109.18371456009926 13.75458432378028 90.32288654765496 -15.596236394444093 -111.22306245328237 -9.849794572322494 11.560794473077655 26.578733767555335 -5.738541379634669 -59.650338070288484 -54.84119659744542 78.59570223114092 -49.75704353182894 23.819875034567264 2.666746225677974 -25.903833963519237 35.68687129533411 -41.62469757562101 -35.18976458938774 -4.217228501857988 84.96853210328922 -2.2630104561792757 50.75820441396319 32.50054177800453 33.91067107064683 57.50542886005866 11.618582350662543 -50.664776782012666 4.8018078313552035 
82.53808501492422 72.59294386874156 41.123811383025654 -120.25186665747418 -5.353605610589499 4.758497892218648 75.15848373123323 -21.240132029554147 34.28290384798059 -8.400419124095484 1.8944232067215296 -18.947445492056037 61.69213680647976 13.93726706287269 8.291911113117768 2.767037300983722 30.13347111543961 -7.556105871125174 22.063514197803993 72.1889091802533 90.59759252027628 -21.53001622357822 -45.020215539455876 52.99412302924989 43.52947929752943 -32.06814925990324 0.6210097398664663 28.813272527525257 -63.82716983392373 -0.36429600630757086 1.3411995280119755 116.4744718919563 48.425228367398326 19.702587511510927 -53.6855905975852 -8.182983101570544 -8.194371478999036 42.575849579239375 -19.135769019473475 -94.31668337922645 -25.274866822682597 -45.70677820796168 
-107.07042836944723 -9.971998892183356 -56.10832185378753 -4.736030157615718 53.59527535155475 80.61004050954021 22.817919025091566 -6.328854011280852 -6.168244681463094 -38.28237965234037 37.34970477225341 58.0146812440855 62.400956121578844 32.71537663870964 21.091457320091557 30.74065233082934 -51.590021786462486 106.05093617251657 -68.50382961459226 40.815551231946515 -5.859618066534792 14.873092502135513 3.411387469786951 29.48786132410868 -3.5373264045826898 14.058339378290444 -28.52037950067169 -20.302725434114453 53.09802911590656 -9.457435650734087 -101.50824885124487 -0.3277269696820494 3.716485370800113 92.60722013186972 38.031349875380556 -44.18377645618271 -30.03558267347169 71.68868565548378 23.5593623996533 59.6642074300827 45.185601553115525 14.777675061064352 
-104.72538294731879 -17.386744296229203 52.65193106921334 47.11691083480158 -47.93042086982426 -45.25614526137946 -67.2065809825063 -38.5315240168786 -57.20897160093447 1.9212973386846386 -55.65892627331804 -10.058658605164513 -7.394220133319568 46.628809179535196 26.871612703235673 98.2018283069979 -104.50151518955565 0.7738916214904146 43.209894852254386 51.673145620221725 23.974045697960555 42.94631996939477 9.509860907891566 77.44439459271315 59.045460563116954 -13.62991689534112 47.27265497481716 -5.175336254591169 -132.67853213862023 -20.59507079425882 21.971811865364266 -9.043660749155524 -0.7458677289582503 50.64616591276794 65.64882626516228 -86.89430155618952 41.38039047929798 65.78698858975424 11.538617443582993 -27.73973918534335 -40.6039630113626 103.31767492958392 
-20.52088805430838 -40.67640955137773 44.35747758068159 17.25446226311578 101.81207903602451 -9.891585841626043 61.00906158449669 -0.6143927500327633 11.070486005938852 41.524488691909305 -33.91371998421144 21.210049811307954 -7.027520410471463 -76.8695210026736 27.851928057094266 -7.723084444748066 14.711046030886518 79.05852173547191 10.42865166322071 -18.41238095028992 10.709149290443289 -46.11292479740791 -5.861375130739993 -0.47878924875512735 -23.601996986364103 -43.29394755117112 -15.70072793490568 76.9062142184367 -91.44688890665127 40.52716560473942 -1.3406748373486994 -76.94307864654365 -21.904779684341996 -12.484858216576134 -41.69963317671608 -65.02632863739925 -86.81817111217467 73.96264193368872 -67.82497546287817 2.469119744199497 28.19047036603411 14.567079204716768 
-7.042402699006607 -8.081253697966993 -85.99224269638688 31.646653359684514 41.5925242863869 14.991102183733362 -41.98038610004571 -37.472822067419735 5.561577926218453 -14.574670487621637 113.55725838491874 12.961513824898466 24.762692770111958 -78.92258315799019 -38.36585475258116 -37.57032128084507 40.19635351156505 22.816975450383755 1.3988059246236118 -47.781656790297205 -29.981460559968824 15.520107312745047 51.64341681367828 14.198303281090906 16.853405786862503 -32.154256243656604 2.470903758006034 28.38729185914125 22.06851279561814 -29.8591608103822 119.07551847191542 -12.760522327474343 16.79377274311751 -21.327551427289563 90.9002710016164 -34.86052866815023 49.417707581655534 -43.46180580590588 -11.650144319616832 39.630723577560495 -47.94947718353901 86.55483369498997 
21.531531750219944 17.82228857416784 10.910551183819859 -5.226106526518854 14.107277525443882 -35.25566491249003 -22.72556920369173 40.26980713588399 12.297059972738362 -7.870973535311818 -61.545326454102174 -3.0718679173196266 21.93424292305193 -6.7699011239534554 -23.097854940622035 -39.82674730288919 -8.144032539264765 3.912607432294496 -7.315470746282835 -46.588010486940874 -24.5890119643588 5.892942250816508 -33.397939477203494 -77.66281239975939 -6.756869109136018 16.742956424227707 2.7459398448565553 -32.0211486445512 96.27340451275543 -12.671957863257033 115.09284247175677 77.2482383969697 36.76635040994605 10.11469890758472 -56.948458305591494 -29.597176522662316 -54.38342217392853 10.255534267808386 -26.704356651602005 7.759743566907599 51.49652381778742 38.85785949835127 
36.045114958012114 -15.80188753537298 -79.82895121553925 63.98663651027935 32.20392200046252 -2.70968581385807 34.246985299381286 47.46852279698749 -22.027967808451084 10.338172971161859 -9.836367249039363 -44.00966796036258 -51.882127947145634 -70.1361589340697 -22.887846414609967 -29.224464242277467 -8.251289946335813 36.01482326197369 -1.840312665124654 -68.11402895734265 -29.41883421790425 9.706379209334706 26.615693634543547 -93.62973154843857 32.47593589475412 -66.81752199196639 -4.43745557302144 22.67450133422319 -5.670796058244247 -6.460600741325065 10.611378943363421 -5.509686698909169 33.358987381577975 -31.22240325028273 -74.1535732546908 -23.80527485754787 41.865266876302584 19.87718742108778 -22.080887474271307 75.99726863699595 -98.20916654168501 -23.568934067664806 
54.3064118592612 69.22970175633002 -40.27564931971046 -61.61546856536049 -33.074344707475376 74.1002939868887 0.803288550401061 -42.69616378236164 20.627977994110122 7.506336059725329 26.91830626144246 -9.321357185371262 20.64101479174077 -7.679917541296169 -59.84038723480127 49.7580292048473 -4.331062936365239 58.17065878686622 80.69412843269916 -38.493743815107806 -53.82535280244433 -72.14550678414005 -39.81523007597247 -30.99693919636596 32.259634370233634 -13.877435871033367 38.48530728058234 -28.930272437458623 -1.1074121378332842 -48.81008099387871 -11.1158231116082 -72.28643927052156 28.581456885426565 31.663051121377798 64.727471355425 42.13376099748743 -17.293868590327634 -94.6734164529514 -42.50379511136152 10.256760627184104 -70.20454517421416 -27.264268015399182 
23.750163711502907 -28.51940042348083 33.965134489798196 -48.147403611239845 -73.73561806061517 -18.70416365932193 -81.39492490005544 63.941593405114844 20.47388127296599 -13.890257161732409 -35.046528161367 25.227911356180577 -8.876612972380501 93.81264764378423 47.43032050806546 -44.024279056137445 27.94403487283379 -31.721640117239833 -40.8088489210192 13.91514167979402 6.632471667004879 37.72972422352567 44.11888709346709 9.04663830994078 17.97472579652603 -6.917198897189043 -4.732954543107192 -8.389002925010793 -52.137223989808845 23.648687005830777 47.494648373261406 101.48455806966341 37.655923832214235 -36.10489648792705 -27.29968659592447 7.1763624187971535 14.663975678124903 30.641276581774566 -19.916780452680406 84.14795278016435 69.91615130090715 13.404046595051641 
-54.70262091398117 1.8396611816022843 -11.214107780860335 13.690585101034815 -25.4006451956535 -22.6011162857769 -21.006714630285998 152.36483903573972 3.3892757375069955 -49.93419072673932 100.81352443227514 24.666276244804504 -9.875381783458447 29.085389409030338 -48.336042163778814 1.6047424387271543 19.160357498856875 125.63741613093161 7.472740302743765 62.797343788436486 -27.79467755462782 123.54746782861316 38.741281006094 -29.34327718106064 18.315588928547726 -80.32965925013248 -1.5580511711478926 58.984652237183646 -98.62128299046401 -20.905746537109586 46.83129277325629 103.0410992264595 -21.083232580393044 0.6395121263002436 55.969838353240796 19.743223847524952 -40.167476504447954 -13.428634708745193 55.03718407321834 107.38501199669952 6.771148818773363 32.77547225991541 
-85.61939434749252 -43.29624602362759 -24.08062343042221 12.497558565011124 -21.20079785715621 -3.8564417728208746 36.61724040719822 18.43495491932208 21.877148425746277 -54.64152373119537 60.11017977303299 92.43854102665607 45.53883137184199 -11.386149488325676 8.107475734331144 -59.20054149107668 -14.228294498577313 -16.176467305430492 -102.55215895440293 -32.843378694879156 12.2475469267138 53.082687484665186 -25.56115607325703 67.04693063504752 9.596089285164243 -27.490296317048895 -47.48259563701462 19.858181553183197 -96.66539283263332 -36.368001811716084 60.89943318145893 19.991968412228317 31.07871031393325 3.382674719245544 -21.12568893163505 73.69886177710187 0.5401869558827993 -13.085614119844415 -11.681138361920027 4.961076388675372 -73.74223677611758 39.14371114235273 
-15.68153255921256 5.657839692988957 22.426649584882693 16.638962532623907 -7.951795497402871 15.644922512981884 -36.21231810302724 -21.210574049319156 41.77433742733524 14.689725056480025 0.815255088431662 18.585639171038462 84.54235412492464 31.271130908073417 5.680646840343958 45.449635090635695 20.328180949882537 4.530578888491096 37.020748817240154 38.36555808421817 -21.179965997780197 -10.467365408649528 8.11634373990382 14.177893900919491 -30.198139540292747 13.54629272495126 -13.15317111149766 41.60087483750368 39.133028032501166 40.95503715128653 -0.9288554494515314 18.183147733730596 -15.514229284176736 19.746125958944617 -62.94724977720172 112.43703778556926 -85.6521811219306 19.336720045401037 -66.38115551034485 45.784307633021015 10.004026991410967 16.38641661424371 
-35.425136999408885 -10.369707857368317 -14.701437459533128 22.958105009918707 83.31291209230193 -74.72461227297752 63.88451087740227 80.14854488876863 -74.58267317350519 -54.98389811966679 77.09542858925103 -73.62289567511188 -48.26931315172949 32.40346235999334 -23.445590662847632 13.88105441949291 -36.57866320456845 59.40498397471577 2.6436598974878582 -9.130673820712067 -10.666188327075831 63.24012013038007 1.277996991710333 -9.60029716480117 -46.80124788454104 -40.56963505191601 1.6882588382467072 -51.50564607146413 -106.74885607876257 -26.964554624577964 -16.994614473890874 17.900852198727197 -57.77117958479365 22.98101094670624 -9.052456004482943 -13.67478471642071 38.45152310055021 -59.41925327202707 -66.17076318364569 8.127569973007262 -28.614642234338277 -43.010235189343916 
87.78141278043896 56.565356289157 -62.042264140396824 86.69859950920345 -23.642862747244042 -39.66249927555086 51.44786151878193 50.951181645555295 23.61334425621536 50.56409181808638 64.2932185600911 -5.619866998768748 -72.58085324130585 64.51008520121131 -43.00573475549617 125.63792040995357 -34.24032004933917 58.07340096908199 51.93332626000226 14.605333372450762 25.854655125178937 32.189786436639935 57.835601201807535 33.630282809069826 -61.9151489191087 32.44078801285237 21.995967942171653 84.00426858415132 -30.894287911755516 40.214531811910675 42.234556994671536 -25.014999073825695 -101.17028078991729 27.07715138407166 -91.29349672191373 -8.212247966008645 2.676190458790593 -41.560661948377536 6.751891684987192 -82.64278366178972 80.15625389582407 12.005676032743121 
-58.63795294470237 36.31779867541254 -22.56357350221697 -38.70025701349154 -5.554558187260869 0.9277832768548606 -84.48456640691741 -58.89519907263382 -78.61434158186066 -63.15017999762337 -27.79503554275352 -26.750758312307948 -54.06620584887174 77.70963731792234 -38.650662599352785 -57.32467035797857 5.958179743581293 33.82557336006227 -19.898906510492242 -2.508079123932433 45.82634837436632 25.701831525194287 0.907118258789018 -3.6816999833001463 29.220204277768165 -88.00174162815854 33.44509456205968 5.817842253590144 -33.0571904390212 -67.82258303324893 72.43510183203453 32.32509573844131 92.88626663613685 10.411103034674575 -43.92970690977306 83.87392799736517 12.832379795631983 1.6249341214284485 -0.9121770563932295 24.998947625745302 43.73837344384576 38.43328893778855 
-50.46194300765964 -9.459108898987727 -48.885285413198645 -1.2043175251720373 8.98392873774486 -82.16204459013125 -26.578946086918116 20.48479906300064 37.972853202174704 -57.99040621239283 -25.94577049410965 -41.39963683823169 39.58819628912825 -1.6712520606474985 74.44545719641592 -31.149371554482475 -76.44058494922392 -20.884901150142642 -70.79566508354998 67.8399574993916 -11.36762165026671 54.190841830507885 -4.35105215334256 85.2788139220419 23.84261021418518 -33.74479410853653 -10.289540374060559 100.20748852655387 1.158595330190239 -83.23487251439832 29.130984046173776 -20.17524553558585 -52.79655315316234 -9.652800862428075 58.66054692296208 -41.39009249363494 -16.591681918389995 -0.8787478359253332 92.33927835280281 30.625356281758272 -48.346842596271756 5.637469126545325 
30.945128818238075 -40.76783013853727 20.41945304030877 3.7536996827479276 49.81115149808944 -113.99815674090055 21.07409649793794 5.644633167668915 -18.825464782448552 44.87875154847505 -39.4875674819651 10.899865659796243 -0.6878150581003644 27.20764179604003 -10.708506868261264 4.515171186849498 -62.33204166254988 56.61550974026776 52.653314522322695 -74.43308183003134 89.85916007401154 9.114619612355304 -52.9519713522649 90.45979021932948 -10.246215781241055 -29.069660784436792 0.5292867760830513 31.894218496589314 58.13769791650032 13.863293277214987 12.574638760771908 9.625906377534768 -32.52316362125984 -41.824387850524964 -22.171192609160983 -26.896463837835675 -1.5608639941983062 59.30962682720203 -32.821559544638866 -51.09220965561776 -46.666416616796866 -58.397141783804706 
12.253909560364164 62.74288871491314 0.6072604563124677 -20.842638028369432 48.19965094104872 7.0246063971889345 -55.17660170923623 -16.31001950875983 -24.635642931383035 -70.22255510519439 -153.50209623305938 32.02482297454155 -26.678213663298006 -29.734327476523138 17.39554096149413 6.338391088871153 19.169355629238026 51.04284036366703 48.52595285157062 -66.09520040720895 -34.983724605071885 -22.442438867841066 -99.71511013815129 -47.88757352250809 -17.29227602981278 45.61768324267259 -97.67394540591368 -34.147710782386575 1.2751078607312865 13.621757063660098 109.23237675222433 -10.81941762280682 -38.61269317003312 -0.7854057395322421 -20.001951750767745 14.207988594117932 86.1014045509889 18.420444774346258 -81.45785734954931 59.11450002846865 -93.67775918250682 48.73726379593427 
-34.45792722489145 35.82273882973066 13.617004333978796 21.441378323628427 -10.895189206835276 -22.926032760993607 22.59305042767119 8.788189380360135 12.67728194286172 55.43774012145339 68.50361538985193 4.1961784780748825 -81.42968562206829 12.56756946500432 -19.791533391477817 -8.908736618728478 46.01140925510155 48.93301968377453 17.64942850225636 -84.83105561018476 64.80516233211692 -29.64346335809437 -12.288731746263545 77.93389587566189 99.90190325621676 -10.759064162239596 -16.16836536548513 88.9135283447078 -18.673312623876477 22.62896408872791 45.4577125651969 46.08916169780002 11.920814199846804 63.845650043706044 -16.384968165139703 7.121047666259803 4.358690694975702 -9.267525455069972 45.84868535866171 9.414070537426587 25.255013442548968 42.90792577265299 
78.4909493912046 -52.65060225241993 35.10625228052844 10.959537449279695 -57.663201832727594 6.523144794656319 21.72648563242852 56.10460646931072 31.259931867799683 -55.74065545365287 3.635933898922926 33.66929978120247 -31.94408201312915 13.885302821018014 31.066688726292416 0.5143191247622442 -66.89100843341029 -22.36999426885244 43.06287754714672 17.681960857661906 -57.496622726585706 44.37700644458398 28.657817018266506 -33.84510906093338 8.33132955064873 28.364245060548807 92.65448759071651 -45.9298410710049 10.230728722506676 -120.3255840833765 -68.11080153311545 -19.31313674567105 -24.686977448007422 -91.23225945856854 73.58266038167382 -38.16859728143656 38.371881826874755 -57.17073738051518 -32.900553599679384 89.62735000072962 -74.29200228154983 44.06058360646997 
-58.31900965448899 39.593446217008136 -1.1111338256887122 76.12959263852852 25.40560781756956 12.07361364030763 -30.18428160776441 33.786614177985804 -7.104126822048399 -21.95936559844346 12.212437721803092 -14.523135897887519 18.057743750854964 103.27593639244225 -4.4485798364123985 11.895220323466681 38.16928661819579 -22.29934762847651 14.046934364927944 38.28781968899649 -43.43914371343362 -28.64254003276501 -25.746059442559044 9.127240780439635 -13.223919910970128 -63.98387567500325 22.64954611437018 -92.42983010178716 54.7069388924647 13.853693823671323 -79.52890365072138 27.479934283776632 13.774965797162828 41.59157240922084 47.620157443396266 -38.109081298961975 33.542951368458 134.1465128149552 3.9313773815528816 -5.322742665887908 -61.52115332440371 10.836082138264892 
-21.119358204399912 -45.05268904022789 21.395675631644533 88.29325990423229 -2.144233376095618 29.320630125368716 44.220629486034134 -67.29117975625812 63.6228849727618 21.57740550583587 -25.924863443636415 31.422145922445566 42.793717761968935 24.350915229403597 -85.94126358844574 -16.56900761945157 -58.95845614215025 -71.29419390781241 -35.73209255098153 -84.50295807577128 42.120276193094384 -27.65344098555754 -9.277645249196723 10.761381624719782 43.79031958195954 -12.563554089982715 14.057027908427104 47.72010266206275 5.395097009646675 19.76366800724128 -28.21620556010496 30.357063010375928 -81.7996366418917 13.311647914824475 -42.389191710034474 -118.75377735591721 -67.56011878060762 27.435718327885752 62.708622029304294 -17.41861204412497 58.61002090906907 -12.7620034295108 
-54.68899569691353 18.811138290198542 -17.346804527149704 -34.09297398231498 76.86543111696612 -38.81472607167799 18.17568700105362 24.24683847252683 -78.88908999756931 -59.09165618263658 23.667861372488325 -4.3785278255553255 30.6130850699659 61.63374448009927 13.765869454021983 -52.047167079792416 -49.320110925831024 3.8542608922970194 74.92669491691422 -26.922017355367608 21.766254160449108 -23.064635443214545 23.657194912476083 113.36208750440963 53.64131221308355 22.90148952135772 44.46939163470732 -9.729223407880674 133.72471913976975 -35.544637978310135 -45.61841545953263 -25.773394202080244 136.39708229059516 34.91089112734732 50.33521915618243 -18.50305385626488 6.940957087394776 -36.88764120783133 54.962905996540705 -11.455490391848455 -24.938035093402117 1.0717923293749598 
23.867254903570515 0.728351476060497 43.48288132789341 2.6714965996437523 -6.514719171125888 21.944857513479977 -46.42017385487888 28.8126829294492 -68.29173424981929 -97.68228968288082 5.870224622165536 -13.765996308175279 -35.647887907392416 54.970823377621855 93.76050139339453 28.67957758525907 -57.82480935368558 12.627896528393144 -46.017156302491706 34.71964522926086 123.26716425550785 45.43260376682334 62.79136958285964 40.0704993727843 -32.6679667176044 -12.506302086695408 -3.520406771223627 17.060466844163734 130.67768338511073 50.212028342865544 -67.96420237418327 -67.41340961112023 47.632416641495404 34.92330145557053 66.54698353947994 47.557986725142605 1.087471821168367 -24.534030892701075 -23.928008206921575 40.235693671747356 -73.31996538987494 -17.771068910410165 
21.061309029447077 34.01851885126355 -12.084022915238876 -16.140295537891404 -36.59754956742929 -15.482840342392159 31.82947184033037 -68.81901235461018 68.90763273279983 -30.580566601764133 5.215916576926133 -6.842690134506999 22.02483711895838 47.992420828199286 9.300433361973985 68.78894326777096 -22.515116873769898 106.91143048998862 53.8570113890959 60.110265332525636 16.384340643433642 8.063817764359815 51.79155910493681 43.87673987337412 -78.4613066627112 -6.1708293703543955 72.52805862422568 -27.849664489206447 -1.4105831295501507 -38.451611215126476 61.416437957668194 132.46235871673773 60.549010238918335 -11.701259847181625 -42.73904640848602 -52.48711555208826 -61.34978163027692 82.39698172329537 -17.097435360676286 20.04917433228846 -18.624170520097355 7.905302888803373 
-33.129372367136625 46.657442998326054 34.53641364613812 58.397758462862 -13.124436824662089 -81.34653643461861 -27.434242922265216 -61.29603404584363 58.30776982262072 -0.07165932362482924 -55.23468247892199 -55.93202325896694 -165.92428501061232 20.885323170060072 41.30306297791308 -4.692212801176947 -23.95994773369703 -33.53526507958258 -127.03510966023879 25.978070769609808 -1.0425026333189873 46.75127764220845 22.624702994270358 62.59414265774009 -50.1188266207676 64.47674627317477 25.9426150127004 29.92195966815162 -16.13423624768736 30.192198594864323 43.197520026954166 32.30528483683244 -32.29166452305785 -4.01034974835352 -14.818909977133206 -73.20156608493515 26.778639831553757 -47.04097406027767 32.75588606698654 75.220324254659 24.194028450327153 -58.705907387197335 
11.378557135777333 -2.815316279462669 21.37963321653938 -11.884358271862842 -11.345288166261346 51.234176426827396 72.76497283272015 56.815067416842304 3.169001327097449 8.347924103744358 -29.31835634326714 -47.353308446520295 4.290647595743224 36.510155253195094 0.5280404332108883 -11.55808087124617 -72.77722210193984 -25.580285725164718 87.3986666744945 52.10428574962716 -105.72273954959668 16.77222051636658 13.24896644694216 -9.321511412394896 -2.2692551239297605 -84.27884818331465 44.653804376190685 3.5967207911628933 -46.36075478476909 -77.06541569557538 -5.192499445575109 -36.53869039618994 28.224173637161776 -8.749566048703606 12.935195698293883 4.735199200457587 -35.419072704109844 -8.630886381642991 -74.01053639297886 30.617057728315114 -15.184189538094358 -33.88654871822619 
50.03450631433153 52.499543702312415 -73.37901769838959 -18.365620270452812 98.28261404397018 -33.19180761048448 -1.8462906174775542 -57.96901916213712 12.020956696032973 -41.98967389896471 34.27244723093232 -18.210451800380056 -21.554279084440008 31.89369524148689 -90.39955799604496 9.365375852647245 -106.75908047376059 -58.45379345685378 3.7109549987937256 -4.56538927196844 -46.63453325914001 76.66899180797643 -18.479581951682245 25.737520793381478 52.68977453074521 19.158116575021303 -14.562110739214898 -8.503438955679139 -66.52568249745563 19.101956228688195 16.745172278563217 -70.85373858200408 18.431594762434976 -44.972585875205226 11.617753497168069 26.713443893199567 -47.58960130555573 19.747681226218297 -52.60657539361023 -63.68660664982323 -17.19854510296992 16.283106106822427 
2.0211209885251042 -55.40341951416524 14.998983540549583 57.51227508046277 21.250786746691812 -48.32461506548067 73.62417158407327 -14.591278531483878 -6.8975560541657375 7.34861429647445 47.7400066926745 54.84511502798527 -1.4077728091381383 67.11854528355367 -12.837357848159714 -23.680513620175766 -41.03126233354666 31.501762659339335 91.80173208104786 -4.620746526107724 -29.42782628276071 0.03533557368454044 -11.109656743739244 21.61180774620605 5.124975912663689 -4.425378858195368 -48.65506353713042 -56.95836200626809 -21.67567159076057 27.700345607235604 13.050326670636636 24.20953052935818 13.062301039334779 -130.91471797975422 12.057472414398598 7.269718518675906 7.738502636794767 81.58468730927441 79.01271276054406 23.201955074412005 -25.45808837053007 78.48108348250932 
-24.933950384110503 -15.690164574732641 20.96006897074876 31.577141428677823 15.85021305029412 42.784016350941116 27.40363961338239 0.46433371975213866 -36.76577544369882 -51.428056996738185 14.150584688166122 9.957406803688952 72.89212302349739 -34.334202125566215 20.328680229639527 12.21093338129687 48.2906334925269 -55.46444599901487 -44.58613374297432 -4.070797760745079 16.351222002951932 28.630231886056443 58.296125028185614 -60.36072108132517 11.28502740634776 -56.01363728204389 94.37131933025579 -20.13335668712673 8.021618672392009 2.4356588237363224 95.5684647059364 -47.47093729776403 14.844387374248395 16.83076400644757 -68.11891024299169 21.04579962531431 24.444193331104323 -6.164690534428221 61.67530009604141 -10.62994610456267 -8.098045473139726 -8.160056080900103 
74.03833658018502 -47.11027624935767 24.42981766585894 -30.009800630211814 -30.943656119343686 41.8095431116372 56.953432569117275 30.076788489545205 3.1756514501047355 -25.508722380056756 38.885661107867534 51.029941511315535 19.9470309254389 53.741268588061175 -53.9108082931372 -53.805338172105806 44.342918353411534 30.10597840174707 83.45899682892404 75.21650781870639 -24.72837285406106 -5.2791258099110445 7.2531743670357445 37.793261258448716 -14.672271849197706 -72.44272044574232 16.022018441292392 -23.60254317080546 -74.45811139009734 33.832536592346806 -66.85834740798211 10.31998785814278 -53.44379038159507 -4.0928290295865315 -51.612809828040476 38.732372969860634 26.649198427994513 17.4847063595096 -62.49539896719662 -14.747214986782783 -18.88616256706919 7.35491263086157 
133.90992036712086 -6.080881226379672 -4.022082821658213 -21.135319098744628 -21.28225495948006 -11.118957255157692 -10.769694612971787 -0.04223374706115249 -75.0407637757702 37.11779600811986 9.931259837013176 27.6746829288076 42.39866682996168 -6.064809748309975 -17.370542251063075 -66.10588307656265 -15.944405613727424 18.001723157483756 44.67310866355918 12.394389199111128 -155.09204239735587 -0.9853169125967791 -69.90234681838852 21.28288707954383 8.672425307812047 1.2856486907328903 66.88155047243708 -41.19394705568421 -58.93401882244553 88.71926365185132 -25.568704740985567 70.8496694331229 -36.4838174826264 -18.316438273900673 49.65365440267787 -25.391364817069803 15.901954872040305 54.1082758184205 45.36703138698737 -54.81055596835603 62.983071055126224 -71.75940302314909 
-33.14785415698224 -92.19943669720983 40.02135597998204 49.24912909921515 40.22254906309978 -17.018839940871352 -72.7481437725155 -55.325205562028536 -17.009776809337048 3.3796644390346415 -87.59878315123777 -9.163467166788806 -73.19763252222903 -57.784471838266114 -36.416357608700714 11.776914710444153 50.38072211392449 -1.3545805511328408 4.073566082287924 21.849347931375743 -7.122154791086293 80.1242160571612 -22.441187166068694 -47.96206482781582 30.917425452889518 82.19090782210836 -16.77513146017005 14.078870910393308 65.2447559469285 -9.368399761834892 -48.63304148507341 -87.72127412743173 -96.39693986464667 0.585132093144284 19.53916625730288 46.51534479721808 12.574197646306578 -9.211255658816183 -34.60381730015672 26.16006662710941 29.325391558309313 -64.50141778486584 
40.50068239794609 -16.68685356335643 -67.29946952776203 -91.7625634187787 -81.94644375930005 20.426949322201608 -0.3283278285892488 -68.23910750515671 -7.3896413950329025 -46.27624518540443 3.1061691548589367 11.694484027896857 58.90904034806915 12.40700230394586 29.053736108626005 2.2190940880399306 9.238853126733634 -46.77500079772204 -44.722808797510986 -40.40680527222807 80.50734066362438 15.06452828353364 -66.20778312901106 -85.95718388012578 -17.144991893471488 7.364598301424078 -82.31407758967177 -87.4089844835418 60.95971010510524 -3.855727255854997 60.25380234601935 -0.6202690908375513 -51.05054090533786 11.639650692285597 57.690769179140425 35.867483463941056 -64.0791612302764 -51.59161428357256 -91.63557898895368 30.16349198429828 -80.36040111071328 20.157548789249493 
-68.65835731007583 -47.03870164853989 -55.10877762865919 64.8673893710898 -8.085169850320934 -41.93169852117769 58.72824562070481 -21.904225029548883 -12.909226979444167 -89.13951606515937 -5.316400111568498 6.048782852052714 100.42823283929869 -8.020858744795445 -43.482021530861196 28.346750327746474 40.242505746372274 -28.892709900259447 34.97408048454807 -14.140316948420615 1.84549387648468 -36.899106154000165 -14.825615306189194 -53.738501389854875 31.974360923498335 -118.42482097403683 19.64733495912486 45.220809599057105 0.02246998448405675 -0.13707674432199768 -43.380465043065726 34.278305638579155 -48.11997620256662 30.361066274909014 38.802615328926656 -34.544791594714965 -32.280529252477415 6.967431660622727 -34.039327376032674 22.017647016834285 -50.592401728512584 -2.7659881408351095 
43.395363026200314 -11.797877048180565 -2.270599926111834 -35.3152920208438 -91.5484029559475 18.127117216440695 -22.032347794976246 -36.79623094837891 40.21965282658781 31.85505975216584 12.588168893666673 -5.02934744975195 -5.802548936606496 -46.051894331703615 21.486388119926083 30.330326772744172 51.25058510693352 -18.994333245831044 -17.406022373648412 -72.02772401947962 15.79543931431836 96.45735333977981 -4.459240221075298 48.73078796386007 16.456935259069443 48.90784156482453 -32.89671268612225 29.3234593571871 29.63291585727865 1.3654219377570915 -7.516583904657733 -16.934641580258106 -41.04680216847487 30.789025281532076 -12.961058978910614 69.54904388808349 80.48379487580397 28.09514281588833 -78.66494152114484 -102.40539433213233 123.03920363350858 -56.380116241899294 
40.47362496961835 -49.10478271589435 -50.059111938856866 6.83385418872913 4.393453545171997 -102.99659080221798 -50.41251463588316 -10.712582252257748 -68.9724720241695 -61.14157053250214 84.42410307828217 -43.67473397220593 2.6681062960530646 -92.82285235537046 4.885224167348097 -72.25214858504906 -28.649122971226056 41.81583881335402 -71.70084454061477 4.732217177413712 -4.361982285998836 66.24029651050546 -12.967274968943238 1.4217574153447718 88.81462908853825 -74.79669398427092 -28.647575796501712 48.45474265436204 3.758993154867563 12.042295198578884 -20.110664559356916 59.36999503734494 -34.89172754660908 -36.79129014959643 -49.67942370183734 28.910448763098454 42.81338926554114 5.219443008978073 83.07540729406647 -18.623219531332364 -54.09160952042629 -30.926348919730902 
10.155639669593942 19.812840564666466 48.74475717754407 -57.84706942890706 96.34638594202345 -42.08455286641489 -96.32807971348167 67.93478715033866 -90.05464656655626 -65.54011074148245 -20.702315444095504 -28.59024703750394 -17.243890383033953 -35.4984546891667 -28.48303240758177 22.16833966971659 -45.774477870660164 -3.1845130450137713 -77.87486747378344 -26.49244142464127 -10.745691540060148 -14.836534775150103 -8.480968991157736 73.21708943208546 28.6166534602947 58.176693808879094 5.31100257734871 68.70215212164149 -75.99478298577202 -29.015461573463163 22.290838506676195 -25.266594026697774 -21.804285379057614 -18.978645381858076 46.63364250958535 42.22448355780306 -72.13493270308687 -76.37863180552613 23.276387575790633 -29.641573724882722 -8.15101383079864 -15.178913569109517 
-77.57981847912599 28.681204593237478 -28.215967425965736 -11.34618442494755 37.13420813778613 -124.9989498775679 22.80410859001534 6.2799125594698415 69.22921231731651 -21.55546291671592 -10.536343959829225 96.41679301602147 -10.48721378634388 -126.8686527468201 39.571818670304275 15.579528319117026 14.216537831052232 52.436264072595925 -50.84524598483228 -78.01229379342165 0.3219089722676673 12.261724402753108 -14.675772175989849 -48.115186550368314 -29.61724027157521 57.26940473071828 -60.41040601010995 31.25048930396976 -45.28174118577276 -21.58995634274268 -42.48669279040142 3.9379987545254083 44.1386378442196 -16.49429980201103 -17.291420590343552 -1.7410413983651736 -36.1478250537168 -33.60419646587697 32.488434227487474 12.71331530421321 -75.65133177263885 -44.85745974261983 
-69.1449727314057 -16.59873419684885 -66.7724855313883 13.466783457577161 34.83528397263299 53.801184230012964 28.488404108574773 -24.601944661302184 52.956035425933955 -32.29170060070487 12.442616196595623 -15.414453185985364 -79.97757121500973 30.75774627719804 7.503352571905182 103.74173995446628 85.092615670546 66.71405903942518 -4.4961759691755 -61.59954143621956 -14.775022435510808 4.380597327438467 23.83502539766012 82.04147111834443 50.79385565388131 -10.826280022333686 -42.927140503318846 15.33722453511642 -32.17098404778204 -11.677950531155634 38.44980998435258 -34.670276739862956 25.386189690140526 30.91749042765861 46.51520046024383 35.37802189630005 -81.55684050149765 -45.06080516002312 -94.89305813781061 28.528202667467845 -6.449514644954834 -38.029986580432535 
-30.415682525686403 66.62676512537305 -14.054080602681708 -35.80641893282254 0.8704726026482876 -111.2688781104281 -46.73363861297854 13.728464478963325 32.458925948457555 -100.58500320922117 -23.142260680909736 74.62602744851445 -45.387228568941175 -53.86975999383741 38.63996076545078 -23.799388095358488 -23.026003771118155 70.98996895724954 -73.5207287634968 -59.62681057357091 -4.085425037747504 -26.901665275719424 -93.01096518940233 -51.17291322652647 52.902254762377545 -120.50976444055381 50.28271964497696 29.429463173194755 35.99579988374419 84.58736002278782 -55.657415673769776 -44.63337766327163 -32.19916699042516 -32.49386392791874 -14.519000576720313 13.950795281636712 4.86201752163308 101.44267519223307 -31.57288441818716 45.679414774556484 19.55195238015702 70.23961485859378 
-74.7483495516245 15.165793788507292 -93.48831446758706 -20.88922936301792 49.2639339220168 -14.345445860233584 4.898592268002253 82.09274687358166 17.016492179428436 -27.995527756602975 -14.958328982329574 39.902984825907346 5.4124554721839955 34.25684677535576 -58.7201206336786 52.04661350730527 -63.55823623200784 -88.39039637074205 -27.28071544047121 -88.36862979890985 -3.432290788612876 55.294185255409175 -51.48216419889159 -12.409203665446155 -8.478832714777878 -19.68880143238182 20.376326556722216 -51.51726104213922 27.861166982676785 108.27282665682918 34.38304762743315 53.387111380667875 6.40710890543109 57.125554305471134 57.673773760533784 -107.44150689503176 -89.85212974410851 -72.60282510655557 -13.523111842360183 102.32424402168103 -51.580174904642405 52.73790049569897 
-4.921855545410956 15.007279481734647 13.289089911532784 -11.014237729027638 65.1860930179844 -47.833285914861236 -44.931789413337604 -74.1329874281048 32.90704148332024 34.56372733526872 13.969378191233767 -19.674609405138966 -14.97325569646342 -47.53477215395851 86.46745300613193 61.669476692408615 -13.603578041189364 4.49653767169669 -96.63962488076298 22.76426205823211 41.83649781505409 -18.704129979503648 24.149004186121214 -27.948959404355147 -70.14979554641265 20.96126826257555 -11.369401852756477 -13.063753330976471 -69.68450684247749 3.7873966324063084 45.552428380500366 13.774364049429295 57.139643582183794 -24.05766174412301 7.224779972320851 19.057524074156344 3.3262161368023686 60.90411394566174 22.5810815126663 44.29163157610929 -68.52975493386364 7.6728981523987985 
8.269015769946353 45.966519478661105 47.603145486691645 -46.75428082807749 -92.94040013535027 2.2690311168228 14.334460724518728 -10.713619816759959 15.148012019252729 -99.2220685489025 10.641251178350313 16.97997618022494 47.02178440244516 -14.745113278123744 -117.85555439124607 -5.958798261647252 -1.7109047420163632 -14.498531431237334 -41.29128263680174 77.36973203241689 -54.509770986611564 80.76349864623165 -25.415896410896707 -82.3621297875082 -2.260761918018189 1.9320254166512616 -5.4535351344671215 19.56980029921784 -17.143911928678854 4.653023105472789 -34.792303063006294 -20.98457638081805 -48.24437351471749 -1.2894644813893756 101.68409120464604 -12.411048526525082 -48.14842373567266 2.992171623647103 -58.08907883149289 -30.11959554568606 -39.077204074817764 40.19177214340739 
38.61029086907695 59.50466965750176 -35.51672651562319 -21.577601053599714 57.09466132555386 -53.833907728988564 34.93901846778292 -22.094467070411195 53.78302538979234 15.280755628994802 -16.884854197134057 -24.53328789491565 -23.875444945806937 17.004980554025078 -10.194743692316576 -47.298905486370074 -37.34805746843083 13.339393804203922 -2.595177551816353 50.24290881660066 22.429249176996233 27.635431129915062 21.197056588552414 -74.90460585404911 42.414340853045054 30.380018371122617 30.538787532285685 -69.09110005685139 -63.824040401036825 -8.975595513100236 -7.790224492778341 -45.27777633154049 33.559373274127886 20.663116676153518 -20.659053805402667 -11.075982378110897 -25.463334988871438 -44.4212137284937 -88.70087424724139 50.395376936081675 -51.68280201417953 -6.143667162459027 
39.58808086288478 -10.250683498276961 20.911423832439702 5.349563070477308 4.513797824889943 58.33094810290475 -35.41852694400911 10.515184924877104 69.79138321058731 120.16225996513366 12.70395518604395 9.030878781482858 -33.86589938813061 -11.01289795523514 -23.57018373373104 8.672092127483022 27.669973032996374 -30.248169343000928 -38.27981050367518 -24.052373805862743 -23.909486200653507 7.975903032297187 -81.50552315430076 -30.67239858011795 -22.042648311800004 -16.533903704555247 -37.7590606452239 63.75259907517742 -11.432162969801272 84.69090926983955 -60.98609009403353 124.87332758429824 59.892029930559914 26.812633712417153 -20.604551863226764 90.28043794865762 51.85919168359286 86.13605631342953 -39.62753040597554 64.91825423543274 -36.21202043430378 103.98995364214711 
-14.992561090483296 -78.68737278746524 -22.38117997520906 25.669357340890606 4.063511358276679 -20.552597534413906 8.905061162574286 6.081696725685838 55.89817562643659 -105.96703875809533 -71.60206676757377 -2.1346071195237037 -47.01210075789254 -34.889459556066626 -34.36060710363082 32.37897772713395 53.740770187325104 -16.60924067505123 1.2752864974005746 59.94837054827643 -12.674068515352614 -98.76013905509521 29.459479449938286 -21.36482453616879 65.36549155897022 -3.2709129892141355 -98.88384346766067 1.4471955400526402 24.715246546245382 0.3245894670096373 -11.932006799110042 -6.870119366830335 -19.75057928438475 -26.633256036413805 9.130556922718297 4.018742885110502 64.16791047520309 -51.12956042736859 36.2607075004543 92.19450093467765 43.123627334170166 30.646208511159667 
-13.068461768091966 -101.01003811341144 6.270596599658708 -34.076017215922626 -10.23539265678163 86.70336380443509 15.822213052287024 -4.903097439623237 55.41063670018246 -22.073142674761872 -3.65788400993463 84.96637430971226 -20.495243389931762 -100.29358062992564 2.7343808173564703 -49.550729369433064 28.47860071379222 3.9137313199242456 -53.16558558909359 20.898253415421284 -0.849601750216157 -46.74908519101717 -72.01717546993807 27.269991103008064 -141.40625980058067 27.403919568581337 52.856426220538005 14.558718594835584 130.67922573566247 25.697096042435156 59.19287853092254 50.59781891742686 -38.427404682664154 21.616852836482654 -39.660995236122645 49.8858896873905 -17.051727226275194 14.505449216733535 -9.938298375507776 -76.99492225197913 -1.3319540501499476 -42.75153450001483 
67.4792717065211 52.677260751568866 19.013549767489557 57.670804859948746 -5.184209121140102 29.212625465265095 -4.884208551911012 0.3145556029092471 7.626185229287868 -31.597096964128312 -63.00223499603177 9.627515880930872 -80.28174251262126 -76.38513417686035 11.896934946615847 87.2986224638455 -29.446087136018132 58.049145677734174 -66.13729929747808 19.415486466153265 -41.43151202167726 23.527780175728388 -23.479966851568385 13.258907989169193 45.39662071640556 -4.102363489318299 -21.30868438393758 26.43103009080048 46.78465737677494 82.0084477713335 65.14199237441152 -1.9654208994316944 0.2630879760472442 68.1075170811882 -35.45986800592992 -20.07782726159726 63.81428186160115 -18.472575845981623 33.19510320906317 63.06178916479582 -12.847862418457257 -51.74782075914796 
9.538356344642096 -9.604408845496764 87.06832780498921 -70.16962526193639 38.50019656695934 -2.4149491829499206 64.51189884600238 133.12349183312026 -58.23453798254255 -125.53972453300962 -14.75192767992445 -83.42513457031271 36.84748547147655 -19.91679023263759 -35.51523453155819 6.55546516259224 -42.05197732988197 78.66010184836412 115.05260230679998 38.13821867036289 41.147180224446686 -36.31432595821689 -84.83143974801332 27.40279958585185 -27.514449688524714 33.38304303611953 -12.929314812113738 -35.40217733002769 36.66196695310691 -34.16830100987297 -20.29657227898668 31.198104238063635 73.76984621743442 31.455587178375495 -55.44136424730719 -40.45763364383784 34.20622768641899 -5.937711476282063 4.689642311845516 34.12352108142094 -57.71088198878397 18.540216978549957 
-52.80097365768387 -69.72770380690903 39.17467665908815 14.153627891572404 8.98324266961667 -17.59137681396967 -57.20018444907177 -16.201348465305916 100.58840087284318 130.78838197734427 -27.483306361732108 26.000027044192603 3.6249434376410448 52.607058732721356 37.524737089395906 -57.75617128247243 22.271645027620373 10.78172042891254 -27.489687625407036 27.13456485074709 -29.348396808243255 -8.397358574155795 -57.868299006558644 62.61833608372523 -0.8785436887199416 -18.57717430899395 65.1273610239091 -13.020858912546577 -83.85605208124163 19.647445396158858 -77.37484197467164 -27.010149392634663 -17.485242402485262 39.88088969121083 -23.50066558718356 13.839464274418804 -16.44351908346623 1.3993194001807259 72.38702331001201 48.18311370082619 -24.4356946474005 -8.113111096700694 
53.646448183371795 12.700495988689804 24.4587731993142 7.375280503147941 39.20746026999171 -2.2953236965874777 45.06269181058642 112.93025656032974 -25.817800640081174 16.936859052785067 -8.03395044025023 32.54200181542063 -12.850518427199615 -76.41612990273399 -6.515099349860291 -66.03943714409077 39.21039072809405 -29.72259150992088 41.630352862183926 -44.54874873325169 -14.08547355212458 59.974333773250834 -39.276887105831904 51.448214196723974 -38.74788050209535 -1.912281392644261 -8.553189300670628 25.102572663356273 110.92937878054946 1.4398949966785146 7.15837224183449 -28.84719065324483 92.45940205287962 -4.987017322404617 89.32015554230631 75.75381437141361 48.29349291594857 -43.08163116649372 11.285776791014364 -44.85593998551468 -44.44485663782196 45.57366789412877 
-8.520683043097115 -68.73024372805642 41.274117556666255 14.852501351371272 31.53212317632828 -28.921457622663496 10.253012941760733 75.68929047992818 -24.880304358402075 25.919087904859772 11.992149163901315 -7.815234780605273 70.08341138243891 85.18952703078743 -19.94284414659524 41.26434803413202 76.0514591851672 -4.324167271257412 98.72443410834266 12.224606471426918 2.7731444992038115 -64.1897584665335 -6.350583665236579 25.629278780642842 -12.97547108850719 -37.26453602742052 -11.51551474059594 27.944587185271402 -82.95177146179716 -10.352060607337862 -75.1946335544512 28.75099036320458 -48.53928576813237 -13.621170670999868 -82.16887059796623 70.16291183795724 -8.511167496571568 -3.6290326012498126 -35.129908696289796 -8.625576137668892 -0.007092512875076722 20.285926836952747 
-24.59757665895743 28.870651220044742 20.417366088324314 -18.777575908428076 32.13921264602799 26.436832432875423 34.91524186461451 -38.244668809680576 17.514391346474596 -69.19272059677675 -6.759442900137055 -52.61548166103788 -73.19798723924832 74.61144830432083 47.9661717926893 46.506577040440014 19.21335052565747 6.736275306010635 -31.57089791388352 74.6568251941171 75.39053578112618 8.127352505443682 93.88609367405617 -35.458298225684594 3.8228747683943864 30.354468953126915 -22.8337004926652 14.472278390922058 -4.16453909393191 41.1083296283758 10.740356217614487 -72.24584885921173 0.7882235862546351 -46.520547344206236 -47.27776283332751 11.160604479508173 87.59346825639571 -54.52475606681407 3.0845236433012584 -15.870403761102274 -79.05560499447994 -27.678369670812202 
15.91944323039408 22.161338319976526 78.05619168739732 9.646481022192846 -93.7623565142263 -20.581091119698318 -6.2672011566715815 -44.07918075186322 77.12670411338522 -14.814036250633503 63.58760322438027 21.30415946051676 -17.532524055530207 57.15979382590285 7.830781762454677 2.036301580694008 65.98252081915476 23.70485327265163 -53.06359816493593 -16.742450665770452 62.91300756915718 -47.221933323425134 -43.89059370616414 -36.65273683863636 -33.55374692276611 29.825157105322806 -34.06691258966192 29.931234363443547 -55.80342399265494 34.153552244691376 -90.89982630736984 -8.90008043958277 15.35901681314637 -50.13341798834446 -72.56327156125775 -10.729820964333179 -15.361811463439702 95.36207680186392 3.5265615350718456 -38.580411899033535 79.58455656022483 53.64041269889285 
5.621447220433137 5.837745614495443 27.190359639001247 -51.438367114186306 16.284414387434637 -123.29194770965223 -57.97193042460988 145.145931895266 -5.559263896314654 -14.237925894142064 17.605022453970292 57.35121478645895 -39.92773392991074 20.70956777575756 17.43011198254184 117.0635402707668 59.41697413584218 60.81532885809674 2.1944139987158535 -47.82678590223944 28.967492592268652 -49.57575562453789 32.016365369616494 22.941307463172794 -8.347322250134836 -16.433349284399657 23.376974249904933 -82.40820753328806 32.36061931428758 54.104189156893064 22.10689175246228 8.979489184825178 15.947057843339145 38.790185908829024 -57.2210489410606 55.901897343131324 -17.17416095846898 14.369306078747393 -94.39386359906102 -52.8619021461146 -17.230704002745625 49.181100632856456 
-67.31141531197079 101.37863176015419 -19.16236623721421 22.162551681864215 -9.079576718969399 -27.0956899981551 53.01835234601851 -14.00265140973876 -103.42711916379365 -7.233886555956385 16.10579860308837 17.338697121661745 -57.070393879891334 -74.20134239419956 35.71596192528352 35.899081984301745 -33.14652098269533 26.786023879000478 9.658300668896237 54.583433314222724 -13.005274364395923 -12.15720202602401 7.30683873764327 -48.307613885914215 -70.43005714595049 -20.02832496928477 -117.8323041240398 -68.60541385028462 17.232182601168986 2.758648138174553 52.744854168195396 87.78186995145714 7.528702026733143 31.502634399792 -47.876229663566505 -68.06804236390013 23.12034586071352 -39.49613864361863 50.889320832775375 86.97323681191267 -19.76545009987725 25.217347989811792 
-44.164572970470296 -11.297255858198799 15.298555524347982 69.55930024503209 -29.105621236562126 -36.820598410073835 56.62865669430526 -22.248024924849386 -25.299555541924914 30.712831925792813 34.012961517611295 -7.03212827406366 -82.92015196486365 3.0207049923313405 6.6946351859296565 44.52518137881362 -4.851233335421524 -64.86131449201974 4.200935043758649 -26.856818078310294 29.008557022347528 -17.918208335003985 23.373366904632185 29.180978075766493 34.95616344807974 -37.386944604011234 -8.941696156673936 -34.53747104032146 -102.01299702730483 -29.035537264144335 -65.54758737788663 -0.022779898404789202 -16.80476764236334 15.454122392371314 -1.9485198953614289 -56.12234374997478 63.007787138940216 9.497191864528256 10.790121183443828 80.56370927447831 47.167917275042264 -85.40768856790528 
-4.530676469072553 -3.3130644686697153 -84.55948144993368 64.21400018876678 76.70317727036823 -3.2517295298108344 16.268666829513617 37.483063333568666 -32.79840291260431 20.000801990351757 -1.5174153209600858 12.55334445331365 54.36442991094756 63.28063135462329 -51.66231328175221 -9.96909911174435 66.58023271692416 -21.724572276094772 -3.7669088426411714 16.782705123486714 64.71319326581735 63.13954944312084 68.52290098683869 11.40988089758523 -11.718434616245176 9.064796340079987 63.975210957626 -30.45160882793857 -11.100953640942025 8.114674562703568 44.256660397216834 38.31273973115454 83.29819176746291 -9.991311384664696 71.01617205783135 -69.85437601175926 26.055057057856462 -33.5299854783543 35.08167687260725 49.43228687960386 9.298268017900153 0.29011388185755105 
-71.0620242848844 22.30237400382983 -23.3603901830264 -45.32746042973458 32.82217217487386 62.00613275671706 -43.96792231730936 -8.867001689794142 -7.511825920635149 -24.73637735967571 -0.6867104456177027 -1.8482212677855414 39.91082585562843 -36.18237829888506 -68.82640909362583 -60.61874210576054 85.55510037297529 46.80099192245165 -50.28300682201505 -0.8106121437480405 12.497976881169304 -61.80177164993239 -0.23928167794588875 -32.94630086895458 -12.363786214554796 33.67015948618795 29.961709651816275 5.678110832314919 -2.7186565584756623 72.30421325726509 68.37854544767715 -7.472981155432276 -17.481949943883713 56.37586495462417 27.20113620013235 43.49702762051677 15.414486613504556 -50.306438223169934 -53.18620974380412 7.403318408698812 -29.66146515050095 73.58358364404722 
74.56670719226148 -28.111870268208808 -147.85930122371508 -2.4229127605631113 61.16442653916158 9.418094284681356 89.40634997204455 -25.01676619777802 -15.751639103429627 -19.810027226935933 38.95350916884954 -60.1295191643026 -66.84761659336137 47.87107635425691 -8.989874396900074 112.22830239194982 -40.51088083559932 6.365130895433792 -42.769932895207816 46.414451011709225 9.734410641490202 14.41144054603808 -145.50229758714303 3.960885299738888 52.509016990218946 64.30630486819446 83.94810338274637 -27.210182157029426 -1.717749561229341 -24.778138277895174 -5.734167332233181 66.31397081501642 -3.9278017883755836 -17.674732508224775 -28.325630508522256 -59.64129968334767 85.7839129984385 14.570962297703117 7.957574048025177 34.4632694603348 37.69590631737485 -17.546582530909486 
22.8830960574495 10.991490921244363 -91.65745980456742 10.321968668348248 -15.923416343576521 35.374755676855905 -14.438615626210884 -9.12192170212151 39.830731848222285 75.361102334942 30.687260304029145 -41.690990801977016 88.82403812352146 -18.148749400864133 37.515633894427594 23.12155311494253 -44.20242540118312 -9.359495774474981 85.50296639438574 32.67305105773536 -19.72008075831276 17.86032866590025 1.632287167125124 92.84373979237107 63.867011697919715 -43.73836172030831 -100.38531818286778 -22.95495819306002 18.768174727409978 -48.90643845302623 -24.81437782915415 42.00802361746996 11.4358116766005 27.658675889022078 68.47194805175337 23.980202430070133 36.241224524122316 -70.15490664180888 13.494194028798429 48.53033037970199 -63.56360646513313 -42.152516312063106 
30.616294362797515 11.70170099221044 33.85225602680203 2.430478903834859 116.80953673160879 67.99259302925361 -8.798208303500394 -20.10962872240115 21.136526798304757 -9.553419820713978 -31.922699672146983 -74.82341098491193 -11.548842057377449 -12.403763860951589 -49.394249375198676 -8.998337809654892 3.3107833949371925 51.89823052529788 -2.0071813144602255 6.595437782100552 57.24363654431198 63.46206020692649 9.919591252831514 31.005554929945152 40.33037352349209 61.52604971796769 2.4701703512470683 34.44745605448955 26.695017551259884 -70.53547839228565 -40.39620461038496 39.72345590206397 52.027735324951045 -41.67832417134467 -45.28888490911342 -89.7256528452776 23.35203201185503 59.294855562415464 -36.4395519008876 15.864327442172486 -52.41382667845406 10.653896840178007 
77.48866598965698 54.59324675463856 -24.42374132395983 -75.42028664827954 -56.04173593119101 14.64883316332463 -17.055011857058965 41.736474104884174 -18.176233545583216 51.86432019480438 -32.4416802194644 -35.6178881632571 -22.998823923245986 -71.08298969883629 35.14522268551391 20.040573850268817 78.54400411098197 -28.311410361240288 23.878799818010386 -75.68500765981503 3.8661478173749515 -68.5437451612535 0.523683227474673 25.494410608167847 34.866598798406265 6.728007608196228 13.273985280685954 8.621086536322121 -17.492566363813292 72.5530032097884 -48.41365296577702 -42.62446045020772 22.598317089861354 50.58052976176641 -30.553040855080376 28.1801834706154 26.894523671625763 68.58382646081435 -27.69583195948992 23.617888469590667 45.55974967840803 -78.21825640434159 
64.20474075284699 -43.073543058269294 -55.9149156602303 37.36052967567716 17.56531613707811 -41.21072822056225 12.807708166052244 52.41541436685408 -61.263209190708324 -6.775493323533263 -22.724187856198068 -29.260457991237526 -33.973823532830885 -33.71757639379013 -34.861820641616504 -37.78787142722002 -5.30241658518558 -44.864736756952794 -54.24634418222136 48.33601961335653 -2.0258015742898086 -11.560241917147357 -25.444040664681197 7.802586725127006 -63.52882620668289 37.315382401229016 26.04976850305887 -52.076878025455876 44.087916667179464 7.243861741558827 -36.430259608759805 68.94684407843037 9.560916511923097 22.165244926906787 39.890753343068425 -33.61042651971119 -24.66075274569494 -31.548852411469568 -58.498434957134094 -11.382833725701742 31.090384914404357 -126.12839225931205 
4.889878760844127 -12.388023182841952 -10.902099493681948 33.103809085369704 -31.383226720916944 5.957473800929528 21.311779173212727 -58.19460754214345 0.7103201596998132 15.15364794222015 -16.127915216059453 23.19506702777576 -26.015658556147322 -15.317520822033202 -17.398033724884712 20.024515257203465 -4.02174933819086 -12.978091501612901 -49.576263281989384 -8.890838158348808 -29.070296467197874 56.888490024851514 7.943209815887009 -38.02241779724255 -68.17425803496656 -62.10504479094869 -39.67834250798879 -31.20431288100715 -20.924528340872627 6.2906155103787675 -77.177672215172 17.866894218082656 45.75172475795651 -33.57489006279078 -77.45890721632622 15.064559193719584 -1.675784913625149 -50.92824374609479 -26.410177176128265 -0.590252297950562 7.565063388653132 -55.43170163950552 
5.957337329963636 -2.8663309639640766 -28.78185232656011 32.105426776818206 -5.497722171918382 -1.7522289720588982 -27.940916691113543 12.583905323991672 -25.98405162774527 -21.139360248405524 -93.91592584495538 36.99288368090717 9.302208144303078 21.748711643223686 38.458693339936836 -2.230647151678427 53.07522160278208 -3.0021991842674893 -18.12131413718585 -10.13506663067483 27.850844879322825 4.498991223573837 55.82858158582143 -31.048664751674135 41.49202849482466 -0.12945210013963263 -43.594442383027875 49.86957413937039 61.151805471903494 33.89613763475744 -5.175753163602588 -82.19656460741548 13.37297851998423 -15.762751336543683 -59.74290282216593 15.61832756453662 51.06235943740695 10.27080521668296 13.620454978739465 -22.866963661881908 71.43434661170244 -3.2453231021429554 
-65.74155888860014 -16.602634040744245 -36.1165568437921 -9.228721072571046 -21.348585702983762 -55.72565800039798 -58.13150976806438 -69.40081089535583 -58.070792180185464 -102.6650548240195 -19.663912102436136 40.41982787528517 42.08694796682375 31.08444221873148 31.211763482733996 4.6140112638038095 -14.803733817878994 33.47169203895965 -65.91266350800248 15.0860061877743 6.501639177912456 -17.97647685150181 11.90337714148865 4.379591475170315 -39.372496375265364 7.71359948063284 -60.52973851879259 -13.29547957586692 27.633706794263624 -17.29566304522719 -45.90618685369375 -34.76338250700198 -24.07472342060937 1.028933752602163 18.523862091806738 -15.838386834046988 12.637916921111787 21.918226283951373 75.93413346987303 81.40057969634181 25.51442273496508 -24.09697764118673 
43.864390804737475 94.21768308787365 -9.759404568498697 5.603671989346584 1.9399807373040032 -6.647782054330893 23.507663899842356 -11.415295593043528 39.69360920076897 13.389501305682199 10.464223856543805 -14.513053487684344 -56.230114584933254 -29.016727469843968 30.77672853289385 14.006602292528749 8.568792787250027 27.8113548769721 50.54905848461256 -63.880576180898565 -6.949043706312441 -58.56575249967199 -14.154582540792692 26.355550893087756 11.7298231804722 46.124405290851826 -12.41551848496923 48.415013766524936 -8.136873937629087 -57.03657534674906 -95.6616851243659 1.8703858028718827 59.051066842098024 34.05067312214307 64.9367694224953 -40.164771540629935 13.1708880319483 -63.155924102015604 -28.95034089379083 -33.83155308599619 -41.815367267687115 -9.446821757072694 
-38.59059527740343 -4.603414391185935 0.3703905967416656 76.39779362981784 -28.582935469546797 2.6543190897154525 -36.923731011802765 54.50230039879138 35.436939966466454 -19.16052812852801 36.61326828600224 -12.965499156613975 -56.490540927868885 -63.740870714958696 -1.3818854587349465 -47.369979658946434 29.539515278558397 2.2421633493373614 64.91680778002481 -31.05479985690602 117.13838173816495 -19.706445138549945 6.760515312035567 47.71644288832356 108.07987762034587 44.81476148583637 70.81722634017 -59.02951165231907 -115.49009270867272 50.934925518840465 38.404804557432236 43.13543282317214 42.03819929083461 20.288179138323724 10.647787772408913 13.842536865631088 -11.467144533980674 18.528131534366317 -30.04678517854759 82.66349636959343 -3.0919868491939027 7.510043717288342 
6.943061677623786 -66.11946392545933 -10.737694906691805 75.9494723805955 33.35459276345121 76.1603203596813 -44.248856114635664 6.440393159444045 19.72348755159746 -18.740202414220068 -86.47186071185577 38.69244083323072 -11.748309983133321 -72.08347295436043 -9.594977417344223 27.86047769459148 10.94911657142994 -1.4385778242330618 -57.109811953904185 -42.86054612351852 -10.966062093433072 50.67714719226555 34.447169906356926 32.85656363091735 -32.86618770266178 0.03404223226804847 46.09730974133815 28.644679963982103 65.96061903541904 11.387542474439629 -4.088812001509286 27.88013021104975 117.96658130725434 37.86392945311992 75.29380535468813 14.594034998154553 31.219937950669852 -21.513725147404383 9.560448329110926 -28.888002388673737 -44.26125583399107 -64.76084552295816 
-60.666117458967 -29.330436283869886 0.13754096699920934 -38.68539403392806 12.775758882239518 -111.34292774313259 -50.070025862332784 7.854652024655683 -58.02574895435967 -32.896468964807084 -36.20960846112376 -10.168213182882369 0.256204538398925 58.8468771932584 -8.459390703221606 6.475734030040088 -40.795285784927856 -45.81820372863632 -3.2105956732555305 52.14650877202784 -6.733285527578958 -75.50185022728249 116.53106664209554 49.77889473595401 71.57330150054305 -56.763206354917344 -40.40622663014678 -56.958791440546605 9.605186630229824 -76.65062027753022 -9.854205927466982 -51.98751203330029 44.9089766066916 -74.46760186562189 48.537987414061874 -9.75429700409282 -5.278905635220745 -45.988117485866624 -24.735831672558216 -128.69000959219514 -98.63449196957279 44.03120243250713 
-0.6099563803038728 -26.24725618544656 -33.498974121145295 -44.440618563298976 -123.10592160326473 -50.01603758462475 31.517651090213242 20.466750534449726 79.34111341774427 -13.992297016797359 41.3432816664946 -3.8899982040284344 -23.981781046625525 -62.84956941145172 50.529797537197815 47.863546046619085 27.72774207103208 -3.823216752790255 9.494818699476257 26.112861123471387 -18.659164869174784 -5.175141384157422 -101.78402439606306 2.5483417087712255 53.052573279760686 -34.432896415745056 -25.32571730887479 -17.680988960997666 55.8138972120282 -153.73224791544862 49.99175522957218 -11.627026152616732 34.81425060004899 -14.411646397355687 -4.172795141231352 27.967333679041182 68.8212124666366 -8.30061253759628 21.072120122251434 -8.29849056888021 -62.05480242764733 18.59567069097593 
-64.36742802076009 73.38154437763312 10.31315730858859 69.79061613259876 81.71229616059084 49.28264204541322 72.10609403555375 10.420134552022203 52.542882134592105 35.51197440213759 -52.144903783684015 -18.954358418448482 -4.648081304794107 28.15154670498161 13.302933727665073 21.389067969198695 -62.22059028589577 42.716598924816 84.05646771395735 -103.55011083729468 -32.06719546220543 72.88744649661606 -56.608178019769326 14.825050917055 1.2148425691383762 -50.06895674946341 61.457883383524006 -20.46501013016544 13.74452292411574 17.893247161730397 -10.735657012251039 -60.54236002435516 21.553126188405113 -77.41621469753797 17.774851624683954 -6.7475719256432765 -42.47153382520414 -6.9232384349113145 2.278490284429301 -33.09843740086336 -0.10692958240916343 13.50296289820645 
39.99035145884471 7.633737545045244 -1.8611512694046102 -17.146211214537697 5.274054258997825 -37.17108067960619 28.664195194696497 10.120589715497335 47.42897089525352 -70.93002238317405 58.61322819799627 -61.030498914135435 -8.91146000701053 -78.31361334639679 41.39494985727774 -31.69756527315908 48.38129913904556 -49.32992651885286 -14.917171555395464 33.82350145158049 -42.695987881990455 -9.978962071036014 87.93741454450902 67.67884833905009 -39.30569609783115 -23.814717677527018 -79.92170806198087 -22.016339449928328 -36.937187091238584 -52.46426201519842 13.090658460348005 -93.34478588530774 15.057297313871477 28.88928996356251 16.67782264217505 76.91446933305029 33.31850142555861 71.35563593906188 2.491381992145011 -6.557107155397889 37.24039271112987 -15.55408587386588 
67.46291418577135 -5.509305110384031 8.972891013800231 -48.245722594917176 -32.731985938978944 12.040272154531989 7.952191591932689 -64.32961970094892 -76.70552372203471 18.73222423672977 60.18898012353459 13.370065299944056 4.505886066778477 -25.166661464362765 -36.136833175538555 -76.40104737148697 -9.961185046916054 -6.023139929232203 62.83398304295882 72.33992109337613 6.459371481998317 124.44894166110937 2.5229233544098566 -54.70251084386243 -4.820286445629471 -14.245620981253804 -108.70517355307915 -56.57735095215969 9.43717604862697 10.720078708576981 16.84274456057185 11.30970536510193 0.486765837812087 7.18796184964266 -25.61523661130728 13.825549875782954 -87.13304355870119 84.50505385271302 36.59879506002614 -39.85856967044618 4.607808608709213 -71.54070940070383 
26.316662672279335 30.68654586247442 14.702433960968397 -10.418116265077185 4.618030187142241 47.449978793909445 88.53935563425175 17.242955703560934 27.98009018986513 14.03759556619948 95.48855058141905 35.4444301628648 38.28601277532256 0.6111403445040945 19.451635468958195 14.747892048257597 78.9880578853856 -18.89098072766725 -21.537769033168342 36.04027418791716 -74.47026856762211 27.892467767674137 -50.246555304586416 -59.872360715303046 32.24938369060897 79.7108394913539 -70.99233414368604 33.31301769833278 22.16489261107143 62.755102529581336 53.32479640264923 -17.120861752186954 36.231110529657265 -27.10161676745588 3.8983572357303937 -49.67442783081419 -26.555994500425665 25.657746225954263 -51.230581442005565 -35.82845978467395 -84.60781111070438 -45.839887366953995 
-93.11572454632868 -6.2281475935401955 -65.80207788245353 -36.333128236652016 38.453174068983266 -10.562803597351408 -19.27885200365337 -8.229315823565159 5.54156098938594 7.824760202108007 -19.71507365084382 29.939593444942407 -56.29264117879475 37.07154723896715 42.85000309681233 34.5691700162226 -25.467854276179615 -74.85785683673646 -16.484823590793958 23.423012450433163 2.800435643862908 -18.454072888700356 -90.6024358950352 11.468817736491697 64.39987895933982 42.440847306986555 8.306204869359895 -29.520017991982108 28.123201453485418 -21.007435468906746 -4.860652240296371 -15.771372023890207 20.420306001327038 -96.21802749003767 -35.75576091503898 -9.66065020021597 -17.723792828335082 -43.1501420175142 27.136619842041267 12.179143146875264 -61.86381558186534 11.319849594826161 
-102.57807388591758 53.567835197906675 -19.90019382098851 -8.469528904913364 14.840041879970094 -1.207142673105004 -76.7471749590155 82.91495383357112 -13.361268386591266 -67.58761286329435 33.98678270110459 -9.27742440691104 12.017526180622802 -39.73297348549778 76.12742279545158 -53.294400523617 -91.03907705666641 14.799797563373035 20.25674579932711 -37.95935750944703 25.123507705332962 -18.587454912017392 23.942507487178588 -49.76996615378848 6.6795559168718786 -20.31283643690738 -17.295703782163724 -67.21442614375094 -36.018212242363454 -8.223671988207155 -44.38781232306101 -82.80661152444199 -22.629951805058035 70.8694985931025 -102.50594848793632 -50.97905743248143 10.853582672008594 -25.222198247279792 20.094094025224713 -66.39180540769712 97.39258219172481 31.423287054527858 
-68.41230497860927 -6.0717664329044 -19.566726856769154 -2.504975996124438 -100.74253966546995 25.6726637164751 39.572060308737555 23.596700699070176 51.56663898342199 101.78489368546963 107.60699104534216 -14.05570053665028 18.199223433417462 24.023699378153648 74.50086213428004 -41.07144076564455 -20.913483274408875 64.84853830190443 -35.619402717474905 38.254952999386695 -67.52949073321714 -0.9219971671568212 -54.80838281438472 -5.3675905990539485 -6.1898431331816814 -46.010031247280075 -6.8803039993522255 18.815540039885654 -16.16083785964394 50.09405143122321 7.3581808723746525 7.07236957666149 58.77358694813053 -94.02575480593514 18.014992968291452 32.748674045228086 68.47341011110912 0.26905810077086095 -26.99586883429193 -12.168686105786039 -64.70914377699957 -65.89503205293437 
43.74423157510031 -22.7308443719413 -83.60370490714716 -50.00084931530807 -87.20450945746418 -43.338894571230156 33.23457362842459 -4.494532549872473 61.81296866457997 39.1229815467061 38.7740282101328 11.948384233419644 -15.320927740304198 41.280960685051795 27.88963966487778 -3.6228600222189686 -20.759159038538066 23.94529045829541 -23.076114007731043 44.331722883568595 22.44766069190269 -45.94521293216655 9.645453990636144 -7.5787440698362865 84.09383264351418 25.34578934587748 -48.118665480123695 15.350589343694242 -68.33812187680236 70.71815901521393 5.312740427687873 36.45118403716506 -35.948344323727966 35.16084113840852 -45.38450223879817 50.52545331947886 -36.670581984266796 -30.48821636815876 -70.24351875155492 -40.23253743229995 -48.07610184391967 17.19022158246789 
24.90335527827146 -7.144425009004903 -9.995372603764656 5.510868224850006 64.81142795556082 82.5727097451701 13.777493104351173 -38.26412920166555 -63.705883510035235 -32.08683592104307 28.323814455765536 -26.534426448358378 51.923594635339015 -7.127173316935254 -11.238295225976863 58.20455922783755 4.7346101949882105 -7.610770601624089 13.217896203387623 -38.31382414134794 34.25902197832852 13.613328798678975 44.680081250573664 40.92810629070075 -44.67510393110695 19.396953673973226 17.561500644559306 61.18047870927877 -44.24882445690942 -38.43719618426305 39.512771100538366 -57.26622022180194 10.293126612843176 9.56180880747241 -34.44456590325813 69.29280486262034 -3.3972890983630686 77.184340862406 -40.791242357134664 38.610722659433385 61.775291994026176 -56.2856125913282 
-68.8191976251123 -113.66527787597065 77.52512522319664 -19.56509973425181 -27.204055745044368 -20.209879422866635 9.46057234113031 5.80870731270137 -58.709674721359704 -59.019382751435224 49.178667170995205 -4.065978282816623 -60.00454326008723 -8.235341590114619 10.30139339059439 11.82596239562995 -44.618253292220764 -20.766289153913455 -13.186589820917616 30.91608858130467 28.46960913756218 92.46664673829405 11.703585942896884 39.380088261520704 15.803429257915635 56.01379162861682 -7.329105904161003 -37.487430357106284 22.537015480220628 -25.005424243624383 52.18689908058526 -41.321943321641875 -20.962984463576188 -5.979972098535321 94.50722462612167 -64.58526786035382 30.43660031094616 -31.03917419902716 17.65550031796102 -49.12198634581357 62.03139033994204 31.30254789417303 
4.076174744040667 -0.7447734692475254 71.07132901533755 -22.860647721858655 -18.824479530468857 -0.8706037012879767 -63.083608335103484 -23.246791191828034 -86.21275172574137 43.29041077038412 -6.463537553600251 23.58128672630737 -1.3678946958652238 -36.48282395858761 0.8507026505717528 -29.83200787285271 45.08272829570852 -25.109471406221093 3.327115383440207 49.45837058546947 -59.63752035001924 10.550047576194585 16.32086214523696 105.6533291202312 54.53905568085608 -29.71603813882628 52.9501458530011 19.02400673421697 -56.27407277796276 10.158733016431825 9.42626496443255 43.40329556849059 -3.872069109111212 53.85752271352868 -43.04157516668285 -99.25360812744795 -28.331228680628232 -13.066081571901968 -47.29270732015991 -64.86424375135377 28.38096038651069 -13.465575755296282 
36.69686147221605 22.239926870862917 17.376721760709408 -65.16029348529402 25.47937598215599 8.420354821545788 2.989731360807909 -12.805440071335598 -27.739946753682947 -6.688653354295419 47.85572907194229 -49.411313114428836 -54.464140185401575 25.96933573648337 -22.907283156387106 33.43464247389268 11.943090920951995 10.639089977121106 -7.160546779207908 53.803940709447815 -1.1018149836567641 -34.748270961521825 -61.1835029773222 -104.7999467183631 -26.967580991318407 -84.74987839648695 -16.940447923829094 -32.04451818819217 62.33093967039899 -5.769590437449644 0.279698923924958 -27.991062647979785 3.325508190017165 19.590585404192222 11.177679060570494 -14.92754173108081 -20.527025142197665 9.550136014879186 37.97584626758778 37.0697682608877 27.12080072144279 -9.971861101589704 
