65.98160551186781 51.317905032999484 -11.2371704564603 -8.656309002022029 -63.18208893767185 -7.180741351966522 -57.798368493647885 73.81109618093275 6.505121270237055 47.41611512747179 -17.935431603022028 10.734994512592195 -53.64194704659683 -4.3985825093323925 15.548892750855142 30.19495688321894 -52.48005670958496 -64.56548120146394 -46.52287780152964 -8.909114514740429 -47.65245679342046 2.451053536541127 -64.67020390636253 -16.548444765380136 74.50898639379153 -24.054276101757758 -6.842248007270793 16.576123555990957 14.454585921499282 26.595937563520437 28.42514876911052 -34.286724522491234 6.211668327298136 24.484331833721154 55.593651111026844 -14.409390209378502 -10.607459029755447 9.87728503794971 21.683426985838988 -26.454357476184658 -0.6337784541886384 18.819223824801647 
10.27365798598394 -22.754086870221915 15.731911871471874 -32.94610267068525 -58.9175159859979 15.974371155442599 27.867459094741797 -51.09507750711463 -41.73243166357689 -36.68920977442431 -55.77157613443994 29.042934558815432 -7.911645454948827 -12.356945213662854 9.225591320153564 -46.70850001901729 -10.691377980135636 -78.42478063832868 -38.86260287155069 101.76039896871922 12.03218181148578 -62.79860749226169 19.9348731274376 16.299496261336227 38.92720533236176 -7.7911898647337825 59.333250692978886 -50.5659422070831 41.74739576790592 -62.71094085455299 -108.1045717426874 102.36794793296065 -11.177651295891316 -68.94142564297542 17.841909941571746 67.96352229005679 26.665475535663067 -15.147921213718599 57.423407916989596 53.216673857287056 16.0656967122116 51.92785734029037 
0.9616921052367224 -24.311763293307923 -103.26573935796652 16.75758106421911 -51.56286032530797 35.048507254890644 -106.33904222063605 40.13747684857818 -21.57526716536502 -1.638327319219898 12.134626306094571 -17.236686531848843 47.448305716480654 42.681412934053554 25.686901446621896 -46.36881718956904 31.183927986856755 -20.440253803818305 17.419776238205603 91.52005667325393 77.71441247937614 -23.308344589052258 -4.791550253908062 -52.00118619701583 76.63929107300868 -47.50417631183163 -9.794394764106011 -23.529675431474487 -12.19497075338841 112.83941957192036 -8.409811963153336 10.7265122266967 65.12465154697725 64.59493552709053 68.46680106030395 4.274379697222938 31.919257319843183 -75.14355140935966 51.0483683731472 35.30454899740868 71.18663918712004 66.12857019903379 
29.699242736301372 -49.29415000649742 -128.35903294607738 -31.425128703379784 103.04316573825585 -27.571926925592976 -105.44212065436062 73.53264976254937 -18.975548547467163 9.305533770125821 20.45833303378403 -1.3326967621285606 68.31438143345522 10.480751028206383 -27.932984164360903 -15.133614119041464 39.9851872931721 54.22687615007595 -5.133492833093127 -73.46789407124095 -31.39496595739262 -14.257003084130591 -36.3493593284228 -7.110115704127802 -12.146306819697978 -3.317225320491473 -10.553326454333616 -53.31147280641148 23.943787296286583 33.463746463498445 93.46730218054533 17.566202508644338 -140.56533594137744 -10.853061561332469 57.171806045778204 64.99157052888205 38.02157764016749 -10.15479091831849 -61.437205532620034 -1.0036463593840415 -44.55494909442065 -99.05811319745261 
14.035213362104754 48.81715541516485 65.041060592383 -68.14464297826208 -17.374554746345087 -25.19300324078389 -24.592532413324566 43.3765678679967 32.04674560902943 52.38669591979974 -43.592563483174054 84.82127205835856 -65.53715392699489 4.539986176063649 -17.395658413659955 -97.5044278303054 7.133449091404166 -55.986076252082135 76.83746173882666 10.525347868083283 -51.503959389531204 17.443213683382652 25.911330167202543 -27.26235169253139 -74.38111811354146 82.8722688458675 -10.98320340623074 37.924049786355795 -6.8952943813206735 -15.76551192172478 9.64639865366334 -57.73102937110321 -55.806975481864676 5.963497238889515 -84.18978092372065 38.38470474847148 113.14910507260241 -55.84473040168381 -13.469190072367724 46.14088641418379 -20.163548714044207 -31.09298888626362 
5.6515666773471445 -38.87044010754793 -0.7117034958197103 -13.9012614141315 -5.289990166372696 17.055159974728753 29.350065659436705 101.99588022959253 -92.57146760184418 -15.725871050220071 -31.307417953817453 -43.18787812984582 26.306610192148174 -55.87206924618744 36.742289319030085 36.08232105888928 -101.45077628385499 -55.5283556662163 -18.11198672972494 24.685971166299563 -20.01562386319791 33.11806364106242 -27.860475446780182 -66.50059575004622 -12.694771619880704 29.19777536034052 -84.81486894526238 -20.650847134595026 27.89480399824054 19.801564926555482 77.07129096770817 -47.516476699131715 -74.39957988462949 -44.784406904357574 36.85976995154674 23.97898896763427 11.969370967916381 21.52116676814392 36.486664302673915 30.98187887156989 -4.919315372745436 9.755894677233037 
-67.17722134390543 -121.14284216509431 30.08446047505455 -32.18109719038084 64.64260905064151 -8.291301805181647 -34.62651898718688 -37.00442970117743 -69.60876732102975 -38.387950003173465 -52.78052201033242 -7.030831642940881 -7.05542595056766 58.87272300801935 -40.95898625052989 -26.5328404729902 -82.9148475452375 49.90310979759807 9.982556172654874 28.046749464591826 25.16805315519344 -49.70811495596714 -13.435525654346268 -27.06959688820862 17.31178241697791 -69.70848087701934 3.553678736660561 27.235707601697737 36.49496070251327 28.63093729416296 -0.3776424453252691 -52.19606920039785 -27.330815819554882 48.36862098761367 23.314206066776 -104.0339218302351 86.61703688202925 41.62063029681919 8.213627594420968 -20.531990878839327 102.48167391220102 25.015212175034915 
-25.88005468179207 28.687860247595353 45.00104205631184 -19.77495870996239 -52.00897405352863 -17.063357432569816 49.45624900294417 1.7509117687847051 -52.108903470140255 42.43566028220762 109.94377307527263 -2.8725708523259588 4.282497586099329 7.916264569811376 -61.70699128259754 -7.407130669716892 -24.53503074424818 -1.8624022666620972 1.7876562707106372 -34.970781099615316 -82.1380576504785 -114.3237691446054 25.537703178643437 -68.49763883886651 42.03217744575781 -4.630343626963527 -37.93503521387539 33.38595191734979 -77.0733150930477 -8.00746020785629 32.774480563530915 -100.39642411534179 21.535707749910976 2.2482664070641905 101.90968543472539 -37.66296647256176 -20.299578221159912 29.645730641869232 -49.89306251427192 -66.5613666043953 40.160217120428705 -27.218201189195593 
-37.50597074490765 -41.72875511709782 -1.8799635670844141 50.41478161469789 -17.06617030351388 -44.822694950350204 -41.79490811337325 -28.141719519797046 32.07138459856021 -20.75236472191705 137.9035876781618 -22.03369599155119 -80.6844811832167 -52.57723371432118 -30.694262897719906 6.474609023566016 -35.57017047024783 -23.97390245859136 123.81240773544556 -53.63723189778983 79.06632153701571 -17.99643966897065 24.810656041573225 55.218368927529674 -22.05229788898841 2.886138634510764 -32.997568695904384 -17.965736432437247 15.822756613546254 71.64642060007608 -27.69983727272726 35.44603682570093 31.661339442983014 36.43418852352499 75.49992549788293 10.801174445109037 9.27089740172278 71.3863447379193 -39.21854039032044 -11.461013439383702 7.1619188359180965 18.196020526052717 
-51.960014196981426 10.726277347675964 1.9442850271371426 96.01918862065608 -50.975285221624056 19.65261743793911 36.85126411331178 -11.06787350855522 26.51296401377015 23.038267918013535 -88.82881199731199 1.615201513984871 41.25384610441913 108.62338242171697 3.927449629237567 6.724084791579417 60.10676148917245 -26.50213543504289 71.8219736052166 26.333895687281395 26.55017584752497 -38.924081029194014 -83.18174591937941 -43.42643518013842 29.500568634645937 42.46995612596907 -21.61771808718468 -16.216464572412693 -55.20763590060012 24.45864417205493 -69.40984293519442 35.82019687329436 -5.833880308005046 30.036710404728648 -40.387668107865466 51.734452222830775 4.880309402284183 -27.28877807376942 -39.32147690381879 -24.42550392435908 -11.947468011544002 0.18996553823412 
7.907883199776689 44.27886999825257 -16.808972121102567 -117.3233625693291 41.98482387574506 -81.1665485671573 -26.4425713716021 -60.28888073798482 -31.89192682818878 -49.86574695569747 -16.750687130423845 -13.938996034373234 2.88907203995972 -24.00303522186418 4.92882211864401 119.55576022685567 -58.2559023775095 -32.7651985412456 -17.446653995479544 -57.72065955773805 -42.180080082086725 29.3953146793858 5.758609801936809 30.377950268818655 0.2898849628746898 37.45830440060327 -40.16553356659225 71.96888374856876 39.295300490268325 43.296988442808825 -19.29144317893812 46.12427450269915 31.333554511250277 -60.775792348353654 25.94888707128151 -27.296279006366227 19.505565936393737 63.04439883274332 46.74925527744261 22.537494170149984 -90.71518780804031 48.6575349034067 
-30.47469392845571 -22.995523764950818 -48.82558609115841 6.269282355735376 22.964973308662294 62.96433053906835 60.91928242614903 -9.571263394111574 -1.513173120343044 -18.00429557270671 24.473871467109387 45.41847331276894 -15.964874379390361 -21.94714283828299 -0.0708366081003517 -18.21270137198932 16.176015994354557 -36.63224964088021 17.488401711917028 -118.91892348868093 88.60630807025113 72.00549361368151 144.15550658310966 -21.46896499208645 84.40754802499833 -55.84214032799792 110.79019112262469 -40.817572839777185 75.36395163428882 17.61380490419031 -15.145325609959901 -12.78976111048579 52.137057617842146 -29.110724974787626 -86.59129195857805 -22.20706522488885 -79.0154943183587 -38.851161196174296 -55.67444515468566 29.016321731213385 19.78677541459693 -32.854743437012246 
2.839756177072187 58.45256359919708 33.23342627227105 -31.614600121934828 6.323815852835217 -13.774630634542746 101.10613331732773 13.541728364936313 -26.85803800478508 21.484407425471794 -5.26857255541279 7.7564723488214415 2.921553165253257 -48.61988884310653 -7.181888591967543 15.439889543488338 48.07188310725841 -34.80778361246021 -25.183437801917417 -24.240372563996686 -7.512580554237547 20.67509200085431 15.790208725453427 -35.96221567186441 66.27987696901938 46.01007284939274 87.18914676855546 -44.60222364411779 -76.59873725580104 -6.176433882455746 -73.420674025157 5.998934344147713 7.908482863444825 -18.384613426611637 -42.41700775222444 24.204639047989662 72.05377767051847 -12.299961841553877 3.1223630310830868 33.394502991669476 7.559921391237398 16.365969353265417 
20.8205979562469 -35.92522145459983 -16.08545794070589 -39.62788179066698 36.54635082404666 22.8051623485082 12.005457907445606 -8.13997908817002 70.64658523814106 40.596248672052376 0.6790727678487047 80.11438670791603 19.8936231109236 25.256777091074838 18.503730145102296 37.20210663256428 -79.17564030179973 -60.498659074579315 -8.72474680036359 -48.95654209446588 -14.984692527048587 27.659706613059285 67.1783212806437 -5.592962523334159 65.18105886482908 -96.87557124695317 -38.623514730443716 42.73919260666943 -42.43163910627442 12.704871444334378 -43.264172145610026 -10.683055579976656 39.68494750240166 82.49065927265109 -8.628613247042566 -67.15721153037808 41.12253819297463 37.168945627773724 34.895911751138776 -49.311087295971674 19.10638578196777 -41.20669819277505 
87.83558279250909 -9.878977006618891 -16.703650629399625 10.977142353957257 -18.04291923216338 10.567163836391543 21.607294255596734 -14.449901327967881 -115.52646137262094 -122.24661979435527 -73.76972936650648 -10.197621541760146 91.79299004766725 17.99667415996632 28.53672516960015 9.14631668788765 1.227549627652864 70.13083393141655 -23.780893210190357 -71.36634647991282 -0.6830639614966962 5.248077024574189 50.7657195795381 -9.013588124046189 55.206135958455114 81.95331868384024 11.141543291891338 10.330884227736762 -18.341174062505452 108.30222427639502 -47.50171648877516 -60.16005668493204 -49.86295335736739 -39.744531063035076 55.05664229998065 -20.234886578777623 3.976893111789162 -24.447211923390753 24.096506138764294 77.2209517466548 5.919380742424602 -6.882043586175238 
3.6909710562248867 0.9440275309398656 0.6111516867734619 20.726269436510737 -9.635092606065808 -2.5768868918115104 -79.63350089169062 43.20300786739108 -77.0349734916076 -63.819077449444805 -64.03874187638438 37.64164336883175 -92.10019906877116 20.294244836547048 23.045903377613893 -39.24426767286537 47.42408151069457 40.19604621211359 61.50517830740322 12.629770239280433 -119.25176816996644 21.820805811250633 22.304876017344682 41.652066429249864 7.783688456566279 6.201742220426081 -53.13551062049455 29.929226557363382 -20.31656248826925 -92.94700121552435 -8.292590881318308 34.88433011463638 -5.414375371211272 104.18598370887389 59.09243601293964 -15.616419948001859 -19.941806899161655 25.013320793814334 34.94723734843547 81.88139832240638 3.744054619275223 59.654791963882765 
74.23402523105902 99.97179971646574 -33.186184985491266 -59.206561105342395 -56.93747406305964 27.705071637394997 -53.79379118110914 -39.70157337991012 23.920197527743372 -11.372896410985462 88.31895115768612 20.129620683401054 2.7082127698882084 -33.6935755645493 106.15006342762177 -31.060982227380855 -46.596236465319826 63.28382812101063 -11.050611160907652 -20.171439718686997 -37.60676716009627 -98.07207397953684 -4.869452046396178 41.72553368225233 116.72986002770169 30.210322205789964 -122.85659653796819 -31.226313871093858 54.8584714661591 -10.245928083251393 -17.199239064135803 -73.97290013309583 12.530803775244378 50.04217752201262 32.22517542163614 8.830394802445374 19.459984388793146 1.1829639462051047 2.3990632615934686 101.31219411040651 -61.80637239143568 10.245158261548617 
-55.97657783890967 -78.39024703324601 48.76712576089003 16.73289059048838 6.409757638263867 21.707054842840062 44.76638371729652 -50.75033652211936 43.60445628331683 -44.64469956581304 -20.46365036080348 -25.170291482805506 0.04962904800047768 -32.41245008304655 -10.563719615142894 17.047501500272823 -63.05312637660371 -23.17689201985519 34.4602462755306 28.142813773595233 0.7159572808616763 34.08943451225449 130.76197265572907 89.89023656072357 -39.64543582182758 -14.52392382645552 -13.754111602565585 -29.518722050875077 49.55426347488827 -12.231978346704688 47.63893659527632 23.161393053948814 64.02788098969575 -14.419176315307354 -48.24471463614136 -142.23207278307405 23.046775687475318 19.577614364248845 0.2512272408602238 -52.75247233475876 -15.526303462284318 -63.49602017051418 
-62.325949744726636 79.46188194018458 -65.26484833756233 -2.7004853692522426 -37.32410222132436 -87.4830693698682 -36.13280800566033 -25.288982356217534 -7.011527490683791 0.19484552728165772 -55.990368405066846 -98.36996875202018 5.913235312441192 62.02891537805415 96.57246807573024 -5.169871388136384 -78.04529376877372 44.00106479471989 -43.41395393412862 68.87913346366237 -8.616564494632483 -83.53468840759447 8.752992049881197 77.26688895980604 -26.135931917086584 -42.858828121467596 6.707749823802906 -28.578747523220844 60.72900574212512 58.63658494573829 -36.64715213951985 -5.015995794468743 -53.81121518382749 -20.707708544915082 14.2420325741892 17.376722609861993 -0.04782934720829629 70.44827970993676 76.55781425338205 -0.516702053956682 36.21718378647096 44.3065660968927 
37.967919141885275 -68.47020967439373 61.146952603918145 61.60685321086868 11.454526161926767 -55.34279542088441 7.794200584334319 24.366573285051516 0.3101523308147457 27.812807419566063 -9.852603347348294 -2.7024977537562656 67.65562558099256 -13.075029531469461 -21.466038962844618 -22.693647877413937 -23.566846937362936 35.43817977334193 -35.996900968356094 -25.20775694264913 -16.080930321948642 -55.01523360922878 9.308817413955609 -0.01454894113276517 -17.216067506699154 -34.416842484149775 10.865181282033507 -51.867556214260865 34.435067083074976 13.38936670745498 -76.94465010106258 -39.46195196682372 -4.419605582842188 -65.29272462992728 72.02344130236594 -0.806058758409789 24.47960336334855 -11.50247848347043 75.82258200987252 -31.388422909801996 29.51989756293464 -72.85363415179518 
-9.057555122224176 -62.35294997525927 -15.110955638964478 -50.028159432560614 6.649112390684593 -3.005552827950518 -96.59057434005723 -7.27735310933933 20.150673579772185 -36.45007387174546 -15.569172967357709 -37.49608962216009 69.13410697103082 -33.68716253674412 -18.79197246047632 -22.724385858248887 28.53497076116199 0.7792381687568302 43.36955656657501 -49.442445912961624 18.75238831399773 73.80859443153206 116.10165789496898 -28.037018133492822 16.67014303508686 7.28043833437692 -67.17203190683693 7.759564390175474 17.222311169594075 -1.8191194990402724 -25.454892744533055 -7.040105818560416 -20.4473900572287 38.95702577961047 57.136223069110976 -39.18979441030301 -9.758850307634457 80.27684921460161 33.78762266702741 14.691355082855937 0.4609281220101274 2.155976886023647 
-33.040986181033354 -42.61868089198973 -16.938437092545254 86.58775693072705 -25.53593659899843 55.745599353112055 64.56929502327081 15.867649652393489 3.648933230115464 34.506575395567786 24.108033420651797 -31.137629004115542 -24.027519393433792 112.5714181066432 -2.618646608180593 -27.221960511008554 -33.6428740768787 49.722470421587936 -15.447551142743395 68.56732170343723 78.60095030037182 1.140675434297658 43.94605522076779 -44.60376307172969 10.420135043808182 -28.596875880736928 -37.219999202781295 -48.387877691693895 20.749947483768956 -91.75318865820192 -84.36060036639162 -45.20819806970757 20.159666836997292 -17.246390236265665 -44.96138219065718 -61.01665692941226 12.72970947734481 -12.30272936178262 -98.8759311529738 -39.52651674916079 23.401435677939492 -68.75949806855563 
18.04774308284575 -49.73696604400107 100.79489154062514 -10.931049104655662 21.569523761748634 -34.55519438156077 -37.33230624050654 23.562695269675952 -41.4561811696194 86.72837082685022 -17.832440326300397 18.956438237608538 78.27261864286564 7.202496050123859 8.396623966414802 -47.74892573538999 15.507944277356215 22.461149496181594 -7.434641753281745 -24.83721638231088 9.910903647037502 25.491109167253448 -19.512792279573056 -4.879473134871853 -12.505003652059715 12.075049018570738 -26.043733287722215 -35.13218257104337 -98.61688697050243 -58.07923471685527 10.57174517664726 -27.54832745524711 7.329916677140021 6.700682040943898 -44.05504589320035 -102.49175138232522 -49.1057254136649 41.59530806062513 43.02691544948027 26.32557569655346 90.76680907793546 -43.330556933453934 
-9.980662581226447 -1.8282266263462148 -99.88786867275304 -33.04409491529895 32.1943310584321 -59.6298660605994 -29.12995468364432 -36.508069384466275 0.6534663781171505 -9.028104945728156 -1.8936050816066765 -5.761256724685518 -2.587830895182322 39.012699198192244 -67.11379335560753 -52.34122097992347 114.70686844149445 -8.185926775616144 67.23168904295409 21.893225141061254 10.61099235143946 29.235209614650543 -38.52571338840521 27.292813488231868 -20.7375485418109 -13.797955760926033 -48.49919457301466 6.045973109591278 37.229111696766644 -29.3152962294939 31.801450962786497 -23.22130885210433 45.9060263643633 -25.777134776048968 44.64958578111682 7.232206415049472 -29.900628541174783 4.801583418965622 -27.402777119058094 -15.13686485307226 -75.72004465733598 -29.43952396935279 
12.784318842125407 -39.06593906352054 -79.64258474531981 57.99709809755338 6.348310217305029 -53.10138730320424 14.67250323408428 4.2152889132695535 -62.842300025244135 -66.2493158755832 -6.1415174923995846 -20.752444607728716 -12.674362499856775 27.778169781636215 -4.150083256158208 3.965196783243539 2.579584667424575 -14.377688806716383 -3.9746934965389045 9.805910682348006 -11.504198395814178 39.68674085383964 26.82499680907994 118.72578513320242 0.4905730298903317 -52.80760902283237 46.799886134775704 -27.024359377138204 -36.06864925985715 -3.7885491799770894 -5.09263058801718 -35.236484701368184 20.23215736609888 -12.916209481083166 105.39684393520804 18.630635393944097 -57.38946811313679 81.38360324197079 -49.23149475466054 -109.2976968971451 -26.278734461189806 18.744565143052025 
-13.068635492629333 77.57216385857711 -1.2653134332799034 78.01909417669576 -9.02065784345726 -51.49852351711355 -80.08499122807872 -13.13993317252205 5.484186154511475 -92.00662876671343 25.893005133098324 23.22825587584433 -0.18371414795697813 -42.884108202328605 31.878847548136147 74.1181172084555 21.36618912506116 -4.0392121554077 13.11653496423873 1.2870883703528655 34.9045406533748 -21.007645906953638 -5.059755485881172 64.34543733124814 -19.830497480061485 -16.52859797989286 6.6992336814703775 -38.66465795782549 14.613779325213635 1.103987746777233 -58.26873366476595 -34.208148167858766 -16.918806174629108 -24.99351239834556 32.817034307462684 21.87757229835714 37.74472881951545 -40.53926169550252 88.18476603245388 32.01991311349151 9.110691454484845 -36.317264741437 
51.48442221767312 36.42355751252468 20.6524585422247 -93.7746119834935 -30.551689129055173 -99.90596714468401 11.41718016514014 -76.55105775427079 -37.42396094688512 -37.93410397917385 -86.42298650586419 60.641315574059306 40.48731781373628 34.35582178873773 32.9750248739936 -9.807439719631201 -32.479987530387376 57.46790447076383 -51.42653753281836 27.79063754207508 23.109084160219105 -33.42336371347427 108.51723389902112 41.131126488494694 24.731061316913642 64.46022417259412 72.13862709794833 -16.505036124249084 -23.840493278735902 -18.345107534823903 4.825967103360174 -46.38597046221892 0.3063690231598385 5.926699701059168 -33.34202310670559 -4.505655996892663 26.653918916292707 -7.207907342762954 30.63666488418859 -3.54424304836032 29.35553125409044 -105.44433499733067 
107.64300257905987 -41.073738195676015 12.655075097817042 43.77844586402442 0.723944174882702 -52.80878980040325 -59.56870358005743 -2.345050740957129 17.89597312330155 85.70699856450592 -21.974689775766997 -70.06882683038519 50.54197571819456 -43.92975189612988 80.02815727333056 -39.6010448916936 33.85534649192969 47.70493270598197 -23.925857197189792 64.52073858698667 -12.156352287470677 -26.929837034255687 27.014878465839097 -26.531145329507257 -1.8471844082844922 12.452666966626484 -62.059501746771225 13.251699224421836 -20.16097789991588 -89.80271024942739 -4.944602363287162 29.448091341114775 -62.983316327977526 28.112566837824104 25.22932549504523 52.49790695052647 38.251468613237805 41.93946080352514 -78.76018842740265 -81.26909056334482 24.55781502036529 -4.314412155771187 
-6.7947946542794995 8.615598203929723 22.710782786598788 -23.53833294793606 -34.33072904413627 -68.2649778569581 -89.70114242501421 -27.238538597994925 74.44841593517339 13.97360531367723 -62.46314223273269 -31.881585891855572 -122.77260517851043 5.91389247918802 24.86626122726806 31.569751059802368 -8.06997554988246 -38.362004282072114 -18.22938601176913 12.492714772606957 22.488440787009527 85.2406874649984 -45.09744004157204 33.03884621201439 32.315169064330654 15.695441825294493 32.17092703030818 16.615084050187367 13.134735093797755 -58.007865705751506 25.24873354837314 21.2308417443964 -21.296694011765375 0.30098906118214563 59.67462007497177 91.84023759798397 11.790774460661778 -76.83910807678659 -23.05193766418682 90.33591235962461 28.869529348367532 8.713364235405615 
35.316370618741026 3.345920756493577 -64.75336150884173 -106.08508430912747 -46.833581321375455 46.669498804585615 -19.406873071742407 -32.20994356061338 -21.143825107860287 27.209864461914513 -48.22610026354933 -54.4395094621565 -20.804170637196613 -80.04806285377578 -23.130160299562906 53.30321707720108 -35.12052810379364 -9.882791880172261 -7.453853636130255 -49.27176544213654 7.369290297867256 61.11877423777464 -9.298528696070903 74.4529174862631 -58.53783396641884 -66.20612203023701 -3.915014715734218 56.6383121865826 58.20831665704178 -33.38381792116159 -15.040385325397365 37.7272082634378 -26.51733218503744 -37.96722184365107 -32.627065585575984 67.87173561791074 -55.08257191313538 -44.527264631587954 -1.8442334114193448 -103.1992683073835 67.98581846049164 42.66372860086415 
-19.869066062016305 74.21900580806977 25.087487809450586 14.316376712302413 12.017475794237892 25.2552886253656 3.1145094068333257 11.943975982154464 -61.37170121935551 -37.46323401733335 24.57028759162953 0.4650954916680866 3.5393183209219865 27.15556477345721 102.01608253030619 -69.3795673658538 23.094587469178993 99.61335919732176 52.317116042408735 43.25747813497897 75.12627351269924 61.695161708393954 -33.972092043455035 -1.558622976231866 41.595673459345626 -47.46213028414134 115.80956613651122 -14.151985436780082 64.06654030441845 23.255461714505632 -27.84382710836726 -33.06800835048511 -14.892380132938419 27.383532212375677 -19.974164749974918 6.398243940746727 15.683067360220253 -39.25099174854819 84.22192929461376 -74.39209460666729 32.9297068999823 21.424424313724735 
32.61174175592319 -97.74059709655539 1.8321094455718057 -44.25349956583637 -29.86762775462227 -8.054897036114065 17.42238865354657 -29.26634059244637 56.4463554753592 -67.66059994105586 -5.5009312433262805 19.91736607073573 27.223644903187463 -55.37884405907838 -13.637805441202612 43.73231657667473 -55.16659757364626 -47.909145401434635 43.12714508029721 10.827740774225127 21.28738121059252 -63.528761635841235 -24.854877767515475 33.67058075227422 101.93000557892157 -50.21569469535597 42.419055850473356 29.54850861284166 35.556873879462756 40.517224175887435 24.721707455847188 -0.9027048681851124 -11.897276698530389 -8.884815558001087 -8.134654022348833 34.850653248302166 -9.77483248984548 53.14800125337509 -2.115141704768293 26.378328623760233 -5.623132918930053 42.8152919435447 
70.60903530582814 83.80375306382349 -99.38655565017433 -7.137367155560543 -2.2242235279186446 76.09054813939174 -41.068200102901365 34.303196517158185 -82.3098646995051 33.17207999492962 -87.45956728241339 -61.340372110840704 11.239988189866692 -42.58133827474257 43.25254635872262 48.64944444835657 -21.001270033024433 71.87823209906779 -12.625896896974478 -3.0373913649596402 143.5150900680573 -23.563370091294605 -20.76165658381361 -44.371301336087924 -24.54697227958624 -57.79933339643064 -3.5169134858481095 73.13814376965139 42.47587689218915 -37.119980000805306 64.11947929975348 -30.65411020393315 16.358193818294115 12.62959889873613 -11.36952970095948 -92.43224739860776 -5.328555825264935 -31.076793294553184 25.788568272950055 97.26001225264756 18.250295866554737 -13.134254011431471 
-91.50194767855827 -26.088405471597074 71.6227735120525 -16.74782160707019 65.90733159269406 41.333770256279834 39.70914869818355 83.59796040718065 82.0084906173569 -87.2537201051258 -80.39767847812826 36.13345297663395 16.413928112673148 59.19161836947745 0.06770767621589338 -22.332368036170603 32.47519221713262 30.034488217146432 -13.966726791601733 -40.80761441046274 10.671311343920394 16.68054717354585 -46.81816736496404 3.466510988828417 82.97807944513667 37.412905606792805 7.791147089371874 48.54791866866096 -10.289675456551484 -32.59789117984637 -1.7055902982081292 -8.345242964201187 94.74258853808186 62.901071569476045 -13.286047019886848 -37.75614150935285 -37.74416821721911 54.65059126716386 -91.4043727740578 -8.78252485954623 10.697873432072846 49.666399182302605 
51.81437354167216 40.45961166030714 39.75848835019064 -6.435361592210451 -10.077149796022692 -41.84193362314476 -76.5785405494943 14.467808359840372 -0.37859217402458634 -61.51423018330344 7.797147337641918 64.1777225086219 -53.9872791512757 -24.894960598643376 -62.95004825088012 -7.121452800416907 -17.884209690031163 16.76872432373647 24.14201678023955 3.8854594887621157 2.168972269037392 23.408306459722144 -53.385679627450294 1.4692102316924651 28.481351649659647 3.4778486019156873 -27.2290284042317 2.367536119177714 -46.31134452869611 -9.054933758009525 48.43619449403986 3.254350159460478 -40.05572965544902 117.16593067368159 -39.63242909507531 35.01051236725099 21.009794886112232 41.37713064006317 19.677567781101562 60.796077968772416 -13.3127102573687 -71.05083310136214 
17.934255766312575 0.3970461393624021 2.652623691366795 -76.68135111798392 6.6127338855609334 114.59031832041386 6.39537357909202 -56.01432037877984 33.36223139026113 -15.712162648020215 56.6611575531186 48.36343646937663 -84.17096635578434 -121.65040969773358 -72.0236421771725 30.758038271040487 -100.55285752956992 -24.67510613708642 -48.13751971546764 -44.42746314748515 -45.69203742539463 -15.952641669265786 -62.968038940580826 -59.666148891779955 -15.784196181639029 -8.615053789525707 15.32408877675419 2.5131461257209913 -38.281791434171545 -45.01476737375421 130.27698959201072 -54.20693105640595 51.12502125707084 20.59949022775083 -75.0213162545789 12.86344940485645 -52.44441691309504 107.48771567189104 55.957007036108166 -51.937471890068316 6.555346968536719 -15.147034299308032 
16.40563721184472 55.29870145751452 -31.07577092896388 -120.84589780055708 -8.94926366880925 -78.87054865600696 -13.331400205879216 -9.306042245052382 -8.504770742284913 7.788290692724196 -66.91927559865431 -45.743877620852615 -30.845445631509016 -69.93876955143564 -64.09196618718687 45.948872182625514 -73.89453987216412 -18.668714021437626 -19.65688715790326 -11.184013448740586 50.41585615118372 39.50514123622681 -47.12964488083872 52.877948682943824 -10.872766853445206 -16.42584216623704 -43.94729055857008 8.710315968375609 110.84700737980933 3.5665711426136775 32.71449868500629 47.853399375627234 -75.90717527042307 18.66973049473904 -43.68036123434132 14.095178130814695 -21.266633451042637 14.65644011950391 -38.90498302271977 119.79598453765182 -29.89051701238347 80.20140884878359 
29.8712708904304 4.740463860798711 34.17098579055733 -24.563290829283382 20.541522419711523 -97.7458748320621 -29.642449919855938 78.05180562123897 25.59859851830827 43.78897565393657 18.24547684577763 9.406379353113778 -29.307088170923645 18.691287362910437 -13.530301787431593 -60.02011431146847 -57.44642270585694 -2.4188404876899905 62.885676148957806 -24.865575319989734 4.5947471933566675 -56.63614988811458 -2.5299920018836484 18.393251629941606 -0.3793411688141826 24.264098461146382 -48.285183686078284 78.59284553470039 48.41160294282923 7.748275559554739 -22.443765113930706 44.88322904607169 40.665873369100304 -27.46698314883492 1.4029639727496404 36.86241673432663 -89.67418994417694 -21.961133575563245 -110.84810684231289 22.309595496219224 -22.3461016261642 -15.808393074065426 
37.38722637054506 -46.8713015713815 -22.44110425851893 -10.030868427880904 -54.48236523408672 -59.44725285259296 59.86828188518922 41.52607584607527 28.42604868756778 -16.94515249540979 -27.715624453626273 6.47052117341066 -43.741566859779034 1.9002763207750197 5.821404377624258 -62.60118586877284 30.068372550275356 95.45662795553679 -1.2135554083682596 21.13707685304414 35.34033636939551 -19.604221666285472 30.242258905343025 54.95115296777136 4.194290939753863 2.6909363022163553 37.1364824471045 -25.779209091943407 -33.62002931337664 -12.516516829851362 -81.82063593164509 15.76134712173404 -14.217344861498379 -30.858876785217504 0.4193351335191412 57.50789957270495 41.784709564665995 -83.12531856346453 -25.86325477946364 21.303087122018475 -39.35949162433519 -19.827246664588344 
-4.504657470185267 -41.758621578917165 -80.92448762549628 -16.83007142036948 28.614496535810606 -74.2559397303184 -56.13372352596362 -59.33613306430826 30.082780150007547 7.518866140940014 -17.37802336161275 -85.3865240970843 -12.502917145376536 -39.316270544922226 -64.65247919070346 -64.08307758072775 -31.123356172438438 44.351566413916274 138.06220171589027 68.49128814281137 11.094822187855964 13.466911179478073 -46.51025148204454 -75.6392352416557 85.49488332503101 78.29553002934136 -62.720289879249655 -65.09080503713818 17.551866206046117 19.331685989483727 196.41817561480502 -17.88839937497436 85.74565152379716 -33.7280233578578 -83.44103818083919 -82.89541873151153 -13.095438098611158 52.34405740459599 12.530162389905746 -9.252081954628299 54.823845812577154 40.08950502193228 
-14.298148436920759 2.490971933569211 -6.7193445831749505 53.00785820527333 47.98342046487067 10.068539677414616 -11.681281013387915 -61.0288871987631 -74.2281921096999 -60.4222732126591 -37.924641176162 -69.64119583931269 -17.33175584269765 107.11455382430553 14.972558533234203 89.62885520206015 -15.930803687213034 -111.30132964018331 -10.056165384988587 11.501765950680078 26.496835289813617 -6.952406504730268 -59.82322838259849 -56.861374186947074 78.52343539972797 -50.42598565256901 24.119011523977857 1.2967838707418975 -23.782172040953373 36.51054786291683 -41.93465543474537 -37.59362328904215 -4.313048151413416 86.17388969902647 -2.3962834422675923 50.52386481955102 33.5737623675649 35.03000019955293 58.822706928014405 11.93616632062082 -51.240699004651916 5.243838522777975 
81.58628995195104 71.86902021752383 40.9279214104338 -119.14062101181166 -4.666330408688039 4.564844837184085 73.35890050054451 -20.103626397311476 36.29107083460577 -8.0345397678206 3.5623260739752522 -20.437638904090264 61.859371231082854 13.739998632724658 8.772808715481638 2.7137378560850687 30.67712506422251 -8.46362554278371 22.12250273810634 72.29454484562163 90.1318120109429 -21.831014339767183 -44.93527307058886 53.053900052008544 43.02385995537824 -31.035602996623187 0.41770334838607265 29.256590340648124 -64.01569006471016 0.1187686095951821 2.612066926961092 116.49510178555401 47.83567881276602 18.780032189926626 -54.192761794328845 -6.626141337890359 -10.069290844718365 42.48147115301238 -19.507508976916988 -94.13439894443394 -26.117918016949396 -46.27455574149185 
-106.91764138675545 -10.493787447104983 -57.25983951214685 -6.1924158157867435 54.134435826446484 80.41857950733674 23.178006789170322 -6.602289144233341 -6.861944371727438 -40.125381158658975 36.68259536459296 57.97973330824336 61.73970441567268 32.622971054917464 21.386013024402047 30.788735795018418 -51.56069772498485 105.44368214647079 -67.93286995416466 40.8842089909053 -6.020992050560345 15.7175167444585 3.1539940662782247 28.100329755075585 -3.522047605254323 14.241482313553549 -27.18062226875727 -21.70903460507038 52.7179746956459 -8.291916962439076 -98.74223781929723 -0.8870367119661344 3.56129978945701 90.20046167213646 37.697090481375064 -44.27150120217697 -30.227883267341454 71.17146614235388 23.754498951166607 57.025943641950015 46.05089892142342 15.486844548045429 
-104.29069638107235 -18.111446525206166 52.36139297267828 46.732470344318116 -47.476941025538785 -45.10311206050175 -65.62360951042062 -37.91738538354691 -56.71675315172445 3.059271317660303 -54.8991051545259 -8.857054190205563 -8.228622833755416 47.017376466123565 26.372688789795223 98.88956059862666 -104.64176612596009 1.3601617777513515 43.366276790776794 49.88040637388895 23.444220088076605 41.52941064241562 10.04820413030557 77.51785696670522 61.589053939503856 -13.425183466028567 46.89524668448553 -3.6939170216664796 -131.60622362169727 -21.5410092081767 22.2434218863446 -9.253946933173347 -1.8564847847999433 50.52526890272834 64.90696533763449 -86.6343781741245 40.55723310337513 66.17317100096835 10.721702112227783 -28.50908910529093 -41.03038887427715 105.03564559720729 
-18.81085374791441 -41.349095882281546 44.2749127056736 17.626329658416413 100.87768192528462 -9.958309957817564 60.968006632225375 -0.42313004482962746 11.452612290929057 41.13172577413249 -33.47795792127487 20.371050258009742 -5.184774677906674 -77.31576556152211 27.801142893162407 -7.72288804924044 14.372561029356683 78.89779904926196 9.583664827006048 -18.40884863772829 9.345170678754926 -45.95228432165834 -5.586882351976287 -1.767279562898337 -23.716236290851178 -43.26951260586499 -16.06650195363689 76.99485560923918 -90.20830825809954 41.87124981351568 -2.4750843401204943 -77.50952038538844 -21.622444207821268 -11.538445795148835 -41.314950973703326 -65.33949953245128 -86.58816162993645 74.2737142724689 -67.68736773027196 4.942624792347508 28.848027084908402 13.536648546140825 
-5.768690738706956 -8.76576323024527 -85.59266889261458 30.789026417482724 41.83288234166852 15.657259758412781 -43.56053154857538 -36.96783560553072 5.429626207563063 -13.317535123878953 112.9598645139546 12.385491462117248 25.62536328667227 -78.8418174045906 -38.23530691930644 -36.23086434666552 39.46985113768725 22.211812730564787 1.8994364673244277 -47.88166523255181 -27.913338352745075 16.067556586849253 52.383543562285105 14.075137913989623 14.990585313404335 -32.01747760316864 0.8801881105707647 29.25838399953084 22.704001989180558 -29.439673704328015 117.24495533102385 -12.66402238491438 16.725097086755415 -20.419968505731443 91.93771205367592 -34.588134731344574 49.58051618871488 -44.486912605200615 -12.050762568092109 40.12613496159883 -48.55916069707212 85.65421801410616 
21.723616679076752 18.310690929391825 11.076553555222558 -5.442553721613734 13.6087074323388 -36.77389938405613 -24.9293258275818 40.59914823480124 12.409502095828582 -10.922815479353915 -60.73765147731318 -3.135750698877332 21.66751499603039 -7.67473954112646 -23.007836875469984 -38.173520085195236 -7.439101700323377 3.762623079698252 -7.06319938453038 -45.52435987669642 -24.22432272064094 4.988182465757471 -33.551884071366096 -77.93645671930294 -6.592763884065854 15.247516813199589 2.590213553618709 -32.99964528814797 95.92380556313036 -12.79461423364121 114.77192302324934 77.95701047571282 37.10235497625076 10.812206155776755 -55.67134147626396 -28.937361815197615 -55.73866463042325 8.818089953888979 -28.164324625350062 6.763302826665649 51.998179922504846 40.71681737018204 
35.3934163152951 -16.929363280909445 -80.11960666929406 64.15204693061126 30.04309053465814 -1.4569850507689435 34.03697002900793 47.12144514413198 -21.851087757403473 10.22311544760084 -10.60060981918253 -45.30864812626269 -51.75798494614509 -69.10391443585702 -22.757619695261358 -29.222037886844678 -5.856309589565253 36.648784086507874 -1.5018373548227895 -66.8224827477631 -28.788397804028698 10.06947286787053 26.699094373925778 -94.33148143730088 31.981859517731955 -67.05326908164713 -4.51431226257427 23.30407033819013 -4.719516133588001 -6.015552160469617 10.319317804052542 -5.238132469609261 33.08331540461994 -29.88260777791326 -74.77111940635278 -24.063373585073425 41.681574974617014 19.179088700318484 -24.275513758568884 76.5925107721476 -98.23311398545458 -23.667519960958707 
54.12056574826774 68.8517275622766 -40.40090845742047 -62.10445126252984 -33.161211708786574 74.94747187598608 0.0647192830358092 -42.98297865938497 20.747589571177343 7.61082108115293 28.43342174159215 -7.875595438015142 21.134399693348524 -8.452681507598184 -59.19756138398724 49.54625517276351 -5.075581059368837 59.20957219213458 80.13761725102748 -38.624318231782695 -53.397767764948675 -71.66475215121126 -38.867553827033376 -30.574992182329837 29.53473203055269 -12.375173928421585 38.55940566983126 -28.34975451275758 -1.723551493519278 -48.13537676895143 -7.782067217750368 -71.64094878378494 28.667862957126083 31.907694587374177 66.10932164902778 40.152101690943326 -16.164937856193603 -94.5365043176683 -41.62890327759688 10.647927968942149 -70.53424357631968 -27.884858285506752 
23.764691947599808 -28.522711855282918 34.78561205484266 -48.12306557679146 -74.77100823379995 -17.414456347199533 -81.95412500015956 65.4670341811249 19.976472866859478 -12.388556636877551 -34.9640677229321 25.319589028210373 -8.532882933595912 93.77108508339614 47.627558319149 -44.584385848963294 28.200407255160414 -31.639926351213713 -40.45192493909711 14.81254823436094 7.172142879873126 38.21388654058153 45.6032793320891 9.459835531458042 18.807513962063215 -8.225986667393787 -4.541774314005514 -9.286631231258543 -52.22771183511791 22.96007461810476 47.63878532790974 101.840224217639 37.757323621157575 -35.48437097120256 -28.11219990407966 5.7609314657250215 16.01371210262991 30.048336122112097 -20.704452350242043 85.89189094158245 68.96085708850862 13.478787443144203 
-54.63660232111986 2.541177964687502 -10.099390173107995 14.1592666727612 -27.164129550834012 -22.776668519392434 -20.381796698400226 152.0736875683468 4.115578333161833 -51.80346722131096 100.35421628856754 24.389166779718728 -8.942118340395506 29.292724221787992 -48.51104607458088 0.9671240663799401 19.565620700438508 126.03252698293728 7.437492678829226 63.85441292478058 -29.10042274415845 124.54859177893066 39.48863281607069 -30.92082735538917 18.286456149743472 -79.62332663338238 -1.8535544495251859 58.334325281320126 -98.83322934310898 -20.673737433829082 46.79116908180129 104.18248126435476 -20.45015168103299 0.698260932271354 55.608865245249135 20.259504523656567 -39.64661008986059 -13.717646232100746 54.14867969514757 109.20883977407722 8.819852893985386 31.939275292310874 
-84.5195578852622 -42.86727809995087 -23.796329675350332 15.355146824802754 -21.36415225512245 -4.921411411197648 37.1987529220591 19.695487596836447 22.231587545075676 -52.93120589284688 61.13563835346315 93.12610428454917 45.63437658206091 -10.819827375556303 8.082106525864658 -58.759690044380854 -15.980783762175566 -17.783619953245736 -102.62788535932225 -32.65424479231141 14.427349101592249 52.671750352268845 -25.32002259889369 66.15987085542045 10.08107044662979 -27.124567854956286 -48.52885533766697 19.190235814874445 -97.09789695658641 -35.7838967625768 61.74765414740813 20.405010302818415 31.456907357085562 3.7690924302619497 -20.86444964074177 73.6280472592992 0.6671463802723457 -13.567936598794635 -12.373770220357327 5.09741405963424 -73.69344359450456 39.823682311112265 
-15.874525900612522 6.1337665122986005 21.780253969882857 16.160743634555566 -9.351913756918632 17.017366544568716 -36.3145555719445 -21.218123260850657 42.72855204291939 14.411101437360022 0.42740959575100373 18.107054201041716 86.37443730471587 29.762715708406706 4.924460519747832 45.402310921501766 20.004440665222187 5.266019666048702 38.413706898187165 38.59379721865901 -21.188457191677955 -10.340396220784486 8.321132521738287 14.379138287996598 -31.35114073680987 13.200821007514634 -13.599627185490268 43.068502941073106 37.07775614845432 40.97112818233314 -1.0943011147427446 18.061662113621633 -15.238571164234871 19.65353702261742 -62.56461399636094 112.93981163575329 -84.90406363914667 18.88013138519598 -66.07909095561291 46.0097055649319 9.134825980155497 16.23602149049307 
-37.56531351321127 -10.104225382878637 -12.672120939684635 21.463510194422252 83.7862277875049 -74.1294155536769 63.6862569436464 79.10773089373728 -74.6001576021562 -54.912991564589284 76.573616473109 -73.69725374281812 -47.9938423903926 34.0993735399325 -24.295990866047877 13.574279401761848 -36.9544560581518 59.44046564635651 2.3348982253273123 -8.40824148583834 -8.787853557160846 62.695281890009234 0.973897984978637 -10.21368580510604 -46.64576047738872 -40.42064031741134 1.8664300213927194 -49.97195423803448 -106.80631307802769 -27.78415631515074 -17.7038717224335 17.88137622420712 -57.956571955694436 22.632799337086244 -9.145873551175072 -14.210144606757495 37.111548263556394 -59.28269147005118 -66.24813640241135 7.849057880688777 -28.317815618194945 -43.42824682563948 
89.72755998918629 56.70936250198453 -62.715609873406436 88.37944589814158 -23.330821057579755 -40.023532182546134 52.121725159398125 50.61119754224403 23.265065403964154 51.28432825732249 64.65075282225891 -5.019729334708957 -73.91671707121608 65.04850803687978 -42.75884136908546 125.82351618479808 -32.60071140736288 58.66231279278455 50.02995207002974 14.387615176518871 26.15795781885304 34.34305006563328 57.264730339598344 33.24615375193936 -61.98456646081809 33.81037256778785 23.2805706578449 85.46542308738853 -32.10980845213742 39.63930755477687 41.980532377884856 -25.713238319293584 -100.25363248189984 26.753747500056697 -89.2584435408109 -9.844016251615635 3.0709699607644434 -40.60100986933479 6.378761193702207 -83.673457463176 80.71510665837211 12.19208916114568 
-58.29473548840624 36.91187709983843 -22.62425861013067 -38.76795267895776 -5.530961169857778 -0.2109895282606421 -84.4384894968054 -59.1416474475604 -78.97686233123996 -63.052051309302485 -28.43684178805207 -27.176063191295206 -53.944549060723304 77.97829100227578 -39.0711389166955 -57.72344109027923 4.089968294238464 34.72851548229177 -20.642337733530248 -2.726244762563176 45.31878860054296 25.72524673563884 1.3723621765673117 -3.975839582495082 29.18178036475974 -87.91204464643451 32.20654905790183 3.0843868620903194 -33.34738746685025 -67.51843691171123 71.1311958141948 32.96632744929271 93.18037998134213 10.797204841861399 -43.096815110571086 84.74820091864865 12.768420418293655 2.136440624085252 -0.360512612237489 25.947417860463776 43.58316327165419 38.35809939123599 
-50.079746810642206 -8.75056345118611 -48.78952096738388 -0.878941999922816 8.702503029089511 -81.5780792489883 -26.28758723745652 20.717393855761173 36.893181775509625 -56.66797844275871 -24.44113654513261 -39.53734550433514 41.467532547903296 -1.800981418189576 76.6523576307945 -31.54619175558259 -76.36445658466576 -21.27812412213321 -68.8081614504338 68.04251139605759 -11.407625536841268 54.20873939353832 -3.6094184370244653 85.05431864112845 23.40118894979823 -32.54972019886789 -10.32880249051716 100.53671977440361 -0.09874416886644255 -82.92450457069187 28.59860914380074 -19.905155512470834 -52.87907028510319 -10.764716166415615 58.33677138392973 -41.4186068831345 -18.176695126837213 -0.7235027219783186 92.47224038065912 30.226455820488805 -48.6810831913361 6.208200534582452 
29.929147128378215 -39.537590250104344 19.841513874573078 3.5650972280224456 48.01031494083781 -116.34994561843352 18.734582888488088 7.104997064064569 -19.351446727528156 46.43978022013076 -39.26185850485824 10.804004520582673 -1.336153821650726 27.81083342654433 -11.551461363037502 3.7657931924601877 -62.87634475536822 55.21441201659759 52.3639656731916 -74.28338238298119 89.88098831551916 8.998999232318077 -52.993868240604684 91.59133010969026 -10.329233045445696 -29.4354784839367 0.43965320651267786 32.11599110697173 58.74763217026436 12.968824816925535 12.130013518633467 7.921567570348021 -31.210089582543052 -39.4871076172551 -22.044488517710928 -26.708095477824674 -3.288813259767412 58.49808402295292 -33.409837397743004 -50.755126784569356 -47.65661759787618 -55.92462749577239 
13.215136751671897 63.45392751202537 0.9550744307743302 -19.495081243843345 47.90617346144319 7.233562234625459 -59.1960788015999 -14.420044232176352 -24.223740335014693 -69.40604661215357 -153.01440238549247 34.60835623800159 -26.9488864681633 -29.429872746406293 17.610740741014506 4.216128752046273 17.67758247418515 50.236472903628965 49.109179812656436 -67.30707413746202 -33.87657800630895 -23.797609625162465 -100.13650405872863 -48.94459968844071 -17.407609815834483 44.029209374814506 -97.81577124183144 -34.597763608311816 1.2985360097460479 12.93754721983902 107.4856329298576 -10.59333203806206 -38.537399362470126 -0.9709682895431062 -19.116586966331692 15.3746144012553 86.13436110719911 18.765040414660092 -81.59735031715572 58.501689380934884 -92.94652008318783 48.0813961587791 
-33.20259925522538 36.542189718451574 13.450225419594702 21.464530222070852 -8.70026903482515 -22.94762004761446 21.68452954376243 10.276327704493815 11.431301376130996 56.4050222737506 69.29149605560912 4.388480818360196 -81.46885856092813 13.411662338979204 -19.315319482829924 -9.186690535669412 46.04676237309135 48.524633389270114 20.84073523245184 -85.55897971428455 64.96564640465279 -29.32104765690661 -12.4618062111506 77.16664324484093 99.93591565526118 -12.643556483302103 -17.567446411111863 88.89002947010282 -19.216972594419065 24.74108455876645 46.488644583105696 46.84359311202474 11.335582738906977 63.57153872052345 -16.02880108533464 6.2739767567866975 3.7189155318948184 -9.031973012265505 43.678100219880285 9.797978266373406 24.63330310665568 43.04394209831305 
78.08737099766208 -52.97775110327489 34.770351872158955 10.848542119494423 -57.641905297592885 5.928970146135253 22.34137943363584 56.60567633647081 31.040130278549814 -55.29699707803263 3.2326245096006616 33.64748554978008 -32.13517849155358 13.678694845045264 32.223395947259455 1.0628074559767422 -66.44409677195702 -23.675477909751308 44.627690317860974 17.60162423424753 -59.16904707631776 43.958403134197404 27.819174696773437 -34.32514700169067 9.095945933102875 28.85534549363006 92.91798385397131 -46.62360671381866 10.48969422877121 -121.1727463592634 -68.27905067705106 -18.96665613398793 -24.140725434081155 -90.61092441766736 73.51619498248645 -38.27645162885138 37.99271923110269 -55.08791265398885 -33.51710221637879 90.49471489865354 -75.78544057686096 43.703510647100956 
-57.98559433063913 39.98591659404666 -0.5261352243050968 76.25394633180551 25.2704064398488 12.157669187747748 -29.599320073356715 34.036283721598174 -7.898337944352571 -21.502313142558137 12.40724252843588 -14.826275814917453 19.57868315485037 104.23674190296585 -4.143814890592724 13.265495254361413 37.34114435671989 -22.112713418895993 14.179222808764166 38.34911812763814 -43.20465112114219 -29.35668489656051 -26.61798941258648 9.071178334488243 -12.941730003410674 -66.00086171250058 22.536338910676328 -93.0266956736706 54.45426456760097 12.970132859473942 -80.44072737725637 28.18032153216612 13.586012538391545 43.39770947509341 47.62879630845567 -39.24077681724428 33.751157671210215 132.4762287297583 2.941527153616696 -5.764466124260602 -61.162864966375 11.707969151297714 
-20.754135725538653 -45.41156820112967 19.56250528847599 88.13876478442117 -1.7195316628204815 29.224537573508687 44.71028634378196 -71.07195070758263 64.04353578054118 19.925171514778786 -26.883170741680328 31.044160292323333 43.71386765600026 24.076878299131938 -84.65847343984353 -16.06118313350172 -59.21662772425917 -71.80503814516759 -37.91040976517342 -84.324254493856 41.37793792862339 -27.90088307835795 -10.159882964803396 10.485426400382499 42.832882859137875 -13.536716069338814 13.723901375497466 47.02640462913342 5.543146330449556 19.418486062344922 -29.13860714071521 31.32138778853828 -81.41562808509569 13.197075462620797 -41.610647579070225 -119.76691717683408 -66.98528979463272 27.125273527300003 63.35123051907593 -16.24798365634384 59.16794166802454 -12.351654391128616 
-55.89219266713471 17.756623999590964 -17.072179249585393 -32.184703517683765 76.03875001139942 -39.23473634793206 17.1071941163251 25.0387230320638 -78.92578105512382 -59.14996786637691 24.575118079410814 -5.492502875608455 31.034682128847685 62.390370267892166 13.79716070352432 -52.42721584012059 -49.26128392062296 3.8120987274669735 74.84661427582901 -27.08486653059238 20.128575331675492 -22.739565819163122 24.295668438816435 113.22431834756703 53.78747088170016 23.25195034120377 43.184542119057184 -10.35344855346293 133.61262430935196 -35.57488811481313 -45.131112877244604 -25.078100828090612 135.21816972564906 33.22421964698996 50.1799105439695 -18.502242185789818 5.257784563305424 -36.29582162220944 54.51554479366672 -11.357783888336087 -24.747186898187856 0.41525557884234354 
24.00777656928167 0.8044771719641447 43.71478642403917 2.785344611912957 -7.040180617333577 23.744568968282444 -45.873257111579306 28.919878809165894 -68.65518381181961 -98.338527090171 6.575469778392646 -14.385305080747006 -35.19513459006128 54.8042330360243 94.40795887392285 28.277499664082832 -58.50164722999428 12.092280684642011 -46.20126365610417 34.16134381191683 122.63422899184135 45.68784614944382 63.988457925558016 39.33439559163776 -30.508738535858846 -12.006091496361284 -2.699248959893092 19.082324444941825 132.14793441231626 50.63457675211723 -68.32561904978748 -66.5841273302902 47.20792544900319 35.685610188248354 66.69290626007275 47.35030781249528 1.4112810981859751 -25.284405262851273 -24.087927527802226 41.347159457298766 -72.76525473573122 -17.871403061487623 
21.047617868814765 33.625199090801104 -11.11681505676288 -16.242982683738248 -36.83114073160412 -15.854262753018608 30.745072296479854 -68.89930448937304 68.45781638519992 -30.400945133846612 6.609073266917694 -6.764052053052885 22.978235336629666 47.40990868693041 9.303866361669318 69.92739697361516 -22.483733898534283 107.25530140211066 55.007517110731236 60.9553822538734 15.034319689956227 9.083259359467544 52.00636462310304 42.969458195632505 -78.02449351234608 -6.197406019002023 71.67899985029183 -28.55856064274954 -1.7597936492676096 -38.26110311959249 60.83049507588429 131.7493071742863 61.195811096669395 -12.60991482706345 -43.57821448316861 -51.945240793333824 -60.71624435415 82.45197242799296 -15.07205593058754 17.73988474466853 -17.749603481036317 8.081176916197993 
-34.60196716312437 46.58733075516704 35.431693665031226 57.97589825779311 -12.953801443804153 -81.02846556101079 -28.28013347477001 -61.122919844402865 58.81222273297121 -0.4067675990860127 -55.797945669688744 -55.59714514628594 -165.69519214453834 20.317628234359447 39.368926783207385 -4.982713423733032 -22.945756812037253 -34.8973001248423 -128.1457464603151 25.810292303066642 -2.1326005769575316 46.688207684657584 23.067351596700686 62.25483619593039 -53.15859985434317 65.4674253542961 27.556337877583903 29.28098549846138 -16.25114269856447 29.82161073820491 43.52238195368495 32.676094007541174 -32.96511338352991 -3.905514668942228 -14.32686660793891 -73.6307983487093 25.598538011049012 -49.5496095168404 33.1956487017597 74.08427231444733 23.593167144196247 -58.975794712922 
11.214005798899487 -1.832505404773365 19.730649269747136 -11.446149214076884 -10.493558509108524 49.87290563774905 73.31413529048059 57.33972836943831 4.630954167395524 9.170402652296335 -28.96777934604768 -47.92311851094929 3.303804780769722 37.29883167073482 -0.24437968131076848 -11.571116003989367 -73.2180753608621 -27.187571982048787 87.03749623392127 52.12113480533659 -105.74743796876402 16.796433831386622 13.552726630922171 -9.915032874044243 -1.4517070977048059 -84.162041675723 44.1115486904378 3.872808197555343 -46.60321796500757 -76.96249573533117 -6.103913362811687 -36.13227835765204 28.068456244522498 -8.725056873296866 12.13103230221621 5.379523757982087 -34.635128176685036 -8.635300723377288 -74.35706562718907 30.738492388215192 -13.727827690983087 -33.51043955903328 
49.24774873489917 51.49597200049466 -73.47242689438532 -18.389705702766285 99.11193861642774 -33.041476391389295 -2.2352106630525883 -57.24315297486188 11.918619280924633 -41.49815912932396 34.17033624441432 -17.16811964035431 -21.913795516072756 32.081999436208974 -90.15936730674896 9.61677380345171 -107.51933704270196 -57.891780342076956 3.335739604838853 -4.495139211563843 -45.99156952505526 76.73696051234273 -16.976473587228348 26.051715566054177 48.58573659860286 19.404500415987634 -12.94295624600015 -8.373187922785654 -67.08911441768008 19.367071549182764 15.97088791359684 -70.89165940844192 16.915173726326717 -44.11890615144612 10.45966710520129 26.2687532914333 -50.36833261277984 20.462234734486355 -50.546804231813226 -63.432934353926996 -17.52189257865987 17.54076056681168 
1.9572190825036437 -55.89476474879756 15.048463478212375 57.71399210727755 21.984267507192907 -48.775119010724865 73.03972230252107 -13.896697977448696 -6.864545355861493 6.220049948865077 47.698572783525634 55.01832843606614 -1.2401980723758652 66.87676048328068 -12.419739016722538 -23.95566681728596 -41.260034235965094 32.08096642790983 90.84523753967066 -3.891096261957045 -28.819283986594666 0.5996040925709192 -11.621924568996628 22.94149135389442 3.0846755468209426 -4.584999054953994 -49.169356728909456 -56.19313713951905 -21.662008436145484 29.31070393570691 12.7662064605789 24.20766314188363 13.866050339430908 -131.06870093717663 12.397791804734602 6.969722211806877 6.072991167987266 81.5140262400264 79.00044908899814 22.209579015094548 -25.774462836396005 77.28472436033262 
-25.3448422178508 -15.857417079248032 20.5264790451081 32.21237365446042 15.628622779719342 42.34047053120751 27.31287240563137 0.5248795356888831 -37.141419487993566 -51.867057218302755 14.058112706190535 9.84933595501802 72.90847607476124 -36.340292107102385 21.201909007449153 12.955417437871526 46.531807282682884 -55.714054458484114 -44.6591726929177 -3.971431804491062 16.307521932134907 27.22192371406542 57.82297215980733 -59.73117228949514 11.343179291148159 -56.75163795081869 93.97170480372415 -20.521089436632863 8.20943705805214 4.922060289967375 95.60375841704163 -47.670543626274515 13.2296197918362 16.40948078669366 -69.30332236916165 19.935658530671983 25.542713854710115 -6.094276189563558 61.54181230832866 -13.490471993844364 -7.982633340359656 -7.939400910288936 
74.0496837782705 -47.9136927551779 24.474147996547025 -29.769855763488405 -29.91507522070658 42.980046447729826 56.02298566604451 29.67642836871834 3.334966910422843 -25.37282495734461 39.60846959182037 51.68086119150558 20.469163934156665 53.325763940688894 -55.25184894215771 -54.09764729011845 44.635698436214206 30.08245324304328 84.89948696189701 75.41071992809213 -24.090999757536316 -5.463843883078696 9.663989604642593 37.3887342009675 -15.16291584248764 -71.69137370582844 15.897260581774871 -23.320848398663273 -73.81227451782546 33.911183855327586 -66.79609020309657 11.728587892518565 -53.7097890471254 -8.122929240241463 -50.74502714333518 37.53400903195755 25.22603008223842 17.89314957530869 -61.98752548605484 -14.726158647043627 -19.347920473522795 8.689385176991117 
134.24024789548156 -6.705726233609157 -4.182864913882248 -21.36882492242952 -21.70580015670183 -8.64880853228452 -10.456183304838241 0.09340530894667362 -74.1168679003526 36.20058392834604 9.626509430108216 27.959178237611397 42.27488831192688 -5.840072816854558 -18.05471795557344 -66.37311574176324 -17.31483509773738 17.455117411020044 45.86478350010987 12.49641771553156 -154.81431320053701 -0.598595768716744 -69.33202052819406 20.91000719491903 8.510135900541583 1.8134522503388388 66.13093737960969 -40.611656291097134 -58.499354380726 89.54026732119853 -25.833316829073265 71.68362594267411 -36.124838358761735 -19.11379821409194 49.0003932391596 -25.46656783651058 15.170237927139953 54.578463159240826 45.811147423154296 -55.22710315859364 61.89762448648883 -71.94157761779884 
-33.23754944649014 -91.77057719329625 39.90184208500335 48.815750043310615 38.47085488101824 -17.282561006259563 -72.03857455453495 -53.186633972337916 -16.459117021648265 4.006120881255127 -88.78216382161638 -7.900722628455641 -72.11281062749126 -57.310711766862546 -36.641072975898865 11.583706772933656 50.77426414273432 -1.5361678422292129 3.4563421467345856 21.43892787454046 -6.925154213597212 79.39505347839464 -22.88987729886272 -46.73339887880244 30.720159102775238 80.94695170307295 -17.704521088988024 13.740257203965713 65.79956131729499 -9.827801598130746 -48.54696665065032 -87.02891891056834 -97.62950320719715 1.048075370591944 19.73662212301629 47.11405407277052 12.308850543612607 -8.940760589763023 -35.22488774260895 27.80995439061623 31.04452894471783 -64.6908005786075 
42.03558720444303 -16.05036991564141 -67.230743573006 -90.7873889751544 -82.71815168419998 20.52891197176736 -0.682752608149715 -69.09058973344818 -6.277810571713653 -43.51871407229356 2.4910833478942225 12.274446517264197 60.23790345794714 11.812674951651879 28.43302141058715 3.309726867498219 9.726091903395188 -46.84415660424384 -43.83633427998973 -39.55056226594225 80.43398823748691 15.957146279351408 -66.45156261370953 -86.53086012126994 -17.175819111778655 6.917005608769615 -83.26146351899278 -84.96635306543189 61.007916218344725 -4.346125125279169 58.771839739619004 -1.6461577340717666 -50.22727328631201 11.553889746840253 59.154617640072274 36.62745677040735 -62.72910163160693 -52.65740603991446 -93.22361062695445 29.18177405769166 -80.4978077048864 19.875987705984 
-70.17345316040296 -46.84653716645972 -54.14177494377725 66.53322082967588 -9.237826161482715 -41.608058616242154 58.29566459153919 -21.894809263497915 -14.015345552871736 -89.14628109029387 -6.631893897399074 5.754433333315919 101.34716543614861 -8.679460860748453 -43.64342311716358 29.43918970925693 42.49658262354822 -30.415549245656827 35.685468682685055 -14.890694033224849 2.1300502775703487 -37.72786843141548 -15.730015643279113 -53.68016727859474 32.04049256303205 -118.6269314634936 20.2411260925678 43.482303865379905 0.9534853809078578 -0.7364385788159593 -42.99261241588472 33.66374275537643 -48.66897217104333 31.899348489192004 38.77686930167989 -33.865631315437625 -32.11245229784113 7.200554717912166 -34.4475676475922 22.480531146643145 -51.328581949746514 -2.7180851955133156 
43.01244192212025 -11.684651131667572 -2.0654736290651536 -35.96030208858566 -94.66743019382653 18.351596533421436 -22.02954411992856 -36.68950935954313 40.58279008510375 31.79922613534569 11.669452721704525 -4.729005792993174 -7.457973231040687 -45.896704102175455 22.535450392343574 30.030153336731694 51.64129880110225 -18.396828514542516 -17.864441536395987 -72.07240933551435 14.902505932979492 96.6155022912635 -4.041558617328328 48.53450134056935 17.156405817552695 48.272330152921086 -34.82653894514714 29.05900385249064 28.418937525031037 -0.6552341968666411 -8.210450152674458 -17.843438331918495 -39.74593580768915 29.82347993927283 -12.324641545123017 69.52922408842544 79.03774456065209 28.473923577124918 -78.47179051035016 -103.7707285793273 122.73937439556015 -56.84571731563396 
40.48050549661627 -49.06753045265136 -49.54805818445547 7.064994387845536 4.868196503596261 -104.62561508634028 -51.290538503717094 -11.11900435081785 -69.31182050809655 -61.375976752716504 84.9366782880895 -43.230689706829025 2.086925862063842 -92.77898505988344 4.593145560340094 -72.74257324592574 -28.62017231005579 41.5876464930831 -69.90367882057248 6.394020272117661 -6.283509166633837 67.00127528663813 -13.393951936210179 0.90703125290412 88.36493924868273 -73.06069300219323 -28.304718910825873 48.76948803365938 2.1661976626972765 12.114513895804997 -22.962333586356127 58.98903949452267 -34.48589011100859 -36.61945147008376 -49.582910762990366 29.755653001971467 41.36452901760779 3.4303681634596774 81.54316857627559 -20.07473326896181 -53.98043336269711 -31.38392775467002 
11.77982078157105 20.278838106675817 48.17437188226427 -58.08614272242423 95.93183289500602 -41.27629322231066 -96.70806489544947 69.33743562237613 -90.40969752204559 -65.3045839100998 -20.50050156249878 -28.20995891126001 -18.100580573143265 -33.32133970883779 -29.60214223280136 22.085206612131447 -45.07206303830509 -5.391138536623347 -77.53256516949044 -26.625071618408338 -9.743984588507042 -16.244540271418234 -8.297737130145052 74.7303357971714 28.794967969606162 58.10352691207283 6.99067923848578 68.81481474593431 -76.20400061519301 -28.63658012556556 21.38926022175082 -25.42660585815954 -21.397977094559295 -18.111673389208104 46.827175689352316 42.855903114459714 -72.39333541879661 -76.40565718752308 23.422761673912856 -30.040403858782103 -8.32053656172951 -15.40441734074448 
-77.74939731619894 27.946150791265882 -28.71518089618744 -10.776231740075598 37.30505981182619 -125.13899556500134 22.443562540480283 5.921972287921184 68.43173013890124 -20.869585988372467 -10.540607375896842 95.68243928675246 -10.026066447175989 -128.81483914512742 41.00865279401073 17.581471559542802 13.721750534620208 52.72694046085248 -51.170137235609815 -78.44636750748674 -0.6320212093749018 12.767645283706734 -14.979263782905187 -48.55133240389076 -29.40536649490644 56.530835659929345 -60.59667409156612 30.682138437827504 -44.33595180470689 -22.728795960799037 -43.89581034131034 3.031004739350405 42.92703340711563 -15.02705286984328 -15.764142852958786 -1.620306378465279 -34.9966092023576 -31.650505613830187 31.378743317956392 12.6082205447205 -75.77106301215882 -45.072310886695305 
-71.47075963928319 -16.856821353166165 -66.86185054300515 14.748179111242223 36.00327727617972 54.27877339031168 28.333118701479655 -25.336917059038715 52.649295749971515 -31.105685401169993 11.002422825148644 -14.757930703289992 -81.92316837041311 31.11304565149671 7.780075241632167 101.12019508201688 85.22710514902055 66.1426963170341 -5.618827815571344 -61.29491625209437 -14.127011389331273 3.368714916985605 24.214377513948037 83.74054617267527 50.329938584265825 -10.40956704632042 -43.49561674326743 15.417236283007863 -32.29425137164746 -12.734912080170293 39.38539424496819 -34.58753984672344 24.953654241381194 31.725446572395306 47.82463823029054 35.1854693610328 -80.94382469795693 -44.52464361237121 -95.1466563672463 25.32189107046231 -7.51949434194307 -38.69162423157619 
-31.408354274974023 65.50074237623697 -14.191038876857164 -35.89102040767732 1.226293481936979 -112.62268859758973 -45.72660853271119 13.105881771675767 33.02363014866802 -100.55635358642589 -23.039590047832615 75.22152359670389 -45.88503190550164 -53.23719307346254 38.68191164808394 -22.960232254835116 -21.924211419886362 71.05133816566065 -73.54314693001207 -60.877317919102545 -4.5895043092381655 -27.178108409161915 -93.1867851226332 -51.16232742313781 52.396903505196555 -121.47519070077183 49.072899697421974 29.984542049411495 37.69056282126161 85.09158005507608 -56.06891178356381 -44.062480095040804 -32.93030038188335 -31.92674064169481 -14.195879008372058 13.041524017555247 4.115291221460589 102.40078669009287 -32.213773137766644 44.85885111374994 21.356366715333444 69.1777274382619 
-74.80352755324354 14.73886195671729 -94.70735068626539 -21.6234196366963 48.581202449162525 -15.06939963847051 4.7178253224009605 82.60722908550649 17.431710453045802 -28.353590734355173 -16.00096318454868 40.39615402693807 5.376072033079444 34.415693412351445 -59.18964915083889 52.074242477644496 -63.17399179674218 -89.21083574125596 -27.174984267986787 -87.46550260994275 -4.232147081611204 56.0614713506465 -51.7632899479221 -11.960335368576871 -8.997086316008529 -19.732340562302856 19.0478058913806 -51.32045616256726 27.974138005868 106.62658247241963 33.93004770223123 52.7687163418841 6.988661183313414 57.45525437766808 58.03729836789557 -108.14700935377837 -90.6061113127545 -73.03215172342787 -13.72463481464345 102.8140897589863 -50.68531539495871 54.26186568568367 
-4.385534906732859 15.544657347887718 13.604756803548977 -10.578519529984954 64.87659296450148 -47.20175721661369 -44.21116812389189 -73.82938482389196 32.10895381773765 34.66318803340716 13.429719690833611 -19.98386683830529 -13.654054428943232 -47.700088058258125 88.14639966084559 62.85656975641563 -13.341636591763123 4.335361264025345 -96.52523669028236 23.595016990895218 42.03642178343704 -20.71141062976789 24.386526526546913 -27.606458065645477 -70.08343750178818 20.395771863228486 -11.514347828516438 -12.401253748982672 -71.03853789253053 2.9102873564406275 45.31075317174948 14.315280537826904 57.982265668500936 -24.01903684575163 7.448585481586368 18.992089625024974 3.681840156689667 60.34723481540892 20.682291064341328 46.197475532644404 -67.72603434144469 8.67258476440297 
8.257458790331066 45.21544792463609 48.10946708895159 -48.082475773984775 -92.61245001404123 2.6800546347477665 14.632381265034457 -10.527767720735433 14.423733445410367 -100.46278130779002 10.45883725318629 16.899738846810944 46.12834604562834 -14.291160818480764 -117.80673234428194 -6.71907810313304 -1.9216545799825377 -15.56990878913362 -41.29023966894445 79.07572715206271 -54.26580682828902 80.26511633091442 -26.4859498150129 -82.52788183428852 -1.0569183507899629 1.033183937220019 -6.686701066993842 19.910655075132492 -17.458741661692386 4.7397297933024145 -34.13331039138861 -21.795910448486296 -48.7287329175386 -0.7869697043191958 101.97259430915622 -11.04801163858265 -47.15042328739044 3.431201007273191 -59.48689982147203 -28.02612801763299 -39.14288026005939 40.05647847777353 
40.60058903494754 58.56546498340744 -35.47327268522811 -21.971325431523123 57.54660196013993 -52.16083380540078 35.646498177851235 -21.71963021706469 52.832625410251055 14.301483672982844 -17.119016919465373 -24.463891731946536 -24.253870442271424 16.506037729973908 -9.891924071799313 -46.83101334062677 -37.850796428551675 14.703899250124717 -2.9576275846148743 49.18799864162028 22.490027455482856 28.12800070949028 21.528509981163246 -75.87916707956589 42.39493998510313 30.1650972029457 29.607347548074056 -68.55822082197206 -63.48379445800616 -9.263383371578964 -7.928056569481687 -46.77377712319363 33.728633581003606 21.106220122847738 -20.549322251614665 -10.316850051962229 -25.75991347339148 -43.504788453300336 -88.90609987762979 50.1407876720178 -49.916219567119796 -6.447509276396569 
39.70329325386025 -9.635100337448057 19.290378488391674 5.69077345704667 5.042398438518183 59.77040981410879 -35.643419927881304 10.596817048690523 69.91963437389724 119.8516039890185 12.04977937155778 8.484899203259205 -35.645266264042206 -13.598867411833368 -23.75102836045209 9.295491083775005 26.839359760082097 -30.16011622271526 -37.88413082810836 -24.147567989825585 -24.06400409355282 7.906164552662356 -80.40278457111593 -31.026704199731206 -24.21214693973857 -17.314496656491734 -35.97087605329085 64.11529949879635 -11.71216088269261 84.40722235701541 -60.74259269031818 125.22765130980879 60.476554767459966 26.692622476405685 -20.132264204606482 91.0313987296164 51.209012653905056 86.68000829309477 -39.76299157219382 64.53613921465946 -37.06088620105409 102.60858879952306 
-14.93483134231569 -78.98208580905322 -23.11925910647887 26.13370440846255 4.535094116215111 -21.010875657568178 8.210365779678334 6.2846813803947885 55.65880428420754 -106.37438540746489 -71.08893439203727 -2.74458295254553 -47.587820935635946 -34.65420890049555 -34.040639102839876 31.570903636500663 54.000968154162635 -15.965568706434178 1.7808334165116793 58.83698134319737 -13.01038637192581 -98.01270842076036 31.276003377100615 -21.323415648663378 66.18877090491 -4.142193391368705 -99.42297756076329 3.4824792932085593 23.624897627480788 -0.46111570694977017 -13.29334695719257 -6.695617095343321 -19.90622443102385 -25.586370101431413 8.774911562795692 3.9564904894378303 63.13871677717368 -50.72454099103255 35.89882866441002 92.42168838782314 44.14457850393106 30.723789303050243 
-15.28511263322607 -101.52947757033655 6.702170769655638 -33.47238794745927 -9.700219481056713 86.12715014631335 15.633050802992875 -6.293095972607543 55.19286652907271 -21.2788690468593 -3.369531652721826 85.22281322519743 -19.90545217009639 -100.12397222800186 4.2805843116288305 -50.11254096155113 29.754282224808076 4.277683565446301 -53.92635540061596 20.3393917498344 -0.9866255349795027 -46.99283976604278 -71.33074625149585 26.752104877145364 -141.1772300290411 28.358211207216996 52.45660882663638 14.372164501839856 129.99221579686613 25.403740464653012 59.23921647122319 50.47302583911126 -38.51510977564311 20.99884420169908 -40.085123669094266 51.325740776177355 -16.47171148995552 17.185548096592058 -11.02668350505175 -77.31010615521596 -1.9558159860314035 -43.48804792694663 
67.39516793767474 51.136669552206584 18.46668342587592 57.463164603038166 -5.459544134793923 29.836117182988513 -4.987377003793007 -0.5774173207564058 9.104099716378748 -33.546934751394744 -63.917507152302775 9.892856448955202 -80.250651105768 -75.4906720998126 11.557415533050468 86.3839010617872 -29.27821267867915 57.56144604960557 -65.5096671006004 19.726879507729592 -40.632065267293726 23.868190381555383 -23.13253971317196 12.999462562286821 44.52562233247808 -4.274000238644484 -19.79729887524015 26.863642064298645 46.102263193417656 81.89951750176884 64.84362983797995 -2.1152354757328062 0.46039181648296795 67.78789998952361 -33.22996408325006 -19.948424246453108 64.03644645871846 -17.26676298705866 33.002037664631665 63.2334501902735 -12.06194161844779 -49.89284821479794 
9.656780639707558 -11.823211934663062 86.54202664958923 -71.04280359614908 37.744737355136415 -3.215380210899145 64.75084189171105 133.33564757713654 -57.443130386485635 -125.2939396044223 -15.47483805657278 -84.20206878284289 37.356023939185235 -20.053140990001634 -34.55962512216652 6.2472279783083735 -41.573519952068075 78.47521848883451 117.36641974893931 37.96827937231787 41.80143065389812 -33.634254663033616 -85.73745975629542 27.02436910032208 -27.886575483192622 33.32333026854116 -13.284482802253969 -36.135920824643016 35.7884262188646 -33.530109158242745 -20.35748646411477 30.558367009338262 74.80837486533835 30.40338253156835 -55.21774597032933 -40.25518566717969 32.954786708503775 -5.906299178497331 4.313438545867308 31.92245962076264 -57.741212939356394 18.403680189227526 
-52.336423806246245 -70.1812790719673 38.85376145122292 14.478992849042452 9.527948668957226 -17.97253008040361 -57.313034944638694 -14.705710244465466 100.76300185820216 131.0693995952925 -26.60342875288657 28.04345513860052 4.057475125558096 51.80112806563271 37.49792938904515 -57.24123896784379 22.365749019927748 10.377539233747598 -26.5375137414048 27.782272725396766 -30.919412695301524 -8.722110796228316 -57.18568227385439 61.84538133820653 -1.2648261002233878 -18.743191888077043 64.95153215369524 -13.205188238446084 -83.65655972152055 20.699922406960408 -76.5668924228822 -26.432877420999624 -16.98338869094275 39.85351246283495 -24.23432369146794 13.937589696192216 -16.802441889949915 1.609406170410803 73.46797789134389 47.17093095151242 -24.2605204348235 -8.659588268098986 
53.94640669908384 11.935634649908739 24.607922594112736 6.242087583422818 40.97333819792627 -2.0479039653629507 46.357112588693425 113.34043957268509 -25.613815241419825 15.603262369720039 -8.675249285632223 32.33969890139449 -13.33197741303065 -76.54536287513903 -6.92343772346589 -66.52716224481082 38.72411728128314 -28.74012219307633 41.79089593805842 -44.38060739608451 -14.601755911072477 58.88045521124102 -39.865989753203955 51.72112207746568 -37.789939767583206 -2.3414996959301932 -8.717142911734943 25.363829228132232 111.35819212544239 1.6505545660482384 6.656374447753188 -27.62111566936786 92.24892545729604 -4.791867696353382 88.91330282571097 74.94329845307017 50.00551163695779 -42.28079920397024 11.364393485464321 -46.05072170133102 -43.43948004931232 45.636424595965075 
-9.757440883730057 -68.60050037037075 42.74008150906364 15.111767837391488 32.86468940766371 -28.48809155949074 9.263780094660259 74.5430420736246 -24.41126336969203 26.143125450368558 11.877219720640284 -5.445659172416488 70.37592840216527 85.18784536903814 -20.15601085516561 41.69487648617008 76.36183480419648 -5.348008373111889 100.09302876580243 13.320776464977474 2.92840961055596 -66.70199598039683 -5.0523162211193675 24.695721056587505 -12.750033509289345 -38.10896561899537 -13.025578952146411 28.108641985010625 -82.854385100133 -9.964004939519729 -75.19689395593198 28.940193270636584 -47.84058530483888 -11.645735010451524 -82.13387565086767 71.11881648055355 -7.176906528951228 -4.738951792501615 -35.12134935777178 -9.727898272714903 -0.01508497132057407 20.995621485298695 
-24.329199376725526 28.966442841950993 20.552152168129858 -18.421369870708105 32.25467196574209 26.99803578088048 34.747159356799735 -38.15887047749815 17.083066700952042 -68.44617115893449 -5.819879248857354 -52.125677088892495 -73.49422605138263 77.16679420512298 49.01572409681692 47.05663107676742 16.268128375757964 8.061429933858408 -31.392342292362304 77.24081598898823 75.20876691737584 9.134387665714279 93.38085857628664 -35.4085899058532 3.129205155525353 29.148296884570097 -22.55594964510983 14.624866521505487 -4.4310265068123105 40.30197142103183 10.234913121043979 -72.56746064173825 1.177640495033093 -46.47944654985872 -48.17673124899137 9.988958268434919 85.72113992871844 -53.04102267077651 4.175254460926282 -16.060851269978695 -78.62498051151351 -28.03167235938016 
16.31388000266108 21.997483113134955 78.4984376085269 7.777672809842058 -94.09344437154971 -21.462744303150156 -6.5265219704468205 -44.88491122763073 75.37584780408083 -15.70499102305089 64.02567915885388 21.269772791844044 -17.17699955355058 57.331410793733596 8.208014236647257 1.9292995322740838 65.8730386181561 23.81186340931914 -53.62414977414127 -17.446295227582038 62.35728238629743 -47.515675574777134 -43.1342564496557 -36.09396756459783 -33.31625693401675 30.0314244664395 -35.11058927055581 30.79147189056146 -55.729027167384956 34.5847624315587 -90.54207516557251 -8.63161378100609 17.628295744550677 -50.06904754816781 -72.45505339141853 -9.818583553921831 -16.08108675166629 95.09459004096064 3.8413351427846965 -38.8642424862157 80.09182907020596 52.974933866283926 
5.623477170322248 6.420333039295654 26.480283206769506 -51.70688394252965 15.76088289405068 -123.27859176483683 -58.63682132283285 144.94723861949137 -6.788543427769655 -13.328093617593304 16.998297669914983 57.70457017093049 -40.542695363920586 19.340782318646824 16.56163132814433 114.29879577943265 59.994469766651655 59.902617553249236 1.3459371913876255 -47.902484365094246 31.136574636644184 -49.895831297778955 32.117852258175354 24.051850897227315 -9.132859778651826 -15.676004804191468 23.241965253829022 -83.29780926954625 32.16526932916194 55.36108085557531 22.70968899753052 7.989113882900991 14.56193835118765 38.536312045612775 -56.76414368015481 56.818950618112716 -18.196098143138133 14.850928956279548 -94.31081700524774 -53.75045882629704 -17.62373350421604 50.19600265452211 
-67.32539151425283 101.02697516398183 -19.189747157411546 22.334110055998824 -9.523348446425308 -27.5000216719039 53.788643181976084 -14.828972976655315 -103.03143553592452 -7.5628938836956 16.780184720480424 17.752855395737335 -57.17438407138265 -73.35565490673804 35.16210744604853 35.66290773983614 -32.816077129955254 25.75579466916883 8.20802103269932 54.55016359882376 -13.374437045267268 -11.418900677030841 6.865418116527927 -47.85850721612369 -68.67514540656416 -19.78998385642243 -117.60774320956543 -68.18843908921603 17.81345501438114 1.4067826571451143 52.56208373273778 90.14201059633295 8.32407930246217 31.509854260525117 -47.559681230217194 -67.70941660032437 23.82374877319993 -36.1985719553408 50.92370488527463 85.83118659590936 -21.19394096998472 26.04161862281316 
-43.873420533662475 -10.077828755717794 14.686032223023057 70.12772466283232 -28.44124458166157 -37.341059492339404 56.1686549545471 -21.94467994337517 -25.660813410557864 31.106370097530757 32.7761567328656 -8.963154627163236 -82.58010673929184 3.1643150254091417 6.943004513690027 46.222229418408915 -4.433431269779681 -65.8716252729211 4.3594315735885205 -27.851678033304587 28.615170339746008 -17.491608651237122 24.030385295654103 27.606521600858855 35.44986724366455 -36.10134050191953 -8.728389766073343 -34.81057536033564 -102.26768897722359 -28.787361264357582 -65.80672111303298 1.176535088747105 -16.768765040807267 17.166902619037366 -2.2794286692327566 -57.1749363644892 62.80974769881697 8.852134079964607 10.686673776914866 80.85455773143181 46.52099272229267 -85.60402137255514 
-4.2909711593830515 -2.935203202228685 -83.41227315647919 63.370931643701056 76.86806731267133 -2.919280477309295 16.18582746434855 38.35958886990306 -31.934870480620837 20.36265416779961 -0.7286159294026492 12.680490345352162 54.395303338299094 62.8302663749321 -50.49564523378777 -9.8769660486588 66.3571606363639 -22.121200238299043 -4.282477371235587 16.14760925242334 64.49921240755101 62.24021972197372 67.15527768782816 11.326214148513401 -11.630985954515454 9.244160759275065 63.42006857904414 -29.635749420038373 -11.370942284918273 7.920878137677145 43.8285240771581 38.03629822924052 83.51775891373119 -10.429219182203212 71.87548619966456 -70.21150788072507 26.182192235358873 -33.58349089650969 35.12852850506965 49.35779323278937 10.004554548533727 -0.48800839267204177 
-71.82685582252145 22.054771123522467 -23.446637489331536 -44.84544534615265 32.631737946804755 62.297562521725546 -43.73053716183838 -8.965515035726582 -7.554302297084025 -25.312809691677625 -0.9489156682039999 -2.02893726363275 41.14392944983477 -37.73921850607978 -69.54703622648171 -59.26703130801637 85.18752460683883 46.43096582794566 -50.211422880746916 -1.8205831521317604 12.353970931936628 -60.69300481497716 -0.13368370530913626 -34.11650744922746 -11.930380355248596 33.72365422765657 30.923472464667732 5.360498400046838 -2.435340609888579 72.58274959738303 68.39880813489567 -6.705646576615054 -19.270733643886334 55.950952886768945 27.880829705899 43.65293862892837 14.374743442097568 -49.91258873418996 -53.890690162902246 8.348944385819102 -30.341698858627375 75.47605954519817 
74.35492631378253 -28.16467019405581 -146.2252334019609 -2.971042530125607 61.41390311512022 11.449722257805451 89.55610300297514 -25.402461053943032 -15.100203786653427 -20.411787091414357 39.50009258546652 -58.656495068898515 -66.37022816706299 47.66672217685402 -7.677919602553667 112.82430808231483 -40.2814802744532 6.060706694003951 -42.68697906451342 47.019387334419875 10.187045270466486 14.139103835108621 -143.7932393224895 4.594560079823334 52.27767435260842 64.37407475044355 85.67388778855985 -26.406325249352605 -1.3906878202267454 -24.193252177935715 -5.039490497105811 66.28189845619659 -3.1694917400136418 -17.72653184018531 -28.766824660480186 -60.98048467243184 85.83160942906007 14.52012318232436 7.412250205343833 34.421954880581545 37.73176056885725 -16.91934877003745 
22.181468498294993 10.815137270198864 -92.52258258854846 9.064509950870118 -15.980587930597155 35.80139165786879 -15.285714610562534 -8.142009253505755 39.280151690176176 75.29762507508322 32.150081634072826 -42.11358385741219 89.991022077853 -17.932916445355627 37.57311780630308 25.060283931100383 -44.00074599063666 -10.002973088007373 85.83977444662202 32.447638860258344 -20.176495875489536 17.72010637991455 1.4105202599385969 91.96962075249249 63.699504066505476 -44.25901657449071 -99.95405762083337 -24.361724397699604 17.709439098681734 -47.575229953962484 -24.511790515949134 40.19661933026382 11.366770429397288 26.772287314770832 67.74303188916427 24.068802245182912 36.075142047686676 -69.42226083724101 13.00498180054523 49.41849345176965 -63.6151960096746 -41.89240973753432 
30.623920699782857 12.147664746057009 32.54595686127138 1.3988920917538445 116.9918870231628 68.26825388927206 -9.51348077936067 -19.68132658743867 21.368055180047506 -7.461733923209901 -31.399536648733406 -72.76099461169201 -12.467732316813741 -12.123965202954732 -49.89066040762535 -7.924465443141179 3.2862572669566577 52.80607230940252 -2.1849248527860756 7.165286063085391 57.17855495546058 63.198928086231795 9.235683173688503 29.430389607752012 40.46306148895446 61.07269964848779 3.122957875777904 34.262653204976 27.36936319560348 -70.85191520395186 -41.34015269616847 39.71783309276164 52.26782697986857 -41.61983350220289 -45.32758616287698 -89.93055499718083 24.54834184157639 60.308786979854816 -35.542492817924185 15.665924456498992 -53.484902953931794 10.765662571847209 
77.95998773382162 54.892369067659104 -23.7899437689397 -77.55304213503901 -55.18033155043469 14.816070978985087 -16.830120022721434 41.12433985514914 -17.964509329475263 52.052662480791845 -32.957573214376275 -36.650482084200235 -22.744173885567292 -71.81401484173082 35.561962870129804 19.944589779406165 77.82938775598998 -28.408057788670103 24.259438924083987 -74.9430174963971 4.67698798122977 -69.22829289458814 1.151668133532736 25.36054064005649 34.739159648193635 5.506500140509966 12.655276332049684 8.937065130108499 -17.541621283779314 72.72800279470897 -47.18276786483982 -42.81377462603921 22.812059435083423 50.427638561602635 -29.946866203212714 30.43648519669656 26.82039330756871 68.68341410001324 -26.85446929901797 24.516870440646013 46.750651078852414 -79.14971039608297 
63.620349678301444 -43.71892445979617 -56.05383365312158 37.10435114326937 17.530200143847 -40.011047072389815 13.330507146110246 53.05068559467206 -60.95533178239829 -5.425184370297754 -24.727185003587 -29.928657962122294 -34.506006642578086 -33.444447035734655 -32.838774577940995 -37.481743968989655 -5.630447497802962 -44.73352576808467 -53.15248045654865 46.17025538960091 -2.227775335130783 -10.818106131257581 -25.920284850199412 7.4671217311400095 -64.22270943212786 37.07538410934446 25.659840932638527 -53.04403268165252 42.53680480011928 6.26030060757956 -36.97029699684638 69.43106259097326 9.509125493066792 22.42292025580558 40.201536764576765 -33.119475824272634 -23.92599823796335 -30.724321472209812 -59.13858162358239 -11.40402790996862 31.117035768680726 -127.05414087497705 
3.5754097176477515 -11.06232575670791 -10.020369794913261 33.62988425922385 -31.05373596867772 6.660539012895864 20.824244794312534 -56.880714610752804 2.3567835554145384 15.561130813946722 -18.449935984857238 23.718889685410595 -25.774848601249946 -15.249650047441408 -17.917339027742525 19.41270089918994 -3.979926795407013 -11.491094036445766 -51.028057244146126 -8.377342486313365 -28.49300245654099 57.11231926247641 5.779989103182755 -38.947486269169985 -67.5060134258118 -63.23618997889814 -41.96626312989933 -31.374033755587437 -20.585314440246794 6.098892296903369 -76.24234383094229 17.813496523203042 44.944649674243564 -31.788883758877603 -77.45070556042242 15.702245141458691 -3.2487245950737513 -52.31016610935214 -26.223657932233476 -1.0627175024274425 6.618597122078795 -57.38417079873635 
8.14705457709561 -2.5669204385063513 -28.472125609726074 32.011106157638345 -4.880732760486099 -1.3258854502223612 -28.053555688939362 12.51032891244513 -24.948251738992568 -20.663887021321557 -93.99625022453536 37.947971027229535 9.072408913733543 21.550801039020218 40.587593590721156 -2.1776780134594556 52.98167076903693 -4.9373640767872145 -17.50300624381379 -8.83515480022199 28.660374794845563 4.811624736896809 56.04969619589022 -30.666587481309946 41.25187220061749 -0.32744818464241154 -44.83317629085541 49.92946319194689 61.663565722692375 34.271101888552515 -4.212080628467142 -81.02879400087221 12.770650390391253 -13.869927962574215 -59.88775361880753 15.033897639703259 50.75048949359543 9.107779261543893 13.665967460167417 -22.40514431864711 70.65749822683412 -3.3893695407568796 
-65.44390469929868 -17.066079471316815 -35.31017289763856 -9.131014400885874 -21.010231436819574 -54.52396253549478 -56.867452529925345 -69.77423108347652 -57.87135187488662 -102.27749229440566 -16.512977809932256 40.90933118852064 42.61881539309806 30.356639933017718 31.828125450866978 5.078646203782929 -16.386676707686544 33.13433889848737 -66.27446798190206 15.40098991825154 6.470275696760266 -18.10489530563995 10.274751842573007 4.922709321545805 -39.77619672898963 8.022406564602687 -60.825583989543944 -13.975182287452714 27.643064136653148 -18.058143624600863 -46.272468118682454 -35.45638703999203 -24.09637369007054 1.1538562466660878 19.042927263507394 -16.931364350088415 12.670001035084345 21.579808825861534 74.94473760343979 81.23533949987569 25.95956423422341 -24.327314099631263 
42.33296085712082 91.95964791693464 -10.65454176112694 6.460927652612369 2.7889913750014093 -6.623952624674477 23.57439544148382 -12.089236632809131 39.01790488330549 16.008958446488982 10.512929900918033 -14.222426376162941 -55.918178229044486 -28.87548649757792 30.834748062848544 14.807452500632504 8.141578029957431 27.33078147587691 51.60918804941855 -64.24959758191304 -6.371754342128921 -58.54831435488574 -14.31302490186692 26.80571477946561 12.126550540341364 45.68470062752266 -12.47993258753314 48.81766498211868 -8.143566967924176 -58.2392250234695 -96.79175931118057 2.5058439555052665 58.87671099243181 32.37984283422945 65.2977796597018 -40.28218879277882 14.106456220243103 -62.674057605061 -27.256555269020435 -34.83498763596115 -40.90626805873837 -9.33214573851825 
-37.97930948842224 -4.509394256910695 -0.2737670402268497 76.54736239524841 -30.327557504548572 4.08559826756627 -36.44711510169753 53.61427756975518 34.30656656299724 -20.68625206066472 37.578220550061594 -11.921199532077141 -54.79058616702642 -64.84848919388344 -1.8319021784484186 -46.8748349402206 29.372056496068335 2.1678169143415604 64.51869186938819 -30.25290414946088 117.37832470626229 -18.25966591519915 6.90009499809157 48.66415175514327 107.4435132410996 43.21476531970086 70.72756124468577 -57.70957769050822 -115.85142399113884 49.180624073985626 37.44899126338484 42.963667411136385 42.310398467311636 20.20027663923062 10.751528300294686 15.849515970866165 -10.324129496500126 17.946567426880584 -30.44609941363267 83.08909904553784 -3.1135721794285134 6.673174265855089 
7.835594205448361 -65.47056572027718 -10.817910027621226 76.54235369481705 34.96475302820915 74.80626969684303 -44.1131256367785 5.217542698455947 19.870194366341263 -18.883336221458606 -85.49542039892019 38.36096126344496 -12.136534447401313 -71.4320239547996 -9.890463242630538 28.256679080640293 11.867566746843323 -1.61314404988839 -57.41002501607945 -43.159869389241244 -11.34102531886512 50.29923291864572 34.16719076352774 33.03743042070053 -32.505981515350285 0.08532175796600333 45.90758539600158 30.291253401574465 66.73839493148947 12.893297147135353 -3.986246626508911 27.11063121044568 117.69603060280126 37.4543000804275 75.7119795545367 16.18405084722755 30.281572030893237 -21.56272799634679 9.475799818677674 -28.768165303805326 -45.89650642494085 -64.14121393453524 
-60.89748542079516 -30.22669930643437 0.8346126444752475 -37.11673111302001 13.243790546600296 -111.37291280279005 -51.52297182149725 7.6018680094817785 -58.561779654249136 -31.97021823768351 -35.65713014353688 -11.30865591828316 -0.5456182512607058 58.99072799803211 -8.56636398219056 5.929083743999433 -41.086479428146625 -46.13691994466066 -2.975105624815226 52.56334440604002 -6.514543485318427 -76.07923953697289 116.52191429819067 49.28381464840915 71.54793838281282 -55.65203819632491 -40.405417152083096 -57.62710136492389 8.906599257612239 -76.09800923403775 -9.917979820843623 -52.09634364863417 45.5387911313158 -74.32228598514497 48.23785748952941 -8.549994053990536 -5.380736398333041 -45.541165346728704 -24.89848241760412 -128.12711457986686 -98.23609420332595 43.62401888545971 
0.17231485311622527 -25.115109556689998 -33.75633062807997 -44.324210646495274 -122.37136908460468 -50.21665772433095 31.41264154644854 19.294541349230368 79.46252035843922 -13.452275125732108 41.97851669139048 -3.930830947942213 -23.614313740000167 -62.225016657441024 49.991484288982 46.03888862050083 27.69996670147115 -3.912710041946233 9.101974074072498 25.054561005221046 -19.484839798599598 -5.589985858935084 -103.14442406475479 2.176830741898298 53.12428971782501 -34.193969458082194 -25.641727352480252 -16.992465791296414 56.857690367221835 -153.54784239596364 50.47292591850532 -11.063816838656946 34.35528990879239 -13.605902312375301 -3.7697604216430243 28.357293255112783 68.8286983163045 -8.128709964886404 22.348353505201626 -8.416822518511312 -61.46682937634083 17.838739516576172 
-65.12031905514529 73.77392041161384 10.771685563923539 70.5371329288571 81.32642070041825 48.7623852357979 71.09340220772944 11.25563101299438 54.02202931247715 35.619853689559555 -52.40417360818962 -19.646486444028014 -4.451793727472355 28.428258018147627 13.57767391124125 20.487268644106532 -61.29340772656151 42.822966123465726 82.32413181855333 -103.28335912198668 -32.27174667983907 72.70813595288666 -56.41215260735049 14.884613556293855 1.4947562537882706 -49.139325864568924 60.10444624007565 -20.891058459630976 13.804154949978773 19.917027816437034 -10.515863059718937 -61.18464700045709 21.013507866988103 -77.93654682973843 18.59209122702374 -7.468536650998914 -43.345315557670425 -7.381942269294295 2.8073249214956313 -32.675335543725694 0.01607466641730665 13.227884193960408 
39.844308378613675 7.47882105995334 -1.484969813974203 -16.855421385008764 5.004126330259353 -37.111396181499 27.69065210942449 10.740534938728011 46.61663391398287 -71.13546719330532 58.558448970461264 -61.39730379315396 -9.294987774140388 -78.28982664156264 41.03580787236067 -32.0805903409323 49.02798700281665 -49.512453407492345 -15.307126579556376 35.28937966784484 -43.124814662804226 -9.734382906571213 88.04999547907876 67.37761037445975 -39.87806841609119 -23.832876863548055 -80.35062265966846 -22.550552447714775 -37.572661157805875 -51.31134774640645 12.239619707520788 -93.43830514860794 15.172770844619844 29.617907366266326 17.50174159795922 76.13939454834467 32.02459221930899 71.3922554306523 2.57338335091499 -6.746136847354467 37.12328894535356 -15.389421265077667 
67.48092658671061 -4.738263843744462 8.513844118388471 -46.51737289411755 -30.649713585769742 11.846973914170723 7.897196842021842 -64.30664392876089 -76.9899019131601 17.614265064756697 60.41602971222115 13.4881803184118 4.856170629314608 -24.988386132749746 -36.08731927305802 -73.3137629668428 -10.723191191897762 -3.7617750046895138 62.501767381831804 71.51232209982511 9.147082538463389 124.95511300576482 3.704272134271199 -54.756781626931414 -4.810181936787124 -14.143132815068778 -109.27841904441647 -57.48028942694325 8.952837692300243 10.868038373328954 17.25365447643475 10.317349392805525 1.19157590359517 8.146664607129047 -25.990508854960616 15.403805906434027 -86.93786610342038 83.6135959008556 36.50354633589043 -39.11662703436458 4.059635373511807 -71.55406742115575 
26.619779722883827 30.939617676664 15.015840675489144 -10.559227835132631 4.951157638146064 47.58397312371835 88.02274311514913 18.115493885737454 27.70491244792635 13.939103811702957 95.78285511075222 35.38751718035893 38.71414031828497 1.8555685602083827 19.225248884780406 16.042156462743538 78.41467223649708 -19.695918639743812 -21.42344002859125 34.32741671818386 -74.07400070337937 25.34114804363606 -50.27776594225998 -59.77497445912435 32.508537539756894 78.76900535124867 -70.78961323485917 35.37243373058433 22.165310225070083 63.15393932918479 53.52817586598494 -16.97116642571453 35.768977012232796 -26.936160111475278 4.711201538684813 -49.3898176749444 -25.626765710041497 24.3175972312971 -50.88807996878559 -35.59158702877326 -83.9796630704237 -47.907407715834495 
-93.33768749047528 -8.288124535677204 -65.56485728983806 -36.33553138534092 38.18167818844156 -10.245278222800046 -19.36662426851847 -8.73009435091905 4.954910077490486 7.760386785560735 -21.373740564472932 31.88964803682855 -55.82272608410279 35.12287387167938 44.68023767721958 30.870302209805722 -26.681225100178047 -75.73974672033086 -18.535879276577937 22.940929514770993 2.6069698002221497 -18.78203032437162 -92.4116630163787 10.268509908640896 64.22484149458154 44.03110343101882 7.178533894063057 -29.849720853865307 28.66386041951179 -20.81763249616568 -5.367643728860524 -16.05115857956959 18.920333867179597 -95.9301827832839 -35.58444193250582 -8.549912975427125 -16.81672654262686 -43.99032407088588 27.23192774779783 11.1552026968854 -62.18319746997537 11.120931429312352 
-103.01983140715997 53.47551964778616 -20.84082757221874 -8.791488694594513 14.993536823288672 -2.1639877375598786 -76.3646214962435 83.03322331014608 -13.337134653962718 -66.47047589364358 33.912074055724524 -9.205963312991175 14.668440297151385 -39.19345951583004 76.86543756653276 -53.66997282899956 -90.64549696961205 12.659310492372997 20.328030472582725 -37.33281648633905 25.062639894726278 -21.205564691150194 24.734992830649222 -49.509818782885446 6.914328402335312 -20.249728672115836 -17.736553439006073 -67.81867636176679 -37.43389199342756 -9.069842087263233 -44.42030119188267 -83.53021095290634 -22.632954563744423 70.76600652741914 -100.69954281499898 -51.96079111200628 11.286182560184258 -25.072437286591253 20.995190463445105 -65.26247420669661 97.89535773777254 31.534872234931107 
-67.08207284512089 -6.5039025169943185 -20.5701880046273 -3.246213923822035 -101.22635096120418 27.22263642761983 39.15233431807467 23.145503392755963 51.366291986966 98.8879153902905 107.76691103323125 -15.545045585312605 17.144146647825732 23.68277995233888 73.71039504179849 -40.61744347932174 -20.959313442818306 64.75953280894683 -36.58808942633306 37.56192436312842 -66.75551426341653 -0.8777689108739265 -55.02025481263612 -5.529935115276362 -6.077357687798341 -46.50155819968462 -7.254631262451992 18.94150145315483 -15.491385145633412 50.76012385139355 7.829321226275107 7.112689280994768 60.104985004216935 -93.81539114760135 19.217231826638745 32.57547944592678 69.62746881989028 0.2584615049272977 -26.92884837923502 -10.348265661738726 -64.36572154270972 -66.24477648754655 
43.354595699581246 -21.377242231089124 -84.13544099083074 -50.2004639519373 -86.55278988221833 -42.95790513038605 33.672698484219964 -4.126861835189735 62.31511758354208 38.996387409989495 39.165863697810416 10.40074924936151 -15.125125046670139 41.63069823750847 26.13911096192205 -3.4577249341634513 -21.571592053383384 22.963695732306523 -22.524832931860754 44.88926632782655 23.0264260685055 -46.42810165919618 10.190065591394035 -7.802602169773346 84.89836088149893 25.985015578407815 -48.6399620185933 15.703433736763278 -67.6423586217278 69.79194746151414 4.993837704288758 36.589067736928094 -36.0226684975034 35.611088331336795 -45.48636325487016 49.986556294825654 -37.77136539048251 -30.590849295877526 -69.678183542166 -39.00764353693134 -46.04737963598975 16.544195874068436 
26.322354376145018 -5.938061668990508 -10.61711939799072 6.4526102088985935 64.15548641371359 82.00266815867974 14.287361105419283 -38.846934825103276 -64.2121218393003 -32.12735302354841 28.464582099847707 -25.190794817666397 52.74918230169898 -7.776054975674568 -11.47678758634546 58.72252874649902 4.300272030133419 -9.286086088544158 13.550722854381823 -38.01337645736661 33.51797862823158 11.121835481679383 45.275686475944255 41.33809925473735 -45.96178689325248 19.872180382717715 17.979015110710687 61.57591791149037 -44.877396772125394 -37.69801411929235 40.162954557157384 -57.890990031846044 12.560481451761063 11.060501945565395 -34.17273055799488 69.00719402689745 -4.560699770001269 78.71600773756298 -40.43992632437949 39.76928988553871 62.345986854352624 -56.066199261800946 
-69.75012904768803 -113.61002491209543 76.72899931518187 -19.764348180098718 -27.054542757815028 -20.037250365326514 9.358541870374475 5.8300798264896505 -59.29490504378757 -60.62241415512991 49.100293639274426 -5.24099539838611 -60.300676740080945 -7.759814229203283 10.442744788996936 9.967200087506619 -44.71047152580546 -20.980417138501643 -13.963920709495998 30.862805070281993 27.846311421217425 91.2499138072891 11.302351970459776 38.24532997944291 16.566839689915355 56.08071083842366 -5.875127359748603 -37.88167071367499 22.52666915301808 -24.918628068080462 52.16912893820447 -40.850472866140564 -20.83438639638395 -6.906630970044264 93.31413663598906 -65.18375440308974 30.42999498295386 -34.7955870866756 17.513426556124276 -50.1254912961587 61.59836824351708 31.509776216386047 
4.007313110287873 0.03095455693537169 71.374506652519 -24.475267232402533 -18.709326882343575 -0.36287339291754295 -63.79542099055346 -23.182444571651146 -85.46380515053579 43.293498480113 -6.957118277450289 23.4208266509098 -2.8768732541260262 -36.433782407251954 1.5553106108770791 -29.111042014438414 44.36822392857544 -24.86769894797807 4.896851008128344 48.78038783611215 -59.91306787760739 10.746963533460342 14.87279014609857 106.60275341006749 54.56299518302684 -29.9245527774821 52.15598082679542 17.297335190179997 -56.55870961572166 9.808078560613104 9.189894274145177 43.36505368756165 -2.4142757781136 53.45056000844945 -43.216425960207836 -98.98300872345574 -28.776869944745563 -12.936202503694352 -47.467125652839606 -63.08199039511276 27.664287796939192 -13.42057075854556 
36.42573131368832 22.469698466509055 17.15461490921649 -64.92076145307644 26.04600011506146 8.307543934675715 3.1455742164923137 -13.22745987150166 -27.878915188443845 -6.377169097941519 48.44673659717594 -49.23657432773488 -55.632535612217985 24.064002568654146 -22.31046004273913 33.86463963451166 12.035631763544732 10.229461779625806 -7.731489270276083 54.2563533294837 -0.21077296293312064 -34.74235562847263 -60.431153585009476 -102.6408513500775 -28.46475004686828 -84.55924176112251 -17.729702288208113 -32.26456485782972 63.2037753530696 -6.035261823262823 0.10115811718046631 -28.01262006068737 0.3143230880031672 20.174097008870827 12.312083514187961 -14.36431594766441 -21.747884015064077 9.854425777957424 39.84506450092244 36.37537282194371 27.34465034551574 -8.833175065790828 
